{"learner":{"attributes":{"best_iteration":"17","best_score":"3.2336761532351375","scikit_learn":"{\"_estimator_type\": \"regressor\"}"},"feature_names":[],"feature_types":[],"gradient_booster":{"model":{"cats":{"enc":[],"feature_segments":[],"sorted_idx":[]},"gbtree_model_param":{"num_parallel_tree":"1","num_trees":"38"},"iteration_indptr":[0,1,2,3,4,5,6,7,8,9,10,11,12,13,14,15,16,17,18,19,20,21,22,23,24,25,26,27,28,29,30,31,32,33,34,35,36,37,38],"tree_info":[0,0,0,0,0,0,0,0,0,0,0,0,0,0,0,0,0,0,0,0,0,0,0,0,0,0,0,0,0,0,0,0,0,0,0,0,0,0],"trees":[{"base_weights":[-9.6703535E-3,-1.755558E-2,5.833333E-1,-2.3542624E-2,5.2E-1,3.6E-2,-2.5000006E-3,-5.3618446E-2,4.055942E-2,-2.5000006E-3,3.3749998E-2,-7.107145E-2,1.4399998E-1,-4.459462E-2,1.2999998E-1,1.2499999E-2,-3.8909104E-3,2.0454533E-3,3.3749998E-2,1.2499999E-2,-3.4782623E-3,1.5142857E-2,-2.0833346E-3],"categories":[],"categories_nodes":[],"categories_segments":[],"categories_sizes":[],"default_left":[0,0,0,0,0,0,0,0,0,0,0,0,0,0,0,0,0,0,0,0,0,0,0],"id":0,"left_children":[1,3,5,7,9,-1,-1,11,13,-1,-1,15,17,19,21,-1,-1,-1,-1,-1,-1,-1,-1],"loss_changes":[2.1378062E0,1.4605083E0,5.553334E-1,8.620277E-1,4.755E-1,0E0,0E0,1.0587411E0,1.0949173E0,0E0,0E0,6.259875E-1,1.3409182E0,5.617509E-1,2.0897856E0,0E0,0E0,0E0,0E0,0E0,0E0,0E0,0E0],"parents":[2147483647,0,0,1,1,2,2,3,3,4,4,7,7,8,8,11,11,12,12,13,13,14,14],"right_children":[2,4,6,8,10,-1,-1,12,14,-1,-1,16,18,20,22,-1,-1,-1,-1,-1,-1,-1,-1],"split_conditions":[1.3E1,1.3681818E1,6E1,1.184E2,1.106E2,9.5E-1,-3.5E-1,9.2E1,1.145E2,-9.0000004E-1,4.5000002E-1,4.66E1,7.3E0,2.511111E1,1.188E2,3E-1,-2.5E-1,2.099999E-1,7E-1,4E-1,-1E-1,6.999999E-1,0E0],"split_indices":[125,53,15,41,1,0,0,58,44,0,0,43,123,31,40,0,0,0,0,0,0,0,0],"split_type":[0,0,0,0,0,0,0,0,0,0,0,0,0,0,0,0,0,0,0,0,0,0,0],"sum_hessian":[4.54E2,4.49E2,5E0,4.45E2,4E0,4E0,1E0,3.03E2,1.42E2,1E0,3E0,2.79E2,2.4E1,7.3E1,6.9E1,5E0,2.74E2,2.1E1,3E0,5E0,6.8E1,3.4E1,3.5E1],"tree_param":{"num_deleted":"0","num_feature":"140","num_nodes":"23","size_leaf_vector":"1"}},{"base_weights":[-5.180204E-3,-3.641163E-2,1.742424E-1,-4.809785E-2,3.25E-1,-8.823552E-3,3.5757574E-1,3.2E-1,-5.3022E-2,-4.166668E-3,6.285714E-1,-6.3333355E-2,3.2E-1,9.374998E-2,5.722222E-1,-3.3333343E-3,3E-2,-6.388062E-2,6.999998E-2,3.75E-2,-2.5000006E-3,-4.8275874E-3,2.2499999E-2,3E-2,-3.3333343E-3,3E-2,-2.1428594E-2,4.05E-2,2.4444443E-1,6.6666654E-3,-3.4556587E-3,3E-2,5.3571316E-4,-4.615386E-3,2.2499999E-2,2.5999999E-2,-4.000001E-3],"categories":[],"categories_nodes":[],"categories_segments":[],"categories_sizes":[],"default_left":[0,0,0,0,0,0,0,0,0,0,0,0,0,0,0,0,0,0,0,0,0,0,0,0,0,0,0,0,0,0,0,0,0,0,0,0,0],"id":1,"left_children":[1,3,5,7,9,11,13,15,17,-1,19,21,23,25,27,-1,-1,29,31,-1,-1,-1,-1,-1,-1,-1,33,-1,35,-1,-1,-1,-1,-1,-1,-1,-1],"loss_changes":[2.494354E0,1.6163512E0,2.2182527E0,6.839927E-1,1.5398811E0,6.296863E-1,1.8151202E0,5.813333E-1,4.9072063E-1,0E0,6.142857E-1,5.550115E-1,5.813333E-1,9.458036E-1,1.2048883E0,0E0,0E0,3.549124E-1,9.3621427E-1,0E0,0E0,0E0,0E0,0E0,0E0,0E0,5.0934064E-1,0E0,8.462223E-1,0E0,0E0,0E0,0E0,0E0,0E0,0E0,0E0],"parents":[2147483647,0,0,1,1,2,2,3,3,4,4,5,5,6,6,7,7,8,8,10,10,11,11,12,12,13,13,14,14,17,17,18,18,26,26,28,28],"right_children":[2,4,6,8,10,12,14,16,18,-1,20,22,24,26,28,-1,-1,30,32,-1,-1,-1,-1,-1,-1,-1,34,-1,36,-1,-1,-1,-1,-1,-1,-1,-1],"split_conditions":[3.006401E2,1.243E2,2.3921568E0,6.8E0,2.79E1,1.2392858E1,1E0,1.172E2,4.16E1,-2.199997E-1,1.204E2,4.98E1,4.7E1,9.978724E0,3.3E1,-1.0875E0,8.650002E-1,1.0109091E2,4.66E1,8.050003E-1,-1.449997E-1,-9.3750045E-2,1.6500016E-1,3.6500016E-1,-2.8499985E-1,1.02500156E-1,1.1567107E1,8.625E-1,7.8666664E1,5.125E-1,-1.7940031E-1,2.8499985E-1,4.299993E-2,-2.577498E-1,4.2750016E-1,3.6500016E-1,-1.449997E-1],"split_indices":[79,33,22,27,31,53,17,8,27,0,1,59,2,53,59,0,0,70,43,0,0,0,0,0,0,0,29,0,26,0,0,0,0,0,0,0,0],"split_type":[0,0,0,0,0,0,0,0,0,0,0,0,0,0,0,0,0,0,0,0,0,0,0,0,0,0,0,0,0,0,0,0,0,0,0,0,0],"sum_hessian":[4.43E2,3.78E2,6.5E1,3.67E2,1.1E1,3.3E1,3.2E1,4E0,3.63E2,5E0,6E0,2.9E1,4E0,1.5E1,1.7E1,2E0,2E0,3.34E2,2.9E1,5E0,1E0,2.8E1,1E0,2E0,2E0,2E0,1.3E1,9E0,8E0,8E0,3.26E2,2E0,2.7E1,1.2E1,1E0,4E0,4E0],"tree_param":{"num_deleted":"0","num_feature":"140","num_nodes":"37","size_leaf_vector":"1"}},{"base_weights":[-8.258953E-3,-5.8529437E-2,1.4862382E-1,-6.1356954E-2,2.2499999E-2,8.387095E-2,4.9411762E-1,-6.656629E-2,1.6249998E-1,4.7190987E-2,3.6E-2,6.7692304E-1,-4.000001E-3,1.9999997E-1,-7.208592E-2,-4.166668E-3,3E-2,1.8823506E-2,5.2E-1,-3.3333343E-3,4.0909093E-2,3E-2,-4.000001E-3,2.2499999E-2,-3.7538472E-3,-2.500001E-3,9.791666E-3,3.3749998E-2,-2.5000006E-3],"categories":[],"categories_nodes":[],"categories_segments":[],"categories_sizes":[],"default_left":[0,0,0,0,0,0,0,0,0,0,0,0,0,0,0,0,0,0,0,0,0,0,0,0,0,0,0,0,0],"id":2,"left_children":[1,3,5,7,-1,9,11,13,15,17,-1,19,-1,21,23,-1,-1,25,27,-1,-1,-1,-1,-1,-1,-1,-1,-1,-1],"loss_changes":[3.5418837E0,5.164889E-1,2.3970754E0,4.061402E-1,0E0,2.1360087E0,1.838335E0,5.0290406E-1,9.104167E-1,1.1839155E0,0E0,1.4200463E0,0E0,8.32E-1,5.4285836E-1,0E0,0E0,1.045299E0,4.755E-1,0E0,0E0,0E0,0E0,0E0,0E0,0E0,0E0,0E0,0E0],"parents":[2147483647,0,0,1,1,2,2,3,3,5,5,6,6,7,7,8,8,9,9,11,11,13,13,14,14,17,17,18,18],"right_children":[2,4,6,8,-1,10,12,14,16,18,-1,20,-1,22,24,-1,-1,26,28,-1,-1,-1,-1,-1,-1,-1,-1,-1,-1],"split_conditions":[1.2001359E2,1.252E2,4.395349E0,5.147059E0,1.3897018E-1,1.3E1,1.14E2,4.66E1,1.163E2,6.215224E1,9.1538775E-1,-3.9588866E0,-8.711243E-2,3.204145E1,9.941964E1,-5.828125E-1,2.2146988E-1,4.764E2,1.209E2,-4.8602983E-1,1.223048E0,2.7074966E-1,-7.060303E-1,8.1937486E-1,-1.8409012E-1,-3.6029816E-2,3.6308196E-1,2.0896988E-1,-5.360298E-1],"split_indices":[131,45,55,23,0,125,69,43,0,56,0,83,0,25,74,0,0,138,1,0,0,0,0,0,0,0,0,0,0],"split_type":[0,0,0,0,0,0,0,0,0,0,0,0,0,0,0,0,0,0,0,0,0,0,0,0,0,0,0,0,0],"sum_hessian":[4.47E2,3.39E2,1.08E2,3.38E2,1E0,9.2E1,1.6E1,3.31E2,7E0,8.8E1,4E0,1.2E1,4E0,6E0,3.25E2,5E0,2E0,8.4E1,4E0,2E0,1E1,2E0,4E0,1E0,3.24E2,6.1E1,2.3E1,3E0,1E0],"tree_param":{"num_deleted":"0","num_feature":"140","num_nodes":"29","size_leaf_vector":"1"}},{"base_weights":[2.8384042E-3,-2.1749433E-2,2.9166666E-1,-4.2972997E-2,1.2407405E-1,4.0909067E-2,6.4E-1,4.1666666E-1,-5.0410982E-2,6.53061E-2,5.833333E-1,4.1666666E-1,-4.7058836E-3,-3.3333343E-3,7.538461E-1,-3.3333343E-3,3.3749998E-2,-7.5697236E-2,5.217368E-3,-4.761906E-3,1.7931032E-1,3.6E-2,-2.5000006E-3,3.3749998E-2,-3.3333343E-3,4.125E-2,-2.5000006E-3,-4.1493787E-3,4.5454535E-3,-1.7553204E-3,8.863635E-3,2.4999888E-4,2.55E-2],"categories":[],"categories_nodes":[],"categories_segments":[],"categories_sizes":[],"default_left":[0,0,0,0,0,0,0,0,0,0,0,0,0,0,0,0,0,0,0,0,0,0,0,0,0,0,0,0,0,0,0,0,0],"id":3,"left_children":[1,3,5,7,9,11,13,15,17,19,21,23,-1,-1,25,-1,-1,27,29,-1,31,-1,-1,-1,-1,-1,-1,-1,-1,-1,-1,-1,-1],"loss_changes":[3.2589045E0,1.314472E0,3.118318E0,1.2859583E0,1.4193499E0,1.1554368E0,1.2570257E0,7.9416656E-1,5.138158E-1,9.139104E-1,5.553334E-1,7.9416656E-1,0E0,0E0,7.848077E-1,0E0,0E0,3.124131E-1,8.0408424E-1,0E0,1.6690862E0,0E0,0E0,0E0,0E0,0E0,0E0,0E0,0E0,0E0,0E0,0E0,0E0],"parents":[2147483647,0,0,1,1,2,2,3,3,4,4,5,5,6,6,7,7,8,8,9,9,10,10,11,11,14,14,17,17,18,18,20,20],"right_children":[2,4,6,8,10,12,14,16,18,20,22,24,-1,-1,26,-1,-1,28,30,-1,32,-1,-1,-1,-1,-1,-1,-1,-1,-1,-1,-1,-1],"split_conditions":[1.24E2,3.006401E2,6.666667E-1,8.695652E-2,1.17916664E2,1.204E2,4E0,1.1275E2,1.1733729E2,2.4722223E0,1.175E2,5.95E1,-1.1878703E-1,-5.303108E-1,1.209E2,-9.7392046E-1,8.113014E-1,1.0660714E2,3.7E1,-3.5648775E-1,4.6443958E2,3.2859573E-1,-1.3561074E0,5.765511E-1,-1.3594818E-1,8.3042973E-1,-1.0359482E0,-1.7211114E-1,6.497032E-1,-1.5312551E-1,3.3609506E-1,1.5855163E-1,7.784057E-1],"split_indices":[45,79,80,28,65,70,18,45,132,54,9,10,0,0,1,0,0,36,27,0,120,0,0,0,0,0,0,0,0,0,0,0,0],"split_type":[0,0,0,0,0,0,0,0,0,0,0,0,0,0,0,0,0,0,0,0,0,0,0,0,0,0,0,0,0,0,0,0,0],"sum_hessian":[4.57E2,4.22E2,3.5E1,3.69E2,5.3E1,2.1E1,1.4E1,5E0,3.64E2,4.8E1,5E0,5E0,1.6E1,2E0,1.2E1,2E0,3E0,2.5E2,1.14E2,2E1,2.8E1,4E0,1E0,3E0,2E0,1.1E1,1E0,2.4E2,1E1,9.3E1,2.1E1,1.9E1,9E0],"tree_param":{"num_deleted":"0","num_feature":"140","num_nodes":"33","size_leaf_vector":"1"}},{"base_weights":[-2.0556768E-2,-2.8509744E-2,3.6E-2,-5.722382E-2,6.306304E-2,-6.901843E-2,8.214284E-2,-6.4406805E-2,2.0377356E-1,2.2499999E-2,-7.200003E-2,3.5555553E-1,-4.5000024E-2,-4.9056616E-3,1.9999997E-1,3.3142856E-1,-4.2105287E-2,2.2499999E-2,-3.7500013E-3,-3.7500008E-3,2.9166667E-2,-4.7368435E-3,2.2499999E-2,-4.000001E-3,3E-2,4E-2,8.148148E-3,2.2499999E-2,-4.7222236E-3],"categories":[],"categories_nodes":[],"categories_segments":[],"categories_sizes":[],"default_left":[0,0,0,0,0,0,0,0,0,0,0,0,0,0,0,0,0,0,0,0,0,0,0,0,0,0,0,0,0],"id":4,"left_children":[1,3,-1,5,7,9,11,13,15,-1,17,19,21,-1,23,25,27,-1,-1,-1,-1,-1,-1,-1,-1,-1,-1,-1,-1],"loss_changes":[2.7709835E0,1.2210338E0,0E0,5.859219E-1,2.004059E0,5.36886E-1,9.8934925E-1,5.4544294E-1,1.677501E0,0E0,5.426998E-1,9.2638886E-1,5.350263E-1,0E0,8.32E-1,2.6324656E0,5.318713E-1,0E0,0E0,0E0,0E0,0E0,0E0,0E0,0E0,0E0,0E0,0E0,0E0],"parents":[2147483647,0,0,1,1,3,3,4,4,5,5,6,6,7,7,8,8,10,10,11,11,12,12,14,14,15,15,16,16],"right_children":[2,4,-1,6,8,10,12,14,16,-1,18,20,22,-1,24,26,28,-1,-1,-1,-1,-1,-1,-1,-1,-1,-1,-1,-1],"split_conditions":[1.3E1,1.2011171E2,8.280968E-1,6.4E1,1.145E2,2.6E0,1.0871429E2,5.78E2,5E0,4.8965913E-1,2.19E1,8.160473E0,6.34E1,-1.0892307E-1,1.0410714E2,1.222E2,6.8E0,4.0678024E-1,-1.94966E-1,-4.8153535E-1,7.394852E-1,-1.08523846E-1,1.3702469E-1,-2.4824448E-1,6.7111284E-1,1.2204735E0,3.1411895E-1,7.707367E-1,-1.3163458E-2],"split_indices":[125,131,0,35,44,59,64,138,73,0,62,29,10,0,74,41,27,0,0,0,0,0,0,0,0,0,0,0,0],"split_type":[0,0,0,0,0,0,0,0,0,0,0,0,0,0,0,0,0,0,0,0,0,0,0,0,0,0,0,0,0],"sum_hessian":[4.66E2,4.62E2,4E0,3.52E2,1.1E2,3.25E2,2.7E1,5.8E1,5.2E1,1E0,3.24E2,8E0,1.9E1,5.2E1,6E0,3.4E1,1.8E1,1E0,3.23E2,3E0,5E0,1.8E1,1E0,4E0,2E0,8E0,2.6E1,1E0,1.7E1],"tree_param":{"num_deleted":"0","num_feature":"140","num_nodes":"29","size_leaf_vector":"1"}},{"base_weights":[-2.2532213E-2,-3.239133E-2,6.285714E-1,-5.951745E-2,8.295452E-2,3.75E-2,-2.5000006E-3,-7.4687526E-2,3.148146E-2,2.2972949E-2,3.733333E-1,2.6666665E-1,-7.767298E-2,1.8399997E-1,-4.8333346E-3,3E-2,-1.3889124E-3,3.75E-2,1.0999998E-1,2.2499999E-2,-2.5000006E-3,1.999999E-3,-4.1611856E-3,3.3749998E-2,4.318181E-3,-1.846155E-3,1.4374998E-2,2.125E-2,-4.285715E-3],"categories":[],"categories_nodes":[],"categories_segments":[],"categories_sizes":[],"default_left":[0,0,0,0,0,0,0,0,0,0,0,0,0,0,0,0,0,0,0,0,0,0,0,0,0,0,0,0,0],"id":5,"left_children":[1,3,5,7,9,-1,-1,11,13,15,17,19,21,23,-1,-1,25,-1,27,-1,-1,-1,-1,-1,-1,-1,-1,-1,-1],"loss_changes":[3.011757E0,1.4442246E0,6.142857E-1,5.1726305E-1,1.5241525E0,0E0,0E0,3.4682393E-1,1.0732149E0,1.0410848E0,1.4053333E0,1.9666666E-1,2.1103728E-1,1.1401908E0,0E0,0E0,7.497265E-1,0E0,6.5292865E-1,0E0,0E0,0E0,0E0,0E0,0E0,0E0,0E0,0E0,0E0],"parents":[2147483647,0,0,1,1,2,2,3,3,4,4,7,7,8,8,9,9,10,10,11,11,12,12,13,13,16,16,18,18],"right_children":[2,4,6,8,10,-1,-1,12,14,16,18,20,22,24,-1,-1,26,-1,28,-1,-1,-1,-1,-1,-1,-1,-1,-1,-1],"split_conditions":[1.3E1,1.0535714E2,6E1,3.5E0,5.685E2,7.866921E-1,-3.471245E-1,2.19E1,2E0,6.8E0,2.657005E-1,1.153E2,1.0109091E2,4.5E1,-1.5097204E-1,7.3219985E-1,3.26E1,6.375572E-1,5.38E1,3.8644105E-1,-1.365654E0,4.152088E-1,-1.5135163E-1,1.1490281E0,3.6532813E-1,-3.2968577E-2,3.0761185E-1,1.9936828E-1,-1.5258789E-6],"split_indices":[125,36,15,81,138,0,0,62,48,27,28,0,70,2,0,0,31,0,42,0,0,0,0,0,0,0,0,0,0],"split_type":[0,0,0,0,0,0,0,0,0,0,0,0,0,0,0,0,0,0,0,0,0,0,0,0,0,0,0,0,0],"sum_hessian":[4.65E2,4.59E2,6E0,3.72E2,8.7E1,5E0,1E0,3.19E2,5.3E1,7.3E1,1.4E1,2E0,3.17E2,2.4E1,2.9E1,2E0,7.1E1,5E0,9E0,1E0,1E0,1.4E1,3.03E2,3E0,2.1E1,6.4E1,7E0,3E0,6E0],"tree_param":{"num_deleted":"0","num_feature":"140","num_nodes":"29","size_leaf_vector":"1"}},{"base_weights":[-2.5708085E-2,-5.323E-2,1.2054792E-1,-5.9946973E-2,1.8181816E-1,3.4999978E-2,4.7857141E-1,-6.250002E-2,2.2499999E-2,-4.285715E-3,5.2E-1,-8.928595E-3,5.2E-1,-3.7500008E-3,6.363636E-1,-4.0756326E-2,-4.96403E-3,-2.5000006E-3,3.3749998E-2,-4.1509457E-2,4.2499998E-1,-2.5000006E-3,3.3749998E-2,4E-2,-3.3333343E-3,1.0499999E-2,-2.5764205E-3,-4.87805E-3,6.9230758E-3,-2.5000006E-3,3E-2],"categories":[],"categories_nodes":[],"categories_segments":[],"categories_sizes":[],"default_left":[0,0,0,0,0,0,0,0,0,0,0,0,0,0,0,0,0,0,0,0,0,0,0,0,0,0,0,0,0,0,0],"id":6,"left_children":[1,3,5,7,9,11,13,15,-1,-1,17,19,21,-1,23,25,-1,-1,-1,27,29,-1,-1,-1,-1,-1,-1,-1,-1,-1,-1],"loss_changes":[1.8540044E0,6.2189996E-1,2.2191067E0,5.1894903E-1,1.0397922E0,1.2829642E0,1.2706168E0,2.9665804E-1,0E0,0E0,4.755E-1,8.093565E-1,4.755E-1,0E0,1.318788E0,6.536988E-1,0E0,0E0,0E0,5.4815394E-1,3.6249995E-1,0E0,0E0,0E0,0E0,0E0,0E0,0E0,0E0,0E0,0E0],"parents":[2147483647,0,0,1,1,2,2,3,3,4,4,5,5,6,6,7,7,10,10,11,11,12,12,14,14,15,15,19,19,20,20],"right_children":[2,4,6,8,10,12,14,16,-1,-1,18,20,22,-1,24,26,-1,-1,-1,28,30,-1,-1,-1,-1,-1,-1,-1,-1,-1,-1],"split_conditions":[3.5E0,4.92E1,1.24344536E2,1.5E1,3.03E1,2E0,9.622642E0,1.6154064E3,1.7893754E-1,-1.9149856E-1,1.151E2,3.22E1,1.086E2,-9.740449E-3,1.209E2,1.05E2,-2.1607092E-1,-2.2733467E0,2.92231E-1,1.1636364E1,5.42E1,-3.6605301E-1,1.0915765E0,7.473572E-1,-8.126289E-1,4.927238E-1,-4.179933E-2,-1.5045989E-1,4.724722E-1,-2.1923828E-1,1.492569E-1],"split_indices":[81,59,133,125,31,85,21,78,0,0,1,30,9,0,1,41,0,0,0,53,11,0,0,0,0,0,0,0,0,0,0],"split_type":[0,0,0,0,0,0,0,0,0,0,0,0,0,0,0,0,0,0,0,0,0,0,0,0,0,0,0,0,0,0,0],"sum_hessian":[4.58E2,3.86E2,7.2E1,3.76E2,1E1,5.9E1,1.3E1,3.75E2,1E0,6E0,4E0,5.5E1,4E0,3E0,1E1,2.37E2,1.38E2,1E0,3E0,5.2E1,3E0,1E0,3E0,8E0,2E0,9E0,2.28E2,4E1,1.2E1,1E0,2E0],"tree_param":{"num_deleted":"0","num_feature":"140","num_nodes":"31","size_leaf_vector":"1"}},{"base_weights":[-1.1038985E-2,-5.0862093E-2,1.0956519E-1,1.3181816E-1,-6.299697E-2,2.4691334E-2,3.0285713E-1,3.6363634E-1,-4.5833346E-3,-7.649009E-2,9.6153826E-2,3.25E-1,-2.714288E-2,-4.545456E-3,4.64E-1,6.285714E-1,-4.000001E-3,-7.973424E-2,2.2499999E-2,-8.695675E-3,3.3749998E-2,-4.285715E-3,3.75E-2,1.2777776E-1,-7.924531E-2,6.421052E-1,-4.285715E-3,3.75E-2,-2.5000006E-3,1.1999989E-3,-4.4404343E-3,-4.7368435E-3,1.6E-2,-1.3333345E-3,3.3749998E-2,-4.9038474E-3,2.2499999E-2,3.647059E-2,-3.3333343E-3],"categories":[],"categories_nodes":[],"categories_segments":[],"categories_sizes":[],"default_left":[0,0,0,0,0,0,0,0,0,0,0,0,0,0,0,0,0,0,0,0,0,0,0,0,0,0,0,0,0,0,0,0,0,0,0,0,0,0,0],"id":7,"left_children":[1,3,5,7,9,11,13,15,-1,17,19,21,23,-1,25,27,-1,29,-1,31,-1,-1,-1,33,35,37,-1,-1,-1,-1,-1,-1,-1,-1,-1,-1,-1,-1,-1],"loss_changes":[2.2244816E0,7.797511E-1,1.8791467E0,1.1731061E0,7.0956814E-1,1.2696887E0,2.263023E0,1.343169E0,0E0,5.5170095E-1,1.5838546E0,2.1589284E0,5.751476E-1,0E0,2.5027137E0,6.142857E-1,0E0,2.854718E-1,0E0,6.807872E-1,0E0,0E0,0E0,1.5392778E0,5.7236207E-1,1.2243547E0,0E0,0E0,0E0,0E0,0E0,0E0,0E0,0E0,0E0,0E0,0E0,0E0,0E0],"parents":[2147483647,0,0,1,1,2,2,3,3,4,4,5,5,6,6,7,7,9,9,10,10,11,11,12,12,14,14,15,15,17,17,19,19,23,23,24,24,25,25],"right_children":[2,4,6,8,10,12,14,16,-1,18,20,22,24,-1,26,28,-1,30,-1,32,-1,-1,-1,34,36,38,-1,-1,-1,-1,-1,-1,-1,-1,-1,-1,-1,-1,-1],"split_conditions":[1.1957573E2,6.34E1,1.0457589E2,2E0,9.24E1,1.18657455E2,5.2653553E1,1.186E2,-1.2774737E-1,3.9666668E1,7.3E0,3.284943E1,5.48E1,-8.896478E-2,1.2583449E2,1.187E2,-2.838295E-1,1E0,1.9311142E-1,3E0,6.485184E-1,-1.8192367E-1,3.6023638E-1,5.3666668E1,1.328E2,1.2E1,-2.7025682E-1,7.1216816E-1,-2.9563674E-1,2.5159863E-1,-2.2761317E-1,-5.0696433E-2,3.2777253E-1,3.7752505E-2,4.517891E-1,-1.6286474E-2,5.2775573E-2,8.459487E-1,-5.3896946E-1],"split_indices":[131,58,74,16,58,133,24,9,0,63,123,57,10,0,129,1,0,48,0,16,0,0,0,10,41,21,0,0,0,0,0,0,0,0,0,0,0,0,0],"split_type":[0,0,0,0,0,0,0,0,0,0,0,0,0,0,0,0,0,0,0,0,0,0,0,0,0,0,0,0,0,0,0,0,0,0,0,0,0,0,0],"sum_hessian":[4.61E2,3.47E2,1.14E2,2.1E1,3.26E2,8E1,3.4E1,1E1,1.1E1,3.01E2,2.5E1,1.1E1,6.9E1,1E1,2.4E1,6E0,4E0,3E2,1E0,2.2E1,3E0,6E0,5E0,1.7E1,5.2E1,1.8E1,6E0,5E0,1E0,2.4E1,2.76E2,1.8E1,4E0,1.4E1,3E0,5.1E1,1E0,1.6E1,2E0],"tree_param":{"num_deleted":"0","num_feature":"140","num_nodes":"39","size_leaf_vector":"1"}},{"base_weights":[-2.1521762E-2,-4.9470924E-2,1.0602407E-1,-5.1989414E-2,2.2499999E-2,2.6562477E-2,3.55E-1,-6.783442E-2,2.6562477E-2,5.2E-1,-1.5000024E-2,-4.285715E-3,5.4999995E-1,1.9999997E-1,-7.370132E-2,2.7272725E-1,-2.4074098E-2,-2.5000006E-3,3.3749998E-2,1.5624997E-1,-7.555558E-2,6.583333E-1,-3.3333343E-3,3E-2,-4.000001E-3,-4.7598267E-3,-5.625012E-4,-4.166668E-3,2.9166667E-2,-2.9000014E-3,1.6E-2,-4.545456E-3,2.9166667E-2,-4.886365E-3,2.2499999E-2,-3.3333343E-3,4.05E-2],"categories":[],"categories_nodes":[],"categories_segments":[],"categories_sizes":[],"default_left":[0,0,0,0,0,0,0,0,0,0,0,0,0,0,0,0,0,0,0,0,0,0,0,0,0,0,0,0,0,0,0,0,0,0,0,0,0],"id":8,"left_children":[1,3,5,7,-1,9,11,13,15,17,19,-1,21,23,25,27,29,-1,-1,31,33,35,-1,-1,-1,-1,-1,-1,-1,-1,-1,-1,-1,-1,-1,-1,-1],"loss_changes":[1.6450527E0,4.9888617E-1,1.6326444E0,4.710368E-1,0E0,1.3203439E0,1.7659287E0,5.08147E-1,8.0432194E-1,4.755E-1,6.340139E-1,0E0,9.791665E-1,8.32E-1,4.1238952E-1,1.2651515E0,6.489037E-1,0E0,0E0,1.7419509E0,5.6833845E-1,1.3734999E0,0E0,0E0,0E0,0E0,0E0,0E0,0E0,0E0,0E0,0E0,0E0,0E0,0E0,0E0,0E0],"parents":[2147483647,0,0,1,1,2,2,3,3,5,5,6,6,7,7,8,8,9,9,10,10,12,12,13,13,14,14,15,15,16,16,19,19,20,20,21,21],"right_children":[2,4,6,8,-1,10,12,14,16,18,20,-1,22,24,26,28,30,-1,-1,32,34,36,-1,-1,-1,-1,-1,-1,-1,-1,-1,-1,-1,-1,-1,-1,-1],"split_conditions":[1.0535714E2,1.4E1,1.1757143E2,1.1622222E1,1.708046E-1,6.6E0,1.19982155E2,8.527273E0,5.24E1,1.152E2,5.48E1,-1.7784119E-3,6.450946E1,1.0897436E1,4.764E2,2.4081632E-1,4E0,-2.5674364E-1,1.1208909E0,2.7E1,6.66E1,2.58E1,-1.4811173E-1,3.805893E-1,-1.8924943E-1,-1.7261101E-1,-1.4859027E-2,-1.12729646E-1,6.160927E-1,-9.706126E-3,3.113838E-1,-1.8039125E-1,4.9345857E-1,-7.074405E-2,6.327744E-2,-1.1551819E-1,6.676918E-1],"split_indices":[36,125,12,53,0,59,131,53,43,0,10,0,24,21,138,28,16,0,0,30,11,62,0,0,0,0,0,0,0,0,0,0,0,0,0,0,0],"split_type":[0,0,0,0,0,0,0,0,0,0,0,0,0,0,0,0,0,0,0,0,0,0,0,0,0,0,0,0,0,0,0,0,0,0,0,0,0],"sum_hessian":[4.59E2,3.77E2,8.2E1,3.76E2,1E0,6.3E1,1.9E1,3.13E2,6.3E1,4E0,5.9E1,6E0,1.3E1,6E0,3.07E2,1E1,5.3E1,1E0,3E0,1.5E1,4.4E1,1.1E1,2E0,2E0,4E0,2.28E2,7.9E1,5E0,5E0,4.9E1,4E0,1E1,5E0,4.3E1,1E0,2E0,9E0],"tree_param":{"num_deleted":"0","num_feature":"140","num_nodes":"37","size_leaf_vector":"1"}},{"base_weights":[-3.442268E-2,-5.8611847E-2,9.859153E-2,-6.6849336E-2,6.399998E-2,4.2187475E-2,5.3749996E-1,2.6666665E-1,-6.9421515E-2,-8.695675E-3,3E-2,2.0869564E-1,-5.0000023E-2,-3.3333343E-3,3.75E-2,2.2499999E-2,-2.5000006E-3,9.090907E-2,-7.4220985E-2,2.4999999E-1,-4.7222236E-3,-8.333355E-3,4.083333E-1,2.2499999E-2,-7.317075E-2,-4.444446E-3,3E-2,-7.500012E-4,-4.3027224E-3,3E-2,-3.7500008E-3,2.2499999E-2,-4.545456E-3,-3.7500008E-3,2.8888887E-2,-4.8717964E-3,1.3333333E-2],"categories":[],"categories_nodes":[],"categories_segments":[],"categories_sizes":[],"default_left":[0,0,0,0,0,0,0,0,0,0,0,0,0,0,0,0,0,0,0,0,0,0,0,0,0,0,0,0,0,0,0,0,0,0,0,0,0],"id":9,"left_children":[1,3,5,7,9,11,13,15,17,19,-1,21,23,-1,-1,-1,-1,25,27,29,-1,31,33,-1,35,-1,-1,-1,-1,-1,-1,-1,-1,-1,-1,-1,-1],"loss_changes":[1.4826124E0,3.9717364E-1,1.7350154E0,3.3163154E-1,9.793391E-1,9.928329E-1,1.0770833E0,1.9666666E-1,2.8607702E-1,5.3381646E-1,0E0,9.9992764E-1,5.1951224E-1,0E0,0E0,0E0,0E0,1.0602021E0,2.4608743E-1,7.2749996E-1,0E0,4.9507576E-1,1.0261109E0,0E0,3.6407757E-1,0E0,0E0,0E0,0E0,0E0,0E0,0E0,0E0,0E0,0E0,0E0,0E0],"parents":[2147483647,0,0,1,1,2,2,3,3,4,4,5,5,6,6,7,7,8,8,9,9,11,11,12,12,17,17,18,18,19,19,21,21,22,22,24,24],"right_children":[2,4,6,8,10,12,14,16,18,20,-1,22,24,-1,-1,-1,-1,26,28,30,-1,32,34,-1,36,-1,-1,-1,-1,-1,-1,-1,-1,-1,-1,-1,-1],"split_conditions":[3.006401E2,1.0660714E2,3.1833334E1,2.19E1,6.1798702E1,3.5574832E2,1.062E2,1.153E2,1.0243902E0,2.77E1,6.2199783E-1,1.0379464E2,9.941964E1,-1.4070587E-1,6.343071E-1,3.6156008E-1,-1.2905174E0,1.149E2,5.24E1,5.82E1,-1.6333928E-2,-9E0,5.2712646E1,6.8518984E-1,1.1645216E1,-2.7225265E-1,3.4564134E-1,-1.6353914E-1,-1.00094914E-1,5.6900865E-1,-3.6742708E-1,5.610657E-3,-3.043964E-2,-3.2884446E-1,3.8887253E-1,-5.373469E-2,1.7973863E-1],"split_indices":[79,36,30,62,56,79,9,0,76,30,0,74,74,0,0,0,0,33,43,11,0,71,24,0,29,0,0,0,0,0,0,0,0,0,0,0,0],"split_type":[0,0,0,0,0,0,0,0,0,0,0,0,0,0,0,0,0,0,0,0,0,0,0,0,0,0,0,0,0,0,0,0,0,0,0,0,0],"sum_hessian":[4.58E2,3.88E2,7E1,3.64E2,2.4E1,6.3E1,7E0,2E0,3.62E2,2.2E1,2E0,2.2E1,4.1E1,2E0,5E0,1E0,1E0,1E1,3.52E2,5E0,1.7E1,1.1E1,1.1E1,1E0,4E1,8E0,2E0,5.9E1,2.93E2,2E0,3E0,1E0,1E1,3E0,8E0,3.8E1,2E0],"tree_param":{"num_deleted":"0","num_feature":"140","num_nodes":"37","size_leaf_vector":"1"}},{"base_weights":[-1.2923753E-2,-6.2422384E-2,9.271521E-2,-8.060839E-2,1.833331E-2,1.9718307E-1,-2.3547514E-8,-8.429121E-2,2.6666665E-1,-5.1162813E-2,1.8333331E-1,3.7499997E-1,1.3888866E-2,-2.2784833E-2,3E-2,1.1999998E-1,-8.7937765E-2,-2.5000006E-3,2.2499999E-2,-7.380955E-2,2.2499999E-2,4.8571426E-1,-8.333355E-3,4.6999997E-1,-4.285715E-3,-6.2068988E-2,2.8749996E-1,-4.6052653E-2,4.2499998E-1,-3.7500008E-3,2.2499999E-2,4.166666E-3,-4.5833346E-3,1.3333333E-2,-4.8750015E-3,3.6E-2,-3.3333343E-3,-4.545456E-3,2.2499999E-2,1.2941176E-2,3.4642857E-2,-4.814816E-3,1.3333333E-2,-3.7500008E-3,2.5999999E-2,-4.918034E-3,7.8124986E-3,-2.5000006E-3,3E-2],"categories":[],"categories_nodes":[],"categories_segments":[],"categories_sizes":[],"default_left":[0,0,0,0,0,0,0,0,0,0,0,0,0,0,0,0,0,0,0,0,0,0,0,0,0,0,0,0,0,0,0,0,0,0,0,0,0,0,0,0,0,0,0,0,0,0,0,0,0],"id":10,"left_children":[1,3,5,7,9,11,13,15,17,19,21,23,25,27,-1,29,31,-1,-1,33,-1,35,37,39,-1,41,43,45,47,-1,-1,-1,-1,-1,-1,-1,-1,-1,-1,-1,-1,-1,-1,-1,-1,-1,-1,-1,-1],"loss_changes":[2.473868E0,4.7437465E-1,1.4625502E0,3.5884202E-1,6.9739145E-1,2.3088815E0,1.1210127E0,2.0498693E-1,1.9666666E-1,5.212514E-1,1.047262E0,1.6159286E0,7.6602966E-1,8.426716E-1,0E0,3.5549998E-1,1.7177391E-1,0E0,0E0,3.647738E-1,0E0,9.539046E-1,4.9507576E-1,1.2325382E0,0E0,3.5197955E-1,7.1325004E-1,8.1960475E-1,3.6249995E-1,0E0,0E0,0E0,0E0,0E0,0E0,0E0,0E0,0E0,0E0,0E0,0E0,0E0,0E0,0E0,0E0,0E0,0E0,0E0,0E0],"parents":[2147483647,0,0,1,1,2,2,3,3,4,4,5,5,6,6,7,7,8,8,9,9,10,10,11,11,12,12,13,13,15,15,16,16,19,19,21,21,22,22,23,23,25,25,26,26,27,27,28,28],"right_children":[2,4,6,8,10,12,14,16,18,20,22,24,26,28,-1,30,32,-1,-1,34,-1,36,38,40,-1,42,44,46,48,-1,-1,-1,-1,-1,-1,-1,-1,-1,-1,-1,-1,-1,-1,-1,-1,-1,-1,-1,-1],"split_conditions":[1.184E2,1.1622222E1,1.4626423E-1,6.54E1,6.01E1,2E0,5.89E2,4.66E1,1.134E2,6.42E1,1.1272696E2,6.2333332E1,1.16875E2,6.6E1,5.4055786E-1,6E1,1.7727273E0,-6.662987E-1,6.5093005E-1,9.92E1,1.473999E-3,1.0375E2,1.232E2,1.0321429E2,-2.6143646E-2,9.3E1,1.15E2,1.246E2,4.3E1,-1.2558167E0,2.5338823E-1,1.0301651E0,-2.0145361E-1,4.568413E-1,-9.400714E-2,3.2835922E-1,-7.635544E-1,-3.669778E-1,1.608284E-1,3.5355708E-1,5.6667095E-1,-1.0055566E-1,3.47715E-1,-1.7014313E-2,2.0462418E-1,-1.4721864E-1,2.2243349E-1,-2.8168565E-1,3.6942902E-1],"split_indices":[41,53,118,43,46,72,138,43,0,11,37,10,64,10,0,3,22,0,0,41,0,4,12,4,0,26,0,45,2,0,0,0,0,0,0,0,0,0,0,0,0,0,0,0,0,0,0,0,0],"split_type":[0,0,0,0,0,0,0,0,0,0,0,0,0,0,0,0,0,0,0,0,0,0,0,0,0,0,0,0,0,0,0,0,0,0,0,0,0,0,0,0,0,0,0,0,0,0,0,0,0],"sum_hessian":[4.71E2,3.21E2,1.5E2,2.62E2,5.9E1,7E1,8E1,2.6E2,2E0,4.2E1,1.7E1,3.5E1,3.5E1,7.8E1,2E0,4E0,2.56E2,1E0,1E0,4.1E1,1E0,6E0,1.1E1,2.9E1,6E0,2.8E1,7E0,7.5E1,3E0,3E0,1E0,5E0,2.51E2,2E0,3.9E1,4E0,2E0,1E1,1E0,1.6E1,1.3E1,2.6E1,2E0,3E0,4E0,6E1,1.5E1,1E0,2E0],"tree_param":{"num_deleted":"0","num_feature":"140","num_nodes":"49","size_leaf_vector":"1"}},{"base_weights":[-2.620692E-2,-4.8793588E-2,1.0793649E-1,-9.202901E-2,-2.3305109E-2,1.960782E-2,4.4615382E-1,-4.962964E-3,1.7499998E-1,3.9361678E-2,-6.433569E-2,-4.615387E-2,2.1538459E-1,6.8888885E-1,-4.000001E-3,2.2499999E-2,-3.3333343E-3,-2.3750024E-2,3.733333E-1,3.2E-1,-7.7697866E-2,2.2499999E-2,-7.1052656E-2,5.833333E-1,-4.375001E-3,3.9375E-2,-2.5000006E-3,-2.3717962E-3,3E-2,-4.166668E-3,3.0499998E-2,-3.3333343E-3,3E-2,2.2499999E-2,-4.2391317E-3,1.3333333E-2,-4.861112E-3,3.6E-2,-2.5000006E-3],"categories":[],"categories_nodes":[],"categories_segments":[],"categories_sizes":[],"default_left":[0,0,0,0,0,0,0,0,0,0,0,0,0,0,0,0,0,0,0,0,0,0,0,0,0,0,0,0,0,0,0,0,0,0,0,0,0,0,0],"id":11,"left_children":[1,3,5,7,9,11,13,-1,15,17,19,21,23,25,-1,-1,-1,27,29,31,33,-1,35,37,-1,-1,-1,-1,-1,-1,-1,-1,-1,-1,-1,-1,-1,-1,-1],"loss_changes":[1.3232524E0,4.0890324E-1,1.8733319E0,2.8380597E-1,6.093484E-1,6.6654605E-1,1.715419E0,0E0,2.9583335E-1,1.9901534E0,7.592486E-1,5.1376516E-1,1.4998397E0,6.9513893E-1,0E0,0E0,0E0,1.2103878E0,1.6720002E0,5.813333E-1,5.5781984E-1,0E0,3.6176905E-1,5.553334E-1,0E0,0E0,0E0,0E0,0E0,0E0,0E0,0E0,0E0,0E0,0E0,0E0,0E0,0E0,0E0],"parents":[2147483647,0,0,1,1,2,2,3,3,4,4,5,5,6,6,8,8,9,9,10,10,11,11,12,12,13,13,17,17,18,18,19,19,20,20,22,22,23,23],"right_children":[2,4,6,8,10,12,14,-1,16,18,20,22,24,26,-1,-1,-1,28,30,32,34,-1,36,38,-1,-1,-1,-1,-1,-1,-1,-1,-1,-1,-1,-1,-1,-1,-1],"split_conditions":[1.21E2,3.5E1,5.685E2,3E0,5.71E1,3.01E1,1.6235453E3,-2.1306041E-1,1.096E2,5.642857E1,5E1,1E0,-1.2432642E0,6.56E1,-4.457016E-2,2.844017E-1,-1.3486465E0,1.178E2,9.262589E0,1.106E2,1.07E2,4.2921373E-1,7.3972605E-2,1.152E2,-8.848496E-2,5.7425845E-1,-5.9774476E-1,-1.0317544E-2,1.3971482E-1,-2.7105713E-2,9.786567E-1,-1.904773E0,2.5810394E-1,1.9378586E-1,-1.214321E-1,1.0748787E0,-1.9421542E-2,4.8445663E-1,-7.253769E-1],"split_indices":[33,35,138,85,14,31,77,0,1,14,43,16,118,14,0,0,0,8,29,1,12,0,60,13,0,0,0,0,0,0,0,0,0,0,0,0,0,0,0],"split_type":[0,0,0,0,0,0,0,0,0,0,0,0,0,0,0,0,0,0,0,0,0,0,0,0,0,0,0,0,0,0,0,0,0,0,0,0,0,0,0],"sum_hessian":[4.34E2,3.72E2,6.2E1,1.37E2,2.35E2,5E1,1.2E1,1.34E2,3E0,9.3E1,1.42E2,3.8E1,1.2E1,8E0,4E0,1E0,2E0,7.9E1,1.4E1,4E0,1.38E2,1E0,3.7E1,5E0,7E0,7E0,1E0,7.7E1,2E0,5E0,9E0,2E0,2E0,1E0,1.37E2,2E0,3.5E1,4E0,1E0],"tree_param":{"num_deleted":"0","num_feature":"140","num_nodes":"39","size_leaf_vector":"1"}},{"base_weights":[-2.302634E-2,-4.419194E-2,1.1475407E-1,-5.1150918E-2,4.1666666E-1,4.081609E-3,5.230769E-1,2.2499999E-2,-5.358977E-2,-3.3333343E-3,3.3749998E-2,-3.2608718E-2,4.2499998E-1,-3.7500008E-3,7.1E-1,-6.1684806E-2,7.826085E-2,-5.3333357E-2,2.2499999E-2,3E-2,-2.5000006E-3,4E-2,-2.5000006E-3,1.612902E-3,-3.5059184E-3,-4.7058836E-3,2.4285713E-2,-3.7500013E-3,2.2499999E-2],"categories":[],"categories_nodes":[],"categories_segments":[],"categories_sizes":[],"default_left":[0,0,0,0,0,0,0,0,0,0,0,0,0,0,0,0,0,0,0,0,0,0,0,0,0,0,0,0,0],"id":12,"left_children":[1,3,5,7,9,11,13,-1,15,-1,-1,17,19,-1,21,23,25,27,-1,-1,-1,-1,-1,-1,-1,-1,-1,-1,-1],"loss_changes":[1.3348609E0,1.2913259E0,2.7544608E0,5.0200784E-1,7.9416656E-1,7.7059674E-1,1.5065765E0,0E0,4.2108846E-1,0E0,0E0,4.84087E-1,3.6249995E-1,0E0,7.2400045E-1,2.9381824E-1,1.6611472E0,5.245E-1,0E0,0E0,0E0,0E0,0E0,0E0,0E0,0E0,0E0,0E0,0E0],"parents":[2147483647,0,0,1,1,2,2,3,3,4,4,5,5,6,6,8,8,11,11,12,12,14,14,15,15,16,16,17,17],"right_children":[2,4,6,8,10,12,14,-1,16,-1,-1,18,20,-1,22,24,26,28,-1,-1,-1,-1,-1,-1,-1,-1,-1,-1,-1],"split_conditions":[1.21E2,4.5029785E2,5.685E2,-4E0,5.34E1,4E0,5.2975655E1,3.5702896E-1,6.4178E1,-5.3673095E-1,6.188995E-1,6.099647E1,1.201E2,-2.938202E-1,6.56E1,3.3962264E0,5.8579212E1,1.2321429E2,4.6023408E-1,3.990059E-1,-1.403679E-1,5.455452E-1,-5.678574E-1,4.3920796E-2,-9.926181E-2,-4.675516E-2,5.1363224E-1,-1.8488625E-2,4.07753E-1],"split_indices":[33,79,138,85,10,66,24,0,56,0,0,24,0,0,14,23,24,69,0,0,0,0,0,0,0,0,0,0,0],"split_type":[0,0,0,0,0,0,0,0,0,0,0,0,0,0,0,0,0,0,0,0,0,0,0,0,0,0,0,0,0],"sum_hessian":[4.55E2,3.95E2,6E1,3.9E2,5E0,4.8E1,1.2E1,1E0,3.89E2,2E0,3E0,4.5E1,3E0,3E0,9E0,3.67E2,2.2E1,4.4E1,1E0,2E0,1E0,8E0,1E0,3E1,3.37E2,1.6E1,6E0,4.3E1,1E0],"tree_param":{"num_deleted":"0","num_feature":"140","num_nodes":"29","size_leaf_vector":"1"}},{"base_weights":[-1.2917618E-2,-4.4135828E-2,6.746029E-2,-5.884356E-2,9.677417E-2,-1.19565455E-2,2.742857E-1,2.4999999E-1,-6.505193E-2,-5.416669E-2,5.3749996E-1,-6.9565244E-2,1.5416664E-1,4.2399997E-1,-4.545456E-3,-3.7500008E-3,3E-2,-6.8402804E-2,2.2499999E-2,2.2499999E-2,-4.78261E-3,3.75E-2,-3.3333343E-3,2.4999999E-1,-4.9218764E-3,-4.5833346E-3,3.6923075E-1,5.5499995E-1,-4.166668E-3,-3.5888515E-3,2.2499999E-2,3E-2,-3.7500008E-3,3.3125E-2,-4.166668E-3,8.124999E-3,3.7692305E-2],"categories":[],"categories_nodes":[],"categories_segments":[],"categories_sizes":[],"default_left":[0,0,0,0,0,0,0,0,0,0,0,0,0,0,0,0,0,0,0,0,0,0,0,0,0,0,0,0,0,0,0,0,0,0,0,0,0],"id":13,"left_children":[1,3,5,7,9,11,13,15,17,19,21,23,25,27,-1,-1,-1,29,-1,-1,-1,-1,-1,31,-1,-1,33,35,-1,-1,-1,-1,-1,-1,-1,-1,-1],"loss_changes":[1.1296327E0,6.771738E-1,2.0728822E0,5.7998264E-1,2.0913439E0,8.9117754E-1,1.9521663E0,7.2749996E-1,5.295589E-1,5.4501814E-1,1.0770833E0,6.6124326E-1,1.3027244E0,1.7077665E0,0E0,0E0,0E0,5.3607166E-1,0E0,0E0,0E0,0E0,0E0,7.2749996E-1,0E0,0E0,1.780609E0,1.4384422E0,0E0,0E0,0E0,0E0,0E0,0E0,0E0,0E0,0E0],"parents":[2147483647,0,0,1,1,2,2,3,3,4,4,5,5,6,6,7,7,8,8,9,9,10,10,11,11,12,12,13,13,17,17,23,23,26,26,27,27],"right_children":[2,4,6,8,10,12,14,16,18,20,22,24,26,28,-1,-1,-1,30,-1,-1,-1,-1,-1,32,-1,-1,34,36,-1,-1,-1,-1,-1,-1,-1,-1,-1],"split_conditions":[1.19474396E2,9.2E1,4E0,2.3E1,2.2276568E0,3.075E1,1.174E2,1.151E2,6.52E1,1.9E1,8.52E1,1.19E2,1.16E2,1.2E1,-6.3698046E-2,-2.1598053E-1,2.711792E-1,3.9666668E1,5.879547E-1,2.4449997E-1,-8.7761246E-2,6.1378175E-1,-2.1630859E-2,4.1E1,-2.6078954E-2,-1.5648805E-2,1.171E2,7E0,-3.863701E-1,-1.3785571E-1,1.1420059E-1,2.863594E-1,-2.7873763E-1,1.0220597E0,-2.4812698E-1,4.879509E-1,4.9395415E-1],"split_indices":[131,58,67,62,135,63,40,1,43,3,26,41,9,21,0,0,0,63,0,0,0,0,0,3,0,0,44,68,0,0,0,0,0,0,0,0,0],"split_type":[0,0,0,0,0,0,0,0,0,0,0,0,0,0,0,0,0,0,0,0,0,0,0,0,0,0,0,0,0,0,0,0,0,0,0,0,0],"sum_hessian":[4.48E2,3.23E2,1.25E2,2.93E2,3E1,9.1E1,3.4E1,5E0,2.88E2,2.3E1,7E0,6.8E1,2.3E1,2.4E1,1E1,3E0,2E0,2.87E2,1E0,1E0,2.2E1,5E0,2E0,5E0,6.3E1,1.1E1,1.2E1,1.9E1,5E0,2.86E2,1E0,2E0,3E0,7E0,5E0,7E0,1.2E1],"tree_param":{"num_deleted":"0","num_feature":"140","num_nodes":"37","size_leaf_vector":"1"}},{"base_weights":[-3.2359574E-2,-4.0681843E-2,5.833333E-1,-7.22603E-2,2.1476487E-2,3.6E-2,-2.5000006E-3,-7.56014E-2,2.2499999E-2,5.2E-1,4.137907E-3,5.4999977E-2,-8.492649E-2,-2.5000006E-3,3.3749998E-2,-5.1886816E-2,1.5249997E-1,-4.666668E-3,2.0833334E-2,2.857142E-3,-4.417294E-3,-3.4803934E-3,1.6E-2,3.6E-2,3.4722209E-3],"categories":[],"categories_nodes":[],"categories_segments":[],"categories_sizes":[],"default_left":[0,0,0,0,0,0,0,0,0,0,0,0,0,0,0,0,0,0,0,0,0,0,0,0,0],"id":14,"left_children":[1,3,5,7,9,-1,-1,11,-1,13,15,17,19,-1,-1,21,23,-1,-1,-1,-1,-1,-1,-1,-1],"loss_changes":[2.3038938E0,8.65212E-1,5.553334E-1,5.4353833E-1,1.285758E0,0E0,0E0,3.5907114E-1,0E0,4.755E-1,1.2131445E0,1.1118335E0,1.3718367E-1,0E0,0E0,7.208384E-1,1.835361E0,0E0,0E0,0E0,0E0,0E0,0E0,0E0,0E0],"parents":[2147483647,0,0,1,1,2,2,3,3,4,4,7,7,9,9,10,10,11,11,12,12,15,15,16,16],"right_children":[2,4,6,8,10,-1,-1,12,-1,14,16,18,20,-1,-1,22,24,-1,-1,-1,-1,-1,-1,-1,-1],"split_conditions":[1.3E1,9.901286E1,6E1,3.9666668E1,-8.7287836E2,4.9356994E-1,-2.7965623E-1,1.03E2,1.0849076E-1,1.152E2,3E1,1.0566918E1,2.475E1,-1.0419792E0,3.2164153E-1,3.4444444E0,5.6E1,-6.303536E-1,4.463707E-1,1.07003026E-1,-1.3990587E-1,-1.9791415E-2,7.238541E-2,4.1252443E-1,1.9223581E-1],"split_indices":[125,79,15,63,121,0,0,70,0,0,62,29,63,0,0,54,42,0,0,0,0,0,0,0,0],"split_type":[0,0,0,0,0,0,0,0,0,0,0,0,0,0,0,0,0,0,0,0,0,0,0,0,0],"sum_hessian":[4.44E2,4.39E2,5E0,2.91E2,1.48E2,4E0,1E0,2.9E2,1E0,4E0,1.44E2,1.9E1,2.71E2,1E0,3E0,1.05E2,3.9E1,1.4E1,5E0,6E0,2.65E2,1.01E2,4E0,4E0,3.5E1],"tree_param":{"num_deleted":"0","num_feature":"140","num_nodes":"25","size_leaf_vector":"1"}},{"base_weights":[-3.399125E-2,4.1249996E-1,-4.1870847E-2,3.6E-2,-3.7500008E-3,-5.2482292E-2,1.259259E-1,-8.96552E-2,-1.809957E-2,-2.2706532E-8,4.8571426E-1,-4.9725287E-3,-4.545477E-3,-2.9439276E-2,2.8749996E-1,3E-2,-4.7368435E-3,3.6E-2,-3.3333343E-3,-4.7368435E-3,2.125E-2,-2.9117658E-3,3.999999E-3,-4.000001E-3,3.3749998E-2],"categories":[],"categories_nodes":[],"categories_segments":[],"categories_sizes":[],"default_left":[0,0,0,0,0,0,0,0,0,0,0,0,0,0,0,0,0,0,0,0,0,0,0,0,0],"id":15,"left_children":[1,3,5,-1,-1,7,9,11,13,15,17,-1,19,21,23,-1,-1,-1,-1,-1,-1,-1,-1,-1,-1],"loss_changes":[1.6215575E0,1.25325E0,8.0608314E-1,0E0,0E0,5.390159E-1,1.2232804E0,1.6878545E-1,7.743191E-1,1.2505263E0,9.539046E-1,0E0,8.925718E-1,6.790621E-1,1.1932501E0,0E0,0E0,0E0,0E0,0E0,0E0,0E0,0E0,0E0,0E0],"parents":[2147483647,0,0,1,1,2,2,5,5,6,6,7,7,8,8,9,9,10,10,12,12,13,13,14,14],"right_children":[2,4,6,-1,-1,8,10,12,14,16,18,-1,20,22,24,-1,-1,-1,-1,-1,-1,-1,-1,-1,-1],"split_conditions":[-6.012802E2,1.178E2,1.259983E2,3.0555955E-1,-2.0393066E-1,-1.8468122E1,1.1E1,5.735E2,5.0588236E0,5.24E1,1.255E2,-2.0121606E-1,6E1,1.1627451E1,5.53E1,3.432579E-1,-1.3179704E-2,4.6889114E-1,-3.4053802E-2,-1.2208982E-1,2.466652E-1,-1.8675236E-2,2.686824E-1,-6.3701326E-1,4.5394212E-1],"split_indices":[121,9,133,0,0,79,81,138,23,14,70,0,14,53,15,0,0,0,0,0,0,0,0,0,0],"split_type":[0,0,0,0,0,0,0,0,0,0,0,0,0,0,0,0,0,0,0,0,0,0,0,0,0],"sum_hessian":[4.55E2,7E0,4.48E2,4E0,3E0,4.22E2,2.6E1,2.02E2,2.2E2,2E1,6E0,1.81E2,2.1E1,2.13E2,7E0,2E0,1.8E1,4E0,2E0,1.8E1,3E0,1.69E2,4.4E1,4E0,3E0],"tree_param":{"num_deleted":"0","num_feature":"140","num_nodes":"25","size_leaf_vector":"1"}},{"base_weights":[-3.9861776E-2,-4.4212986E-2,3E-2,3.2E-1,-4.836451E-2,-3.3333343E-3,3E-2,-5.0585505E-2,2.2499999E-2,-8.4577136E-2,-2.026434E-2,1.3333333E-2,-4.4723633E-3,4.4186036E-3,-2.2702715E-3],"categories":[],"categories_nodes":[],"categories_segments":[],"categories_sizes":[],"default_left":[0,0,0,0,0,0,0,0,0,0,0,0,0,0,0],"id":16,"left_children":[1,3,-1,5,7,-1,-1,9,-1,11,13,-1,-1,-1,-1],"loss_changes":[1.2348595E0,6.686773E-1,0E0,5.813333E-1,4.9650145E-1,0E0,0E0,4.3838048E-1,0E0,3.676833E-1,6.240035E-1,0E0,0E0,0E0,0E0],"parents":[2147483647,0,0,1,1,3,3,4,4,7,7,9,9,10,10],"right_children":[2,4,-1,6,8,-1,-1,10,-1,12,14,-1,-1,-1,-1],"split_conditions":[1.5E1,4.8E0,3.0623475E-1,4.5E1,3.9666668E1,-2.009285E-1,9.728798E-1,-1.8468122E1,1.13127135E-1,6.0948286E0,5.48E1,5.7739257E-3,-1.5506287E-1,2.5864503E-1,-1.4445506E-2],"split_indices":[125,59,0,2,63,0,0,79,0,61,10,0,0,0,0],"split_type":[0,0,0,0,0,0,0,0,0,0,0,0,0,0,0],"sum_hessian":[4.33E2,4.31E2,2E0,4E0,4.27E2,2E0,2E0,4.26E2,1E0,2E2,2.26E2,2E0,1.98E2,4.2E1,1.84E2],"tree_param":{"num_deleted":"0","num_feature":"140","num_nodes":"15","size_leaf_vector":"1"}},{"base_weights":[-3.1900477E-2,-3.613639E-2,3E-2,-6.599329E-2,2.569442E-2,2.2499999E-2,-6.925678E-2,5.833333E-1,1.4388253E-3,-8.379449E-2,1.5909068E-2,3.6E-2,-2.5000006E-3,4.1666666E-1,-1.7164202E-2,-4.566117E-3,3.749999E-3,-2.2368433E-3,1.7142856E-2,3.3749998E-2,-3.3333343E-3,8.421051E-3,-2.370691E-3],"categories":[],"categories_nodes":[],"categories_segments":[],"categories_sizes":[],"default_left":[0,0,0,0,0,0,0,0,0,0,0,0,0,0,0,0,0,0,0,0,0,0,0],"id":17,"left_children":[1,3,-1,5,7,-1,9,11,13,15,17,-1,-1,19,21,-1,-1,-1,-1,-1,-1,-1,-1],"loss_changes":[1.2047719E0,8.139693E-1,0E0,5.312954E-1,1.946885E0,0E0,3.678156E-1,5.553334E-1,1.0808566E0,3.092804E-1,8.877734E-1,0E0,0E0,7.9416656E-1,7.602457E-1,0E0,0E0,0E0,0E0,0E0,0E0,0E0,0E0],"parents":[2147483647,0,0,1,1,3,3,4,4,6,6,7,7,8,8,9,9,10,10,13,13,14,14],"right_children":[2,4,-1,6,8,-1,10,12,14,16,18,-1,-1,20,22,-1,-1,-1,-1,-1,-1,-1,-1],"split_conditions":[1.5E1,2.6818182E0,2.9092333E-1,9.941964E1,-5.994503E2,5.61203E-1,5.67E2,1.2325E2,5.2E1,1.1692307E1,3.1333334E1,2.8384247E-1,-1.244413E0,1.163E2,-7.090476E0,-1.173402E-1,4.7488466E-1,-7.821051E-3,4.461693E-1,3.1316224E-1,-3.162842E-2,3.069341E-1,-2.3498842E-2],"split_indices":[125,54,0,74,121,0,138,8,42,53,30,0,0,12,123,0,0,0,0,0,0,0,0],"split_type":[0,0,0,0,0,0,0,0,0,0,0,0,0,0,0,0,0,0,0,0,0,0,0],"sum_hessian":[4.41E2,4.39E2,2E0,2.96E2,1.43E2,1E0,2.95E2,5E0,1.38E2,2.52E2,4.3E1,4E0,1E0,5E0,1.33E2,2.41E2,1.1E1,3.7E1,6E0,3E0,2E0,1.8E1,1.15E2],"tree_param":{"num_deleted":"0","num_feature":"140","num_nodes":"23","size_leaf_vector":"1"}},{"base_weights":[-3.0217415E-2,-3.42795E-2,3E-2,2.4444443E-1,-3.97778E-2,-4.166668E-3,3.3749998E-2,-4.5227297E-2,1.8181816E-1,-9.312502E-2,-1.7793618E-2,-4.375001E-3,3.3749998E-2,4.166666E-3,-4.967743E-3,-2.6302096E-3,2.8333322E-3],"categories":[],"categories_nodes":[],"categories_segments":[],"categories_sizes":[],"default_left":[0,0,0,0,0,0,0,0,0,0,0,0,0,0,0,0,0],"id":18,"left_children":[1,3,-1,5,7,-1,-1,9,11,13,15,-1,-1,-1,-1,-1,-1],"loss_changes":[1.198166E0,7.1161216E-1,0E0,1.3263888E0,5.5163693E-1,0E0,0E0,5.7650775E-1,1.5201137E0,1.8416858E-1,7.3133415E-1,0E0,0E0,0E0,0E0,0E0,0E0],"parents":[2147483647,0,0,1,1,3,3,4,4,7,7,8,8,9,9,10,10],"right_children":[2,4,-1,6,8,-1,-1,10,12,14,16,-1,-1,-1,-1,-1,-1],"split_conditions":[1.5E1,-8.7287836E2,2.763771E-1,1.152E2,1.245E2,-4.5692214E-1,2.6965028E-1,-8.077316E1,2.7669904E-1,1.0109091E2,1.16E2,-1.1959229E-1,2.9750443E-1,1.7026596E-1,-1.5206303E-1,-2.1048898E-2,1.1421887E-1],"split_indices":[125,121,0,0,69,0,0,79,28,70,44,0,0,0,0,0,0],"split_type":[0,0,0,0,0,0,0,0,0,0,0,0,0,0,0,0,0],"sum_hessian":[4.59E2,4.57E2,2E0,8E0,4.49E2,5E0,3E0,4.39E2,1E1,1.59E2,2.8E2,7E0,3E0,5E0,1.54E2,1.91E2,8.9E1],"tree_param":{"num_deleted":"0","num_feature":"140","num_nodes":"17","size_leaf_vector":"1"}},{"base_weights":[-3.0888913E-2,-6.115387E-2,1.047118E-2,3.2E-1,-6.83594E-2,1.0581773E-3,3E-2,-3.3333343E-3,3E-2,4.999998E-2,-8.609868E-2,3E-2,-8.556173E-3,5.2E-1,-3.0000024E-2,-9.4786756E-2,6.153844E-2,-2.9651187E-2,2.1874997E-1,-2.5000006E-3,3.3749998E-2,1.2499999E-2,-4.800001E-3,5.999999E-3,-4.975847E-3,-4.545456E-3,3E-2,2.125E-2,-2.0118356E-3,2.3333332E-2,-4.375001E-3],"categories":[],"categories_nodes":[],"categories_segments":[],"categories_sizes":[],"default_left":[0,0,0,0,0,0,0,0,0,0,0,0,0,0,0,0,0,0,0,0,0,0,0,0,0,0,0,0,0,0,0],"id":19,"left_children":[1,3,5,7,9,11,-1,-1,-1,13,15,-1,17,19,21,23,25,27,29,-1,-1,-1,-1,-1,-1,-1,-1,-1,-1,-1,-1],"loss_changes":[5.63933E-1,7.3594296E-1,1.0592692E0,5.813333E-1,5.41805E-1,1.0934782E0,0E0,0E0,0E0,1.294E0,2.918713E-1,0E0,9.0315604E-1,4.755E-1,5.784E-1,2.2631371E-1,1.1216784E0,8.4488857E-1,1.255625E0,0E0,0E0,0E0,0E0,0E0,0E0,0E0,0E0,0E0,0E0,0E0,0E0],"parents":[2147483647,0,0,1,1,2,2,3,3,4,4,5,5,9,9,10,10,12,12,13,13,14,14,15,15,16,16,17,17,18,18],"right_children":[2,4,6,8,10,12,-1,-1,-1,14,16,-1,18,20,22,24,26,28,30,-1,-1,-1,-1,-1,-1,-1,-1,-1,-1,-1,-1],"split_conditions":[4.652E2,-9.2633704E2,6.8E1,1.152E2,5.26E1,6.8E0,1.2755585E-2,-6.8963164E-1,2.5616762E-1,1.640625E-1,6.394385E1,4.274315E-1,3.7398547E2,1.134E2,5.34E1,2.19E1,4E0,4.66E1,-8.2063246E-1,-1.217997E0,5.486786E-1,3.7662888E-1,-1.7027058E-1,2.535301E-1,-6.0998555E-2,-1.00224845E-1,2.1010819E-1,2.0490189E-1,-2.7784312E-2,5.3419495E-1,-1.3693772E-1],"split_indices":[139,121,11,0,43,27,0,0,0,60,56,0,79,0,14,62,16,43,83,0,0,0,0,0,0,0,0,0,0,0,0],"split_type":[0,0,0,0,0,0,0,0,0,0,0,0,0,0,0,0,0,0,0,0,0,0,0,0,0,0,0,0,0,0,0],"sum_hessian":[4.49E2,2.59E2,1.9E2,4E0,2.55E2,1.88E2,2E0,2E0,2E0,3.3E1,2.22E2,2E0,1.86E2,4E0,2.9E1,2.1E2,1.2E1,1.71E2,1.5E1,1E0,3E0,5E0,2.4E1,4E0,2.06E2,1E1,2E0,3E0,1.68E2,8E0,7E0],"tree_param":{"num_deleted":"0","num_feature":"140","num_nodes":"31","size_leaf_vector":"1"}},{"base_weights":[-4.0829718E-2,2.1538459E-1,-4.8206303E-2,-4.375001E-3,5.833333E-1,2.4999999E-1,-5.215422E-2,-2.5000006E-3,3.6E-2,-3.7500008E-3,3E-2,-7.773725E-2,-1.0119071E-2,-1.9231003E-3,-9.5067285E-2,-3.4838732E-2,2.6428568E-1,-3.7209315E-3,1.5499999E-2,-4.976192E-3,-1.0714297E-3,-4.3956055E-3,1.999999E-3,-4.285715E-3,2.6874999E-2],"categories":[],"categories_nodes":[],"categories_segments":[],"categories_sizes":[],"default_left":[0,0,0,0,0,0,0,0,0,0,0,0,0,0,0,0,0,0,0,0,0,0,0,0,0],"id":20,"left_children":[1,3,5,-1,7,9,11,-1,-1,-1,-1,13,15,17,19,21,23,-1,-1,-1,-1,-1,-1,-1,-1],"loss_changes":[8.7599665E-1,1.4998397E0,5.381117E-1,0E0,5.553334E-1,7.2749996E-1,4.7345877E-1,0E0,0E0,0E0,0E0,3.5981536E-1,1.1487838E0,1.1989473E0,7.105017E-2,6.191677E-1,1.3848213E0,0E0,0E0,0E0,0E0,0E0,0E0,0E0,0E0],"parents":[2147483647,0,0,1,1,2,2,4,4,5,5,6,6,11,11,12,12,13,13,14,14,15,15,16,16],"right_children":[2,4,6,-1,8,10,12,-1,-1,-1,-1,14,16,18,20,22,24,-1,-1,-1,-1,-1,-1,-1,-1],"split_conditions":[-6.012802E2,1.159E2,4.66E1,-1.7112122E-1,1.078E2,1.148E2,1.00698395E1,-9.412407E-1,2.4335937E-1,-5.860054E-1,1.9465713E-1,7.204822E0,1.2053358E2,4E0,1.2031359E1,-3.769878E0,4.508E2,-7.606052E-3,5.074852E-1,-9.3154155E-2,1.6549598E-1,-1.7988075E-1,1.5474992E-1,-1.9179536E-2,9.210892E-1],"split_indices":[121,45,43,0,1,1,61,0,0,0,0,61,133,67,29,79,139,0,0,0,0,0,0,0,0],"split_type":[0,0,0,0,0,0,0,0,0,0,0,0,0,0,0,0,0,0,0,0,0,0,0,0,0],"sum_hessian":[4.57E2,1.2E1,4.45E2,7E0,5E0,5E0,4.4E2,1E0,4E0,3E0,2E0,2.73E2,1.67E2,5.1E1,2.22E2,1.54E2,1.3E1,4.2E1,9E0,2.09E2,1.3E1,9E1,6.4E1,6E0,7E0],"tree_param":{"num_deleted":"0","num_feature":"140","num_nodes":"25","size_leaf_vector":"1"}},{"base_weights":[-3.728451E-2,-4.1214775E-2,4.2499998E-1,-8.019326E-2,-9.411789E-3,3E-2,-2.5000006E-3,2.2499999E-2,-8.495148E-2,-5.696972E-2,7.692305E-2,-8.975612E-2,2.2499999E-2,-7.847225E-2,8.636361E-2,1.9999997E-1,-7.2727506E-3,-4.973823E-3,1.999999E-3,-4.6014506E-3,9.999999E-3,3E-2,2.4999888E-4,1.4583323E-3,2.3928571E-2,1.7142856E-2,-2.857144E-3],"categories":[],"categories_nodes":[],"categories_segments":[],"categories_sizes":[],"default_left":[0,0,0,0,0,0,0,0,0,0,0,0,0,0,0,0,0,0,0,0,0,0,0,0,0,0,0],"id":21,"left_children":[1,3,5,7,9,-1,-1,-1,11,13,15,17,-1,19,21,23,25,-1,-1,-1,-1,-1,-1,-1,-1,-1,-1],"loss_changes":[8.605588E-1,5.7071567E-1,3.6249995E-1,5.604429E-1,1.0513884E0,0E0,0E0,0E0,5.6986165E-1,5.153119E-1,9.444475E-1,2.625401E-1,0E0,5.620321E-1,9.164091E-1,1.7468454E0,9.7994804E-1,0E0,0E0,0E0,0E0,0E0,0E0,0E0,0E0,0E0,0E0],"parents":[2147483647,0,0,1,1,2,2,3,3,4,4,8,8,9,9,10,10,11,11,13,13,14,14,15,15,16,16],"right_children":[2,4,6,8,10,-1,-1,-1,12,14,16,18,-1,20,22,24,26,-1,-1,-1,-1,-1,-1,-1,-1,-1,-1],"split_conditions":[6.86E1,-1.8468122E1,1.2E2,6.0948286E0,4.652E2,2.111206E-2,-7.554123E-1,8.6135865E-4,3.9666668E1,4E0,5.71E1,9.2E1,5.7271577E-2,4.4190475E-1,5.34E1,1.122E2,6.73426E0,-1.893634E-1,7.196459E-2,-2.344987E-2,4.0258867E-1,2.665886E-1,1.9186468E-1,2.1150303E-1,9.1291505E-1,3.4838945E-1,-1.5266649E-2],"split_indices":[11,79,8,61,139,0,0,0,63,72,14,58,0,60,14,8,61,0,0,0,0,0,0,0,0,0,0],"split_type":[0,0,0,0,0,0,0,0,0,0,0,0,0,0,0,0,0,0,0,0,0,0,0,0,0,0,0],"sum_hessian":[4.63E2,4.6E2,3E0,2.06E2,2.54E2,2E0,1E0,1E0,2.05E2,1.64E2,9E1,2.04E2,1E0,1.43E2,2.1E1,3.6E1,5.4E1,1.9E2,1.4E1,1.37E2,6E0,2E0,1.9E1,2.3E1,1.3E1,6E0,4.8E1],"tree_param":{"num_deleted":"0","num_feature":"140","num_nodes":"27","size_leaf_vector":"1"}},{"base_weights":[-4.620538E-2,-5.022525E-2,3.2E-1,-2.62238E-2,-9.308179E-2,-3.3333343E-3,3E-2,-3.4657065E-2,2.0999998E-1,-4.967534E-3,8.333331E-2,-9.112906E-2,1.1038938E-2,3.3749998E-2,-4.285715E-3,-4.000001E-3,2.2499999E-2,1.3333333E-2,-4.9590175E-3,1.6785713E-2,-1.063831E-3],"categories":[],"categories_nodes":[],"categories_segments":[],"categories_sizes":[],"default_left":[0,0,0,0,0,0,0,0,0,0,0,0,0,0,0,0,0,0,0,0,0],"id":22,"left_children":[1,3,5,7,9,-1,-1,11,13,-1,15,17,19,-1,-1,-1,-1,-1,-1,-1,-1],"loss_changes":[6.755717E-1,4.5426583E-1,5.813333E-1,5.770292E-1,1.8412149E-1,0E0,0E0,7.1581674E-1,1.4329286E0,0E0,3.9533332E-1,3.8365734E-1,1.6229206E0,0E0,0E0,0E0,0E0,0E0,0E0,0E0,0E0],"parents":[2147483647,0,0,1,1,2,2,3,3,4,4,7,7,8,8,10,10,11,11,12,12],"right_children":[2,4,6,8,10,-1,-1,12,14,-1,16,18,20,-1,-1,-1,-1,-1,-1,-1,-1],"split_conditions":[6.86E1,4.9E1,5.95E1,5.147059E0,3E0,-7.1764183E-1,2.0056153E-2,3.2558838E1,1.1542857E2,-1.6009209E-1,1.179E2,4.1607143E1,3.3284634E1,3.1435928E-1,-3.5199815E-1,-5.793602E-1,1.8227158E-1,9.158478E-2,-6.1766565E-2,2.9229748E-1,-2.3307053E-3],"split_indices":[11,34,10,23,85,0,0,57,70,0,0,24,57,0,0,0,0,0,0,0,0],"split_type":[0,0,0,0,0,0,0,0,0,0,0,0,0,0,0,0,0,0,0,0,0],"sum_hessian":[4.47E2,4.43E2,4E0,2.85E2,1.58E2,2E0,2E0,2.76E2,9E0,1.53E2,5E0,1.23E2,1.53E2,3E0,6E0,4E0,1E0,2E0,1.21E2,1.3E1,1.4E2],"tree_param":{"num_deleted":"0","num_feature":"140","num_nodes":"21","size_leaf_vector":"1"}},{"base_weights":[-3.3261828E-2,-3.728451E-2,3E-2,4.2499998E-1,-4.1214775E-2,-2.5000006E-3,3E-2,-4.9886644E-2,1.4285712E-1,1.9999997E-1,-5.379313E-2,2.9230767E-1,-4.444446E-3,3E-2,-4.000001E-3,9.999999E-3,-2.8904441E-3,-4.166668E-3,2.6874999E-2],"categories":[],"categories_nodes":[],"categories_segments":[],"categories_sizes":[],"default_left":[0,0,0,0,0,0,0,0,0,0,0,0,0,0,0,0,0,0,0],"id":23,"left_children":[1,3,-1,5,7,-1,-1,9,11,13,15,17,-1,-1,-1,-1,-1,-1,-1],"loss_changes":[1.2094636E0,8.605588E-1,0E0,3.6249995E-1,7.429968E-1,0E0,0E0,4.4125295E-1,7.5330895E-1,8.32E-1,4.549011E-1,1.2421474E0,0E0,0E0,0E0,0E0,0E0,0E0,0E0],"parents":[2147483647,0,0,1,1,3,3,4,4,7,7,8,8,9,9,10,10,11,11],"right_children":[2,4,-1,6,8,-1,-1,10,12,14,16,18,-1,-1,-1,-1,-1,-1,-1],"split_conditions":[1.5E1,4.8E0,1.949768E-1,1.125E2,5.87E2,-1.8908158E-1,8.3247757E-1,4.66E1,1.165E2,3.204145E1,2.3E1,8.616758E0,-1.2057495E-2,2.0239715E-1,-5.4712105E-1,2.1967392E-1,-3.167307E-2,-2.3309708E-1,3.82576E-1],"split_indices":[125,59,0,0,138,0,0,43,40,25,62,29,0,0,0,0,0,0,0],"split_type":[0,0,0,0,0,0,0,0,0,0,0,0,0,0,0,0,0,0,0],"sum_hessian":[4.65E2,4.63E2,2E0,3E0,4.6E2,1E0,2E0,4.4E2,2E1,6E0,4.34E2,1.2E1,8E0,2E0,4E0,6E0,4.28E2,5E0,7E0],"tree_param":{"num_deleted":"0","num_feature":"140","num_nodes":"19","size_leaf_vector":"1"}},{"base_weights":[-5.0000023E-2,-7.0206515E-2,5.6451377E-3,-7.307695E-2,2.2499999E-2,-3.3644885E-2,2.3888886E-1,-7.854987E-2,1.6249998E-1,2.0999998E-1,-5.816329E-2,4.5454544E-1,-4.375001E-3,-9.529917E-2,-3.7755124E-2,3E-2,-4.166668E-3,-4.285715E-3,3.3749998E-2,3.2E-1,-7.76596E-2,-3.7500008E-3,6.6249996E-1,4.166666E-3,-4.9781674E-3,1.2499999E-2,-2.7957002E-3,3E-2,-3.3333343E-3,-4.3956055E-3,8.749999E-3,-2.5000006E-3,3.857143E-2],"categories":[],"categories_nodes":[],"categories_segments":[],"categories_sizes":[],"default_left":[0,0,0,0,0,0,0,0,0,0,0,0,0,0,0,0,0,0,0,0,0,0,0,0,0,0,0,0,0,0,0,0,0],"id":24,"left_children":[1,3,5,7,-1,9,11,13,15,17,19,21,-1,23,25,-1,-1,-1,-1,27,29,-1,31,-1,-1,-1,-1,-1,-1,-1,-1,-1,-1],"loss_changes":[5.198659E-1,5.390855E-1,1.1443921E0,4.4854605E-1,0E0,6.5140915E-1,1.306755E0,2.2256875E-1,9.104167E-1,1.4329286E0,7.4738425E-1,1.2610228E0,0E0,1.8653941E-1,5.2605885E-1,0E0,0E0,0E0,0E0,5.813333E-1,2.5888187E-1,0E0,6.594641E-1,0E0,0E0,0E0,0E0,0E0,0E0,0E0,0E0,0E0,0E0],"parents":[2147483647,0,0,1,1,2,2,3,3,5,5,6,6,7,7,8,8,9,9,10,10,11,11,13,13,14,14,19,19,20,20,22,22],"right_children":[2,4,6,8,-1,10,12,14,16,18,20,22,-1,24,26,-1,-1,-1,-1,28,30,-1,32,-1,-1,-1,-1,-1,-1,-1,-1,-1,-1],"split_conditions":[1.0397321E2,3.9666668E1,3E0,1.2507143E2,4.4405367E-2,-9.233767E0,5.72E1,1.0761509E1,5.104859E1,5E0,2.5714285E1,1.0258929E2,-1.1454773E-2,9.95E1,7.24E1,1.8522798E-1,-8.0985034E-1,-9.201737E-2,2.800766E-1,5.48E1,5.147059E0,-3.4346887E-1,1.088E2,3.5293275E-1,-1.1495127E-1,9.0211105E-1,-6.7003E-2,7.908539E-1,-1.7962722E-1,-1.6195621E-2,1.1381531E-2,-4.4691926E-1,3.6344758E-1],"split_indices":[74,63,66,70,0,123,42,61,24,73,25,36,0,70,58,0,0,0,0,10,23,0,12,0,0,0,0,0,0,0,0,0,0],"split_type":[0,0,0,0,0,0,0,0,0,0,0,0,0,0,0,0,0,0,0,0,0,0,0,0,0,0,0,0,0,0,0,0,0],"sum_hessian":[4.61E2,3.38E2,1.23E2,3.37E2,1E0,1.06E2,1.7E1,3.3E2,7E0,9E0,9.7E1,1E1,7E0,2.33E2,9.7E1,2E0,5E0,6E0,3E0,4E0,9.3E1,3E0,7E0,5E0,2.28E2,5E0,9.2E1,2E0,2E0,9E1,3E0,1E0,6E0],"tree_param":{"num_deleted":"0","num_feature":"140","num_nodes":"33","size_leaf_vector":"1"}},{"base_weights":[-3.141028E-2,-3.5407748E-2,3E-2,3.4285712E-1,-4.108698E-2,-3.7500008E-3,3.3749998E-2,-1.7378073E-2,-4.962407E-3,-3.9575994E-2,1.195652E-1,-4.9576284E-3,1.5060123E-4,1.5249999E-2,-1.1111123E-3],"categories":[],"categories_nodes":[],"categories_segments":[],"categories_sizes":[],"default_left":[0,0,0,0,0,0,0,0,0,0,0,0,0,0,0],"id":25,"left_children":[1,3,-1,5,7,-1,-1,9,-1,11,13,-1,-1,-1,-1],"loss_changes":[1.2024968E0,1.0151732E0,0E0,1.0221429E0,6.3258654E-1,0E0,0E0,1.0018047E0,0E0,7.183398E-1,1.2162247E0,0E0,0E0,0E0,0E0],"parents":[2147483647,0,0,1,1,3,3,4,4,7,7,9,9,10,10],"right_children":[2,4,-1,6,8,-1,-1,10,-1,12,14,-1,-1,-1,-1],"split_conditions":[1.5E1,-8.7287836E2,1.7596665E-1,1.152E2,1.6369474E3,-2.3603134E-1,2.0116043E-1,4E0,-1.8141572E-1,1.12438835E2,7.975E1,-2.0521274E-2,3.8285789E-3,2.6070705E-1,-1.305025E-2],"split_indices":[125,121,0,0,78,0,0,72,0,5,26,0,0,0,0],"split_type":[0,0,0,0,0,0,0,0,0,0,0,0,0,0,0],"sum_hessian":[4.67E2,4.65E2,2E0,6E0,4.59E2,3E0,3E0,3.27E2,1.32E2,2.82E2,4.5E1,1.17E2,1.65E2,1.9E1,2.6E1],"tree_param":{"num_deleted":"0","num_feature":"140","num_nodes":"15","size_leaf_vector":"1"}},{"base_weights":[-2.6280647E-2,-5.4790445E-2,5.603446E-2,-6.0303055E-2,3.2E-1,-5.6250025E-2,1.3333331E-1,-6.5950945E-2,3.2E-1,-3.3333343E-3,3E-2,2.2499999E-2,-7.659577E-2,1.01538435E-1,5.2E-1,2.2499999E-2,-6.89231E-2,-3.3333343E-3,3E-2,2.2499999E-2,-4.8913057E-3,-5.6000024E-2,1.9512193E-1,3.3749998E-2,-2.5000006E-3,-3.7264165E-3,8.124999E-3,-4.7916677E-3,2.2499999E-2,-4.500001E-3,1.390625E-2],"categories":[],"categories_nodes":[],"categories_segments":[],"categories_sizes":[],"default_left":[0,0,0,0,0,0,0,0,0,0,0,0,0,0,0,0,0,0,0,0,0,0,0,0,0,0,0,0,0,0,0],"id":26,"left_children":[1,3,5,7,9,11,13,15,17,-1,-1,-1,19,21,23,-1,25,-1,-1,-1,-1,27,29,-1,-1,-1,-1,-1,-1,-1,-1],"loss_changes":[1.0567775E0,7.093657E-1,1.0143175E0,7.2991455E-1,5.813333E-1,5.288697E-1,7.9548717E-1,5.3093207E-1,5.813333E-1,0E0,0E0,0E0,5.6947273E-1,9.692217E-1,4.755E-1,0E0,4.336939E-1,0E0,0E0,0E0,0E0,5.470167E-1,9.953369E-1,0E0,0E0,0E0,0E0,0E0,0E0,0E0,0E0],"parents":[2147483647,0,0,1,1,2,2,3,3,4,4,5,5,6,6,7,7,8,8,12,12,13,13,14,14,16,16,21,21,22,22],"right_children":[2,4,6,8,10,12,14,16,18,-1,-1,-1,20,22,24,-1,26,-1,-1,-1,-1,28,30,-1,-1,-1,-1,-1,-1,-1,-1],"split_conditions":[1.2E2,6.86E1,4.512E2,1.2975412E2,5.95E1,2.506105E1,1.23E2,2.6E0,1.144E2,-6.734024E-1,1.0951996E-2,3.3424378E-3,6E1,4.608E2,1.238E2,1.3925171E-1,5.147059E0,-6.4339906E-1,5.12558E-2,4.50058E-3,-1.4454815E-2,3.3265307E0,1.094E2,3.4508362E-1,-8.3660126E-2,-8.505056E-2,2.38517E-1,-6.0696425E-3,6.9252015E-3,-3.35096E-1,3.1566894E-1],"split_indices":[41,11,138,130,10,25,126,59,1,0,0,0,26,139,8,0,23,0,0,0,0,54,8,0,0,0,0,0,0,0,0],"split_type":[0,0,0,0,0,0,0,0,0,0,0,0,0,0,0,0,0,0,0,0,0,0,0,0,0,0,0,0,0,0,0],"sum_hessian":[4.48E2,3.33E2,1.15E2,3.29E2,4E0,4.7E1,6.8E1,3.25E2,4E0,2E0,2E0,1E0,4.6E1,6.4E1,4E0,1E0,3.24E2,2E0,2E0,1E0,4.5E1,2.4E1,4E1,3E0,1E0,3.17E2,7E0,2.3E1,1E0,9E0,3.1E1],"tree_param":{"num_deleted":"0","num_feature":"140","num_nodes":"31","size_leaf_vector":"1"}},{"base_weights":[-2.9724015E-2,3.4285712E-1,-3.526884E-2,3.3749998E-2,-3.7500008E-3,-4.812209E-2,1.0249998E-1,9.062497E-2,-5.924053E-2,2.0588212E-2,4.8571426E-1,4.0999997E-1,-5.2173935E-2,-6.167515E-2,2.2499999E-2,-3.4375023E-2,3E-2,3.6E-2,-3.3333343E-3,3.142857E-2,-3.7500008E-3,2.2499999E-2,-4.7727283E-3,-3.688762E-3,1.3541655E-3,-4.814816E-3,1.2499999E-2],"categories":[],"categories_nodes":[],"categories_segments":[],"categories_sizes":[],"default_left":[0,0,0,0,0,0,0,0,0,0,0,0,0,0,0,0,0,0,0,0,0,0,0,0,0,0,0],"id":27,"left_children":[1,3,5,-1,-1,7,9,11,13,15,17,19,21,23,-1,25,-1,-1,-1,-1,-1,-1,-1,-1,-1,-1,-1],"loss_changes":[9.851298E-1,1.0221429E0,8.283438E-1,0E0,0E0,6.6253793E-1,1.2455903E0,1.4807961E0,5.1747787E-1,1.1034008E0,9.539046E-1,1.1072145E0,5.4284585E-1,4.2514813E-1,0E0,5.875579E-1,0E0,0E0,0E0,0E0,0E0,0E0,0E0,0E0,0E0,0E0,0E0],"parents":[2147483647,0,0,1,1,2,2,5,5,6,6,7,7,8,8,9,9,10,10,11,11,12,12,13,13,15,15],"right_children":[2,4,6,-1,-1,8,10,12,14,16,18,20,22,24,-1,26,-1,-1,-1,-1,-1,-1,-1,-1,-1,-1,-1],"split_conditions":[6.6E0,2.94E0,6.140358E1,7.3655397E-1,-1.1889344E-1,-5E0,5.625E2,1.112E2,3.9666668E1,6.2179623E1,3.0333334E1,5.4197857E1,1.07333336E2,2.9318182E0,4.8693087E-2,1E0,2.9323122E-1,3.027733E-1,-4.43499E-1,4.860161E-1,-3.8851168E-2,3.175354E-3,-5.3993235E-3,-5.044877E-2,9.926244E-2,-2.0489886E-1,2.0768737E-2],"split_indices":[59,54,24,0,0,71,139,9,63,56,62,56,8,54,0,85,0,0,0,0,0,0,0,0,0,0,0],"split_type":[0,0,0,0,0,0,0,0,0,0,0,0,0,0,0,0,0,0,0,0,0,0,0,0,0,0,0],"sum_hessian":[4.7E2,6E0,4.64E2,3E0,3E0,4.25E2,3.9E1,3.1E1,3.94E2,3.3E1,6E0,9E0,2.2E1,3.93E2,1E0,3.1E1,2E0,4E0,2E0,6E0,3E0,1E0,2.1E1,3.46E2,4.7E1,2.6E1,5E0],"tree_param":{"num_deleted":"0","num_feature":"140","num_nodes":"27","size_leaf_vector":"1"}},{"base_weights":[-4.3721996E-2,-5.6801934E-2,1.5357141E-1,-6.641028E-2,6.999998E-2,6.285714E-1,-4.545477E-3,-2.014391E-2,-9.166669E-2,-5.6000024E-2,5.833333E-1,3.75E-2,-2.5000006E-3,3E-2,-4.7500012E-3,-6.960787E-2,1.1315787E-1,-1.9230792E-2,-4.9779746E-3,2.2499999E-2,-4.7916677E-3,-2.5000006E-3,3.6E-2,-3.960397E-3,2.2499999E-2,2.6874999E-2,-1.1536383E-9,-2.8000013E-3,2.2499999E-2],"categories":[],"categories_nodes":[],"categories_segments":[],"categories_sizes":[],"default_left":[0,0,0,0,0,0,0,0,0,0,0,0,0,0,0,0,0,0,0,0,0,0,0,0,0,0,0,0,0],"id":28,"left_children":[1,3,5,7,9,11,13,15,17,19,21,-1,-1,-1,-1,23,25,27,-1,-1,-1,-1,-1,-1,-1,-1,-1,-1,-1],"loss_changes":[1.1596642E0,5.151402E-1,2.1058118E0,4.5387733E-1,1.9730668E0,6.142857E-1,1.2600454E0,9.243918E-1,1.4215922E-1,5.470167E-1,5.553334E-1,0E0,0E0,0E0,0E0,5.444477E-1,1.824671E0,4.7378463E-1,0E0,0E0,0E0,0E0,0E0,0E0,0E0,0E0,0E0,0E0,0E0],"parents":[2147483647,0,0,1,1,2,2,3,3,4,4,5,5,6,6,7,7,8,8,9,9,10,10,15,15,16,16,17,17],"right_children":[2,4,6,8,10,12,14,16,18,20,22,-1,-1,-1,-1,24,26,28,-1,-1,-1,-1,-1,-1,-1,-1,-1,-1,-1],"split_conditions":[1.2542417E2,9.3666664E1,5.57E1,-2.9943008E2,1.9013405E0,1.201E2,1.244E2,-5.1086108E2,3.3962264E0,1.096E2,1.096E2,2.7086106E-1,-1.6681214E-1,3.035286E-1,-2.577591E-2,6.5906044E1,-7.090476E0,3.3777778E0,-8.234431E-2,1.5464783E-1,-1.181479E-1,-1.4439499E0,5.105919E-1,-3.1981E-2,6.7977905E-3,3.3438417E-1,3.411488E-2,-5.2714538E-2,8.6358875E-1],"split_indices":[133,58,14,120,135,1,45,120,23,1,1,0,0,0,0,56,123,23,0,0,0,0,0,0,0,0,0,0,0],"split_type":[0,0,0,0,0,0,0,0,0,0,0,0,0,0,0,0,0,0,0,0,0,0,0,0,0,0,0,0,0],"sum_hessian":[4.45E2,4.18E2,2.7E1,3.89E2,2.9E1,6E0,2.1E1,1.38E2,2.51E2,2.4E1,5E0,5E0,1E0,2E0,1.9E1,1.01E2,3.7E1,2.5E1,2.26E2,1E0,2.3E1,1E0,4E0,1E2,1E0,7E0,3E1,2.4E1,1E0],"tree_param":{"num_deleted":"0","num_feature":"140","num_nodes":"29","size_leaf_vector":"1"}},{"base_weights":[-3.6739156E-2,3.2E-1,-4.05702E-2,-3.3333343E-3,3E-2,-4.446905E-2,3.2E-1,-4.977275E-2,1.3846152E-1,3E-2,-3.3333343E-3,-6.9578335E-2,1.1009151E-2,-4.500001E-3,3.3749998E-2,-7.8125123E-4,-4.556963E-3,-2.5301217E-3,9.999999E-3],"categories":[],"categories_nodes":[],"categories_segments":[],"categories_sizes":[],"default_left":[0,0,0,0,0,0,0,0,0,0,0,0,0,0,0,0,0,0,0],"id":29,"left_children":[1,3,5,-1,-1,7,9,11,13,-1,-1,15,17,-1,-1,-1,-1,-1,-1],"loss_changes":[6.4165705E-1,5.813333E-1,6.552792E-1,0E0,0E0,4.454261E-1,5.813333E-1,5.3044736E-1,1.6542692E0,0E0,0E0,3.8478613E-1,1.279319E0,0E0,0E0,0E0,0E0,0E0,0E0],"parents":[2147483647,0,0,1,1,2,2,5,5,6,6,7,7,8,8,11,11,12,12],"right_children":[2,4,6,-1,-1,8,10,12,14,-1,-1,16,18,-1,-1,-1,-1,-1,-1],"split_conditions":[4.8E0,1.137E2,1.3E1,-2.0390092E-1,7.0132524E-1,5.147059E0,1.08666664E2,1.1472222E1,1.184E2,2.8835222E-1,-6.362915E-4,2.24E0,3.40625E-1,-3.4375384E-1,2.8016892E-1,-5.7399175E-3,-9.996245E-2,-1.5299014E-2,1.8003617E-1],"split_indices":[59,0,125,0,0,23,9,53,0,0,0,54,28,0,0,0,0,0,0],"split_type":[0,0,0,0,0,0,0,0,0,0,0,0,0,0,0,0,0,0,0],"sum_hessian":[4.59E2,4E0,4.55E2,2E0,2E0,4.51E2,4E0,4.39E2,1.2E1,2E0,2E0,3.31E2,1.08E2,9E0,3E0,9.5E1,2.36E2,8.2E1,2.6E1],"tree_param":{"num_deleted":"0","num_feature":"140","num_nodes":"19","size_leaf_vector":"1"}},{"base_weights":[-3.5129335E-2,2.4444443E-1,-4.05702E-2,-4.166668E-3,3.3749998E-2,-8.121215E-2,-1.7465778E-2,2.4999999E-1,-9.312502E-2,3.0999997E-1,-2.897529E-2,-3.7500008E-3,3E-2,1.7499998E-1,-4.9681542E-3,3.6E-2,-4.166668E-3,3.428569E-2,-6.592181E-2,-3.3333343E-3,2.2499999E-2,4.9504836E-4,2.5999999E-2,2.2499999E-2,-3.567417E-3],"categories":[],"categories_nodes":[],"categories_segments":[],"categories_sizes":[],"default_left":[0,0,0,0,0,0,0,0,0,0,0,0,0,0,0,0,0,0,0,0,0,0,0,0,0],"id":30,"left_children":[1,3,5,-1,-1,7,9,11,13,15,17,-1,-1,19,-1,-1,-1,21,23,-1,-1,-1,-1,-1,-1],"loss_changes":[7.157182E-1,1.3263888E0,4.2676944E-1,0E0,0E0,6.743202E-1,1.1095219E0,7.2749996E-1,2.8500116E-1,1.6726667E0,6.6370845E-1,0E0,0E0,2.9583335E-1,0E0,0E0,0E0,1.2384725E0,5.3324646E-1,0E0,0E0,0E0,0E0,0E0,0E0],"parents":[2147483647,0,0,1,1,2,2,5,5,6,6,7,7,8,8,9,9,10,10,13,13,17,17,18,18],"right_children":[2,4,6,-1,-1,8,10,12,14,16,18,-1,-1,20,-1,-1,-1,22,24,-1,-1,-1,-1,-1,-1],"split_conditions":[-8.7287836E2,1.152E2,-8.077316E1,-2.0833969E-1,1.5870742E-1,4.66E1,-1.35E1,5.97E1,1.0109091E2,1.0482247E1,5.71E1,-6.0382384E-1,1.5558091E-1,1.16E2,-1.3334166E-1,2.6616058E-1,-1.4034425E-1,1.196E2,2.71E1,-9.7400135E-1,1.2695007E-1,1.5604389E-3,8.206963E-1,2.8609468E-2,-2.3042152E-2],"split_indices":[121,0,79,0,0,43,81,14,70,29,14,0,0,1,0,0,0,8,30,0,0,0,0,0,0],"split_type":[0,0,0,0,0,0,0,0,0,0,0,0,0,0,0,0,0,0,0,0,0,0,0,0,0],"sum_hessian":[4.63E2,8E0,4.55E2,5E0,3E0,1.64E2,2.91E2,5E0,1.59E2,9E0,2.82E2,3E0,2E0,3E0,1.56E2,4E0,5E0,1.04E2,1.78E2,2E0,1E0,1E2,4E0,1E0,1.77E2],"tree_param":{"num_deleted":"0","num_feature":"140","num_nodes":"25","size_leaf_vector":"1"}},{"base_weights":[-3.4848507E-2,-3.8913067E-2,3E-2,3.4285712E-1,-4.471368E-2,-3.7500008E-3,3.3749998E-2,-7.6712355E-2,-1.48305325E-2,2.4999999E-1,-8.551404E-2,-1.8723428E-2,2.2499999E-2,3E-2,-3.7500008E-3,-4.7263694E-3,2.499999E-3,-2.6490078E-3,2.117646E-3],"categories":[],"categories_nodes":[],"categories_segments":[],"categories_sizes":[],"default_left":[0,0,0,0,0,0,0,0,0,0,0,0,0,0,0,0,0,0,0],"id":31,"left_children":[1,3,-1,5,7,-1,-1,9,11,13,15,17,-1,-1,-1,-1,-1,-1,-1],"loss_changes":[1.215483E0,1.0340009E0,0E0,1.0221429E0,4.3298674E-1,0E0,0E0,6.511395E-1,4.354762E-1,7.2749996E-1,2.661134E-1,4.939287E-1,0E0,0E0,0E0,0E0,0E0,0E0,0E0],"parents":[2147483647,0,0,1,1,3,3,4,4,7,7,8,8,9,9,10,10,11,11],"right_children":[2,4,-1,6,8,-1,-1,10,12,14,16,18,-1,-1,-1,-1,-1,-1,-1],"split_conditions":[1.5E1,-8.7287836E2,9.904557E-2,1.145E2,-3.769878E0,-1.9792251E-1,1.507721E-1,4.66E1,1.2911092E1,2E0,1.1778353E1,4.656E2,1.3906555E-1,1.4780198E-1,-4.9213752E-1,-1.18346155E-1,1.2728845E-1,-2.618371E-2,1.4318632E-1],"split_indices":[125,121,0,0,79,0,0,43,61,16,29,139,0,0,0,0,0,0,0],"split_type":[0,0,0,0,0,0,0,0,0,0,0,0,0,0,0,0,0,0,0],"sum_hessian":[4.61E2,4.59E2,2E0,6E0,4.53E2,3E0,3E0,2.18E2,2.35E2,5E0,2.13E2,2.34E2,1E0,2E0,3E0,2E2,1.3E1,1.5E2,8.4E1],"tree_param":{"num_deleted":"0","num_feature":"140","num_nodes":"19","size_leaf_vector":"1"}},{"base_weights":[-3.6323875E-2,-5.7401836E-2,1.8897614E-2,-7.74908E-2,3.278686E-2,-3.2222245E-2,1.3947366E-1,-8.104092E-2,2.6666665E-1,5.2E-1,-1.05263395E-2,-5.176473E-2,2.4999999E-1,4.6666664E-1,3.6666643E-2,2.6666665E-1,-8.464422E-2,2.2499999E-2,-2.5000006E-3,3.3749998E-2,-2.5000006E-3,-4.3636385E-2,3E-2,1.3846152E-1,-8.493153E-2,-3.7500008E-3,3E-2,-3.7500008E-3,3.75E-2,-2.5000023E-2,3E-2,-2.5000006E-3,2.2499999E-2,-4.591441E-3,4.5454535E-3,9.090908E-3,-4.88889E-3,-4.500001E-3,3.3749998E-2,8.749999E-3,-4.9285726E-3,-4.7916677E-3,1.6E-2],"categories":[],"categories_nodes":[],"categories_segments":[],"categories_sizes":[],"default_left":[0,0,0,0,0,0,0,0,0,0,0,0,0,0,0,0,0,0,0,0,0,0,0,0,0,0,0,0,0,0,0,0,0,0,0,0,0,0,0,0,0,0,0],"id":32,"left_children":[1,3,5,7,9,11,13,15,17,19,21,23,25,27,29,31,33,-1,-1,-1,-1,35,-1,37,39,-1,-1,-1,-1,41,-1,-1,-1,-1,-1,-1,-1,-1,-1,-1,-1,-1,-1],"loss_changes":[5.330129E-1,6.0224557E-1,7.873007E-1,3.5271847E-1,1.292742E0,5.093203E-1,1.2611227E0,3.5960078E-1,1.9666666E-1,4.755E-1,1.1784115E0,5.480414E-1,7.2749996E-1,1.4375001E0,1.0571667E0,1.9666666E-1,3.451097E-1,0E0,0E0,0E0,0E0,6.891314E-1,0E0,1.6542692E0,2.7606755E-1,0E0,0E0,0E0,0E0,7.149167E-1,0E0,0E0,0E0,0E0,0E0,0E0,0E0,0E0,0E0,0E0,0E0,0E0,0E0],"parents":[2147483647,0,0,1,1,2,2,3,3,4,4,5,5,6,6,7,7,8,8,9,9,10,10,11,11,12,12,13,13,14,14,15,15,16,16,21,21,23,23,24,24,29,29],"right_children":[2,4,6,8,10,12,14,16,18,20,22,24,26,28,30,32,34,-1,-1,-1,-1,36,-1,38,40,-1,-1,-1,-1,42,-1,-1,-1,-1,-1,-1,-1,-1,-1,-1,-1,-1,-1],"split_conditions":[1.1346154E1,1.1143742E1,3.3E1,7E1,7.24E1,6.4E1,1.0927273E2,-4E0,1.158E2,1.16E2,1.2307693E1,-3.006401E2,5.2E1,1.146E2,6.666667E-1,1.191E2,6.4178E1,1.8600464E-3,-4.4044494E-3,7.725021E-1,-5.9209675E-1,1.1411462E1,1.2651978E-1,-1.3130896E0,1E0,-1.16902165E-1,4.7852173E-1,-3.6035234E-1,3.196617E-1,1.2511628E1,2.763962E-1,-1.5804986E0,1.432335E-1,-9.032725E-2,2.220444E-1,1.2665479E-1,-2.7579118E-2,-1.083006E-2,4.1816714E-3,2.4107896E-1,-2.6831819E-2,-4.1132685E-2,2.942314E-1],"split_indices":[53,61,59,10,58,2,65,85,0,9,123,79,11,40,80,0,56,0,0,0,0,61,0,135,16,0,0,0,0,53,0,0,0,0,0,0,0,0,0,0,0,0,0],"split_type":[0,0,0,0,0,0,0,0,0,0,0,0,0,0,0,0,0,0,0,0,0,0,0,0,0,0,0,0,0,0,0,0,0,0,0,0,0,0,0,0,0,0,0],"sum_hessian":[4.56E2,3.3E2,1.26E2,2.7E2,6E1,8.9E1,3.7E1,2.68E2,2E0,4E0,5.6E1,8.4E1,5E0,8E0,2.9E1,2E0,2.66E2,1E0,1E0,3E0,1E0,5.4E1,2E0,1.2E1,7.2E1,3E0,2E0,3E0,5E0,2.7E1,2E0,1E0,1E0,2.56E2,1E1,1E1,4.4E1,9E0,3E0,3E0,6.9E1,2.3E1,4E0],"tree_param":{"num_deleted":"0","num_feature":"140","num_nodes":"43","size_leaf_vector":"1"}},{"base_weights":[-3.9828718E-2,-6.124263E-2,1.6153822E-2,3.2E-1,-6.676649E-2,-7.272729E-2,1.4259256E-1,3E-2,-3.3333343E-3,5.4545432E-2,-7.980135E-2,-8.513516E-2,1.7499998E-1,3.333333E-1,2.0588212E-2,-5.925928E-2,4.8571426E-1,-8.30565E-2,2.2499999E-2,1.1999998E-1,-4.9285726E-3,2.2499999E-2,-3.3333343E-3,1.5624997E-1,3.75E-2,2.4166664E-1,-4.78261E-3,-4.8076934E-3,2.2499999E-2,-3.3333343E-3,3.6E-2,-4.4691795E-3,5.499999E-3,-3.7500008E-3,2.2499999E-2,2.5999999E-2,-4.1666775E-4,1.1111101E-3,3.3749998E-2],"categories":[],"categories_nodes":[],"categories_segments":[],"categories_sizes":[],"default_left":[0,0,0,0,0,0,0,0,0,0,0,0,0,0,0,0,0,0,0,0,0,0,0,0,0,0,0,0,0,0,0,0,0,0,0,0,0,0,0],"id":33,"left_children":[1,3,5,7,9,11,13,-1,-1,15,17,19,21,23,25,27,29,31,-1,33,-1,-1,-1,35,-1,37,-1,-1,-1,-1,-1,-1,-1,-1,-1,-1,-1,-1,-1],"loss_changes":[5.6083125E-1,7.331703E-1,1.4713126E0,5.813333E-1,5.325017E-1,2.5157863E-1,1.2497821E0,0E0,0E0,1.6480616E0,5.582E-1,2.1579152E-1,2.9583335E-1,1.4322915E0,8.968564E-1,5.505698E-1,9.539046E-1,3.774991E-1,0E0,3.5549998E-1,0E0,0E0,0E0,9.622084E-1,0E0,1.126111E0,0E0,0E0,0E0,0E0,0E0,0E0,0E0,0E0,0E0,0E0,0E0,0E0,0E0],"parents":[2147483647,0,0,1,1,2,2,3,3,4,4,5,5,6,6,9,9,10,10,11,11,12,12,13,13,14,14,15,15,16,16,17,17,19,19,23,23,25,25],"right_children":[2,4,6,8,10,12,14,-1,-1,16,18,20,22,24,26,28,30,32,-1,34,-1,-1,-1,36,-1,38,-1,-1,-1,-1,-1,-1,-1,-1,-1,-1,-1,-1,-1],"split_conditions":[1.0404018E2,2.29E1,5E0,1.158E2,1.7431192E-1,1.24E2,2.5636363E0,1.3257217E-1,-3.347908E-1,1.8E1,3.9E1,1.122E2,1.145E2,2.8857143E0,4.1372547E0,6.48E1,1.158E2,4.8366357E2,7.7041625E-3,5.76E1,-1.836625E-2,2.2902527E-1,-4.6050645E-2,4E1,2.7951965E-1,6.666667E-1,-2.8657867E-2,-1.8211527E-2,5.378723E-4,-1.145768E0,4.5459595E-1,-1.07642725E-1,4.6810982E-1,-4.7124597E-1,3.972626E-3,6.944275E-3,1.4957713E-1,2.0327225E-1,2.8472444E-1],"split_indices":[74,62,68,0,60,69,22,0,0,59,63,33,0,54,55,11,0,79,0,10,0,0,0,2,0,80,0,0,0,0,0,0,0,0,0,0,0,0,0],"split_type":[0,0,0,0,0,0,0,0,0,0,0,0,0,0,0,0,0,0,0,0,0,0,0,0,0,0,0,0,0,0,0,0,0,0,0,0,0,0,0],"sum_hessian":[4.66E2,3.37E2,1.29E2,4E0,3.33E2,7.6E1,5.3E1,2E0,2E0,3.2E1,3.01E2,7.3E1,3E0,2E1,3.3E1,2.6E1,6E0,3E2,1E0,4E0,6.9E1,1E0,2E0,1.5E1,5E0,1.1E1,2.2E1,2.5E1,1E0,2E0,4E0,2.91E2,9E0,3E0,1E0,4E0,1.1E1,8E0,3E0],"tree_param":{"num_deleted":"0","num_feature":"140","num_nodes":"39","size_leaf_vector":"1"}},{"base_weights":[-3.416292E-2,-7.102043E-2,1.1616138E-2,1.9999997E-1,-7.8661114E-2,-5.27778E-2,8.791207E-2,-4.000001E-3,3E-2,-9.045457E-2,5.4999977E-2,2.2499999E-2,-6.1682265E-2,3.2692304E-1,-7.575781E-3,-9.490743E-2,1.1999998E-1,-3.8888913E-2,3E-2,2.2499999E-2,-7.0754744E-2,4.5499998E-1,-4.285715E-3,-4.655175E-2,2.4444443E-1,-1.0714297E-3,-4.9753706E-3,-3.7500008E-3,2.2499999E-2,-4.7058836E-3,2.2499999E-2,-3.9903857E-3,1.3333333E-2,2.96875E-2,-4.000001E-3,1.6E-2,-3.9814827E-3,-4.166668E-3,3.3749998E-2],"categories":[],"categories_nodes":[],"categories_segments":[],"categories_sizes":[],"default_left":[0,0,0,0,0,0,0,0,0,0,0,0,0,0,0,0,0,0,0,0,0,0,0,0,0,0,0,0,0,0,0,0,0,0,0,0,0,0,0],"id":34,"left_children":[1,3,5,7,9,11,13,-1,-1,15,17,-1,19,21,23,25,27,29,-1,-1,31,33,-1,35,37,-1,-1,-1,-1,-1,-1,-1,-1,-1,-1,-1,-1,-1,-1],"loss_changes":[7.4661255E-1,5.2307343E-1,9.774128E-1,8.32E-1,3.8171685E-1,5.1126945E-1,2.0793376E0,0E0,0E0,2.175566E-1,1.0467223E0,0E0,5.2855766E-1,1.4130826E0,6.5967953E-1,7.087588E-2,3.5549998E-1,5.2836597E-1,0E0,0E0,3.4507674E-1,1.532125E0,0E0,7.287178E-1,1.3263888E0,0E0,0E0,0E0,0E0,0E0,0E0,0E0,0E0,0E0,0E0,0E0,0E0,0E0,0E0],"parents":[2147483647,0,0,1,1,2,2,3,3,4,4,5,5,6,6,9,9,10,10,12,12,13,13,14,14,15,15,16,16,17,17,20,20,21,21,23,23,24,24],"right_children":[2,4,6,8,10,12,14,-1,-1,16,18,-1,20,22,24,26,28,30,-1,-1,32,34,-1,36,38,-1,-1,-1,-1,-1,-1,-1,-1,-1,-1,-1,-1,-1,-1],"split_conditions":[5.86E1,4.66E1,1.13666664E2,1.148E2,9.3666664E1,4.1607143E1,1.1442857E2,-4.6585962E-1,1.363823E-1,6.86E1,6.1125E1,4.333954E-2,9.941964E1,5.86E1,8.62E1,6.48E1,1.134E2,4E0,4.3186647E-1,4.4470444E-1,1.0622768E2,1.0487804E0,-2.0188217E-1,2.506105E1,-1E0,3.5659558E-4,-1.7456928E-1,-6.1180496E-1,2.9525757E-3,-7.202727E-2,8.545685E-2,-2.8660132E-2,2.4833985E-1,2.2138932E-1,-6.4953995E-1,6.649712E-1,-1.9121252E-2,-5.7080764E-1,3.77388E-3],"split_indices":[43,43,13,1,58,24,65,0,0,11,14,0,74,15,58,58,0,67,0,0,74,76,0,25,125,0,0,0,0,0,0,0,0,0,0,0,0,0,0],"split_type":[0,0,0,0,0,0,0,0,0,0,0,0,0,0,0,0,0,0,0,0,0,0,0,0,0,0,0,0,0,0,0,0,0,0,0,0,0,0,0],"sum_hessian":[4.41E2,2.44E2,1.97E2,6E0,2.38E2,1.07E2,9E1,4E0,2E0,2.19E2,1.9E1,1E0,1.06E2,2.5E1,6.5E1,2.15E2,4E0,1.7E1,2E0,1E0,1.05E2,1.9E1,6E0,5.7E1,8E0,1.3E1,2.02E2,3E0,1E0,1.6E1,1E0,1.03E2,2E0,1.5E1,4E0,4E0,5.3E1,5E0,3E0],"tree_param":{"num_deleted":"0","num_feature":"140","num_nodes":"39","size_leaf_vector":"1"}},{"base_weights":[-2.7600873E-2,-3.1556528E-2,3E-2,-4.2298876E-2,1.0285712E-1,-7.336247E-2,-7.729492E-3,-2.2222245E-2,4.6666664E-1,-8.144799E-2,1.3333331E-1,2.1874997E-1,-2.6562523E-2,-4.7727283E-3,2.4999999E-1,-3.7500008E-3,3.75E-2,1.3333333E-2,-4.2922385E-3,-4.285715E-3,3E-2,2.3333332E-2,-4.375001E-3,3.4259248E-3,-3.165469E-3,3E-2,-3.7500008E-3],"categories":[],"categories_nodes":[],"categories_segments":[],"categories_sizes":[],"default_left":[0,0,0,0,0,0,0,0,0,0,0,0,0,0,0,0,0,0,0,0,0,0,0,0,0,0,0],"id":35,"left_children":[1,3,-1,5,7,9,11,13,15,17,19,21,23,-1,25,-1,-1,-1,-1,-1,-1,-1,-1,-1,-1,-1,-1],"loss_changes":[1.1882253E0,6.8154836E-1,0E0,4.6655732E-1,1.6030475E0,3.9357436E-1,8.887266E-1,5.621212E-1,1.4375001E0,3.6115122E-1,9.714285E-1,1.255625E0,6.751721E-1,0E0,7.2749996E-1,0E0,0E0,0E0,0E0,0E0,0E0,0E0,0E0,0E0,0E0,0E0,0E0],"parents":[2147483647,0,0,1,1,3,3,4,4,5,5,6,6,7,7,8,8,9,9,10,10,11,11,12,12,14,14],"right_children":[2,4,-1,6,8,10,12,14,16,18,20,22,24,-1,26,-1,-1,-1,-1,-1,-1,-1,-1,-1,-1,-1,-1],"split_conditions":[1.5E1,9.2E1,7.663727E-2,1.0357143E2,4.5238094E0,6.48E1,-1.1066667E1,5.96E1,1.089E2,2.19E1,1.1314676E2,4.3636365E0,7.34E1,-3.525486E-2,2.509804E0,-4.217964E-1,4.10273E-1,1.2737656E-1,-1.256215E-1,-1.4390793E-1,4.2246935E-1,3.1778947E-1,-3.5019685E-2,8.563072E-3,-1.0246431E-2,1.917038E-2,-5.798294E-1],"split_indices":[125,58,0,36,55,43,123,47,12,62,5,23,26,0,54,0,0,0,0,0,0,0,0,0,0,0,0],"split_type":[0,0,0,0,0,0,0,0,0,0,0,0,0,0,0,0,0,0,0,0,0,0,0,0,0,0,0],"sum_hessian":[4.7E2,4.68E2,2E0,4.34E2,3.4E1,2.28E2,2.06E2,2.6E1,8E0,2.2E2,8E0,1.5E1,1.91E2,2.1E1,5E0,3E0,5E0,2E0,2.18E2,6E0,2E0,8E0,7E0,5.3E1,1.38E2,2E0,3E0],"tree_param":{"num_deleted":"0","num_feature":"140","num_nodes":"27","size_leaf_vector":"1"}},{"base_weights":[-2.5382956E-2,-7.0098065E-2,1.0629898E-2,-7.4876875E-2,2.2499999E-2,-2.4120627E-2,1.3392855E-1,-9.308179E-2,-8.888912E-3,-4.0322606E-2,1.9285712E-1,6.6249996E-1,4.4897936E-2,1.7499998E-1,-4.96795E-3,1.5624997E-1,-4.8333346E-3,2.0999998E-1,-5.4237314E-2,4.8571426E-1,-4.375001E-3,3.857143E-2,-2.5000006E-3,-8.888912E-3,5.2E-1,2.2499999E-2,-3.3333343E-3,-4.500001E-3,2.4285713E-2,-4.166668E-3,2.5999999E-2,-4.2222235E-3,2.0930222E-3,3.6E-2,-3.3333343E-3,-3.589745E-3,1.7142856E-2,3.3749998E-2,-2.5000006E-3],"categories":[],"categories_nodes":[],"categories_segments":[],"categories_sizes":[],"default_left":[0,0,0,0,0,0,0,0,0,0,0,0,0,0,0,0,0,0,0,0,0,0,0,0,0,0,0,0,0,0,0,0,0,0,0,0,0,0,0],"id":36,"left_children":[1,3,5,7,-1,9,11,13,15,17,19,21,23,25,-1,27,-1,29,31,33,-1,-1,-1,35,37,-1,-1,-1,-1,-1,-1,-1,-1,-1,-1,-1,-1,-1,-1],"loss_changes":[7.3666084E-1,5.4072607E-1,1.0915424E0,2.4303758E-1,0E0,7.073547E-1,2.6055613E0,2.8495407E-1,6.6740274E-1,6.592586E-1,1.1919643E0,6.594641E-1,1.25678E0,2.9583335E-1,0E0,1.3418037E0,0E0,9.5266664E-1,5.1733756E-1,9.539046E-1,0E0,0E0,0E0,1.0203272E0,4.755E-1,0E0,0E0,0E0,0E0,0E0,0E0,0E0,0E0,0E0,0E0,0E0,0E0,0E0,0E0],"parents":[2147483647,0,0,1,1,2,2,3,3,5,5,6,6,7,7,8,8,9,9,10,10,11,11,12,12,13,13,15,15,17,17,18,18,19,19,23,23,24,24],"right_children":[2,4,6,8,-1,10,12,14,16,18,20,22,24,26,-1,28,-1,30,32,34,-1,-1,-1,36,38,-1,-1,-1,-1,-1,-1,-1,-1,-1,-1,-1,-1,-1,-1],"split_conditions":[4.588E2,1.314E2,1.2090341E2,1.1490196E1,4.702759E-3,4.16E1,1.2175E2,2.45E1,1.1242857E2,-4E0,5.28E1,1.179E2,1.0538407E1,1.153E2,-1.24737576E-1,9.534483E0,-2.0162964E-2,1.148E2,8.66E1,6.19E1,-1.3360596E-2,6.32235E-1,-5.508377E-1,1.21E2,1.178E2,1.2100754E-1,-5.623161E-1,-3.5142575E-3,3.0189973E-1,-2.8152466E-2,2.4780275E-3,-1.1381956E-1,1.478862E-2,3.8975906E-1,-1.6989441E-1,-8.637777E-3,2.724335E-1,2.1561432E-1,-1.4793366E0],"split_indices":[138,41,131,53,0,27,41,63,64,71,43,0,61,0,0,21,0,1,58,14,0,0,0,12,8,0,0,0,0,0,0,0,0,0,0,0,0,0,0],"split_type":[0,0,0,0,0,0,0,0,0,0,0,0,0,0,0,0,0,0,0,0,0,0,0,0,0,0,0,0,0,0,0,0,0,0,0,0,0,0,0],"sum_hessian":[4.56E2,2.03E2,2.53E2,2.02E2,1E0,1.98E2,5.5E1,1.58E2,4.4E1,1.85E2,1.3E1,7E0,4.8E1,3E0,1.55E2,1.5E1,2.9E1,9E0,1.76E2,6E0,7E0,6E0,1E0,4.4E1,4E0,1E0,2E0,9E0,6E0,5E0,4E0,1.34E2,4.2E1,4E0,2E0,3.8E1,6E0,3E0,1E0],"tree_param":{"num_deleted":"0","num_feature":"140","num_nodes":"39","size_leaf_vector":"1"}},{"base_weights":[-3.6184233E-2,-6.2422384E-2,2.6666643E-2,2.4999999E-1,-6.813882E-2,-1.6260399E-3,2.9230767E-1,-3.7500008E-3,3E-2,-7.672133E-2,1.3846152E-1,1.6521737E-1,-3.9603986E-2,3.6E-2,2.22222E-2,2.6666665E-1,-7.986801E-2,5.2E-1,-4.444446E-3,6.285714E-1,-3.529414E-2,4.2499998E-1,-5.816329E-2,2.2499999E-2,-4.375001E-3,-2.5000006E-3,2.2499999E-2,1.1999989E-3,-4.444446E-3,3.3749998E-2,-2.5000006E-3,-2.5000006E-3,3.75E-2,2.2499999E-2,-4.687501E-3,-2.5000006E-3,3E-2,-3.402063E-3,2.2499999E-2],"categories":[],"categories_nodes":[],"categories_segments":[],"categories_sizes":[],"default_left":[0,0,0,0,0,0,0,0,0,0,0,0,0,0,0,0,0,0,0,0,0,0,0,0,0,0,0,0,0,0,0,0,0,0,0,0,0,0,0],"id":37,"left_children":[1,3,5,7,9,11,13,-1,-1,15,17,19,21,-1,23,25,27,29,-1,31,33,35,37,-1,-1,-1,-1,-1,-1,-1,-1,-1,-1,-1,-1,-1,-1,-1,-1],"loss_changes":[7.5364995E-1,5.921087E-1,1.0150944E0,7.2749996E-1,5.7271147E-1,7.8591675E-1,1.4856751E0,0E0,0E0,3.5085976E-1,1.1738802E0,2.1590648E0,8.9561486E-1,0E0,4.6180555E-1,1.9666666E-1,2.8603923E-1,4.755E-1,0E0,6.142857E-1,5.244485E-1,3.6249995E-1,5.225416E-1,0E0,0E0,0E0,0E0,0E0,0E0,0E0,0E0,0E0,0E0,0E0,0E0,0E0,0E0,0E0,0E0],"parents":[2147483647,0,0,1,1,2,2,3,3,4,4,5,5,6,6,9,9,10,10,11,11,12,12,14,14,15,15,16,16,17,17,19,19,20,20,21,21,22,22],"right_children":[2,4,6,8,10,12,14,-1,-1,16,18,20,22,-1,24,26,28,30,-1,32,34,36,38,-1,-1,-1,-1,-1,-1,-1,-1,-1,-1,-1,-1,-1,-1,-1,-1],"split_conditions":[1.0395089E2,-9E0,6.094441E1,5.91E1,5.82E2,-4.5E0,6.3038303E1,-1.0202027E-2,5.0361636E-3,4.5E1,2.3272727E-1,5.75E1,-8.7287836E2,2.5881195E-1,1.9791666E0,1.125E2,1.9791666E0,1.201E2,-1.0401917E-2,1.153E2,2.139535E0,5.3E1,1.3E1,2.0483398E-1,-1.2692261E-2,-1.3835755E-1,2.3544312E-3,4.257392E-3,-7.850069E-2,7.689362E-2,-1.6139984E-1,-6.5998614E-1,2.4317323E-1,2.3017884E-3,-3.275452E-3,-8.725739E-3,9.765702E-2,-2.0840079E-2,2.2281419E-1],"split_indices":[74,71,24,15,138,81,24,0,0,42,60,15,121,0,22,0,22,0,0,0,22,2,125,0,0,0,0,0,0,0,0,0,0,0,0,0,0,0,0],"split_type":[0,0,0,0,0,0,0,0,0,0,0,0,0,0,0,0,0,0,0,0,0,0,0,0,0,0,0,0,0,0,0,0,0,0,0,0,0,0,0],"sum_hessian":[4.55E2,3.21E2,1.34E2,5E0,3.16E2,1.22E2,1.2E1,3E0,2E0,3.04E2,1.2E1,2.2E1,1E2,4E0,8E0,2E0,3.02E2,4E0,8E0,6E0,1.6E1,3E0,9.7E1,1E0,7E0,1E0,1E0,2.4E1,2.78E2,3E0,1E0,1E0,5E0,1E0,1.5E1,1E0,2E0,9.6E1,1E0],"tree_param":{"num_deleted":"0","num_feature":"140","num_nodes":"39","size_leaf_vector":"1"}}]},"name":"gbtree"},"learner_model_param":{"base_score":"[1.31E2]","boost_from_average":"1","num_class":"0","num_feature":"140","num_target":"1"},"objective":{"name":"reg:quantileerror","quantile_loss_param":{"quantile_alpha":"[9E-1]"}}},"version":[3,2,0]}