{"learner":{"attributes":{"best_iteration":"7","best_score":"11.97951320722878","scikit_learn":"{\"_estimator_type\": \"regressor\"}"},"feature_names":[],"feature_types":[],"gradient_booster":{"model":{"cats":{"enc":[],"feature_segments":[],"sorted_idx":[]},"gbtree_model_param":{"num_parallel_tree":"1","num_trees":"38"},"iteration_indptr":[0,1,2,3,4,5,6,7,8,9,10,11,12,13,14,15,16,17,18,19,20,21,22,23,24,25,26,27,28,29,30,31,32,33,34,35,36,37,38],"tree_info":[0,0,0,0,0,0,0,0,0,0,0,0,0,0,0,0,0,0,0,0,0,0,0,0,0,0,0,0,0,0,0,0,0,0,0,0,0,0],"trees":[{"base_weights":[-3.6607993E-1,-1.2789882E1,7.229705E-4,-6.075896E0,3.04967E0,-1.390716E0,5.1065993E-2,1.1163481E-1,1.3777043E0],"categories":[],"categories_nodes":[],"categories_segments":[],"categories_sizes":[],"default_left":[0,0,0,0,0,0,0,0,0],"id":0,"left_children":[1,-1,3,5,7,-1,-1,-1,-1],"loss_changes":[1.2715456E4,0E0,8.040868E3,2.418309E3,3.775121E3,0E0,0E0,0E0,0E0],"parents":[2147483647,0,0,2,2,3,3,4,4],"right_children":[2,-1,4,6,8,-1,-1,-1,-1],"split_conditions":[1.064E2,-1.2789882E1,1.144E2,1.168147E2,1.204E2,-1.390716E0,5.1065993E-2,1.1163481E-1,1.3777043E0],"split_indices":[0,0,33,128,33,0,0,0,0],"split_type":[0,0,0,0,0,0,0,0,0],"sum_hessian":[4.36E2,2E0,4.34E2,1.45E2,2.89E2,1.03E2,4.2E1,2.03E2,8.6E1],"tree_param":{"num_deleted":"0","num_feature":"140","num_nodes":"9","size_leaf_vector":"1"}},{"base_weights":[1.7086643E-1,-1.0744515E1,4.7990558E-1,-3.3491573E0,4.171102E0,-1.4196541E0,-2.0793225E-1,-4.271628E-1,8.730215E-1],"categories":[],"categories_nodes":[],"categories_segments":[],"categories_sizes":[],"default_left":[0,0,0,0,0,0,0,0,0],"id":1,"left_children":[1,-1,3,5,7,-1,-1,-1,-1],"loss_changes":[9.102586E3,0E0,6.1624507E3,2.4202124E3,1.9434187E3,0E0,0E0,0E0,0E0],"parents":[2147483647,0,0,2,2,3,3,4,4],"right_children":[2,-1,4,6,8,-1,-1,-1,-1],"split_conditions":[1.064E2,-1.0744515E1,1.158E2,1.0162946E2,1.0223214E2,-1.4196541E0,-2.0793225E-1,-4.271628E-1,8.730215E-1],"split_indices":[0,0,33,74,74,0,0,0,0],"split_type":[0,0,0,0,0,0,0,0,0],"sum_hessian":[4.38E2,2E0,4.36E2,2.14E2,2.22E2,5.8E1,1.56E2,3.5E1,1.87E2],"tree_param":{"num_deleted":"0","num_feature":"140","num_nodes":"9","size_leaf_vector":"1"}},{"base_weights":[-3.1827408E-1,-9.026246E0,-6.1354373E-2,1.5173119E0,-7.327401E0,-2.3071833E-1,6.6912013E-1,-1.6659894E0,-4.6533853E-1],"categories":[],"categories_nodes":[],"categories_segments":[],"categories_sizes":[],"default_left":[0,0,0,0,0,0,0,0,0],"id":2,"left_children":[1,-1,3,5,7,-1,-1,-1,-1],"loss_changes":[6.3193315E3,0E0,5.0129033E3,2.8254866E3,1.0601895E3,0E0,0E0,0E0,0E0],"parents":[2147483647,0,0,2,2,3,3,4,4],"right_children":[2,-1,4,6,8,-1,-1,-1,-1],"split_conditions":[1.064E2,-9.026246E0,1.1512904E2,1.0325893E2,1.159E2,-2.3071833E-1,6.6912013E-1,-1.6659894E0,-4.6533853E-1],"split_indices":[0,0,37,74,0,0,0,0,0],"split_type":[0,0,0,0,0,0,0,0,0],"sum_hessian":[4.39E2,2E0,4.37E2,3.59E2,7.8E1,1.7E2,1.89E2,4.6E1,3.2E1],"tree_param":{"num_deleted":"0","num_feature":"140","num_nodes":"9","size_leaf_vector":"1"}},{"base_weights":[7.35589E-2,-3.2971017E0,3.256275E0,-7.582763E0,-2.892224E0,7.91729E0,1.4526384E0,-8.960876E-1,-3.8128506E-2,6.4234746E-1,2.5783477E0,-5.948332E-1,5.8331364E-1],"categories":[],"categories_nodes":[],"categories_segments":[],"categories_sizes":[],"default_left":[0,0,0,0,0,0,0,0,0,0,0,0,0],"id":3,"left_children":[1,3,5,-1,7,9,11,-1,-1,-1,-1,-1,-1],"loss_changes":[4.85978E3,3.921946E3,1.9585159E3,0E0,1.5638083E3,2.076924E3,1.900677E3,0E0,0E0,0E0,0E0,0E0,0E0],"parents":[2147483647,0,0,1,1,2,2,4,4,5,5,6,6],"right_children":[2,4,6,-1,8,10,12,-1,-1,-1,-1,-1,-1],"split_conditions":[1.158E2,1.064E2,7E1,-7.582763E0,2.6397514E-1,1.4210855E-14,5.220895E1,-8.960876E-1,-3.8128506E-2,6.4234746E-1,2.5783477E0,-5.948332E-1,5.8331364E-1],"split_indices":[33,0,58,0,28,124,56,0,0,0,0,0,0],"split_type":[0,0,0,0,0,0,0,0,0,0,0,0,0],"sum_hessian":[4.53E2,2.2E2,2.33E2,2E0,2.18E2,6.5E1,1.68E2,1.08E2,1.1E2,4.4E1,2.1E1,5E1,1.18E2],"tree_param":{"num_deleted":"0","num_feature":"140","num_nodes":"13","size_leaf_vector":"1"}},{"base_weights":[1.6016608E-1,-4.8035674E0,1.8196592E0,-6.3701224E0,-4.183353E0,-7.7511245E-1,4.983737E0,-9.6600115E-1,7.9425836E-1,-3.7458416E-2,-1.6747808E0,1.0858858E0,-4.5178682E-1],"categories":[],"categories_nodes":[],"categories_segments":[],"categories_sizes":[],"default_left":[0,0,0,0,0,0,0,0,0,0,0,0,0],"id":4,"left_children":[1,3,5,-1,7,9,11,-1,-1,-1,-1,-1,-1],"loss_changes":[3.7808806E3,2.492726E3,2.8244097E3,0E0,1.9097794E3,9.901241E2,2.173556E3,0E0,0E0,0E0,0E0,0E0,0E0],"parents":[2147483647,0,0,1,1,2,2,4,4,5,5,6,6],"right_children":[2,4,6,-1,8,10,12,-1,-1,-1,-1,-1,-1],"split_conditions":[1.0200893E2,1.064E2,2.4232224E1,-6.3701224E0,1.1272727E1,1.2588235E1,1.166E1,-9.6600115E-1,7.9425836E-1,-3.7458416E-2,-1.6747808E0,1.0858858E0,-4.5178682E-1],"split_indices":[74,0,79,0,123,53,21,0,0,0,0,0,0],"split_type":[0,0,0,0,0,0,0,0,0,0,0,0,0],"sum_hessian":[4.59E2,1.15E2,3.44E2,2E0,1.13E2,1.89E2,1.55E2,9.4E1,1.9E1,1.79E2,1E1,1.26E2,2.9E1],"tree_param":{"num_deleted":"0","num_feature":"140","num_nodes":"13","size_leaf_vector":"1"}},{"base_weights":[8.429558E-2,1.2594523E0,-5.3412523E0,9.9287635E-1,1.7596525E1,-2.7224667E1,-4.203114E0,-7.0898753E-1,2.7085912E-1,2.1116238E0,4.22388E0,-5.9937315E0,-2.7179987E0,4.3679066E-2,-1.1062881E0],"categories":[],"categories_nodes":[],"categories_segments":[],"categories_sizes":[],"default_left":[0,0,0,0,0,0,0,0,0,0,0,0,0,0,0],"id":5,"left_children":[1,3,5,7,9,11,13,-1,-1,-1,-1,-1,-1,-1,-1],"loss_changes":[2.9009478E3,1.6282539E3,2.0163005E3,1.3928601E3,2.3035815E2,4.1533374E2,9.323264E2,0E0,0E0,0E0,0E0,0E0,0E0,0E0,0E0],"parents":[2147483647,0,0,1,1,2,2,3,3,4,4,5,5,6,6],"right_children":[2,4,6,8,10,12,14,-1,-1,-1,-1,-1,-1,-1,-1],"split_conditions":[6.547619E-1,1.3E1,1.0264774E2,3.333E2,1.21E2,1.113E2,1.0166667E1,-7.0898753E-1,2.7085912E-1,2.1116238E0,4.22388E0,-5.9937315E0,-2.7179987E0,4.3679066E-2,-1.1062881E0],"split_indices":[39,125,128,138,33,1,21,0,0,0,0,0,0,0,0],"split_type":[0,0,0,0,0,0,0,0,0,0,0,0,0,0,0],"sum_hessian":[4.55E2,3.74E2,8.1E1,3.68E2,6E0,4E0,7.7E1,4.2E1,3.26E2,4E0,2E0,2E0,2E0,2.9E1,4.8E1],"tree_param":{"num_deleted":"0","num_feature":"140","num_nodes":"15","size_leaf_vector":"1"}},{"base_weights":[1.6995274E-1,1.4316827E0,-3.7399638E0,-1.5527678E1,1.6820319E0,-5.3493824E0,2.4165301E0,-1.0084027E0,-3.4690297E0,1.4856215E-1,1.0388042E0,-1.567308E0,-4.0917245E-1,-2.5764875E-2,1.8730425E0],"categories":[],"categories_nodes":[],"categories_segments":[],"categories_sizes":[],"default_left":[0,0,0,0,0,0,0,0,0,0,0,0,0,0,0],"id":6,"left_children":[1,3,5,7,9,11,13,-1,-1,-1,-1,-1,-1,-1,-1],"loss_changes":[2.2445999E3,1.4602545E3,1.099976E3,2.8208435E2,1.2284575E3,1.0907395E3,5.5043835E2,0E0,0E0,0E0,0E0,0E0,0E0,0E0,0E0],"parents":[2147483647,0,0,1,1,2,2,3,3,4,4,5,5,6,6],"right_children":[2,4,6,8,10,12,14,-1,-1,-1,-1,-1,-1,-1,-1],"split_conditions":[1.6471E3,4.8285713E1,1.2028571E2,7.431206E0,3.15E1,2.81E1,1.20111115E2,-1.0084027E0,-3.4690297E0,1.4856215E-1,1.0388042E0,-1.567308E0,-4.0917245E-1,-2.5764875E-2,1.8730425E0],"split_indices":[78,15,64,29,30,31,69,0,0,0,0,0,0,0,0],"split_type":[0,0,0,0,0,0,0,0,0,0,0,0,0,0,0],"sum_hessian":[4.55E2,3.44E2,1.11E2,5E0,3.39E2,8.8E1,2.3E1,2E0,3E0,2.93E2,4.6E1,3.4E1,5.4E1,1.8E1,5E0],"tree_param":{"num_deleted":"0","num_feature":"140","num_nodes":"15","size_leaf_vector":"1"}},{"base_weights":[8.360947E-3,4.0921392E0,-1.3528414E0,5.121812E0,-6.406243E0,-1.5072155E1,-9.7503185E-1,1.3265208E0,2.9364416E-1,-3.493871E-1,-1.7011069E0,-3.5145278E0,-1.0353689E0,-1.2738627E-1,-3.2585323E0],"categories":[],"categories_nodes":[],"categories_segments":[],"categories_sizes":[],"default_left":[0,0,0,0,0,0,0,0,0,0,0,0,0,0,0],"id":7,"left_children":[1,3,5,7,9,11,13,-1,-1,-1,-1,-1,-1,-1,-1],"loss_changes":[2.490471E3,1.2108003E3,1.7411211E3,1.0599346E3,1.7772772E2,5.31381E2,1.1372341E3,0E0,0E0,0E0,0E0,0E0,0E0,0E0,0E0],"parents":[2147483647,0,0,1,1,2,2,3,3,4,4,5,5,6,6],"right_children":[2,4,6,8,10,12,14,-1,-1,-1,-1,-1,-1,-1,-1],"split_conditions":[1.3261572E3,1.216E2,4.88E1,3.3333332E1,4.5E2,4.464286E-2,6.64E1,1.3265208E0,2.9364416E-1,-3.493871E-1,-1.7011069E0,-3.5145278E0,-1.0353689E0,-1.2738627E-1,-3.2585323E0],"split_indices":[78,13,15,59,138,75,43,0,0,0,0,0,0,0,0],"split_type":[0,0,0,0,0,0,0,0,0,0,0,0,0,0,0],"sum_hessian":[4.48E2,1.12E2,3.36E2,1.02E2,1E1,9E0,3.27E2,5.2E1,5E1,5E0,5E0,5E0,4E0,3.24E2,3E0],"tree_param":{"num_deleted":"0","num_feature":"140","num_nodes":"15","size_leaf_vector":"1"}},{"base_weights":[-1.9546916E-1,-4.3290186E0,1.1661161E0,1.1224003E1,-5.209918E0,-1.4889488E-2,4.30296E0,2.1060426E0,1.1762589E0,-1.7436256E-1,-1.1326723E0,5.775399E-2,-1.5927044E0,9.221045E-1,-1.4843849E0],"categories":[],"categories_nodes":[],"categories_segments":[],"categories_sizes":[],"default_left":[0,0,0,0,0,0,0,0,0,0,0,0,0,0,0],"id":8,"left_children":[1,3,5,7,9,11,13,-1,-1,-1,-1,-1,-1,-1,-1],"loss_changes":[2.5440544E3,1.5345193E3,1.2597018E3,4.4019104E1,8.1341187E2,9.212906E2,1.8361434E3,0E0,0E0,0E0,0E0,0E0,0E0,0E0,0E0],"parents":[2147483647,0,0,1,1,2,2,3,3,4,4,5,5,6,6],"right_children":[2,4,6,8,10,12,14,-1,-1,-1,-1,-1,-1,-1,-1],"split_conditions":[1.0200893E2,3.3076923E0,1.2006056E2,1.126E2,1.4918293E3,9.55E1,1.186E2,2.1060426E0,1.1762589E0,-1.7436256E-1,-1.1326723E0,5.775399E-2,-1.5927044E0,9.221045E-1,-1.4843849E0],"split_indices":[74,23,131,9,78,26,44,0,0,0,0,0,0,0,0],"split_type":[0,0,0,0,0,0,0,0,0,0,0,0,0,0,0],"sum_hessian":[4.52E2,1.12E2,3.4E2,6E0,1.06E2,2.47E2,9.3E1,4E0,2E0,3.3E1,7.3E1,2.38E2,9E0,8.4E1,9E0],"tree_param":{"num_deleted":"0","num_feature":"140","num_nodes":"15","size_leaf_vector":"1"}},{"base_weights":[-2.2527047E-1,-1.9376787E0,1.6303769E0,-1.3990979E1,-1.5088209E0,2.771155E0,-4.040838E0,-1.0543185E0,-3.4243655E0,1.8298473E0,-2.9843894E-1,4.5486644E-2,1.0939183E0,-4.2694435E-1,-3.0652385E0],"categories":[],"categories_nodes":[],"categories_segments":[],"categories_sizes":[],"default_left":[0,0,0,0,0,0,0,0,0,0,0,0,0,0,0],"id":9,"left_children":[1,3,5,7,9,11,13,-1,-1,-1,-1,-1,-1,-1,-1],"loss_changes":[1.423603E3,1.2039451E3,1.3909805E3,4.369889E2,1.0319028E3,1.8070188E3,7.4669257E2,0E0,0E0,0E0,0E0,0E0,0E0,0E0,0E0],"parents":[2147483647,0,0,1,1,2,2,3,3,4,4,5,5,6,6],"right_children":[2,4,6,8,10,12,14,-1,-1,-1,-1,-1,-1,-1,-1],"split_conditions":[1.1874149E1,5.1E1,1.166E1,2.85E1,1.03333336E2,1.0330357E2,3.1555555E1,-1.0543185E0,-3.4243655E0,1.8298473E0,-2.9843894E-1,4.5486644E-2,1.0939183E0,-4.2694435E-1,-3.0652385E0],"split_indices":[79,42,21,31,64,4,62,0,0,0,0,0,0,0,0],"split_type":[0,0,0,0,0,0,0,0,0,0,0,0,0,0,0],"sum_hessian":[4.48E2,2.33E2,2.15E2,8E0,2.25E2,1.79E2,3.6E1,4E0,4E0,6E0,2.19E2,1.11E2,6.8E1,3.3E1,3E0],"tree_param":{"num_deleted":"0","num_feature":"140","num_nodes":"15","size_leaf_vector":"1"}},{"base_weights":[1.9582382E-1,-2.0125732E0,2.0721755E0,1.1470694E1,-2.4113858E0,2.3614917E0,-1.18607025E1,8.98169E-1,2.7727392E0,-5.555516E-1,4.5547855E-1,-1.1485676E0,4.3746072E-1,2.3572023E-1,-3.323326E0],"categories":[],"categories_nodes":[],"categories_segments":[],"categories_sizes":[],"default_left":[0,0,0,0,0,0,0,0,0,0,0,0,0,0,0],"id":10,"left_children":[1,3,5,7,9,11,13,-1,-1,-1,-1,-1,-1,-1,-1],"loss_changes":[1.8854227E3,1.123705E3,9.9146265E2,2.0469989E2,1.1282439E3,8.5007446E2,5.9360376E2,0E0,0E0,0E0,0E0,0E0,0E0,0E0,0E0],"parents":[2147483647,0,0,1,1,2,2,3,3,4,4,5,5,6,6],"right_children":[2,4,6,8,10,12,14,-1,-1,-1,-1,-1,-1,-1,-1],"split_conditions":[1.0290179E2,2.3333334E1,3.522222E1,2.81E1,1.175E2,2.222E2,1.102E2,8.98169E-1,2.7727392E0,-5.555516E-1,4.5547855E-1,-1.1485676E0,4.3746072E-1,2.3572023E-1,-3.323326E0],"split_indices":[74,62,63,30,12,139,8,0,0,0,0,0,0,0,0],"split_type":[0,0,0,0,0,0,0,0,0,0,0,0,0,0,0],"sum_hessian":[4.55E2,2.09E2,2.46E2,6E0,2.03E2,2.41E2,5E0,3E0,3E0,1.69E2,3.4E1,9E0,2.32E2,2E0,3E0],"tree_param":{"num_deleted":"0","num_feature":"140","num_nodes":"15","size_leaf_vector":"1"}},{"base_weights":[2.4013413E-1,-8.478306E0,5.9064066E-1,-1.2957916E1,2.2686145E0,1.2136977E0,-2.8404486E0,-4.187786E0,-1.6512146E0,1.3666235E0,-1.139249E0,-6.54514E-2,4.817394E-1,-2.690718E0,-2.6839527E-1],"categories":[],"categories_nodes":[],"categories_segments":[],"categories_sizes":[],"default_left":[0,0,0,0,0,0,0,0,0,0,0,0,0,0,0],"id":11,"left_children":[1,3,5,7,9,11,13,-1,-1,-1,-1,-1,-1,-1,-1],"loss_changes":[1.3443921E3,8.189302E2,9.042462E2,4.1742712E2,2.942626E2,1.0422292E3,1.0562402E3,0E0,0E0,0E0,0E0,0E0,0E0,0E0,0E0],"parents":[2147483647,0,0,1,1,2,2,3,3,4,4,5,5,6,6],"right_children":[2,4,6,8,10,12,14,-1,-1,-1,-1,-1,-1,-1,-1],"split_conditions":[9.917675E1,2.4915254E0,1.1735849E1,1.111E2,1.148E2,-1.1265636E-1,1.7431192E-1,-4.187786E0,-1.6512146E0,1.3666235E0,-1.139249E0,-6.54514E-2,4.817394E-1,-2.690718E0,-2.6839527E-1],"split_indices":[131,54,21,0,1,135,60,0,0,0,0,0,0,0,0],"split_type":[0,0,0,0,0,0,0,0,0,0,0,0,0,0,0],"sum_hessian":[4.4E2,1.7E1,4.23E2,1.2E1,5E0,3.58E2,6.5E1,2E0,1E1,3E0,2E0,1.88E2,1.7E2,5E0,6E1],"tree_param":{"num_deleted":"0","num_feature":"140","num_nodes":"15","size_leaf_vector":"1"}},{"base_weights":[4.933186E-2,-1.6599776E0,1.4141355E0,2.212856E0,-3.3040495E0,1.6397349E0,-9.53915E0,4.0724654E0,2.236599E-1,-6.774877E-1,7.948104E-1,1.046886E-1,8.7205154E-1,2.0849131E-1,-2.6857316E0],"categories":[],"categories_nodes":[],"categories_segments":[],"categories_sizes":[],"default_left":[0,0,0,0,0,0,0,0,0,0,0,0,0,0,0],"id":12,"left_children":[1,3,5,7,9,11,13,-1,-1,-1,-1,-1,-1,-1,-1],"loss_changes":[1.0404675E3,1.2607783E3,6.126597E2,1.1173569E3,1.0643547E3,9.1164795E2,3.9264645E2,0E0,0E0,0E0,0E0,0E0,0E0,0E0,0E0],"parents":[2147483647,0,0,1,1,2,2,3,3,4,4,5,5,6,6],"right_children":[2,4,6,8,10,12,14,-1,-1,-1,-1,-1,-1,-1,-1],"split_conditions":[1.0294643E2,7.32E1,3.522222E1,1.55E1,4.724138E0,3.09E1,1.102E2,4.0724654E0,2.236599E-1,-6.774877E-1,7.948104E-1,1.046886E-1,8.7205154E-1,2.0849131E-1,-2.6857316E0],"split_indices":[74,58,63,27,55,63,8,0,0,0,0,0,0,0,0],"split_type":[0,0,0,0,0,0,0,0,0,0,0,0,0,0,0],"sum_hessian":[4.46E2,1.98E2,2.48E2,5.9E1,1.39E2,2.43E2,5E0,2E0,5.7E1,1.25E2,1.4E1,1.93E2,5E1,2E0,3E0],"tree_param":{"num_deleted":"0","num_feature":"140","num_nodes":"15","size_leaf_vector":"1"}},{"base_weights":[5.6215186E-2,-4.8820734E0,5.3900516E-1,-1.6236166E1,-3.2103095E0,1.6640556E0,-1.955828E0,-1.5131747E0,-4.2241855E0,-1.9597176E0,-2.6458234E-1,1.0743205E-1,1.0582525E0,-1.9535194E-1,-1.8184438E0],"categories":[],"categories_nodes":[],"categories_segments":[],"categories_sizes":[],"default_left":[0,0,0,0,0,0,0,0,0,0,0,0,0,0,0],"id":13,"left_children":[1,3,5,7,9,11,13,-1,-1,-1,-1,-1,-1,-1,-1],"loss_changes":[1.044157E3,7.3964856E2,1.1199281E3,3.4263916E2,4.7781863E2,1.3501404E3,8.574435E2,0E0,0E0,0E0,0E0,0E0,0E0,0E0,0E0],"parents":[2147483647,0,0,1,1,2,2,3,3,4,4,5,5,6,6],"right_children":[2,4,6,8,10,12,14,-1,-1,-1,-1,-1,-1,-1,-1],"split_conditions":[2.368E2,1.0066964E2,1.1321428E1,1E0,3.625E0,6.04E1,1.219E2,-1.5131747E0,-4.2241855E0,-1.9597176E0,-2.6458234E-1,1.0743205E-1,1.0582525E0,-1.9535194E-1,-1.8184438E0],"split_indices":[138,4,21,49,55,14,44,0,0,0,0,0,0,0,0],"split_type":[0,0,0,0,0,0,0,0,0,0,0,0,0,0,0],"sum_hessian":[4.38E2,3.9E1,3.99E2,5E0,3.4E1,2.75E2,1.24E2,3E0,2E0,5E0,2.9E1,2.29E2,4.6E1,1.15E2,9E0],"tree_param":{"num_deleted":"0","num_feature":"140","num_nodes":"15","size_leaf_vector":"1"}},{"base_weights":[2.8765172E-2,2.4422002E0,-8.37337E-1,-3.057088E-1,5.877434E0,-4.387514E0,-6.88746E-2,6.556279E-1,-4.349283E-1,5.844098E-1,2.4391434E0,-1.6404648E0,-4.830107E-1,2.0246366E-1,-3.8141683E-1],"categories":[],"categories_nodes":[],"categories_segments":[],"categories_sizes":[],"default_left":[0,0,0,0,0,0,0,0,0,0,0,0,0,0,0],"id":14,"left_children":[1,3,5,7,9,11,13,-1,-1,-1,-1,-1,-1,-1,-1],"loss_changes":[9.260503E2,1.1046299E3,8.8927185E2,6.892003E2,1.083123E3,4.6539636E2,8.262856E2,0E0,0E0,0E0,0E0,0E0,0E0,0E0,0E0],"parents":[2147483647,0,0,1,1,2,2,3,3,4,4,5,5,6,6],"right_children":[2,4,6,8,10,12,14,-1,-1,-1,-1,-1,-1,-1,-1],"split_conditions":[7.32E1,3E0,1.0160714E2,7.292431E0,1.0589286E1,4.5E1,1.1571429E2,6.556279E-1,-4.349283E-1,5.844098E-1,2.4391434E0,-1.6404648E0,-4.830107E-1,2.0246366E-1,-3.8141683E-1],"split_indices":[58,67,74,61,53,34,65,0,0,0,0,0,0,0,0],"split_type":[0,0,0,0,0,0,0,0,0,0,0,0,0,0,0],"sum_hessian":[4.43E2,1.17E2,3.26E2,6.5E1,5.2E1,5.8E1,2.68E2,2.3E1,4.2E1,4.2E1,1E1,1.1E1,4.7E1,1.7E2,9.8E1],"tree_param":{"num_deleted":"0","num_feature":"140","num_nodes":"15","size_leaf_vector":"1"}},{"base_weights":[1.5174543E-2,-1.0503576E1,1.807666E-1,-1.4127184E1,-2.2800067E-1,3.3629577E0,8.658336E-2,-2.7577257E0,-1.5145969E0,-4.449011E-1,1.0588335E-1],"categories":[],"categories_nodes":[],"categories_segments":[],"categories_sizes":[],"default_left":[0,0,0,0,0,0,0,0,0,0,0],"id":15,"left_children":[1,3,5,7,-1,-1,9,-1,-1,-1,-1],"loss_changes":[7.870336E2,2.2992975E2,8.719266E2,7.1045166E1,0E0,0E0,7.290621E2,0E0,0E0,0E0,0E0],"parents":[2147483647,0,0,1,1,2,2,3,3,6,6],"right_children":[2,4,6,8,-1,-1,10,-1,-1,-1,-1],"split_conditions":[9.882124E1,1.142E2,9.944196E1,1.113E2,-2.2800067E-1,3.3629577E0,9.714286E0,-2.7577257E0,-1.5145969E0,-4.449011E-1,1.0588335E-1],"split_indices":[126,41,74,1,0,0,53,0,0,0,0],"split_type":[0,0,0,0,0,0,0,0,0,0,0],"sum_hessian":[4.52E2,7E0,4.45E2,5E0,2E0,2E0,4.43E2,3E0,2E0,7.4E1,3.69E2],"tree_param":{"num_deleted":"0","num_feature":"140","num_nodes":"11","size_leaf_vector":"1"}},{"base_weights":[1.9363177E-1,-1.1206902E0,2.0713773E0,-1.5652992E-1,-5.2841973E0,-1.6637021E-1,4.7289515E0,-1.2364322E0,4.4327293E-2,-4.772651E-1,-1.497036E0,8.859807E-1,-2.4006759E-1,1.7857778E0,4.5864242E-1],"categories":[],"categories_nodes":[],"categories_segments":[],"categories_sizes":[],"default_left":[0,0,0,0,0,0,0,0,0,0,0,0,0,0,0],"id":16,"left_children":[1,3,5,7,9,11,13,-1,-1,-1,-1,-1,-1,-1,-1],"loss_changes":[1.0489237E3,1.00343365E3,1.040865E3,6.6554376E2,4.396488E2,7.2135364E2,9.577385E2,0E0,0E0,0E0,0E0,0E0,0E0,0E0,0E0],"parents":[2147483647,0,0,1,1,2,2,3,3,4,4,5,5,6,6],"right_children":[2,4,6,8,10,12,14,-1,-1,-1,-1,-1,-1,-1,-1],"split_conditions":[1.0339286E2,1.1423077E1,9.542861E0,1.078E2,1.14125E2,0E0,1.0357143E2,-1.2364322E0,4.4327293E-2,-4.772651E-1,-1.497036E0,8.859807E-1,-2.4006759E-1,1.7857778E0,4.5864242E-1],"split_indices":[74,21,61,33,44,85,4,0,0,0,0,0,0,0,0],"split_type":[0,0,0,0,0,0,0,0,0,0,0,0,0,0,0],"sum_hessian":[4.25E2,2.5E2,1.75E2,2.03E2,4.7E1,9.5E1,8E1,1.1E1,1.92E2,3E1,1.7E1,1.8E1,7.7E1,1.8E1,6.2E1],"tree_param":{"num_deleted":"0","num_feature":"140","num_nodes":"15","size_leaf_vector":"1"}},{"base_weights":[-1.992749E-1,1.7477206E0,-1.0539949E0,1.3613315E0,1.4191947E1,-2.028745E-1,-4.051427E0,-1.1710908E0,2.8584448E-1,1.2243484E0,3.3159504E0,8.309808E-4,-2.6194406E0,-1.7597666E-1,-1.3491443E0],"categories":[],"categories_nodes":[],"categories_segments":[],"categories_sizes":[],"default_left":[0,0,0,0,0,0,0,0,0,0,0,0,0,0,0],"id":17,"left_children":[1,3,5,7,9,11,13,-1,-1,-1,-1,-1,-1,-1,-1],"loss_changes":[7.2555457E2,6.3904126E2,7.728957E2,4.7374023E2,1.6945679E2,7.936121E2,8.6477783E2,0E0,0E0,0E0,0E0,0E0,0E0,0E0,0E0],"parents":[2147483647,0,0,1,1,2,2,3,3,4,4,5,5,6,6],"right_children":[2,4,6,8,10,12,14,-1,-1,-1,-1,-1,-1,-1,-1],"split_conditions":[3E0,5.89E2,8.52E1,-5.625E0,5.65E1,1.23E2,1.16166664E2,-1.1710908E0,2.8584448E-1,1.2243484E0,3.3159504E0,8.309808E-4,-2.6194406E0,-1.7597666E-1,-1.3491443E0],"split_indices":[73,138,26,75,10,45,44,0,0,0,0,0,0,0,0],"split_type":[0,0,0,0,0,0,0,0,0,0,0,0,0,0,0],"sum_hessian":[4.36E2,1.33E2,3.03E2,1.29E2,4E0,2.36E2,6.7E1,6E0,1.23E2,2E0,2E0,2.33E2,3E0,4E1,2.7E1],"tree_param":{"num_deleted":"0","num_feature":"140","num_nodes":"15","size_leaf_vector":"1"}},{"base_weights":[3.0020416E-2,-6.7099476E0,2.6253882E-1,-1.0163726E1,2.5157206E0,2.7951396E0,1.8295817E-1,-2.9097989E0,-8.25164E-1,-1.7853887E-1,1.7718935E-1],"categories":[],"categories_nodes":[],"categories_segments":[],"categories_sizes":[],"default_left":[0,0,0,0,0,0,0,0,0,0,0],"id":18,"left_children":[1,3,5,7,-1,-1,9,-1,-1,-1,-1],"loss_changes":[7.050596E2,1.1619495E3,5.946053E2,5.207289E2,0E0,0E0,5.1890204E2,0E0,0E0,0E0,0E0],"parents":[2147483647,0,0,1,1,2,2,3,3,6,6],"right_children":[2,4,6,8,-1,-1,10,-1,-1,-1,-1],"split_conditions":[1E0,1.0631696E2,9.944196E1,5.2E1,2.5157206E0,2.7951396E0,2.82E1,-2.9097989E0,-8.25164E-1,-1.7853887E-1,1.7718935E-1],"split_indices":[16,74,74,43,0,0,63,0,0,0,0],"split_type":[0,0,0,0,0,0,0,0,0,0,0],"sum_hessian":[4.5E2,1.5E1,4.35E2,1.3E1,2E0,2E0,4.33E2,5E0,8E0,1.8E2,2.53E2],"tree_param":{"num_deleted":"0","num_feature":"140","num_nodes":"11","size_leaf_vector":"1"}},{"base_weights":[-2.3654933E-1,-9.2091966E-1,1.6307162E0,-8.733448E0,-6.4442587E-1,-8.8017E0,2.2890742E0,-2.04811E0,-2.6045376E-1,1.6166784E-1,-2.9600036E-1,-1.8541446E0,-2.9505786E-1,-1.8559602E-1,6.5410364E-1],"categories":[],"categories_nodes":[],"categories_segments":[],"categories_sizes":[],"default_left":[0,0,0,0,0,0,0,0,0,0,0,0,0,0,0],"id":19,"left_children":[1,3,5,7,9,11,13,-1,-1,-1,-1,-1,-1,-1,-1],"loss_changes":[5.6226526E2,6.9529236E2,8.1035693E2,3.1664716E2,6.192219E2,1.3484552E2,6.871592E2,0E0,0E0,0E0,0E0,0E0,0E0,0E0,0E0],"parents":[2147483647,0,0,1,1,2,2,3,3,4,4,5,5,6,6],"right_children":[2,4,6,8,10,12,14,-1,-1,-1,-1,-1,-1,-1,-1],"split_conditions":[1.1340909E1,9.98E1,-3.6693893E2,1.17666664E2,5.6E1,2.3E1,-2.2767856E0,-2.04811E0,-2.6045376E-1,1.6166784E-1,-2.9600036E-1,-1.8541446E0,-2.9505786E-1,-1.8559602E-1,6.5410364E-1],"split_indices":[53,45,79,12,42,2,75,0,0,0,0,0,0,0,0],"split_type":[0,0,0,0,0,0,0,0,0,0,0,0,0,0,0],"sum_hessian":[4.4E2,3.22E2,1.18E2,1.1E1,3.11E2,7E0,1.11E2,7E0,4E0,1.31E2,1.8E2,5E0,2E0,3.8E1,7.3E1],"tree_param":{"num_deleted":"0","num_feature":"140","num_nodes":"15","size_leaf_vector":"1"}},{"base_weights":[-1.0223978E-1,-8.3217365E-1,1.8910204E0,3.644199E0,-1.2215458E0,1.526876E-1,5.3232884E0,2.3405507E0,2.6372495E-1,-8.590769E-1,-1.3507695E-1,1.913609E-1,-1.2728757E0,1.4366568E0,3.7430423E-1],"categories":[],"categories_nodes":[],"categories_segments":[],"categories_sizes":[],"default_left":[0,0,0,0,0,0,0,0,0,0,0,0,0,0,0],"id":20,"left_children":[1,3,5,7,9,11,13,-1,-1,-1,-1,-1,-1,-1,-1],"loss_changes":[6.45977E2,5.664192E2,7.098707E2,5.6929065E2,4.6817343E2,6.6680194E2,4.35307E2,0E0,0E0,0E0,0E0,0E0,0E0,0E0,0E0],"parents":[2147483647,0,0,1,1,2,2,3,3,4,4,5,5,6,6],"right_children":[2,4,6,8,10,12,14,-1,-1,-1,-1,-1,-1,-1,-1],"split_conditions":[1.0410714E2,-5E0,1.0011335E1,2.61E1,2.314E2,6.36E1,5.82E1,2.3405507E0,2.6372495E-1,-8.590769E-1,-1.3507695E-1,1.913609E-1,-1.2728757E0,1.4366568E0,3.7430423E-1],"split_indices":[74,71,61,30,138,11,46,0,0,0,0,0,0,0,0],"split_type":[0,0,0,0,0,0,0,0,0,0,0,0,0,0,0],"sum_hessian":[4.44E2,3.25E2,1.19E2,2.6E1,2.99E2,7.9E1,4E1,4E0,2.2E1,2.5E1,2.74E2,7E1,9E0,1.8E1,2.2E1],"tree_param":{"num_deleted":"0","num_feature":"140","num_nodes":"15","size_leaf_vector":"1"}},{"base_weights":[-6.791263E-3,-1.12693E0,1.1283619E0,-1.9716516E0,2.347231E0,3.8211122E0,-1.1159104E-1,-2.5389355E-1,-1.4972731E0,2.3708057E0,1.1989216E-1,2.9362497E-1,1.4074323E0,2.374702E0,-6.611886E-2],"categories":[],"categories_nodes":[],"categories_segments":[],"categories_sizes":[],"default_left":[0,0,0,0,0,0,0,0,0,0,0,0,0,0,0],"id":21,"left_children":[1,3,5,7,9,11,13,-1,-1,-1,-1,-1,-1,-1,-1],"loss_changes":[5.6838086E2,6.603189E2,7.413439E2,5.155407E2,8.757599E2,6.907909E2,6.837246E2,0E0,0E0,0E0,0E0,0E0,0E0,0E0,0E0],"parents":[2147483647,0,0,1,1,2,2,3,3,4,4,5,5,6,6],"right_children":[2,4,6,8,10,12,14,-1,-1,-1,-1,-1,-1,-1,-1],"split_conditions":[6.2900434E0,1.19E2,5.56E1,-8.1389265E0,-5.3863635E0,4E1,1.07E2,-2.5389355E-1,-1.4972731E0,2.3708057E0,1.1989216E-1,2.9362497E-1,1.4074323E0,2.374702E0,-6.611886E-2],"split_indices":[79,8,10,79,123,3,12,0,0,0,0,0,0,0,0],"split_type":[0,0,0,0,0,0,0,0,0,0,0,0,0,0,0],"sum_hessian":[4.47E2,2.25E2,2.22E2,1.81E2,4.4E1,7E1,1.52E2,1.72E2,9E0,5E0,3.9E1,5E1,2E1,3E0,1.49E2],"tree_param":{"num_deleted":"0","num_feature":"140","num_nodes":"15","size_leaf_vector":"1"}},{"base_weights":[-7.0149295E-2,-1.3343946E0,7.757877E-1,-1.0458484E1,-1.0120348E0,1.0662168E0,-6.5675287E0,-1.9027603E0,-1.2150842E0,1.8213154E-1,-3.4987196E-1,-1.3761122E-2,5.354936E-1,1.2990917E-1,-1.5587262E0],"categories":[],"categories_nodes":[],"categories_segments":[],"categories_sizes":[],"default_left":[0,0,0,0,0,0,0,0,0,0,0,0,0,0,0],"id":22,"left_children":[1,3,5,7,9,11,13,-1,-1,-1,-1,-1,-1,-1,-1],"loss_changes":[4.6951938E2,5.1732434E2,5.6078064E2,2.3727356E1,4.284731E2,6.639458E2,2.3388284E2,0E0,0E0,0E0,0E0,0E0,0E0,0E0,0E0],"parents":[2147483647,0,0,1,1,2,2,3,3,4,4,5,5,6,6],"right_children":[2,4,6,8,10,12,14,-1,-1,-1,-1,-1,-1,-1,-1],"split_conditions":[2.82E1,8.807017E0,9.55E1,2.58E1,3.9056604E0,1.164E2,1.093E2,-1.9027603E0,-1.2150842E0,1.8213154E-1,-3.4987196E-1,-1.3761122E-2,5.354936E-1,1.2990917E-1,-1.5587262E0],"split_indices":[63,21,26,30,23,0,45,0,0,0,0,0,0,0,0],"split_type":[0,0,0,0,0,0,0,0,0,0,0,0,0,0,0],"sum_hessian":[4.39E2,1.76E2,2.63E2,6E0,1.7E2,2.53E2,1E1,4E0,2E0,6E1,1.1E2,1.68E2,8.5E1,3E0,7E0],"tree_param":{"num_deleted":"0","num_feature":"140","num_nodes":"15","size_leaf_vector":"1"}},{"base_weights":[2.9385793E-1,-2.3348858E0,7.929844E-1,1.9955755E0,-2.9885242E0,5.259335E0,2.8773946E-1,-1.34759685E-2,-9.7178125E-1,-3.8197303E-1,1.0719998E0,-4.0984562E-1,1.61785E-1],"categories":[],"categories_nodes":[],"categories_segments":[],"categories_sizes":[],"default_left":[0,0,0,0,0,0,0,0,0,0,0,0,0],"id":23,"left_children":[1,3,5,-1,7,9,11,-1,-1,-1,-1,-1,-1],"loss_changes":[5.8384094E2,6.865046E2,8.438203E2,0E0,6.080129E2,4.1682788E2,6.910191E2,0E0,0E0,0E0,0E0,0E0,0E0],"parents":[2147483647,0,0,1,1,2,2,4,4,5,5,6,6],"right_children":[2,4,6,-1,8,10,12,-1,-1,-1,-1,-1,-1],"split_conditions":[9.714286E0,2.3E1,6.72E1,1.9955755E0,3.1531746E1,-5.758929E0,8.374821E0,-1.34759685E-2,-9.7178125E-1,-3.8197303E-1,1.0719998E0,-4.0984562E-1,1.61785E-1],"split_indices":[53,62,58,0,57,75,61,0,0,0,0,0,0],"split_type":[0,0,0,0,0,0,0,0,0,0,0,0,0],"sum_hessian":[4.45E2,7.1E1,3.74E2,3E0,6.8E1,3.8E1,3.36E2,3.5E1,3.3E1,6E0,3.2E1,6.8E1,2.68E2],"tree_param":{"num_deleted":"0","num_feature":"140","num_nodes":"13","size_leaf_vector":"1"}},{"base_weights":[-5.378658E-2,-2.3388682E-1,5.2623787E0,-1.1223851E0,8.754709E-1,1.2344794E0,1.129618E1,1.996129E-1,-3.4616825E-1,5.24733E-1,-1.2486026E-2,-4.4170308E-1,5.181937E-1,3.1584773E0,1.1315485E0],"categories":[],"categories_nodes":[],"categories_segments":[],"categories_sizes":[],"default_left":[0,0,0,0,0,0,0,0,0,0,0,0,0,0,0],"id":24,"left_children":[1,3,5,7,9,11,13,-1,-1,-1,-1,-1,-1,-1,-1],"loss_changes":[4.3837854E2,4.366609E2,3.64243E2,6.05541E2,4.510609E2,7.196764E1,2.1284705E2,0E0,0E0,0E0,0E0,0E0,0E0,0E0,0E0],"parents":[2147483647,0,0,1,1,2,2,3,3,4,4,5,5,6,6],"right_children":[2,4,6,8,10,12,14,-1,-1,-1,-1,-1,-1,-1,-1],"split_conditions":[9E0,5.85E1,5.8771755E1,-5.3863635E0,2.4022347E-1,2.3653846E0,5.6333332E1,1.996129E-1,-3.4616825E-1,5.24733E-1,-1.2486026E-2,-4.4170308E-1,5.181937E-1,3.1584773E0,1.1315485E0],"split_indices":[68,43,24,123,60,22,11,0,0,0,0,0,0,0,0],"split_type":[0,0,0,0,0,0,0,0,0,0,0,0,0,0,0],"sum_hessian":[4.58E2,4.43E2,1.5E1,2.46E2,1.97E2,9E0,6E0,7.5E1,1.71E2,5.6E1,1.41E2,3E0,6E0,2E0,4E0],"tree_param":{"num_deleted":"0","num_feature":"140","num_nodes":"15","size_leaf_vector":"1"}},{"base_weights":[1.04879096E-1,-2.2449193E0,1.6807584E-1,6.092939E-1,-1.6623725E0,2.3371938E-1,-1.5629487E-1,3.8760412E-1,-6.467286E-1],"categories":[],"categories_nodes":[],"categories_segments":[],"categories_sizes":[],"default_left":[0,0,0,0,0,0,0,0,0],"id":25,"left_children":[1,-1,3,5,7,-1,-1,-1,-1],"loss_changes":[4.0124835E2,0E0,3.6179352E2,4.8647247E2,8.439541E2,0E0,0E0,0E0,0E0],"parents":[2147483647,0,0,2,2,3,3,4,4],"right_children":[2,-1,4,6,8,-1,-1,-1,-1],"split_conditions":[7.6792455E0,-2.2449193E0,1.178E2,1.15666664E2,-1.13965775E2,2.3371938E-1,-1.5629487E-1,3.8760412E-1,-6.467286E-1],"split_indices":[21,0,44,65,79,0,0,0,0],"split_type":[0,0,0,0,0,0,0,0,0],"sum_hessian":[4.5E2,2E0,4.48E2,3.61E2,8.7E1,2.35E2,1.26E2,3.2E1,5.5E1],"tree_param":{"num_deleted":"0","num_feature":"140","num_nodes":"9","size_leaf_vector":"1"}},{"base_weights":[-2.1626431E-1,-7.587775E-2,-7.043164E0,1.5342526E0,-6.6970676E-1,1.9327429E-1,-1.1171261E1,1.4121897E0,1.376331E-1,-5.4298204E-1,-8.736475E-3,-1.343627E0,-2.6746678E0],"categories":[],"categories_nodes":[],"categories_segments":[],"categories_sizes":[],"default_left":[0,0,0,0,0,0,0,0,0,0,0,0,0],"id":26,"left_children":[1,3,5,7,9,-1,11,-1,-1,-1,-1,-1,-1],"loss_changes":[4.2821494E2,4.1877255E2,3.0691895E2,5.797467E2,5.3547766E2,0E0,9.124072E1,0E0,0E0,0E0,0E0,0E0,0E0],"parents":[2147483647,0,0,1,1,2,2,3,3,4,4,6,6],"right_children":[2,4,6,8,10,-1,12,-1,-1,-1,-1,-1,-1],"split_conditions":[3E0,7.32E1,1.09666664E2,1.0277778E2,2.0053476E-1,1.9327429E-1,1.1477778E2,1.4121897E0,1.376331E-1,-5.4298204E-1,-8.736475E-3,-1.343627E0,-2.6746678E0],"split_indices":[85,58,8,65,28,0,13,0,0,0,0,0,0],"split_type":[0,0,0,0,0,0,0,0,0,0,0,0,0],"sum_hessian":[4.47E2,4.38E2,9E0,1.18E2,3.2E2,3E0,6E0,1E1,1.08E2,5.9E1,2.61E2,4E0,2E0],"tree_param":{"num_deleted":"0","num_feature":"140","num_nodes":"13","size_leaf_vector":"1"}},{"base_weights":[1.2917018E-1,-1.776323E0,2.0477758E-1,-1.0143089E0,8.9355314E-1,-6.380534E-1,-3.0285038E-2,4.0182897E-1,-2.6848722E-2],"categories":[],"categories_nodes":[],"categories_segments":[],"categories_sizes":[],"default_left":[0,0,0,0,0,0,0,0,0],"id":27,"left_children":[1,-1,3,5,7,-1,-1,-1,-1],"loss_changes":[3.806264E2,0E0,3.7449774E2,3.944433E2,4.886565E2,0E0,0E0,0E0,0E0],"parents":[2147483647,0,0,2,2,3,3,4,4],"right_children":[2,-1,4,6,8,-1,-1,-1,-1],"split_conditions":[1.0182927E0,-1.776323E0,-2.357143E0,7.02E1,5.72E1,-6.380534E-1,-3.0285038E-2,4.0182897E-1,-2.6848722E-2],"split_indices":[76,0,123,26,14,0,0,0,0],"split_type":[0,0,0,0,0,0,0,0,0],"sum_hessian":[4.49E2,3E0,4.46E2,1.61E2,2.85E2,3.5E1,1.26E2,1.13E2,1.72E2],"tree_param":{"num_deleted":"0","num_feature":"140","num_nodes":"9","size_leaf_vector":"1"}},{"base_weights":[-1.2068951E-2,-2.3128648E0,5.4460235E-2,-5.8152056E-1,1.839877E0,-3.1887457E-1,1.24275506E-1,6.6475004E-1,-6.2604696E-2],"categories":[],"categories_nodes":[],"categories_segments":[],"categories_sizes":[],"default_left":[0,0,0,0,0,0,0,0,0],"id":28,"left_children":[1,-1,3,5,7,-1,-1,-1,-1],"loss_changes":[4.1894876E2,0E0,4.928436E2,6.123471E2,5.877892E2,0E0,0E0,0E0,0E0],"parents":[2147483647,0,0,2,2,3,3,4,4],"right_children":[2,-1,4,6,8,-1,-1,-1,-1],"split_conditions":[2.3E1,-2.3128648E0,1.136E1,2.88E1,5.72E1,-3.1887457E-1,1.24275506E-1,6.6475004E-1,-6.2604696E-2],"split_indices":[30,0,53,30,14,0,0,0,0],"split_type":[0,0,0,0,0,0,0,0,0],"sum_hessian":[4.36E2,2E0,4.34E2,3.2E2,1.14E2,1.57E2,1.63E2,5.6E1,5.8E1],"tree_param":{"num_deleted":"0","num_feature":"140","num_nodes":"9","size_leaf_vector":"1"}},{"base_weights":[1.0163704E-1,4.9270815E-1,-1.9744481E0,4.243006E-2,4.75674E0,-4.5539637E0,1.7605474E0,3.3092342E-2,-1.4600364E0,-3.4529522E-1,1.1877735E0,1.5729736E0,-8.446614E-1,6.471049E-2,1.6376293E0],"categories":[],"categories_nodes":[],"categories_segments":[],"categories_sizes":[],"default_left":[0,0,0,0,0,0,0,0,0,0,0,0,0,0,0],"id":29,"left_children":[1,3,5,7,9,11,13,-1,-1,-1,-1,-1,-1,-1,-1],"loss_changes":[3.6369476E2,7.237147E2,6.841752E2,5.125946E2,6.6214685E2,4.3485095E2,3.3272568E2,0E0,0E0,0E0,0E0,0E0,0E0,0E0,0E0],"parents":[2147483647,0,0,1,1,2,2,3,3,4,4,5,5,6,6],"right_children":[2,4,6,8,10,12,14,-1,-1,-1,-1,-1,-1,-1,-1],"split_conditions":[6.16E1,6.05E1,3.15E1,3.23E1,1.102E2,1.0102679E2,1.20111115E2,3.3092342E-2,-1.4600364E0,-3.4529522E-1,1.1877735E0,1.5729736E0,-8.446614E-1,6.471049E-2,1.6376293E0],"split_indices":[10,14,30,30,40,74,70,0,0,0,0,0,0,0,0],"split_type":[0,0,0,0,0,0,0,0,0,0,0,0,0,0,0],"sum_hessian":[4.48E2,3.77E2,7.1E1,3.41E2,3.6E1,4.2E1,2.9E1,3.35E2,6E0,1E1,2.6E1,2E0,4E1,2.5E1,4E0],"tree_param":{"num_deleted":"0","num_feature":"140","num_nodes":"15","size_leaf_vector":"1"}},{"base_weights":[-4.9271856E-2,7.767311E0,-1.5477505E-1,1.1404644E1,7.576724E-2,1.2519756E-1,-2.9140053E0,2.316037E0,1.332119E0,1.1533723E-1,-2.443912E-1,-2.6897115E-1,-1.42589E0],"categories":[],"categories_nodes":[],"categories_segments":[],"categories_sizes":[],"default_left":[0,0,0,0,0,0,0,0,0,0,0,0,0],"id":30,"left_children":[1,3,5,7,-1,9,11,-1,-1,-1,-1,-1,-1],"loss_changes":[3.717274E2,1.5892792E2,3.4384552E2,3.6802124E1,0E0,3.9687595E2,3.0284592E2,0E0,0E0,0E0,0E0,0E0,0E0],"parents":[2147483647,0,0,1,1,2,2,3,3,5,5,6,6],"right_children":[2,4,6,8,-1,10,12,-1,-1,-1,-1,-1,-1],"split_conditions":[2.3E1,1.158E2,6.24E1,1.163E2,7.576724E-2,5.7912457E1,8.583394E-1,2.316037E0,1.332119E0,1.1533723E-1,-2.443912E-1,-2.6897115E-1,-1.42589E0],"split_indices":[62,0,15,1,0,24,83,0,0,0,0,0,0],"split_type":[0,0,0,0,0,0,0,0,0,0,0,0,0],"sum_hessian":[4.51E2,6E0,4.45E2,4E0,2E0,4.04E2,4.1E1,2E0,2E0,2.97E2,1.07E2,3.4E1,7E0],"tree_param":{"num_deleted":"0","num_feature":"140","num_nodes":"13","size_leaf_vector":"1"}},{"base_weights":[6.096631E-2,-4.4500427E0,2.3299938E-1,-2.269536E0,-3.1496053E0,1.0569193E1,9.1920674E-2,-8.365687E-1,8.222547E-1,2.6150298E0,1.228868E0,7.280782E-1,-2.2818109E-2],"categories":[],"categories_nodes":[],"categories_segments":[],"categories_sizes":[],"default_left":[0,0,0,0,0,0,0,0,0,0,0,0,0],"id":31,"left_children":[1,3,5,-1,7,9,11,-1,-1,-1,-1,-1,-1],"loss_changes":[3.5919858E2,2.1434293E2,6.5007654E2,0E0,2.578327E2,9.910675E1,4.5950977E2,0E0,0E0,0E0,0E0,0E0,0E0],"parents":[2147483647,0,0,1,1,2,2,4,4,5,5,6,6],"right_children":[2,4,6,-1,8,10,12,-1,-1,-1,-1,-1,-1],"split_conditions":[9.917675E1,9.757576E0,1.002E2,-2.269536E0,1.1632951E2,2.62E1,5.04E1,-8.365687E-1,8.222547E-1,2.6150298E0,1.228868E0,7.280782E-1,-2.2818109E-2],"split_indices":[131,21,41,0,130,27,43,0,0,0,0,0,0],"split_type":[0,0,0,0,0,0,0,0,0,0,0,0,0],"sum_hessian":[4.63E2,1.7E1,4.46E2,2E0,1.5E1,6E0,4.4E2,1.2E1,3E0,2E0,4E0,2.2E1,4.18E2],"tree_param":{"num_deleted":"0","num_feature":"140","num_nodes":"13","size_leaf_vector":"1"}},{"base_weights":[-1.03362985E-1,-1.0509664E0,5.072189E-1,-4.611737E-1,-5.8601966E0,4.745243E0,1.6705671E-2,-3.9514855E-2,-1.8107605E0,-4.9968874E-1,-1.8879219E0,1.2108299E-1,1.1145817E0,-6.1077225E-1,6.712859E-2],"categories":[],"categories_nodes":[],"categories_segments":[],"categories_sizes":[],"default_left":[0,0,0,0,0,0,0,0,0,0,0,0,0,0,0],"id":32,"left_children":[1,3,5,7,9,11,13,-1,-1,-1,-1,-1,-1,-1,-1],"loss_changes":[2.569117E2,4.933708E2,5.611544E2,3.6016513E2,3.0816327E2,2.4712512E2,3.7296613E2,0E0,0E0,0E0,0E0,0E0,0E0,0E0,0E0],"parents":[2147483647,0,0,1,1,2,2,3,3,4,4,5,5,6,6],"right_children":[2,4,6,8,10,12,14,-1,-1,-1,-1,-1,-1,-1,-1],"split_conditions":[1.114E2,1.16E1,1.1176634E2,1.112E2,2.98E1,1.05666664E2,3E0,-3.9514855E-2,-1.8107605E0,-4.9968874E-1,-1.8879219E0,1.2108299E-1,1.1145817E0,-6.1077225E-1,6.712859E-2],"split_indices":[9,21,129,9,63,69,18,0,0,0,0,0,0,0,0],"split_type":[0,0,0,0,0,0,0,0,0,0,0,0,0,0,0],"sum_hessian":[4.44E2,1.74E2,2.7E2,1.55E2,1.9E1,2.8E1,2.42E2,1.52E2,3E0,1.3E1,6E0,1E1,1.8E1,2.3E1,2.19E2],"tree_param":{"num_deleted":"0","num_feature":"140","num_nodes":"15","size_leaf_vector":"1"}},{"base_weights":[-1.08349316E-1,-4.439305E-1,1.7004199E0,-5.9961233E-2,-3.6299605E0,3.237213E0,1.1465402E0,3.8727182E-1,-8.8423766E-2,-9.723241E-1,7.6473665E-1,7.798174E-1,-7.0018195E-2],"categories":[],"categories_nodes":[],"categories_segments":[],"categories_sizes":[],"default_left":[0,0,0,0,0,0,0,0,0,0,0,0,0],"id":33,"left_children":[1,3,5,7,9,-1,11,-1,-1,-1,-1,-1,-1],"loss_changes":[2.6765195E2,4.549843E2,7.068996E2,4.048696E2,8.209285E2,0E0,3.95156E2,0E0,0E0,0E0,0E0,0E0,0E0],"parents":[2147483647,0,0,1,1,2,2,3,3,4,4,6,6],"right_children":[2,4,6,8,10,-1,12,-1,-1,-1,-1,-1,-1],"split_conditions":[1.21E2,3E0,1.8076923E0,1.0507143E2,6.666667E-1,3.237213E0,-8.5025424E-1,3.8727182E-1,-8.8423766E-2,-9.723241E-1,7.6473665E-1,7.798174E-1,-7.0018195E-2],"split_indices":[8,66,22,65,80,0,118,0,0,0,0,0,0],"split_type":[0,0,0,0,0,0,0,0,0,0,0,0,0],"sum_hessian":[4.41E2,3.72E2,6.9E1,3.32E2,4E1,2E0,6.7E1,5.5E1,2.77E2,3.1E1,9E0,2E1,4.7E1],"tree_param":{"num_deleted":"0","num_feature":"140","num_nodes":"13","size_leaf_vector":"1"}},{"base_weights":[-1.4642651E-1,1.238099E0,-7.873349E-1,-5.9216723E0,1.6239579E0,-1.6372665E0,1.2212734E0,-1.3893361E0,-3.582011E-1,-3.893238E-2,4.9361068E-1,2.661523E-1,-3.6913592E-1,4.9138926E-2,1.4801983E0],"categories":[],"categories_nodes":[],"categories_segments":[],"categories_sizes":[],"default_left":[0,0,0,0,0,0,0,0,0,0,0,0,0,0,0],"id":34,"left_children":[1,3,5,7,9,11,13,-1,-1,-1,-1,-1,-1,-1,-1],"loss_changes":[3.8421744E2,3.7840387E2,5.053473E2,7.07012E1,3.5400702E2,4.5817328E2,6.4522534E2,0E0,0E0,0E0,0E0,0E0,0E0,0E0,0E0],"parents":[2147483647,0,0,1,1,2,2,3,3,4,4,5,5,6,6],"right_children":[2,4,6,8,10,12,14,-1,-1,-1,-1,-1,-1,-1,-1],"split_conditions":[-1.9831167E0,-1.274973E3,3.6388888E0,2.8714285E1,5.2942604E1,1.052E2,9.2E1,-1.3893361E0,-3.582011E-1,-3.893238E-2,4.9361068E-1,2.661523E-1,-3.6913592E-1,4.9138926E-2,1.4801983E0],"split_indices":[83,120,123,31,24,13,58,0,0,0,0,0,0,0,0],"split_type":[0,0,0,0,0,0,0,0,0,0,0,0,0,0,0],"sum_hessian":[4.33E2,1.37E2,2.96E2,7E0,1.3E2,2.08E2,8.8E1,4E0,3E0,5.7E1,7.3E1,3.5E1,1.73E2,7.9E1,9E0],"tree_param":{"num_deleted":"0","num_feature":"140","num_nodes":"15","size_leaf_vector":"1"}},{"base_weights":[2.76262E-1,-3.970788E-1,1.4106694E0,-9.799189E0,-1.5842041E-1,5.2328844E0,6.459397E-1,-2.848791E0,-1.0553751E0,-1.3051876E-1,3.09113E-1,-9.750528E-1,1.0558987E0,2.4530454E0,6.931467E-2],"categories":[],"categories_nodes":[],"categories_segments":[],"categories_sizes":[],"default_left":[0,0,0,0,0,0,0,0,0,0,0,0,0,0,0],"id":35,"left_children":[1,3,5,7,9,11,13,-1,-1,-1,-1,-1,-1,-1,-1],"loss_changes":[3.445245E2,6.347532E2,4.9089658E2,1.7854498E2,3.784315E2,4.313388E2,4.373313E2,0E0,0E0,0E0,0E0,0E0,0E0,0E0,0E0],"parents":[2147483647,0,0,1,1,2,2,3,3,4,4,5,5,6,6],"right_children":[2,4,6,8,10,12,14,-1,-1,-1,-1,-1,-1,-1,-1],"split_conditions":[4.656E2,-2.842171E-14,5E-1,5.3666668E1,1.1340909E1,8.7E0,9.99E1,-2.848791E0,-1.0553751E0,-1.3051876E-1,3.09113E-1,-9.750528E-1,1.0558987E0,2.4530454E0,6.931467E-2],"split_indices":[139,124,80,10,53,21,13,0,0,0,0,0,0,0,0],"split_type":[0,0,0,0,0,0,0,0,0,0,0,0,0,0,0],"sum_hessian":[4.51E2,2.83E2,1.68E2,7E0,2.76E2,2.8E1,1.4E2,2E0,5E0,2.1E2,6.6E1,3E0,2.5E1,2E0,1.38E2],"tree_param":{"num_deleted":"0","num_feature":"140","num_nodes":"15","size_leaf_vector":"1"}},{"base_weights":[1.9767523E-1,-1.4759535E0,5.676218E-1,-2.3796056E-1,-5.188E0,2.2119312E-1,5.4447436E0,2.5352323E-1,-4.7571912E-1,-6.254699E-1,-2.6737525E0,3.9812464E-1,-9.2231326E-2,1.8910477E0,2.6002187E-1],"categories":[],"categories_nodes":[],"categories_segments":[],"categories_sizes":[],"default_left":[0,0,0,0,0,0,0,0,0,0,0,0,0,0,0],"id":36,"left_children":[1,3,5,7,9,11,13,-1,-1,-1,-1,-1,-1,-1,-1],"loss_changes":[2.7364532E2,3.6750153E2,6.1147375E2,2.9860675E2,2.9445947E2,6.1020874E2,5.831877E2,0E0,0E0,0E0,0E0,0E0,0E0,0E0,0E0],"parents":[2147483647,0,0,1,1,2,2,3,3,4,4,5,5,6,6],"right_children":[2,4,6,8,10,12,14,-1,-1,-1,-1,-1,-1,-1,-1],"split_conditions":[-7.8084416E0,6.1E1,9.02E1,1.16333336E2,4E0,-2.6403476E2,1.1654743E2,2.5352323E-1,-4.7571912E-1,-6.254699E-1,-2.6737525E0,3.9812464E-1,-9.2231326E-2,1.8910477E0,2.6002187E-1],"split_indices":[118,42,58,65,16,120,130,0,0,0,0,0,0,0,0],"split_type":[0,0,0,0,0,0,0,0,0,0,0,0,0,0,0],"sum_hessian":[4.42E2,8E1,3.62E2,6E1,2E1,3.38E2,2.4E1,3.6E1,2.4E1,1.8E1,2E0,8.8E1,2.5E2,9E0,1.5E1],"tree_param":{"num_deleted":"0","num_feature":"140","num_nodes":"15","size_leaf_vector":"1"}},{"base_weights":[1.8669264E-1,-5.5206594E0,3.1921315E-1,-3.443033E0,-8.625551E0,1.0987595E0,-6.6018116E-1,-6.4636886E-1,-3.5866582E-1,-1.5556685E0,-1.2029729E0,4.2066038E-1,2.9121108E-2,-2.748567E-1,1.9324134E-1],"categories":[],"categories_nodes":[],"categories_segments":[],"categories_sizes":[],"default_left":[0,0,0,0,0,0,0,0,0,0,0,0,0,0,0],"id":37,"left_children":[1,3,5,7,9,11,13,-1,-1,-1,-1,-1,-1,-1,-1],"loss_changes":[3.3341254E2,6.41127E1,3.290775E2,4.08683E0,4.172821E0,3.3614966E2,3.7655957E2,0E0,0E0,0E0,0E0,0E0,0E0,0E0,0E0],"parents":[2147483647,0,0,1,1,2,2,3,3,4,4,5,5,6,6],"right_children":[2,4,6,8,10,12,14,-1,-1,-1,-1,-1,-1,-1,-1],"split_conditions":[4.85E1,2.6734693E0,8.16E1,5.5E1,1.106E2,5.66E1,1.3839285E0,-6.4636886E-1,-3.5866582E-1,-1.5556685E0,-1.2029729E0,4.2066038E-1,2.9121108E-2,-2.748567E-1,1.9324134E-1],"split_indices":[15,54,26,42,1,11,75,0,0,0,0,0,0,0,0],"split_type":[0,0,0,0,0,0,0,0,0,0,0,0,0,0,0],"sum_hessian":[4.41E2,1E1,4.31E2,6E0,4E0,2.4E2,1.91E2,4E0,2E0,2E0,2E0,9E1,1.5E2,1.22E2,6.9E1],"tree_param":{"num_deleted":"0","num_feature":"140","num_nodes":"15","size_leaf_vector":"1"}}]},"name":"gbtree"},"learner_model_param":{"base_score":"[1.1449E2]","boost_from_average":"1","num_class":"0","num_feature":"140","num_target":"1"},"objective":{"name":"reg:squarederror","reg_loss_param":{"scale_pos_weight":"1"}}},"version":[3,2,0]}