{"learner":{"attributes":{"best_iteration":"70","best_score":"11.35439058567861","scikit_learn":"{\"_estimator_type\": \"regressor\"}"},"feature_names":[],"feature_types":[],"gradient_booster":{"model":{"cats":{"enc":[],"feature_segments":[],"sorted_idx":[]},"gbtree_model_param":{"num_parallel_tree":"1","num_trees":"101"},"iteration_indptr":[0,1,2,3,4,5,6,7,8,9,10,11,12,13,14,15,16,17,18,19,20,21,22,23,24,25,26,27,28,29,30,31,32,33,34,35,36,37,38,39,40,41,42,43,44,45,46,47,48,49,50,51,52,53,54,55,56,57,58,59,60,61,62,63,64,65,66,67,68,69,70,71,72,73,74,75,76,77,78,79,80,81,82,83,84,85,86,87,88,89,90,91,92,93,94,95,96,97,98,99,100,101],"tree_info":[0,0,0,0,0,0,0,0,0,0,0,0,0,0,0,0,0,0,0,0,0,0,0,0,0,0,0,0,0,0,0,0,0,0,0,0,0,0,0,0,0,0,0,0,0,0,0,0,0,0,0,0,0,0,0,0,0,0,0,0,0,0,0,0,0,0,0,0,0,0,0,0,0,0,0,0,0,0,0,0,0,0,0,0,0,0,0,0,0,0,0,0,0,0,0,0,0,0,0,0,0],"trees":[{"base_weights":[1.4569538E-2,-3.9129925E0,4.5969377E0,-2.4087936E1,-3.2390647E0,4.049384E-2,7.0311427E0,-1.5104898E0,-4.926757E-1,-5.691866E0,4.708612E-1,-1.8606398E0,7.4504113E0,5.719581E0,1.3063266E1,-1.0059273E0,-6.86365E0,-9.777006E0,1.725993E0,-7.225595E-1,-8.91913E-1,1.1262339E1,-1.9755949E-1,5.05206E0,1.4365397E1,2.0851023E-1,1.51110325E1,-4.512433E0,5.0483646E0,-9.595354E0,-4.808436E0,-5.1408157E0,-8.0380946E-1,8.562994E0,7.6372904E-1,-1.7307748E0,5.6024784E-1,6.3990965E-2,1.4117208E1,-2.3146814E-1,5.8300443E0,4.3351027E-1,1.0723243E0,2.0766085E1,1.1178459E1,1.6636814E-1,-3.4373903E-1,6.806576E-1,7.573983E-2,-1.1436318E0,-4.0377307E-1,-6.9550234E-1,-1.868438E-1,-4.383236E-1,-3.832358E-2,5.740185E-1,7.453356E-2,-8.2626715E-3,4.7044706E-1,1.7079644E-1,-1.8905514E-1,2.223243E-1,8.8839006E-1,-2.7883863E-1,2.5616136E-1,3.430476E-1,6.447183E-2,5.2232426E-1,1.2663682E0,1.7453356E-1,6.7707866E-1],"categories":[],"categories_nodes":[],"categories_segments":[],"categories_sizes":[],"default_left":[0,0,0,0,0,0,0,0,0,0,0,0,0,0,0,0,0,0,0,0,0,0,0,0,0,0,0,0,0,0,0,0,0,0,0,0,0,0,0,0,0,0,0,0,0,0,0,0,0,0,0,0,0,0,0,0,0,0,0,0,0,0,0,0,0,0,0,0,0,0,0],"id":0,"left_children":[1,3,5,7,9,11,13,-1,-1,15,17,19,21,23,25,27,29,31,33,-1,35,37,-1,39,41,-1,43,45,47,49,51,53,-1,55,57,59,-1,-1,61,63,65,-1,-1,67,69,-1,-1,-1,-1,-1,-1,-1,-1,-1,-1,-1,-1,-1,-1,-1,-1,-1,-1,-1,-1,-1,-1,-1,-1,-1,-1],"loss_changes":[1.5675913E4,6.2959814E3,4.457718E3,1.0054385E3,4.143571E3,2.0007229E3,1.9962188E3,0E0,0E0,1.4968174E3,2.357031E3,1.3638152E3,1.3056309E3,1.1778477E3,7.727578E2,1.211574E3,1.1819395E3,4.9931787E2,1.0649045E3,0E0,1.0940916E3,6.073662E2,0E0,8.363413E2,4.1596533E2,0E0,5.875117E2,6.899613E2,6.134156E2,1.6889424E3,1.1848762E3,1.985057E2,0E0,3.9424194E2,1.1589792E3,1.0681954E3,0E0,0E0,5.189402E2,8.0142334E2,8.1886523E2,0E0,0E0,3.908286E2,3.8703833E2,0E0,0E0,0E0,0E0,0E0,0E0,0E0,0E0,0E0,0E0,0E0,0E0,0E0,0E0,0E0,0E0,0E0,0E0,0E0,0E0,0E0,0E0,0E0,0E0,0E0,0E0],"parents":[2147483647,0,0,1,1,2,2,3,3,4,4,5,5,6,6,9,9,10,10,11,11,12,12,13,13,14,14,15,15,16,16,17,17,18,18,20,20,21,21,23,23,24,24,26,26,27,27,28,28,29,29,30,30,31,31,33,33,34,34,35,35,38,38,39,39,40,40,43,43,44,44],"right_children":[2,4,6,8,10,12,14,-1,-1,16,18,20,22,24,26,28,30,32,34,-1,36,38,-1,40,42,-1,44,46,48,50,52,54,-1,56,58,60,-1,-1,62,64,66,-1,-1,68,70,-1,-1,-1,-1,-1,-1,-1,-1,-1,-1,-1,-1,-1,-1,-1,-1,-1,-1,-1,-1,-1,-1,-1,-1,-1,-1],"split_conditions":[1.156E2,1.071E2,1.148E2,7.84E1,1.159E2,8.311025E1,1.24E2,-1.5104898E0,-4.926757E-1,5.0315655E1,1.079E2,5.36E1,4.661475E2,3.32E0,6.11E1,4.8689224E1,1.113E2,2.3863637E0,4.878049E-1,-7.225595E-1,1.25333336E2,1.066E2,-1.9755949E-1,1.021875E2,6.02E1,2.0851023E-1,1.0777778E1,9.005009E0,-2E0,2.65625E1,-2.7124615E0,6E0,-8.0380946E-1,-1.22862854E2,6E1,1.146E2,5.6024784E-1,6.3990965E-2,6.94E1,1.142E2,7.902754E1,4.3351027E-1,1.0723243E0,9.756098E-1,1.13E2,1.6636814E-1,-3.4373903E-1,6.806576E-1,7.573983E-2,-1.1436318E0,-4.0377307E-1,-6.9550234E-1,-1.868438E-1,-4.383236E-1,-3.832358E-2,5.740185E-1,7.453356E-2,-8.2626715E-3,4.7044706E-1,1.7079644E-1,-1.8905514E-1,2.223243E-1,8.8839006E-1,-2.7883863E-1,2.5616136E-1,3.430476E-1,6.447183E-2,5.2232426E-1,1.2663682E0,1.7453356E-1,6.7707866E-1],"split_indices":[1,1,32,58,32,124,9,0,0,24,1,11,124,54,15,24,1,22,7,0,41,41,0,74,15,0,53,29,128,57,83,73,0,79,15,13,0,0,58,40,79,0,0,76,12,0,0,0,0,0,0,0,0,0,0,0,0,0,0,0,0,0,0,0,0,0,0,0,0,0,0],"split_type":[0,0,0,0,0,0,0,0,0,0,0,0,0,0,0,0,0,0,0,0,0,0,0,0,0,0,0,0,0,0,0,0,0,0,0,0,0,0,0,0,0,0,0,0,0,0,0,0,0,0,0,0,0,0,0,0,0,0,0,0,0,0,0,0,0,0,0,0,0,0,0],"sum_hessian":[8.69E2,4.68E2,4.01E2,1.4E1,4.54E2,1.4E2,2.61E2,9E0,5E0,2.73E2,1.81E2,1.12E2,2.8E1,2.16E2,4.5E1,5.5E1,2.18E2,1.9E1,1.62E2,7E0,1.05E2,2.1E1,7E0,2.02E2,1.4E1,9E0,3.6E1,3.5E1,2E1,9.2E1,1.26E2,1.2E1,7E0,1.9E1,1.43E2,9.9E1,6E0,5E0,1.6E1,2.6E1,1.76E2,9E0,5E0,1.3E1,2.3E1,8E0,2.7E1,5E0,1.5E1,8E0,8.4E1,1.2E1,1.14E2,6E0,6E0,1.3E1,6E0,1.3E2,1.3E1,2.8E1,7.1E1,5E0,1.1E1,1.3E1,1.3E1,1.43E2,3.3E1,5E0,8E0,6E0,1.7E1],"tree_param":{"num_deleted":"0","num_feature":"129","num_nodes":"71","size_leaf_vector":"1"}},{"base_weights":[-2.0966199E-1,-7.46574E0,2.312863E0,-1.5521597E0,-6.6553745E0,-2.0460186E0,4.0747867E0,-8.579618E0,-2.2380497E0,-8.083625E0,-8.4814775E-1,2.1920063E0,9.102468E0,-7.6584353E0,-1.5694471E1,-3.6954682E0,3.6958817E-1,-1.1949579E1,-3.1065148E-1,-1.5498437E0,4.6655446E-1,1.1366998E0,6.2845182E0,7.1030397E0,1.4993944E1,-6.5770984E0,-1.5148394E1,-1.2061319E0,-4.107654E-1,3.3634654E-1,-5.02934E0,-9.64156E-2,-1.7189623E1,1.5847644E-1,-1.8778615E-1,5.8487236E-1,-2.1112387E0,-1.3971177E0,2.684829E0,1.0662917E0,4.453801E0,1.408289E1,4.996466E0,1.8148167E1,2.0194058E-1,-3.9050812E-1,-7.09005E-2,-2.391235E-1,-1.1334141E0,-1.1242082E-1,-5.075864E-1,-1.0727324E0,-5.227325E-1,5.682242E-1,-1.34981E-1,-1.3441263E-1,3.3595067E-1,7.01462E-1,9.2550814E-2,-1.0315951E-1,3.6160755E-1,7.903192E-1,4.1817805E-1,6.238019E-1,1.3381526E-1,1.0136136E0,4.3672457E-1],"categories":[],"categories_nodes":[],"categories_segments":[],"categories_sizes":[],"default_left":[0,0,0,0,0,0,0,0,0,0,0,0,0,0,0,0,0,0,0,0,0,0,0,0,0,0,0,0,0,0,0,0,0,0,0,0,0,0,0,0,0,0,0,0,0,0,0,0,0,0,0,0,0,0,0,0,0,0,0,0,0,0,0,0,0,0,0],"id":1,"left_children":[1,3,5,-1,7,9,11,13,15,17,19,21,23,25,27,29,-1,31,33,35,-1,37,39,41,43,45,47,-1,-1,-1,49,-1,51,-1,-1,-1,53,55,57,-1,59,61,63,65,-1,-1,-1,-1,-1,-1,-1,-1,-1,-1,-1,-1,-1,-1,-1,-1,-1,-1,-1,-1,-1,-1,-1],"loss_changes":[1.5539269E4,3.973919E3,4.84695E3,0E0,1.7902178E3,1.3085243E3,4.2291606E3,8.4747363E2,9.532345E2,8.965608E2,1.1065212E3,1.4086984E3,1.3283965E3,9.753843E2,8.071616E2,8.399866E2,0E0,1.0151787E3,1.4384665E2,1.09466E3,0E0,1.0316212E3,1.7473794E3,1.2951602E3,9.611323E2,7.386577E2,1.1360542E3,0E0,0E0,0E0,7.16673E2,0E0,1.4593091E2,0E0,0E0,0E0,1.1319253E3,1.065561E3,1.5142789E3,0E0,1.1199335E3,7.238672E1,1.2319235E3,2.7993018E2,0E0,0E0,0E0,0E0,0E0,0E0,0E0,0E0,0E0,0E0,0E0,0E0,0E0,0E0,0E0,0E0,0E0,0E0,0E0,0E0,0E0,0E0,0E0],"parents":[2147483647,0,0,1,1,2,2,4,4,5,5,6,6,7,7,8,8,9,9,10,10,11,11,12,12,13,13,14,14,15,15,17,17,18,18,19,19,21,21,22,22,23,23,24,24,25,25,26,26,30,30,32,32,36,36,37,37,38,38,40,40,41,41,42,42,43,43],"right_children":[2,4,6,-1,8,10,12,14,16,18,20,22,24,26,28,30,-1,32,34,36,-1,38,40,42,44,46,48,-1,-1,-1,50,-1,52,-1,-1,-1,54,56,58,-1,60,62,64,66,-1,-1,-1,-1,-1,-1,-1,-1,-1,-1,-1,-1,-1,-1,-1,-1,-1,-1,-1,-1,-1,-1,-1],"split_conditions":[1.12E2,1.065E2,1.144E2,-1.5521597E0,1.174E2,5.42E1,1.194E2,5.98E1,3.34E1,1.0308036E2,1.25333336E2,6.01E1,1.238E2,2.7777777E0,1.118E2,2.825E1,3.6958817E-1,3E0,4E0,-1.4E1,4.6655446E-1,5.76E1,3E0,7.406904E0,2.7884614E0,2.7209303E0,1.8989898E-1,-1.2061319E0,-4.107654E-1,3.3634654E-1,2.0911528E-1,-9.64156E-2,2.9857143E1,1.5847644E-1,-1.8778615E-1,5.8487236E-1,-1.0483334E1,3.07947E-1,-4.0229105E2,1.0662917E0,1.156E2,2.925E1,-1.7857143E-1,3E0,2.0194058E-1,-3.9050812E-1,-7.09005E-2,-2.391235E-1,-1.1334141E0,-1.1242082E-1,-5.075864E-1,-1.0727324E0,-5.227325E-1,5.682242E-1,-1.34981E-1,-1.3441263E-1,3.3595067E-1,7.01462E-1,9.2550814E-2,-1.0315951E-1,3.6160755E-1,7.903192E-1,4.1817805E-1,6.238019E-1,1.3381526E-1,1.0136136E0,4.3672457E-1],"split_indices":[1,32,32,0,44,11,1,11,27,74,41,15,1,54,12,62,0,67,67,81,0,42,18,29,54,22,60,0,0,0,28,0,30,0,0,0,126,28,124,0,32,30,75,16,0,0,0,0,0,0,0,0,0,0,0,0,0,0,0,0,0,0,0,0,0,0,0],"split_type":[0,0,0,0,0,0,0,0,0,0,0,0,0,0,0,0,0,0,0,0,0,0,0,0,0,0,0,0,0,0,0,0,0,0,0,0,0,0,0,0,0,0,0,0,0,0,0,0,0,0,0,0,0,0,0,0,0,0,0,0,0,0,0,0,0,0,0],"sum_hessian":[8.47E2,2.18E2,6.29E2,6E0,2.12E2,1.81E2,4.48E2,1.47E2,6.5E1,2.9E1,1.52E2,3.27E2,1.21E2,1.32E2,1.5E1,5.7E1,8E0,1.9E1,1E1,1.43E2,9E0,2.61E2,6.6E1,9.2E1,2.9E1,1.17E2,1.5E1,6E0,9E0,6E0,5.1E1,7E0,1.2E1,5E0,5E0,5E0,1.38E2,9.9E1,1.62E2,6E0,6E1,2E1,7.2E1,2.2E1,7E0,9.4E1,2.3E1,7E0,8E0,3.4E1,1.7E1,6E0,6E0,5E0,1.33E2,8.6E1,1.3E1,1E1,1.52E2,1.8E1,4.2E1,1.4E1,6E0,1.6E1,5.6E1,1.7E1,5E0],"tree_param":{"num_deleted":"0","num_feature":"129","num_nodes":"67","size_leaf_vector":"1"}},{"base_weights":[4.2407778E-1,-4.6032443E0,3.4342387E0,-1.8110594E1,-3.9740033E0,7.82731E-2,6.5481267E0,-1.178089E0,-4.639576E-1,-5.494148E0,-6.594684E-1,-1.8721648E0,4.8006716E0,5.233725E0,1.4015919E1,-7.3876286E0,-2.1017573E0,6.841514E0,-2.671791E0,4.724619E0,-3.0373735E0,-2.5181048E0,7.642716E0,2.760731E0,7.9440217E0,1.9522438E1,7.8372126E0,-8.0677795E-1,-6.6339226E0,4.8958716E-1,-7.2074556E0,9.405973E0,-5.6031533E-2,-6.2343388E0,1.654913E0,-4.8518783E-1,8.287473E0,-5.888833E0,-8.4807795E-1,2.8138256E0,-4.6039018E-1,1.3935895E0,1.1170971E1,-1.1888891E0,4.9708767E0,1.1169655E1,3.6543303E0,4.5283595E-1,2.4101246E1,2.3407106E0,6.3060755E-1,-2.9965442E-1,-7.6622975E-1,-2.210983E-1,2.787531E-1,-6.7292705E-2,-5.112803E-1,6.082042E-1,1.3825549E-1,-1.8823323E-1,-7.567406E-1,5.306918E-1,-6.4615407E-3,1.5042561E-1,6.433739E-1,-8.6672785E-4,-4.443607E-1,-2.6493426E-3,-5.126866E-1,-8.897252E-2,3.509706E-1,4.4491276E-1,-7.507548E-2,1.8526666E-1,7.002506E-1,4.4471723E-1,-1.318963E-1,1.6955562E-1,5.585238E-1,4.4224977E-1,8.1023186E-1,-2.0862225E-1,2.8589177E-1,7.1526116E-1,1.397145E0,-1.2696819E-1,3.4236667E-1],"categories":[],"categories_nodes":[],"categories_segments":[],"categories_sizes":[],"default_left":[0,0,0,0,0,0,0,0,0,0,0,0,0,0,0,0,0,0,0,0,0,0,0,0,0,0,0,0,0,0,0,0,0,0,0,0,0,0,0,0,0,0,0,0,0,0,0,0,0,0,0,0,0,0,0,0,0,0,0,0,0,0,0,0,0,0,0,0,0,0,0,0,0,0,0,0,0,0,0,0,0,0,0,0,0,0,0],"id":2,"left_children":[1,3,5,7,9,11,13,-1,-1,15,17,19,21,23,25,27,29,31,33,35,37,39,41,43,45,47,49,-1,51,53,55,57,-1,59,61,-1,63,65,67,69,-1,71,73,75,77,79,81,-1,83,85,-1,-1,-1,-1,-1,-1,-1,-1,-1,-1,-1,-1,-1,-1,-1,-1,-1,-1,-1,-1,-1,-1,-1,-1,-1,-1,-1,-1,-1,-1,-1,-1,-1,-1,-1,-1,-1],"loss_changes":[1.2969581E4,2.6541196E3,5.6000796E3,4.5206836E2,1.5476406E3,2.3948635E3,2.6534775E3,0E0,0E0,1.3388672E3,1.497113E3,1.4285217E3,1.6005793E3,1.5722046E3,1.2392119E3,7.8078613E2,1.0229584E3,4.4015973E2,1.2130742E3,1.5196512E3,9.7443384E2,8.1126685E2,1.1958433E3,1.1061719E3,1.5212778E3,7.847373E2,5.201378E2,0E0,6.0775586E2,1.3236023E3,4.4505176E2,2.579319E2,0E0,8.863273E2,5.7784436E2,0E0,5.157866E2,1.196095E3,6.7147766E2,2.6414114E2,0E0,4.7036224E2,6.868638E2,6.949419E2,7.539697E2,6.0326025E2,8.315413E2,0E0,1.2290723E2,2.5973785E2,0E0,0E0,0E0,0E0,0E0,0E0,0E0,0E0,0E0,0E0,0E0,0E0,0E0,0E0,0E0,0E0,0E0,0E0,0E0,0E0,0E0,0E0,0E0,0E0,0E0,0E0,0E0,0E0,0E0,0E0,0E0,0E0,0E0,0E0,0E0,0E0,0E0],"parents":[2147483647,0,0,1,1,2,2,3,3,4,4,5,5,6,6,9,9,10,10,11,11,12,12,13,13,14,14,15,15,16,16,17,17,18,18,19,19,20,20,21,21,22,22,23,23,24,24,25,25,26,26,28,28,29,29,30,30,31,31,33,33,34,34,36,36,37,37,38,38,39,39,41,41,42,42,43,43,44,44,45,45,46,46,48,48,49,49],"right_children":[2,4,6,8,10,12,14,-1,-1,16,18,20,22,24,26,28,30,32,34,36,38,40,42,44,46,48,50,-1,52,54,56,58,-1,60,62,-1,64,66,68,70,-1,72,74,76,78,80,82,-1,84,86,-1,-1,-1,-1,-1,-1,-1,-1,-1,-1,-1,-1,-1,-1,-1,-1,-1,-1,-1,-1,-1,-1,-1,-1,-1,-1,-1,-1,-1,-1,-1,-1,-1,-1,-1,-1,-1],"split_conditions":[1.139E2,1.071E2,1.156E2,7.84E1,2.5443786E-1,1.192E2,1.238E2,-1.178089E0,-4.639576E-1,1.1274501E2,5.375E-1,2.0847456E0,1.186E2,4.214286E0,1.0777778E1,2.5228518E1,1.4285715E-1,1.1488372E1,1.17E2,1.07333336E2,2.8E1,2.575E0,2.2830188E0,1.0387755E1,5.3932583E-1,1.46E1,1.1403846E1,-8.0677795E-1,2.4047619E-1,1.175E2,1.11375E2,5.4E1,-5.6031533E-2,5.88E1,3.06E1,-4.8518783E-1,3.6388888E0,5.63E1,1.204E2,2.842171E-14,-4.6039018E-1,6.15E1,2.2045455E0,8.55E0,2E0,7E0,1.159E2,4.5283595E-1,5.575E1,-3.2167166E2,6.3060755E-1,-2.9965442E-1,-7.6622975E-1,-2.210983E-1,2.787531E-1,-6.7292705E-2,-5.112803E-1,6.082042E-1,1.3825549E-1,-1.8823323E-1,-7.567406E-1,5.306918E-1,-6.4615407E-3,1.5042561E-1,6.433739E-1,-8.6672785E-4,-4.443607E-1,-2.6493426E-3,-5.126866E-1,-8.897252E-2,3.509706E-1,4.4491276E-1,-7.507548E-2,1.8526666E-1,7.002506E-1,4.4471723E-1,-1.318963E-1,1.6955562E-1,5.585238E-1,4.4224977E-1,8.1023186E-1,-2.0862225E-1,2.8589177E-1,7.1526116E-1,1.397145E0,-1.2696819E-1,3.4236667E-1],"split_indices":[1,1,32,58,28,9,9,0,0,37,7,22,13,23,53,57,81,53,8,40,62,22,54,53,7,59,53,0,28,40,70,35,0,11,27,0,55,47,13,127,0,15,22,53,66,73,32,0,14,123,0,0,0,0,0,0,0,0,0,0,0,0,0,0,0,0,0,0,0,0,0,0,0,0,0,0,0,0,0,0,0,0,0,0,0,0,0],"split_type":[0,0,0,0,0,0,0,0,0,0,0,0,0,0,0,0,0,0,0,0,0,0,0,0,0,0,0,0,0,0,0,0,0,0,0,0,0,0,0,0,0,0,0,0,0,0,0,0,0,0,0,0,0,0,0,0,0,0,0,0,0,0,0,0,0,0,0,0,0,0,0,0,0,0,0,0,0,0,0,0,0,0,0,0,0,0,0],"sum_hessian":[8.55E2,3.2E2,5.35E2,1.3E1,3.07E2,2.58E2,2.77E2,7E0,6E0,2.1E2,9.7E1,1.83E2,7.5E1,2.37E2,4E1,1.34E2,7.6E1,2E1,7.7E1,2.7E1,1.56E2,2.1E1,5.4E1,1.25E2,1.12E2,2E1,2E1,9E0,1.25E2,5.1E1,2.5E1,1.5E1,5E0,4.2E1,3.5E1,5E0,2.2E1,6.7E1,8.9E1,1.2E1,9E0,2E1,3.4E1,4.5E1,8E1,6.3E1,4.9E1,7E0,1.3E1,1E1,1E1,1.18E2,7E0,2.6E1,2.5E1,9E0,1.6E1,1E1,5E0,3.4E1,8E0,5E0,3E1,1.1E1,1.1E1,2.3E1,4.4E1,8.3E1,6E0,6E0,6E0,5E0,1.5E1,1E1,2.4E1,5E0,4E1,6.5E1,1.5E1,4.5E1,1.8E1,1E1,3.9E1,5E0,8E0,5E0,5E0],"tree_param":{"num_deleted":"0","num_feature":"129","num_nodes":"87","size_leaf_vector":"1"}},{"base_weights":[1.7056476E-2,-6.54174E0,2.1211326E0,-1.3112468E0,-5.645201E0,7.240691E0,8.610517E-1,-1.4452819E0,-7.2522964E0,3.6227949E0,1.2842826E1,2.0376831E-1,7.509717E0,-4.2734075E0,7.7412133E0,-9.372243E0,-2.4951289E0,2.7010584E0,7.3388284E-1,1.4784385E1,1.0641996E-1,-2.5663614E0,1.3516663E0,4.4008904E0,1.4738232E1,-2.5659866E0,-5.403435E-1,1.1847272E-1,5.22557E-1,-2.9027894E0,-1.0540947E1,-5.8354173E0,2.7292652E0,6.2886494E-1,6.2273593E0,1.660188E1,2.3725581E-1,-1.0495376E1,-1.3398205E0,-1.4380399E0,2.7350626E0,7.047766E0,-2.7003932E-1,3.6621782E-1,9.685297E-1,-1.8035768E-1,1.1985898E-1,-3.932912E-1,2.551522E-2,-8.803176E-1,-4.3994352E-1,-3.8561773E-2,-4.6794423E-1,4.4500193E-1,-1.2792867E-1,1.9713743E-1,-8.945403E-2,7.2831625E-1,1.6432223E-1,8.9093894E-1,4.500303E-1,-3.6496058E-2,-8.0613655E-1,-1.1825835E-1,2.8934622E-1,1.2648028E-1,-1.7945895E-1,2.2866404E-1,3.1206172E-4,6.121986E-1,2.3639448E-1],"categories":[],"categories_nodes":[],"categories_segments":[],"categories_sizes":[],"default_left":[0,0,0,0,0,0,0,0,0,0,0,0,0,0,0,0,0,0,0,0,0,0,0,0,0,0,0,0,0,0,0,0,0,0,0,0,0,0,0,0,0,0,0,0,0,0,0,0,0,0,0,0,0,0,0,0,0,0,0,0,0,0,0,0,0,0,0,0,0,0,0],"id":3,"left_children":[1,3,5,-1,7,9,11,13,15,17,19,21,23,25,27,29,31,33,-1,35,-1,37,39,41,43,45,-1,-1,-1,47,49,51,53,55,57,59,-1,61,63,65,67,69,-1,-1,-1,-1,-1,-1,-1,-1,-1,-1,-1,-1,-1,-1,-1,-1,-1,-1,-1,-1,-1,-1,-1,-1,-1,-1,-1,-1,-1],"loss_changes":[1.2102416E4,3.6075254E3,4.276458E3,0E0,1.3723315E3,2.6069272E3,2.3313088E3,1.5396073E3,1.4679995E3,7.839801E2,1.0277783E3,1.5519229E3,1.0118904E3,4.729242E2,1.7775348E2,7.392666E2,8.3643317E2,5.507437E2,0E0,7.036787E2,0E0,1.3754669E3,1.3355109E3,9.4626184E2,3.362661E2,1.9996492E2,0E0,0E0,0E0,2.9271765E2,9.0097266E2,5.0922992E2,6.4337665E2,3.9989597E2,6.370205E2,1.699375E2,0E0,1.0306663E3,9.267676E2,9.9070514E2,1.1582487E3,2.7794226E2,0E0,0E0,0E0,0E0,0E0,0E0,0E0,0E0,0E0,0E0,0E0,0E0,0E0,0E0,0E0,0E0,0E0,0E0,0E0,0E0,0E0,0E0,0E0,0E0,0E0,0E0,0E0,0E0,0E0],"parents":[2147483647,0,0,1,1,2,2,4,4,5,5,6,6,7,7,8,8,9,9,10,10,11,11,12,12,13,13,14,14,15,15,16,16,17,17,19,19,21,21,22,22,23,23,24,24,25,25,29,29,30,30,31,31,32,32,33,33,34,34,35,35,37,37,38,38,39,39,40,40,41,41],"right_children":[2,4,6,-1,8,10,12,14,16,18,20,22,24,26,28,30,32,34,-1,36,-1,38,40,42,44,46,-1,-1,-1,48,50,52,54,56,58,60,-1,62,64,66,68,70,-1,-1,-1,-1,-1,-1,-1,-1,-1,-1,-1,-1,-1,-1,-1,-1,-1,-1,-1,-1,-1,-1,-1,-1,-1,-1,-1,-1,-1],"split_conditions":[1.113E2,1.065E2,-2.8386978E2,-1.3112468E0,5.262045E1,1.0350446E2,1.0540179E2,6.125E1,1.174E2,6.36E1,2.863248E-1,2.7625E1,6.12E1,4.6237045E2,1.12E1,1.062E2,1.0957143E2,2.3747681E-1,7.3388284E-1,1.2261905E1,1.0641996E-1,5.36E1,0E0,1.198E2,5.42E1,1.1160714E1,-5.403435E-1,1.1847272E-1,5.22557E-1,1.0325E2,5.43E1,5.5E1,1.084E2,9.569138E0,2.0784314E0,1.1119996E1,2.3725581E-1,5.31E1,1.8494687E2,1.15E2,2.9375E1,1.131E2,-2.7003932E-1,3.6621782E-1,9.685297E-1,-1.8035768E-1,1.1985898E-1,-3.932912E-1,2.551522E-2,-8.803176E-1,-4.3994352E-1,-3.8561773E-2,-4.6794423E-1,4.4500193E-1,-1.2792867E-1,1.9713743E-1,-8.945403E-2,7.2831625E-1,1.6432223E-1,8.9093894E-1,4.500303E-1,-3.6496058E-2,-8.0613655E-1,-1.1825835E-1,2.8934622E-1,1.2648028E-1,-1.7945895E-1,2.2866404E-1,3.1206172E-4,6.121986E-1,2.3639448E-1],"split_indices":[1,32,79,0,24,74,74,42,32,15,60,62,11,79,59,40,13,60,0,53,0,11,127,13,42,126,0,0,0,13,46,43,65,29,22,61,0,15,124,41,31,44,0,0,0,0,0,0,0,0,0,0,0,0,0,0,0,0,0,0,0,0,0,0,0,0,0,0,0,0,0],"split_type":[0,0,0,0,0,0,0,0,0,0,0,0,0,0,0,0,0,0,0,0,0,0,0,0,0,0,0,0,0,0,0,0,0,0,0,0,0,0,0,0,0,0,0,0,0,0,0,0,0,0,0,0,0,0,0,0,0,0,0,0,0,0,0,0,0,0,0,0,0,0,0],"sum_hessian":[8.75E2,2.12E2,6.63E2,8E0,2.04E2,1.3E2,5.33E2,5.7E1,1.47E2,8E1,5E1,4.86E2,4.7E1,4.4E1,1.3E1,1.01E2,4.6E1,7.5E1,5E0,4.2E1,8E0,1.42E2,3.44E2,3.4E1,1.3E1,3.6E1,8E0,5E0,8E0,1.6E1,8.5E1,2.8E1,1.8E1,4.8E1,2.7E1,3.5E1,7E0,1.8E1,1.24E2,1.14E2,2.3E2,2.7E1,7E0,6E0,7E0,3E1,6E0,6E0,1E1,1.5E1,7E1,1.2E1,1.6E1,8E0,1E1,2E1,2.8E1,6E0,2.1E1,2.9E1,6E0,7E0,1.1E1,1.09E2,1.5E1,4E1,7.4E1,1.37E2,9.3E1,7E0,2E1],"tree_param":{"num_deleted":"0","num_feature":"129","num_nodes":"71","size_leaf_vector":"1"}},{"base_weights":[-3.1602857E-1,-7.346908E0,1.4471308E0,-1.2575665E0,-6.324428E0,5.770418E0,-3.061576E-1,-1.1896812E1,-4.8826623E0,2.7534163E0,1.0474364E1,-2.1505914E0,2.015209E0,-1.468911E1,2.7936652E-2,-6.18639E0,1.2377115E0,-6.201346E0,3.697594E0,1.1454489E1,-4.744785E-2,-2.6593976E0,4.78605E0,6.895816E-1,6.3145146E0,-1.7083998E1,-2.6958573E-1,-7.4356365E0,-9.036587E-1,5.8689194E0,-2.9114357E-1,5.6880176E-2,-5.8101267E-1,-4.435752E-1,4.375113E0,1.5080322E1,8.589501E0,-3.6979527E0,1.4641536E0,-2.9809555E-1,5.2396667E-1,3.0139685E0,-2.200519E0,2.135072E0,1.092326E1,-3.4696844E-1,-9.907117E-1,-5.554527E-1,-2.5138924E-1,2.0727384E-1,-3.6935845E-1,4.7299734E-1,7.658886E-2,5.9562844E-1,1.7759602E-1,2.576618E-1,8.4278053E-1,2.3427041E-1,7.0246595E-1,-4.707156E-1,-1.2695782E-1,3.4777787E-1,-4.7368817E-2,1.924774E-1,-2.2063616E-1,7.0880055E-1,1.108767E-1,-1.9033776E-1,1.748812E-1,-6.7599505E-2,3.452744E-1,6.685824E-1,2.1712632E-1],"categories":[],"categories_nodes":[],"categories_segments":[],"categories_sizes":[],"default_left":[0,0,0,0,0,0,0,0,0,0,0,0,0,0,0,0,0,0,0,0,0,0,0,0,0,0,0,0,0,0,0,0,0,0,0,0,0,0,0,0,0,0,0,0,0,0,0,0,0,0,0,0,0,0,0,0,0,0,0,0,0,0,0,0,0,0,0,0,0,0,0,0,0],"id":4,"left_children":[1,3,5,-1,7,9,11,13,15,17,19,21,23,25,-1,27,29,31,33,35,-1,37,39,41,43,45,-1,47,49,51,-1,-1,-1,-1,53,55,57,59,61,63,-1,65,67,69,71,-1,-1,-1,-1,-1,-1,-1,-1,-1,-1,-1,-1,-1,-1,-1,-1,-1,-1,-1,-1,-1,-1,-1,-1,-1,-1,-1,-1],"loss_changes":[1.0635075E4,2.9689863E3,5.202172E3,0E0,1.2578228E3,2.779816E3,2.0980532E3,1.1573457E3,1.061419E3,1.0541758E3,8.740342E2,9.760431E2,1.2316885E3,5.068286E2,0E0,7.1178516E2,8.189552E2,4.914965E2,9.8361816E2,6.0564746E2,0E0,1.0976844E3,5.541061E2,1.1285715E3,9.577334E2,4.4146826E2,0E0,7.208965E2,7.511421E2,2.1803223E2,0E0,0E0,0E0,0E0,6.138473E2,4.396411E2,8.2755664E2,1.3262158E3,6.9580994E2,2.0476941E2,0E0,7.9367944E2,6.997876E2,4.7566406E2,3.268545E2,0E0,0E0,0E0,0E0,0E0,0E0,0E0,0E0,0E0,0E0,0E0,0E0,0E0,0E0,0E0,0E0,0E0,0E0,0E0,0E0,0E0,0E0,0E0,0E0,0E0,0E0,0E0,0E0],"parents":[2147483647,0,0,1,1,2,2,4,4,5,5,6,6,7,7,8,8,9,9,10,10,11,11,12,12,13,13,15,15,16,16,17,17,18,18,19,19,21,21,22,22,23,23,24,24,25,25,27,27,28,28,29,29,34,34,35,35,36,36,37,37,38,38,39,39,41,41,42,42,43,43,44,44],"right_children":[2,4,6,-1,8,10,12,14,16,18,20,22,24,26,-1,28,30,32,34,36,-1,38,40,42,44,46,-1,48,50,52,-1,-1,-1,-1,54,56,58,60,62,64,-1,66,68,70,72,-1,-1,-1,-1,-1,-1,-1,-1,-1,-1,-1,-1,-1,-1,-1,-1,-1,-1,-1,-1,-1,-1,-1,-1,-1,-1,-1,-1],"split_conditions":[1.105E2,1.071E2,-2.0878526E2,-1.2575665E0,5.39E1,1.0361607E2,1.15E2,1.17333336E2,2.7307692E0,2.0142858E0,6.3514828E1,1.26E2,1.174E2,1.0849845E0,2.7936652E-2,2.893401E-1,1.2131579E1,1.094E2,2.6857143E1,1.14333336E2,-4.744785E-2,1.1513333E2,1.1425E2,3.02E1,1.144E2,2.0526316E0,-2.6958573E-1,1.0372553E1,5.625E1,2.490566E0,-2.9114357E-1,5.6880176E-2,-5.8101267E-1,-4.435752E-1,-5.1222626E2,5.8E1,0E0,5.42E1,0E0,5.5E1,5.2396667E-1,1.076E2,4E0,2.4373576E-1,1.1619047E1,-3.4696844E-1,-9.907117E-1,-5.554527E-1,-2.5138924E-1,2.0727384E-1,-3.6935845E-1,4.7299734E-1,7.658886E-2,5.9562844E-1,1.7759602E-1,2.576618E-1,8.4278053E-1,2.3427041E-1,7.0246595E-1,-4.707156E-1,-1.2695782E-1,3.4777787E-1,-4.7368817E-2,1.924774E-1,-2.2063616E-1,7.0880055E-1,1.108767E-1,-1.9033776E-1,1.748812E-1,-6.7599505E-2,3.452744E-1,6.685824E-1,2.1712632E-1],"split_indices":[1,33,79,0,46,74,40,8,22,54,24,41,65,83,0,28,21,69,62,70,0,69,65,62,69,22,0,29,15,54,0,0,0,0,124,15,128,11,85,46,0,64,67,28,53,0,0,0,0,0,0,0,0,0,0,0,0,0,0,0,0,0,0,0,0,0,0,0,0,0,0,0,0],"split_type":[0,0,0,0,0,0,0,0,0,0,0,0,0,0,0,0,0,0,0,0,0,0,0,0,0,0,0,0,0,0,0,0,0,0,0,0,0,0,0,0,0,0,0,0,0,0,0,0,0,0,0,0,0,0,0,0,0,0,0,0,0,0,0,0,0,0,0,0,0,0,0,0,0],"sum_hessian":[8.56E2,1.71E2,6.85E2,8E0,1.63E2,1.97E2,4.88E2,3.2E1,1.31E2,1.21E2,7.6E1,2.72E2,2.16E2,2.6E1,6E0,1.08E2,2.3E1,1.1E1,1.1E2,7E1,6E0,2.54E2,1.8E1,1.66E2,5E1,2E1,6E0,8.7E1,2.1E1,1.4E1,9E0,5E0,6E0,5E0,1.05E2,2.9E1,4.1E1,2.03E2,5.1E1,1E1,8E0,9.2E1,7.4E1,2.7E1,2.3E1,5E0,1.5E1,3.3E1,5.4E1,1.2E1,9E0,7E0,7E0,9E0,9.6E1,5E0,2.4E1,2.5E1,1.6E1,3.3E1,1.7E2,1.5E1,3.6E1,5E0,5E0,5E0,8.7E1,5.8E1,1.6E1,1.6E1,1.1E1,1.6E1,7E0],"tree_param":{"num_deleted":"0","num_feature":"129","num_nodes":"73","size_leaf_vector":"1"}},{"base_weights":[1.6523893E-1,-5.6786647E0,2.0547867E0,-1.6862352E1,-4.759671E0,-7.051959E-1,4.6880016E0,-1.4860408E0,-8.306614E0,-5.182519E0,4.91498E-1,-1.4704651E0,5.3298993E0,1.5494435E1,3.8599691E0,-1.3585262E-1,-6.2475365E-1,-6.115518E0,6.30316E-1,-3.580534E0,7.377218E-1,1.2861151E1,1.1964526E0,3.568171E-1,1.8510336E1,3.3312216E-1,5.4450817E0,-6.5330753E0,2.2334829E-1,4.275372E-1,-3.566242E0,1.3698534E0,-5.3490334E0,-4.3158784E0,2.7431576E0,2.7947387E-1,9.1406155E-1,3.8086255E0,-2.4089967E-1,1.057743E0,5.8480185E-1,1.3123235E0,-7.699718E0,1.1003966E1,4.5429263E0,2.5925088E-1,-3.4686753E-1,-3.1918594E-1,1.0806966E-1,1.6815852E-1,-4.2466894E-1,-3.0916908E-1,2.3450677E-1,4.952628E-2,-3.7096044E-1,-3.2584992E-1,1.850081E-1,3.126915E-2,3.1413406E-1,-1.9397657E-1,1.6302834E-1,-1.1671752E-1,-5.8825666E-1,1.6956358E-1,7.613782E-1,1.7026685E-1,5.2655727E-1],"categories":[],"categories_nodes":[],"categories_segments":[],"categories_sizes":[],"default_left":[0,0,0,0,0,0,0,0,0,0,0,0,0,0,0,0,0,0,0,0,0,0,0,0,0,0,0,0,0,0,0,0,0,0,0,0,0,0,0,0,0,0,0,0,0,0,0,0,0,0,0,0,0,0,0,0,0,0,0,0,0,0,0,0,0,0,0],"id":5,"left_children":[1,3,5,7,9,11,13,-1,15,17,-1,19,21,23,25,-1,-1,27,29,31,33,35,37,-1,39,41,43,45,-1,-1,47,49,51,53,55,-1,-1,57,-1,-1,-1,59,61,63,65,-1,-1,-1,-1,-1,-1,-1,-1,-1,-1,-1,-1,-1,-1,-1,-1,-1,-1,-1,-1,-1,-1],"loss_changes":[9.761688E3,2.1375684E3,4.8584795E3,1.5095361E3,1.2904863E3,1.5176919E3,2.9985005E3,0E0,2.2205725E2,1.0673843E3,0E0,1.3588187E3,1.1350173E3,4.7031152E2,1.7809614E3,0E0,0E0,7.761655E2,9.616715E2,1.312184E3,1.46094E3,4.078003E2,4.1101825E2,0E0,5.563623E1,7.9604254E2,1.05175E3,8.0833105E2,0E0,0E0,3.208321E2,8.144735E2,9.505283E2,6.8316016E2,9.36619E2,0E0,0E0,1.3713947E2,0E0,0E0,0E0,9.229372E2,2.1106299E2,9.110867E2,1.2638623E3,0E0,0E0,0E0,0E0,0E0,0E0,0E0,0E0,0E0,0E0,0E0,0E0,0E0,0E0,0E0,0E0,0E0,0E0,0E0,0E0,0E0,0E0],"parents":[2147483647,0,0,1,1,2,2,3,3,4,4,5,5,6,6,8,8,9,9,11,11,12,12,13,13,14,14,17,17,18,18,19,19,20,20,21,21,22,22,24,24,25,25,26,26,27,27,30,30,31,31,32,32,33,33,34,34,37,37,41,41,42,42,43,43,44,44],"right_children":[2,4,6,8,10,12,14,-1,16,18,-1,20,22,24,26,-1,-1,28,30,32,34,36,38,-1,40,42,44,46,-1,-1,48,50,52,54,56,-1,-1,58,-1,-1,-1,60,62,64,66,-1,-1,-1,-1,-1,-1,-1,-1,-1,-1,-1,-1,-1,-1,-1,-1,-1,-1,-1,-1,-1,-1],"split_conditions":[1.113E2,1.077E2,1.156E2,2E0,3.3076923E0,3.4225622E-1,1.2441039E3,-1.4860408E0,5.7E1,2.7307692E0,4.91498E-1,2.8666666E1,3.585952E-1,2.32E1,1.13E2,-1.3585262E-1,-6.2475365E-1,6E0,1.148718E1,5.46E1,3.6734693E0,1.115E2,1.5252285E3,3.568171E-1,2.5853658E0,1.14157616E2,5.522222E1,4.4E1,2.2334829E-1,4.275372E-1,6.08E1,3.11E1,6.54E1,3.1822378E1,9.311741E-2,2.7947387E-1,9.1406155E-1,1.1013333E2,-2.4089967E-1,1.057743E0,5.8480185E-1,2.711111E1,2.5227273E0,1.1053333E2,1.2074074E1,2.5925088E-1,-3.4686753E-1,-3.1918594E-1,1.0806966E-1,1.6815852E-1,-4.2466894E-1,-3.0916908E-1,2.3450677E-1,4.952628E-2,-3.7096044E-1,-3.2584992E-1,1.850081E-1,3.126915E-2,3.1413406E-1,-1.9397657E-1,1.6302834E-1,-1.1671752E-1,-5.8825666E-1,1.6956358E-1,7.613782E-1,1.7026685E-1,5.2655727E-1],"split_indices":[1,32,32,128,54,28,77,0,2,22,0,62,28,27,13,0,0,48,21,43,55,9,78,0,54,5,46,2,0,0,46,31,43,25,28,0,0,69,0,0,0,30,22,69,21,0,0,0,0,0,0,0,0,0,0,0,0,0,0,0,0,0,0,0,0,0,0],"split_type":[0,0,0,0,0,0,0,0,0,0,0,0,0,0,0,0,0,0,0,0,0,0,0,0,0,0,0,0,0,0,0,0,0,0,0,0,0,0,0,0,0,0,0,0,0,0,0,0,0,0,0,0,0,0,0,0,0,0,0,0,0,0,0,0,0,0,0],"sum_hessian":[8.82E2,2.15E2,6.67E2,1.5E1,2E2,3.26E2,3.41E2,5E0,1E1,1.95E2,5E0,2.9E2,3.6E1,2.3E1,3.18E2,5E0,5E0,1.68E2,2.7E1,1.48E2,1.42E2,1.2E1,2.4E1,7E0,1.6E1,9.9E1,2.19E2,1.62E2,6E0,9E0,1.8E1,3.9E1,1.09E2,4E1,1.02E2,6E0,6E0,1.7E1,7E0,1E1,6E0,8.9E1,1E1,2.9E1,1.9E2,5E0,1.57E2,1.2E1,6E0,3.3E1,6E0,1.01E2,8E0,1.5E1,2.5E1,9E0,9.3E1,8E0,9E0,2.4E1,6.5E1,5E0,5E0,1.1E1,1.8E1,1.61E2,2.9E1],"tree_param":{"num_deleted":"0","num_feature":"129","num_nodes":"67","size_leaf_vector":"1"}},{"base_weights":[-1.735205E-1,-4.393097E0,2.391613E0,-1.7125507E1,-3.8905983E0,-1.6399051E0,3.888473E0,-1.1289535E0,-3.9460492E-1,-5.9115343E0,-1.5378051E0,4.517806E0,-2.899433E0,2.1993759E0,7.235987E0,1.5478824E0,-6.8737946E0,-8.8027644E-1,-7.227203E-1,1.0416559E1,-8.5382557E-1,-3.4652534E0,4.2531666E-1,3.5821228E0,-2.179724E0,6.0700555E0,1.4147894E1,-2.1260905E-1,6.6890416E0,2.0131154E-1,-7.359993E0,-4.9256225E0,1.4920636E0,8.078233E-1,1.9971368E-1,-2.0822112E-1,2.1188538E-1,-4.87922E0,1.1493287E0,-2.8833691E-2,5.0427847E0,-8.461067E0,-3.844862E-2,9.715896E0,3.3250492E0,1.7502645E1,2.2523077E-1,4.956406E-1,1.1668821E-1,-4.7657132E-1,-2.7134928E-1,-3.973062E-2,-4.217269E-1,4.857145E-1,-8.547119E-3,-3.487444E-1,-3.0491936E-3,-1.04222E-1,3.5942784E-1,-1.2988566E-1,5.01334E-1,1.7712276E-1,4.246276E-1,-1.8457972E-2,-6.048278E-1,8.655723E-2,-3.078592E-1,1.8726331E-1,6.030647E-1,8.633878E-2,6.046352E-1,1.081763E0,4.529359E-1],"categories":[],"categories_nodes":[],"categories_segments":[],"categories_sizes":[],"default_left":[0,0,0,0,0,0,0,0,0,0,0,0,0,0,0,0,0,0,0,0,0,0,0,0,0,0,0,0,0,0,0,0,0,0,0,0,0,0,0,0,0,0,0,0,0,0,0,0,0,0,0,0,0,0,0,0,0,0,0,0,0,0,0,0,0,0,0,0,0,0,0,0,0],"id":6,"left_children":[1,3,5,7,9,11,13,-1,-1,15,17,19,21,23,25,27,29,31,-1,33,35,37,-1,39,41,43,45,-1,47,-1,49,51,53,-1,-1,-1,-1,55,57,59,61,63,65,67,69,71,-1,-1,-1,-1,-1,-1,-1,-1,-1,-1,-1,-1,-1,-1,-1,-1,-1,-1,-1,-1,-1,-1,-1,-1,-1,-1,-1],"loss_changes":[9.27586E3,2.004227E3,3.223053E3,4.2301636E2,1.4784307E3,1.1375294E3,2.1826553E3,0E0,0E0,1.2170596E3,1.2257258E3,8.0199854E2,8.098599E2,1.5822969E3,9.597456E2,6.250677E2,8.19603E2,1.3512638E3,0E0,3.758114E2,2.536245E2,7.6286523E2,0E0,1.0449758E3,8.4618E2,1.0972778E3,5.01271E2,0E0,1.3008572E2,0E0,5.470054E2,7.461338E2,1.2195663E3,0E0,0E0,0E0,0E0,8.9754175E2,5.6231964E2,1.5235248E3,6.9849805E2,4.6497656E2,5.308298E2,6.2541504E2,9.026019E2,2.5458447E2,0E0,0E0,0E0,0E0,0E0,0E0,0E0,0E0,0E0,0E0,0E0,0E0,0E0,0E0,0E0,0E0,0E0,0E0,0E0,0E0,0E0,0E0,0E0,0E0,0E0,0E0,0E0],"parents":[2147483647,0,0,1,1,2,2,3,3,4,4,5,5,6,6,9,9,10,10,11,11,12,12,13,13,14,14,15,15,16,16,17,17,19,19,20,20,21,21,23,23,24,24,25,25,26,26,28,28,30,30,31,31,32,32,37,37,38,38,39,39,40,40,41,41,42,42,43,43,44,44,45,45],"right_children":[2,4,6,8,10,12,14,-1,-1,16,18,20,22,24,26,28,30,32,-1,34,36,38,-1,40,42,44,46,-1,48,-1,50,52,54,-1,-1,-1,-1,56,58,60,62,64,66,68,70,72,-1,-1,-1,-1,-1,-1,-1,-1,-1,-1,-1,-1,-1,-1,-1,-1,-1,-1,-1,-1,-1,-1,-1,-1,-1,-1,-1],"split_conditions":[1.139E2,1.071E2,1.138E2,1.0596902E1,1.15E2,5.4E1,1.194E2,-1.1289535E0,-3.9460492E-1,-4E0,1.2693939E1,2.8142857E1,9.78E1,3.5561756E1,6.35E1,1.0961702E2,4.87E1,0E0,-7.227203E-1,1.0106126E1,5.16E1,6.19E1,4.2531666E-1,1.156E2,-2E0,5.74E1,1.1193066E1,-2.1260905E-1,1.128E2,2.0131154E-1,1.0701667E1,5.96E1,-5.436755E0,8.078233E-1,1.9971368E-1,-2.0822112E-1,2.1188538E-1,1.11181816E2,5.84E1,3.07947E-1,2.7631578E-1,5.3404343E1,1.204E2,1.08875E2,6.25E1,5.65E1,2.2523077E-1,4.956406E-1,1.1668821E-1,-4.7657132E-1,-2.7134928E-1,-3.973062E-2,-4.217269E-1,4.857145E-1,-8.547119E-3,-3.487444E-1,-3.0491936E-3,-1.04222E-1,3.5942784E-1,-1.2988566E-1,5.01334E-1,1.7712276E-1,4.246276E-1,-1.8457972E-2,-6.048278E-1,8.655723E-2,-3.078592E-1,1.8726331E-1,6.030647E-1,8.633878E-2,6.046352E-1,1.081763E0,4.529359E-1],"split_indices":[1,1,32,61,44,43,1,0,0,71,61,30,26,25,15,6,14,127,0,29,43,15,0,32,128,43,61,0,8,0,29,46,121,0,0,0,0,69,10,28,60,24,44,45,42,14,0,0,0,0,0,0,0,0,0,0,0,0,0,0,0,0,0,0,0,0,0,0,0,0,0,0,0],"split_type":[0,0,0,0,0,0,0,0,0,0,0,0,0,0,0,0,0,0,0,0,0,0,0,0,0,0,0,0,0,0,0,0,0,0,0,0,0,0,0,0,0,0,0,0,0,0,0,0,0,0,0,0,0,0,0,0,0,0,0,0,0,0,0,0,0,0,0,0,0,0,0,0,0],"sum_hessian":[8.55E2,3.23E2,5.32E2,1.1E1,3.12E2,1.44E2,3.88E2,6E0,5E0,1.67E2,1.45E2,2.4E1,1.2E2,2.59E2,1.29E2,1.9E1,1.48E2,1.39E2,6E0,1.1E1,1.3E1,1.15E2,5E0,1.97E2,6.2E1,1.12E2,1.7E1,9E0,1E1,6E0,1.42E2,5.1E1,8.8E1,5E0,6E0,8E0,5E0,8.8E1,2.7E1,5.7E1,1.4E2,1.5E1,4.7E1,4.7E1,6.5E1,1.2E1,5E0,5E0,5E0,6.5E1,7.7E1,2.4E1,2.7E1,1.4E1,7.4E1,6.1E1,2.7E1,1.8E1,9E0,4.6E1,1.1E1,9.9E1,4.1E1,5E0,1E1,3.7E1,1E1,1.4E1,3.3E1,5.6E1,9E0,7E0,5E0],"tree_param":{"num_deleted":"0","num_feature":"129","num_nodes":"73","size_leaf_vector":"1"}},{"base_weights":[1.7850181E-1,3.4929864E0,-2.1789088E0,-7.158187E-1,5.3817945E0,-3.9661674E0,6.017369E-1,-1.1423762E1,5.4997677E-1,7.817854E0,2.4532216E0,-8.54513E0,-3.0523472E0,-1.0440558E1,1.6851226E0,-9.4270945E-1,-4.1715164E-2,-2.1312542E0,4.7616663E0,4.5065093E0,1.1061456E1,3.9201658E0,-3.5806494E0,-1.0240905E1,-2.7927954E0,8.996195E-1,-4.2948804E0,-8.353285E-2,-1.5860436E1,-4.4916835E0,2.8781035E0,-3.941866E0,6.7772617E0,1.1098561E1,1.9718591E0,7.157978E0,-4.4239527E-1,-7.0689954E-2,1.2517859E1,2.1151476E0,1.083365E1,-4.971747E-1,-1.2552205E0,-7.54859E0,-9.182722E-1,7.139688E-2,-2.810873E-1,-7.4285307E0,3.0068026E0,-2.919483E0,-9.488001E0,-4.675912E-1,-9.854488E-1,-8.581037E-1,-8.146858E-1,1.1194295E0,6.406025E0,3.251826E-1,-2.5837585E-1,6.203565E-1,5.917866E-5,3.062893E-1,6.880573E-1,3.5164744E-1,-7.530965E-2,1.9274946E-1,5.3722453E-1,3.2556996E-1,-3.6849257E-1,9.017068E-1,5.323037E-1,2.2994108E-1,-6.81439E-2,2.3629235E-1,8.541946E-1,-3.3862215E-1,6.900265E-2,-2.7782127E-1,-6.785404E-1,-5.9191054E-1,-1.5901022E-1,3.744675E-1,-4.6959754E-2,-2.0637374E-1,5.699141E-2,-3.6130446E-1,-8.9513123E-1,-2.913352E-1,2.7672443E-1,-6.5958374E-3,4.590182E-1,3.9397952E-1,-2.9711577E-1],"categories":[],"categories_nodes":[],"categories_segments":[],"categories_sizes":[],"default_left":[0,0,0,0,0,0,0,0,0,0,0,0,0,0,0,0,0,0,0,0,0,0,0,0,0,0,0,0,0,0,0,0,0,0,0,0,0,0,0,0,0,0,0,0,0,0,0,0,0,0,0,0,0,0,0,0,0,0,0,0,0,0,0,0,0,0,0,0,0,0,0,0,0,0,0,0,0,0,0,0,0,0,0,0,0,0,0,0,0,0,0,0,0],"id":7,"left_children":[1,3,5,7,9,11,13,15,17,19,21,23,25,27,29,-1,-1,31,33,35,37,39,41,43,45,47,49,-1,51,53,55,57,59,61,63,65,67,-1,69,71,73,-1,75,77,-1,-1,-1,79,81,83,85,-1,-1,87,-1,89,91,-1,-1,-1,-1,-1,-1,-1,-1,-1,-1,-1,-1,-1,-1,-1,-1,-1,-1,-1,-1,-1,-1,-1,-1,-1,-1,-1,-1,-1,-1,-1,-1,-1,-1,-1,-1],"loss_changes":[6.805575E3,2.8820835E3,2.5323174E3,1.5389796E3,1.7633394E3,1.2699058E3,2.4093308E3,9.2651135E2,1.1622476E3,1.4093271E3,1.0319762E3,4.6758374E2,1.2809199E3,8.273219E2,1.3612588E3,0E0,0E0,1.0426129E3,6.8395667E2,9.092471E2,1.2542988E3,1.1363337E3,3.2671475E2,7.1185425E2,1.6367007E2,1.127477E3,1.3852952E3,0E0,8.831445E1,1.2708123E3,9.475637E2,7.120097E2,4.183771E2,7.2598755E1,5.216249E2,4.9019946E2,1.2523766E3,0E0,4.3498242E2,6.5446234E2,6.4241284E2,0E0,2.7159457E2,2.945968E2,0E0,0E0,0E0,2.043891E2,9.097831E2,7.7977466E2,6.4847974E2,0E0,0E0,7.9457074E2,0E0,1.051166E3,9.750171E2,0E0,0E0,0E0,0E0,0E0,0E0,0E0,0E0,0E0,0E0,0E0,0E0,0E0,0E0,0E0,0E0,0E0,0E0,0E0,0E0,0E0,0E0,0E0,0E0,0E0,0E0,0E0,0E0,0E0,0E0,0E0,0E0,0E0,0E0,0E0,0E0],"parents":[2147483647,0,0,1,1,2,2,3,3,4,4,5,5,6,6,7,7,8,8,9,9,10,10,11,11,12,12,13,13,14,14,17,17,18,18,19,19,20,20,21,21,22,22,23,23,24,24,25,25,26,26,28,28,29,29,30,30,31,31,32,32,33,33,34,34,35,35,36,36,38,38,39,39,40,40,42,42,43,43,47,47,48,48,49,49,50,50,53,53,55,55,56,56],"right_children":[2,4,6,8,10,12,14,16,18,20,22,24,26,28,30,-1,-1,32,34,36,38,40,42,44,46,48,50,-1,52,54,56,58,60,62,64,66,68,-1,70,72,74,-1,76,78,-1,-1,-1,80,82,84,86,-1,-1,88,-1,90,92,-1,-1,-1,-1,-1,-1,-1,-1,-1,-1,-1,-1,-1,-1,-1,-1,-1,-1,-1,-1,-1,-1,-1,-1,-1,-1,-1,-1,-1,-1,-1,-1,-1,-1,-1,-1],"split_conditions":[4.1E1,3.9E1,1.13E2,5.12E1,9.544283E0,1.048E2,2.413793E-1,-1.3382674E1,5.688889E1,2.9166666E1,3.7786297E1,2.48E0,-8.979829E1,9.967344E0,1.09818184E2,-9.4270945E-1,-4.1715164E-2,1.0513393E2,3.0793232E1,5.6213467E1,-1E0,1.198E2,1.0209821E2,2.32E0,3.1436897E1,5.24E1,4.017857E-1,-8.353285E-2,5.133333E0,1.3529564E2,2.4909852E0,1.082E2,5.66E1,2E0,1.15E2,3.349833E1,-2.982949E2,-7.0689954E-2,1.2441039E3,1.1371867E2,1.0046859E1,-4.971747E-1,9.7881975E0,1.1208333E1,-9.182722E-1,7.139688E-2,-2.810873E-1,1.154E2,1.12763855E2,1.1875E2,6.26E1,-4.675912E-1,-9.854488E-1,1.111E2,-8.146858E-1,1.0529018E2,1.0519758E1,3.251826E-1,-2.5837585E-1,6.203565E-1,5.917866E-5,3.062893E-1,6.880573E-1,3.5164744E-1,-7.530965E-2,1.9274946E-1,5.3722453E-1,3.2556996E-1,-3.6849257E-1,9.017068E-1,5.323037E-1,2.2994108E-1,-6.81439E-2,2.3629235E-1,8.541946E-1,-3.3862215E-1,6.900265E-2,-2.7782127E-1,-6.785404E-1,-5.9191054E-1,-1.5901022E-1,3.744675E-1,-4.6959754E-2,-2.0637374E-1,5.699141E-2,-3.6130446E-1,-8.9513123E-1,-2.913352E-1,2.7672443E-1,-6.5958374E-3,4.590182E-1,3.9397952E-1,-2.9711577E-1],"split_indices":[2,34,13,42,29,13,39,123,14,63,25,22,79,29,70,0,0,74,57,24,85,40,74,22,25,10,75,0,126,79,83,9,10,67,8,25,79,0,77,37,61,0,29,53,0,0,0,40,5,12,10,0,0,33,0,74,121,0,0,0,0,0,0,0,0,0,0,0,0,0,0,0,0,0,0,0,0,0,0,0,0,0,0,0,0,0,0,0,0,0,0,0,0],"split_type":[0,0,0,0,0,0,0,0,0,0,0,0,0,0,0,0,0,0,0,0,0,0,0,0,0,0,0,0,0,0,0,0,0,0,0,0,0,0,0,0,0,0,0,0,0,0,0,0,0,0,0,0,0,0,0,0,0,0,0,0,0,0,0,0,0,0,0,0,0,0,0,0,0,0,0,0,0,0,0,0,0,0,0,0,0,0,0,0,0,0,0,0,0],"sum_hessian":[8.69E2,3.61E2,5.08E2,1.12E2,2.49E2,3.09E2,1.99E2,1.1E1,1.01E2,1.35E2,1.14E2,5E1,2.59E2,1.7E1,1.82E2,6E0,5E0,6.2E1,3.9E1,6.8E1,6.7E1,9.2E1,2.2E1,3.8E1,1.2E1,6.2E1,1.97E2,7E0,1E1,2.9E1,1.53E2,5.2E1,1E1,1.1E1,2.8E1,4.4E1,2.4E1,7E0,6E1,7.4E1,1.8E1,5E0,1.7E1,3E1,8E0,5E0,7E0,1.2E1,5E1,1.57E2,4E1,5E0,5E0,2.3E1,6E0,1.03E2,5E1,5E0,4.7E1,5E0,5E0,5E0,6E0,1.1E1,1.7E1,2.4E1,2E1,1.2E1,1.2E1,1.3E1,4.7E1,4.3E1,3.1E1,1E1,8E0,5E0,1.2E1,2.4E1,6E0,5E0,7E0,2.3E1,2.7E1,1.21E2,3.6E1,3.3E1,7E0,1.3E1,1E1,9E1,1.3E1,4.5E1,5E0],"tree_param":{"num_deleted":"0","num_feature":"129","num_nodes":"93","size_leaf_vector":"1"}},{"base_weights":[-3.1838525E-2,-4.650579E0,1.7194788E0,-1.6144022E1,-3.911031E0,4.054058E0,1.7271571E-1,-4.021855E-1,-9.869669E-1,-4.3721805E0,4.5370135E-1,1.0199355E0,6.4083395E0,5.845849E-1,-1.1396896E1,-7.9811805E-1,-3.9093537E0,-5.6232104E0,2.5597813E0,4.4779606E0,1.1469411E1,2.2279382E0,-1.7322717E0,-7.859117E-1,-1.859483E-1,-5.402766E0,-9.70552E-1,-1.1002932E0,-9.625835E0,5.81891E0,-4.4629235E-2,2.6614194E0,9.245074E0,5.3736863E0,1.442024E1,3.8102074E0,-8.7905055E-1,-2.5967948E0,6.9678006E0,-1.8613254E-1,-4.662709E-1,5.0810453E-2,-2.4952915E-1,-2.186538E-1,1.16960265E-1,-1.9773667E-1,-6.8379825E-1,3.8903754E-2,4.2497167E-1,-2.3066258E-1,1.2920558E-1,3.581672E-1,1.6267801E-3,5.688322E-1,1.2407831E-1,5.0385904E-1,-1.2802517E-1,8.4325755E-1,4.0943584E-1,1.395951E-1,6.4569324E-1,-1.2298472E-1,3.6762652E-1,-6.464612E-2,-3.456545E-1,9.781252E-2,4.7617617E-1],"categories":[],"categories_nodes":[],"categories_segments":[],"categories_sizes":[],"default_left":[0,0,0,0,0,0,0,0,0,0,0,0,0,0,0,0,0,0,0,0,0,0,0,0,0,0,0,0,0,0,0,0,0,0,0,0,0,0,0,0,0,0,0,0,0,0,0,0,0,0,0,0,0,0,0,0,0,0,0,0,0,0,0,0,0,0,0],"id":8,"left_children":[1,3,5,7,9,11,13,-1,-1,15,-1,17,19,21,23,-1,25,27,29,31,33,35,37,-1,-1,39,41,43,45,47,49,51,53,55,57,59,61,63,65,-1,-1,-1,-1,-1,-1,-1,-1,-1,-1,-1,-1,-1,-1,-1,-1,-1,-1,-1,-1,-1,-1,-1,-1,-1,-1,-1,-1],"loss_changes":[6.9728164E3,1.9493433E3,2.2557778E3,2.461687E2,1.3805271E3,1.7713728E3,1.8020491E3,0E0,0E0,1.0996514E3,0E0,1.1393241E3,1.3148159E3,1.393615E3,3.7092664E2,0E0,9.157759E2,3.685105E2,7.64767E2,8.661489E2,6.040537E2,1.0556863E3,1.1609121E3,0E0,0E0,8.800608E2,5.805215E2,1.3425696E2,1.968078E2,5.3294226E2,6.2462E2,8.985102E2,3.7405518E2,5.490122E2,2.4027881E2,1.2787583E3,9.674132E2,7.7251917E2,1.5953546E2,0E0,0E0,0E0,0E0,0E0,0E0,0E0,0E0,0E0,0E0,0E0,0E0,0E0,0E0,0E0,0E0,0E0,0E0,0E0,0E0,0E0,0E0,0E0,0E0,0E0,0E0,0E0,0E0],"parents":[2147483647,0,0,1,1,2,2,3,3,4,4,5,5,6,6,9,9,11,11,12,12,13,13,14,14,16,16,17,17,18,18,19,19,20,20,21,21,22,22,25,25,26,26,27,27,28,28,29,29,30,30,31,31,32,32,33,33,34,34,35,35,36,36,37,37,38,38],"right_children":[2,4,6,8,10,12,14,-1,-1,16,-1,18,20,22,24,-1,26,28,30,32,34,36,38,-1,-1,40,42,44,46,48,50,52,54,56,58,60,62,64,66,-1,-1,-1,-1,-1,-1,-1,-1,-1,-1,-1,-1,-1,-1,-1,-1,-1,-1,-1,-1,-1,-1,-1,-1,-1,-1,-1,-1],"split_conditions":[1.12E2,1.071E2,1.1125499E2,3.9318182E0,3.32E0,7.94E1,1.2693939E1,-4.021855E-1,-9.869669E-1,2.5228518E1,4.5370135E-1,1.1057143E2,1.2E2,3E0,-7.5E-1,-7.9811805E-1,4.357143E0,9.526261E0,1.2042587E0,2.4758843E-1,1.6333885E3,1.1432124E2,1.2369565E1,-7.859117E-1,-1.859483E-1,2.5E0,5.8E1,2E0,5.3324707E1,2.8333334E1,5E0,1.8363273E-1,1.0517122E1,2.85E1,3.1125E1,1.0529018E2,1.25333336E2,1.1413043E1,2.2705742E2,-1.8613254E-1,-4.662709E-1,5.0810453E-2,-2.4952915E-1,-2.186538E-1,1.16960265E-1,-1.9773667E-1,-6.8379825E-1,3.8903754E-2,4.2497167E-1,-2.3066258E-1,1.2920558E-1,3.581672E-1,1.6267801E-3,5.688322E-1,1.2407831E-1,5.0385904E-1,-1.2802517E-1,8.4325755E-1,4.0943584E-1,1.395951E-1,6.4569324E-1,-1.2298472E-1,3.6762652E-1,-6.464612E-2,-3.456545E-1,9.781252E-2,4.7617617E-1],"split_indices":[1,1,38,55,54,58,61,0,0,57,0,13,9,67,81,0,55,61,83,60,78,38,21,0,0,54,47,71,24,31,68,28,29,31,63,74,41,21,123,0,0,0,0,0,0,0,0,0,0,0,0,0,0,0,0,0,0,0,0,0,0,0,0,0,0,0,0],"split_type":[0,0,0,0,0,0,0,0,0,0,0,0,0,0,0,0,0,0,0,0,0,0,0,0,0,0,0,0,0,0,0,0,0,0,0,0,0,0,0,0,0,0,0,0,0,0,0,0,0,0,0,0,0,0,0,0,0,0,0,0,0,0,0,0,0,0,0],"sum_hessian":[8.6E2,2.36E2,6.24E2,1.3E1,2.23E2,2.48E2,3.76E2,5E0,8E0,2.16E2,7E0,1.09E2,1.39E2,3.64E2,1.2E1,7E0,2.09E2,2E1,8.9E1,1.02E2,3.7E1,2.13E2,1.51E2,7E0,5E0,1.38E2,7.1E1,1E1,1E1,3.9E1,5E1,7.5E1,2.7E1,1.3E1,2.4E1,1.41E2,7.2E1,1.38E2,1.3E1,9.8E1,4E1,4.8E1,2.3E1,5E0,5E0,5E0,5E0,1.4E1,2.5E1,1.8E1,3.2E1,2.7E1,4.8E1,2E1,7E0,8E0,5E0,1.6E1,8E0,1.28E2,1.3E1,6.1E1,1.1E1,1.07E2,3.1E1,5E0,8E0],"tree_param":{"num_deleted":"0","num_feature":"129","num_nodes":"67","size_leaf_vector":"1"}},{"base_weights":[-1.0262789E-4,-2.4626784E0,2.9789727E0,-2.1383684E0,-1.3503721E0,1.5863416E0,5.9430017E0,-5.3471255E0,-6.534571E-1,-5.8764477E0,2.289473E0,4.4267864E0,1.3091916E1,-7.1597433E0,-1.4951192E0,-4.919115E0,2.8024387E-1,-2.182584E0,-5.6844187E-1,-5.1837516E0,3.0235069E0,1.3053274E1,3.144686E0,1.5659927E-1,1.7841026E1,-1.2428174E0,-8.832854E0,3.025754E-1,-2.7196734E0,3.1901522E0,-6.714494E0,-2.959686E-1,6.2600064E0,5.3417034E-2,-2.2398415E-1,2.0873387E-1,-8.187682E0,7.2224517E0,1.6219171E0,8.666603E-1,3.4471518E-1,7.3807514E-1,1.9996954E0,1.0660822E0,4.8149633E-1,-1.8227397E-1,1.4442995E-1,-1.4047566E-1,-5.519826E-1,-2.5188598E-1,8.909955E-2,3.424184E-1,-4.915446E-2,-4.022143E-1,1.8482302E-1,-7.596416E-2,1.2254359E-1,4.7380525E-1,9.404903E-2,-5.5517644E-1,-1.7534564E-1,1.5281211E-1,4.7564822E-1,4.8352323E-2,4.995872E-1,-2.0102094E-1,1.580002E-1],"categories":[],"categories_nodes":[],"categories_segments":[],"categories_sizes":[],"default_left":[0,0,0,0,0,0,0,0,0,0,0,0,0,0,0,0,0,0,0,0,0,0,0,0,0,0,0,0,0,0,0,0,0,0,0,0,0,0,0,0,0,0,0,0,0,0,0,0,0,0,0,0,0,0,0,0,0,0,0,0,0,0,0,0,0,0,0],"id":9,"left_children":[1,3,5,7,-1,9,11,13,15,17,19,21,23,25,27,29,31,33,-1,35,37,39,41,-1,43,45,47,-1,49,51,53,55,57,-1,-1,-1,59,61,63,-1,-1,-1,65,-1,-1,-1,-1,-1,-1,-1,-1,-1,-1,-1,-1,-1,-1,-1,-1,-1,-1,-1,-1,-1,-1,-1,-1],"loss_changes":[6.257726E3,3.6567065E3,1.5831499E3,2.197206E3,0E0,1.3983884E3,1.2735264E3,1.0078335E3,1.2644056E3,4.4045868E2,1.3429719E3,1.0965139E3,9.353418E2,9.680825E2,4.597051E2,8.516477E2,9.017544E2,1.1714238E2,0E0,6.530478E2,1.2880299E3,2.2075684E2,1.1792097E3,0E0,1.9169482E2,2.3891313E2,9.9110547E2,0E0,4.475755E2,1.7525189E2,6.8085693E2,8.067301E2,3.0495752E2,0E0,0E0,0E0,1.9162268E2,4.94521E2,9.045945E2,0E0,0E0,0E0,5.993744E2,0E0,0E0,0E0,0E0,0E0,0E0,0E0,0E0,0E0,0E0,0E0,0E0,0E0,0E0,0E0,0E0,0E0,0E0,0E0,0E0,0E0,0E0,0E0,0E0],"parents":[2147483647,0,0,1,1,2,2,3,3,5,5,6,6,7,7,8,8,9,9,10,10,11,11,12,12,13,13,14,14,15,15,16,16,17,17,19,19,20,20,21,21,22,22,24,24,25,25,26,26,28,28,29,29,30,30,31,31,32,32,36,36,37,37,38,38,42,42],"right_children":[2,4,6,8,-1,10,12,14,16,18,20,22,24,26,28,30,32,34,-1,36,38,40,42,-1,44,46,48,-1,50,52,54,56,58,-1,-1,-1,60,62,64,-1,-1,-1,66,-1,-1,-1,-1,-1,-1,-1,-1,-1,-1,-1,-1,-1,-1,-1,-1,-1,-1,-1,-1,-1,-1,-1,-1],"split_conditions":[1.156E2,3.55E1,1.2E2,1.139E2,-1.3503721E0,2.413793E-1,1.0526786E2,2.9625E1,1.093E2,1.162E2,1.093E2,-4.2933136E2,3.2E1,2.65E1,3E0,1.0095982E2,2.3740884E2,-6.7004495E0,-5.6844187E-1,9.176025E0,-3.191583E2,3.9387755E0,-1.1212252E1,1.5659927E-1,-1.3012319E0,2.888889E1,5.2194794E1,3.025754E-1,1.4964808E0,1.98E1,4E0,2.82E1,1.166E2,5.3417034E-2,-2.2398415E-1,2.0873387E-1,1.1675E2,1.0258929E2,5E0,8.666603E-1,3.4471518E-1,7.3807514E-1,6.2E1,1.0660822E0,4.8149633E-1,-1.8227397E-1,1.4442995E-1,-1.4047566E-1,-5.519826E-1,-2.5188598E-1,8.909955E-2,3.424184E-1,-4.915446E-2,-4.022143E-1,1.8482302E-1,-7.596416E-2,1.2254359E-1,4.7380525E-1,9.404903E-2,-5.5517644E-1,-1.7534564E-1,1.5281211E-1,4.7564822E-1,4.8352323E-2,4.995872E-1,-2.0102094E-1,1.580002E-1],"split_indices":[1,30,9,32,0,39,74,30,1,9,33,79,34,30,68,74,124,83,0,61,79,55,121,0,83,62,24,0,121,27,16,27,33,0,0,0,65,36,48,0,0,0,26,0,0,0,0,0,0,0,0,0,0,0,0,0,0,0,0,0,0,0,0,0,0,0,0],"split_type":[0,0,0,0,0,0,0,0,0,0,0,0,0,0,0,0,0,0,0,0,0,0,0,0,0,0,0,0,0,0,0,0,0,0,0,0,0,0,0,0,0,0,0,0,0,0,0,0,0,0,0,0,0,0,0,0,0,0,0,0,0,0,0,0,0,0,0],"sum_hessian":[8.51E2,4.66E2,3.85E2,4.61E2,5E0,2.63E2,1.22E2,1.45E2,3.16E2,2.2E1,2.41E2,1.02E2,2E1,9.8E1,4.7E1,5.6E1,2.6E2,1.4E1,8E0,2.1E1,2.2E2,1.2E1,9E1,7E0,1.3E1,2.2E1,7.6E1,6E0,4.1E1,1E1,4.6E1,2.38E2,2.2E1,6E0,8E0,5E0,1.6E1,5.4E1,1.66E2,6E0,6E0,7E0,8.3E1,8E0,5E0,1.4E1,8E0,2.1E1,5.5E1,2.7E1,1.4E1,5E0,5E0,4.1E1,5E0,1.65E2,7.3E1,1.2E1,1E1,9E0,7E0,2E1,3.4E1,1.55E2,1.1E1,1.3E1,7E1],"tree_param":{"num_deleted":"0","num_feature":"129","num_nodes":"67","size_leaf_vector":"1"}},{"base_weights":[1.7665189E-2,-5.1595216E0,1.3490593E0,-1.5078246E1,-3.6097832E0,-1.9382828E0,2.5955317E0,-1.3249483E0,-8.810951E0,-5.2683845E0,1.3708357E0,5.192616E0,-2.9341846E0,1.8373135E0,9.351775E0,-7.188434E-1,-1.7335616E-1,-4.2577806E0,-1.1016222E1,6.9620423E0,-9.865891E-1,6.383499E-1,1.9529889E0,-2.462878E0,-7.694709E-1,7.34346E-1,4.7689443E0,1.1654633E1,-6.2269967E-2,4.0216297E-1,-6.027788E0,-1.5404899E1,-1.9308332E-2,4.637951E-1,1.5427665E-1,3.625807E0,-4.967024E0,5.169948E-1,-2.0604289E0,-5.6045084E0,-9.666895E-1,-9.8410684E-1,2.3985248E0,1.1024992E1,3.1722102E0,1.33981695E1,1.8809326E-1,8.8650495E-2,-2.5657925E-1,-4.5035243E-1,-1.2239201E-1,-9.78251E-1,-3.9836368E-1,4.1180477E-1,-1.0733904E-1,-0E0,-4.4182062E-1,7.508906E-2,-2.2435164E-1,-9.981858E-2,-4.5006838E-1,-8.190873E-2,4.0194127E-1,3.37884E-1,-8.180636E-2,1.7357747E-1,-6.460937E-2,7.012704E-1,2.060715E-1,-3.9001517E-2,3.0002928E-1,3.5241565E-1,7.873048E-1],"categories":[],"categories_nodes":[],"categories_segments":[],"categories_sizes":[],"default_left":[0,0,0,0,0,0,0,0,0,0,0,0,0,0,0,0,0,0,0,0,0,0,0,0,0,0,0,0,0,0,0,0,0,0,0,0,0,0,0,0,0,0,0,0,0,0,0,0,0,0,0,0,0,0,0,0,0,0,0,0,0,0,0,0,0,0,0,0,0,0,0,0,0],"id":10,"left_children":[1,3,5,7,9,11,13,-1,15,17,19,21,23,25,27,-1,-1,29,31,33,35,-1,37,39,-1,41,43,45,-1,47,49,51,-1,-1,-1,53,55,-1,57,59,61,63,65,67,69,71,-1,-1,-1,-1,-1,-1,-1,-1,-1,-1,-1,-1,-1,-1,-1,-1,-1,-1,-1,-1,-1,-1,-1,-1,-1,-1,-1],"loss_changes":[6.065418E3,2.710559E3,2.8734036E3,1.4808364E3,1.3045671E3,1.3856334E3,2.5840344E3,0E0,4.5400537E2,6.370054E2,5.347002E2,5.625103E2,9.5825183E2,1.4768878E3,1.260148E3,0E0,0E0,8.4429675E2,7.855537E2,7.777911E1,5.505645E2,0E0,6.2801544E2,7.695027E2,0E0,9.5767926E2,1.2122622E3,5.258579E2,0E0,2.2875423E2,7.660608E2,2.1266382E2,0E0,0E0,0E0,3.9087616E2,3.0799854E2,0E0,1.1941001E2,6.3051575E2,6.958477E2,8.434317E2,6.7794196E2,4.5821973E2,1.1342231E3,3.9364307E2,0E0,0E0,0E0,0E0,0E0,0E0,0E0,0E0,0E0,0E0,0E0,0E0,0E0,0E0,0E0,0E0,0E0,0E0,0E0,0E0,0E0,0E0,0E0,0E0,0E0,0E0,0E0],"parents":[2147483647,0,0,1,1,2,2,3,3,4,4,5,5,6,6,8,8,9,9,10,10,11,11,12,12,13,13,14,14,17,17,18,18,19,19,20,20,22,22,23,23,25,25,26,26,27,27,29,29,30,30,31,31,35,35,36,36,38,38,39,39,40,40,41,41,42,42,43,43,44,44,45,45],"right_children":[2,4,6,8,10,12,14,-1,16,18,20,22,24,26,28,-1,-1,30,32,34,36,-1,38,40,-1,42,44,46,-1,48,50,52,-1,-1,-1,54,56,-1,58,60,62,64,66,68,70,72,-1,-1,-1,-1,-1,-1,-1,-1,-1,-1,-1,-1,-1,-1,-1,-1,-1,-1,-1,-1,-1,-1,-1,-1,-1,-1,-1],"split_conditions":[1.105E2,1.11E2,1.144E2,3E0,3.1E1,5.28E1,1.211E2,-1.3249483E0,2.897186E1,1.190196E1,0E0,2.7222221E1,1.2345253E1,5.99E1,1.18066666E2,-7.188434E-1,-1.7335616E-1,2.7666666E1,1.2756098E1,3.216974E1,5.43E1,6.383499E-1,7.72E1,8.99126E0,-7.694709E-1,1.162E2,8.713728E0,1.1119996E1,-6.2269967E-2,5.9E1,1.164E2,5.95E1,-1.9308332E-2,4.637951E-1,1.5427665E-1,1.2E2,5.525E1,5.169948E-1,1.105E2,9.718879E0,1.0491071E2,2.5228518E1,2.4285715E0,5.7875E1,1.0062527E1,2.8600668E1,1.8809326E-1,8.8650495E-2,-2.5657925E-1,-4.5035243E-1,-1.2239201E-1,-9.78251E-1,-3.9836368E-1,4.1180477E-1,-1.0733904E-1,-0E0,-4.4182062E-1,7.508906E-2,-2.2435164E-1,-9.981858E-2,-4.5006838E-1,-8.190873E-2,4.0194127E-1,3.37884E-1,-8.180636E-2,1.7357747E-1,-6.460937E-2,7.012704E-1,2.060715E-1,-3.9001517E-2,3.0002928E-1,3.5241565E-1,7.873048E-1],"split_indices":[1,32,32,67,30,43,1,0,57,53,128,30,61,15,70,0,0,63,53,57,15,0,58,61,0,40,61,61,0,42,32,46,0,0,0,12,11,0,8,29,74,57,81,46,61,25,0,0,0,0,0,0,0,0,0,0,0,0,0,0,0,0,0,0,0,0,0,0,0,0,0,0,0],"split_type":[0,0,0,0,0,0,0,0,0,0,0,0,0,0,0,0,0,0,0,0,0,0,0,0,0,0,0,0,0,0,0,0,0,0,0,0,0,0,0,0,0,0,0,0,0,0,0,0,0,0,0,0,0,0,0,0,0,0,0,0,0,0,0,0,0,0,0,0,0,0,0,0,0],"sum_hessian":[8.78E2,1.79E2,6.99E2,2.3E1,1.56E2,1.92E2,5.07E2,7E0,1.6E1,1.17E2,3.9E1,2.3E1,1.69E2,4.57E2,5E1,7E0,9E0,1.01E2,1.6E1,1.1E1,2.8E1,6E0,1.7E1,1.64E2,5E0,3.33E2,1.24E2,4.1E1,9E0,2.8E1,7.3E1,1.1E1,5E0,6E0,5E0,1.3E1,1.5E1,5E0,1.2E1,5.2E1,1.12E2,1.64E2,1.69E2,2.4E1,1E2,3.3E1,8E0,2.3E1,5E0,3.9E1,3.4E1,6E0,5E0,7E0,6E0,7E0,8E0,5E0,7E0,2.6E1,2.6E1,1.05E2,7E0,1.2E1,1.52E2,1.31E2,3.8E1,1.6E1,8E0,4.2E1,5.8E1,1E1,2.3E1],"tree_param":{"num_deleted":"0","num_feature":"129","num_nodes":"73","size_leaf_vector":"1"}},{"base_weights":[-6.898471E-2,-5.0881734E0,1.7281587E0,-1.0140194E1,-4.022417E0,-9.281867E-2,4.13639E0,-1.583885E1,-5.730686E0,-3.2627172E0,-1.0121804E1,-5.27535E-1,8.045639E0,2.588927E0,8.370389E0,-1.1524365E0,-5.2286017E-1,1.5506779E-2,-8.9798E0,-3.8030899E0,3.980655E0,-1.2837364E1,-2.2156468E-1,2.0778644E0,-1.9413021E0,1.0825047E1,3.3299178E-2,9.299298E0,1.9438151E0,1.0387187E1,2.7031937E0,-7.157865E-1,-4.1110165E-2,-1.4340608E0,-6.512748E0,-2.2305234E-1,5.33101E-1,-4.2017514E-1,-8.2964766E-1,-2.1557157E0,5.2862215E0,-2.6361227E0,5.5060787E0,7.2182584E-1,3.3754063E-1,5.972914E-1,1.8988542E-1,3.0449889E0,-3.4794443E0,1.1789746E1,-1.4961341E-2,6.1655533E-1,-1.3215178E0,-1.6867886E-1,4.9996063E-2,-4.0193993E-1,1.3358022E-1,2.7391326E-1,-1.9416264E-1,4.687442E-1,1.9519314E-2,-1.6535923E-1,2.6617396E-1,-1.0526358E-2,7.675168E-1,2.0742767E-1,-2.3230163E-2,-4.1718674E-1,2.4582012E-2,7.8728026E-1,4.20956E-1,1.2659602E-1,-3.7701643E-1],"categories":[],"categories_nodes":[],"categories_segments":[],"categories_sizes":[],"default_left":[0,0,0,0,0,0,0,0,0,0,0,0,0,0,0,0,0,0,0,0,0,0,0,0,0,0,0,0,0,0,0,0,0,0,0,0,0,0,0,0,0,0,0,0,0,0,0,0,0,0,0,0,0,0,0,0,0,0,0,0,0,0,0,0,0,0,0,0,0,0,0,0,0],"id":11,"left_children":[1,3,5,7,9,11,13,15,17,19,21,23,25,27,29,-1,-1,-1,31,33,35,37,-1,39,41,43,-1,45,47,49,51,-1,-1,53,55,-1,-1,-1,-1,57,59,61,63,-1,-1,-1,-1,65,67,69,-1,-1,71,-1,-1,-1,-1,-1,-1,-1,-1,-1,-1,-1,-1,-1,-1,-1,-1,-1,-1,-1,-1],"loss_changes":[7.5951187E3,1.1530933E3,2.719696E3,8.619502E2,8.228718E2,1.2559165E3,1.7266064E3,3.764402E2,4.550802E2,6.6486487E2,2.5044531E2,1.2453353E3,3.6084094E2,8.336008E2,7.821128E2,0E0,0E0,0E0,6.3964124E2,9.848506E2,7.250089E2,7.4534424E1,0E0,1.6280662E3,1.1474636E3,9.170471E1,0E0,2.0058093E2,1.0914744E3,7.840703E2,7.923882E2,0E0,0E0,4.0015347E2,1.0311497E3,0E0,0E0,0E0,0E0,7.0688916E2,1.3565481E3,1.0910223E3,1.0739846E3,0E0,0E0,0E0,0E0,5.8712805E2,6.036991E2,4.783711E2,0E0,0E0,3.790494E2,0E0,0E0,0E0,0E0,0E0,0E0,0E0,0E0,0E0,0E0,0E0,0E0,0E0,0E0,0E0,0E0,0E0,0E0,0E0,0E0],"parents":[2147483647,0,0,1,1,2,2,3,3,4,4,5,5,6,6,7,7,8,8,9,9,10,10,11,11,12,12,13,13,14,14,18,18,19,19,20,20,21,21,23,23,24,24,25,25,27,27,28,28,29,29,30,30,33,33,34,34,39,39,40,40,41,41,42,42,47,47,48,48,49,49,52,52],"right_children":[2,4,6,8,10,12,14,16,18,20,22,24,26,28,30,-1,-1,-1,32,34,36,38,-1,40,42,44,-1,46,48,50,52,-1,-1,54,56,-1,-1,-1,-1,58,60,62,64,-1,-1,-1,-1,66,68,70,-1,-1,72,-1,-1,-1,-1,-1,-1,-1,-1,-1,-1,-1,-1,-1,-1,-1,-1,-1,-1,-1,-1],"split_conditions":[1.12E2,5.4E1,1.158E2,1.094787E1,1.2153333E2,1.0524554E2,1.2E2,1.0185268E2,5.05E1,4.9333334E0,1.144E2,5.64E1,2.72549E0,-6E0,3.6545455E0,-1.1524365E0,-5.2286017E-1,1.5506779E-2,1.123E2,2.4489796E0,1.142E2,5.6666668E1,-2.2156468E-1,1.082E2,1.2302325E1,3.6140351E0,3.3299178E-2,1.2075E2,5.0714793E0,1.06685E1,1.06E2,-7.157865E-1,-4.1110165E-2,3.7666667E0,5E0,-2.2305234E-1,5.33101E-1,-4.2017514E-1,-8.2964766E-1,5.3666668E1,0E0,1.255E2,1.044E1,7.2182584E-1,3.3754063E-1,5.972914E-1,1.8988542E-1,1.186E2,1.1190909E2,1.16E2,-1.4961341E-2,6.1655533E-1,3.0625E1,-1.6867886E-1,4.9996063E-2,-4.0193993E-1,1.3358022E-1,2.7391326E-1,-1.9416264E-1,4.687442E-1,1.9519314E-2,-1.6535923E-1,2.6617396E-1,-1.0526358E-2,7.675168E-1,2.0742767E-1,-2.3230163E-2,-4.1718674E-1,2.4582012E-2,7.8728026E-1,4.20956E-1,1.2659602E-1,-3.7701643E-1],"split_indices":[1,10,32,29,70,74,9,74,10,55,40,47,22,128,126,0,0,0,44,54,45,46,0,45,53,23,0,44,121,29,41,0,0,55,50,0,0,0,0,46,128,41,21,0,0,0,0,70,65,44,0,0,31,0,0,0,0,0,0,0,0,0,0,0,0,0,0,0,0,0,0,0,0],"split_type":[0,0,0,0,0,0,0,0,0,0,0,0,0,0,0,0,0,0,0,0,0,0,0,0,0,0,0,0,0,0,0,0,0,0,0,0,0,0,0,0,0,0,0,0,0,0,0,0,0,0,0,0,0,0,0,0,0,0,0,0,0,0,0,0,0,0,0,0,0,0,0,0,0],"sum_hessian":[8.4E2,2.21E2,6.19E2,3.7E1,1.84E2,3.53E2,2.66E2,1.5E1,2.2E1,1.65E2,1.9E1,3.36E2,1.7E1,1.96E2,7E1,5E0,1E1,8E0,1.4E1,1.54E2,1.1E1,1.2E1,7E0,1.18E2,2.18E2,1.2E1,5E0,1.6E1,1.8E2,5.1E1,1.9E1,8E0,6E0,8.3E1,7.1E1,5E0,6E0,7E0,5E0,5.1E1,6.7E1,2E2,1.8E1,5E0,7E0,1E1,6E0,1.5E2,3E1,4.5E1,6E0,5E0,1.4E1,4.6E1,3.7E1,6.1E1,1E1,9E0,4.2E1,3.6E1,3.1E1,1.85E2,1.5E1,1.2E1,6E0,1.14E2,3.6E1,1.3E1,1.7E1,1.9E1,2.6E1,9E0,5E0],"tree_param":{"num_deleted":"0","num_feature":"129","num_nodes":"73","size_leaf_vector":"1"}},{"base_weights":[-2.6519358E-4,2.2131166E0,-2.8537123E0,-1.0476258E0,3.3415458E0,-1.2868134E1,-2.2092776E0,-1.7533808E0,4.2338663E-1,1.2417094E0,4.950354E0,-1.3740481E0,-7.2767386E0,-3.809038E0,5.403823E-1,-5.589721E0,-2.3281807E-1,7.6438675E0,3.305483E-1,5.637534E0,-1.7860156E0,-6.667953E-1,-5.4290723E-2,-5.6275043E0,-1.7897198E0,-4.6085688E-1,5.6630936E0,1.2833829E-3,-7.3223667E0,8.218277E-1,-4.2228866E-1,4.472884E0,7.140341E-1,-5.2239555E-1,5.884995E0,4.854341E0,1.4392284E1,-6.713932E0,2.4859373E-1,-4.248667E0,-1.0445276E1,-3.1150646E0,3.970792E0,7.380922E-1,-6.0778747E0,9.117925E0,-1.5141961E-1,-5.588942E-1,-1.6060372E-1,-3.2848593E-2,4.509153E-1,4.2350122E-1,8.0865584E-2,-4.2100006E-1,1.6001314E-2,1.2525171E-1,6.387035E-1,3.322899E-1,5.621166E-2,3.5508943E-1,8.658676E-1,-2.6855076E-2,-6.3922894E-1,-2.4377461E-1,2.9225767E-1,-1.5465385E-1,-7.0748943E-1,-1.9152181E-1,3.7609366E-1,4.1990337E-1,-2.0584997E-3,8.777725E-2,-2.365431E-1,-5.793566E-1,-1.10617064E-1,1.7597502E-1,5.666809E-1],"categories":[],"categories_nodes":[],"categories_segments":[],"categories_sizes":[],"default_left":[0,0,0,0,0,0,0,0,0,0,0,0,0,0,0,0,0,0,0,0,0,0,0,0,0,0,0,0,0,0,0,0,0,0,0,0,0,0,0,0,0,0,0,0,0,0,0,0,0,0,0,0,0,0,0,0,0,0,0,0,0,0,0,0,0,0,0,0,0,0,0,0,0,0,0,0,0],"id":12,"left_children":[1,3,5,7,9,11,13,15,-1,17,19,-1,21,23,25,27,29,31,33,35,37,-1,-1,39,41,43,45,-1,47,49,-1,51,-1,53,55,57,59,61,-1,63,65,67,69,71,73,75,-1,-1,-1,-1,-1,-1,-1,-1,-1,-1,-1,-1,-1,-1,-1,-1,-1,-1,-1,-1,-1,-1,-1,-1,-1,-1,-1,-1,-1,-1,-1],"loss_changes":[5.551624E3,1.8250908E3,2.4482612E3,8.737612E2,1.2364243E3,1.6757932E3,1.5947498E3,6.9812396E2,0E0,9.358529E2,9.7330566E2,0E0,6.592907E2,8.300891E2,6.9042395E2,3.3171997E2,7.6127637E2,3.5515332E2,6.763541E2,1.2241191E3,6.996013E2,0E0,0E0,7.513032E2,8.520968E2,7.660206E2,6.888293E2,0E0,3.7468677E2,9.521948E2,0E0,1.5650446E2,0E0,8.2849097E2,4.0888397E2,1.1611587E3,1.9445166E2,4.4176947E2,0E0,6.2947156E2,6.626533E2,7.1328534E2,3.7418466E2,5.3106165E2,3.9890973E2,1.5709619E2,0E0,0E0,0E0,0E0,0E0,0E0,0E0,0E0,0E0,0E0,0E0,0E0,0E0,0E0,0E0,0E0,0E0,0E0,0E0,0E0,0E0,0E0,0E0,0E0,0E0,0E0,0E0,0E0,0E0,0E0,0E0],"parents":[2147483647,0,0,1,1,2,2,3,3,4,4,5,5,6,6,7,7,9,9,10,10,12,12,13,13,14,14,15,15,16,16,17,17,18,18,19,19,20,20,23,23,24,24,25,25,26,26,28,28,29,29,31,31,33,33,34,34,35,35,36,36,37,37,39,39,40,40,41,41,42,42,43,43,44,44,45,45],"right_children":[2,4,6,8,10,12,14,16,-1,18,20,-1,22,24,26,28,30,32,34,36,38,-1,-1,40,42,44,46,-1,48,50,-1,52,-1,54,56,58,60,62,-1,64,66,68,70,72,74,76,-1,-1,-1,-1,-1,-1,-1,-1,-1,-1,-1,-1,-1,-1,-1,-1,-1,-1,-1,-1,-1,-1,-1,-1,-1,-1,-1,-1,-1,-1,-1],"split_conditions":[5.6962025E-1,1.142E2,1.093E2,1.25333336E2,1.0352679E2,2.3194748E-1,1.168E2,8.99126E0,4.2338663E-1,1E0,6.4E1,-1.3740481E0,1.05E2,2.4565217E0,1.2047619E1,5.425E1,1.2312643E1,2E0,3.48E1,6.11E1,2E0,-6.667953E-1,-5.4290723E-2,5.8125E1,2.70428E-1,1.203E2,4E0,1.2833829E-3,5.825E1,1.1495576E1,-4.2228866E-1,2.1206896E0,7.140341E-1,1.089E2,6.6964287E-1,5E0,2.5531914E0,1.0417411E2,2.4859373E-1,4E0,2E0,1.2213333E2,2E0,1.203E2,1.0973333E2,4.230769E0,-1.5141961E-1,-5.588942E-1,-1.6060372E-1,-3.2848593E-2,4.509153E-1,4.2350122E-1,8.0865584E-2,-4.2100006E-1,1.6001314E-2,1.2525171E-1,6.387035E-1,3.322899E-1,5.621166E-2,3.5508943E-1,8.658676E-1,-2.6855076E-2,-6.3922894E-1,-2.4377461E-1,2.9225767E-1,-1.5465385E-1,-7.0748943E-1,-1.9152181E-1,3.7609366E-1,4.1990337E-1,-2.0584997E-3,8.777725E-2,-2.365431E-1,-5.793566E-1,-1.10617064E-1,1.7597502E-1,5.666809E-1],"split_indices":[7,32,32,41,4,60,44,61,0,67,10,0,44,22,53,14,61,85,27,14,66,0,0,46,60,45,67,0,43,61,0,22,0,44,75,68,22,74,0,85,48,64,48,69,65,55,0,0,0,0,0,0,0,0,0,0,0,0,0,0,0,0,0,0,0,0,0,0,0,0,0,0,0,0,0,0,0],"split_type":[0,0,0,0,0,0,0,0,0,0,0,0,0,0,0,0,0,0,0,0,0,0,0,0,0,0,0,0,0,0,0,0,0,0,0,0,0,0,0,0,0,0,0,0,0,0,0,0,0,0,0,0,0,0,0,0,0,0,0,0,0,0,0,0,0,0,0,0,0,0,0,0,0,0,0,0,0],"sum_hessian":[8.77E2,4.94E2,3.83E2,1.27E2,3.67E2,2.2E1,3.61E2,1.19E2,8E0,1.6E2,2.07E2,5E0,1.7E1,2.28E2,1.33E2,3.3E1,8.6E1,1.9E1,1.41E2,1.88E2,1.9E1,8E0,9E0,1.19E2,1.09E2,1.12E2,2.1E1,8E0,2.5E1,7.7E1,9E0,1.4E1,5E0,1.23E2,1.8E1,1.74E2,1.4E1,1.1E1,8E0,9.4E1,2.5E1,8.9E1,2E1,9.3E1,1.9E1,1.5E1,6E0,1.2E1,1.3E1,6.6E1,1.1E1,5E0,9E0,1.1E1,1.12E2,1.3E1,5E0,1.17E2,5.7E1,5E0,9E0,6E0,5E0,8.9E1,5E0,9E0,1.6E1,8.4E1,5E0,9E0,1.1E1,7.9E1,1.4E1,7E0,1.2E1,5E0,1E1],"tree_param":{"num_deleted":"0","num_feature":"129","num_nodes":"77","size_leaf_vector":"1"}},{"base_weights":[-3.2426217E-1,-2.792943E0,2.2149823E0,-2.485895E0,-1.2157948E0,1.269579E-1,3.8527274E0,-1.1580938E0,-4.4511366E0,-1.2769576E0,5.159851E0,6.7326813E0,2.529134E0,-6.726638E0,-4.371653E-2,2.8756971E0,-5.165556E0,-1.8367329E0,4.3331152E-1,1.0671996E1,3.7765098E-1,-2.947639E-1,8.35418E0,1.2595243E0,6.1846786E0,-1.6201134E-1,-8.97504E0,-1.8954774E0,2.8875682E0,3.1822428E-1,7.022038E-1,-9.34344E0,-3.5212734E0,4.2345396E-1,-2.4435732E0,7.717562E-1,5.795619E0,-3.016823E-1,3.565946E0,4.462413E0,1.1470587E1,4.1191435E0,-5.618078E-1,1.0482955E1,2.5200143E0,3.1807664E-1,-2.872381E-1,-6.53893E-2,-5.3451306E-1,-1.2972432E-1,4.6691757E-1,1.8960667E-1,-2.0877133E-1,-1.06006615E-1,1.7120862E-1,-6.226376E-1,-1.8333617E-1,-2.3000315E-1,1.7174952E-1,-1.8166947E-1,9.7259745E-2,1.1869538E-1,4.1173634E-1,3.8945356E-1,-2.8652394E-2,-1.21881776E-1,3.4863806E-1,6.6236186E-1,1.1017161E-1,1.2906922E-1,7.21828E-1,-1.0917659E-1,2.3897496E-1,6.732411E-1,2.8312835E-1,4.9544892E-1,2.4380896E-3],"categories":[],"categories_nodes":[],"categories_segments":[],"categories_sizes":[],"default_left":[0,0,0,0,0,0,0,0,0,0,0,0,0,0,0,0,0,0,0,0,0,0,0,0,0,0,0,0,0,0,0,0,0,0,0,0,0,0,0,0,0,0,0,0,0,0,0,0,0,0,0,0,0,0,0,0,0,0,0,0,0,0,0,0,0,0,0,0,0,0,0,0,0,0,0,0,0],"id":13,"left_children":[1,3,5,7,-1,9,11,13,15,17,19,21,23,25,27,29,31,33,-1,35,37,-1,39,41,43,45,47,49,51,-1,53,55,57,-1,59,-1,61,-1,63,65,67,69,71,73,75,-1,-1,-1,-1,-1,-1,-1,-1,-1,-1,-1,-1,-1,-1,-1,-1,-1,-1,-1,-1,-1,-1,-1,-1,-1,-1,-1,-1,-1,-1,-1,-1],"loss_changes":[5.3784214E3,2.811605E3,1.4456257E3,1.1163479E3,0E0,1.3282737E3,8.854634E2,1.6000372E3,9.2063965E2,8.334294E2,1.075632E3,1.5647366E3,7.5260864E2,6.3230884E2,1.1778303E3,1.1614989E2,1.0512129E3,8.956498E2,0E0,3.4973047E2,4.9141428E2,0E0,7.476904E2,6.4329285E2,6.338556E2,4.735156E2,4.0565283E2,1.0679427E3,5.5246625E2,0E0,9.1895515E1,7.293574E2,8.7891736E2,0E0,7.017396E2,0E0,7.119583E1,0E0,2.848569E2,5.5441797E2,5.619873E2,7.225855E2,6.684981E2,1.9494312E2,4.36761E2,0E0,0E0,0E0,0E0,0E0,0E0,0E0,0E0,0E0,0E0,0E0,0E0,0E0,0E0,0E0,0E0,0E0,0E0,0E0,0E0,0E0,0E0,0E0,0E0,0E0,0E0,0E0,0E0,0E0,0E0,0E0,0E0],"parents":[2147483647,0,0,1,1,2,2,3,3,5,5,6,6,7,7,8,8,9,9,10,10,11,11,12,12,13,13,14,14,15,15,16,16,17,17,19,19,20,20,22,22,23,23,24,24,25,25,26,26,27,27,28,28,30,30,31,31,32,32,34,34,36,36,38,38,39,39,40,40,41,41,42,42,43,43,44,44],"right_children":[2,4,6,8,-1,10,12,14,16,18,20,22,24,26,28,30,32,34,-1,36,38,-1,40,42,44,46,48,50,52,-1,54,56,58,-1,60,-1,62,-1,64,66,68,70,72,74,76,-1,-1,-1,-1,-1,-1,-1,-1,-1,-1,-1,-1,-1,-1,-1,-1,-1,-1,-1,-1,-1,-1,-1,-1,-1,-1,-1,-1,-1,-1,-1,-1],"split_conditions":[1.152E2,3.55E1,4.2E1,5.8333332E1,-1.2157948E0,1.0540179E2,3.139535E-1,5.18E1,-6E0,4.0254738E1,1.0865385E1,1.095E2,1.158E2,1.0123685E1,5.95E1,5.742857E1,1.09625E2,1.1013333E2,4.3331152E-1,5.575E1,2.2164048E-1,-2.947639E-1,1.0358491E1,-2.7947275E2,4.2325583E0,1.12681145E2,1.014E2,1.168E2,1.195E2,3.1822428E-1,3.2474297E1,2.26E1,3.42E1,4.2345396E-1,6.22E1,7.717562E-1,1.1075E2,-3.016823E-1,2.925E1,1.025E1,1.196E2,6.075E1,1.1926667E2,5.84E1,1.0308036E2,3.1807664E-1,-2.872381E-1,-6.53893E-2,-5.3451306E-1,-1.2972432E-1,4.6691757E-1,1.8960667E-1,-2.0877133E-1,-1.06006615E-1,1.7120862E-1,-6.226376E-1,-1.8333617E-1,-2.3000315E-1,1.7174952E-1,-1.8166947E-1,9.7259745E-2,1.1869538E-1,4.1173634E-1,3.8945356E-1,-2.8652394E-2,-1.21881776E-1,3.4863806E-1,6.6236186E-1,1.1017161E-1,1.2906922E-1,7.21828E-1,-1.0917659E-1,2.3897496E-1,6.732411E-1,2.8312835E-1,4.9544892E-1,2.4380896E-3],"split_indices":[1,30,34,47,0,74,7,47,71,25,53,40,70,61,42,14,69,65,0,10,60,0,21,123,55,5,8,65,69,0,25,59,27,0,15,0,40,0,30,59,8,14,64,46,74,0,0,0,0,0,0,0,0,0,0,0,0,0,0,0,0,0,0,0,0,0,0,0,0,0,0,0,0,0,0,0,0],"split_type":[0,0,0,0,0,0,0,0,0,0,0,0,0,0,0,0,0,0,0,0,0,0,0,0,0,0,0,0,0,0,0,0,0,0,0,0,0,0,0,0,0,0,0,0,0,0,0,0,0,0,0,0,0,0,0,0,0,0,0,0,0,0,0,0,0,0,0,0,0,0,0,0,0,0,0,0,0],"sum_hessian":[8.56E2,4.34E2,4.22E2,4.29E2,5E0,1.86E2,2.36E2,2.57E2,1.72E2,1.46E2,4E1,7.3E1,1.63E2,4.2E1,2.15E2,1.5E1,1.57E2,1.39E2,7E0,1.8E1,2.2E1,8E0,6.5E1,1.22E2,4.1E1,1.1E1,3.1E1,1.32E2,8.3E1,5E0,1E1,4.3E1,1.14E2,7E0,1.32E2,8E0,1E1,7E0,1.5E1,3E1,3.5E1,4.7E1,7.5E1,1.8E1,2.3E1,5E0,6E0,6E0,2.5E1,1.25E2,7E0,7.4E1,9E0,5E0,5E0,2.7E1,1.6E1,9.9E1,1.5E1,1.04E2,2.8E1,5E0,5E0,7E0,8E0,8E0,2.2E1,2.9E1,6E0,4.2E1,5E0,5.8E1,1.7E1,1E1,8E0,5E0,1.8E1],"tree_param":{"num_deleted":"0","num_feature":"129","num_nodes":"77","size_leaf_vector":"1"}},{"base_weights":[1.498264E-1,-4.85818E0,1.349059E0,-1.2610118E0,-4.0636144E0,3.6514562E-1,4.546943E0,-5.982468E0,2.755128E-1,-3.399749E0,1.0752265E0,6.0530825E0,-1.9560963E-1,-7.2803597E0,2.8195718E-1,-1.8737822E0,7.2460957E0,-1.8209629E0,-5.578234E-1,2.1882558E0,-1.1724621E0,3.789115E0,9.069478E0,-3.4036286E0,5.998113E0,-2.4066412E0,-8.514524E0,3.4787253E-1,-2.4003706E0,-1.5481317E-1,-3.7876832E-1,1.1023461E-1,5.951692E-1,3.3620896E0,-3.3917072E0,-1.447139E0,3.130476E0,6.7761016E0,-2.188016E0,8.9077234E-2,5.753197E0,1.0837143E1,4.7868075E0,1.8277936E-1,-6.0621333E0,5.266763E-1,-1.3901193E-3,1.1251776E-2,-4.3006966E-1,-4.5903435E-1,2.1887068E-2,-2.6877564E-1,1.470797E-1,-1.9318078E-1,1.19283676E-1,3.4785205E-1,-1.3765661E-1,-2.093545E-2,-3.75275E-1,-5.160325E-1,-2.4297116E-2,-8.305276E-2,1.970837E-1,-3.5096947E-2,5.463968E-1,-3.4047548E-2,-3.1712133E-1,-2.13069E-1,1.7850858E-1,-1.0566355E-1,3.7117913E-1,6.714453E-1,3.5723242E-1,-5.5521965E-4,4.0782285E-1,2.0482961E-2,-4.7930747E-1],"categories":[],"categories_nodes":[],"categories_segments":[],"categories_sizes":[],"default_left":[0,0,0,0,0,0,0,0,0,0,0,0,0,0,0,0,0,0,0,0,0,0,0,0,0,0,0,0,0,0,0,0,0,0,0,0,0,0,0,0,0,0,0,0,0,0,0,0,0,0,0,0,0,0,0,0,0,0,0,0,0,0,0,0,0,0,0,0,0,0,0,0,0,0,0,0,0],"id":14,"left_children":[1,3,5,-1,7,9,11,13,15,17,19,21,23,25,27,29,31,33,-1,35,37,39,41,43,45,47,49,-1,51,53,-1,-1,-1,55,57,59,61,63,65,67,69,71,73,-1,75,-1,-1,-1,-1,-1,-1,-1,-1,-1,-1,-1,-1,-1,-1,-1,-1,-1,-1,-1,-1,-1,-1,-1,-1,-1,-1,-1,-1,-1,-1,-1,-1],"loss_changes":[5.1291206E3,2.56412E3,2.165746E3,0E0,1.3344031E3,1.4149677E3,1.1589277E3,9.052427E2,7.632068E2,1.0070677E3,1.1159429E3,8.0431836E2,8.149391E2,5.3179395E2,3.752734E2,3.8028723E2,2.540971E2,5.894349E2,0E0,1.0254508E3,1.2090521E3,5.2214E2,3.4021875E2,5.291092E2,3.839636E2,3.2882495E2,4.4024072E2,0E0,2.5445251E2,3.0145218E2,0E0,0E0,0E0,3.9330078E2,6.687314E2,5.2271387E2,9.2796533E2,5.365023E2,8.2142633E2,4.0889792E2,6.3380054E2,2.4652051E2,2.757488E2,0E0,4.609787E2,0E0,0E0,0E0,0E0,0E0,0E0,0E0,0E0,0E0,0E0,0E0,0E0,0E0,0E0,0E0,0E0,0E0,0E0,0E0,0E0,0E0,0E0,0E0,0E0,0E0,0E0,0E0,0E0,0E0,0E0,0E0,0E0],"parents":[2147483647,0,0,1,1,2,2,4,4,5,5,6,6,7,7,8,8,9,9,10,10,11,11,12,12,13,13,14,14,15,15,16,16,17,17,19,19,20,20,21,21,22,22,23,23,24,24,25,25,26,26,28,28,29,29,33,33,34,34,35,35,36,36,37,37,38,38,39,39,40,40,41,41,42,42,44,44],"right_children":[2,4,6,-1,8,10,12,14,16,18,20,22,24,26,28,30,32,34,-1,36,38,40,42,44,46,48,50,-1,52,54,-1,-1,-1,56,58,60,62,64,66,68,70,72,74,-1,76,-1,-1,-1,-1,-1,-1,-1,-1,-1,-1,-1,-1,-1,-1,-1,-1,-1,-1,-1,-1,-1,-1,-1,-1,-1,-1,-1,-1,-1,-1,-1,-1],"split_conditions":[1.105E2,1.054E2,1.2E2,-1.2610118E0,1.174E2,1.126E2,3E0,3.1E1,2.7104378E-1,1.1714286E2,3.5298786E1,1.159E2,1.2325E2,1.98E1,2.63E1,1.0196429E2,-6.539713E-2,1.32E1,-5.578234E-1,1.0196429E2,1.088E2,2.8222221E1,3.1125E1,5.6E1,2.81E1,-1.2053572E0,1.238E2,3.4787253E-1,6E1,1.98E1,-3.7876832E-1,1.1023461E-1,5.951692E-1,2.9375E1,8.2E1,1.0875E2,2.67E1,2.8166666E1,3.09E1,4.4666667E0,1.5326633E-1,6E0,8.1E1,1.8277936E-1,2.7666666E1,5.266763E-1,-1.3901193E-3,1.1251776E-2,-4.3006966E-1,-4.5903435E-1,2.1887068E-2,-2.6877564E-1,1.470797E-1,-1.9318078E-1,1.19283676E-1,3.4785205E-1,-1.3765661E-1,-2.093545E-2,-3.75275E-1,-5.160325E-1,-2.4297116E-2,-8.305276E-2,1.970837E-1,-3.5096947E-2,5.463968E-1,-3.4047548E-2,-3.1712133E-1,-2.13069E-1,1.7850858E-1,-1.0566355E-1,3.7117913E-1,6.714453E-1,3.5723242E-1,-5.5521965E-4,4.0782285E-1,2.0482961E-2,-4.7930747E-1],"split_indices":[1,0,9,0,32,32,48,30,28,13,25,32,65,27,62,4,121,59,0,4,8,62,63,43,31,75,8,0,46,27,0,0,0,31,26,44,63,62,31,126,60,73,58,0,31,0,0,0,0,0,0,0,0,0,0,0,0,0,0,0,0,0,0,0,0,0,0,0,0,0,0,0,0,0,0,0,0],"split_type":[0,0,0,0,0,0,0,0,0,0,0,0,0,0,0,0,0,0,0,0,0,0,0,0,0,0,0,0,0,0,0,0,0,0,0,0,0,0,0,0,0,0,0,0,0,0,0,0,0,0,0,0,0,0,0,0,0,0,0,0,0,0,0,0,0,0,0,0,0,0,0,0,0,0,0,0,0],"sum_hessian":[8.52E2,1.64E2,6.88E2,5E0,1.59E2,5.27E2,1.61E2,1.1E2,4.9E1,8.3E1,4.44E2,1.22E2,3.9E1,9.1E1,1.9E1,3.8E1,1.1E1,7E1,1.3E1,2.97E2,1.47E2,7.1E1,5.1E1,2.6E1,1.3E1,1.9E1,7.2E1,5E0,1.4E1,3E1,8E0,6E0,5E0,1.6E1,5.4E1,6.1E1,2.36E2,1.6E1,1.31E2,2.5E1,4.6E1,3.5E1,1.6E1,7E0,1.9E1,7E0,6E0,1.4E1,5E0,6.7E1,5E0,9E0,5E0,1.2E1,1.8E1,1E1,6E0,3.2E1,2.2E1,5E0,5.6E1,3.4E1,2.02E2,6E0,1E1,9.7E1,3.4E1,1.1E1,1.4E1,8E0,3.8E1,1.9E1,1.6E1,7E0,9E0,7E0,1.2E1],"tree_param":{"num_deleted":"0","num_feature":"129","num_nodes":"77","size_leaf_vector":"1"}},{"base_weights":[-1.290321E-1,-3.4735122E0,1.4855945E0,-3.1874897E0,-7.993643E-1,-3.638051E-2,3.9585602E0,-7.912516E-1,-2.8944795E0,-7.840919E-1,3.3676033E0,4.2988234E0,-4.467003E-1,-4.252606E0,-7.8487974E-1,-2.35906E0,1.6108521E0,-1.0273957E0,6.3265104E0,3.595458E0,9.77177E0,2.7974576E-1,-4.861139E0,8.783459E-1,-4.384698E0,-3.3397703E0,1.7684271E0,-7.663384E-1,5.777262E0,3.3193161E0,-4.2294674E0,1.3376419E1,2.6940906E0,1.6971087E0,5.6173697E0,1.2421763E1,-1.1592026E-2,-3.221201E-1,-1.5244273E-2,-2.0348883E-1,1.458799E-1,-3.055023E-1,1.5643975E-1,-5.118997E-2,-2.5527045E-1,-2.7939773E-1,2.2668171E-1,1.3546053E-1,-2.3530464E-1,5.534784E-1,1.5558055E-1,3.618165E-1,-8.9354314E-2,-3.374656E-1,5.3924616E-2,3.9717016E-1,8.442117E-1,-2.4535166E-1,2.3246054E-1,1.2908831E-1,-2.535457E-1,2.114841E-1,5.232973E-1,8.859649E-1,4.62849E-1],"categories":[],"categories_nodes":[],"categories_segments":[],"categories_sizes":[],"default_left":[0,0,0,0,0,0,0,0,0,0,0,0,0,0,0,0,0,0,0,0,0,0,0,0,0,0,0,0,0,0,0,0,0,0,0,0,0,0,0,0,0,0,0,0,0,0,0,0,0,0,0,0,0,0,0,0,0,0,0,0,0,0,0,0,0],"id":15,"left_children":[1,3,5,7,-1,9,11,-1,13,15,17,19,-1,21,23,25,27,29,31,33,35,-1,37,39,41,43,45,47,49,51,53,55,57,59,61,63,-1,-1,-1,-1,-1,-1,-1,-1,-1,-1,-1,-1,-1,-1,-1,-1,-1,-1,-1,-1,-1,-1,-1,-1,-1,-1,-1,-1,-1],"loss_changes":[4.644033E3,9.493047E2,2.1835356E3,9.706284E2,0E0,9.1865326E2,1.0074392E3,0E0,7.697361E2,1.1203752E3,8.523153E2,7.9501733E2,0E0,1.0099011E3,6.44844E2,7.3063184E2,1.1736418E3,3.8992896E2,9.610764E2,7.305261E2,6.403269E2,0E0,1.1140793E3,7.5845337E2,4.601706E2,5.870896E2,7.371955E2,1.053603E3,5.707578E2,2.5349907E2,2.2184991E2,1.11153076E2,4.240381E2,6.175685E2,5.799951E2,1.5182056E2,0E0,0E0,0E0,0E0,0E0,0E0,0E0,0E0,0E0,0E0,0E0,0E0,0E0,0E0,0E0,0E0,0E0,0E0,0E0,0E0,0E0,0E0,0E0,0E0,0E0,0E0,0E0,0E0,0E0],"parents":[2147483647,0,0,1,1,2,2,3,3,5,5,6,6,8,8,9,9,10,10,11,11,13,13,14,14,15,15,16,16,17,17,18,18,19,19,20,20,22,22,23,23,24,24,25,25,26,26,27,27,28,28,29,29,30,30,31,31,32,32,33,33,34,34,35,35],"right_children":[2,4,6,8,-1,10,12,-1,14,16,18,20,-1,22,24,26,28,30,32,34,36,-1,38,40,42,44,46,48,50,52,54,56,58,60,62,64,-1,-1,-1,-1,-1,-1,-1,-1,-1,-1,-1,-1,-1,-1,-1,-1,-1,-1,-1,-1,-1,-1,-1,-1,-1,-1,-1,-1,-1],"split_conditions":[1.121E2,3.5333332E1,1.16666664E2,6.7067423E0,-7.993643E-1,3.1284916E-1,1.3263374E1,-7.912516E-1,2.575E1,1.156E2,2.2325583E0,1.2380953E1,-4.467003E-1,1.0015625E2,4.447174E0,8.287625E0,1.0430804E2,8.86E0,1.13E2,1.1318623E2,3.16E1,2.7974576E-1,1.177E2,1.051E2,4.736842E0,5.7E1,5.475E1,2.1150592E-1,1.156E2,1E0,1.188E2,3.6E1,-3E0,4.695652E0,6.12E1,5.64E1,-1.1592026E-2,-3.221201E-1,-1.5244273E-2,-2.0348883E-1,1.458799E-1,-3.055023E-1,1.5643975E-1,-5.118997E-2,-2.5527045E-1,-2.7939773E-1,2.2668171E-1,1.3546053E-1,-2.3530464E-1,5.534784E-1,1.5558055E-1,3.618165E-1,-8.9354314E-2,-3.374656E-1,5.3924616E-2,3.9717016E-1,8.442117E-1,-2.4535166E-1,2.3246054E-1,1.2908831E-1,-2.535457E-1,2.114841E-1,5.232973E-1,8.859649E-1,4.62849E-1],"split_indices":[1,30,40,61,0,28,29,0,27,32,54,21,0,74,83,121,74,53,45,37,30,0,32,13,55,47,10,28,33,82,13,27,128,23,10,10,0,0,0,0,0,0,0,0,0,0,0,0,0,0,0,0,0,0,0,0,0,0,0,0,0,0,0,0,0],"split_type":[0,0,0,0,0,0,0,0,0,0,0,0,0,0,0,0,0,0,0,0,0,0,0,0,0,0,0,0,0,0,0,0,0,0,0,0,0,0,0,0,0,0,0,0,0,0,0,0,0,0,0,0,0,0,0,0,0,0,0,0,0,0,0,0,0],"sum_hessian":[8.58E2,2.79E2,5.79E2,2.74E2,5E0,3.59E2,2.2E2,5E0,2.69E2,2.95E2,6.4E1,2.15E2,5E0,1.63E2,1.06E2,1.78E2,1.17E2,2.6E1,3.8E1,1.92E2,2.3E1,9E0,1.54E2,7.3E1,3.3E1,1.44E2,3.4E1,7.5E1,4.2E1,1.1E1,1.5E1,1.2E1,2.6E1,1E2,9.2E1,1.8E1,5E0,1.14E2,4E1,2.1E1,5.2E1,2.7E1,6E0,6.3E1,8.1E1,9E0,2.5E1,4E1,3.5E1,1.3E1,2.9E1,6E0,5E0,1E1,5E0,6E0,6E0,5E0,2.1E1,8.9E1,1.1E1,7.3E1,1.9E1,5E0,1.3E1],"tree_param":{"num_deleted":"0","num_feature":"129","num_nodes":"65","size_leaf_vector":"1"}},{"base_weights":[9.3556546E-2,-3.462041E0,1.212615E0,-1.1378069E0,-2.8593812E0,-2.1807677E-1,3.4305964E0,-2.1188335E0,-8.9954815E0,-1.9496967E0,1.6043466E0,-1.770405E-1,4.812081E0,-1.3141928E0,-9.19263E0,-5.930379E0,-6.611238E-1,-2.4831107E0,6.6946163E0,5.9814095E0,3.3822632E-1,-1.7948129E0,4.339748E0,-1.101473E0,5.4249234E0,-4.1401196E-1,-5.968439E0,-4.7244567E-2,-1.2284461E1,-1.2402394E-1,-3.7801352E-1,-3.1887565E0,3.7046003E0,4.7958335E-1,1.6203852E-1,1.1323658E1,2.3925343E0,-4.201004E0,1.7571312E0,1.7345981E-1,-5.979006E0,-1.1286535E-2,7.0300875E0,2.8966513E-1,-3.6033118E-1,7.912717E0,3.8647702E0,1.805726E-2,-2.2258483E-1,-4.0244665E-2,-4.3244264E-1,-2.3377614E-1,-8.221553E-1,-1.2146529E-1,-4.5856062E-1,3.4210134E-1,-1.5425976E-1,3.1585327E-1,8.076971E-1,3.523011E-1,-1.6004983E-2,-3.6271068E-1,1.6942458E-1,4.2946988E-1,3.6202542E-2,2.3695011E-1,-1.2464171E-1,-6.957843E-2,-5.476713E-1,4.8193023E-1,1.3992353E-1,2.297544E-1,5.592956E-1,2.2738126E-1,-3.11651E-1],"categories":[],"categories_nodes":[],"categories_segments":[],"categories_sizes":[],"default_left":[0,0,0,0,0,0,0,0,0,0,0,0,0,0,0,0,0,0,0,0,0,0,0,0,0,0,0,0,0,0,0,0,0,0,0,0,0,0,0,0,0,0,0,0,0,0,0,0,0,0,0,0,0,0,0,0,0,0,0,0,0,0,0,0,0,0,0,0,0,0,0,0,0,0,0],"id":16,"left_children":[1,3,5,-1,7,9,11,13,15,17,19,21,23,25,27,29,-1,31,33,35,37,39,41,43,45,47,49,-1,51,-1,-1,53,55,-1,-1,57,59,61,63,65,67,-1,69,-1,-1,71,73,-1,-1,-1,-1,-1,-1,-1,-1,-1,-1,-1,-1,-1,-1,-1,-1,-1,-1,-1,-1,-1,-1,-1,-1,-1,-1,-1,-1],"loss_changes":[3.3741199E3,2.2928083E3,2.0478145E3,0E0,8.795554E2,1.2433702E3,1.2622405E3,1.0000204E3,1.9175012E2,9.476237E2,1.0613876E3,5.263411E2,6.6961426E2,6.7142664E2,4.4608057E2,5.8964294E1,0E0,8.457312E2,8.770392E1,7.959608E2,9.7324774E2,4.3810617E2,2.3563849E2,7.99577E2,6.1254346E2,4.27675E2,3.5194446E2,0E0,3.323656E2,0E0,0E0,7.580216E2,4.4753433E2,0E0,0E0,3.0682275E2,3.437547E2,8.59171E2,8.045517E2,4.6244202E2,3.714604E2,0E0,1.0424188E2,0E0,0E0,6.311538E2,7.4529065E2,0E0,0E0,0E0,0E0,0E0,0E0,0E0,0E0,0E0,0E0,0E0,0E0,0E0,0E0,0E0,0E0,0E0,0E0,0E0,0E0,0E0,0E0,0E0,0E0,0E0,0E0,0E0,0E0],"parents":[2147483647,0,0,1,1,2,2,4,4,5,5,6,6,7,7,8,8,9,9,10,10,11,11,12,12,13,13,14,14,15,15,17,17,18,18,19,19,20,20,21,21,22,22,23,23,24,24,25,25,26,26,28,28,31,31,32,32,35,35,36,36,37,37,38,38,39,39,40,40,42,42,45,45,46,46],"right_children":[2,4,6,-1,8,10,12,14,16,18,20,22,24,26,28,30,-1,32,34,36,38,40,42,44,46,48,50,-1,52,-1,-1,54,56,-1,-1,58,60,62,64,66,68,-1,70,-1,-1,72,74,-1,-1,-1,-1,-1,-1,-1,-1,-1,-1,-1,-1,-1,-1,-1,-1,-1,-1,-1,-1,-1,-1,-1,-1,-1,-1,-1,-1],"split_conditions":[1.113E2,1.065E2,1.159E2,-1.1378069E0,1.2153333E2,2.88E1,1.129E2,6.6964287E-1,5.72E1,1.255E2,8.822566E0,1.12E2,2.773166E1,6.5E1,2.74E1,1.2797316E3,-6.611238E-1,2.797699E2,5.8555557E1,5.84E1,3.6734693E0,1.204E2,2E0,2.85E1,9.251495E0,9.2E1,2.2333334E1,-4.7244567E-2,2.32E1,-1.2402394E-1,-3.7801352E-1,1.198E2,5.7666668E1,4.7958335E-1,1.6203852E-1,2.1444817E1,4E0,4E0,1.1014286E2,1.1013333E2,1.104E2,-1.1286535E-2,1.109E2,2.8966513E-1,-3.6033118E-1,1.0923077E1,6.2E1,1.805726E-2,-2.2258483E-1,-4.0244665E-2,-4.3244264E-1,-2.3377614E-1,-8.221553E-1,-1.2146529E-1,-4.5856062E-1,3.4210134E-1,-1.5425976E-1,3.1585327E-1,8.076971E-1,3.523011E-1,-1.6004983E-2,-3.6271068E-1,1.6942458E-1,4.2946988E-1,3.6202542E-2,2.3695011E-1,-1.2464171E-1,-6.957843E-2,-5.476713E-1,4.8193023E-1,1.3992353E-1,2.297544E-1,5.592956E-1,2.2738126E-1,-3.11651E-1],"split_indices":[1,32,32,0,70,62,13,75,42,41,29,6,57,2,30,78,0,124,15,42,55,44,66,62,29,26,59,0,27,0,0,12,47,0,0,124,18,128,13,65,9,0,13,0,0,21,14,0,0,0,0,0,0,0,0,0,0,0,0,0,0,0,0,0,0,0,0,0,0,0,0,0,0,0,0],"split_type":[0,0,0,0,0,0,0,0,0,0,0,0,0,0,0,0,0,0,0,0,0,0,0,0,0,0,0,0,0,0,0,0,0,0,0,0,0,0,0,0,0,0,0,0,0,0,0,0,0,0,0,0,0,0,0,0,0,0,0,0,0,0,0,0,0,0,0,0,0,0,0,0,0,0,0],"sum_hessian":[8.46E2,2.02E2,6.44E2,5E0,1.97E2,3.92E2,2.52E2,1.77E2,2E1,2.01E2,1.91E2,7E1,1.82E2,1.6E2,1.7E1,1.3E1,7E0,1.9E2,1.1E1,4.2E1,1.49E2,5.2E1,1.8E1,1.7E1,1.65E2,1.35E2,2.5E1,5E0,1.2E1,5E0,8E0,1.71E2,1.9E1,5E0,6E0,1.6E1,2.6E1,3.5E1,1.14E2,3.6E1,1.6E1,7E0,1.1E1,8E0,9E0,6.2E1,1.03E2,1.14E2,2.1E1,9E0,1.6E1,5E0,7E0,1.53E2,1.8E1,1.3E1,6E0,9E0,7E0,9E0,1.7E1,2.5E1,1E1,1.4E1,1E2,1.3E1,2.3E1,9E0,7E0,6E0,5E0,3.2E1,3E1,9.7E1,6E0],"tree_param":{"num_deleted":"0","num_feature":"129","num_nodes":"75","size_leaf_vector":"1"}},{"base_weights":[2.0860583E-1,-1.9177637E0,2.5394688E0,-4.626667E0,-8.9987767E-1,1.3114252E0,5.012516E0,-7.897133E-1,-3.9057984E0,-2.0960662E0,1.5446923E0,3.1457567E0,-5.4530174E-1,8.965811E-1,6.946457E0,-4.721915E0,1.8431029E0,6.667583E0,-2.549932E0,6.609357E0,-1.6136488E-1,-1.0721384E0,4.4423738E0,4.010255E0,-1.9294208E0,3.0567648E0,-5.110306E0,5.950083E-1,8.292166E0,-6.0101366E0,4.6703294E-1,3.2369494E-1,-1.5027903E-1,1.435494E-1,4.6681237E-1,-5.234751E-1,-2.1386476E0,-9.286085E-2,8.622542E0,-1.2516313E0,4.344363E-1,3.726699E-1,-3.2464576E0,5.569295E-1,3.7742467E0,-6.0263474E-2,6.107863E0,-8.710721E0,-7.893228E-1,5.792889E0,-6.061105E-1,-5.011759E-2,-4.5172673E-1,4.405224E0,-2.7315947E-1,8.98588E0,-5.832633E-2,2.4324358E-1,-3.3954626E-1,-1.2909253E-1,2.0444949E-1,-2.3632705E-1,-3.1674545E-2,5.85385E-1,2.2319794E-1,8.812337E-3,-2.9857397E-1,-3.1541047E-1,1.7834234E-1,2.4965732E-1,1.2491151E-2,1.2189627E-1,4.9403554E-1,-6.392531E-1,-2.6925224E-1,1.2824826E-1,-1.4666708E-1,1.7364334E-1,5.112063E-1,-2.4430917E-1,1.00627206E-1,2.379378E-2,3.7918508E-1,8.014272E-1,3.6253497E-1],"categories":[],"categories_nodes":[],"categories_segments":[],"categories_sizes":[],"default_left":[0,0,0,0,0,0,0,0,0,0,0,0,0,0,0,0,0,0,0,0,0,0,0,0,0,0,0,0,0,0,0,0,0,0,0,0,0,0,0,0,0,0,0,0,0,0,0,0,0,0,0,0,0,0,0,0,0,0,0,0,0,0,0,0,0,0,0,0,0,0,0,0,0,0,0,0,0,0,0,0,0,0,0,0,0],"id":17,"left_children":[1,3,5,7,9,11,13,-1,15,17,19,21,23,25,27,29,31,33,35,37,39,41,43,45,47,49,51,53,55,57,59,-1,-1,-1,-1,-1,61,-1,63,65,-1,-1,67,-1,69,-1,71,73,75,77,79,-1,-1,81,-1,83,-1,-1,-1,-1,-1,-1,-1,-1,-1,-1,-1,-1,-1,-1,-1,-1,-1,-1,-1,-1,-1,-1,-1,-1,-1,-1,-1,-1,-1],"loss_changes":[4.207854E3,1.2195494E3,1.2227832E3,9.104353E2,9.50723E2,9.2836743E2,1.0596238E3,0E0,5.485443E2,8.836895E2,9.2625635E2,7.5435205E2,8.650683E2,5.863587E2,7.7197314E2,6.7849756E2,3.5660364E2,8.342523E1,6.538456E2,4.7689966E2,7.9169684E2,6.355054E2,4.2623096E2,3.579359E2,8.0396594E2,3.3475854E2,1.8338712E2,4.1637247E2,5.0338574E2,7.210073E2,2.426093E2,0E0,0E0,0E0,0E0,0E0,7.716116E2,0E0,2.2837756E2,4.9360583E2,0E0,0E0,5.86012E2,0E0,4.149325E2,0E0,2.9314044E2,1.3258374E2,6.6200146E2,1.584541E2,1.7824152E2,0E0,0E0,1.3296793E2,0E0,7.36875E2,0E0,0E0,0E0,0E0,0E0,0E0,0E0,0E0,0E0,0E0,0E0,0E0,0E0,0E0,0E0,0E0,0E0,0E0,0E0,0E0,0E0,0E0,0E0,0E0,0E0,0E0,0E0,0E0,0E0],"parents":[2147483647,0,0,1,1,2,2,3,3,4,4,5,5,6,6,8,8,9,9,10,10,11,11,12,12,13,13,14,14,15,15,16,16,17,17,18,18,19,19,20,20,21,21,22,22,23,23,24,24,25,25,26,26,27,27,28,28,29,29,30,30,36,36,38,38,39,39,42,42,44,44,46,46,47,47,48,48,49,49,50,50,53,53,55,55],"right_children":[2,4,6,8,10,12,14,-1,16,18,20,22,24,26,28,30,32,34,36,38,40,42,44,46,48,50,52,54,56,58,60,-1,-1,-1,-1,-1,62,-1,64,66,-1,-1,68,-1,70,-1,72,74,76,78,80,-1,-1,82,-1,84,-1,-1,-1,-1,-1,-1,-1,-1,-1,-1,-1,-1,-1,-1,-1,-1,-1,-1,-1,-1,-1,-1,-1,-1,-1,-1,-1,-1,-1],"split_conditions":[1.152E2,1.1E2,1.0430804E2,4.911111E1,2.4636812E0,3.2560516E1,1.12E2,-7.897133E-1,1.6734353E3,1.108E2,1.12763855E2,5.48E1,-3.191583E2,3.25E0,-1.9642857E0,4.5094337E0,4.0789475E0,3.5421223E1,-3.7883267E0,1.1213333E2,1.18E2,3E0,-4.214936E2,-2.3333333E0,5.35E1,5.5585102E1,5.1845825E1,2.7631578E-1,6.557143E1,6.04E1,1.875E-1,3.2369494E-1,-1.5027903E-1,1.435494E-1,4.6681237E-1,-5.234751E-1,5.6E1,-9.286085E-2,2.9E1,5.714286E-1,4.344363E-1,3.726699E-1,1.106E2,5.569295E-1,6.05E1,-6.0263474E-2,9.484593E0,1.0274554E2,5.75E1,1.0558036E2,1.134E2,-5.011759E-2,-4.5172673E-1,3.15E1,-2.7315947E-1,5.522222E1,-5.832633E-2,2.4324358E-1,-3.3954626E-1,-1.2909253E-1,2.0444949E-1,-2.3632705E-1,-3.1674545E-2,5.85385E-1,2.2319794E-1,8.812337E-3,-2.9857397E-1,-3.1541047E-1,1.7834234E-1,2.4965732E-1,1.2491151E-2,1.2189627E-1,4.9403554E-1,-6.392531E-1,-2.6925224E-1,1.2824826E-1,-1.4666708E-1,1.7364334E-1,5.112063E-1,-2.4430917E-1,1.00627206E-1,2.379378E-2,3.7918508E-1,8.014272E-1,3.6253497E-1],"split_indices":[1,1,74,47,83,25,69,0,78,0,5,42,79,81,75,23,23,57,83,64,9,18,124,81,47,56,56,60,15,58,28,0,0,0,0,0,10,0,31,80,0,0,40,0,46,0,29,74,47,74,41,0,0,63,0,46,0,0,0,0,0,0,0,0,0,0,0,0,0,0,0,0,0,0,0,0,0,0,0,0,0,0,0,0,0],"split_type":[0,0,0,0,0,0,0,0,0,0,0,0,0,0,0,0,0,0,0,0,0,0,0,0,0,0,0,0,0,0,0,0,0,0,0,0,0,0,0,0,0,0,0,0,0,0,0,0,0,0,0,0,0,0,0,0,0,0,0,0,0,0,0,0,0,0,0,0,0,0,0,0,0,0,0,0,0,0,0,0,0,0,0,0,0],"sum_hessian":[8.47E2,4.43E2,4.04E2,1.2E2,3.23E2,2.71E2,1.33E2,6E0,1.14E2,2.17E2,1.06E2,1.36E2,1.35E2,4.3E1,9E1,1E2,1.4E1,1E1,2.07E2,2.6E1,8E1,3.2E1,1.04E2,3.1E1,1.04E2,3.2E1,1.1E1,1.6E1,7.4E1,8E1,2E1,7E0,7E0,5E0,5E0,9E0,1.98E2,5E0,2.1E1,7.2E1,8E0,6E0,2.6E1,8E0,9.6E1,9E0,2.2E1,1.4E1,9E1,1.8E1,1.4E1,6E0,5E0,1E1,6E0,6.9E1,5E0,5E0,7.5E1,1.1E1,9E0,7.2E1,1.26E2,1.1E1,1E1,5.6E1,1.6E1,1.8E1,8E0,7.1E1,2.5E1,1.2E1,1E1,5E0,9E0,3.5E1,5.5E1,1.3E1,5E0,5E0,9E0,5E0,5E0,1.2E1,5.7E1],"tree_param":{"num_deleted":"0","num_feature":"129","num_nodes":"85","size_leaf_vector":"1"}},{"base_weights":[-1.1824876E-2,-3.8741114E0,1.2460763E0,-1.4346532E1,-3.1249173E0,-1.9747274E0,1.9623411E0,-1.3400887E0,-2.2189334E-1,-5.179035E0,-1.5742359E0,-9.2163E0,-1.0838462E0,6.7265677E0,1.5451554E0,3.971145E-1,-6.7677507E0,-2.1980443E0,3.0376342E-1,-6.12441E-1,-1.8101113E-1,4.512168E0,-2.1799386E0,3.768361E0,1.25779705E1,3.93727E-1,2.9992738E0,-2.4635446E-1,2.5069885E0,-7.791943E0,3.4362912E-2,2.345695E0,-3.3229203E0,9.505168E-1,5.730192E-1,2.9730335E-1,-4.7210593E0,-1.7881674E0,7.5776114E0,7.3622245E-1,3.6226296E-1,4.8962617E0,-2.1146557E-1,4.523435E0,1.847845E-1,2.2809127E-1,-6.594523E-2,-4.424076E-1,-4.6493776E-2,2.7159214E-1,-1.3522504E-1,-2.4919565E-1,4.9584895E-2,-1.0791154E-1,1.5878814E-1,4.361216E-1,-4.554921E-2,-3.296647E-1,8.28074E-2,-1.9994526E-1,7.20422E-2,3.6637153E-2,5.928866E-1,-7.469808E-2,3.8719612E-1,-4.9724457E-1,1.2134167E-2,3.5362774E-1,8.995091E-2,-1.0415222E-1,3.0283344E-1],"categories":[],"categories_nodes":[],"categories_segments":[],"categories_sizes":[],"default_left":[0,0,0,0,0,0,0,0,0,0,0,0,0,0,0,0,0,0,0,0,0,0,0,0,0,0,0,0,0,0,0,0,0,0,0,0,0,0,0,0,0,0,0,0,0,0,0,0,0,0,0,0,0,0,0,0,0,0,0,0,0,0,0,0,0,0,0,0,0,0,0],"id":18,"left_children":[1,3,5,7,9,11,13,-1,-1,15,17,19,21,23,25,27,29,31,-1,-1,-1,33,35,37,39,41,43,-1,45,47,-1,49,51,53,-1,55,57,59,61,-1,-1,63,65,67,69,-1,-1,-1,-1,-1,-1,-1,-1,-1,-1,-1,-1,-1,-1,-1,-1,-1,-1,-1,-1,-1,-1,-1,-1,-1,-1],"loss_changes":[4.2318765E3,1.6324385E3,1.5195386E3,1.6057405E3,6.314133E2,7.631467E2,1.0580906E3,0E0,0E0,7.651914E2,5.664976E2,1.746825E2,6.720479E2,6.952822E2,8.289391E2,2.3677814E2,5.1763477E2,5.598958E2,0E0,0E0,0E0,4.3331378E2,5.7468835E2,6.4911523E2,5.1372314E1,7.5902625E2,9.381454E2,0E0,1.242647E2,4.1841333E2,0E0,3.5784744E2,6.2883167E2,9.688625E1,0E0,4.8718613E2,5.4869653E2,9.881807E1,5.173959E2,0E0,0E0,6.1270123E2,1.090808E3,9.7256006E2,1.0516951E3,0E0,0E0,0E0,0E0,0E0,0E0,0E0,0E0,0E0,0E0,0E0,0E0,0E0,0E0,0E0,0E0,0E0,0E0,0E0,0E0,0E0,0E0,0E0,0E0,0E0,0E0],"parents":[2147483647,0,0,1,1,2,2,3,3,4,4,5,5,6,6,9,9,10,10,11,11,12,12,13,13,14,14,15,15,16,16,17,17,21,21,22,22,23,23,24,24,25,25,26,26,28,28,29,29,31,31,32,32,33,33,35,35,36,36,37,37,38,38,41,41,42,42,43,43,44,44],"right_children":[2,4,6,8,10,12,14,-1,-1,16,18,20,22,24,26,28,30,32,-1,-1,-1,34,36,38,40,42,44,-1,46,48,-1,50,52,54,-1,56,58,60,62,-1,-1,64,66,68,70,-1,-1,-1,-1,-1,-1,-1,-1,-1,-1,-1,-1,-1,-1,-1,-1,-1,-1,-1,-1,-1,-1,-1,-1,-1,-1],"split_conditions":[1.113E2,1.077E2,1.128E2,2E0,2.4685127E-1,5.48E1,1.2441039E3,-1.3400887E0,-2.2189334E-1,1.058E2,1.0319196E2,5.9666668E1,1.09818184E2,0E0,1.166E2,1.431718E-1,1.7255028E3,5.0417053E1,3.0376342E-1,-6.12441E-1,-1.8101113E-1,6.1E1,1.16E2,1.14666664E2,6.52E1,5.37E1,5.8333332E1,-2.4635446E-1,5.62E1,1.191E2,3.4362912E-2,2.975E1,5.703715E1,2.6857143E1,5.730192E-1,3.0625E0,5.551083E1,4.1875E0,-5.7332783E0,7.3622245E-1,3.6226296E-1,1.0305804E2,2.6E1,2.89E1,3.2E1,2.2809127E-1,-6.594523E-2,-4.424076E-1,-4.6493776E-2,2.7159214E-1,-1.3522504E-1,-2.4919565E-1,4.9584895E-2,-1.0791154E-1,1.5878814E-1,4.361216E-1,-4.554921E-2,-3.296647E-1,8.28074E-2,-1.9994526E-1,7.20422E-2,3.6637153E-2,5.928866E-1,-7.469808E-2,3.8719612E-1,-4.9724457E-1,1.2134167E-2,3.5362774E-1,8.995091E-2,-1.0415222E-1,3.0283344E-1],"split_indices":[1,32,32,128,83,15,77,0,0,40,74,47,64,128,40,60,78,24,0,0,0,3,13,44,11,46,47,0,43,44,0,63,24,62,0,55,24,23,121,0,0,74,62,31,62,0,0,0,0,0,0,0,0,0,0,0,0,0,0,0,0,0,0,0,0,0,0,0,0,0,0],"split_type":[0,0,0,0,0,0,0,0,0,0,0,0,0,0,0,0,0,0,0,0,0,0,0,0,0,0,0,0,0,0,0,0,0,0,0,0,0,0,0,0,0,0,0,0,0,0,0,0,0,0,0,0,0,0,0,0,0,0,0,0,0,0,0,0,0,0,0,0,0,0,0],"sum_hessian":[8.69E2,2.13E2,6.56E2,1.3E1,2E2,1.19E2,5.37E2,5E0,8E0,8.5E1,1.15E2,1.2E1,1.07E2,4.2E1,4.95E2,1.9E1,6.6E1,1.07E2,8E0,7E0,5E0,1.7E1,9E1,2.9E1,1.3E1,2.77E2,2.18E2,5E0,1.4E1,5.8E1,8E0,2.1E1,8.6E1,1.2E1,5E0,4.6E1,4.4E1,1.2E1,1.7E1,8E0,5E0,3.2E1,2.45E2,1.41E2,7.7E1,9E0,5E0,5E1,8E0,1.3E1,8E0,6.2E1,2.4E1,5E0,7E0,5E0,4.1E1,3.4E1,1E1,7E0,5E0,7E0,1E1,1E1,2.2E1,1E1,2.35E2,7.2E1,6.9E1,5.6E1,2.1E1],"tree_param":{"num_deleted":"0","num_feature":"129","num_nodes":"71","size_leaf_vector":"1"}},{"base_weights":[1.5107116E-1,-2.0813055E0,1.4680372E0,-1.831052E0,-7.386328E-1,-1.793852E-1,2.7913175E0,1.1793432E0,-2.5500362E0,-2.1103187E0,1.569723E0,1.882848E0,5.790812E0,3.261944E0,-2.9380841E0,-3.3569553E0,3.556626E0,-1.0231276E0,-7.5443835E0,-2.810668E0,3.2024539E0,1.0986142E0,6.5519295E0,7.0100093E0,-1.0467269E-1,5.5452766E0,-1.5305742E0,-3.6358333E-1,2.8040242E-1,-4.9029503E0,-1.1254683E0,-2.4685915E-1,6.8742466E0,-2.082359E0,3.1540318E0,-7.204072E-1,-3.2604833E0,-8.858434E-1,-5.1845664E-1,4.6775374E0,-2.4104788E0,4.7625275E0,8.748752E-2,3.1479917E0,1.3064533E1,2.406819E0,1.0226378E1,1.3763079E-1,5.5619687E-1,-2.5715888E-1,9.046377E-2,-1.2480968E-1,1.9762318E-1,-1.9621299E-1,-5.091201E-1,-1.503721E-1,1.4617959E-1,4.6543846E-1,-5.763046E-2,1.1717152E-1,-1.7254099E-1,3.2283863E-1,-7.9448014E-2,5.7380952E-2,-4.3056032E-1,-2.408896E-1,7.15954E-2,1.1840653E-1,4.3031022E-1,-6.274254E-1,8.993822E-2,3.1999156E-1,-1.0614119E-1,5.6167644E-1,-1.7620271E-2,-4.5889206E-2,5.4492724E-1,3.5412964E-1,8.4261924E-1,-8.698951E-3,1.8946204E-1,3.4334737E-1,6.890135E-1],"categories":[],"categories_nodes":[],"categories_segments":[],"categories_sizes":[],"default_left":[0,0,0,0,0,0,0,0,0,0,0,0,0,0,0,0,0,0,0,0,0,0,0,0,0,0,0,0,0,0,0,0,0,0,0,0,0,0,0,0,0,0,0,0,0,0,0,0,0,0,0,0,0,0,0,0,0,0,0,0,0,0,0,0,0,0,0,0,0,0,0,0,0,0,0,0,0,0,0,0,0,0,0],"id":19,"left_children":[1,3,5,7,-1,9,11,13,15,17,19,21,23,25,27,29,31,33,35,37,39,41,43,45,-1,47,49,-1,51,53,55,-1,57,59,61,-1,63,65,-1,67,69,71,73,75,77,79,81,-1,-1,-1,-1,-1,-1,-1,-1,-1,-1,-1,-1,-1,-1,-1,-1,-1,-1,-1,-1,-1,-1,-1,-1,-1,-1,-1,-1,-1,-1,-1,-1,-1,-1,-1,-1],"loss_changes":[2.5196038E3,9.812761E2,1.1757827E3,6.806102E2,0E0,8.173229E2,8.0308887E2,5.326886E2,1.2585975E3,6.7082904E2,9.17344E2,8.378784E2,6.7842773E2,4.575483E2,2.956372E2,7.666492E2,8.7951013E2,4.3564478E2,5.0992517E2,4.9889417E2,7.814995E2,7.363297E2,6.8881226E2,8.624575E2,0E0,4.04213E2,1.7855652E2,0E0,1.4255756E2,6.406682E2,7.174818E2,0E0,4.4145947E2,4.8060596E2,3.2404388E2,0E0,3.1725366E2,2.7152234E2,0E0,6.499159E2,8.7711536E2,4.9877002E2,7.7482806E2,7.357768E2,1.2749365E2,9.37823E1,3.2117358E2,0E0,0E0,0E0,0E0,0E0,0E0,0E0,0E0,0E0,0E0,0E0,0E0,0E0,0E0,0E0,0E0,0E0,0E0,0E0,0E0,0E0,0E0,0E0,0E0,0E0,0E0,0E0,0E0,0E0,0E0,0E0,0E0,0E0,0E0,0E0,0E0],"parents":[2147483647,0,0,1,1,2,2,3,3,5,5,6,6,7,7,8,8,9,9,10,10,11,11,12,12,13,13,14,14,15,15,16,16,17,17,18,18,19,19,20,20,21,21,22,22,23,23,25,25,26,26,28,28,29,29,30,30,32,32,33,33,34,34,36,36,37,37,39,39,40,40,41,41,42,42,43,43,44,44,45,45,46,46],"right_children":[2,4,6,8,-1,10,12,14,16,18,20,22,24,26,28,30,32,34,36,38,40,42,44,46,-1,48,50,-1,52,54,56,-1,58,60,62,-1,64,66,-1,68,70,72,74,76,78,80,82,-1,-1,-1,-1,-1,-1,-1,-1,-1,-1,-1,-1,-1,-1,-1,-1,-1,-1,-1,-1,-1,-1,-1,-1,-1,-1,-1,-1,-1,-1,-1,-1,-1,-1,-1,-1],"split_conditions":[1.139E2,3.5333332E1,4.2E1,-3.4666667E0,-7.386328E-1,1.0854167E1,1.203E2,3.08E1,1.202E2,8.16E1,1.0276786E2,1.2090909E1,6.24E1,1.19E2,2.3E1,1.1E1,1.11E2,1.05E2,8.54E1,2.5081968E0,8.275E1,-6.006283E2,3.483271E1,8.325E1,-1.0467269E-1,8.5E1,2.888889E1,-3.6358333E-1,6.0142857E1,1.0612904E1,6.733333E0,-2.4685915E-1,8.9E1,2.625E1,3.9591837E0,-7.204072E-1,1.1464206E1,3.4E0,-5.1845664E-1,1.1386667E2,1.0990476E2,8.44E1,2.5666666E1,2E0,2.469988E0,1.107E2,-2.5696616E2,1.3763079E-1,5.5619687E-1,-2.5715888E-1,9.046377E-2,-1.2480968E-1,1.9762318E-1,-1.9621299E-1,-5.091201E-1,-1.503721E-1,1.4617959E-1,4.6543846E-1,-5.763046E-2,1.1717152E-1,-1.7254099E-1,3.2283863E-1,-7.9448014E-2,5.7380952E-2,-4.3056032E-1,-2.408896E-1,7.15954E-2,1.1840653E-1,4.3031022E-1,-6.274254E-1,8.993822E-2,3.1999156E-1,-1.0614119E-1,5.6167644E-1,-1.7620271E-2,-4.5889206E-2,5.4492724E-1,3.5412964E-1,8.4261924E-1,-8.698951E-3,1.8946204E-1,3.4334737E-1,6.890135E-1],"split_indices":[1,30,34,126,0,21,13,62,44,26,36,21,10,41,27,21,41,4,26,54,58,123,57,58,0,58,62,0,47,21,126,0,26,31,55,0,29,55,0,69,5,26,62,128,54,12,123,0,0,0,0,0,0,0,0,0,0,0,0,0,0,0,0,0,0,0,0,0,0,0,0,0,0,0,0,0,0,0,0,0,0,0,0],"split_type":[0,0,0,0,0,0,0,0,0,0,0,0,0,0,0,0,0,0,0,0,0,0,0,0,0,0,0,0,0,0,0,0,0,0,0,0,0,0,0,0,0,0,0,0,0,0,0,0,0,0,0,0,0,0,0,0,0,0,0,0,0,0,0,0,0,0,0,0,0,0,0,0,0,0,0,0,0,0,0,0,0,0,0],"sum_hessian":[8.55E2,3.17E2,5.38E2,3.12E2,5E0,2.4E2,2.98E2,6E1,2.52E2,1.14E2,1.26E2,2.3E2,6.8E1,4E1,2E1,2.23E2,2.9E1,9.6E1,1.8E1,3.4E1,9.2E1,1.98E2,3.2E1,5.9E1,9E0,2.7E1,1.3E1,8E0,1.2E1,1.31E2,9.2E1,8E0,2.1E1,7.7E1,1.9E1,6E0,1.2E1,2.8E1,6E0,7.3E1,1.9E1,4.2E1,1.56E2,2.2E1,1E1,2.5E1,3.4E1,1.9E1,8E0,6E0,7E0,7E0,5E0,1.12E2,1.9E1,6.3E1,2.9E1,1.6E1,5E0,1.8E1,5.9E1,1.1E1,8E0,7E0,5E0,1E1,1.8E1,4.7E1,2.6E1,5E0,1.4E1,3.4E1,8E0,5E0,1.51E2,1.5E1,7E0,5E0,5E0,9E0,1.6E1,1.9E1,1.5E1],"tree_param":{"num_deleted":"0","num_feature":"129","num_nodes":"83","size_leaf_vector":"1"}},{"base_weights":[-9.734192E-2,-1.426621E0,2.2486813E0,-1.1999865E0,-9.621081E-1,5.4847306E-1,1.9887595E0,-2.4744985E0,5.436274E-1,3.6672416E0,5.925329E-1,-2.9528835E0,2.6504333E0,1.4092103E0,-3.8622453E0,4.2796955E0,-2.68459E0,-4.3499775E0,1.4297453E0,1.6674569E-1,-3.9428854E0,5.404005E-1,-6.1088145E-2,4.2196366E-1,4.483482E0,1.32946E0,-6.826779E0,6.012715E0,1.1260724E0,1.4873008E-1,-3.9872774E-1,-8.432006E0,5.8972754E-2,2.8683612E0,-1.8926365E0,-5.5376958E-2,4.094033E-1,2.5744686E-1,-2.1301794E-1,2.950561E-1,-1.6217639E-1,1.8218893E-1,-5.116242E-2,1.3730998E-1,4.4709206E-1,-1.20971575E-1,2.4623346E-1,-4.4305474E-1,5.377012E-2,2.6032442E-1,7.003981E-1,2.2784662E-1,-5.7855707E-2,-2.0596139E-1,-5.3000444E-1,-1.4289388E-1,1.9774722E-1,-2.965343E-1,1.8364073E-1,3.072345E-1,-1.6446345E-1],"categories":[],"categories_nodes":[],"categories_segments":[],"categories_sizes":[],"default_left":[0,0,0,0,0,0,0,0,0,0,0,0,0,0,0,0,0,0,0,0,0,0,0,0,0,0,0,0,0,0,0,0,0,0,0,0,0,0,0,0,0,0,0,0,0,0,0,0,0,0,0,0,0,0,0,0,0,0,0,0,0],"id":20,"left_children":[1,3,5,7,-1,-1,9,11,13,15,17,19,21,23,25,27,29,31,33,35,37,-1,39,41,43,45,47,49,51,-1,-1,53,55,57,59,-1,-1,-1,-1,-1,-1,-1,-1,-1,-1,-1,-1,-1,-1,-1,-1,-1,-1,-1,-1,-1,-1,-1,-1,-1,-1],"loss_changes":[2.7505413E3,2.2480425E3,6.9997253E2,1.2393353E3,0E0,0E0,7.2624255E2,7.9730115E2,9.052184E2,5.601676E2,7.135135E2,9.121245E2,6.2107935E2,5.985603E2,6.09874E2,6.9753784E2,4.134011E2,4.512711E2,7.081322E2,7.457208E2,6.684033E2,0E0,4.363109E2,7.0707764E2,3.4605566E2,2.1433615E2,4.1219604E2,4.6016235E2,3.7377768E2,0E0,0E0,7.641986E1,1.5914401E2,7.5063403E2,5.250594E2,0E0,0E0,0E0,0E0,0E0,0E0,0E0,0E0,0E0,0E0,0E0,0E0,0E0,0E0,0E0,0E0,0E0,0E0,0E0,0E0,0E0,0E0,0E0,0E0,0E0,0E0],"parents":[2147483647,0,0,1,1,2,2,3,3,6,6,7,7,8,8,9,9,10,10,11,11,12,12,13,13,14,14,15,15,16,16,17,17,18,18,19,19,20,20,22,22,23,23,24,24,25,25,26,26,27,27,28,28,31,31,32,32,33,33,34,34],"right_children":[2,4,6,8,-1,-1,10,12,14,16,18,20,22,24,26,28,30,32,34,36,38,-1,40,42,44,46,48,50,52,-1,-1,54,56,58,60,-1,-1,-1,-1,-1,-1,-1,-1,-1,-1,-1,-1,-1,-1,-1,-1,-1,-1,-1,-1,-1,-1,-1,-1,-1,-1],"split_conditions":[1.165E2,3.45E1,3.416149E-2,1.159E2,-9.621081E-1,5.4847306E-1,9.569138E0,1.2261905E1,7.5E0,9.05E1,9.827076E0,5.1646053E1,2.5576923E0,2.6511629E0,1.0113636E1,2.925E1,5.71E1,-2.0932941E0,3.4862434E1,3.15E1,2.4009523E1,5.404005E-1,2E0,3.0341991E1,3.5050377E1,2E0,3.7805412E1,9.878049E-1,-1E0,1.4873008E-1,-3.9872774E-1,1.156E2,5.3008595E1,6.2E1,-3E0,-5.5376958E-2,4.094033E-1,2.5744686E-1,-2.1301794E-1,2.950561E-1,-1.6217639E-1,1.8218893E-1,-5.116242E-2,1.3730998E-1,4.4709206E-1,-1.20971575E-1,2.4623346E-1,-4.4305474E-1,5.377012E-2,2.6032442E-1,7.003981E-1,2.2784662E-1,-5.7855707E-2,-2.0596139E-1,-5.3000444E-1,-1.4289388E-1,1.9774722E-1,-2.965343E-1,1.8364073E-1,3.072345E-1,-1.6446345E-1],"split_indices":[1,30,60,32,0,0,29,53,81,58,29,24,54,22,21,30,47,83,25,59,25,0,67,25,25,16,57,76,71,0,0,70,24,58,71,0,0,0,0,0,0,0,0,0,0,0,0,0,0,0,0,0,0,0,0,0,0,0,0,0,0],"split_type":[0,0,0,0,0,0,0,0,0,0,0,0,0,0,0,0,0,0,0,0,0,0,0,0,0,0,0,0,0,0,0,0,0,0,0,0,0,0,0,0,0,0,0,0,0,0,0,0,0,0,0,0,0,0,0,0,0,0,0,0,0],"sum_hessian":[8.8E2,5.62E2,3.18E2,5.56E2,6E0,8E0,3.1E2,3.21E2,2.35E2,1.4E2,1.7E2,2.94E2,2.7E1,1.97E2,3.8E1,1.28E2,1.2E1,2.4E1,1.46E2,7.1E1,2.23E2,6E0,2.1E1,1.5E2,4.7E1,1.4E1,2.4E1,8.2E1,4.6E1,6E0,6E0,1.2E1,1.2E1,1.02E2,4.4E1,6.2E1,9E0,7E0,2.16E2,7E0,1.4E1,4.6E1,1.04E2,3.5E1,1.2E1,7E0,7E0,1.9E1,5E0,7.6E1,6E0,1.8E1,2.8E1,5E0,7E0,7E0,5E0,8E0,9.4E1,6E0,3.8E1],"tree_param":{"num_deleted":"0","num_feature":"129","num_nodes":"61","size_leaf_vector":"1"}},{"base_weights":[1.1849987E-1,-2.305496E0,1.5889045E0,-9.7156906E-1,-1.9819243E0,-8.144483E-1,2.4563978E0,-4.0274027E-1,-3.9388235E0,-1.4773088E0,6.022082E0,7.519464E0,1.96524E0,2.7600784E0,-2.1156018E0,-5.5660686E0,4.8271142E-2,-4.2392917E0,2.9098898E-1,3.7184905E-3,4.858803E-1,9.95591E0,1.2894077E0,1.7137549E0,9.916464E0,-1.5758085E-1,8.341864E0,-3.2499168E0,1.824124E0,-4.4941726E0,-1.3311765E1,1.8037442E0,-5.530552E-1,-7.889962E-1,-7.9300504E0,2.640511E0,-2.0071394E0,7.504491E-2,1.3155031E1,-1.5132248E-1,2.7035153E-1,2.1809385E0,-1.828546E0,1.5745728E-1,7.507186E-1,-1.5929116E-1,1.5809037E-1,1.658109E-3,5.3888834E-1,-7.872157E-2,-2.965362E-1,-1.8382542E-1,2.392123E-1,-3.5638916E-1,-7.914476E-2,-3.7234062E-1,-8.9594585E-1,-2.3816223E-1,1.8585247E-1,3.7664503E-1,-1.4649847E-1,2.1977412E-2,-5.024714E-1,-3.210702E-2,2.385547E-1,1.0482893E-2,-4.141314E-1,8.012697E-1,4.6231008E-1,2.2417104E-1,6.1254676E-2,-1.7737626E-1,2.9540282E-1],"categories":[],"categories_nodes":[],"categories_segments":[],"categories_sizes":[],"default_left":[0,0,0,0,0,0,0,0,0,0,0,0,0,0,0,0,0,0,0,0,0,0,0,0,0,0,0,0,0,0,0,0,0,0,0,0,0,0,0,0,0,0,0,0,0,0,0,0,0,0,0,0,0,0,0,0,0,0,0,0,0,0,0,0,0,0,0,0,0,0,0,0,0],"id":21,"left_children":[1,3,5,-1,7,9,11,13,15,17,19,21,23,25,27,29,31,33,35,-1,-1,37,39,41,43,45,47,49,51,53,55,57,-1,59,61,63,65,-1,67,-1,-1,69,71,-1,-1,-1,-1,-1,-1,-1,-1,-1,-1,-1,-1,-1,-1,-1,-1,-1,-1,-1,-1,-1,-1,-1,-1,-1,-1,-1,-1,-1,-1],"loss_changes":[3.115186E3,1.7880262E3,1.1363461E3,0E0,1.0023285E3,6.655335E2,9.789795E2,9.863369E2,9.4157715E2,6.512015E2,2.8403693E2,5.173103E2,7.137013E2,1.0444208E3,5.3339996E2,7.9356006E2,8.576206E2,6.5505005E2,4.481225E2,0E0,0E0,6.550051E2,2.1208395E2,5.9316956E2,3.303921E2,4.423076E2,4.438235E2,4.0314404E2,4.5732874E2,6.932262E2,1.8827344E2,4.9505743E2,0E0,5.2048566E2,4.4883667E2,2.9022894E2,5.868262E2,0E0,5.1254395E1,0E0,0E0,6.871937E2,5.792833E2,0E0,0E0,0E0,0E0,0E0,0E0,0E0,0E0,0E0,0E0,0E0,0E0,0E0,0E0,0E0,0E0,0E0,0E0,0E0,0E0,0E0,0E0,0E0,0E0,0E0,0E0,0E0,0E0,0E0,0E0],"parents":[2147483647,0,0,1,1,2,2,4,4,5,5,6,6,7,7,8,8,9,9,10,10,11,11,12,12,13,13,14,14,15,15,16,16,17,17,18,18,21,21,22,22,23,23,24,24,25,25,26,26,27,27,28,28,29,29,30,30,31,31,33,33,34,34,35,35,36,36,38,38,41,41,42,42],"right_children":[2,4,6,-1,8,10,12,14,16,18,20,22,24,26,28,30,32,34,36,-1,-1,38,40,42,44,46,48,50,52,54,56,58,-1,60,62,64,66,-1,68,-1,-1,70,72,-1,-1,-1,-1,-1,-1,-1,-1,-1,-1,-1,-1,-1,-1,-1,-1,-1,-1,-1,-1,-1,-1,-1,-1,-1,-1,-1,-1,-1,-1],"split_conditions":[1.139E2,1.063E2,1.138E2,-9.7156906E-1,5.8333332E1,1.25333336E2,1.2441039E3,2E0,2.593583E-1,2.7571428E1,1.148E2,2.5853658E0,3.4857142E0,4.285714E0,3.8331448E1,4E0,4.14E1,5.825E1,5.825E1,3.7184905E-3,4.858803E-1,2.31203E-1,2.8555555E1,3.13E1,5.8714287E1,2.6E1,2.8867596E1,1.278264E0,5.65E1,7.72E1,9.036061E0,1.162E2,-5.530552E-1,4.7692257E1,3.0166667E0,1.98E1,1.182E2,7.504491E-2,2.84E1,-1.5132248E-1,2.7035153E-1,1.8240343E-1,3.26E1,1.5745728E-1,7.507186E-1,-1.5929116E-1,1.5809037E-1,1.658109E-3,5.3888834E-1,-7.872157E-2,-2.965362E-1,-1.8382542E-1,2.392123E-1,-3.5638916E-1,-7.914476E-2,-3.7234062E-1,-8.9594585E-1,-2.3816223E-1,1.8585247E-1,3.7664503E-1,-1.4649847E-1,2.1977412E-2,-5.024714E-1,-3.210702E-2,2.385547E-1,1.0482893E-2,-4.141314E-1,8.012697E-1,4.6231008E-1,2.2417104E-1,6.1254676E-2,-1.7737626E-1,2.9540282E-1],"split_indices":[1,1,32,0,47,41,77,48,28,62,9,54,54,55,25,72,27,47,11,0,0,28,31,31,15,27,57,121,46,58,61,41,0,56,55,27,41,0,27,0,0,28,31,0,0,0,0,0,0,0,0,0,0,0,0,0,0,0,0,0,0,0,0,0,0,0,0,0,0,0,0,0,0],"split_type":[0,0,0,0,0,0,0,0,0,0,0,0,0,0,0,0,0,0,0,0,0,0,0,0,0,0,0,0,0,0,0,0,0,0,0,0,0,0,0,0,0,0,0,0,0,0,0,0,0,0,0,0,0,0,0,0,0,0,0,0,0,0,0,0,0,0,0,0,0,0,0,0,0],"sum_hessian":[8.72E2,3.29E2,5.43E2,5E0,3.24E2,1.44E2,3.99E2,1.8E2,1.44E2,1.32E2,1.2E1,3.4E1,3.65E2,6.3E1,1.17E2,1.02E2,4.2E1,5.1E1,8.1E1,5E0,7E0,2.4E1,1E1,3.55E2,1E1,4.2E1,2.1E1,9.1E1,2.6E1,9.1E1,1.1E1,3.7E1,5E0,2.7E1,2.4E1,4E1,4.1E1,7E0,1.7E1,5E0,5E0,3.14E2,4.1E1,5E0,5E0,2.2E1,2E1,5E0,1.6E1,5.7E1,3.4E1,9E0,1.7E1,4.7E1,4.4E1,6E0,5E0,8E0,2.9E1,5E0,2.2E1,5E0,1.9E1,1.6E1,2.4E1,3.1E1,1E1,8E0,9E0,9.1E1,2.23E2,3.4E1,7E0],"tree_param":{"num_deleted":"0","num_feature":"129","num_nodes":"73","size_leaf_vector":"1"}},{"base_weights":[-1.1017806E-1,-1.4131635E0,2.0971196E0,-2.6963735E0,5.0584924E-1,2.665925E0,-5.285259E0,-1.100503E1,-2.3667905E0,1.9225459E0,-1.7420853E0,4.5384665E0,1.2227627E0,-1.6690625E0,-5.922247E-1,-2.7659377E-1,-7.769769E-1,-5.871371E0,-1.522578E0,-2.5719345E-1,4.011373E0,-2.9450336E0,3.5482588E0,-1.3247846E0,5.3887954E0,6.3471144E-1,9.549067E0,1.2304937E-1,-3.0596182E-1,-8.713132E0,-9.1666204E-1,-1.8291287E0,3.0344316E-1,3.7114828E0,-2.0655632E0,6.041254E0,-5.0298023E-1,-4.5491614E0,4.5666432E-1,-4.987665E-2,4.1156211E-1,-2.1832569E-1,1.3152374E-1,3.130975E0,7.4351974E0,-7.2339255E-1,4.1721487E0,2.0241551E-1,6.7208225E-1,-3.3824864E-1,-8.9795774E-1,-3.3711419E-1,2.0377652E-1,-7.63544E-2,-5.249095E-1,3.4275743E-1,-2.1103203E-2,-1.7716561E-1,3.3297566E-1,3.9362305E-1,1.7931238E-3,-1.7347781E-1,2.554861E-1,4.131684E-2,-3.0135176E-1,2.4809003E-1,-2.0390971E-1,4.5692086E-2,5.495608E-1,1.4038691E-1,4.7224304E-1,-1.0597046E-1,1.8431762E-1,3.097316E-1,-8.645131E-2],"categories":[],"categories_nodes":[],"categories_segments":[],"categories_sizes":[],"default_left":[0,0,0,0,0,0,0,0,0,0,0,0,0,0,0,0,0,0,0,0,0,0,0,0,0,0,0,0,0,0,0,0,0,0,0,0,0,0,0,0,0,0,0,0,0,0,0,0,0,0,0,0,0,0,0,0,0,0,0,0,0,0,0,0,0,0,0,0,0,0,0,0,0,0,0],"id":22,"left_children":[1,3,5,7,9,11,13,15,17,19,21,23,25,27,-1,-1,-1,29,31,33,35,37,39,41,43,45,47,-1,-1,49,51,53,-1,55,57,59,61,63,65,-1,-1,-1,-1,67,69,71,73,-1,-1,-1,-1,-1,-1,-1,-1,-1,-1,-1,-1,-1,-1,-1,-1,-1,-1,-1,-1,-1,-1,-1,-1,-1,-1,-1,-1],"loss_changes":[2.4561887E3,1.3239434E3,1.3449546E3,8.543777E2,6.912499E2,7.910769E2,5.244275E2,2.0974683E2,9.104491E2,6.0696936E2,5.449662E2,6.4571387E2,8.154981E2,3.0949615E2,0E0,0E0,0E0,8.3585596E2,5.971217E2,4.8117273E2,6.267173E2,3.7900305E2,3.4954013E2,2.1618367E2,4.9314966E2,7.6242786E2,1.7936835E2,0E0,0E0,5.605178E2,6.9664545E2,6.1903937E2,0E0,2.7642087E2,6.16385E2,5.1579114E2,3.8387558E2,3.788828E2,4.9021713E2,0E0,0E0,0E0,0E0,9.472615E2,5.1163477E2,7.1560504E2,5.3629846E2,0E0,0E0,0E0,0E0,0E0,0E0,0E0,0E0,0E0,0E0,0E0,0E0,0E0,0E0,0E0,0E0,0E0,0E0,0E0,0E0,0E0,0E0,0E0,0E0,0E0,0E0,0E0,0E0],"parents":[2147483647,0,0,1,1,2,2,3,3,4,4,5,5,6,6,7,7,8,8,9,9,10,10,11,11,12,12,13,13,17,17,18,18,19,19,20,20,21,21,22,22,23,23,24,24,25,25,26,26,29,29,30,30,31,31,33,33,34,34,35,35,36,36,37,37,38,38,43,43,44,44,45,45,46,46],"right_children":[2,4,6,8,10,12,14,16,18,20,22,24,26,28,-1,-1,-1,30,32,34,36,38,40,42,44,46,48,-1,-1,50,52,54,-1,56,58,60,62,64,66,-1,-1,-1,-1,68,70,72,74,-1,-1,-1,-1,-1,-1,-1,-1,-1,-1,-1,-1,-1,-1,-1,-1,-1,-1,-1,-1,-1,-1,-1,-1,-1,-1,-1,-1],"split_conditions":[1.165E2,1.159E2,5.0540543E0,1.071E2,1.183E2,9.6012535E0,5E0,2.61E1,-2.7142856E0,7.94E1,6.4E1,3.3958333E0,3.32E0,4.4E1,-5.922247E-1,-2.7659377E-1,-7.769769E-1,1.122E2,6.37E1,3.0537588E1,6.16E1,1.1045612E1,-9.3333334E-1,4E0,2.84E1,5.9555557E1,-6.6666665E0,1.2304937E-1,-3.0596182E-1,1.24565735E1,2.4468086E0,6.25E1,3.0344316E-1,1E0,4E0,4.9860957E-1,2.1923077E-1,1.2784588E-1,1.146E2,-4.987665E-2,4.1156211E-1,-2.1832569E-1,1.3152374E-1,1.0493304E2,7.78E1,4.3061223E0,8.8E1,2.0241551E-1,6.7208225E-1,-3.3824864E-1,-8.9795774E-1,-3.3711419E-1,2.0377652E-1,-7.63544E-2,-5.249095E-1,3.4275743E-1,-2.1103203E-2,-1.7716561E-1,3.3297566E-1,3.9362305E-1,1.7931238E-3,-1.7347781E-1,2.554861E-1,4.131684E-2,-3.0135176E-1,2.4809003E-1,-2.0390971E-1,4.5692086E-2,5.495608E-1,1.4038691E-1,4.7224304E-1,-1.0597046E-1,1.8431762E-1,3.097316E-1,-8.645131E-2],"split_indices":[1,32,23,1,32,29,50,63,81,58,42,55,54,2,0,0,0,13,14,25,42,29,126,68,63,14,81,0,0,61,22,14,0,81,16,124,28,60,69,0,0,0,0,74,58,23,26,0,0,0,0,0,0,0,0,0,0,0,0,0,0,0,0,0,0,0,0,0,0,0,0,0,0,0,0],"split_type":[0,0,0,0,0,0,0,0,0,0,0,0,0,0,0,0,0,0,0,0,0,0,0,0,0,0,0,0,0,0,0,0,0,0,0,0,0,0,0,0,0,0,0,0,0,0,0,0,0,0,0,0,0,0,0,0,0,0,0,0,0,0,0,0,0,0,0,0,0,0,0,0,0,0,0],"sum_hessian":[8.52E2,5.36E2,3.16E2,3.21E2,2.15E2,2.94E2,2.2E1,1.1E1,3.1E2,1.32E2,8.3E1,1.27E2,1.67E2,1.5E1,7E0,6E0,5E0,5.9E1,2.51E2,6.5E1,6.7E1,6.8E1,1.5E1,1.6E1,1.11E2,1.57E2,1E1,8E0,7E0,3.7E1,2.2E1,2.42E2,9E0,2E1,4.5E1,4.6E1,2.1E1,4.6E1,2.2E1,8E0,7E0,9E0,7E0,5.4E1,5.7E1,1.14E2,4.3E1,5E0,5E0,3.2E1,5E0,1E1,1.2E1,2.35E2,7E0,1.1E1,9E0,3.9E1,6E0,3.5E1,1.1E1,1.4E1,7E0,1E1,3.6E1,1.1E1,1.1E1,4.3E1,1.1E1,1.8E1,3.9E1,8.7E1,2.7E1,3.2E1,1.1E1],"tree_param":{"num_deleted":"0","num_feature":"129","num_nodes":"75","size_leaf_vector":"1"}},{"base_weights":[-2.6856603E-2,-8.28546E-1,3.3751159E0,-6.944771E-1,-8.246959E-1,9.033804E0,2.6351812E0,2.6390297E0,-1.1720378E0,1.3768858E-1,1.2459342E1,-3.536677E0,3.2972598E0,-2.6876419E0,4.124664E0,-8.48663E-1,-4.1743917E0,3.29793E-1,8.6034244E-1,-3.7915587E-1,-0E0,6.2789598E0,1.943274E0,3.023983E-1,-6.0093756E0,2.129281E0,6.8688507E0,-1.1679606E0,4.2924614E0,-6.6041927E0,-2.5034836E-1,4.3668225E-1,8.334714E0,1.2512064E-1,5.689619E0,-4.7882935E-1,4.604364E-2,1.0410258E-2,3.4531435E-1,1.7196505E-1,5.408791E-1,-1.9621295E-1,-3.411693E-2,-1.7141132E-1,2.898582E-1,-1.7129357E-1,-5.5153364E-1,1.880474E-1,-1.6956711E-1,-1.953481E-1,2.055854E-1,9.9138804E-2,5.226764E-1,1.281286E-1,-1.4927986E-1,3.5303774E-1,-5.9178658E-2],"categories":[],"categories_nodes":[],"categories_segments":[],"categories_sizes":[],"default_left":[0,0,0,0,0,0,0,0,0,0,0,0,0,0,0,0,0,0,0,0,0,0,0,0,0,0,0,0,0,0,0,0,0,0,0,0,0,0,0,0,0,0,0,0,0,0,0,0,0,0,0,0,0,0,0,0,0],"id":23,"left_children":[1,3,5,7,-1,9,11,13,15,-1,17,19,21,23,25,27,29,-1,-1,-1,-1,31,33,-1,35,37,39,41,43,45,47,49,51,53,55,-1,-1,-1,-1,-1,-1,-1,-1,-1,-1,-1,-1,-1,-1,-1,-1,-1,-1,-1,-1,-1,-1],"loss_changes":[2.402588E3,1.4842969E3,6.784536E2,1.1300482E3,0E0,3.7290564E2,6.2457556E2,7.1552966E2,5.9790405E2,0E0,2.1816882E2,2.1490443E2,5.360326E2,6.1668787E2,3.677738E2,9.2560986E2,5.6973987E2,0E0,0E0,0E0,0E0,4.9991528E2,6.457925E2,0E0,3.8050928E2,3.8328424E2,3.5409814E2,7.0493835E2,4.0348303E2,4.8130945E2,3.1510464E2,2.0764081E2,3.9524487E2,5.0045303E2,3.0109113E2,0E0,0E0,0E0,0E0,0E0,0E0,0E0,0E0,0E0,0E0,0E0,0E0,0E0,0E0,0E0,0E0,0E0,0E0,0E0,0E0,0E0,0E0],"parents":[2147483647,0,0,1,1,2,2,3,3,5,5,6,6,7,7,8,8,10,10,11,11,12,12,13,13,14,14,15,15,16,16,21,21,22,22,24,24,25,25,26,26,27,27,28,28,29,29,30,30,31,31,32,32,33,33,34,34],"right_children":[2,