{"learner":{"attributes":{"best_iteration":"4","best_score":"2.4389763078652322","scikit_learn":"{\"_estimator_type\": \"regressor\"}"},"feature_names":[],"feature_types":[],"gradient_booster":{"model":{"cats":{"enc":[],"feature_segments":[],"sorted_idx":[]},"gbtree_model_param":{"num_parallel_tree":"1","num_trees":"25"},"iteration_indptr":[0,1,2,3,4,5,6,7,8,9,10,11,12,13,14,15,16,17,18,19,20,21,22,23,24,25],"tree_info":[0,0,0,0,0,0,0,0,0,0,0,0,0,0,0,0,0,0,0,0,0,0,0,0,0],"trees":[{"base_weights":[-1.01098865E-2,3.529412E-2,-1.7373736E-1,-5.2E-1,4.3059494E-2,-3.71875E-1,-7.794117E-2,-3.3749998E-2,2.5000002E-3,-3E-2,4.843305E-2,-6.7692304E-1,-1.5499999E-1,-3.3749998E-2,-3.9999995E-2,1.5346538E-2,9.266667E-2,-1.75E-1,-4.05E-2,-3.3749998E-2,-2.3529408E-2,-1.2698409E-2,-3E-2,2.822086E-3,-7.6249996E-3,-2.2499999E-2,4.966443E-3,3.3333336E-3,-2.2499999E-2,4.6428572E-3,-2.125E-2,2.9000002E-3,-1.32142855E-2],"categories":[],"categories_nodes":[],"categories_segments":[],"categories_sizes":[],"default_left":[0,0,0,0,0,0,0,0,0,0,0,0,0,0,0,0,0,0,0,0,0,0,0,0,0,0,0,0,0,0,0,0,0],"id":0,"left_children":[1,3,5,7,9,11,13,-1,-1,-1,15,17,19,-1,21,23,25,27,-1,-1,29,31,-1,-1,-1,-1,-1,-1,-1,-1,-1,-1,-1],"loss_changes":[3.386483E0,1.5617983E0,1.8501179E0,4.7549987E-1,1.2488575E0,2.0121102E0,1.5134116E0,0E0,0E0,0E0,5.122791E-1,7.265768E-1,1.3514118E0,0E0,9.861587E-1,1.4019394E0,5.8700037E-1,2.958333E-1,0E0,0E0,8.338025E-1,1.1358984E0,0E0,0E0,0E0,0E0,0E0,0E0,0E0,0E0,0E0,0E0,0E0],"parents":[2147483647,0,0,1,1,2,2,3,3,4,4,5,5,6,6,10,10,11,11,12,12,14,14,15,15,16,16,17,17,20,20,21,21],"right_children":[2,4,6,8,10,12,14,-1,-1,-1,16,18,20,-1,22,24,26,28,-1,-1,30,32,-1,-1,-1,-1,-1,-1,-1,-1,-1,-1,-1],"split_conditions":[1.6520436E3,4.8285713E1,2.8125E1,1.122E2,7.6923075E0,1.01470585E1,2.04E1,-2.5E0,2.5E-1,-3.5E-1,1.0397321E2,5.4E1,4.650326E1,-4.5000002E-1,1.131E2,1.1700263E2,1.0182927E0,1.154E2,-8.5E-1,-5.5E-1,1.166E2,1.0837358E1,-1.5E-1,2.1500002E-1,-3E-1,-1.5E-1,4E-1,1E-1,-6E-1,5E-2,-5E-2,5E-2,-4.7E-1],"split_indices":[78,15,31,1,21,53,59,0,0,0,36,14,24,0,45,132,76,9,0,0,8,29,0,0,0,0,0,0,0,0,0,0,0],"split_type":[0,0,0,0,0,0,0,0,0,0,0,0,0,0,0,0,0,0,0,0,0,0,0,0,0,0,0,0,0,0,0,0,0],"sum_hessian":[4.54E2,3.56E2,9.8E1,4E0,3.52E2,3.1E1,6.7E1,3E0,1E0,2E0,3.5E2,1.2E1,1.9E1,3E0,6.4E1,2.01E2,1.49E2,3E0,9E0,3E0,1.6E1,6.2E1,2E0,1.62E2,3.9E1,1E0,1.48E2,2E0,1E0,1.3E1,3E0,4.9E1,1.3E1],"tree_param":{"num_deleted":"0","num_feature":"140","num_nodes":"33","size_leaf_vector":"1"}},{"base_weights":[9.684688E-3,-2.6999998E-1,2.9879522E-2,-5.5E-1,-2.3529408E-2,-3.3749998E-2,3.665049E-2,-7.272727E-1,3.7500001E-3,4.6153846E-3,-3.2E-1,5.1275514E-2,-2.3809522E-1,-4.05E-2,2.5000002E-3,-3E-2,3.3333336E-3,-1.6129032E-1,6.933702E-2,-5.7777774E-1,1.5384618E-2,-1.75E-2,4.6428572E-3,4.1159424E-3,-9.166666E-3,3.3333336E-3,-3.857143E-2,4.5833336E-3,-2.2499999E-2],"categories":[],"categories_nodes":[],"categories_segments":[],"categories_sizes":[],"default_left":[0,0,0,0,0,0,0,0,0,0,0,0,0,0,0,0,0,0,0,0,0,0,0,0,0,0,0,0,0],"id":1,"left_children":[1,3,5,7,9,-1,11,13,-1,-1,15,17,19,-1,-1,-1,-1,21,23,25,27,-1,-1,-1,-1,-1,-1,-1,-1],"loss_changes":[2.5158617E0,2.0574117E0,2.0054162E0,1.6056819E0,6.133574E-1,0E0,1.6676915E0,7.47818E-1,0E0,0E0,5.813333E-1,1.5161728E0,1.8170453E0,0E0,0E0,0E0,0E0,1.5192626E0,1.2024962E0,1.1746027E0,5.027564E-1,0E0,0E0,0E0,0E0,0E0,0E0,0E0,0E0],"parents":[2147483647,0,0,1,1,2,2,3,3,4,4,6,6,7,7,10,10,11,11,12,12,17,17,18,18,19,19,20,20],"right_children":[2,4,6,8,10,-1,12,14,-1,-1,16,18,20,-1,-1,-1,-1,22,24,26,28,-1,-1,-1,-1,-1,-1,-1,-1],"split_conditions":[1.032E2,1.01875E2,7.6923075E0,-6.867207E-2,8E0,-3.3250007E-1,3.34E1,5.975E1,1.8925019E-1,1.1249985E-1,1.161E2,2.358E2,1.1155556E2,-3.7250001E0,1.38E0,-4.2750016E-1,2.4749985E-1,6.6964287E-1,3.9254385E-1,1.034E2,9E1,-4.3499985E-1,1.7855011E-1,2.3925018E-1,-3.0299988E-1,1.43E0,-5.700001E-1,5.2670014E-1,-6.349999E-1],"split_indices":[41,4,21,118,73,0,63,14,0,0,1,139,12,0,0,0,0,75,28,9,26,0,0,0,0,0,0,0,0],"split_type":[0,0,0,0,0,0,0,0,0,0,0,0,0,0,0,0,0,0,0,0,0,0,0,0,0,0,0,0,0],"sum_hessian":[4.43E2,2.9E1,4.14E2,1.3E1,1.6E1,3E0,4.11E2,1E1,3E0,1.2E1,4E0,3.91E2,2E1,9E0,1E0,2E0,2E0,3E1,3.61E2,8E0,1.2E1,1.7E1,1.3E1,3.44E2,1.7E1,2E0,6E0,1.1E1,1E0],"tree_param":{"num_deleted":"0","num_feature":"140","num_nodes":"29","size_leaf_vector":"1"}},{"base_weights":[1.0491075E-2,-1.6307692E-1,3.9843753E-2,-5.3125E-1,-4.1999996E-2,3.7067565E-9,8.3152175E-2,-7.416667E-1,4E-3,-3.4285712E-1,6.818185E-3,-1.2954545E-1,3.6075953E-2,9.371429E-2,-1.0999999E-1,-4.0909093E-2,2.5000002E-3,3.7500001E-3,-3.3749998E-2,-2.4444443E-1,6.944445E-2,-5.1E-1,-1.7142853E-2,-1.2173913E-1,6.25E-2,4.97093E-3,-1.75E-1,-3E-2,4.375E-3,4.166667E-3,-3.3749998E-2,-2.2499999E-2,4.857143E-3,3.3333336E-3,-3.3125E-2,3.1666667E-3,-2.0833334E-2,-2.499998E-4,-3.3749998E-2,-1.4375E-2,4.186047E-3,3.3333336E-3,-2.2499999E-2],"categories":[],"categories_nodes":[],"categories_segments":[],"categories_sizes":[],"default_left":[0,0,0,0,0,0,0,0,0,0,0,0,0,0,0,0,0,0,0,0,0,0,0,0,0,0,0,0,0,0,0,0,0,0,0,0,0,0,0,0,0,0,0],"id":2,"left_children":[1,3,5,7,9,11,13,15,-1,17,19,21,23,25,27,-1,-1,-1,-1,29,31,33,35,37,39,-1,41,-1,-1,-1,-1,-1,-1,-1,-1,-1,-1,-1,-1,-1,-1,-1,-1],"loss_changes":[2.2889166E0,2.8752093E0,6.6261894E-1,2.117209E0,7.3670256E-1,9.4404197E-1,3.8568604E-1,7.6780224E-1,0E0,1.0221429E0,7.093434E-1,1.8728764E0,6.664866E-1,2.8564358E-1,1.0202498E0,0E0,0E0,0E0,0E0,1.3263888E0,5.616746E-1,9.2358327E-1,1.1517142E0,1.4821303E0,1.0341861E0,0E0,2.958333E-1,0E0,0E0,0E0,0E0,0E0,0E0,0E0,0E0,0E0,0E0,0E0,0E0,0E0,0E0,0E0,0E0],"parents":[2147483647,0,0,1,1,2,2,3,3,4,4,5,5,6,6,7,7,9,9,10,10,11,11,12,12,13,13,14,14,19,19,20,20,21,21,22,22,23,23,24,24,26,26],"right_children":[2,4,6,8,10,12,14,16,-1,18,20,22,24,26,28,-1,-1,-1,-1,30,32,34,36,38,40,-1,42,-1,-1,-1,-1,-1,-1,-1,-1,-1,-1,-1,-1,-1,-1,-1,-1],"split_conditions":[1.0129464E2,1.063E2,5.85E1,1.142E2,2E0,3.860465E0,4.2632564E-14,1.178E2,3.374977E-2,1.128E2,5.42E1,-6.425887E0,1.8E1,1.328E2,8.44656E0,-3.2470002E0,3.305374E-1,2.7287675E-2,-5.415001E-1,1.09333336E2,4.4814816E1,2.71E1,5E0,1.72E1,1.111E2,4.180374E-1,1.119E2,-6.032497E-1,1.2728767E-1,3.553734E-2,-2.7271232E-1,-8.7084964E-2,1.5641251E-1,3.8362503E-1,-3.194626E-1,1.2728767E-1,-1.2271233E-1,-1.8899994E-1,-6.227123E-1,-3.1587526E-1,1.4482246E-1,1.2180375E0,-2.1324997E-1],"split_indices":[74,45,43,12,68,55,124,0,0,32,47,118,59,41,61,0,0,0,0,70,24,31,50,59,0,0,1,0,0,0,0,0,0,0,0,0,0,0,0,0,0,0,0],"split_type":[0,0,0,0,0,0,0,0,0,0,0,0,0,0,0,0,0,0,0,0,0,0,0,0,0,0,0,0,0,0,0,0,0,0,0,0,0,0,0,0,0,0,0],"sum_hessian":[4.47E2,6.4E1,3.83E2,1.5E1,4.9E1,2E2,1.83E2,1.1E1,4E0,6E0,4.3E1,4.3E1,1.57E2,1.74E2,9E0,1E1,1E0,3E0,3E0,8E0,3.5E1,9E0,3.4E1,2.2E1,1.35E2,1.71E2,3E0,2E0,7E0,5E0,3E0,1E0,3.4E1,2E0,7E0,2.9E1,5E0,1.9E1,3E0,7E0,1.28E2,2E0,1E0],"tree_param":{"num_deleted":"0","num_feature":"140","num_nodes":"43","size_leaf_vector":"1"}},{"base_weights":[8.078606E-3,4.7546014E-2,-8.87218E-2,-3E-2,5.3395063E-2,-2.0142856E-1,3.5937503E-2,2.083337E-3,9.392265E-2,-3.02E-1,4.761905E-2,-2.4444443E-1,8.035714E-2,-4.125E-1,2.6277374E-2,4.9722227E-3,-2.2499999E-2,-5.238095E-1,-1.3666666E-1,-2.2499999E-2,4.75E-3,4.166667E-3,-3.3749998E-2,4.909091E-3,-2.2499999E-2,3.3333336E-3,-2.9166667E-2,-7.2E-3,3.1858408E-3,3.7500001E-3,-3.138889E-2,-3.6E-2,-9.6153823E-4],"categories":[],"categories_nodes":[],"categories_segments":[],"categories_sizes":[],"default_left":[0,0,0,0,0,0,0,0,0,0,0,0,0,0,0,0,0,0,0,0,0,0,0,0,0,0,0,0,0,0,0,0,0],"id":3,"left_children":[1,3,5,-1,7,9,11,13,15,17,19,21,23,25,27,-1,-1,29,31,-1,-1,-1,-1,-1,-1,-1,-1,-1,-1,-1,-1,-1,-1],"loss_changes":[1.7539895E0,1.2667713E0,1.8758816E0,0E0,6.735754E-1,1.7676761E0,8.167286E-1,1.4552234E0,5.8837044E-1,1.7620378E0,5.3788096E-1,1.3263888E0,5.7357466E-1,6.937499E-1,8.825625E-1,0E0,0E0,1.3544846E0,2.041282E0,0E0,0E0,0E0,0E0,0E0,0E0,0E0,0E0,0E0,0E0,0E0,0E0,0E0,0E0],"parents":[2147483647,0,0,1,1,2,2,4,4,5,5,6,6,7,7,8,8,9,9,10,10,11,11,12,12,13,13,14,14,17,17,18,18],"right_children":[2,4,6,-1,8,10,12,14,16,18,20,22,24,26,28,-1,-1,30,32,-1,-1,-1,-1,-1,-1,-1,-1,-1,-1,-1,-1,-1,-1],"split_conditions":[1.174255E2,9.36E1,1.0397321E2,-2.3546147E0,1.12333336E2,3.6461796E1,5.3E1,1.8E1,5.8E1,3.95E0,1.0058036E2,1.07E2,4E0,1.078E2,9.705882E0,4.063858E-1,-9.367523E-2,9.446809E0,2.48E1,-1.0390015E-1,2.1463548E-1,1.05796434E-1,-4.307518E-1,3.2213554E-1,-5.5491257E-2,3.2748756E-1,-5.9157676E-1,-3.3219147E-1,7.559819E-2,1.0452172E0,-6.6530025E-1,-4.658268E-1,-3.1168519E-2],"split_indices":[132,9,36,0,41,25,15,59,34,55,74,9,48,8,53,0,0,21,30,0,0,0,0,0,0,0,0,0,0,0,0,0,0],"split_type":[0,0,0,0,0,0,0,0,0,0,0,0,0,0,0,0,0,0,0,0,0,0,0,0,0,0,0,0,0,0,0,0,0],"sum_hessian":[4.57E2,3.25E2,1.32E2,2E0,3.23E2,6.9E1,6.3E1,1.43E2,1.8E2,4.9E1,2E1,8E0,5.5E1,7E0,1.36E2,1.79E2,1E0,2E1,2.9E1,1E0,1.9E1,5E0,3E0,5.4E1,1E0,2E0,5E0,2.4E1,1.12E2,3E0,1.7E1,4E0,2.5E1],"tree_param":{"num_deleted":"0","num_feature":"140","num_nodes":"33","size_leaf_vector":"1"}},{"base_weights":[7.708783E-3,-3.3749998E-2,1.357759E-2,2.6879273E-2,-2.1153845E-1,3.1121284E-2,-3E-2,2.1428574E-2,-4.4615382E-1,-3E-2,3.54023E-2,4.6153846E-3,-2.2499999E-2,-6.8888885E-1,4E-3,2.5449872E-3,-4.680851E-3,-3.9375E-2,2.5000002E-3],"categories":[],"categories_nodes":[],"categories_segments":[],"categories_sizes":[],"default_left":[0,0,0,0,0,0,0,0,0,0,0,0,0,0,0,0,0,0,0],"id":4,"left_children":[1,-1,3,5,7,9,-1,11,13,-1,15,-1,-1,17,-1,-1,-1,-1,-1],"loss_changes":[1.880287E0,0E0,1.3950981E0,1.1860739E0,1.4306593E0,1.2019459E0,0E0,5.093406E-1,1.7154188E0,0E0,8.7453437E-1,0E0,0E0,6.9513893E-1,0E0,0E0,0E0,0E0,0E0],"parents":[2147483647,0,0,2,2,3,3,4,4,5,5,7,7,8,8,10,10,13,13],"right_children":[2,-1,4,6,8,10,-1,12,14,-1,16,-1,-1,18,-1,-1,-1,-1,-1],"split_conditions":[4.54E1,-3.2586694E0,3.34E1,6.65E1,5.6685104E1,7.6923075E0,-1.693226E-1,6.28E1,1.28E2,-3.0386162E-1,8E0,1.6165487E-1,-1.709938E-2,1.0660714E2,8.666561E-1,1.371946E-1,-3.9556554E-1,-5.398224E-1,1.1601437E0],"split_indices":[10,0,63,14,56,21,0,11,40,0,73,0,0,4,0,0,0,0,0],"split_type":[0,0,0,0,0,0,0,0,0,0,0,0,0,0,0,0,0,0,0],"sum_hessian":[4.66E2,3E0,4.63E2,4.38E2,2.5E1,4.36E2,2E0,1.3E1,1.2E1,2E0,4.34E2,1.2E1,1E0,8E0,4E0,3.88E2,4.6E1,7E0,1E0],"tree_param":{"num_deleted":"0","num_feature":"140","num_nodes":"19","size_leaf_vector":"1"}},{"base_weights":[2.4678115E-2,-4.1666666E-1,3.0368766E-2,-3.3749998E-2,3.3333336E-3,3.7969097E-2,-3.5555553E-1,-3E-2,4.2128608E-2,4E-3,-3.6E-2,4.6085015E-2,-3.2E-1,-1.6483514E-3,3.3053223E-3,3.3333336E-3,-3E-2],"categories":[],"categories_nodes":[],"categories_segments":[],"categories_sizes":[],"default_left":[0,0,0,0,0,0,0,0,0,0,0,0,0,0,0,0,0],"id":5,"left_children":[1,3,5,-1,-1,7,9,-1,11,-1,-1,13,15,-1,-1,-1,-1],"loss_changes":[1.1830311E0,7.9416656E-1,1.3656836E0,0E0,0E0,1.227375E0,1.486222E0,0E0,6.609077E-1,0E0,0E0,7.0966184E-1,5.813333E-1,0E0,0E0,0E0,0E0],"parents":[2147483647,0,0,1,1,2,2,5,5,6,6,8,8,11,11,12,12],"right_children":[2,4,6,-1,-1,8,10,-1,12,-1,-1,14,16,-1,-1,-1,-1],"split_conditions":[1.0182927E0,5.2444443E1,3.522222E1,-3.095736E0,6.2920684E-1,7.6923075E0,1.0433962E1,-2.8866845E-1,6.625E1,1.896286E-3,-5.1283115E-1,5.36E1,1.052E2,-1.3385059E-1,1.8403031E-1,4.0031168E-1,-1.6085663E-1],"split_indices":[76,15,63,0,0,21,21,0,14,0,0,43,9,0,0,0,0],"split_type":[0,0,0,0,0,0,0,0,0,0,0,0,0,0,0,0,0],"sum_hessian":[4.65E2,5E0,4.6E2,3E0,2E0,4.52E2,8E0,2E0,4.5E2,4E0,4E0,4.46E2,4E0,9E1,3.56E2,2E0,2E0],"tree_param":{"num_deleted":"0","num_feature":"140","num_nodes":"17","size_leaf_vector":"1"}},{"base_weights":[2.1350766E-2,2.725275E-2,-5.2E-1,-3.0499995E-2,7.2265625E-2,-3.3749998E-2,2.5000002E-3,-1.4507768E-2,-4.125E-1,7.98419E-2,-4.2499998E-1,-1.18333325E-1,3.2089554E-2,-3.6E-2,3.7500001E-3,8.373016E-2,-2.2499999E-2,2.5000002E-3,-3E-2,-3.859649E-3,-3.3749998E-2,-2.125E-2,2.2900763E-3,-6.6666664E-3,4.569672E-3],"categories":[],"categories_nodes":[],"categories_segments":[],"categories_sizes":[],"default_left":[0,0,0,0,0,0,0,0,0,0,0,0,0,0,0,0,0,0,0,0,0,0,0,0,0],"id":6,"left_children":[1,3,5,7,9,-1,-1,11,13,15,17,19,21,-1,-1,23,-1,-1,-1,-1,-1,-1,-1,-1,-1],"loss_changes":[1.4806966E0,1.18503E0,4.7549987E-1,1.2158217E0,9.98392E-1,0E0,0E0,9.3753E-1,1.2532499E0,5.589001E-1,3.6249995E-1,1.3219824E0,8.5932404E-1,0E0,0E0,4.313674E-1,0E0,0E0,0E0,0E0,0E0,0E0,0E0,0E0,0E0],"parents":[2147483647,0,0,1,1,2,2,3,3,4,4,7,7,8,8,9,9,10,10,11,11,12,12,15,15],"right_children":[2,4,6,8,10,-1,-1,12,14,16,18,20,22,-1,-1,24,-1,-1,-1,-1,-1,-1,-1,-1,-1],"split_conditions":[3.7E1,1.126E2,1.078E2,1.1255009E2,5.9E1,-2.9409492E0,1.1279995E0,-4.1783457E0,1.157E2,6.56E1,1.145E2,1.136E2,-2E0,-3.4154472E-1,7.705952E-1,4.88E1,-1.5281372E-1,1.1897472E0,-4.871895E-1,-2.5442937E-1,-2.7399445E-1,-5.102612E-1,3.2057956E-2,-1.5295716E-1,3.188299E-1],"split_indices":[30,41,1,131,59,0,0,135,32,14,0,45,85,0,0,42,0,0,0,0,0,0,0,0,0],"split_type":[0,0,0,0,0,0,0,0,0,0,0,0,0,0,0,0,0,0,0,0,0,0,0,0,0],"sum_hessian":[4.58E2,4.54E2,4E0,1.99E2,2.55E2,3E0,1E0,1.92E2,7E0,2.52E2,3E0,5.9E1,1.33E2,4E0,3E0,2.51E2,1E0,1E0,2E0,5.6E1,3E0,3E0,1.3E2,8E0,2.43E2],"tree_param":{"num_deleted":"0","num_feature":"140","num_nodes":"25","size_leaf_vector":"1"}},{"base_weights":[1.5367969E-2,-4.8571426E-1,2.302632E-2,-3.6E-2,3.3333336E-3,3.0425059E-2,-3.1E-1,-1.813725E-2,7.090164E-2,4.166667E-3,-3.6E-2,-3.25E-1,1.0362731E-3,7.866109E-2,-2.4999999E-1,-3.6E-2,-1.8749997E-3,-1.1052631E-2,1.257143E-3,-1.2499999E-2,4.337607E-3,3.7500001E-3,-3E-2],"categories":[],"categories_nodes":[],"categories_segments":[],"categories_sizes":[],"default_left":[0,0,0,0,0,0,0,0,0,0,0,0,0,0,0,0,0,0,0,0,0,0,0],"id":7,"left_children":[1,3,5,-1,-1,7,9,11,13,-1,-1,15,17,19,21,-1,-1,-1,-1,-1,-1,-1,-1],"loss_changes":[1.7840922E0,9.539046E-1,1.1330044E0,0E0,0E0,8.799254E-1,1.6726665E0,1.2005994E0,6.2723005E-1,0E0,0E0,1.3357499E0,1.0388423E0,6.572399E-1,7.2749996E-1,0E0,0E0,0E0,0E0,0E0,0E0,0E0,0E0],"parents":[2147483647,0,0,1,1,2,2,5,5,6,6,7,7,8,8,11,11,12,12,13,13,14,14],"right_children":[2,4,6,-1,-1,8,10,12,14,-1,-1,16,18,20,22,-1,-1,-1,-1,-1,-1,-1,-1],"split_conditions":[4.7E1,4.125E0,3.49E1,-2.793902E0,1.3724251E0,1.12333336E2,1.0433962E1,2.304E2,3.46E1,1.9836426E-4,-4.6282998E-1,4E0,1.0053571E2,4.88E1,5.7629253E1,-3.8672486E-1,-1.5877838E-1,-4.299081E-1,1.105919E-2,-1.4530945E-1,2.7826163E-1,6.499672E-1,-4.4121668E-1],"split_indices":[10,23,63,0,0,41,21,139,31,0,0,16,4,42,24,0,0,0,0,0,0,0,0],"split_type":[0,0,0,0,0,0,0,0,0,0,0,0,0,0,0,0,0,0,0,0,0,0,0],"sum_hessian":[4.61E2,6E0,4.55E2,4E0,2E0,4.46E2,9E0,2.03E2,2.43E2,5E0,4E0,1.1E1,1.92E2,2.38E2,5E0,4E0,7E0,1.8E1,1.74E2,5E0,2.33E2,3E0,2E0],"tree_param":{"num_deleted":"0","num_feature":"140","num_nodes":"23","size_leaf_vector":"1"}},{"base_weights":[2.1521742E-2,-5.2E-1,2.7412284E-2,-3.3749998E-2,2.5000002E-3,-3E-2,3.14978E-2,-1.4830505E-2,8.127854E-2,1.9680854E-2,-1.4693877E-1,8.5779816E-2,-2.2499999E-2,-4.9019605E-3,3.1521742E-3,-1.6666649E-4,-1.775E-2,4.5161294E-3,-2.2499999E-2],"categories":[],"categories_nodes":[],"categories_segments":[],"categories_sizes":[],"default_left":[0,0,0,0,0,0,0,0,0,0,0,0,0,0,0,0,0,0,0],"id":8,"left_children":[1,3,5,-1,-1,-1,7,9,11,13,15,17,-1,-1,-1,-1,-1,-1,-1],"loss_changes":[1.4815882E0,4.7549987E-1,1.1877649E0,0E0,0E0,0E0,1.0482463E0,1.0788716E0,5.623244E-1,9.658552E-1,1.4628739E0,5.7123995E-1,0E0,0E0,0E0,0E0,0E0,0E0,0E0],"parents":[2147483647,0,0,1,1,2,2,6,6,7,7,8,8,9,9,10,10,11,11],"right_children":[2,4,6,-1,-1,-1,8,10,12,14,16,18,-1,-1,-1,-1,-1,-1,-1],"split_conditions":[9.948661E1,1.128E2,7.6923075E0,-2.654207E0,1.0838432E0,-2.6206666E-1,1.16E2,1.191E2,6.65E1,1.145E2,1.1272696E2,1.26875E2,-1.5908585E-1,-3.121289E-1,5.338333E-2,-6.38771E-3,-4.396885E-1,2.5535667E-1,-1.3055344E-1],"split_indices":[74,0,21,0,0,0,33,44,14,0,5,64,0,0,0,0,0,0,0],"split_type":[0,0,0,0,0,0,0,0,0,0,0,0,0,0,0,0,0,0,0],"sum_hessian":[4.59E2,4E0,4.55E2,3E0,1E0,2E0,4.53E2,2.35E2,2.18E2,1.87E2,4.8E1,2.17E2,1E0,5E1,1.37E2,2.9E1,1.9E1,2.16E2,1E0],"tree_param":{"num_deleted":"0","num_feature":"140","num_nodes":"19","size_leaf_vector":"1"}},{"base_weights":[2.5708064E-2,-4.1666666E-1,3.14978E-2,-3.3749998E-2,3.3333336E-3,6.1341856E-2,-3.4507036E-2,-2.1E-1,7.006579E-2,3.696853E-9,-4.0833333E-1,4.166667E-3,-5.2E-1,7.896552E-2,-1.0666666E-1,-4.1666666E-1,1.9841272E-2,-3.857143E-2,4.166667E-3,-3.3749998E-2,2.5000002E-3,4.1145836E-3,-1.3333333E-2,-2.5999999E-2,4.545455E-3,3.3333336E-3,-3.3749998E-2,2.3008853E-3,-9.642857E-3],"categories":[],"categories_nodes":[],"categories_segments":[],"categories_sizes":[],"default_left":[0,0,0,0,0,0,0,0,0,0,0,0,0,0,0,0,0,0,0,0,0,0,0,0,0,0,0,0,0],"id":9,"left_children":[1,3,5,-1,-1,7,9,11,13,15,17,-1,19,21,23,25,27,-1,-1,-1,-1,-1,-1,-1,-1,-1,-1,-1,-1],"loss_changes":[1.18873E0,7.9416656E-1,8.964294E-1,0E0,0E0,7.556379E-1,1.8317488E0,9.5266664E-1,4.8657572E-1,1.0912699E0,2.206547E0,0E0,4.7549987E-1,3.5533524E-1,1.2722424E0,7.9416656E-1,7.1040314E-1,0E0,0E0,0E0,0E0,0E0,0E0,0E0,0E0,0E0,0E0,0E0,0E0],"parents":[2147483647,0,0,1,1,2,2,5,5,6,6,7,7,8,8,9,9,10,10,12,12,13,13,14,14,15,15,16,16],"right_children":[2,4,6,-1,-1,8,10,12,14,16,18,-1,20,22,24,26,28,-1,-1,-1,-1,-1,-1,-1,-1,-1,-1,-1,-1],"split_conditions":[9.948661E1,1.128E2,1.1676047E2,-2.5214965E0,1.0296509E0,2.1153439E1,4.04E1,1.11666664E2,8E0,2.316E2,8.49032E0,2.4616204E-1,6.4E1,9.6732715E2,1.153E2,1.045E2,3.6525613E-1,-3.971714E-1,6.681328E-1,-1.3523331E-1,3.8827172E-1,1.293412E-1,-4.696949E-1,-4.084343E-1,5.1830787E-2,6.877869E-1,-1.0595703E0,1.3466527E-1,-4.016481E-1],"split_indices":[74,0,132,0,0,25,27,9,73,139,29,0,11,121,0,9,60,0,0,0,0,0,0,0,0,0,0,0,0],"split_type":[0,0,0,0,0,0,0,0,0,0,0,0,0,0,0,0,0,0,0,0,0,0,0,0,0,0,0,0,0],"sum_hessian":[4.58E2,5E0,4.53E2,3E0,2E0,3.12E2,1.41E2,9E0,3.03E2,1.3E2,1.1E1,5E0,4E0,2.89E2,1.4E1,5E0,1.25E2,6E0,5E0,3E0,1E0,2.87E2,2E0,4E0,1E1,2E0,3E0,1.12E2,1.3E1],"tree_param":{"num_deleted":"0","num_feature":"140","num_nodes":"29","size_leaf_vector":"1"}},{"base_weights":[2.1398308E-2,-3.347639E-2,7.458334E-2,-1.3574657E-2,-3.6923075E-1,7.866109E-2,-2.2499999E-2,-1.515625E-1,4.2405065E-2,4E-3,-5.7777774E-1,-2.2499999E-2,8.277311E-2,-3.6E-2,-1.0166666E-1,5.3896107E-2,-3.2E-1,3.3333336E-3,-3.857143E-2,8.691984E-2,-2.2499999E-2,-1.2499999E-2,5.7142874E-4,3.2885906E-3,-1.2499999E-2,3.3333336E-3,-3E-2,4.746544E-3,1.7739478E-10],"categories":[],"categories_nodes":[],"categories_segments":[],"categories_sizes":[],"default_left":[0,0,0,0,0,0,0,0,0,0,0,0,0,0,0,0,0,0,0,0,0,0,0,0,0,0,0,0,0],"id":10,"left_children":[1,3,5,7,9,11,-1,13,15,-1,17,-1,19,-1,21,23,25,-1,-1,27,-1,-1,-1,-1,-1,-1,-1,-1,-1],"loss_changes":[1.3800344E0,1.5519158E0,5.4878676E-1,1.7135462E0,1.2641368E0,5.568018E-1,0E0,1.7420102E0,6.752237E-1,0E0,1.1746027E0,0E0,5.6491816E-1,0E0,1.0094047E0,5.7222605E-1,5.813333E-1,0E0,0E0,1.650275E-1,0E0,0E0,0E0,0E0,0E0,0E0,0E0,0E0,0E0],"parents":[2147483647,0,0,1,1,2,2,3,3,4,4,5,5,7,7,8,8,10,10,12,12,14,14,15,15,16,16,19,19],"right_children":[2,4,6,8,10,12,-1,14,16,-1,18,-1,20,-1,22,24,26,-1,-1,28,-1,-1,-1,-1,-1,-1,-1,-1,-1],"split_conditions":[1.16E2,4.9512196E0,6.54E1,1.145E2,4.2E1,7.6923075E0,-1.312729E-1,2.222E2,6.0333332E1,1.2314873E-1,1.0853333E2,-5.844116E-4,7.857143E0,-2.3954217E0,7.1E1,9.8E1,1.156E2,1.258606E-1,-3.7731287E-1,3.21E1,-3.4316253E-2,-4.5054957E-1,-7.6645084E-2,3.9359555E-2,-2.6821747E-1,8.978779E-1,-3.9762154E-1,2.6973644E-1,3.7102667E-3],"split_indices":[33,23,14,0,2,21,0,138,59,0,64,0,75,0,26,26,0,0,0,63,0,0,0,0,0,0,0,0,0],"split_type":[0,0,0,0,0,0,0,0,0,0,0,0,0,0,0,0,0,0,0,0,0,0,0,0,0,0,0,0,0],"sum_hessian":[4.71E2,2.32E2,2.39E2,2.2E2,1.2E1,2.38E2,1E0,6.3E1,1.57E2,4E0,8E0,1E0,2.37E2,4E0,5.9E1,1.53E2,4E0,2E0,6E0,2.36E2,1E0,2.5E1,3.4E1,1.48E2,5E0,2E0,2E0,2.16E2,2E1],"tree_param":{"num_deleted":"0","num_feature":"140","num_nodes":"29","size_leaf_vector":"1"}},{"base_weights":[3.310345E-2,-3E-2,3.7413396E-2,-1.8333332E-1,4.6875004E-2,-5.833333E-1,1.5384618E-2,5.1213596E-2,-3.2E-1,-3.6E-2,2.5000002E-3,-2.2499999E-2,4.5833336E-3,1.7351601E-2,8.917526E-2,3.3333336E-3,-3E-2,-1.2083333E-2,1.6105771E-3,4.7150264E-3,-2.2499999E-2],"categories":[],"categories_nodes":[],"categories_segments":[],"categories_sizes":[],"default_left":[0,0,0,0,0,0,0,0,0,0,0,0,0,0,0,0,0,0,0,0,0],"id":11,"left_children":[1,-1,3,5,7,9,11,13,15,-1,-1,-1,-1,17,19,-1,-1,-1,-1,-1,-1],"loss_changes":[1.2094073E0,0E0,9.129654E-1,1.4397435E0,6.7854434E-1,5.553334E-1,5.027564E-1,5.2806115E-1,5.813333E-1,0E0,0E0,0E0,0E0,8.5071456E-1,5.7853746E-1,0E0,0E0,0E0,0E0,0E0,0E0],"parents":[2147483647,0,0,2,2,3,3,4,4,5,5,6,6,7,7,8,8,13,13,14,14],"right_children":[2,-1,4,6,8,10,12,14,16,-1,-1,-1,-1,18,20,-1,-1,-1,-1,-1,-1],"split_conditions":[7.6923075E0,-2.3290291E-1,1.002E2,1.0087054E2,3.8E1,5.5E1,2.388889E1,5.85E1,4.9E1,-2.2756505E0,6.745186E-2,-3.4859735E-1,6.3517384E-2,5.16E1,8.214286E0,1.3032284E0,-3.376007E-1,-4.647765E-1,1.4293062E-2,3.082926E-1,-3.2600403E-2],"split_indices":[21,0,45,74,63,2,31,43,2,0,0,0,0,14,75,0,0,0,0,0,0],"split_type":[0,0,0,0,0,0,0,0,0,0,0,0,0,0,0,0,0,0,0,0,0],"sum_hessian":[4.34E2,2E0,4.32E2,1.7E1,4.15E2,5E0,1.2E1,4.11E2,4E0,4E0,1E0,1E0,1.1E1,2.18E2,1.93E2,2E0,2E0,1.1E1,2.07E2,1.92E2,1E0],"tree_param":{"num_deleted":"0","num_feature":"140","num_nodes":"21","size_leaf_vector":"1"}},{"base_weights":[3.3991233E-2,-5.2E-1,4.004425E-2,-3.3749998E-2,2.5000002E-3,6.7731634E-2,-2.2142854E-2,7.664474E-2,-2.1E-1,-2.060606E-1,3.4259263E-2,7.986799E-2,-2.2499999E-2,-3.3749998E-2,4.2857146E-3,-4.0909085E-2,-4.9166664E-1,5.1428575E-2,-4.2499998E-1,4.297945E-3,-3.75E-3,-2.5999999E-2,4.722222E-3,-3.4444444E-2,3.7500001E-3,-1.2499999E-2,3.4500004E-3,-3E-2,2.5000002E-3],"categories":[],"categories_nodes":[],"categories_segments":[],"categories_sizes":[],"default_left":[0,0,0,0,0,0,0,0,0,0,0,0,0,0,0,0,0,0,0,0,0,0,0,0,0,0,0,0,0],"id":12,"left_children":[1,3,5,-1,-1,7,9,11,13,15,17,19,-1,-1,-1,21,23,25,27,-1,-1,-1,-1,-1,-1,-1,-1,-1,-1],"loss_changes":[1.549937E0,4.7549987E-1,7.7975255E-1,0E0,0E0,7.909117E-1,1.4593285E0,5.519829E-1,1.4329284E0,1.5364393E0,8.7345505E-1,2.9226303E-1,0E0,0E0,0E0,1.4757375E0,1.3927779E0,5.733857E-1,3.6249995E-1,0E0,0E0,0E0,0E0,0E0,0E0,0E0,0E0,0E0,0E0],"parents":[2147483647,0,0,1,1,2,2,5,5,6,6,7,7,8,8,9,9,10,10,11,11,15,15,16,16,17,17,18,18],"right_children":[2,4,6,-1,-1,8,10,12,14,16,18,20,-1,-1,-1,22,24,26,28,-1,-1,-1,-1,-1,-1,-1,-1,-1,-1],"split_conditions":[9.691173E1,1.152E2,1.9915333E0,-2.1618679E0,6.507149E-1,1.284E2,1.992263E-1,7.12E1,1.0417411E2,5.78E1,4.888889E0,1.2350699E2,-1.4012413E-1,-2.6774293E-1,2.0212479E-1,-1.1912007E1,1.174E2,9.983687E1,1.164E2,1.3729446E-1,-3.239368E-1,-4.4909897E-1,7.017708E-2,-4.6035385E-1,7.408878E-1,-3.311676E-1,6.4079285E-2,-3.738621E-1,2.7923736E-1],"split_indices":[129,0,83,0,0,13,28,10,74,14,23,132,0,0,0,135,12,133,0,0,0,0,0,0,0,0,0,0,0],"split_type":[0,0,0,0,0,0,0,0,0,0,0,0,0,0,0,0,0,0,0,0,0,0,0,0,0,0,0,0,0],"sum_hessian":[4.55E2,4E0,4.51E2,3E0,1E0,3.12E2,1.39E2,3.03E2,9E0,3.2E1,1.07E2,3.02E2,1E0,3E0,6E0,2.1E1,1.1E1,1.04E2,3E0,2.91E2,1.1E1,4E0,1.7E1,8E0,3E0,5E0,9.9E1,2E0,1E0],"tree_param":{"num_deleted":"0","num_feature":"140","num_nodes":"29","size_leaf_vector":"1"}},{"base_weights":[3.073497E-2,4.068182E-2,-4.1E-1,-5.2E-1,4.7018353E-2,-6.285714E-1,3.7500001E-3,-3.3749998E-2,2.5000002E-3,8.6283185E-2,4.73934E-3,-3.75E-2,2.5000002E-3,9.0625E-2,-2.6666665E-1,-1.4634146E-1,4.0935677E-2,-1.3333333E-2,4.7522523E-3,2.5000002E-3,-2.2499999E-2,6.2500016E-4,-1.75E-2,-1.4375E-2,2.835366E-3],"categories":[],"categories_nodes":[],"categories_segments":[],"categories_sizes":[],"default_left":[0,0,0,0,0,0,0,0,0,0,0,0,0,0,0,0,0,0,0,0,0,0,0,0,0],"id":13,"left_children":[1,3,5,7,9,11,-1,-1,-1,13,15,-1,-1,17,19,21,23,-1,-1,-1,-1,-1,-1,-1,-1],"loss_changes":[1.9850619E0,1.5876716E0,1.1072142E0,4.7549987E-1,7.233853E-1,6.142857E-1,0E0,0E0,0E0,3.7049866E-1,1.1598592E0,0E0,0E0,3.7909627E-1,1.9666664E-1,1.3307014E0,9.020782E-1,0E0,0E0,0E0,0E0,0E0,0E0,0E0,0E0],"parents":[2147483647,0,0,1,1,2,2,3,3,4,4,5,5,9,9,10,10,13,13,14,14,15,15,16,16],"right_children":[2,4,6,8,10,12,-1,-1,-1,14,16,-1,-1,18,20,22,24,-1,-1,-1,-1,-1,-1,-1,-1],"split_conditions":[3.522222E1,1.0182927E0,1.28E2,5.2444443E1,3E0,1.186E2,8.6665994E-1,-2.0537746E0,5.381691E-1,7.12E1,3.8392856E0,-3.7695846E-1,5.09256E-1,-4E0,1.119E2,2.45283E0,2.358E2,-4.7836304E-3,1.6307366E-1,1.9327328E0,-1.3311806E-1,6.8199956E-3,-3.7160233E-1,-1.0290565E0,6.260674E-2],"split_indices":[63,76,40,15,72,9,0,0,0,10,55,0,0,85,1,54,139,0,0,0,0,0,0,0,0],"split_type":[0,0,0,0,0,0,0,0,0,0,0,0,0,0,0,0,0,0,0,0,0,0,0,0,0],"sum_hessian":[4.48E2,4.39E2,9E0,4E0,4.35E2,6E0,3E0,3E0,1E0,2.25E2,2.1E2,5E0,1E0,2.23E2,2E0,4E1,1.7E2,2E0,2.21E2,1E0,1E0,2.3E1,1.7E1,7E0,1.63E2],"tree_param":{"num_deleted":"0","num_feature":"140","num_nodes":"25","size_leaf_vector":"1"}},{"base_weights":[3.6853936E-2,-3E-2,4.1083526E-2,7.743363E-2,3.2110128E-3,-2.2499999E-2,8.177778E-2,-1.4199999E-1,4.6153847E-2,-2.6666665E-1,8.6098656E-2,-7.608695E-2,-3.6E-2,-3.4285712E-1,6.257669E-2,-2.2499999E-2,2.5000002E-3,4.5227273E-3,-8.75E-3,-2.3333332E-2,9.210528E-4,3.7500001E-3,-3.3749998E-2,-1.6E-2,3.710692E-3],"categories":[],"categories_nodes":[],"categories_segments":[],"categories_sizes":[],"default_left":[0,0,0,0,0,0,0,0,0,0,0,0,0,0,0,0,0,0,0,0,0,0,0,0,0],"id":14,"left_children":[1,-1,3,5,7,-1,9,11,13,15,17,19,-1,21,23,-1,-1,-1,-1,-1,-1,-1,-1,-1,-1],"loss_changes":[1.2233155E0,0E0,6.096161E-1,5.5462265E-1,1.3659523E0,0E0,3.617164E-1,1.8501041E0,1.1011393E0,1.9666664E-1,2.6945114E-1,1.7065904E0,0E0,1.0221429E0,7.4944097E-1,0E0,0E0,0E0,0E0,0E0,0E0,0E0,0E0,0E0,0E0],"parents":[2147483647,0,0,2,2,3,3,4,4,6,6,7,7,8,8,9,9,10,10,11,11,13,13,14,14],"right_children":[2,-1,4,6,8,-1,10,12,14,16,18,20,-1,22,24,-1,-1,-1,-1,-1,-1,-1,-1,-1,-1],"split_conditions":[1.063E2,-1.9510857E0,3E0,-1E1,3.911111E0,-2.6250917E-1,-4E0,1.162E2,2.358E2,1.191E2,7.12E1,1.9330855E-1,-3.5811043E-1,1.11666664E2,1E0,-4.544449E-3,2.038424E0,1.716923E-1,-1.2646218E-1,-4.1875574E-1,-2.696662E-2,5.396393E-1,-9.776039E-1,-2.8456077E-1,5.1713493E-2],"split_indices":[0,0,72,125,55,0,85,45,139,0,10,28,0,9,16,0,0,0,0,0,0,0,0,0,0],"split_type":[0,0,0,0,0,0,0,0,0,0,0,0,0,0,0,0,0,0,0,0,0,0,0,0,0],"sum_hessian":[4.44E2,2E0,4.42E2,2.25E2,2.17E2,1E0,2.24E2,4.9E1,1.68E2,2E0,2.22E2,4.5E1,4E0,6E0,1.62E2,1E0,1E0,2.19E2,3E0,8E0,3.7E1,3E0,3E0,4E0,1.58E2],"tree_param":{"num_deleted":"0","num_feature":"140","num_nodes":"25","size_leaf_vector":"1"}},{"base_weights":[2.7412284E-2,-4.125E-1,3.5189312E-2,3.7500001E-3,-3.6E-2,1.8797029E-3,8.3152175E-2,-1.4130434E-1,3.167421E-2,8.8524595E-2,-2.2499999E-2,-8.837209E-2,-3.3749998E-2,-3.2E-1,3.963134E-2,9.3956046E-2,-2.2499999E-2,-1.5384614E-3,-2.5999999E-2,3.3333336E-3,-3E-2,2.3943663E-3,-1.6E-2,4.971098E-3,-4.999998E-4],"categories":[],"categories_nodes":[],"categories_segments":[],"categories_sizes":[],"default_left":[0,0,0,0,0,0,0,0,0,0,0,0,0,0,0,0,0,0,0,0,0,0,0,0,0],"id":15,"left_children":[1,3,5,-1,-1,7,9,11,13,15,-1,17,-1,19,21,23,-1,-1,-1,-1,-1,-1,-1,-1,-1],"loss_changes":[1.5745876E0,1.2532499E0,7.1717703E-1,0E0,0E0,1.1392578E0,5.6687E-1,1.2398355E0,6.3111E-1,5.775498E-1,0E0,1.0531092E0,0E0,5.813333E-1,6.596212E-1,1.04409456E-1,0E0,0E0,0E0,0E0,0E0,0E0,0E0,0E0,0E0],"parents":[2147483647,0,0,1,1,2,2,5,5,6,6,7,7,8,8,9,9,11,11,13,13,14,14,15,15],"right_children":[2,4,6,-1,-1,8,10,12,14,16,-1,18,-1,20,22,24,-1,-1,-1,-1,-1,-1,-1,-1,-1],"split_conditions":[4.8285713E1,3.1783964E1,5.8875E1,9.464264E-4,-1.8535315E0,2.0053476E-1,7.12E1,5.8666668E1,2.388889E1,7.455357E0,-1.20138936E-1,2.1333334E1,-4.3236008E-1,5.76E1,1.22625E2,4.46E1,-3.4321215E-2,-2.3828475E-1,-2.301239E-1,3.4267046E-2,-4.2387316E-1,3.0100137E-2,-3.40205E-1,2.2399126E-1,-1.4726254E-2],"split_indices":[15,25,47,0,0,28,10,47,31,75,0,27,0,10,70,59,0,0,0,0,0,0,0,0,0],"split_type":[0,0,0,0,0,0,0,0,0,0,0,0,0,0,0,0,0,0,0,0,0,0,0,0,0],"sum_hessian":[4.55E2,7E0,4.48E2,3E0,4E0,2.65E2,1.83E2,4.5E1,2.2E2,1.82E2,1E0,4.2E1,3E0,4E0,2.16E2,1.81E2,1E0,3.8E1,4E0,2E0,2E0,2.12E2,4E0,1.72E2,9E0],"tree_param":{"num_deleted":"0","num_feature":"140","num_nodes":"25","size_leaf_vector":"1"}},{"base_weights":[3.2949314E-2,-3E-2,3.7268523E-2,4.329412E-2,-2.875E-1,9.049777E-3,8E-2,4E-3,-3.3749998E-2,-2.05E-1,3.0198023E-2,8.4803924E-2,-2.2499999E-2,-1.5624998E-3,-3.6E-2,-1.7525771E-3,4.4811326E-3,4.4827587E-3,-2.2499999E-2],"categories":[],"categories_nodes":[],"categories_segments":[],"categories_sizes":[],"default_left":[0,0,0,0,0,0,0,0,0,0,0,0,0,0,0,0,0,0,0],"id":16,"left_children":[1,-1,3,5,7,9,11,-1,-1,13,15,17,-1,-1,-1,-1,-1,-1,-1],"loss_changes":[1.208848E0,0E0,8.578385E-1,5.3348786E-1,1.19325E0,1.0066084E0,5.601077E-1,0E0,0E0,1.7671248E0,7.863824E-1,5.696162E-1,0E0,0E0,0E0,0E0,0E0,0E0,0E0],"parents":[2147483647,0,0,2,2,3,3,4,4,5,5,6,6,9,9,10,10,11,11],"right_children":[2,-1,4,6,8,10,12,-1,-1,14,16,18,-1,-1,-1,-1,-1,-1,-1],"split_conditions":[1.071E2,-1.760855E0,3.55E1,1.16E2,1.0433962E1,-2.544643E0,6.65E1,4.8363686E-1,-3.231949E-1,1.1625E2,2.95E1,1.3333333E2,-1.1413193E-1,-3.416353E-1,-4.107422E-1,-7.978668E-2,6.583985E-2,2.168895E-1,-3.260498E-2],"split_indices":[1,0,63,33,21,75,14,0,0,45,27,65,0,0,0,0,0,0,0],"split_type":[0,0,0,0,0,0,0,0,0,0,0,0,0,0,0,0,0,0,0],"sum_hessian":[4.33E2,2E0,4.31E2,4.24E2,7E0,2.2E2,2.04E2,4E0,3E0,1.9E1,2.01E2,2.03E2,1E0,1.5E1,4E0,9.6E1,1.05E2,2.02E2,1E0],"tree_param":{"num_deleted":"0","num_feature":"140","num_nodes":"19","size_leaf_vector":"1"}},{"base_weights":[3.642534E-2,-4.2499998E-1,4.05467E-2,-3E-2,2.5000002E-3,4.787736E-2,-1.5625E-1,5.375303E-2,-1.5833333E-1,4.545455E-3,-5.833333E-1,5.6067962E-2,-2.2499999E-2,-5.2E-1,4.375E-3,2.5000002E-3,-3.6E-2,5.0955435E-4,4.199219E-3,2.5000002E-3,-3.3749998E-2],"categories":[],"categories_nodes":[],"categories_segments":[],"categories_sizes":[],"default_left":[0,0,0,0,0,0,0,0,0,0,0,0,0,0,0,0,0,0,0,0,0],"id":17,"left_children":[1,3,5,-1,-1,7,9,11,13,-1,15,17,-1,19,-1,-1,-1,-1,-1,-1,-1],"loss_changes":[8.577832E-1,3.6249995E-1,6.408041E-1,0E0,0E0,5.222401E-1,1.7419505E0,5.0685275E-1,1.1124166E0,0E0,5.553334E-1,5.267999E-1,0E0,4.7549987E-1,0E0,0E0,0E0,0E0,0E0,0E0,0E0],"parents":[2147483647,0,0,1,1,2,2,5,5,6,6,7,7,8,8,10,10,11,11,13,13],"right_children":[2,4,6,-1,-1,8,10,12,14,-1,16,18,-1,20,-1,-1,-1,-1,-1,-1,-1],"split_conditions":[4.8285713E1,1.122E2,1.2351772E1,-2.0546952E-1,1.03572465E-1,1.284E2,1.13666664E2,7.4E1,1.0417411E2,5.373946E-1,1.111E2,1.1077464E2,-3.868103E-4,1.125E2,1.8150559E-1,1.446812E0,-3.8191453E-1,2.9828267E-3,1.8208459E-1,6.279858E-1,-2.5418052E-1],"split_indices":[15,1,29,0,0,13,13,43,74,0,0,131,0,0,0,0,0,0,0,0,0],"split_type":[0,0,0,0,0,0,0,0,0,0,0,0,0,0,0,0,0,0,0,0,0],"sum_hessian":[4.41E2,3E0,4.38E2,2E0,1E0,4.23E2,1.5E1,4.12E2,1.1E1,1E1,5E0,4.11E2,1E0,4E0,7E0,1E0,4E0,1.56E2,2.55E2,1E0,3E0],"tree_param":{"num_deleted":"0","num_feature":"140","num_nodes":"21","size_leaf_vector":"1"}},{"base_weights":[3.6739133E-2,-1.2592591E-1,4.6774197E-2,-3.6923075E-1,4.666667E-3,5.0930236E-2,-3.2E-1,-3.75E-2,-3.7499994E-2,8.284519E-2,1.0937504E-2,3.3333336E-3,-3E-2,4.2857146E-3,-2.2499999E-2,-1.75E-1,8.686441E-2,5.0694447E-2,-1.0612244E-1,3.3333336E-3,-2.2499999E-2,4.9759615E-3,-3.448274E-4,3.4701494E-3,-9.090909E-3,-2.6874999E-2,-1.0714283E-3],"categories":[],"categories_nodes":[],"categories_segments":[],"categories_sizes":[],"default_left":[0,0,0,0,0,0,0,0,0,0,0,0,0,0,0,0,0,0,0,0,0,0,0,0,0,0,0],"id":18,"left_children":[1,3,5,7,-1,9,11,-1,13,15,17,-1,-1,-1,-1,19,21,23,25,-1,-1,-1,-1,-1,-1,-1,-1],"loss_changes":[7.5677294E-1,1.4748263E0,6.778559E-1,1.6139421E0,0E0,5.479313E-1,5.813333E-1,0E0,4.4517857E-1,2.628857E-1,8.9893734E-1,0E0,0E0,0E0,0E0,2.958333E-1,2.8070688E-1,6.390146E-1,1.7786989E0,0E0,0E0,0E0,0E0,0E0,0E0,0E0,0E0],"parents":[2147483647,0,0,1,1,2,2,3,3,5,5,6,6,8,8,9,9,10,10,15,15,16,16,17,17,18,18],"right_children":[2,4,6,8,-1,10,12,-1,14,16,18,-1,-1,-1,-1,20,22,24,26,-1,-1,-1,-1,-1,-1,-1,-1],"split_conditions":[5.18E1,5.8333332E1,6.0333332E1,2.6788685E-1,3.7281132E-1,9.781345E0,1.15E2,-1.6625385E0,1.187E2,-6.875E0,1.1415094E1,1.1655235E0,-3.1613922E-1,4.5891076E-1,-5.220032E-3,1.105E2,8E0,3.6956522E-1,5.47E1,2.2801323E-1,-7.01828E-3,1.3064416E-1,-1.659095E-1,8.511498E-2,-2.2834443E-1,-2.828312E-1,-1.579193E-2],"split_indices":[14,43,59,60,0,61,0,0,1,75,21,0,0,0,0,8,73,28,15,0,0,0,0,0,0,0,0],"split_type":[0,0,0,0,0,0,0,0,0,0,0,0,0,0,0,0,0,0,0,0,0,0,0,0,0,0,0],"sum_hessian":[4.59E2,2.6E1,4.33E2,1.2E1,1.4E1,4.29E2,4E0,5E0,7E0,2.38E2,1.91E2,2E0,2E0,6E0,1E0,3E0,2.35E2,1.43E2,4.8E1,2E0,1E0,2.07E2,2.8E1,1.33E2,1E1,7E0,4.1E1],"tree_param":{"num_deleted":"0","num_feature":"140","num_nodes":"27","size_leaf_vector":"1"}},{"base_weights":[1.977778E-2,-2.6470585E-2,7.1361504E-2,-1.6304347E-1,6.2176203E-3,7.5943395E-2,-2.2499999E-2,4.2105265E-2,-2.9642856E-1,-3E-2,1.570681E-2,8.056872E-2,-2.2499999E-2,4.722222E-3,-2.2499999E-2,-4.285714E-1,4.375E-3,-1.0222222E-1,5.170068E-2,8.52381E-2,-2.2499999E-2,-2.7647058E-2,4E-3,4.7727274E-3,-1.3958334E-2,-6.3888887E-3,3.8076923E-3,4.4951923E-3,-1.3333333E-2],"categories":[],"categories_nodes":[],"categories_segments":[],"categories_sizes":[],"default_left":[0,0,0,0,0,0,0,0,0,0,0,0,0,0,0,0,0,0,0,0,0,0,0,0,0,0,0,0,0],"id":19,"left_children":[1,3,5,7,9,11,-1,13,15,-1,17,19,-1,-1,-1,21,-1,23,25,27,-1,-1,-1,-1,-1,-1,-1,-1,-1],"loss_changes":[1.0754372E0,1.0635226E0,5.429939E-1,1.2712152E0,1.1196592E0,5.519794E-1,0E0,5.318713E-1,1.4580355E0,0E0,8.160269E-1,5.610937E-1,0E0,0E0,0E0,1.3725042E0,0E0,1.6006489E0,6.548868E-1,3.6877334E-1,0E0,0E0,0E0,0E0,0E0,0E0,0E0,0E0,0E0],"parents":[2147483647,0,0,1,1,2,2,3,3,4,4,5,5,7,7,8,8,10,10,11,11,15,15,17,17,18,18,19,19],"right_children":[2,4,6,8,10,12,-1,14,16,-1,18,20,-1,-1,-1,22,-1,24,26,28,-1,-1,-1,-1,-1,-1,-1,-1,-1],"split_conditions":[1.1621863E1,9.842105E0,5.1E1,7.26E1,5.19E1,6.39E1,-2.0172845E-1,6.3333332E1,1.0584821E2,-1.5794117E0,5.2670902E1,5.9E1,-1.1072541E-2,9.834091E-2,-2.4797821E-2,1.0375E2,2.5540313E-1,3E0,1.9330855E-1,6.625E1,-3.0033228E-1,-5.626243E-1,2.5906068E-1,1.1114152E-1,-2.1395974E-1,-3.263608E-1,6.575966E-2,1.4013551E-1,-1.0338783E-1],"split_indices":[79,53,27,58,46,46,0,43,4,0,56,59,0,0,0,36,0,72,28,14,0,0,0,0,0,0,0,0,0],"split_type":[0,0,0,0,0,0,0,0,0,0,0,0,0,0,0,0,0,0,0,0,0,0,0,0,0,0,0,0,0],"sum_hessian":[4.49E2,2.37E2,2.12E2,4.5E1,1.92E2,2.11E2,1E0,1.8E1,2.7E1,2E0,1.9E2,2.1E2,1E0,1.7E1,1E0,2E1,7E0,4.4E1,1.46E2,2.09E2,1E0,1.6E1,4E0,2.1E1,2.3E1,1.7E1,1.29E2,2.07E2,2E0],"tree_param":{"num_deleted":"0","num_feature":"140","num_nodes":"29","size_leaf_vector":"1"}},{"base_weights":[2.7729262E-2,-3.5555553E-1,3.5333335E-2,-3.6E-2,4E-3,4.4341803E-2,-1.8333332E-1,4.652778E-2,-2.2499999E-2,-3.9999995E-2,-3.3749998E-2,1.2785392E-2,8.0841124E-2,4.6153846E-3,-3E-2,1.3349516E-3,-9.642857E-3,4.2723003E-3,-2.2499999E-2],"categories":[],"categories_nodes":[],"categories_segments":[],"categories_sizes":[],"default_left":[0,0,0,0,0,0,0,0,0,0,0,0,0,0,0,0,0,0,0],"id":20,"left_children":[1,3,5,-1,-1,7,9,11,-1,13,-1,15,17,-1,-1,-1,-1,-1,-1],"loss_changes":[1.3474163E0,1.486222E0,8.945626E-1,0E0,0E0,4.888457E-1,1.2414999E0,4.9914217E-1,0E0,1.1667691E0,0E0,6.317598E-1,5.61566E-1,0E0,0E0,0E0,0E0,0E0,0E0],"parents":[2147483647,0,0,1,1,2,2,5,5,6,6,7,7,9,9,11,11,12,12],"right_children":[2,4,6,-1,-1,8,10,12,-1,14,-1,16,18,-1,-1,-1,-1,-1,-1],"split_conditions":[4.8285713E1,4.464286E-2,1.2351772E1,-1.5004412E0,7.1451955E-2,9.642858E0,1.166E1,1.16E2,-2.3558045E-2,4E0,-5.1340487E-2,4.52E1,6.65E1,3.2070222E-1,-3.5075647E-1,1.0214462E-2,-2.6572725E-1,1.493416E-1,-9.821854E-2],"split_indices":[15,75,29,0,0,75,21,33,0,16,0,59,14,0,0,0,0,0,0],"split_type":[0,0,0,0,0,0,0,0,0,0,0,0,0,0,0,0,0,0,0],"sum_hessian":[4.57E2,8E0,4.49E2,4E0,4E0,4.32E2,1.7E1,4.31E2,1E0,1.4E1,3E0,2.18E2,2.13E2,1.2E1,2E0,2.05E2,1.3E1,2.12E2,1E0],"tree_param":{"num_deleted":"0","num_feature":"140","num_nodes":"19","size_leaf_vector":"1"}},{"base_weights":[3.0818969E-2,-3E-2,3.484849E-2,7.147887E-2,-2.3463683E-2,7.491166E-2,-2.2499999E-2,2.834646E-2,-1.471698E-1,8.1386864E-2,-1.0999999E-1,-1.3461538E-1,6.960785E-2,-4.4615382E-1,-4.8780482E-2,-1.3333333E-2,4.246324E-3,4.375E-3,-3E-2,-1.7391302E-3,-3.3749998E-2,4.421053E-3,-8.125E-3,-3.0499998E-2,3.7500001E-3,-1.7777776E-2,1.818182E-3],"categories":[],"categories_nodes":[],"categories_segments":[],"categories_sizes":[],"default_left":[0,0,0,0,0,0,0,0,0,0,0,0,0,0,0,0,0,0,0,0,0,0,0,0,0,0,0],"id":21,"left_children":[1,-1,3,5,7,9,-1,11,13,15,17,19,21,23,25,-1,-1,-1,-1,-1,-1,-1,-1,-1,-1,-1,-1],"loss_changes":[1.2003493E0,0E0,9.885079E-1,5.4210615E-1,1.1514242E0,3.4779954E-1,0E0,8.6332226E-1,1.5373287E0,3.6020792E-1,1.0202498E0,1.3791721E0,4.5977116E-1,1.1558077E0,1.0838531E0,0E0,0E0,0E0,0E0,0E0,0E0,0E0,0E0,0E0,0E0,0E0,0E0],"parents":[2147483647,0,0,2,2,3,3,4,4,5,5,7,7,8,8,9,9,10,10,11,11,12,12,13,13,14,14],"right_children":[2,-1,4,6,8,10,-1,12,14,16,18,20,22,24,26,-1,-1,-1,-1,-1,-1,-1,-1,-1,-1,-1,-1],"split_conditions":[1.063E2,-1.4254191E0,1.2008364E0,6.65E1,1.1301887E1,1.284E2,-9.3307495E-2,5.21E1,9.343046E0,7.6923075E0,2.95E1,1.122E2,4E0,4.422624E0,2.8E1,-2.0875779E-1,1.3878785E-1,9.967423E-3,-2.3385277E-1,-1.8823391E-1,-2.2245789E-1,1.503355E-1,-3.3321878E-1,-3.6293107E-1,4.041176E-2,-6.0162735E-1,9.975815E-4],"split_indices":[0,0,83,14,21,13,0,47,29,21,30,33,16,83,31,0,0,0,0,0,0,0,0,0,0,0,0],"split_type":[0,0,0,0,0,0,0,0,0,0,0,0,0,0,0,0,0,0,0,0,0,0,0,0,0,0,0],"sum_hessian":[4.63E2,2E0,4.61E2,2.83E2,1.78E2,2.82E2,1E0,1.26E2,5.2E1,2.73E2,9E0,2.5E1,1.01E2,1.2E1,4E1,2E0,2.71E2,7E0,2E0,2.2E1,3E0,9.4E1,7E0,9E0,3E0,8E0,3.2E1],"tree_param":{"num_deleted":"0","num_feature":"140","num_nodes":"27","size_leaf_vector":"1"}},{"base_weights":[3.2812502E-2,-1.5137611E-2,7.792208E-2,-1.5813953E-1,1.9886367E-2,8.217391E-2,-2.2499999E-2,-5.3749996E-1,-6.944444E-2,4.873418E-2,-2.2105262E-1,-2.2499999E-2,8.6462885E-2,3.3333336E-3,-3.75E-2,3.6051195E-9,-4.1666666E-1,-2.2499999E-2,5.477707E-2,-5.1E-1,4.5000003E-3,9.0789475E-2,-2.2499999E-2,-1.6E-2,2.9629632E-3,-3.3749998E-2,3.3333336E-3,-1.3333333E-2,3.0322582E-3,-3.857143E-2,3.7500001E-3,4.7533633E-3,-4.1666664E-3],"categories":[],"categories_nodes":[],"categories_segments":[],"categories_sizes":[],"default_left":[0,0,0,0,0,0,0,0,0,0,0,0,0,0,0,0,0,0,0,0,0,0,0,0,0,0,0,0,0,0,0,0,0],"id":22,"left_children":[1,3,5,7,9,11,-1,13,15,17,19,-1,21,-1,-1,23,25,-1,27,29,-1,31,-1,-1,-1,-1,-1,-1,-1,-1,-1,-1,-1],"loss_changes":[9.7020775E-1,1.0949969E0,5.554894E-1,1.4095124E0,1.234072E0,5.6387806E-1,0E0,1.0770831E0,8.680555E-1,5.008296E-1,1.7535789E0,0E0,5.723772E-1,0E0,0E0,6.068148E-1,7.9416656E-1,0E0,3.1231502E-1,1.587214E0,0E0,1.7775047E-1,0E0,0E0,0E0,0E0,0E0,0E0,0E0,0E0,0E0,0E0,0E0],"parents":[2147483647,0,0,1,1,2,2,3,3,4,4,5,5,7,7,8,8,9,9,10,10,12,12,15,15,16,16,18,18,19,19,21,21],"right_children":[2,4,6,8,10,12,-1,14,16,18,20,-1,22,-1,-1,24,26,-1,28,30,-1,32,-1,-1,-1,-1,-1,-1,-1,-1,-1,-1,-1],"split_conditions":[1.16E2,2.0053476E-1,7.12E1,5.142595E1,6.065402E1,2.25E1,-8.864212E-2,4.3E1,2.08E1,1.063E2,2.8333333E0,-6.9221496E-3,7.455357E0,4.2825088E-1,-3.165577E-1,1.0978358E2,2.5227273E0,-5.088839E-1,9.9E1,1.164E2,3.8391113E-2,3E0,-1.0687256E-2,-3.4478456E-1,5.2805483E-2,-2.1133499E-1,6.1570436E-1,-2.300766E-1,2.6644329E-2,-2.870266E-1,4.9138567E-1,1.34935E-1,-1.02492146E-1],"split_indices":[33,28,10,24,24,30,0,2,27,0,123,0,75,0,0,5,22,0,45,0,0,85,0,0,0,0,0,0,0,0,0,0,0],"split_type":[0,0,0,0,0,0,0,0,0,0,0,0,0,0,0,0,0,0,0,0,0,0,0,0,0,0,0,0,0,0,0,0,0],"sum_hessian":[4.47E2,2.17E2,2.3E2,4.2E1,1.75E2,2.29E2,1E0,7E0,3.5E1,1.57E2,1.8E1,1E0,2.28E2,2E0,5E0,3E1,5E0,1E0,1.56E2,9E0,9E0,2.27E2,1E0,4E0,2.6E1,3E0,2E0,2E0,1.54E2,6E0,3E0,2.22E2,5E0],"tree_param":{"num_deleted":"0","num_feature":"140","num_nodes":"33","size_leaf_vector":"1"}},{"base_weights":[4.1845497E-2,-3E-2,4.5905177E-2,-3.2E-1,4.978261E-2,-3E-2,3.3333336E-3,5.5333335E-2,-1.8181817E-1,5.7461027E-2,-2.2499999E-2,4.375E-3,-3.3749998E-2,3.1536699E-3,-6.0714283E-3],"categories":[],"categories_nodes":[],"categories_segments":[],"categories_sizes":[],"default_left":[0,0,0,0,0,0,0,0,0,0,0,0,0,0,0],"id":23,"left_children":[1,-1,3,5,7,-1,-1,9,11,13,-1,-1,-1,-1,-1],"loss_changes":[1.241793E0,0E0,6.742415E-1,5.813333E-1,6.014147E-1,0E0,0E0,5.0969446E-1,1.5201135E0,4.5845246E-1,0E0,0E0,0E0,0E0,0E0],"parents":[2147483647,0,0,2,2,3,3,4,4,7,7,8,8,9,9],"right_children":[2,-1,4,6,8,-1,-1,10,12,14,-1,-1,-1,-1,-1],"split_conditions":[1.063E2,-1.3287039E0,2.3E1,1.1457244E2,3.522222E1,-2.6788598E-1,1.2675019E-1,9.642858E0,2.4642856E0,1.2427741E1,-1.0152817E-2,1.623459E-2,-2.7341157E-1,5.8308262E-2,-1.8551719E-1],"split_indices":[0,0,30,37,63,0,0,75,22,29,0,0,0,0,0],"split_type":[0,0,0,0,0,0,0,0,0,0,0,0,0,0,0],"sum_hessian":[4.65E2,2E0,4.63E2,4E0,4.59E2,2E0,2E0,4.49E2,1E1,4.48E2,1E0,7E0,3E0,4.35E2,1.3E1],"tree_param":{"num_deleted":"0","num_feature":"140","num_nodes":"15","size_leaf_vector":"1"}},{"base_weights":[2.8354982E-2,-3E-2,3.2391306E-2,-7.1111075E-3,6.991526E-2,-2.642857E-1,9.905664E-3,7.404256E-2,-2.2499999E-2,-9.999996E-3,-3.6E-2,7.7419356E-2,-4.2499997E-2,7.820513E-2,-2.2499999E-2,-2.2499999E-2,4.4444446E-3,-2.5E-3,4.9375E-3,-1.0775861E-3,-2.5999999E-2,-1.3333333E-2,4.1163797E-3],"categories":[],"categories_nodes":[],"categories_segments":[],"categories_sizes":[],"default_left":[0,0,0,0,0,0,0,0,0,0,0,0,0,0,0,0,0,0,0,0,0,0,0],"id":24,"left_children":[1,-1,3,5,7,9,11,13,-1,15,-1,17,19,21,-1,-1,-1,-1,-1,-1,-1,-1,-1],"loss_changes":[1.1911801E0,0E0,6.823491E-1,9.872812E-1,5.3973866E-1,1.6151426E0,7.533675E-1,5.478134E-1,0E0,4.751111E-1,0E0,2.5770557E-1,1.1891294E0,3.5463655E-1,0E0,0E0,0E0,0E0,0E0,0E0,0E0,0E0,0E0],"parents":[2147483647,0,0,2,2,3,3,4,4,5,5,6,6,7,7,9,9,11,11,12,12,13,13],"right_children":[2,-1,4,6,8,10,12,14,-1,16,-1,18,20,22,-1,-1,-1,-1,-1,-1,-1,-1,-1],"split_conditions":[1.063E2,-1.2622687E0,1.16E2,-2.857143E0,6.65E1,1.075E1,9.794294E0,7.857143E0,-8.712578E-2,4.4814816E1,-2.755909E-1,4.916517E1,6.2833332E1,-4E0,-9.645081E-3,-1.3996887E-2,3.3555984E-2,-1.5145798E-1,5.6565475E-2,-4.769981E-2,-2.9145393E-1,-8.596802E-3,1.4119454E-1],"split_indices":[0,0,33,75,14,53,61,75,0,24,0,24,46,85,0,0,0,0,0,0,0,0,0],"split_type":[0,0,0,0,0,0,0,0,0,0,0,0,0,0,0,0,0,0,0,0,0,0,0],"sum_hessian":[4.61E2,2E0,4.59E2,2.24E2,2.35E2,1.3E1,2.11E2,2.34E2,1E0,9E0,4E0,9.2E1,1.19E2,2.33E2,1E0,1E0,8E0,1.3E1,7.9E1,1.15E2,4E0,2E0,2.31E2],"tree_param":{"num_deleted":"0","num_feature":"140","num_nodes":"23","size_leaf_vector":"1"}}]},"name":"gbtree"},"learner_model_param":{"base_score":"[9.8E1]","boost_from_average":"1","num_class":"0","num_feature":"140","num_target":"1"},"objective":{"name":"reg:quantileerror","quantile_loss_param":{"quantile_alpha":"[1E-1]"}}},"version":[3,2,0]}