{"learner":{"attributes":{"best_iteration":"26","best_score":"12.027794406179579","scikit_learn":"{\"_estimator_type\": \"regressor\"}"},"feature_names":[],"feature_types":[],"gradient_booster":{"model":{"cats":{"enc":[],"feature_segments":[],"sorted_idx":[]},"gbtree_model_param":{"num_parallel_tree":"1","num_trees":"57"},"iteration_indptr":[0,1,2,3,4,5,6,7,8,9,10,11,12,13,14,15,16,17,18,19,20,21,22,23,24,25,26,27,28,29,30,31,32,33,34,35,36,37,38,39,40,41,42,43,44,45,46,47,48,49,50,51,52,53,54,55,56,57],"tree_info":[0,0,0,0,0,0,0,0,0,0,0,0,0,0,0,0,0,0,0,0,0,0,0,0,0,0,0,0,0,0,0,0,0,0,0,0,0,0,0,0,0,0,0,0,0,0,0,0,0,0,0,0,0,0,0,0,0],"trees":[{"base_weights":[-5.469131E-1,-6.9039183E0,3.3969543E0,-3.0736763E0,-1.0114223E1,7.0583916E0,-4.6635836E-1,-4.791519E0,8.655267E-1,-1.2333341E0,-2.5916219E0,3.1117148E0,1.0254013E1,-3.857148E0,3.0423253E0,-7.293268E-1,-9.383799E-2,2.952948E-1,-2.19251E-1,3.471224E-2,-4.2906165E-1,-2.637184E-1,5.9306604E-1,2.5256276E-1,1.1546499E0,1.4142008E-1,-6.0241944E-1,6.635687E-1,2.4371153E-2],"categories":[],"categories_nodes":[],"categories_segments":[],"categories_sizes":[],"default_left":[0,0,0,0,0,0,0,0,0,0,0,0,0,0,0,0,0,0,0,0,0,0,0,0,0,0,0,0,0],"id":0,"left_children":[1,3,5,7,9,11,13,15,17,-1,19,21,23,25,27,-1,-1,-1,-1,-1,-1,-1,-1,-1,-1,-1,-1,-1,-1],"loss_changes":[9.6148E3,1.5049429E3,3.391806E3,5.847811E2,7.943262E2,1.2407075E3,1.594066E3,4.5659497E2,2.5622916E2,0E0,1.4242621E2,1.1854915E3,2.3670215E2,7.9298535E2,6.2618195E2,0E0,0E0,0E0,0E0,0E0,0E0,0E0,0E0,0E0,0E0,0E0,0E0,0E0,0E0],"parents":[2147483647,0,0,1,1,2,2,3,3,4,4,5,5,6,6,7,7,8,8,10,10,11,11,12,12,13,13,14,14],"right_children":[2,4,6,8,10,12,14,16,18,-1,20,22,24,26,28,-1,-1,-1,-1,-1,-1,-1,-1,-1,-1,-1,-1,-1,-1],"split_conditions":[1.148E2,5.775E1,-9.0985825E1,4.712E2,1.0314732E2,2.86E1,1.0375E2,1.0160714E2,1.206E2,-1.2333341E0,4.1489363E0,4E0,1.11166626E2,1.09E2,2.5508317E-1,-7.293268E-1,-9.383799E-2,2.952948E-1,-2.19251E-1,3.471224E-2,-4.2906165E-1,-2.637184E-1,5.9306604E-1,2.5256276E-1,1.1546499E0,1.4142008E-1,-6.0241944E-1,6.635687E-1,2.4371153E-2],"split_indices":[1,47,79,139,74,59,36,74,40,0,23,50,132,41,60,0,0,0,0,0,0,0,0,0,0,0,0,0,0],"split_type":[0,0,0,0,0,0,0,0,0,0,0,0,0,0,0,0,0,0,0,0,0,0,0,0,0,0,0,0,0],"sum_hessian":[3.65E2,1.37E2,2.28E2,7.1E1,6.6E1,1.13E2,1.15E2,4.8E1,2.3E1,4.8E1,1.8E1,5.9E1,5.4E1,5.8E1,5.7E1,2.5E1,2.3E1,1.4E1,9E0,9E0,9E0,1.9E1,4E1,1E1,4.4E1,1.7E1,4.1E1,2E1,3.7E1],"tree_param":{"num_deleted":"0","num_feature":"140","num_nodes":"29","size_leaf_vector":"1"}},{"base_weights":[-2.1104716E-1,4.405363E0,-4.7221866E0,-1.2306364E0,5.8863206E0,-8.552979E0,-8.635024E-1,-3.0877507E0,2.4367201E-1,2.4552443E0,9.072232E0,-2.0626833E0,-1.054491E1,2.8514524E0,-3.9714766E0,1.655121E-2,-5.15285E-1,5.3689903E-1,-1.03763685E-1,-1.03335254E-1,1.1022404E0,-3.841824E-1,1.3550285E-1,-1.1817005E0,-2.3396349E-1,-1.0362149E-1,4.398308E-1,5.61356E-2,-5.7761663E-1],"categories":[],"categories_nodes":[],"categories_segments":[],"categories_sizes":[],"default_left":[0,0,0,0,0,0,0,0,0,0,0,0,0,0,0,0,0,0,0,0,0,0,0,0,0,0,0,0,0],"id":1,"left_children":[1,3,5,7,9,11,13,15,-1,17,19,21,23,25,27,-1,-1,-1,-1,-1,-1,-1,-1,-1,-1,-1,-1,-1,-1],"loss_changes":[8.019953E3,1.6597788E3,2.8053188E3,3.889111E2,1.4547026E3,1.0404033E3,1.3501156E3,2.3203473E2,0E0,8.865471E2,1.3869326E3,2.4470192E2,3.3209082E2,3.4516397E2,5.0042365E2,0E0,0E0,0E0,0E0,0E0,0E0,0E0,0E0,0E0,0E0,0E0,0E0,0E0,0E0],"parents":[2147483647,0,0,1,1,2,2,3,3,4,4,5,5,6,6,7,7,9,9,10,10,11,11,12,12,13,13,14,14],"right_children":[2,4,6,8,10,12,14,16,-1,18,20,22,24,26,28,-1,-1,-1,-1,-1,-1,-1,-1,-1,-1,-1,-1,-1,-1],"split_conditions":[0E0,1.144E2,1.0254464E2,4.285714E0,2.92E1,-4.464286E0,-4.017857E-1,2.4464285E0,2.4367201E-1,2.4313726E0,1.09910095E2,1.152E2,4E0,2.225E1,1.11E2,1.655121E-2,-5.15285E-1,5.3689903E-1,-1.03763685E-1,-1.03335254E-1,1.1022404E0,-3.841824E-1,1.3550285E-1,-1.1817005E0,-2.3396349E-1,-1.0362149E-1,4.398308E-1,5.61356E-2,-5.7761663E-1],"split_indices":[79,1,4,55,59,75,75,54,0,54,37,0,72,27,41,0,0,0,0,0,0,0,0,0,0,0,0,0,0],"split_type":[0,0,0,0,0,0,0,0,0,0,0,0,0,0,0,0,0,0,0,0,0,0,0,0,0,0,0,0,0],"sum_hessian":[3.66E2,1.81E2,1.85E2,3.8E1,1.43E2,8.7E1,9.8E1,2.6E1,1.2E1,7.7E1,6.6E1,2.5E1,6.2E1,4.5E1,5.3E1,1.3E1,1.3E1,4E1,3.7E1,1E1,5.6E1,1.6E1,9E0,5.2E1,1E1,1.3E1,3.2E1,1.6E1,3.7E1],"tree_param":{"num_deleted":"0","num_feature":"140","num_nodes":"29","size_leaf_vector":"1"}},{"base_weights":[3.9402056E-2,5.1147914E0,-4.0886984E0,7.148779E-1,7.4010024E0,-8.162864E0,1.1555268E0,-1.182705E0,4.6879527E-1,-3.087392E-1,8.607481E0,-9.067888E0,-1.8077187E-1,-1.1663725E0,5.1179795E0,-3.4649628E-1,7.41702E-2,-1.595416E-1,9.9974036E-1,-1.0123695E0,-1.7154233E-1,-3.41163E-1,3.7047184E-1,8.161411E-1,1.2491E-1],"categories":[],"categories_nodes":[],"categories_segments":[],"categories_sizes":[],"default_left":[0,0,0,0,0,0,0,0,0,0,0,0,0,0,0,0,0,0,0,0,0,0,0,0,0],"id":2,"left_children":[1,3,5,7,9,11,13,15,-1,-1,17,19,-1,21,23,-1,-1,-1,-1,-1,-1,-1,-1,-1,-1],"loss_changes":[7.92183E3,1.6550254E3,4.5461987E3,5.539175E2,1.636998E3,5.336387E2,9.7304553E2,2.4792499E2,0E0,0E0,1.3314819E3,4.516162E2,0E0,8.448945E2,3.3517365E2,0E0,0E0,0E0,0E0,0E0,0E0,0E0,0E0,0E0,0E0],"parents":[2147483647,0,0,1,1,2,2,3,3,4,4,5,5,6,6,7,7,10,10,11,11,13,13,14,14],"right_children":[2,4,6,8,10,12,14,16,-1,-1,18,20,-1,22,24,-1,-1,-1,-1,-1,-1,-1,-1,-1,-1],"split_conditions":[-2.9375284E1,1.131E2,1.0325893E2,3E0,2E0,1.158E2,3.0333334E1,2.5048923E-1,4.6879527E-1,-3.087392E-1,1.145E2,1.18965706E2,-1.8077187E-1,1.173E2,5.55E1,-3.4649628E-1,7.41702E-2,-1.595416E-1,9.9974036E-1,-1.0123695E0,-1.7154233E-1,-3.41163E-1,3.7047184E-1,8.161411E-1,1.2491E-1],"split_indices":[79,13,74,125,73,32,27,60,0,0,32,127,0,44,46,0,0,0,0,0,0,0,0,0,0],"split_type":[0,0,0,0,0,0,0,0,0,0,0,0,0,0,0,0,0,0,0,0,0,0,0,0,0],"sum_hessian":[3.59E2,1.6E2,1.99E2,5.9E1,1.01E2,1.09E2,9E1,4.4E1,1.5E1,9E0,9.2E1,9.2E1,1.7E1,6.1E1,2.9E1,1.7E1,2.7E1,9E0,8.3E1,8E1,1.2E1,4.4E1,1.7E1,1.1E1,1.8E1],"tree_param":{"num_deleted":"0","num_feature":"140","num_nodes":"25","size_leaf_vector":"1"}},{"base_weights":[1.4647773E-1,-4.0738783E0,3.5223794E0,5.973894E-2,-7.1520715E0,2.819316E-1,6.7811856E0,2.7623928E0,-4.137026E0,-2.092978E0,-9.147805E0,-1.9700725E0,3.4681876E0,-6.0085163E-2,7.593849E0,5.1269215E-1,-1.3640982E-1,-1.6993526E-2,-5.509017E-1,-3.842727E-1,1.8474667E-1,-3.0104482E-1,-1.1232393E0,-3.287406E-1,2.903874E-1,8.957933E-2,6.462158E-1,8.768936E-1,4.113238E-2],"categories":[],"categories_nodes":[],"categories_segments":[],"categories_sizes":[],"default_left":[0,0,0,0,0,0,0,0,0,0,0,0,0,0,0,0,0,0,0,0,0,0,0,0,0,0,0,0,0],"id":3,"left_children":[1,3,5,7,9,11,13,15,17,19,21,23,25,-1,27,-1,-1,-1,-1,-1,-1,-1,-1,-1,-1,-1,-1,-1,-1],"loss_changes":[5.5591714E3,2.2124666E3,2.26857E3,1.0569874E3,8.221758E2,9.1602374E2,6.865654E2,5.8254645E2,1.7139337E2,3.2649475E2,4.644663E2,5.363401E2,3.3425525E2,0E0,6.435073E2,0E0,0E0,0E0,0E0,0E0,0E0,0E0,0E0,0E0,0E0,0E0,0E0,0E0,0E0],"parents":[2147483647,0,0,1,1,2,2,3,3,4,4,5,5,6,6,7,7,8,8,9,9,10,10,11,11,12,12,14,14],"right_children":[2,4,6,8,10,12,14,16,18,20,22,24,26,-1,28,-1,-1,-1,-1,-1,-1,-1,-1,-1,-1,-1,-1,-1,-1],"split_conditions":[1.0287946E2,1.11E2,1.187E2,1.13300644E2,2.7333334E1,1.1265662E2,1.127E2,1.14046196E2,5.22E1,3.0478087E-1,1.127E2,5.923743E2,2.5106382E0,-6.0085163E-2,3E0,5.1269215E-1,-1.3640982E-1,-1.6993526E-2,-5.509017E-1,-3.842727E-1,1.8474667E-1,-3.0104482E-1,-1.1232393E0,-3.287406E-1,2.903874E-1,8.957933E-2,6.462158E-1,8.768936E-1,4.113238E-2],"split_indices":[74,41,1,5,30,37,32,132,15,28,45,120,22,0,16,0,0,0,0,0,0,0,0,0,0,0,0,0,0],"split_type":[0,0,0,0,0,0,0,0,0,0,0,0,0,0,0,0,0,0,0,0,0,0,0,0,0,0,0,0,0],"sum_hessian":[3.71E2,1.64E2,2.07E2,7.4E1,9E1,1.09E2,9.8E1,4.7E1,2.7E1,3.1E1,5.9E1,6.6E1,4.3E1,1E1,8.8E1,2.9E1,1.8E1,9E0,1.8E1,2.2E1,9E0,1.9E1,4E1,5.5E1,1.1E1,2.9E1,1.4E1,7.6E1,1.2E1],"tree_param":{"num_deleted":"0","num_feature":"140","num_nodes":"29","size_leaf_vector":"1"}},{"base_weights":[-4.6746925E-2,-4.506224E0,3.3983312E0,-7.1166863E0,8.283379E-1,-2.477234E0,4.4538755E0,-1.3804555E0,-4.9334273E0,-3.2138772E0,3.1742022E0,-5.47824E-1,1.3507573E-1,-9.6223146E-1,5.423027E0,-5.89829E-1,1.9350898E-1,-5.240988E-1,2.639561E-2,5.2881616E-1,-1.5470414E-1,1.5701693E-1,-3.6978817E-1,7.291144E-1,2.4309774E-1],"categories":[],"categories_nodes":[],"categories_segments":[],"categories_sizes":[],"default_left":[0,0,0,0,0,0,0,0,0,0,0,0,0,0,0,0,0,0,0,0,0,0,0,0,0],"id":4,"left_children":[1,3,5,7,9,11,13,-1,15,17,19,-1,-1,21,23,-1,-1,-1,-1,-1,-1,-1,-1,-1,-1],"loss_changes":[6.3309834E3,2.5568306E3,1.5477742E3,1.0513652E3,7.381337E2,5.1992175E2,1.102623E3,0E0,6.964326E2,2.0765594E2,5.1702637E2,0E0,0E0,3.0743158E2,7.2441846E2,0E0,0E0,0E0,0E0,0E0,0E0,0E0,0E0,0E0,0E0],"parents":[2147483647,0,0,1,1,2,2,3,3,4,4,5,5,6,6,8,8,9,9,10,10,13,13,14,14],"right_children":[2,4,6,8,10,12,14,-1,16,18,20,-1,-1,22,24,-1,-1,-1,-1,-1,-1,-1,-1,-1,-1],"split_conditions":[1.1127304E2,1.0325893E2,1.127E2,1.125E2,1.115E2,5.642857E1,1.106E2,-1.3804555E0,9.846154E0,1.16166664E2,1.1130435E1,-5.47824E-1,1.3507573E-1,1.14333336E2,-9.0985825E1,-5.89829E-1,1.9350898E-1,-5.240988E-1,2.639561E-2,5.2881616E-1,-1.5470414E-1,1.5701693E-1,-3.6978817E-1,7.291144E-1,2.4309774E-1],"split_indices":[6,74,32,32,8,14,33,0,123,44,53,0,0,69,79,0,0,0,0,0,0,0,0,0,0],"split_type":[0,0,0,0,0,0,0,0,0,0,0,0,0,0,0,0,0,0,0,0,0,0,0,0,0],"sum_hessian":[3.93E2,1.7E2,2.23E2,1.12E2,5.8E1,3.2E1,1.91E2,1.6E1,9.6E1,2E1,3.8E1,1.6E1,1.6E1,2.9E1,1.62E2,8.7E1,9E0,1E1,1E1,2.6E1,1.2E1,1.7E1,1.2E1,9.6E1,6.6E1],"tree_param":{"num_deleted":"0","num_feature":"140","num_nodes":"25","size_leaf_vector":"1"}},{"base_weights":[-1.0483532E-2,3.4688954E0,-4.500066E0,5.627981E0,3.3387133E-1,-6.677823E0,-1.3383847E0,4.0750822E-1,6.794311E0,-1.2205926E0,4.2008357E0,-8.283805E0,-1.2729824E0,-3.347092E0,2.4354534E0,-2.1825266E-1,3.203012E-1,-4.8507784E-2,7.9355067E-1,4.0976742E-1,-3.4157312E-1,6.705628E-2,5.692727E-1,-1.0048845E0,-2.7571192E-1,-3.8086787E-1,2.816202E-1,7.973314E-2,-4.6828893E-1,4.6630996E-1,-1.7747991E-1],"categories":[],"categories_nodes":[],"categories_segments":[],"categories_sizes":[],"default_left":[0,0,0,0,0,0,0,0,0,0,0,0,0,0,0,0,0,0,0,0,0,0,0,0,0,0,0,0,0,0,0],"id":5,"left_children":[1,3,5,7,9,11,13,15,17,19,21,23,25,27,29,-1,-1,-1,-1,-1,-1,-1,-1,-1,-1,-1,-1,-1,-1,-1,-1],"loss_changes":[6.2813525E3,1.5155557E3,1.1233438E3,7.867334E2,6.655013E2,7.8072363E2,7.1133765E2,3.020194E2,7.84647E2,1.0158462E3,1.16866516E2,3.99917E2,4.3729224E2,3.2943896E2,3.800057E2,0E0,0E0,0E0,0E0,0E0,0E0,0E0,0E0,0E0,0E0,0E0,0E0,0E0,0E0,0E0,0E0],"parents":[2147483647,0,0,1,1,2,2,3,3,4,4,5,5,6,6,7,7,8,8,9,9,10,10,11,11,12,12,13,13,14,14],"right_children":[2,4,6,8,10,12,14,16,18,20,22,24,26,28,30,-1,-1,-1,-1,-1,-1,-1,-1,-1,-1,-1,-1,-1,-1,-1,-1],"split_conditions":[1.1305329E2,-7.7531876E1,8.02E1,5.58E1,1.2151311E2,1.2006056E2,5.575E1,1.148E2,7.15E1,1.12E2,2.8222221E1,1.1463039E2,2.9761906E0,1.0729944E2,8.8333336E1,-2.1825266E-1,3.203012E-1,-4.8507784E-2,7.9355067E-1,4.0976742E-1,-3.4157312E-1,6.705628E-2,5.692727E-1,-1.0048845E0,-2.7571192E-1,-3.8086787E-1,2.816202E-1,7.973314E-2,-4.6828893E-1,4.6630996E-1,-1.7747991E-1],"split_indices":[5,79,58,15,133,131,15,33,58,70,63,130,123,126,58,0,0,0,0,0,0,0,0,0,0,0,0,0,0,0,0],"split_type":[0,0,0,0,0,0,0,0,0,0,0,0,0,0,0,0,0,0,0,0,0,0,0,0,0,0,0,0,0,0,0],"sum_hessian":[3.83E2,2.17E2,1.66E2,1.24E2,9.3E1,9.2E1,7.4E1,2.5E1,9.9E1,7.1E1,2.2E1,6.7E1,2.5E1,4.9E1,2.5E1,1.4E1,1.1E1,1.2E1,8.7E1,1.8E1,5.3E1,1E1,1.2E1,4.7E1,2E1,1.6E1,9E0,1.2E1,3.7E1,1.6E1,9E0],"tree_param":{"num_deleted":"0","num_feature":"140","num_nodes":"31","size_leaf_vector":"1"}},{"base_weights":[-4.82835E-1,2.7274566E0,-3.1355793E0,-7.7968633E-1,4.255073E0,-6.1767015E0,2.8664717E-1,-2.67458E0,2.200669E0,-2.0631099E-1,5.0183268E0,-8.249267E0,-1.4560457E0,3.3440206E0,-1.9749671E0,-4.2874473E-1,1.173719E-1,3.7961766E-1,-6.1364654E-2,1.5272683E-1,7.4073815E-1,-1.3325521E-1,-9.9564695E-1,2.311663E-1,-4.4271582E-1,-4.3215644E-2,4.872165E-1,-3.1774697E-1,2.7833804E-1],"categories":[],"categories_nodes":[],"categories_segments":[],"categories_sizes":[],"default_left":[0,0,0,0,0,0,0,0,0,0,0,0,0,0,0,0,0,0,0,0,0,0,0,0,0,0,0,0,0],"id":6,"left_children":[1,3,5,7,9,11,13,15,17,-1,19,21,23,25,27,-1,-1,-1,-1,-1,-1,-1,-1,-1,-1,-1,-1,-1,-1],"loss_changes":[3.3651948E3,9.9371436E2,2.2603386E3,4.0955734E2,7.0209766E2,1.00599854E3,8.275976E2,2.9124237E2,1.4567548E2,0E0,7.982217E2,6.7005273E2,5.882331E2,2.8778168E2,4.4794562E2,0E0,0E0,0E0,0E0,0E0,0E0,0E0,0E0,0E0,0E0,0E0,0E0,0E0,0E0],"parents":[2147483647,0,0,1,1,2,2,3,3,4,4,5,5,6,6,7,7,8,8,10,10,11,11,12,12,13,13,14,14],"right_children":[2,4,6,8,10,12,14,16,18,-1,20,22,24,26,28,-1,-1,-1,-1,-1,-1,-1,-1,-1,-1,-1,-1,-1,-1],"split_conditions":[-2.9375284E1,2.3888888E0,1.0375E2,1.0258929E2,1.137E2,2.96E1,1.7434703E2,-5.486037E-1,1.16E2,-2.0631099E-1,1.146E2,2.5E1,8.05E1,5.5142857E1,1.205E2,-4.2874473E-1,1.173719E-1,3.7961766E-1,-6.1364654E-2,1.5272683E-1,7.4073815E-1,-1.3325521E-1,-9.9564695E-1,2.311663E-1,-4.4271582E-1,-4.3215644E-2,4.872165E-1,-3.1774697E-1,2.7833804E-1],"split_indices":[79,22,36,36,32,31,79,135,33,0,13,59,26,14,12,0,0,0,0,0,0,0,0,0,0,0,0,0,0],"split_type":[0,0,0,0,0,0,0,0,0,0,0,0,0,0,0,0,0,0,0,0,0,0,0,0,0,0,0,0,0],"sum_hessian":[3.76E2,1.7E2,2.06E2,5.3E1,1.17E2,1.05E2,1.01E2,3.3E1,2E1,1.1E1,1.06E2,6.8E1,3.7E1,4.1E1,6E1,2.3E1,1E1,1.1E1,9E0,4.7E1,5.9E1,1.5E1,5.3E1,1.7E1,2E1,1.3E1,2.8E1,5.1E1,9E0],"tree_param":{"num_deleted":"0","num_feature":"140","num_nodes":"29","size_leaf_vector":"1"}},{"base_weights":[1.2920426E-1,-4.8840523E0,2.439716E0,-3.575457E-1,-7.1731334E0,-1.1939188E0,3.4998715E0,3.146492E-1,-1.7722442E0,-9.899481E0,-2.451317E0,-4.949971E0,2.2944176E0,-2.80981E-1,4.1870737E0,1.0342314E-1,-3.122747E-1,-1.2896938E0,-2.8428712E-1,3.7040528E-2,-3.8992587E-1,-1.4180115E-1,-6.576993E-1,2.8731626E-2,3.2997125E-1,1.4813237E-1,6.424619E-1],"categories":[],"categories_nodes":[],"categories_segments":[],"categories_sizes":[],"default_left":[0,0,0,0,0,0,0,0,0,0,0,0,0,0,0,0,0,0,0,0,0,0,0,0,0,0,0],"id":7,"left_children":[1,3,5,7,9,11,13,-1,15,17,19,21,23,-1,25,-1,-1,-1,-1,-1,-1,-1,-1,-1,-1,-1,-1],"loss_changes":[4.533556E3,1.2557297E3,1.0706382E3,3.0207242E2,8.179536E2,9.9374E2,1.00865576E3,0E0,1.8037407E2,5.958052E2,1.7524413E2,1.0131476E2,6.885509E1,0E0,1.0128386E3,0E0,0E0,0E0,0E0,0E0,0E0,0E0,0E0,0E0,0E0,0E0,0E0],"parents":[2147483647,0,0,1,1,2,2,3,3,4,4,5,5,6,6,8,8,9,9,10,10,11,11,12,12,14,14],"right_children":[2,4,6,8,10,12,14,-1,16,18,20,22,24,-1,26,-1,-1,-1,-1,-1,-1,-1,-1,-1,-1,-1,-1],"split_conditions":[1.122E2,5.3421326E1,1.0959036E2,1.0437383E2,1.0925227E1,1.0535714E1,1.045E2,3.146492E-1,1.0365853E0,3E0,-3.4301655E0,3.0664682E1,6.075E1,-2.80981E-1,4.1346154E0,1.0342314E-1,-3.122747E-1,-1.2896938E0,-2.8428712E-1,3.7040528E-2,-3.8992587E-1,-1.4180115E-1,-6.576993E-1,2.8731626E-2,3.2997125E-1,1.4813237E-1,6.424619E-1],"split_indices":[1,24,37,127,29,53,70,0,76,66,118,57,47,0,23,0,0,0,0,0,0,0,0,0,0,0,0],"split_type":[0,0,0,0,0,0,0,0,0,0,0,0,0,0,0,0,0,0,0,0,0,0,0,0,0,0,0],"sum_hessian":[3.72E2,1.14E2,2.58E2,4.2E1,7.2E1,5.8E1,2E2,9E0,3.3E1,3.9E1,3.3E1,2.6E1,3.2E1,1.7E1,1.83E2,1.1E1,2.2E1,2.3E1,1.6E1,1.3E1,2E1,1.3E1,1.3E1,1.4E1,1.8E1,8.6E1,9.7E1],"tree_param":{"num_deleted":"0","num_feature":"140","num_nodes":"27","size_leaf_vector":"1"}},{"base_weights":[6.587745E-1,4.4601912E0,-1.5960753E0,-3.901633E-1,5.729701E0,-3.9788885E0,1.2650682E0,-3.7641862E-1,1.7258502E0,5.5164045E-1,7.0713067E0,1.0772284E-1,-4.6198072E0,-1.5136702E-1,5.18144E0,2.9615307E-1,-1.8875847E-2,-2.6069477E-1,3.9376292E-1,1.2648307E-1,8.5275614E-1,-2.5179368E-1,-7.544832E-1,1.15061834E-1,-4.7788638E-1,8.361183E-2,7.2209036E-1],"categories":[],"categories_nodes":[],"categories_segments":[],"categories_sizes":[],"default_left":[0,0,0,0,0,0,0,0,0,0,0,0,0,0,0,0,0,0,0,0,0,0,0,0,0,0,0],"id":8,"left_children":[1,3,5,7,9,11,13,-1,15,17,19,-1,21,23,25,-1,-1,-1,-1,-1,-1,-1,-1,-1,-1,-1,-1],"loss_changes":[3.4071987E3,9.29979E2,1.7631356E3,3.3544287E2,7.7937085E2,4.963562E2,6.818248E2,0E0,7.30556E1,4.455625E2,5.775962E2,0E0,5.719094E2,6.167803E2,2.101817E2,0E0,0E0,0E0,0E0,0E0,0E0,0E0,0E0,0E0,0E0,0E0,0E0],"parents":[2147483647,0,0,1,1,2,2,3,3,4,4,5,5,6,6,8,8,9,9,10,10,12,12,13,13,14,14],"right_children":[2,4,6,8,10,12,14,-1,16,18,20,-1,22,24,26,-1,-1,-1,-1,-1,-1,-1,-1,-1,-1,-1,-1],"split_conditions":[-9.901286E1,3.45E2,1.0323661E2,2.32E1,5.56E1,2.63E1,6.06E1,-3.7641862E-1,1.0339286E2,1.0261161E2,2.254902E0,1.0772284E-1,5.72E1,3.19E1,1.1088806E2,2.9615307E-1,-1.8875847E-2,-2.6069477E-1,3.9376292E-1,1.2648307E-1,8.5275614E-1,-2.5179368E-1,-7.544832E-1,1.15061834E-1,-4.7788638E-1,8.361183E-2,7.2209036E-1],"split_indices":[79,138,74,59,15,31,14,0,74,74,22,0,11,31,129,0,0,0,0,0,0,0,0,0,0,0,0],"split_type":[0,0,0,0,0,0,0,0,0,0,0,0,0,0,0,0,0,0,0,0,0,0,0,0,0,0,0],"sum_hessian":[3.8E2,1.38E2,2.42E2,3E1,1.08E2,1.3E2,1.12E2,9E0,2.1E1,2.5E1,8.3E1,1.4E1,1.16E2,8.9E1,2.3E1,1E1,1.1E1,1.4E1,1.1E1,1.8E1,6.5E1,7.5E1,4.1E1,7.5E1,1.4E1,1.1E1,1.2E1],"tree_param":{"num_deleted":"0","num_feature":"140","num_nodes":"27","size_leaf_vector":"1"}},{"base_weights":[-5.5473614E-2,2.1285696E0,-2.7869754E0,-1.7223593E0,3.083622E0,-3.7669997E0,2.1667979E0,5.7451266E-1,-4.2872104E-1,4.139249E-1,4.526071E0,-1.2890655E0,-5.514032E0,4.2167082E-1,-9.4571844E-2,-1.6841032E-1,3.1548917E-1,3.5477212E-1,-2.0621866E-1,5.647889E-1,-4.0049955E-2,-3.0893174E-1,2.4301903E-1,-8.2738256E-1,-2.0954154E-1],"categories":[],"categories_nodes":[],"categories_segments":[],"categories_sizes":[],"default_left":[0,0,0,0,0,0,0,0,0,0,0,0,0,0,0,0,0,0,0,0,0,0,0,0,0],"id":9,"left_children":[1,3,5,7,9,11,13,15,-1,17,19,21,23,-1,-1,-1,-1,-1,-1,-1,-1,-1,-1,-1,-1],"loss_changes":[2.3985981E3,8.729806E2,9.448916E2,3.0883932E2,6.8509924E2,5.924778E2,2.5036876E2,2.4034096E2,0E0,6.180912E2,5.904204E2,5.4571783E2,6.1102686E2,0E0,0E0,0E0,0E0,0E0,0E0,0E0,0E0,0E0,0E0,0E0,0E0],"parents":[2147483647,0,0,1,1,2,2,3,3,4,4,5,5,6,6,7,7,9,9,10,10,11,11,12,12],"right_children":[2,4,6,8,10,12,14,16,-1,18,20,22,24,-1,-1,-1,-1,-1,-1,-1,-1,-1,-1,-1,-1],"split_conditions":[1.1305329E2,1.0107143E2,6.13E1,1.09419334E2,1.135E2,5.3421326E1,6.32E1,5.51E1,-4.2872104E-1,9.362122E0,6.0108997E1,1.174E2,1.0925227E1,4.2167082E-1,-9.4571844E-2,-1.6841032E-1,3.1548917E-1,3.5477212E-1,-2.0621866E-1,5.647889E-1,-4.0049955E-2,-3.0893174E-1,2.4301903E-1,-8.2738256E-1,-2.0954154E-1],"split_indices":[5,36,14,131,64,24,14,47,0,29,56,32,29,0,0,0,0,0,0,0,0,0,0,0,0],"split_type":[0,0,0,0,0,0,0,0,0,0,0,0,0,0,0,0,0,0,0,0,0,0,0,0,0],"sum_hessian":[3.83E2,2.14E2,1.69E2,4.1E1,1.73E2,1.43E2,2.6E1,2.5E1,1.6E1,6.5E1,1.08E2,6.6E1,7.7E1,1.4E1,1.2E1,1.5E1,1E1,2.7E1,3.8E1,8.9E1,1.9E1,4.6E1,2E1,3.7E1,4E1],"tree_param":{"num_deleted":"0","num_feature":"140","num_nodes":"25","size_leaf_vector":"1"}},{"base_weights":[-1.1257847E-1,2.1297538E0,-2.9232047E0,-5.0860333E-1,3.3342428E0,-1.2023333E0,-1.7693295E0,2.3133917E0,-3.6889875E0,4.9844728E0,2.4132101E-1,-4.232726E0,2.432398E-1,-7.537329E-2,5.717072E-1,9.214451E-2,-5.3501934E-1,2.5454482E-1,7.13057E-1,-1.6444425E-1,3.822948E-1,-1.0477426E-2,-5.4897004E-1,1.6808234E-1,-1.4138946E-1],"categories":[],"categories_nodes":[],"categories_segments":[],"categories_sizes":[],"default_left":[0,0,0,0,0,0,0,0,0,0,0,0,0,0,0,0,0,0,0,0,0,0,0,0,0],"id":10,"left_children":[1,3,5,7,9,-1,11,13,15,17,19,21,23,-1,-1,-1,-1,-1,-1,-1,-1,-1,-1,-1,-1],"loss_changes":[2.6091821E3,7.4889954E2,1.6676459E3,8.0459015E2,8.028854E2,0E0,8.703084E2,5.2277966E2,3.3707837E2,3.4597363E2,4.7958176E2,3.5972424E2,2.5873422E2,0E0,0E0,0E0,0E0,0E0,0E0,0E0,0E0,0E0,0E0,0E0,0E0],"parents":[2147483647,0,0,1,1,2,2,3,3,4,4,6,6,7,7,8,8,9,9,10,10,11,11,12,12],"right_children":[2,4,6,8,10,-1,12,14,16,18,20,22,24,-1,-1,-1,-1,-1,-1,-1,-1,-1,-1,-1,-1],"split_conditions":[1.1305329E2,1.01875E2,1.109E2,1.11E2,-4.657323E0,-1.2023333E0,2.3809524E0,5.51E1,1.132E2,4.1346154E0,1.154E2,3.8113208E0,4.4375E0,-7.537329E-2,5.717072E-1,9.214451E-2,-5.3501934E-1,2.5454482E-1,7.13057E-1,-1.6444425E-1,3.822948E-1,-1.0477426E-2,-5.4897004E-1,1.6808234E-1,-1.4138946E-1],"split_indices":[5,36,32,41,79,0,22,47,13,23,12,23,23,0,0,0,0,0,0,0,0,0,0,0,0],"split_type":[0,0,0,0,0,0,0,0,0,0,0,0,0,0,0,0,0,0,0,0,0,0,0,0,0],"sum_hessian":[3.95E2,2.21E2,1.74E2,7.1E1,1.5E2,1E1,1.64E2,3.9E1,3.2E1,9.4E1,5.6E1,6.9E1,9.5E1,2.4E1,1.5E1,9E0,2.3E1,5.1E1,4.3E1,4E1,1.6E1,1.7E1,5.2E1,5.1E1,4.4E1],"tree_param":{"num_deleted":"0","num_feature":"140","num_nodes":"25","size_leaf_vector":"1"}},{"base_weights":[2.2993479E-2,-6.338946E0,7.935989E-1,-6.0219295E-2,-7.801062E0,-2.7970116E0,1.6919959E0,-9.8392797E-1,-2.4312319E-1,-3.8830366E0,2.3012544E-1,3.2713466E0,-8.448447E-1,2.8014835E-2,-4.7591412E-1,9.5960364E-2,5.048247E-1,-1.885763E-1,3.116061E-1],"categories":[],"categories_nodes":[],"categories_segments":[],"categories_sizes":[],"default_left":[0,0,0,0,0,0,0,0,0,0,0,0,0,0,0,0,0,0,0],"id":11,"left_children":[1,3,5,-1,7,9,11,-1,-1,13,-1,15,17,-1,-1,-1,-1,-1,-1],"loss_changes":[1.8402428E3,2.9722107E2,1.1244508E3,0E0,9.078369E1,4.6978394E2,1.1224504E3,0E0,0E0,2.0698328E2,0E0,6.1508777E2,4.8891312E2,0E0,0E0,0E0,0E0,0E0,0E0],"parents":[2147483647,0,0,1,1,2,2,4,4,5,5,6,6,9,9,11,11,12,12],"right_children":[2,4,6,-1,8,10,12,-1,-1,14,-1,16,18,-1,-1,-1,-1,-1,-1],"split_conditions":[1.111E2,3.44E0,1.0742857E2,-6.0219295E-2,5.99E1,1.1433962E1,1.1314676E2,-9.8392797E-1,-2.4312319E-1,2.328E2,2.3012544E-1,4.5E1,3.21E1,2.8014835E-2,-4.7591412E-1,9.5960364E-2,5.048247E-1,-1.885763E-1,3.116061E-1],"split_indices":[32,55,70,0,47,21,5,0,0,139,0,34,63,0,0,0,0,0,0],"split_type":[0,0,0,0,0,0,0,0,0,0,0,0,0,0,0,0,0,0,0],"sum_hessian":[3.56E2,3.1E1,3.25E2,9E0,2.2E1,6.1E1,2.64E2,1.1E1,1.1E1,5.2E1,9E0,1.61E2,1.03E2,9E0,4.3E1,7.3E1,8.8E1,8.6E1,1.7E1],"tree_param":{"num_deleted":"0","num_feature":"140","num_nodes":"19","size_leaf_vector":"1"}},{"base_weights":[1.8659338E-1,3.233297E0,-1.4501704E0,-7.6792985E-2,4.641307E0,-7.562139E0,-6.1010724E-1,-3.3797595E-1,2.2337646E0,5.552471E0,-1.6048218E-1,-1.13282666E-1,-1.1086589E0,2.0088372E0,-1.6379769E0,-1.2207141E-1,4.6731356E-1,4.7377516E-2,6.489647E-1,-1.0206573E-1,3.894624E-1,1.10098034E-1,-3.0446255E-1],"categories":[],"categories_nodes":[],"categories_segments":[],"categories_sizes":[],"default_left":[0,0,0,0,0,0,0,0,0,0,0,0,0,0,0,0,0,0,0,0,0,0,0],"id":12,"left_children":[1,3,5,7,9,11,13,-1,15,17,-1,-1,-1,19,21,-1,-1,-1,-1,-1,-1,-1,-1],"loss_changes":[1.9226185E3,6.305427E2,1.2474983E3,4.3932187E2,6.1795483E2,5.0732263E2,6.547911E2,0E0,3.273547E2,3.0810205E2,0E0,0E0,0E0,4.1075027E2,6.509728E2,0E0,0E0,0E0,0E0,0E0,0E0,0E0,0E0],"parents":[2147483647,0,0,1,1,2,2,3,3,4,4,5,5,6,6,8,8,9,9,13,13,14,14],"right_children":[2,4,6,8,10,12,14,-1,16,18,-1,-1,-1,20,22,-1,-1,-1,-1,-1,-1,-1,-1],"split_conditions":[-9.901286E1,2.52E1,9.96875E1,3.1074198E1,4.6666665E0,3.0375E1,4E0,-3.3797595E-1,1.1158563E2,2.2295082E0,-1.6048218E-1,-1.13282666E-1,-1.1086589E0,1.144E2,7.825E1,-1.2207141E-1,4.6731356E-1,4.7377516E-2,6.489647E-1,-1.0206573E-1,3.894624E-1,1.10098034E-1,-3.0446255E-1],"split_indices":[79,59,36,25,55,30,50,0,130,54,0,0,0,1,26,0,0,0,0,0,0,0,0],"split_type":[0,0,0,0,0,0,0,0,0,0,0,0,0,0,0,0,0,0,0,0,0,0,0],"sum_hessian":[3.67E2,1.25E2,2.42E2,4E1,8.5E1,2E1,2.22E2,1.5E1,2.5E1,7.5E1,1E1,1.1E1,9E0,6E1,1.62E2,1.2E1,1.3E1,1.2E1,6.3E1,2.4E1,3.6E1,5.4E1,1.08E2],"tree_param":{"num_deleted":"0","num_feature":"140","num_nodes":"23","size_leaf_vector":"1"}},{"base_weights":[-1.9784369E-2,1.7986758E0,-2.5872517E0,-1.3076273E0,2.8433576E0,-9.421376E-1,-1.3307016E0,2.1727197E-1,-2.8150291E0,3.622283E0,-7.008982E-1,-2.0048075E0,2.418708E-1,-4.6490255E-1,8.5016526E-4,-2.1813873E-3,4.7699913E-1,-3.778969E-1,1.8141693E-1,-3.3110005E-1,5.3688046E-2],"categories":[],"categories_nodes":[],"categories_segments":[],"categories_sizes":[],"default_left":[0,0,0,0,0,0,0,0,0,0,0,0,0,0,0,0,0,0,0,0,0],"id":13,"left_children":[1,3,5,7,9,-1,11,-1,13,15,17,19,-1,-1,-1,-1,-1,-1,-1,-1,-1],"loss_changes":[1.7745603E3,7.577658E2,1.1911344E3,3.803209E2,4.923744E2,0E0,4.0243985E2,0E0,2.3159048E2,5.299054E2,3.4706018E2,4.0869708E2,0E0,0E0,0E0,0E0,0E0,0E0,0E0,0E0,0E0],"parents":[2147483647,0,0,1,1,2,2,3,3,4,4,6,6,8,8,9,9,10,10,11,11],"right_children":[2,4,6,8,10,-1,12,-1,14,16,18,20,-1,-1,-1,-1,-1,-1,-1,-1,-1],"split_conditions":[1.1305329E2,9.757576E0,1.0426667E2,3.1271765E1,4.196429E0,-9.421376E-1,5.6E1,2.1727197E-1,2.7393943E-1,1.1214907E2,-1E0,5.1255574E0,2.418708E-1,-4.6490255E-1,8.5016526E-4,-2.1813873E-3,4.7699913E-1,-3.778969E-1,1.8141693E-1,-3.3110005E-1,5.3688046E-2],"split_indices":[5,21,70,57,75,0,34,0,83,129,71,135,0,0,0,0,0,0,0,0,0],"split_type":[0,0,0,0,0,0,0,0,0,0,0,0,0,0,0,0,0,0,0,0,0],"sum_hessian":[3.61E2,2.13E2,1.48E2,5.3E1,1.6E2,1.4E1,1.34E2,1.5E1,3.8E1,1.31E2,2.9E1,1.17E2,1.7E1,2E1,1.8E1,3.1E1,1E2,1.1E1,1.8E1,7.7E1,4E1],"tree_param":{"num_deleted":"0","num_feature":"140","num_nodes":"21","size_leaf_vector":"1"}},{"base_weights":[-1.6860324E-1,-2.2982028E0,1.8603306E0,-8.452926E-1,-1.3529314E0,4.815233E0,6.437258E-1,7.0812595E-1,-2.8754811E0,-1.1043929E-2,6.1951704E0,2.568653E0,-6.6710633E-1,2.345569E-1,-4.7477198E-1,1.4301102E-1,-3.8122475E-1,7.5011927E-1,9.310983E-2,-7.5455634E-3,4.4534722E-1,1.622248E-1,-2.7428666E-1],"categories":[],"categories_nodes":[],"categories_segments":[],"categories_sizes":[],"default_left":[0,0,0,0,0,0,0,0,0,0,0,0,0,0,0,0,0,0,0,0,0,0,0],"id":14,"left_children":[1,3,5,-1,7,9,11,13,15,-1,17,19,21,-1,-1,-1,-1,-1,-1,-1,-1,-1,-1],"loss_changes":[1.6463036E3,9.3715497E2,6.7338556E2,0E0,5.578279E2,3.8382617E2,3.937567E2,7.8166693E2,4.1254602E2,0E0,1.9554541E2,2.9689426E2,4.7718686E2,0E0,0E0,0E0,0E0,0E0,0E0,0E0,0E0,0E0,0E0],"parents":[2147483647,0,0,1,1,2,2,4,4,5,5,6,6,7,7,8,8,10,10,11,11,12,12],"right_children":[2,4,6,-1,8,10,12,14,16,-1,18,20,22,-1,-1,-1,-1,-1,-1,-1,-1,-1,-1],"split_conditions":[1.0287946E2,1.0563636E2,-2.1539755E2,-8.452926E-1,1.09006584E2,1.1151422E2,1.1175473E2,1.20326416E2,1.04166664E2,-1.1043929E-2,1.1785714E2,3.9411764E0,4.58E2,2.345569E-1,-4.7477198E-1,1.4301102E-1,-3.8122475E-1,7.5011927E-1,9.310983E-2,-7.5455634E-3,4.4534722E-1,1.622248E-1,-2.7428666E-1],"split_indices":[74,64,79,0,131,130,130,126,65,0,69,55,138,0,0,0,0,0,0,0,0,0,0],"split_type":[0,0,0,0,0,0,0,0,0,0,0,0,0,0,0,0,0,0,0,0,0,0,0],"sum_hessian":[3.62E2,1.76E2,1.86E2,1.4E1,1.62E2,4.6E1,1.4E2,7.1E1,9.1E1,1.2E1,3.4E1,5.3E1,8.7E1,5.9E1,1.2E1,1.4E1,7.7E1,2.5E1,9E0,2.5E1,2.8E1,4.2E1,4.5E1],"tree_param":{"num_deleted":"0","num_feature":"140","num_nodes":"23","size_leaf_vector":"1"}},{"base_weights":[-3.2300895E-1,-2.1653938E0,2.0235617E0,3.3715913E-1,-2.6125352E0,-7.037073E-2,3.5600848E0,-4.187872E0,-8.5068554E-1,2.9000678E0,-1.9594308E0,5.226515E0,-5.466837E-2,-1.8707847E-2,-5.476983E-1,5.1462993E-2,-4.9274004E-1,5.1121557E-1,-1.2777343E-1,1.6485743E-2,-3.5910317E-1,6.0874635E-1,2.874363E-2,-3.7254503E-1,2.3100142E-1],"categories":[],"categories_nodes":[],"categories_segments":[],"categories_sizes":[],"default_left":[0,0,0,0,0,0,0,0,0,0,0,0,0,0,0,0,0,0,0,0,0,0,0,0,0],"id":15,"left_children":[1,3,5,-1,7,9,11,13,15,17,19,21,23,-1,-1,-1,-1,-1,-1,-1,-1,-1,-1,-1,-1],"loss_changes":[1.6698542E3,6.080232E2,5.5115106E2,0E0,5.336924E2,5.119668E2,5.964297E2,4.7992432E2,6.044156E2,3.675158E2,1.8741266E2,2.2275586E2,4.137196E2,0E0,0E0,0E0,0E0,0E0,0E0,0E0,0E0,0E0,0E0,0E0,0E0],"parents":[2147483647,0,0,1,1,2,2,4,4,5,5,6,6,7,7,8,8,9,9,10,10,11,11,12,12],"right_children":[2,4,6,-1,8,10,12,14,16,18,20,22,24,-1,-1,-1,-1,-1,-1,-1,-1,-1,-1,-1,-1],"split_conditions":[1.0334821E2,2.5E1,1.135E2,3.3715913E-1,3E0,2E0,3.537037E1,-3E0,1.1381556E1,8.06E1,7.75E1,5.9978775E1,1.16E2,-1.8707847E-2,-5.476983E-1,5.1462993E-2,-4.9274004E-1,5.1121557E-1,-1.2777343E-1,1.6485743E-2,-3.5910317E-1,6.0874635E-1,2.874363E-2,-3.7254503E-1,2.3100142E-1],"split_indices":[74,31,64,0,72,16,25,71,61,26,58,56,33,0,0,0,0,0,0,0,0,0,0,0,0],"split_type":[0,0,0,0,0,0,0,0,0,0,0,0,0,0,0,0,0,0,0,0,0,0,0,0,0],"sum_hessian":[3.67E2,2.06E2,1.61E2,1.1E1,1.95E2,7.2E1,8.9E1,9.6E1,9.9E1,2.6E1,4.6E1,5.8E1,3.1E1,2.4E1,7.2E1,8E1,1.9E1,1.6E1,1E1,2.3E1,2.3E1,4.9E1,9E0,1E1,2.1E1],"tree_param":{"num_deleted":"0","num_feature":"140","num_nodes":"25","size_leaf_vector":"1"}},{"base_weights":[-5.3598267E-1,-8.583706E-1,-1.0379641E-1,1.5906706E0,-1.3422852E0,-2.0572765E0,2.3962874E0,-2.8637414E0,1.7807412E0,-4.2478934E-1,1.390173E-1,4.887845E-1,3.1251535E-2,2.1525341E-1,-3.4733877E-1,-1.0626793E-1,3.5204408E-1],"categories":[],"categories_nodes":[],"categories_segments":[],"categories_sizes":[],"default_left":[0,0,0,0,0,0,0,0,0,0,0,0,0,0,0,0,0],"id":16,"left_children":[1,-1,3,5,7,9,11,13,15,-1,-1,-1,-1,-1,-1,-1,-1],"loss_changes":[1.2033604E3,0E0,7.518856E2,4.9252972E2,1.030219E3,2.858888E2,6.2430396E2,4.4032727E2,3.770852E2,0E0,0E0,0E0,0E0,0E0,0E0,0E0,0E0],"parents":[2147483647,0,0,2,2,3,3,4,4,5,5,6,6,7,7,8,8],"right_children":[2,-1,4,6,8,10,12,14,16,-1,-1,-1,-1,-1,-1,-1,-1],"split_conditions":[4.84E1,-8.583706E-1,7.86E1,1.0742857E2,1.1448979E1,5.7473545E1,1.156E2,2.56E1,7.62E1,-4.2478934E-1,1.390173E-1,4.887845E-1,3.1251535E-2,2.1525341E-1,-3.4733877E-1,-1.0626793E-1,3.5204408E-1],"split_indices":[15,0,26,70,21,24,33,31,58,0,0,0,0,0,0,0,0],"split_type":[0,0,0,0,0,0,0,0,0,0,0,0,0,0,0,0,0],"sum_hessian":[3.48E2,9E0,3.39E2,1.42E2,1.97E2,2.3E1,1.19E2,1.33E2,6.4E1,1.3E1,1E1,5E1,6.9E1,1E1,1.23E2,2.5E1,3.9E1],"tree_param":{"num_deleted":"0","num_feature":"140","num_nodes":"17","size_leaf_vector":"1"}},{"base_weights":[-7.608461E-2,9.633858E-1,-2.8112254E0,2.303126E0,-9.955688E-1,-4.8734736E0,4.4140556E-1,5.285592E-1,5.015632E0,-3.898863E0,7.0726985E-1,-5.8043833E0,5.8768727E-3,2.8875872E-1,-1.4235252E0,-2.2241223E-1,2.1250746E-1,6.485569E-1,9.297455E-2,-5.402311E-1,-5.486907E-2,2.2850114E-1,-1.6846459E-1,-8.056557E-1,-6.241193E-2,6.396543E-2,-3.0829844E-1],"categories":[],"categories_nodes":[],"categories_segments":[],"categories_sizes":[],"default_left":[0,0,0,0,0,0,0,0,0,0,0,0,0,0,0,0,0,0,0,0,0,0,0,0,0,0,0],"id":17,"left_children":[1,3,5,7,9,11,13,15,17,19,21,23,-1,-1,25,-1,-1,-1,-1,-1,-1,-1,-1,-1,-1,-1,-1],"loss_changes":[1.0595227E3,7.319973E2,7.085043E2,7.619436E2,6.0261005E2,2.949348E2,2.5357126E2,5.0000174E2,2.8813428E2,1.7882544E2,3.2705884E2,5.2689575E2,0E0,0E0,1.2689299E2,0E0,0E0,0E0,0E0,0E0,0E0,0E0,0E0,0E0,0E0,0E0,0E0],"parents":[2147483647,0,0,1,1,2,2,3,3,4,4,5,5,6,6,7,7,8,8,9,9,10,10,11,11,14,14],"right_children":[2,4,6,8,10,12,14,16,18,20,22,24,-1,-1,26,-1,-1,-1,-1,-1,-1,-1,-1,-1,-1,-1,-1],"split_conditions":[1.1415951E2,5.842857E1,4E0,1.13E2,2.34E0,6.666667E-1,4.1372547E0,2.4329896E-1,1.0677778E1,1.15577385E2,4.3404255E0,1.4210855E-14,5.8768727E-3,2.8875872E-1,4E0,-2.2241223E-1,2.1250746E-1,6.485569E-1,9.297455E-2,-5.402311E-1,-5.486907E-2,2.2850114E-1,-1.6846459E-1,-8.056557E-1,-6.241193E-2,6.396543E-2,-3.0829844E-1],"split_indices":[5,14,67,8,22,80,55,28,29,132,23,124,0,0,125,0,0,0,0,0,0,0,0,0,0,0,0],"split_type":[0,0,0,0,0,0,0,0,0,0,0,0,0,0,0,0,0,0,0,0,0,0,0,0,0,0,0],"sum_hessian":[3.54E2,2.61E2,9.3E1,1.54E2,1.07E2,5.4E1,3.9E1,1E2,5.4E1,3.5E1,7.2E1,4.4E1,1E1,1.5E1,2.4E1,3.5E1,6.5E1,3.7E1,1.7E1,2.1E1,1.4E1,4.4E1,2.8E1,2.8E1,1.6E1,1.3E1,1.1E1],"tree_param":{"num_deleted":"0","num_feature":"140","num_nodes":"27","size_leaf_vector":"1"}},{"base_weights":[-3.8369685E-2,-2.150207E0,1.6747828E0,-7.32739E-1,-4.50819E0,-1.1648878E0,2.7739365E0,-3.2843292E0,9.146606E-1,-5.671629E0,1.1539742E-2,2.3898028E-1,-2.3844535E0,4.593656E0,7.575366E-1,-5.7250786E-1,-6.893312E-2,2.0784518E-1,-2.9787382E-1,-9.019953E-2,-6.9035923E-1,-4.2408258E-1,3.5371967E-2,1.730189E-1,7.060933E-1,4.2377985E-1,-1.5893567E-1],"categories":[],"categories_nodes":[],"categories_segments":[],"categories_sizes":[],"default_left":[0,0,0,0,0,0,0,0,0,0,0,0,0,0,0,0,0,0,0,0,0,0,0,0,0,0,0],"id":18,"left_children":[1,3,5,7,9,11,13,15,17,19,-1,-1,21,23,25,-1,-1,-1,-1,-1,-1,-1,-1,-1,-1,-1,-1],"loss_changes":[1.4510416E3,5.685668E2,7.224254E2,5.4809485E2,3.5855884E2,3.4555768E2,5.632019E2,2.681306E2,4.0775684E2,2.1167224E2,0E0,0E0,2.7970282E2,4.4641907E2,7.51987E2,0E0,0E0,0E0,0E0,0E0,0E0,0E0,0E0,0E0,0E0,0E0,0E0],"parents":[2147483647,0,0,1,1,2,2,3,3,4,4,5,5,6,6,7,7,8,8,9,9,12,12,13,13,14,14],"right_children":[2,4,6,8,10,12,14,16,18,20,-1,-1,22,24,26,-1,-1,-1,-1,-1,-1,-1,-1,-1,-1,-1,-1],"split_conditions":[1.0287946E2,5.88E1,1.1038461E2,1.0742857E2,4.3E1,1.10296585E2,2.5786164E-1,1.108E2,1.1449297E1,1E0,1.1539742E-2,2.3898028E-1,7.909091E0,2.1730769E-1,5.725E1,-5.7250786E-1,-6.893312E-2,2.0784518E-1,-2.9787382E-1,-9.019953E-2,-6.9035923E-1,-4.2408258E-1,3.5371967E-2,1.730189E-1,7.060933E-1,4.2377985E-1,-1.5893567E-1],"split_indices":[74,47,69,70,3,129,60,8,61,72,0,0,123,60,46,0,0,0,0,0,0,0,0,0,0,0,0],"split_type":[0,0,0,0,0,0,0,0,0,0,0,0,0,0,0,0,0,0,0,0,0,0,0,0,0,0,0],"sum_hessian":[3.82E2,1.7E2,2.12E2,1.14E2,5.6E1,5.9E1,1.53E2,4.1E1,7.3E1,4.3E1,1.3E1,1.3E1,4.6E1,7.4E1,7.9E1,1.6E1,2.5E1,6E1,1.3E1,1.1E1,3.2E1,2.5E1,2.1E1,4E1,3.4E1,2.9E1,5E1],"tree_param":{"num_deleted":"0","num_feature":"140","num_nodes":"27","size_leaf_vector":"1"}},{"base_weights":[3.5176128E-1,-1.5692397E0,1.5571576E0,-2.6887805E0,9.1729367E-1,-4.9961928E-1,2.018429E0,1.5483996E0,-3.9815273E0,2.389688E0,-2.879411E-1,5.7255393E-1,3.7441337E0,3.4018913E-1,-1.4370172E-1,-4.7357273E-1,3.809658E-2,4.254293E-1,-2.1747689E-1,-3.0093387E-1,1.5451081E-1,5.63311E-1,7.6673195E-2],"categories":[],"categories_nodes":[],"categories_segments":[],"categories_sizes":[],"default_left":[0,0,0,0,0,0,0,0,0,0,0,0,0,0,0,0,0,0,0,0,0,0,0],"id":19,"left_children":[1,3,5,7,9,-1,11,13,15,17,-1,19,21,-1,-1,-1,-1,-1,-1,-1,-1,-1,-1],"loss_changes":[8.929879E2,4.3991537E2,7.930561E2,6.3713947E2,3.581233E2,0E0,5.4480035E2,2.0948085E2,2.4929065E2,4.305638E2,0E0,4.8401782E2,4.9412683E2,0E0,0E0,0E0,0E0,0E0,0E0,0E0,0E0,0E0,0E0],"parents":[2147483647,0,0,1,1,2,2,3,3,4,4,6,6,7,7,8,8,9,9,11,11,12,12],"right_children":[2,4,6,8,10,-1,12,14,16,18,-1,20,22,-1,-1,-1,-1,-1,-1,-1,-1,-1,-1],"split_conditions":[2.3555555E0,3.01E1,1.002E2,5.4E1,6.202183E0,-4.9961928E-1,1.15E2,5.7E1,1.159525E2,3.596248E0,-2.879411E-1,2.0450282E-1,0E0,3.4018913E-1,-1.4370172E-1,-4.7357273E-1,3.809658E-2,4.254293E-1,-2.1747689E-1,-3.0093387E-1,1.5451081E-1,5.63311E-1,7.6673195E-2],"split_indices":[22,31,45,43,118,0,13,46,126,83,0,60,71,0,0,0,0,0,0,0,0,0,0],"split_type":[0,0,0,0,0,0,0,0,0,0,0,0,0,0,0,0,0,0,0,0,0,0,0],"sum_hessian":[3.66E2,1.4E2,2.26E2,9.6E1,4.4E1,9E0,2.17E2,2.2E1,7.4E1,3.4E1,1E1,1.25E2,9.2E1,1.3E1,9E0,6.4E1,1E1,2.5E1,9E0,2.2E1,1.03E2,5.3E1,3.9E1],"tree_param":{"num_deleted":"0","num_feature":"140","num_nodes":"23","size_leaf_vector":"1"}},{"base_weights":[-3.667193E-1,-2.3738089E0,6.634666E-1,-3.760078E0,3.1762525E-1,1.4943197E0,-1.3171468E0,2.968094E-1,-5.204628E0,2.4034917E0,-2.223735E0,2.7475858E0,-6.8640214E-1,-3.6619453E0,1.5206556E0,1.7667605E-1,-1.7091045E-1,-6.5837985E-1,8.900225E-2,-1.2599064E-2,3.4215865E-1,3.2508012E-2,-3.9893913E-1,-8.5488364E-2,3.976359E-1,1.9295114E-1,-2.2275308E-1,1.227403E-3,-4.9912566E-1,3.578711E-1,-1.282186E-1],"categories":[],"categories_nodes":[],"categories_segments":[],"categories_sizes":[],"default_left":[0,0,0,0,0,0,0,0,0,0,0,0,0,0,0,0,0,0,0,0,0,0,0,0,0,0,0,0,0,0,0],"id":20,"left_children":[1,3,5,7,9,11,13,15,17,19,21,23,25,27,29,-1,-1,-1,-1,-1,-1,-1,-1,-1,-1,-1,-1,-1,-1,-1,-1],"loss_changes":[8.2260504E2,5.1346594E2,4.5581647E2,5.396205E2,3.4029922E2,5.415644E2,6.092352E2,1.18799515E2,5.467567E2,8.562547E1,1.3721065E2,5.323906E2,3.3555783E2,2.16271E2,2.8533124E2,0E0,0E0,0E0,0E0,0E0,0E0,0E0,0E0,0E0,0E0,0E0,0E0,0E0,0E0,0E0,0E0],"parents":[2147483647,0,0,1,1,2,2,3,3,4,4,5,5,6,6,7,7,8,8,9,9,10,10,11,11,12,12,13,13,14,14],"right_children":[2,4,6,8,10,12,14,16,18,20,22,24,26,28,30,-1,-1,-1,-1,-1,-1,-1,-1,-1,-1,-1,-1,-1,-1,-1,-1],"split_conditions":[1.144E2,4E0,1.174E2,5.119473E1,1.7434703E2,1.0943397E1,3.22E1,8.367873E0,1.1357754E1,1.123E2,1.0670431E2,4.90672E1,5.7E1,1.1087199E2,-8.1389265E0,1.7667605E-1,-1.7091045E-1,-6.5837985E-1,8.900225E-2,-1.2599064E-2,3.4215865E-1,3.2508012E-2,-3.9893913E-1,-8.5488364E-2,3.976359E-1,1.9295114E-1,-2.2275308E-1,1.227403E-3,-4.9912566E-1,3.578711E-1,-1.282186E-1],"split_indices":[1,67,64,24,79,53,59,121,29,12,127,24,11,132,79,0,0,0,0,0,0,0,0,0,0,0,0,0,0,0,0],"split_type":[0,0,0,0,0,0,0,0,0,0,0,0,0,0,0,0,0,0,0,0,0,0,0,0,0,0,0,0,0,0,0],"sum_hessian":[3.81E2,1.25E2,2.56E2,8E1,4.5E1,1.82E2,7.4E1,2.3E1,5.7E1,2.5E1,2E1,1.14E2,6.8E1,3.9E1,3.5E1,1.4E1,9E0,4.7E1,1E1,9E0,1.6E1,1.1E1,9E0,2.8E1,8.6E1,2.4E1,4.4E1,1.2E1,2.7E1,1.9E1,1.6E1],"tree_param":{"num_deleted":"0","num_feature":"140","num_nodes":"31","size_leaf_vector":"1"}},{"base_weights":[-1.6694674E-1,-6.414258E-1,2.800702E-1,1.4809003E0,-8.011838E-1,-1.4817214E0,2.1104565E0,-3.479837E0,2.0038746E-1,-3.7146944E-1,1.4187427E-1,3.3460838E-1,5.785511E-3,-4.5759782E-1,7.5077884E-2,3.4064588E-1,-5.774658E-2],"categories":[],"categories_nodes":[],"categories_segments":[],"categories_sizes":[],"default_left":[0,0,0,0,0,0,0,0,0,0,0,0,0,0,0,0,0],"id":21,"left_children":[1,-1,3,5,7,9,11,13,15,-1,-1,-1,-1,-1,-1,-1,-1],"loss_changes":[1.0587048E3,0E0,4.8598404E2,3.5919724E2,5.3937573E2,2.7259528E2,3.5305322E2,2.5788037E2,3.8439447E2,0E0,0E0,0E0,0E0,0E0,0E0,0E0,0E0],"parents":[2147483647,0,0,2,2,3,3,4,4,5,5,6,6,7,7,8,8],"right_children":[2,-1,4,6,8,10,12,14,16,-1,-1,-1,-1,-1,-1,-1,-1],"split_conditions":[1.109E2,-6.414258E-1,2.8875E1,-8.130971E2,2.32E1,1.0274554E2,3.470328E1,6.22E1,4.94744E1,-3.7146944E-1,1.4187427E-1,3.3460838E-1,5.785511E-3,-4.5759782E-1,7.5077884E-2,3.4064588E-1,-5.774658E-2],"split_indices":[32,0,31,120,59,74,25,11,56,0,0,0,0,0,0,0,0],"split_type":[0,0,0,0,0,0,0,0,0,0,0,0,0,0,0,0,0],"sum_hessian":[3.73E2,1.7E1,3.56E2,1.67E2,1.89E2,2.7E1,1.4E2,4.5E1,1.44E2,1.4E1,1.3E1,8.6E1,5.4E1,3.6E1,9E0,2.2E1,1.22E2],"tree_param":{"num_deleted":"0","num_feature":"140","num_nodes":"17","size_leaf_vector":"1"}},{"base_weights":[-9.640459E-2,-5.6209606E-1,2.7631843E-1,-1.9604428E-1,3.2498388E0,1.7535083E0,-9.6897686E-1,-1.657388E-1,4.8711185E0,1.5948419E-2,4.6786597E-1,8.167643E-2,-2.061497E-1,6.0858405E-1,6.18228E-2],"categories":[],"categories_nodes":[],"categories_segments":[],"categories_sizes":[],"default_left":[0,0,0,0,0,0,0,0,0,0,0,0,0,0,0],"id":22,"left_children":[1,-1,3,5,7,9,11,-1,13,-1,-1,-1,-1,-1,-1],"loss_changes":[7.628458E2,0E0,5.0831442E2,4.9475995E2,4.6639563E2,4.1364746E2,4.4549603E2,0E0,1.4607141E2,0E0,0E0,0E0,0E0,0E0,0E0],"parents":[2147483647,0,0,2,2,3,3,4,4,5,5,6,6,8,8],"right_children":[2,-1,4,6,8,10,12,-1,14,-1,-1,-1,-1,-1,-1],"split_conditions":[1.109E2,-5.6209606E-1,1.201E2,5.5555557E1,2.95E1,1.1377358E1,5.72E1,-1.657388E-1,6.34E1,1.5948419E-2,4.6786597E-1,8.167643E-2,-2.061497E-1,6.0858405E-1,6.18228E-2],"split_indices":[32,0,32,46,59,21,14,0,46,0,0,0,0,0,0],"split_type":[0,0,0,0,0,0,0,0,0,0,0,0,0,0,0],"sum_hessian":[3.63E2,1.5E1,3.48E2,3.08E2,4E1,8.4E1,2.24E2,1E1,3E1,6E1,2.4E1,8.4E1,1.4E2,2.1E1,9E0],"tree_param":{"num_deleted":"0","num_feature":"140","num_nodes":"15","size_leaf_vector":"1"}},{"base_weights":[-5.6187856E-1,-7.1812874E-1,-1.1895026E-1,3.945644E-1,-2.7495468E0,1.1820585E0,-1.6116214E0,-1.13735676E-1,-4.760858E-1,1.7020991E-1,-2.0861146E-1,-3.3212337E-1,8.9731745E-2,1.4905655E-1,-2.3564902E-1],"categories":[],"categories_nodes":[],"categories_segments":[],"categories_sizes":[],"default_left":[0,0,0,0,0,0,0,0,0,0,0,0,0,0,0],"id":23,"left_children":[1,-1,3,5,7,9,11,13,-1,-1,-1,-1,-1,-1,-1],"loss_changes":[1.0900585E3,0E0,5.0959167E2,5.199063E2,3.0268634E2,3.923667E2,4.0636682E2,1.5389175E2,0E0,0E0,0E0,0E0,0E0,0E0,0E0],"parents":[2147483647,0,0,2,2,3,3,4,4,5,5,6,6,7,7],"right_children":[2,-1,4,6,8,10,12,14,-1,-1,-1,-1,-1,-1,-1],"split_conditions":[1.0033482E2,-7.1812874E-1,3E0,3.5867794E1,1.12275795E2,4.2E1,1.14333336E2,1.0526786E2,-4.760858E-1,1.7020991E-1,-2.0861146E-1,-3.3212337E-1,8.9731745E-2,1.4905655E-1,-2.3564902E-1],"split_indices":[74,0,16,25,131,59,70,4,0,0,0,0,0,0,0],"split_type":[0,0,0,0,0,0,0,0,0,0,0,0,0,0,0],"sum_hessian":[3.75E2,1.5E1,3.6E2,3.08E2,5.2E1,2.24E2,8.4E1,2.6E1,2.6E1,1.99E2,2.5E1,4.9E1,3.5E1,1.7E1,9E0],"tree_param":{"num_deleted":"0","num_feature":"140","num_nodes":"15","size_leaf_vector":"1"}},{"base_weights":[-3.1763783E-1,-4.9409857E0,3.776438E-1,-5.511903E-1,-9.2514527E-1,-4.942774E-1,2.5056314E0,1.5069513E-1,-2.3054567E-1,2.5992017E0,-9.8120576E-1,-6.139281E-1,4.6630864E0,4.1096872E-1,-8.5606925E-2,-1.5603036E-1,2.4446957E-1,3.4429798E-1,-2.806377E-1,5.8800226E-1,-4.05218E-2],"categories":[],"categories_nodes":[],"categories_segments":[],"categories_sizes":[],"default_left":[0,0,0,0,0,0,0,0,0,0,0,0,0,0,0,0,0,0,0,0,0],"id":24,"left_children":[1,3,5,7,-1,9,11,-1,-1,13,15,17,19,-1,-1,-1,-1,-1,-1,-1,-1],"loss_changes":[1.2443739E3,8.5963965E2,6.437263E2,1.5032428E2,0E0,4.0028558E2,7.041606E2,0E0,0E0,2.092714E2,4.405191E2,5.0644296E2,3.511145E2,0E0,0E0,0E0,0E0,0E0,0E0,0E0,0E0],"parents":[2147483647,0,0,1,1,2,2,3,3,5,5,6,6,9,9,10,10,11,11,12,12],"right_children":[2,4,6,8,-1,10,12,-1,-1,14,16,18,20,-1,-1,-1,-1,-1,-1,-1,-1],"split_conditions":[1.125E2,0E0,1.17170296E2,2.87E1,-9.2514527E-1,-1.3091011E1,3.8867924E0,1.5069513E-1,-2.3054567E-1,1.1394934E2,6.0918873E1,6.0666668E1,5E0,4.1096872E-1,-8.5606925E-2,-1.5603036E-1,2.4446957E-1,3.4429798E-1,-2.806377E-1,5.8800226E-1,-4.05218E-2],"split_indices":[32,66,129,30,0,135,23,0,0,129,24,11,50,0,0,0,0,0,0,0,0],"split_type":[0,0,0,0,0,0,0,0,0,0,0,0,0,0,0,0,0,0,0,0,0],"sum_hessian":[3.72E2,4.1E1,3.31E2,2.5E1,1.6E1,2.4E2,9.1E1,1.2E1,1.3E1,2.7E1,2.13E2,4E1,5.1E1,1.8E1,9E0,1.88E2,2.5E1,1.2E1,2.8E1,4.1E1,1E1],"tree_param":{"num_deleted":"0","num_feature":"140","num_nodes":"21","size_leaf_vector":"1"}},{"base_weights":[-3.331212E-1,-7.331153E-1,4.978808E-2,-1.2052251E0,1.0929286E0,3.17453E-1,-1.7348018E0,-2.7203462E0,1.5869972E0,-6.226594E-2,-3.3366463E-1,-4.3105945E-1,1.7123438E-2,-5.056131E-2,2.8385007E-1],"categories":[],"categories_nodes":[],"categories_segments":[],"categories_sizes":[],"default_left":[0,0,0,0,0,0,0,0,0,0,0,0,0,0,0],"id":25,"left_children":[1,-1,3,5,7,-1,9,11,13,-1,-1,-1,-1,-1,-1],"loss_changes":[1.0104982E3,0E0,5.0294574E2,4.49177E2,4.3607617E2,0E0,2.5814114E2,1.2500806E2,4.8458173E2,0E0,0E0,0E0,0E0,0E0,0E0],"parents":[2147483647,0,0,2,2,3,3,4,4,6,6,7,7,8,8],"right_children":[2,-1,4,6,8,-1,10,12,14,-1,-1,-1,-1,-1,-1],"split_conditions":[1.00333336E2,-7.331153E-1,1.0287946E2,2.56E1,-6.208694E0,3.17453E-1,1.129E2,1.0856287E0,2.3214285E-1,-6.226594E-2,-3.3366463E-1,-4.3105945E-1,1.7123438E-2,-5.056131E-2,2.8385007E-1],"split_indices":[64,0,74,31,84,0,45,118,28,0,0,0,0,0,0],"split_type":[0,0,0,0,0,0,0,0,0,0,0,0,0,0,0],"sum_hessian":[3.76E2,1.1E1,3.65E2,1.65E2,2E2,1.3E1,1.52E2,1.8E1,1.82E2,9.5E1,5.7E1,9E0,9E0,6.8E1,1.14E2],"tree_param":{"num_deleted":"0","num_feature":"140","num_nodes":"15","size_leaf_vector":"1"}},{"base_weights":[1.3633612E-1,-1.4653435E0,1.5742538E0,-6.293509E-1,-7.960168E-1,2.659825E-1,3.2111604E0,-3.24409E-2,-4.0463295E0,3.040762E0,-1.2068107E0,4.4179654E0,1.9083528E-1,1.17720805E-1,-2.3250246E-1,1.212009E-2,-6.089305E-1,-1.6895275E-1,4.740563E-1,3.0924863E-1,-2.1088442E-1,5.3684896E-1,-2.7839342E-2,3.1014413E-1,-2.5429243E-1],"categories":[],"categories_nodes":[],"categories_segments":[],"categories_sizes":[],"default_left":[0,0,0,0,0,0,0,0,0,0,0,0,0,0,0,0,0,0,0,0,0,0,0,0,0],"id":26,"left_children":[1,3,5,-1,7,9,11,13,15,17,19,21,23,-1,-1,-1,-1,-1,-1,-1,-1,-1,-1,-1,-1],"loss_changes":[8.915988E2,5.2782635E2,4.2775436E2,0E0,4.2452298E2,5.4002277E2,3.183694E2,4.174227E2,2.6385828E2,4.1169208E2,3.742612E2,2.5839795E2,3.4129834E2,0E0,0E0,0E0,0E0,0E0,0E0,0E0,0E0,0E0,0E0,0E0,0E0],"parents":[2147483647,0,0,1,1,2,2,4,4,5,5,6,6,7,7,8,8,9,9,10,10,11,11,12,12],"right_children":[2,4,6,-1,8,10,12,14,16,18,20,22,24,-1,-1,-1,-1,-1,-1,-1,-1,-1,-1,-1,-1],"split_conditions":[1.0287946E2,-1E0,4.5E1,-6.293509E-1,1.0258929E2,5.55E1,3.537037E1,5.75E1,1.152E2,2.73E1,2.1754386E0,6.34E1,9.150029E0,1.17720805E-1,-2.3250246E-1,1.212009E-2,-6.089305E-1,-1.6895275E-1,4.740563E-1,3.0924863E-1,-2.1088442E-1,5.3684896E-1,-2.7839342E-2,3.1014413E-1,-2.5429243E-1],"split_indices":[74,85,34,0,74,46,25,11,0,31,22,11,29,0,0,0,0,0,0,0,0,0,0,0,0],"split_type":[0,0,0,0,0,0,0,0,0,0,0,0,0,0,0,0,0,0,0,0,0,0,0,0,0],"sum_hessian":[3.68E2,1.74E2,1.94E2,1.2E1,1.62E2,1.14E2,8E1,1.39E2,2.3E1,3.6E1,7.8E1,5.4E1,2.6E1,9.4E1,4.5E1,1E1,1.3E1,9E0,2.7E1,9E0,6.9E1,4.5E1,9E0,1.2E1,1.4E1],"tree_param":{"num_deleted":"0","num_feature":"140","num_nodes":"25","size_leaf_vector":"1"}},{"base_weights":[6.9460355E-2,-1.2022226E0,1.5568787E0,1.4814667E-1,-2.8777504E0,9.673062E-1,5.982979E-1,-2.0528533E0,1.0712425E0,-1.082159E-2,-4.088918E0,1.5617049E0,-4.0407792E-1,1.2395927E-1,-3.5383502E-1,3.35383E-1,-3.7868008E-2,1.6802566E-1,-2.4753858E-1,-5.37735E-1,7.832361E-2,2.1663724E-1,-2.0783988E-1],"categories":[],"categories_nodes":[],"categories_segments":[],"categories_sizes":[],"default_left":[0,0,0,0,0,0,0,0,0,0,0,0,0,0,0,0,0,0,0,0,0,0,0],"id":27,"left_children":[1,3,5,7,9,11,-1,13,15,17,19,21,-1,-1,-1,-1,-1,-1,-1,-1,-1,-1,-1],"loss_changes":[7.6231696E2,4.9632336E2,4.144557E2,2.8424695E2,3.383258E2,5.683913E2,0E0,2.2979584E2,3.2105997E2,1.909295E2,4.2396606E2,3.6342294E2,0E0,0E0,0E0,0E0,0E0,0E0,0E0,0E0,0E0,0E0,0E0],"parents":[2147483647,0,0,1,1,2,2,3,3,4,4,5,5,7,7,8,8,9,9,10,10,11,11],"right_children":[2,4,6,8,10,12,-1,14,16,18,20,22,-1,-1,-1,-1,-1,-1,-1,-1,-1,-1,-1],"split_conditions":[1.0330357E2,1.13300644E2,3.2142856E0,5.588889E1,5.3421326E1,1.2346667E2,5.982979E-1,2.8980463E1,5.76E1,3.043478E-1,3.13E1,8.94E1,-4.0407792E-1,1.2395927E-1,-3.5383502E-1,3.35383E-1,-3.7868008E-2,1.6802566E-1,-2.4753858E-1,-5.37735E-1,7.832361E-2,2.1663724E-1,-2.0783988E-1],"split_indices":[74,5,22,15,24,65,0,25,11,60,63,26,0,0,0,0,0,0,0,0,0,0,0],"split_type":[0,0,0,0,0,0,0,0,0,0,0,0,0,0,0,0,0,0,0,0,0,0,0],"sum_hessian":[3.84E2,2.08E2,1.76E2,1.2E2,8.8E1,1.65E2,1.1E1,3.2E1,8.8E1,2.9E1,5.9E1,1.53E2,1.2E1,1E1,2.2E1,3E1,5.8E1,1.9E1,1E1,4.7E1,1.2E1,1.36E2,1.7E1],"tree_param":{"num_deleted":"0","num_feature":"140","num_nodes":"23","size_leaf_vector":"1"}},{"base_weights":[-1.9757883E-1,-4.615015E0,2.432803E-1,-6.517129E-1,1.693413E-2,-1.1674331E0,1.0946063E0,1.0106314E0,-2.6211145E0,2.412557E-1,3.1605625E0,-1.5887119E-1,2.9948243E-1,-9.286974E-2,-5.219402E-1,-1.4500268E-1,1.262974E-1,-2.3929133E-1,4.5625213E-1],"categories":[],"categories_nodes":[],"categories_segments":[],"categories_sizes":[],"default_left":[0,0,0,0,0,0,0,0,0,0,0,0,0,0,0,0,0,0,0],"id":28,"left_children":[1,3,5,-1,-1,7,9,11,13,15,17,-1,-1,-1,-1,-1,-1,-1,-1],"loss_changes":[7.421268E2,2.9835706E2,4.3322717E2,0E0,0E0,4.576961E2,3.868363E2,3.4476678E2,3.1438678E2,2.9343732E2,5.5783014E2,0E0,0E0,0E0,0E0,0E0,0E0,0E0,0E0],"parents":[2147483647,0,0,1,1,2,2,5,5,6,6,7,7,8,8,9,9,10,10],"right_children":[2,4,6,-1,-1,8,10,12,14,16,18,-1,-1,-1,-1,-1,-1,-1,-1],"split_conditions":[9.96875E1,5.9666668E1,2.398524E-1,-6.517129E-1,1.693413E-2,-2.7087913E0,7.8565605E1,8E1,1.0397321E2,1.06E1,1.0071429E2,-1.5887119E-1,2.9948243E-1,-9.286974E-2,-5.219402E-1,-1.4500268E-1,1.262974E-1,-2.3929133E-1,4.5625213E-1],"split_indices":[36,47,28,0,0,123,121,58,4,53,4,0,0,0,0,0,0,0,0],"split_type":[0,0,0,0,0,0,0,0,0,0,0,0,0,0,0,0,0,0,0],"sum_hessian":[3.66E2,2.5E1,3.41E2,1.6E1,9E0,1.27E2,2.14E2,5.2E1,7.5E1,1.59E2,5.5E1,2.3E1,2.9E1,5.2E1,2.3E1,5.8E1,1.01E2,9E0,4.6E1],"tree_param":{"num_deleted":"0","num_feature":"140","num_nodes":"19","size_leaf_vector":"1"}},{"base_weights":[-2.835412E-1,-7.495533E-1,1.6715063E-1,1.9892696E0,-6.5544164E-1,-8.936874E-1,3.2990997E0,-1.0470527E0,4.589692E-1,-2.5800622E-1,1.4437793E-1,1.0892554E-2,5.100374E-1,-1.6925488E-1,1.7350864E-1],"categories":[],"categories_nodes":[],"categories_segments":[],"categories_sizes":[],"default_left":[0,0,0,0,0,0,0,0,0,0,0,0,0,0,0],"id":29,"left_children":[1,-1,3,5,7,9,11,13,-1,-1,-1,-1,-1,-1,-1],"loss_changes":[1.239884E3,0E0,5.723773E2,4.7588467E2,5.767886E2,2.0056808E2,4.4271832E2,4.4692896E2,0E0,0E0,0E0,0E0,0E0,0E0,0E0],"parents":[2147483647,0,0,2,2,3,3,4,4,5,5,6,6,7,7],"right_children":[2,-1,4,6,8,10,12,14,-1,-1,-1,-1,-1,-1,-1],"split_conditions":[1.0033482E2,-7.495533E-1,5.5666668E1,3E0,3.1E0,2.4509804E0,2.3809524E0,3.16E1,4.589692E-1,-2.5800622E-1,1.4437793E-1,1.0892554E-2,5.100374E-1,-1.6925488E-1,1.7350864E-1],"split_indices":[74,0,46,68,22,54,22,62,0,0,0,0,0,0,0],"split_type":[0,0,0,0,0,0,0,0,0,0,0,0,0,0,0],"sum_hessian":[3.78E2,1.4E1,3.64E2,1.09E2,2.55E2,3.5E1,7.4E1,2.44E2,1.1E1,2E1,1.5E1,2.9E1,4.5E1,2.03E2,4.1E1],"tree_param":{"num_deleted":"0","num_feature":"140","num_nodes":"15","size_leaf_vector":"1"}},{"base_weights":[8.78045E-2,-6.328817E-1,4.3308088E-1,4.057249E0,9.306742E-2,1.8814774E-2,5.6611437E-1,3.6557963E-1,-3.7343365E-1,-8.150283E-2,1.1923447E-1],"categories":[],"categories_nodes":[],"categories_segments":[],"categories_sizes":[],"default_left":[0,0,0,0,0,0,0,0,0,0,0],"id":30,"left_children":[1,-1,3,5,7,-1,-1,9,-1,-1,-1],"loss_changes":[8.508248E2,0E0,4.5301062E2,1.6969739E2,3.6773877E2,0E0,0E0,3.1789627E2,0E0,0E0,0E0],"parents":[2147483647,0,0,2,2,3,3,4,4,7,7],"right_children":[2,-1,4,6,8,-1,-1,10,-1,-1,-1],"split_conditions":[1.00333336E2,-6.328817E-1,-4.004011E2,1.125E2,5.0208335E0,1.8814774E-2,5.6611437E-1,2.3809524E0,-3.7343365E-1,-8.150283E-2,1.1923447E-1],"split_indices":[64,0,121,12,23,0,0,22,0,0,0],"split_type":[0,0,0,0,0,0,0,0,0,0,0],"sum_hessian":[3.72E2,1.1E1,3.61E2,2.2E1,3.39E2,9E0,1.3E1,3.24E2,1.5E1,1.32E2,1.92E2],"tree_param":{"num_deleted":"0","num_feature":"140","num_nodes":"11","size_leaf_vector":"1"}},{"base_weights":[-1.6334604E-1,-5.505245E-1,1.02476224E-1,-1.5054247E0,6.5613216E-1,8.285838E-1,-3.8318396E0,-3.1763822E-1,2.5238476E0,-2.3187502E-1,2.1995883E-1,-5.2738315E-1,-6.360065E-2,-1.1676331E-1,2.419086E-1,3.3762312E-1,-1.0764548E-1],"categories":[],"categories_nodes":[],"categories_segments":[],"categories_sizes":[],"default_left":[0,0,0,0,0,0,0,0,0,0,0,0,0,0,0,0,0],"id":31,"left_children":[1,-1,3,5,7,9,11,13,15,-1,-1,-1,-1,-1,-1,-1,-1],"loss_changes":[5.2948126E2,0E0,3.3842993E2,5.6008344E2,5.197442E2,2.7688947E2,1.8294403E2,4.5180527E2,3.019721E2,0E0,0E0,0E0,0E0,0E0,0E0,0E0,0E0],"parents":[2147483647,0,0,2,2,3,3,4,4,5,5,6,6,7,7,8,8],"right_children":[2,-1,4,6,8,10,12,14,16,-1,-1,-1,-1,-1,-1,-1,-1],"split_conditions":[1.00333336E2,-5.505245E-1,-2E0,1.014181E1,4.9E1,7.42E1,1.1691761E2,1.18681244E2,6.4E1,-2.3187502E-1,2.1995883E-1,-5.2738315E-1,-6.360065E-2,-1.1676331E-1,2.419086E-1,3.3762312E-1,-1.0764548E-1],"split_indices":[12,0,125,61,34,58,132,127,34,0,0,0,0,0,0,0,0],"split_type":[0,0,0,0,0,0,0,0,0,0,0,0,0,0,0,0,0],"sum_hessian":[3.69E2,9E0,3.6E2,8.8E1,2.72E2,4.7E1,4.1E1,1.84E2,8.8E1,1.2E1,3.5E1,2.5E1,1.6E1,1.45E2,3.9E1,7.3E1,1.5E1],"tree_param":{"num_deleted":"0","num_feature":"140","num_nodes":"17","size_leaf_vector":"1"}},{"base_weights":[-1.4632015E-1,-1.2998978E0,9.3295634E-1,-2.787782E0,9.335209E-2,-2.5551674E-1,2.1884058E0,-3.8841932E0,-7.8586854E-2,-1.599286E0,1.3334857E0,3.281777E-1,-1.1187468E0,4.253553E0,7.217968E-1,-2.5217354E-2,-4.6310434E-1,2.555342E-1,-2.460021E-1,-3.0226046E-1,4.6407774E-2,3.2070124E-1,-1.7448299E-1,-1.1308607E-2,-3.5325548E-1,1.2347501E-1,5.658625E-1,-2.5078824E-1,2.0967346E-1],"categories":[],"categories_nodes":[],"categories_segments":[],"categories_sizes":[],"default_left":[0,0,0,0,0,0,0,0,0,0,0,0,0,0,0,0,0,0,0,0,0,0,0,0,0,0,0,0,0],"id":32,"left_children":[1,3,5,7,9,11,13,15,17,19,21,-1,23,25,27,-1,-1,-1,-1,-1,-1,-1,-1,-1,-1,-1,-1,-1,-1],"loss_changes":[4.766839E2,3.8508072E2,3.016108E2,2.6309973E2,2.3986276E2,3.6429276E2,2.6612698E2,1.362674E2,2.696388E2,1.4735556E2,4.0850488E2,0E0,2.207536E2,8.552527E1,3.3564642E2,0E0,0E0,0E0,0E0,0E0,0E0,0E0,0E0,0E0,0E0,0E0,0E0,0E0,0E0],"parents":[2147483647,0,0,1,1,2,2,3,3,4,4,5,5,6,6,7,7,8,8,9,9,10,10,12,12,13,13,14,14],"right_children":[2,4,6,8,10,12,14,16,18,20,22,-1,24,26,28,-1,-1,-1,-1,-1,-1,-1,-1,-1,-1,-1,-1,-1,-1],"split_conditions":[1.1353333E2,1.12438835E2,1.0339286E2,5.6685104E1,2.56E1,3.3157895E0,5.298887E1,5.25E1,4E0,1.14E2,1.1827716E2,3.281777E-1,1.20326416E2,5.8333332E1,1.3249128E3,-2.5217354E-2,-4.6310434E-1,2.555342E-1,-2.460021E-1,-3.0226046E-1,4.6407774E-2,3.2070124E-1,-1.7448299E-1,-1.1308607E-2,-3.5325548E-1,1.2347501E-1,5.658625E-1,-2.5078824E-1,2.0967346E-1],"split_indices":[64,37,74,56,59,23,56,10,73,40,130,0,126,43,78,0,0,0,0,0,0,0,0,0,0,0,0,0,0],"split_type":[0,0,0,0,0,0,0,0,0,0,0,0,0,0,0,0,0,0,0,0,0,0,0,0,0,0,0,0,0],"sum_hessian":[3.64E2,1.75E2,1.89E2,8E1,9.5E1,1.01E2,8.8E1,5.4E1,2.6E1,3.9E1,5.6E1,1.5E1,8.6E1,2.9E1,5.9E1,1E1,4.4E1,1.2E1,1.4E1,2.1E1,1.8E1,3.5E1,2.1E1,6.7E1,1.9E1,1.4E1,1.5E1,1.5E1,4.4E1],"tree_param":{"num_deleted":"0","num_feature":"140","num_nodes":"29","size_leaf_vector":"1"}},{"base_weights":[6.4251805E-4,-1.1573806E0,1.2432759E0,4.5040148E-1,-2.2592468E0,-1.1861063E-1,2.5671246E0,2.7101216E0,-1.2653842E0,-1.0535421E0,-4.9598684E0,-1.8197777E0,1.2743347E0,5.1600084E-2,4.3819118E0,-1.5144737E-2,4.423532E-1,1.4059284E-1,-3.7104157E-1,-2.139061E-1,2.196243E-1,-7.1119994E-1,-2.9456887E-2,-3.1314003E-1,1.2275803E-1,2.7249306E-1,-1.0325977E-1,-2.0156735E-1,2.647659E-1,8.864348E-2,6.229653E-1],"categories":[],"categories_nodes":[],"categories_segments":[],"categories_sizes":[],"default_left":[0,0,0,0,0,0,0,0,0,0,0,0,0,0,0,0,0,0,0,0,0,0,0,0,0,0,0,0,0,0,0],"id":33,"left_children":[1,3,5,7,9,11,13,15,17,19,21,23,25,27,29,-1,-1,-1,-1,-1,-1,-1,-1,-1,-1,-1,-1,-1,-1,-1,-1],"loss_changes":[5.7145026E2,3.7388873E2,3.4828137E2,3.8777203E2,3.523681E2,2.6756274E2,4.432E2,2.0154874E2,4.1131677E2,3.652577E2,3.1002222E2,2.2361298E2,2.2334044E2,3.0704196E2,2.8740283E2,0E0,0E0,0E0,0E0,0E0,0E0,0E0,0E0,0E0,0E0,0E0,0E0,0E0,0E0,0E0,0E0],"parents":[2147483647,0,0,1,1,2,2,3,3,4,4,5,5,6,6,7,7,8,8,9,9,10,10,11,11,12,12,13,13,14,14],"right_children":[2,4,6,8,10,12,14,16,18,20,22,24,26,28,30,-1,-1,-1,-1,-1,-1,-1,-1,-1,-1,-1,-1,-1,-1,-1,-1],"split_conditions":[1.0325893E2,3.9166667E0,0E0,1.128E2,3.0375E1,2.92E1,5.397714E1,2.7E1,5.85E1,5.130549E0,1.158E2,5.608978E1,2.91E1,2.6E-1,9.419129E0,-1.5144737E-2,4.423532E-1,1.4059284E-1,-3.7104157E-1,-2.139061E-1,2.196243E-1,-7.1119994E-1,-2.9456887E-2,-3.1314003E-1,1.2275803E-1,2.7249306E-1,-1.0325977E-1,-2.0156735E-1,2.647659E-1,8.864348E-2,6.229653E-1],"split_indices":[74,55,66,45,30,27,24,27,14,83,32,56,30,28,61,0,0,0,0,0,0,0,0,0,0,0,0,0,0,0,0],"split_type":[0,0,0,0,0,0,0,0,0,0,0,0,0,0,0,0,0,0,0,0,0,0,0,0,0,0,0,0,0,0,0],"sum_hessian":[3.78E2,1.96E2,1.82E2,8.2E1,1.14E2,9.4E1,8.8E1,3.3E1,4.9E1,8.8E1,2.6E1,4.1E1,5.3E1,4.1E1,4.7E1,1.5E1,1.8E1,2.5E1,2.4E1,6.9E1,1.9E1,1.5E1,1.1E1,2.9E1,1.2E1,3.2E1,2.1E1,2.4E1,1.7E1,2E1,2.7E1],"tree_param":{"num_deleted":"0","num_feature":"140","num_nodes":"31","size_leaf_vector":"1"}},{"base_weights":[-3.5143688E-1,-4.7439303E0,1.7955856E-1,-7.437469E-1,-9.344614E-3,4.925946E-1,-3.8701326E-1,-1.0454974E0,1.50325E0,5.7393987E-2,-3.5698014E-1,-2.9002813E-1,1.9816846E-1],"categories":[],"categories_nodes":[],"categories_segments":[],"categories_sizes":[],"default_left":[0,0,0,0,0,0,0,0,0,0,0,0,0],"id":34,"left_children":[1,3,5,-1,-1,7,-1,9,11,-1,-1,-1,-1],"loss_changes":[8.561112E2,4.5645392E2,4.3089825E2,0E0,0E0,5.0866202E2,0E0,5.3371185E2,4.1734387E2,0E0,0E0,0E0,0E0],"parents":[2147483647,0,0,1,1,2,2,5,5,7,7,8,8],"right_children":[2,4,6,-1,-1,8,-1,10,12,-1,-1,-1,-1],"split_conditions":[1.111E2,5.99E1,5.0208335E0,-7.437469E-1,-9.344614E-3,2.3555555E0,-3.8701326E-1,2.2E0,2.58E1,5.7393987E-2,-3.5698014E-1,-2.9002813E-1,1.9816846E-1],"split_indices":[32,47,23,0,0,22,0,22,63,0,0,0,0],"split_type":[0,0,0,0,0,0,0,0,0,0,0,0,0],"sum_hessian":[3.54E2,3E1,3.24E2,1.6E1,1.4E1,3.08E2,1.6E1,1.22E2,1.86E2,7.8E1,4.4E1,1.2E1,1.74E2],"tree_param":{"num_deleted":"0","num_feature":"140","num_nodes":"13","size_leaf_vector":"1"}},{"base_weights":[2.761346E-1,-5.959946E-1,5.84758E-1,-1.0616236E0,1.1353364E0,-2.092264E0,2.0556555E0,4.7478488E-1,3.1402726E0,-5.292382E-2,-4.0999725E-1,-1.266201E-1,4.1716066E-1,2.6102793E-1,-3.180271E-2,4.626929E-1,-1.4109845E-1],"categories":[],"categories_nodes":[],"categories_segments":[],"categories_sizes":[],"default_left":[0,0,0,0,0,0,0,0,0,0,0,0,0,0,0,0,0],"id":35,"left_children":[1,-1,3,5,7,9,11,13,15,-1,-1,-1,-1,-1,-1,-1,-1],"loss_changes":[7.612294E2,0E0,3.537635E2,3.609719E2,3.665748E2,2.195589E2,2.441734E2,3.7787457E2,4.9155603E2,0E0,0E0,0E0,0E0,0E0,0E0,0E0,0E0],"parents":[2147483647,0,0,2,2,3,3,4,4,5,5,6,6,7,7,8,8],"right_children":[2,-1,4,6,8,10,12,14,16,-1,-1,-1,-1,-1,-1,-1,-1],"split_conditions":[1.0011161E2,-5.959946E-1,-2E0,1.1408163E1,1.176E2,7.8666664E1,8.474533E0,5.4333332E1,1.0468697E1,-5.292382E-2,-4.0999725E-1,-1.266201E-1,4.1716066E-1,2.6102793E-1,-3.180271E-2,4.626929E-1,-1.4109845E-1],"split_indices":[74,0,125,21,13,26,29,43,29,0,0,0,0,0,0,0,0],"split_type":[0,0,0,0,0,0,0,0,0,0,0,0,0,0,0,0,0],"sum_hessian":[3.78E2,1E1,3.68E2,9E1,2.78E2,7E1,2E1,2.18E2,6E1,4.5E1,2.5E1,9E0,1.1E1,5.4E1,1.64E2,4.6E1,1.4E1],"tree_param":{"num_deleted":"0","num_feature":"140","num_nodes":"17","size_leaf_vector":"1"}},{"base_weights":[-1.4340172E-2,-4.59047E0,4.981538E-1,-1.031074E0,-8.090023E-1,-4.5657855E-1,1.7871637E0,8.430285E-2,-2.6167068E-1,2.1246023E-1,-2.9914846E0,2.2398386E0,-2.5999138E-1,-1.7244399E-1,1.0168583E-1,-4.0517184E-1,-7.7852504E-3,2.8061703E-1,-1.0337971E-1],"categories":[],"categories_nodes":[],"categories_segments":[],"categories_sizes":[],"default_left":[0,0,0,0,0,0,0,0,0,0,0,0,0,0,0,0,0,0,0],"id":36,"left_children":[1,3,5,7,-1,9,11,-1,-1,13,15,17,-1,-1,-1,-1,-1,-1,-1],"loss_changes":[8.9794867E2,3.7573102E2,4.3183588E2,1.03517715E2,0E0,3.5469672E2,3.4513657E2,0E0,0E0,2.6956308E2,1.19374695E2,2.5254138E2,0E0,0E0,0E0,0E0,0E0,0E0,0E0],"parents":[2147483647,0,0,1,1,2,2,3,3,5,5,6,6,9,9,10,10,11,11],"right_children":[2,4,6,8,-1,10,12,-1,-1,14,16,18,-1,-1,-1,-1,-1,-1,-1],"split_conditions":[1.111E2,9.9375E0,1.1453846E2,2.98E1,-8.090023E-1,3.95E1,1.236217E2,8.430285E-2,-2.6167068E-1,1.1009091E2,3.14E1,8.94E1,-2.5999138E-1,-1.7244399E-1,1.0168583E-1,-4.0517184E-1,-7.7852504E-3,2.8061703E-1,-1.0337971E-1],"split_indices":[32,53,64,30,0,59,129,0,0,69,27,58,0,0,0,0,0,0,0],"split_type":[0,0,0,0,0,0,0,0,0,0,0,0,0,0,0,0,0,0,0],"sum_hessian":[3.64E2,2.9E1,3.35E2,2E1,9E0,1.96E2,1.39E2,1.1E1,9E0,1.62E2,3.4E1,1.3E2,9E0,4.4E1,1.18E2,2.3E1,1.1E1,1.14E2,1.6E1],"tree_param":{"num_deleted":"0","num_feature":"140","num_nodes":"19","size_leaf_vector":"1"}},{"base_weights":[-8.4766015E-2,-6.3901556E-1,2.2633824E-1,-1.0121143E0,9.97516E-1,-3.0688496E0,-2.7894184E-1,2.5347629E0,-3.0212015E-1,2.8882345E-2,-4.490676E-1,7.257981E-2,-2.1869688E-1,-3.2016676E-2,3.713282E-1,-1.6949077E-1,2.0186715E-1],"categories":[],"categories_nodes":[],"categories_segments":[],"categories_sizes":[],"default_left":[0,0,0,0,0,0,0,0,0,0,0,0,0,0,0,0,0],"id":37,"left_children":[1,-1,3,5,7,9,11,13,15,-1,-1,-1,-1,-1,-1,-1,-1],"loss_changes":[7.379709E2,0E0,3.626034E2,2.1281383E2,4.7194327E2,1.7713812E2,2.3161897E2,3.4435547E2,4.444995E2,0E0,0E0,0E0,0E0,0E0,0E0,0E0,0E0],"parents":[2147483647,0,0,2,2,3,3,4,4,5,5,6,6,7,7,8,8],"right_children":[2,-1,4,6,8,10,12,14,16,-1,-1,-1,-1,-1,-1,-1,-1],"split_conditions":[4.85E1,-6.3901556E-1,3.1453823E1,7.02E1,7.8666664E1,-1E0,1.1006613E2,-2.8498354E1,1.164E2,2.8882345E-2,-4.490676E-1,7.257981E-2,-2.1869688E-1,-3.2016676E-2,3.713282E-1,-1.6949077E-1,2.0186715E-1],"split_indices":[15,0,25,26,26,71,79,121,33,0,0,0,0,0,0,0,0],"split_type":[0,0,0,0,0,0,0,0,0,0,0,0,0,0,0,0,0],"sum_hessian":[3.69E2,9E0,3.6E2,1.37E2,2.23E2,2.8E1,1.09E2,9.8E1,1.25E2,1E1,1.8E1,7.5E1,3.4E1,2.9E1,6.9E1,8E1,4.5E1],"tree_param":{"num_deleted":"0","num_feature":"140","num_nodes":"17","size_leaf_vector":"1"}},{"base_weights":[-1.8406283E-2,-3.928984E0,4.2691052E-1,-7.157335E-1,2.0062786E-2,8.5748106E-1,-1.8578017E0,2.3453536E0,2.1432896E-1,1.050814E-1,-3.1419804E0,4.539266E-1,3.142149E-2,-7.227238E-2,2.418814E-1,-9.85134E-3,-4.2449823E-1],"categories":[],"categories_nodes":[],"categories_segments":[],"categories_sizes":[],"default_left":[0,0,0,0,0,0,0,0,0,0,0,0,0,0,0,0,0],"id":38,"left_children":[1,3,5,-1,-1,7,9,11,13,-1,15,-1,-1,-1,-1,-1,-1],"loss_changes":[6.909507E2,5.2433435E2,3.6598254E2,0E0,0E0,2.8854553E2,2.5132854E2,3.7612E2,4.5914597E2,0E0,1.2896063E2,0E0,0E0,0E0,0E0,0E0,0E0],"parents":[2147483647,0,0,1,1,2,2,5,5,6,6,7,7,8,8,10,10],"right_children":[2,4,6,-1,-1,8,10,12,14,-1,16,-1,-1,-1,-1,-1,-1],"split_conditions":[1.0563636E2,1.1413333E2,3E0,-7.157335E-1,2.0062786E-2,1.10724014E2,1.104E2,2.75E1,1.0417411E2,1.050814E-1,1.4311509E3,4.539266E-1,3.142149E-2,-7.227238E-2,2.418814E-1,-9.85134E-3,-4.2449823E-1],"split_indices":[64,70,16,0,0,132,41,27,74,0,77,0,0,0,0,0,0],"split_type":[0,0,0,0,0,0,0,0,0,0,0,0,0,0,0,0,0],"sum_hessian":[3.78E2,3.1E1,3.47E2,1.4E1,1.7E1,2.97E2,5E1,8.2E1,2.15E2,1.6E1,3.4E1,3.5E1,4.7E1,1.55E2,6E1,1.1E1,2.3E1],"tree_param":{"num_deleted":"0","num_feature":"140","num_nodes":"17","size_leaf_vector":"1"}},{"base_weights":[1.9059202E-1,4.9716803E-1,-3.305664E0,9.8065007E-1,-2.2267838E0,-2.830133E-2,-4.7655174E-1,-1.1514253E-2,2.0315244E0,-3.4401608E0,2.9768508E-2,-7.7039436E-2,3.5059395E-1,3.1812987E-1,-6.398307E-2,-1.0565631E-2,-4.7291234E-1],"categories":[],"categories_nodes":[],"categories_segments":[],"categories_sizes":[],"default_left":[0,0,0,0,0,0,0,0,0,0,0,0,0,0,0,0,0],"id":39,"left_children":[1,3,5,7,9,-1,-1,11,13,15,-1,-1,-1,-1,-1,-1,-1],"loss_changes":[4.0539136E2,4.7201413E2,1.122366E2,3.1047336E2,1.7620349E2,0E0,0E0,4.3773627E2,4.3056317E2,1.427208E2,0E0,0E0,0E0,0E0,0E0,0E0,0E0],"parents":[2147483647,0,0,1,1,2,2,3,3,4,4,7,7,8,8,9,9],"right_children":[2,4,6,8,10,-1,-1,12,14,16,-1,-1,-1,-1,-1,-1,-1],"split_conditions":[1.223E2,3.5639414E-1,8.948142E0,4.7E1,1.161E2,-2.830133E-2,-4.7655174E-1,6.14E1,8.42E1,5.825E1,2.9768508E-2,-7.7039436E-2,3.5059395E-1,3.1812987E-1,-6.398307E-2,-1.0565631E-2,-4.7291234E-1],"split_indices":[12,60,135,34,1,0,0,11,26,47,0,0,0,0,0,0,0],"split_type":[0,0,0,0,0,0,0,0,0,0,0,0,0,0,0,0,0],"sum_hessian":[3.54E2,3.33E2,2.1E1,2.88E2,4.5E1,1E1,1.1E1,1.53E2,1.35E2,2.8E1,1.7E1,1.32E2,2.1E1,9.5E1,4E1,1E1,1.8E1],"tree_param":{"num_deleted":"0","num_feature":"140","num_nodes":"17","size_leaf_vector":"1"}},{"base_weights":[-1.2084152E-1,1.5973823E-1,-5.692293E-1,1.5989935E0,-4.758214E-1,-2.192884E-1,3.749224E0,-2.0447795E0,3.453605E-1,2.0371187E-1,-2.0737666E-1,4.8529465E-2,5.058681E-1,1.9985072E-1,-2.8405583E-1,-4.454419E-2,2.6451865E-1],"categories":[],"categories_nodes":[],"categories_segments":[],"categories_sizes":[],"default_left":[0,0,0,0,0,0,0,0,0,0,0,0,0,0,0,0,0],"id":40,"left_children":[1,3,-1,5,7,9,11,13,15,-1,-1,-1,-1,-1,-1,-1,-1],"loss_changes":[5.7655804E2,3.398331E2,0E0,4.51847E2,3.4116803E2,3.1951004E2,1.8210638E2,3.1484122E2,3.2219757E2,0E0,0E0,0E0,0E0,0E0,0E0,0E0,0E0],"parents":[2147483647,0,0,1,1,3,3,4,4,5,5,6,6,7,7,8,8],"right_children":[2,4,-1,6,8,10,12,14,16,-1,-1,-1,-1,-1,-1,-1,-1],"split_conditions":[3.4166668E1,5.57E1,-5.692293E-1,5.4333332E1,1.11805046E2,9.733328E0,2.4464285E0,4.94744E1,5.9E1,2.0371187E-1,-2.0737666E-1,4.8529465E-2,5.058681E-1,1.9985072E-1,-2.8405583E-1,-4.454419E-2,2.6451865E-1],"split_indices":[30,46,0,46,37,29,22,56,43,0,0,0,0,0,0,0,0],"split_type":[0,0,0,0,0,0,0,0,0,0,0,0,0,0,0,0,0],"sum_hessian":[3.63E2,3.54E2,9E0,1.04E2,2.5E2,6.1E1,4.3E1,8.1E1,1.69E2,2.7E1,3.4E1,1.5E1,2.8E1,1E1,7.1E1,1.31E2,3.8E1],"tree_param":{"num_deleted":"0","num_feature":"140","num_nodes":"17","size_leaf_vector":"1"}},{"base_weights":[-3.0039996E-1,-5.8311266E-1,-2.7112026E-2,-8.092512E-1,1.0275105E0,-1.4647804E0,2.0304518E0,2.1573898E-1,3.306076E0,4.1005705E-2,-2.8623542E-1,-1.6019125E-1,3.4059882E-1,1.1183005E-1,-1.9791847E-1,6.476945E-2,3.9379528E-1],"categories":[],"categories_nodes":[],"categories_segments":[],"categories_sizes":[],"default_left":[0,0,0,0,0,0,0,0,0,0,0,0,0,0,0,0,0],"id":41,"left_children":[1,-1,3,5,7,9,11,13,15,-1,-1,-1,-1,-1,-1,-1,-1],"loss_changes":[5.6648346E2,0E0,3.1855634E2,4.4086063E2,2.9755634E2,4.7047803E2,2.6145682E2,2.6750494E2,3.788855E1,0E0,0E0,0E0,0E0,0E0,0E0,0E0,0E0],"parents":[2147483647,0,0,2,2,3,3,4,4,5,5,6,6,7,7,8,8],"right_children":[2,-1,4,6,8,10,12,14,16,-1,-1,-1,-1,-1,-1,-1,-1],"split_conditions":[4.85E1,-5.8311266E-1,2E0,2.78E0,1.176E2,1.092E2,1.145E2,5.82E1,7.02E1,4.1005705E-2,-2.8623542E-1,-1.6019125E-1,3.4059882E-1,1.1183005E-1,-1.9791847E-1,6.476945E-2,3.9379528E-1],"split_indices":[15,0,125,22,9,41,32,15,26,0,0,0,0,0,0,0,0],"split_type":[0,0,0,0,0,0,0,0,0,0,0,0,0,0,0,0,0],"sum_hessian":[3.76E2,9E0,3.67E2,2.12E2,1.55E2,1.76E2,3.6E1,1.22E2,3.3E1,7.6E1,1E2,9E0,2.7E1,9E1,3.2E1,9E0,2.4E1],"tree_param":{"num_deleted":"0","num_feature":"140","num_nodes":"17","size_leaf_vector":"1"}},{"base_weights":[1.625756E-1,-4.6572804E0,5.4491764E-1,-6.970815E-1,-2.4127195E-2,1.4713234E0,-4.2406783E-1,-1.8746859E0,1.9463509E0,5.6307155E-1,-2.299525E0,-2.584866E-1,-2.3178529E-2,3.20571E-1,2.4565859E-2,1.336685E-1,-2.2110987E-1,8.6307526E-2,-3.6270964E-1],"categories":[],"categories_nodes":[],"categories_segments":[],"categories_sizes":[],"default_left":[0,0,0,0,0,0,0,0,0,0,0,0,0,0,0,0,0,0,0],"id":42,"left_children":[1,3,5,-1,-1,7,9,11,13,15,17,-1,-1,-1,-1,-1,-1,-1,-1],"loss_changes":[7.402999E2,2.6512012E2,3.3681094E2,0E0,0E0,3.377597E2,3.5961328E2,2.504457E1,3.3894104E2,2.9028738E2,2.8785135E2,0E0,0E0,0E0,0E0,0E0,0E0,0E0,0E0],"parents":[2147483647,0,0,1,1,2,2,5,5,6,6,7,7,8,8,9,9,10,10],"right_children":[2,4,6,-1,-1,8,10,12,14,16,18,-1,-1,-1,-1,-1,-1,-1,-1],"split_conditions":[1.109E2,1.145E2,0E0,-6.970815E-1,-2.4127195E-2,-5.089286E0,5.91E1,1.5560408E3,1.1305329E2,1.17E2,1.092E2,-2.584866E-1,-2.3178529E-2,3.20571E-1,2.4565859E-2,1.336685E-1,-2.2110987E-1,8.6307526E-2,-3.6270964E-1],"split_indices":[32,9,71,0,0,75,14,77,5,70,9,0,0,0,0,0,0,0,0],"split_type":[0,0,0,0,0,0,0,0,0,0,0,0,0,0,0,0,0,0,0],"sum_hessian":[3.79E2,2E1,3.59E2,1E1,1E1,1.81E2,1.78E2,1.9E1,1.62E2,1.21E2,5.7E1,1E1,9E0,9.1E1,7.1E1,9.9E1,2.2E1,1.7E1,4E1],"tree_param":{"num_deleted":"0","num_feature":"140","num_nodes":"19","size_leaf_vector":"1"}},{"base_weights":[-3.1239522E-1,-5.463593E-1,-3.413479E-2,7.019032E-1,-9.5493495E-1,2.2271235E-1,3.9833704E-1,-2.3786238E-1,-3.039749E0,1.5865022E-1,-1.2808238E-1,-1.8252154E-1,8.165262E-2,-4.3743342E-1,6.991583E-2],"categories":[],"categories_nodes":[],"categories_segments":[],"categories_sizes":[],"default_left":[0,0,0,0,0,0,0,0,0,0,0,0,0,0,0],"id":43,"left_children":[1,-1,3,5,7,9,-1,11,13,-1,-1,-1,-1,-1,-1],"loss_changes":[5.200237E2,0E0,2.5280676E2,3.085517E2,2.4058731E2,3.9050262E2,0E0,2.2686082E2,2.1799149E2,0E0,0E0,0E0,0E0,0E0,0E0],"parents":[2147483647,0,0,2,2,3,3,4,4,5,5,7,7,8,8],"right_children":[2,-1,4,6,8,10,-1,12,14,-1,-1,-1,-1,-1,-1],"split_conditions":[1.0011161E2,-5.463593E-1,1.1305329E2,1.23E2,3.4567901E-1,1.128E2,3.9833704E-1,5.4087795E1,8.62E1,1.5865022E-1,-1.2808238E-1,-1.8252154E-1,8.165262E-2,-4.3743342E-1,6.991583E-2],"split_indices":[74,0,5,45,60,41,0,56,26,0,0,0,0,0,0],"split_type":[0,0,0,0,0,0,0,0,0,0,0,0,0,0,0],"sum_hessian":[3.64E2,1E1,3.54E2,1.98E2,1.56E2,1.81E2,1.7E1,1.24E2,3.2E1,9.5E1,8.6E1,4.7E1,7.7E1,2.3E1,9E0],"tree_param":{"num_deleted":"0","num_feature":"140","num_nodes":"15","size_leaf_vector":"1"}},{"base_weights":[-5.921789E-1,-1.4686698E0,5.3707826E-1,-9.200531E-1,-4.2147865E0,3.4246671E0,-4.656223E-1,2.070958E-1,-1.9561411E0,-1.4913592E-2,-5.919065E-1,4.4450774E0,2.216304E-2,1.3306658E0,-1.9415205E0,2.393622E-1,-9.63437E-2,1.06379874E-1,-3.2184583E-1,8.967227E-2,5.5883396E-1,-1.3440362E-1,2.963809E-1,8.790162E-2,-3.0324706E-1],"categories":[],"categories_nodes":[],"categories_segments":[],"categories_sizes":[],"default_left":[0,0,0,0,0,0,0,0,0,0,0,0,0,0,0,0,0,0,0,0,0,0,0,0,0],"id":44,"left_children":[1,3,5,7,9,11,13,15,17,-1,-1,19,-1,21,23,-1,-1,-1,-1,-1,-1,-1,-1,-1,-1],"loss_changes":[3.6441608E2,2.7261276E2,4.917074E2,2.1823938E2,1.9251056E2,1.3340689E2,3.708242E2,2.5684344E2,3.7373267E2,0E0,0E0,7.161072E1,0E0,3.0268097E2,2.3957663E2,0E0,0E0,0E0,0E0,0E0,0E0,0E0,0E0,0E0,0E0],"parents":[2147483647,0,0,1,1,2,2,3,3,4,4,5,5,6,6,7,7,8,8,11,11,13,13,14,14],"right_children":[2,4,6,8,10,12,14,16,18,-1,-1,20,-1,22,24,-1,-1,-1,-1,-1,-1,-1,-1,-1,-1],"split_conditions":[3.3606274E1,3E0,3.493717E1,2.8714285E1,1.1344495E2,8.48E1,5.79E1,2.4E1,-1.9894821E2,-1.4913592E-2,-5.919065E-1,-1.0645207E2,2.216304E-2,-1.20720795E2,1.3147662E3,2.393622E-1,-9.63437E-2,1.06379874E-1,-3.2184583E-1,8.967227E-2,5.5883396E-1,-1.3440362E-1,2.963809E-1,8.790162E-2,-3.0324706E-1],"split_indices":[25,48,25,31,130,26,47,27,79,0,0,121,0,79,78,0,0,0,0,0,0,0,0,0,0],"split_type":[0,0,0,0,0,0,0,0,0,0,0,0,0,0,0,0,0,0,0,0,0,0,0,0,0],"sum_hessian":[3.51E2,1.96E2,1.55E2,1.74E2,2.2E1,3.4E1,1.21E2,8.7E1,8.7E1,9E0,1.3E1,2.3E1,1.1E1,5.5E1,6.6E1,2.7E1,6E1,2.5E1,6.2E1,9E0,1.4E1,2.1E1,3.4E1,1.8E1,4.8E1],"tree_param":{"num_deleted":"0","num_feature":"140","num_nodes":"25","size_leaf_vector":"1"}},{"base_weights":[-2.1094608E-1,9.428191E-1,-9.806636E-1,-1.0199227E0,1.8462394E0,-3.2520027E0,-5.8057576E-2,9.376226E-1,-2.850673E0,2.6687517E0,-1.3510084E0,-4.6356273E0,8.83392E-2,1.3216373E0,-1.4623852E0,2.2393589E-1,-1.2259584E-1,-4.8444334E-2,-3.7233445E-1,3.153046E-3,4.091077E-1,7.599177E-2,-2.742515E-1,-8.005952E-2,-5.913228E-1,-7.618073E-2,2.9915938E-1,-2.4429646E-1,1.6211466E-1],"categories":[],"categories_nodes":[],"categories_segments":[],"categories_sizes":[],"default_left":[0,0,0,0,0,0,0,0,0,0,0,0,0,0,0,0,0,0,0,0,0,0,0,0,0,0,0,0,0],"id":45,"left_children":[1,3,5,7,9,11,13,15,17,19,21,23,-1,25,27,-1,-1,-1,-1,-1,-1,-1,-1,-1,-1,-1,-1,-1,-1],"loss_changes":[3.3880896E2,2.9028723E2,4.7505035E2,2.2107713E2,3.199499E2,4.1139154E2,3.5087643E2,1.14357086E2,4.0469498E1,3.1157208E2,9.818843E1,1.781051E2,0E0,3.2287973E2,2.873789E2,0E0,0E0,0E0,0E0,0E0,0E0,0E0,0E0,0E0,0E0,0E0,0E0,0E0,0E0],"parents":[2147483647,0,0,1,1,2,2,3,3,4,4,5,5,6,6,7,7,8,8,9,9,10,10,11,11,13,13,14,14],"right_children":[2,4,6,8,10,12,14,16,18,20,22,24,-1,26,28,-1,-1,-1,-1,-1,-1,-1,-1,-1,-1,-1,-1,-1,-1],"split_conditions":[1.1225E2,-8.349202E1,1.144E2,8.2531416E-1,6.18E1,1.1426263E2,4.628E2,1.0357143E2,5.1874462E1,5.56E1,8.798605E0,-1.4017615E2,8.83392E-2,1.5292047E3,2.709091E0,2.2393589E-1,-1.2259584E-1,-4.8444334E-2,-3.7233445E-1,3.153046E-3,4.091077E-1,7.599177E-2,-2.742515E-1,-8.005952E-2,-5.913228E-1,-7.618073E-2,2.9915938E-1,-2.4429646E-1,1.6211466E-1],"split_indices":[40,121,40,118,15,37,138,74,24,15,29,121,0,77,22,0,0,0,0,0,0,0,0,0,0,0,0,0,0],"split_type":[0,0,0,0,0,0,0,0,0,0,0,0,0,0,0,0,0,0,0,0,0,0,0,0,0,0,0,0,0],"sum_hessian":[3.62E2,1.44E2,2.18E2,4.5E1,9.9E1,5.6E1,1.62E2,2.4E1,2.1E1,8E1,1.9E1,4.1E1,1.5E1,8.2E1,8E1,1.5E1,9E0,9E0,1.2E1,3E1,5E1,9E0,1E1,1.3E1,2.8E1,3.8E1,4.4E1,6.3E1,1.7E1],"tree_param":{"num_deleted":"0","num_feature":"140","num_nodes":"29","size_leaf_vector":"1"}},{"base_weights":[-1.9118908E-1,-1.9701618E0,2.1482766E-1,-3.1632977E0,4.2405877E-1,1.3937646E0,-3.953747E-1,-3.549765E-2,-4.337614E0,2.7205154E-1,-1.4620222E-1,-6.6942674E-1,2.7331083E0,2.078538E0,-7.9681784E-1,-6.016256E-1,-7.5652435E-2,-1.9089648E-1,1.8035254E-1,4.1605484E-1,-1.4768553E-1,-4.9646825E-2,3.5576132E-1,-2.180796E-1,1.4158198E-2],"categories":[],"categories_nodes":[],"categories_segments":[],"categories_sizes":[],"default_left":[0,0,0,0,0,0,0,0,0,0,0,0,0,0,0,0,0,0,0,0,0,0,0,0,0],"id":46,"left_children":[1,3,5,7,9,11,13,-1,15,-1,-1,17,19,21,23,-1,-1,-1,-1,-1,-1,-1,-1,-1,-1],"loss_changes":[2.9409122E2,2.2866916E2,2.4666641E2,1.5617932E2,1.7478065E2,3.3958047E2,2.4281837E2,0E0,1.5485358E2,0E0,0E0,1.8665126E2,4.579483E2,1.395047E2,2.5622427E2,0E0,0E0,0E0,0E0,0E0,0E0,0E0,0E0,0E0,0E0],"parents":[2147483647,0,0,1,1,2,2,3,3,4,4,5,5,6,6,8,8,11,11,12,12,13,13,14,14],"right_children":[2,4,6,8,10,12,14,-1,16,-1,-1,18,20,22,24,-1,-1,-1,-1,-1,-1,-1,-1,-1,-1],"split_conditions":[1.0742857E2,5.7126984E1,-3.3781616E2,0E0,2.6857143E1,-8.130971E2,1.0823607E2,-3.549765E-2,6E0,2.7205154E-1,-1.4620222E-1,4.736E2,1.18659424E2,1.181E2,1.9521884E2,-6.016256E-1,-7.5652435E-2,-1.9089648E-1,1.8035254E-1,4.1605484E-1,-1.4768553E-1,-4.9646825E-2,3.5576132E-1,-2.180796E-1,1.4158198E-2],"split_indices":[70,56,120,124,63,120,5,0,68,0,0,139,132,13,120,0,0,0,0,0,0,0,0,0,0],"split_type":[0,0,0,0,0,0,0,0,0,0,0,0,0,0,0,0,0,0,0,0,0,0,0,0,0],"sum_hessian":[3.92E2,6.6E1,3.26E2,4.2E1,2.4E1,1.07E2,2.19E2,1.6E1,2.6E1,9E0,1.5E1,4.4E1,6.3E1,2.5E1,1.94E2,1.4E1,1.2E1,3.1E1,1.3E1,4.8E1,1.5E1,1.1E1,1.4E1,7.5E1,1.19E2],"tree_param":{"num_deleted":"0","num_feature":"140","num_nodes":"25","size_leaf_vector":"1"}},{"base_weights":[1.3980068E-1,-2.4540203E0,4.2707607E-1,-3.7264128E0,9.9753864E-2,6.492845E-1,-2.673796E-1,-7.4630454E-2,-5.585839E-1,1.1070459E-1,1.9828157E0,-3.024249E-2,2.950679E-1,3.2002208E-1,-1.5693466E-1],"categories":[],"categories_nodes":[],"categories_segments":[],"categories_sizes":[],"default_left":[0,0,0,0,0,0,0,0,0,0,0,0,0,0,0],"id":47,"left_children":[1,3,5,7,-1,9,-1,-1,-1,11,13,-1,-1,-1,-1],"loss_changes":[3.0252594E2,2.115627E2,2.6014618E2,1.2524094E2,0E0,2.4536484E2,0E0,0E0,0E0,2.9531284E2,4.407026E2,0E0,0E0,0E0,0E0],"parents":[2147483647,0,0,1,1,2,2,3,3,5,5,9,9,10,10],"right_children":[2,4,6,8,-1,10,-1,-1,-1,12,14,-1,-1,-1,-1],"split_conditions":[1.0563636E2,1.0895205E2,5.0208335E0,-6.7297226E1,9.9753864E-2,4.4E0,-2.673796E-1,-7.4630454E-2,-5.585839E-1,3.1555555E1,1.1813333E2,-3.024249E-2,2.950679E-1,3.2002208E-1,-1.5693466E-1],"split_indices":[64,126,23,120,0,23,0,0,0,62,64,0,0,0,0],"split_type":[0,0,0,0,0,0,0,0,0,0,0,0,0,0,0],"sum_hessian":[3.83E2,3.1E1,3.52E2,2.2E1,9E0,3.35E2,1.7E1,1.3E1,9E0,2.46E2,8.9E1,2.22E2,2.4E1,6.8E1,2.1E1],"tree_param":{"num_deleted":"0","num_feature":"140","num_nodes":"15","size_leaf_vector":"1"}},{"base_weights":[1.3595226E-1,-4.274053E0,5.09421E-1,-3.8606178E-2,-5.948183E-1,-1.3691357E0,8.564427E-1,2.1157652E-1,-2.4120774E0,1.9709426E0,-9.599334E-2,-3.699175E-1,3.3190135E-2,2.597068E-1,-2.0247318E-1,-1.298879E-1,1.5221205E-1],"categories":[],"categories_nodes":[],"categories_segments":[],"categories_sizes":[],"default_left":[0,0,0,0,0,0,0,0,0,0,0,0,0,0,0,0,0],"id":48,"left_children":[1,3,5,-1,-1,7,9,-1,11,13,15,-1,-1,-1,-1,-1,-1],"loss_changes":[6.2288007E2,1.5543921E2,2.364769E2,0E0,0E0,2.5374707E2,3.176669E2,0E0,1.7034488E2,3.5385736E2,3.3216345E2,0E0,0E0,0E0,0E0,0E0,0E0],"parents":[2147483647,0,0,1,1,2,2,5,5,6,6,8,8,9,9,10,10],"right_children":[2,4,6,-1,-1,8,10,-1,12,14,16,-1,-1,-1,-1,-1,-1],"split_conditions":[1.045E2,9.821428E0,2E0,-3.8606178E-2,-5.948183E-1,7.02E1,1.1442857E2,2.1157652E-1,5.86E1,5.76E2,1.8180896E2,-3.699175E-1,3.3190135E-2,2.597068E-1,-2.0247318E-1,-1.298879E-1,1.5221205E-1],"split_indices":[70,21,68,0,0,58,45,0,43,138,120,0,0,0,0,0,0],"split_type":[0,0,0,0,0,0,0,0,0,0,0,0,0,0,0,0,0],"sum_hessian":[3.56E2,2E1,3.36E2,9E0,1.1E1,4.8E1,2.88E2,9E0,3.9E1,1.28E2,1.6E2,2.5E1,1.4E1,1.15E2,1.3E1,9.3E1,6.7E1],"tree_param":{"num_deleted":"0","num_feature":"140","num_nodes":"17","size_leaf_vector":"1"}},{"base_weights":[1.6354341E-2,-5.282199E-1,2.6422817E-1,-4.412572E-1,1.2728634E0,-1.1923894E-1,-3.657977E-1,-6.656231E-1,2.2510192E0,-6.31249E-2,2.3109068E-1,9.319029E-2,-2.6108658E-1,4.5561194E-1,8.644895E-2],"categories":[],"categories_nodes":[],"categories_segments":[],"categories_sizes":[],"default_left":[0,0,0,0,0,0,0,0,0,0,0,0,0,0,0],"id":49,"left_children":[1,-1,3,5,7,9,-1,11,13,-1,-1,-1,-1,-1,-1],"loss_changes":[5.200547E2,0E0,2.8043634E2,2.3223697E2,3.2066223E2,2.7582233E2,0E0,2.046664E2,3.026333E2,0E0,0E0,0E0,0E0,0E0,0E0],"parents":[2147483647,0,0,2,2,3,3,4,4,5,5,7,7,8,8],"right_children":[2,-1,4,6,8,10,-1,12,14,-1,-1,-1,-1,-1,-1],"split_conditions":[1.00333336E2,-5.282199E-1,2E0,6.38E1,1.0851815E2,2.7735848E0,-3.657977E-1,1.0676384E2,1.1138461E2,-6.31249E-2,2.3109068E-1,9.319029E-2,-2.6108658E-1,4.5561194E-1,8.644895E-2],"split_indices":[64,0,125,10,127,22,0,127,65,0,0,0,0,0,0],"split_type":[0,0,0,0,0,0,0,0,0,0,0,0,0,0,0],"sum_hessian":[3.86E2,9E0,3.77E2,2.25E2,1.52E2,2.13E2,1.2E1,5.2E1,1E2,1.82E2,3.1E1,3.1E1,2.1E1,3.1E1,6.9E1],"tree_param":{"num_deleted":"0","num_feature":"140","num_nodes":"15","size_leaf_vector":"1"}},{"base_weights":[-1.8721253E-1,-5.234216E-1,5.7462916E-2,1.9654802E0,-1.7774925E-1,-4.0356625E-2,3.2539513E0,1.0410917E0,-7.4640054E-1,3.7842926E-2,4.509363E-1,-6.219359E-2,3.3220792E-1,-1.1502075E-1,1.425621E-1],"categories":[],"categories_nodes":[],"categories_segments":[],"categories_sizes":[],"default_left":[0,0,0,0,0,0,0,0,0,0,0,0,0,0,0],"id":50,"left_children":[1,-1,3,5,7,-1,9,11,13,-1,-1,-1,-1,-1,-1],"loss_changes":[4.7185632E2,0E0,1.7413274E2,1.4162915E2,2.483184E2,0E0,7.893265E1,4.343551E2,2.0994437E2,0E0,0E0,0E0,0E0,0E0,0E0],"parents":[2147483647,0,0,2,2,3,3,4,4,6,6,7,7,8,8],"right_children":[2,-1,4,6,8,-1,10,12,14,-1,-1,-1,-1,-1,-1],"split_conditions":[1.00333336E2,-5.234216E-1,1.046E2,5.65E1,5.55E1,-4.0356625E-2,1.11E2,5.42E1,6.22E1,3.7842926E-2,4.509363E-1,-6.219359E-2,3.3220792E-1,-1.1502075E-1,1.425621E-1],"split_indices":[8,0,9,10,10,0,40,10,47,0,0,0,0,0,0],"split_type":[0,0,0,0,0,0,0,0,0,0,0,0,0,0,0],"sum_hessian":[3.8E2,9E0,3.71E2,3.3E1,3.38E2,1.4E1,1.9E1,1.05E2,2.33E2,9E0,1E1,6.4E1,4.1E1,2.02E2,3.1E1],"tree_param":{"num_deleted":"0","num_feature":"140","num_nodes":"15","size_leaf_vector":"1"}},{"base_weights":[-2.054737E-1,-6.428558E-1,1.47948E0,-1.9056717E0,1.4921749E-1,2.552589E0,-6.2503517E-1,-3.6810017E0,-4.0255505E-1,6.5788424E-1,-2.0249774E0,-6.206883E-2,3.6281514E0,1.5719856E-1,-1.9560267E-1,-4.7512868E-1,-1.6589524E-2,-1.8084723E-1,9.779548E-2,2.0121677E-1,-4.4856176E-2,6.554901E-3,-3.8107523E-1,2.1691065E-2,4.6990347E-1],"categories":[],"categories_nodes":[],"categories_segments":[],"categories_sizes":[],"default_left":[0,0,0,0,0,0,0,0,0,0,0,0,0,0,0,0,0,0,0,0,0,0,0,0,0],"id":51,"left_children":[1,3,5,7,9,11,13,15,17,19,21,-1,23,-1,-1,-1,-1,-1,-1,-1,-1,-1,-1,-1,-1],"loss_changes":[2.9397116E2,3.1635553E2,2.0170131E2,3.1021185E2,2.3564337E2,2.1314005E2,1.2656537E2,1.7633905E2,1.5763367E2,2.5224059E2,1.4580365E2,0E0,1.3323694E2,0E0,0E0,0E0,0E0,0E0,0E0,0E0,0E0,0E0,0E0,0E0,0E0],"parents":[2147483647,0,0,1,1,2,2,3,3,4,4,5,5,6,6,7,7,8,8,9,9,10,10,12,12],"right_children":[2,4,6,8,10,12,14,16,18,20,22,-1,24,-1,-1,-1,-1,-1,-1,-1,-1,-1,-1,-1,-1],"split_conditions":[8.764103E0,1.148E2,1.0386347E1,1.0140457E1,1.209E2,-3.0035083E0,8.24E1,1.0526786E2,3.346467E1,0E0,4.3265305E0,-6.206883E-2,1.02625E2,1.5719856E-1,-1.9560267E-1,-4.7512868E-1,-1.6589524E-2,-1.8084723E-1,9.779548E-2,2.0121677E-1,-4.4856176E-2,6.554901E-3,-3.8107523E-1,2.1691065E-2,4.6990347E-1],"split_indices":[123,1,29,29,33,118,26,36,57,71,23,0,69,0,0,0,0,0,0,0,0,0,0,0,0],"split_type":[0,0,0,0,0,0,0,0,0,0,0,0,0,0,0,0,0,0,0,0,0,0,0,0,0],"sum_hessian":[3.77E2,3.04E2,7.3E1,1.12E2,1.92E2,4.7E1,2.6E1,4.5E1,6.7E1,1.61E2,3.1E1,1.3E1,3.4E1,9E0,1.7E1,3.3E1,1.2E1,3.2E1,3.5E1,7E1,9.1E1,1.8E1,1.3E1,1E1,2.4E1],"tree_param":{"num_deleted":"0","num_feature":"140","num_nodes":"25","size_leaf_vector":"1"}},{"base_weights":[1.0240005E-1,-3.1465266E0,4.2080426E-1,1.7199606E-2,-5.3484344E-1,3.616589E0,1.00623004E-1,1.2787907E-1,4.7472212E-1,-1.16828114E-1,3.8747686E-1,6.8962604E-2,-1.021148E-1],"categories":[],"categories_nodes":[],"categories_segments":[],"categories_sizes":[],"default_left":[0,0,0,0,0,0,0,0,0,0,0,0,0],"id":52,"left_children":[1,3,5,-1,-1,7,9,-1,-1,11,-1,-1,-1],"loss_changes":[4.0012198E2,2.4583618E2,3.5419437E2,0E0,0E0,2.0693054E1,2.6640683E2,0E0,0E0,2.2776173E2,0E0,0E0,0E0],"parents":[2147483647,0,0,1,1,2,2,5,5,6,6,9,9],"right_children":[2,4,6,-1,-1,8,10,-1,-1,12,-1,-1,-1],"split_conditions":[1.0426667E2,3.9166667E0,1.044803E2,1.7199606E-2,-5.3484344E-1,5.43E1,1.263438E2,1.2787907E-1,4.7472212E-1,1.14083336E2,3.8747686E-1,6.8962604E-2,-1.021148E-1],"split_indices":[70,23,126,0,0,14,126,0,0,69,0,0,0],"split_type":[0,0,0,0,0,0,0,0,0,0,0,0,0],"sum_hessian":[3.65E2,2.5E1,3.4E2,1.3E1,1.2E1,2.2E1,3.18E2,1.3E1,9E0,3.09E2,9E0,1.64E2,1.45E2],"tree_param":{"num_deleted":"0","num_feature":"140","num_nodes":"13","size_leaf_vector":"1"}},{"base_weights":[-1.9840151E-1,-4.3549386E-1,1.8224698E-2,1.3110955E0,-3.754497E-1,2.4552047E0,-2.1143887E0,-1.5017244E0,4.9245268E-1,-1.2689179E-1,3.4035683E-1,1.19119305E-2,-3.3364567E-1,6.650244E-3,-2.4493504E-1,-1.8083762E-1,1.2136295E-1],"categories":[],"categories_nodes":[],"categories_segments":[],"categories_sizes":[],"default_left":[0,0,0,0,0,0,0,0,0,0,0,0,0,0,0,0,0],"id":53,"left_children":[1,-1,3,5,7,9,11,13,15,-1,-1,-1,-1,-1,-1,-1,-1],"loss_changes":[3.3827258E2,0E0,1.953458E2,4.0061255E2,2.9500034E2,2.683146E2,7.38082E1,1.8324557E2,2.9106384E2,0E0,0E0,0E0,0E0,0E0,0E0,0E0,0E0],"parents":[2147483647,0,0,2,2,3,3,4,4,5,5,6,6,7,7,8,8],"right_children":[2,-1,4,6,8,10,12,14,16,-1,-1,-1,-1,-1,-1,-1,-1],"split_conditions":[1.026E2,-4.3549386E-1,1.088E2,3.493717E1,1.0287946E2,2.0036429E-1,1.07125E2,1.10916664E2,1.112E2,-1.2689179E-1,3.4035683E-1,1.19119305E-2,-3.3364567E-1,6.650244E-3,-2.4493504E-1,-1.8083762E-1,1.2136295E-1],"split_indices":[12,0,8,25,74,28,13,69,8,0,0,0,0,0,0,0,0],"split_type":[0,0,0,0,0,0,0,0,0,0,0,0,0,0,0,0,0],"sum_hessian":[3.75E2,1E1,3.65E2,8E1,2.85E2,6.2E1,1.8E1,1.21E2,1.64E2,1.1E1,5.1E1,9E0,9E0,4.7E1,7.4E1,3.5E1,1.29E2],"tree_param":{"num_deleted":"0","num_feature":"140","num_nodes":"17","size_leaf_vector":"1"}},{"base_weights":[-2.8127486E-1,-3.8157866E0,4.4441063E-2,-5.71366E-1,-4.562509E-2,6.896529E-1,-1.0669E0,-1.0852797E-1,3.6901968E0,3.0212373E-1,-2.6384854E0,3.346189E-2,-2.608561E-1,7.637733E-2,4.763938E-1,-1.3915889E-1,1.7396425E-1,6.6324845E-2,-3.5929555E-1],"categories":[],"categories_nodes":[],"categories_segments":[],"categories_sizes":[],"default_left":[0,0,0,0,0,0,0,0,0,0,0,0,0,0,0,0,0,0,0],"id":54,"left_children":[1,3,5,-1,-1,7,9,11,13,15,17,-1,-1,-1,-1,-1,-1,-1,-1],"loss_changes":[4.4434885E2,1.694292E2,2.6628815E2,0E0,0E0,5.655961E2,3.0143408E2,2.1426036E2,1.0682599E2,2.1101149E2,2.0581024E2,0E0,0E0,0E0,0E0,0E0,0E0,0E0,0E0],"parents":[2147483647,0,0,1,1,2,2,5,5,6,6,7,7,8,8,9,9,10,10],"right_children":[2,4,6,-1,-1,8,10,12,14,16,18,-1,-1,-1,-1,-1,-1,-1,-1],"split_conditions":[1.045E2,7.94E1,3.493717E1,-5.71366E-1,-4.562509E-2,3.3519535E1,1.1176923E2,1.2211012E2,-4.871089E1,2.5748503E-1,3.5849056E0,3.346189E-2,-2.608561E-1,7.637733E-2,4.763938E-1,-1.3915889E-1,1.7396425E-1,6.6324845E-2,-3.5929555E-1],"split_indices":[70,58,25,0,0,25,65,127,121,28,23,0,0,0,0,0,0,0,0],"split_type":[0,0,0,0,0,0,0,0,0,0,0,0,0,0,0,0,0,0,0],"sum_hessian":[3.75E2,2.3E1,3.52E2,1.1E1,1.2E1,2.25E2,1.27E2,1.85E2,4E1,7.2E1,5.5E1,1.64E2,2.1E1,1.4E1,2.6E1,3.3E1,3.9E1,1.2E1,4.3E1],"tree_param":{"num_deleted":"0","num_feature":"140","num_nodes":"19","size_leaf_vector":"1"}},{"base_weights":[-4.9604017E-2,6.1612606E-1,-1.1013086E0,-1.7502669E0,1.1624365E0,9.535039E-2,-2.753682E0,-2.3303585E0,3.9717797E-2,1.7575607E0,-1.3545781E0,1.6351637E0,-1.1236389E0,-5.1204467E-1,-7.2506034E-1,-2.2062471E-2,-3.0496663E-1,-9.530006E-3,2.6059178E-1,1.16163E-1,-2.4786812E-1,2.3352301E-1,-5.2248973E-2,-2.2602384E-1,1.0398553E-1,-2.3733409E-1,1.08590275E-1],"categories":[],"categories_nodes":[],"categories_segments":[],"categories_sizes":[],"default_left":[0,0,0,0,0,0,0,0,0,0,0,0,0,0,0,0,0,0,0,0,0,0,0,0,0,0,0],"id":55,"left_children":[1,3,5,7,9,11,13,15,-1,17,19,21,23,-1,25,-1,-1,-1,-1,-1,-1,-1,-1,-1,-1,-1,-1],"loss_changes":[2.7223508E2,3.2785144E2,3.002175E2,6.885777E1,3.2168304E2,1.9880486E2,2.5462003E2,4.7907745E1,0E0,2.429545E2,1.415791E2,7.541049E1,1.5922652E2,0E0,1.5000398E2,0E0,0E0,0E0,0E0,0E0,0E0,0E0,0E0,0E0,0E0,0E0,0E0],"parents":[2147483647,0,0,1,1,2,2,3,3,4,4,5,5,6,6,7,7,9,9,10,10,11,11,12,12,14,14],"right_children":[2,4,6,8,10,12,14,16,-1,18,20,22,24,-1,26,-1,-1,-1,-1,-1,-1,-1,-1,-1,-1,-1,-1],"split_conditions":[1.1314676E2,-5.5E0,2.4722223E0,8.92E1,3.7666668E1,1.102E2,1.114E2,-1.5625E0,3.9717797E-2,5.2670902E1,5.44E1,3.11E1,3E0,-5.1204467E-1,5.3239433E1,-2.2062471E-2,-3.0496663E-1,-9.530006E-3,2.6059178E-1,1.16163E-1,-2.4786812E-1,2.3352301E-1,-5.2248973E-2,-2.2602384E-1,1.0398553E-1,-2.3733409E-1,1.08590275E-1],"split_indices":[5,81,54,58,27,41,8,75,0,56,10,31,81,0,56,0,0,0,0,0,0,0,0,0,0,0,0],"split_type":[0,0,0,0,0,0,0,0,0,0,0,0,0,0,0,0,0,0,0,0,0,0,0,0,0,0,0],"sum_hessian":[3.7E2,2.29E2,1.41E2,3.9E1,1.9E2,8.7E1,5.4E1,3E1,9E0,1.56E2,3.4E1,3.7E1,5E1,1.9E1,3.5E1,1E1,2E1,4.9E1,1.07E2,1E1,2.4E1,2.8E1,9E0,3.3E1,1.7E1,1.7E1,1.8E1],"tree_param":{"num_deleted":"0","num_feature":"140","num_nodes":"27","size_leaf_vector":"1"}},{"base_weights":[-7.09856E-2,-3.672859E-1,1.72905E-1,1.146054E0,-7.5222945E-1,-2.1352684E-1,1.478964E0,-2.699345E0,1.993685E-1,-7.546337E-2,2.0262732E-1,9.8695196E-2,-3.749644E-1,-2.1704166E-1,7.197941E-2],"categories":[],"categories_nodes":[],"categories_segments":[],"categories_sizes":[],"default_left":[0,0,0,0,0,0,0,0,0,0,0,0,0,0,0],"id":56,"left_children":[1,-1,3,5,7,-1,9,11,13,-1,-1,-1,-1,-1,-1],"loss_changes":[3.243145E2,0E0,3.2924835E2,2.203803E2,3.5452277E2,0E0,1.9787186E2,2.5365134E2,1.7227054E2,0E0,0E0,0E0,0E0,0E0,0E0],"parents":[2147483647,0,0,2,2,3,3,4,4,6,6,7,7,8,8],"right_children":[2,-1,4,6,8,-1,10,12,14,-1,-1,-1,-1,-1,-1],"split_conditions":[5.0833332E1,-3.672859E-1,1.136E2,9.835439E1,5.8666668E1,-2.1352684E-1,5.4666668E1,6.96E1,-2E0,-7.546337E-2,2.0262732E-1,9.8695196E-2,-3.749644E-1,-2.1704166E-1,7.197941E-2],"split_indices":[14,0,41,131,43,0,14,58,81,0,0,0,0,0,0],"split_type":[0,0,0,0,0,0,0,0,0,0,0,0,0,0,0],"sum_hessian":[3.62E2,1.5E1,3.47E2,1.68E2,1.79E2,1.1E1,1.57E2,5.3E1,1.26E2,2.8E1,1.29E2,1.1E1,4.2E1,1.7E1,1.09E2],"tree_param":{"num_deleted":"0","num_feature":"140","num_nodes":"15","size_leaf_vector":"1"}}]},"name":"gbtree"},"learner_model_param":{"base_score":"[1.1307905E2]","boost_from_average":"1","num_class":"0","num_feature":"140","num_target":"1"},"objective":{"name":"reg:squarederror","reg_loss_param":{"scale_pos_weight":"1"}}},"version":[3,2,0]}