{"learner":{"attributes":{"best_iteration":"66","best_score":"8.963355732504482","scikit_learn":"{\"_estimator_type\": \"regressor\"}"},"feature_names":[],"feature_types":[],"gradient_booster":{"model":{"cats":{"enc":[],"feature_segments":[],"sorted_idx":[]},"gbtree_model_param":{"num_parallel_tree":"1","num_trees":"97"},"iteration_indptr":[0,1,2,3,4,5,6,7,8,9,10,11,12,13,14,15,16,17,18,19,20,21,22,23,24,25,26,27,28,29,30,31,32,33,34,35,36,37,38,39,40,41,42,43,44,45,46,47,48,49,50,51,52,53,54,55,56,57,58,59,60,61,62,63,64,65,66,67,68,69,70,71,72,73,74,75,76,77,78,79,80,81,82,83,84,85,86,87,88,89,90,91,92,93,94,95,96,97],"tree_info":[0,0,0,0,0,0,0,0,0,0,0,0,0,0,0,0,0,0,0,0,0,0,0,0,0,0,0,0,0,0,0,0,0,0,0,0,0,0,0,0,0,0,0,0,0,0,0,0,0,0,0,0,0,0,0,0,0,0,0,0,0,0,0,0,0,0,0,0,0,0,0,0,0,0,0,0,0,0,0,0,0,0,0,0,0,0,0,0,0,0,0,0,0,0,0,0,0],"trees":[{"base_weights":[-3.6955136E-1,-4.4309354E0,2.0001345E0,-8.505361E0,-2.6315045E0,8.563427E-5,5.251503E0,-3.7605745E-1,-1.8966857E-1,-5.0055E-2,-3.6671978E-1,-9.671396E-2,6.660048E-2,1.91598E-1,-1.9729011E-1],"categories":[],"categories_nodes":[],"categories_segments":[],"categories_sizes":[],"default_left":[0,0,0,0,0,0,0,0,0,0,0,0,0,0,0],"id":0,"left_children":[1,3,5,7,9,11,13,-1,-1,-1,-1,-1,-1,-1,-1],"loss_changes":[3.1496755E3,8.6577515E2,1.341147E3,2.6128223E2,7.7729114E2,8.4079126E2,7.838352E2,0E0,0E0,0E0,0E0,0E0,0E0,0E0,0E0],"parents":[2147483647,0,0,1,1,2,2,3,3,4,4,5,5,6,6],"right_children":[2,4,6,8,10,12,14,-1,-1,-1,-1,-1,-1,-1,-1],"split_conditions":[1.10699356E2,2.7571428E1,1.1924693E2,5.6333332E1,4E0,2E0,1.1911002E2,-3.7605745E-1,-1.8966857E-1,-5.0055E-2,-3.6671978E-1,-9.671396E-2,6.660048E-2,1.91598E-1,-1.9729011E-1],"split_indices":[38,31,102,46,16,16,103,0,0,0,0,0,0,0,0],"split_type":[0,0,0,0,0,0,0,0,0,0,0,0,0,0,0],"sum_hessian":[3.26E2,1.2E2,2.06E2,3.6E1,8.4E1,1.28E2,7.8E1,1.4E1,2.2E1,7.6E1,8E0,5.2E1,7.6E1,7.3E1,5E0],"tree_param":{"num_deleted":"0","num_feature":"109","num_nodes":"15","size_leaf_vector":"1"}},{"base_weights":[1.2600274E-1,2.2893224E0,-3.9552495E0,5.012212E0,7.1765214E-1,-5.3971463E-1,-2.9781916E0,6.294249E-2,2.8012148E-1,1.10085964E-1,-5.6378428E-2,-1.3285552E-1,7.119232E-2],"categories":[],"categories_nodes":[],"categories_segments":[],"categories_sizes":[],"default_left":[0,0,0,0,0,0,0,0,0,0,0,0,0],"id":1,"left_children":[1,3,5,7,9,-1,11,-1,-1,-1,-1,-1,-1],"loss_changes":[2.870601E3,9.050934E2,1.4130051E3,8.94255E2,9.515893E2,0E0,6.961874E2,0E0,0E0,0E0,0E0,0E0,0E0],"parents":[2147483647,0,0,1,1,2,2,3,3,4,4,6,6],"right_children":[2,4,6,8,10,-1,12,-1,-1,-1,-1,-1,-1],"split_conditions":[1.13300644E2,-2.6469095E2,1.0049107E2,-6.66805E2,4.047619E-1,-5.3971463E-1,1.205E2,6.294249E-2,2.8012148E-1,1.10085964E-1,-5.6378428E-2,-1.3285552E-1,7.119232E-2],"split_indices":[37,91,74,91,39,0,64,0,0,0,0,0,0],"split_type":[0,0,0,0,0,0,0,0,0,0,0,0,0],"sum_hessian":[3.24E2,2.12E2,1.12E2,7.7E1,1.35E2,7E0,1.05E2,4.4E1,3.3E1,6.4E1,7.1E1,8.5E1,2E1],"tree_param":{"num_deleted":"0","num_feature":"109","num_nodes":"13","size_leaf_vector":"1"}},{"base_weights":[-2.1251656E-1,-2.8341322E0,2.2351246E0,-4.9569526E-1,-2.253372E0,2.9457679E0,-4.773624E0,-1.5430312E-1,-2.3133025E-2,1.7348844E-1,2.8000107E-2,1.833361E-2,-2.3197924E-1],"categories":[],"categories_nodes":[],"categories_segments":[],"categories_sizes":[],"default_left":[0,0,0,0,0,0,0,0,0,0,0,0,0],"id":2,"left_children":[1,3,5,-1,7,9,11,-1,-1,-1,-1,-1,-1],"loss_changes":[2.08054E3,1.1461896E3,8.4239124E2,0E0,6.0165466E2,8.003567E2,2.230433E2,0E0,0E0,0E0,0E0,0E0,0E0],"parents":[2147483647,0,0,1,1,2,2,4,4,5,5,6,6],"right_children":[2,4,6,-1,8,10,12,-1,-1,-1,-1,-1,-1],"split_conditions":[1.1342538E2,4.925E1,6.2666668E1,-4.9569526E-1,1.0200893E2,8.05E1,1.15742645E2,-1.5430312E-1,-2.3133025E-2,1.7348844E-1,2.8000107E-2,1.833361E-2,-2.3197924E-1],"split_indices":[102,10,11,0,74,26,102,0,0,0,0,0,0],"split_type":[0,0,0,0,0,0,0,0,0,0,0,0,0],"sum_hessian":[3.23E2,1.56E2,1.67E2,6E0,1.5E2,1.52E2,1.5E1,5.4E1,9.6E1,6.7E1,8.5E1,5E0,1E1],"tree_param":{"num_deleted":"0","num_feature":"109","num_nodes":"13","size_leaf_vector":"1"}},{"base_weights":[2.7356535E-1,2.2916222E0,-3.3689616E0,9.0647135E0,1.4298439E0,-4.6460357E0,4.4651613E0,3.6112782E-1,-0E0,1.6190273E-1,1.3535407E-2,-3.733188E-1,-1.0969648E-1,-4.694127E-2,2.8147393E-1],"categories":[],"categories_nodes":[],"categories_segments":[],"categories_sizes":[],"default_left":[0,0,0,0,0,0,0,0,0,0,0,0,0,0,0],"id":3,"left_children":[1,3,5,7,9,11,13,-1,-1,-1,-1,-1,-1,-1,-1],"loss_changes":[2.4049324E3,1.2167722E3,1.1790891E3,5.1281604E2,6.932578E2,8.1000757E2,4.5480905E2,0E0,0E0,0E0,0E0,0E0,0E0,0E0,0E0],"parents":[2147483647,0,0,1,1,2,2,3,3,4,4,5,5,6,6],"right_children":[2,4,6,8,10,12,14,-1,-1,-1,-1,-1,-1,-1,-1],"split_conditions":[1.13300644E2,1.0731022E2,6E1,1.1716315E2,2.1052632E-1,1.0084821E2,1.0120536E2,3.6112782E-1,-0E0,1.6190273E-1,1.3535407E-2,-3.733188E-1,-1.0969648E-1,-4.694127E-2,2.8147393E-1],"split_indices":[37,37,2,98,60,4,74,0,0,0,0,0,0,0,0],"split_type":[0,0,0,0,0,0,0,0,0,0,0,0,0,0,0],"sum_hessian":[3.26E2,2.1E2,1.16E2,2.3E1,1.87E2,1E2,1.6E1,1.8E1,5E0,3.9E1,1.48E2,1.3E1,8.7E1,7E0,9E0],"tree_param":{"num_deleted":"0","num_feature":"109","num_nodes":"15","size_leaf_vector":"1"}},{"base_weights":[-6.550744E-2,2.3008611E0,-3.6045754E0,9.616703E-1,4.9050655E0,-5.369756E-1,-3.033313E0,-1.9771535E-2,1.0277296E-1,1.8409732E-1,-1.5400052E-1,-1.2424217E-1,4.5228098E-2],"categories":[],"categories_nodes":[],"categories_segments":[],"categories_sizes":[],"default_left":[0,0,0,0,0,0,0,0,0,0,0,0,0],"id":4,"left_children":[1,3,5,7,9,-1,11,-1,-1,-1,-1,-1,-1],"loss_changes":[2.9584966E3,7.3250195E2,1.0493422E3,5.1799426E2,6.829751E2,0E0,5.6450696E2,0E0,0E0,0E0,0E0,0E0,0E0],"parents":[2147483647,0,0,1,1,2,2,3,3,4,4,6,6],"right_children":[2,4,6,8,10,-1,12,-1,-1,-1,-1,-1,-1],"split_conditions":[1.13300644E2,1.19513824E2,1.0017857E2,4.254902E0,1.221E2,-5.369756E-1,1.205E2,-1.9771535E-2,1.0277296E-1,1.8409732E-1,-1.5400052E-1,-1.2424217E-1,4.5228098E-2],"split_indices":[37,102,74,55,13,0,64,0,0,0,0,0,0],"split_type":[0,0,0,0,0,0,0,0,0,0,0,0,0],"sum_hessian":[3.52E2,2.11E2,1.41E2,1.4E2,7.1E1,5E0,1.36E2,8.3E1,5.7E1,6.5E1,6E0,1.13E2,2.3E1],"tree_param":{"num_deleted":"0","num_feature":"109","num_nodes":"13","size_leaf_vector":"1"}},{"base_weights":[-3.9108738E-1,1.5013183E0,-3.5972571E0,2.3350315E0,-3.0033562E0,-7.4055963E0,-2.0198095E0,1.3142625E-2,1.6072291E-1,3.235E-3,-2.1601027E-1,-4.9367812E-1,-1.582528E-1,-2.1164669E-1,-3.3436425E-2],"categories":[],"categories_nodes":[],"categories_segments":[],"categories_sizes":[],"default_left":[0,0,0,0,0,0,0,0,0,0,0,0,0,0,0],"id":5,"left_children":[1,3,5,7,9,11,13,-1,-1,-1,-1,-1,-1,-1,-1],"loss_changes":[2.003988E3,7.8357446E2,7.2331494E2,9.304511E2,3.947785E2,6.4400977E2,3.8689975E2,0E0,0E0,0E0,0E0,0E0,0E0,0E0,0E0],"parents":[2147483647,0,0,1,1,2,2,3,3,4,4,5,5,6,6],"right_children":[2,4,6,8,10,12,14,-1,-1,-1,-1,-1,-1,-1,-1],"split_conditions":[1.13300644E2,1.1958929E2,7.2333336E1,1.18273575E2,5.675E1,-1.7857143E0,1.0098214E2,1.3142625E-2,1.6072291E-1,3.235E-3,-2.1601027E-1,-4.9367812E-1,-1.582528E-1,-2.1164669E-1,-3.3436425E-2],"split_indices":[37,100,26,102,14,75,4,0,0,0,0,0,0,0,0],"split_type":[0,0,0,0,0,0,0,0,0,0,0,0,0,0,0],"sum_hessian":[3.29E2,2.07E2,1.22E2,1.75E2,3.2E1,3.5E1,8.7E1,1.04E2,7.1E1,1.8E1,1.4E1,7E0,2.8E1,1.4E1,7.3E1],"tree_param":{"num_deleted":"0","num_feature":"109","num_nodes":"15","size_leaf_vector":"1"}},{"base_weights":[4.8179048E-1,-1.7972423E0,2.816495E0,-3.1544313E0,2.0693576E0,1.8748608E0,7.121554E0,9.204593E-2,-1.1444222E-1,1.6592453E-1,-3.685595E-2,1.1463501E-1,4.96826E-3,1.1597747E-1,3.4491155E-1],"categories":[],"categories_nodes":[],"categories_segments":[],"categories_sizes":[],"default_left":[0,0,0,0,0,0,0,0,0,0,0,0,0,0,0],"id":6,"left_children":[1,3,5,7,9,11,13,-1,-1,-1,-1,-1,-1,-1,-1],"loss_changes":[1.7945002E3,8.9966376E2,6.6331836E2,3.794088E2,4.6899646E2,4.1606406E2,3.5996924E2,0E0,0E0,0E0,0E0,0E0,0E0,0E0,0E0],"parents":[2147483647,0,0,1,1,2,2,3,3,4,4,5,5,6,6],"right_children":[2,4,6,8,10,12,14,-1,-1,-1,-1,-1,-1,-1,-1],"split_conditions":[9.4185954E-1,1.0426339E2,1.193E2,1.05333336E2,5.88E1,5.4192177E1,5.6333332E1,9.204593E-2,-1.1444222E-1,1.6592453E-1,-3.685595E-2,1.1463501E-1,4.96826E-3,1.1597747E-1,3.4491155E-1],"split_indices":[79,74,0,64,15,24,15,0,0,0,0,0,0,0,0],"split_type":[0,0,0,0,0,0,0,0,0,0,0,0,0,0,0],"sum_hessian":[3.36E2,1.7E2,1.66E2,1.26E2,4.4E1,1.37E2,2.9E1,9E0,1.17E2,2.2E1,2.2E1,6.7E1,7E1,1.6E1,1.3E1],"tree_param":{"num_deleted":"0","num_feature":"109","num_nodes":"15","size_leaf_vector":"1"}},{"base_weights":[-1.5741862E-1,-2.9896374E0,2.900452E0,-1.0703551E1,-2.4289699E0,-9.285521E-3,4.4059753E0,-4.5330572E-1,-1.6057819E-1,-5.79763E-2,-2.7597606E-1,-2.5088617E-1,5.103476E-2,-6.6943474E-2,1.6041715E-1],"categories":[],"categories_nodes":[],"categories_segments":[],"categories_sizes":[],"default_left":[0,0,0,0,0,0,0,0,0,0,0,0,0,0,0],"id":7,"left_children":[1,3,5,7,9,11,13,-1,-1,-1,-1,-1,-1,-1,-1],"loss_changes":[2.9117297E3,7.336483E2,7.099127E2,1.8793933E2,5.935348E2,7.335115E2,4.9146802E2,0E0,0E0,0E0,0E0,0E0,0E0,0E0,0E0],"parents":[2147483647,0,0,1,1,2,2,3,3,4,4,5,5,6,6],"right_children":[2,4,6,8,10,12,14,-1,-1,-1,-1,-1,-1,-1,-1],"split_conditions":[1.157E2,1.0023431E2,5.221899E1,2.92E1,4.0731922E1,7.02E1,1.021875E2,-4.5330572E-1,-1.6057819E-1,-5.79763E-2,-2.7597606E-1,-2.5088617E-1,5.103476E-2,-6.6943474E-2,1.6041715E-1],"split_indices":[33,100,56,27,57,26,74,0,0,0,0,0,0,0,0],"split_type":[0,0,0,0,0,0,0,0,0,0,0,0,0,0,0],"sum_hessian":[3.35E2,1.74E2,1.61E2,1.1E1,1.63E2,5.5E1,1.06E2,6E0,5E0,1.5E2,1.3E1,9E0,4.6E1,1E1,9.6E1],"tree_param":{"num_deleted":"0","num_feature":"109","num_nodes":"15","size_leaf_vector":"1"}},{"base_weights":[4.3059474E-1,-1.6456493E0,2.6120987E0,-1.191022E0,-3.479765E-1,3.6480625E0,-3.1438181E0,-6.678363E-2,9.8783076E-2,2.8023353E-1,8.948291E-2,-2.4876735E-1,-1.9357366E-3],"categories":[],"categories_nodes":[],"categories_segments":[],"categories_sizes":[],"default_left":[0,0,0,0,0,0,0,0,0,0,0,0,0],"id":8,"left_children":[1,3,5,7,-1,9,11,-1,-1,-1,-1,-1,-1],"loss_changes":[1.4822946E3,7.042001E2,9.5879297E2,6.521116E2,0E0,5.524863E2,3.5747452E2,0E0,0E0,0E0,0E0,0E0,0E0],"parents":[2147483647,0,0,1,1,2,2,3,3,5,5,6,6],"right_children":[2,4,6,8,-1,10,12,-1,-1,-1,-1,-1,-1],"split_conditions":[1.157E2,5.0208335E0,6.22E1,1.6763494E3,-3.479765E-1,5.2E1,-9.196289E1,-6.678363E-2,9.8783076E-2,2.8023353E-1,8.948291E-2,-2.4876735E-1,-1.9357366E-3],"split_indices":[33,23,11,77,0,42,92,0,0,0,0,0,0],"split_type":[0,0,0,0,0,0,0,0,0,0,0,0,0],"sum_hessian":[3.26E2,1.67E2,1.59E2,1.6E2,7E0,1.35E2,2.4E1,1.32E2,2.8E1,1.7E1,1.18E2,9E0,1.5E1],"tree_param":{"num_deleted":"0","num_feature":"109","num_nodes":"13","size_leaf_vector":"1"}},{"base_weights":[-3.0868685E-1,-3.8054285E0,1.9532567E0,-4.320315E0,2.7407148E-1,2.8443022E0,-2.5122864E0,-3.9102164E-1,-1.10759854E-1,4.633252E-2,1.8092063E-1,-1.22367114E-1,6.397586E-2],"categories":[],"categories_nodes":[],"categories_segments":[],"categories_sizes":[],"default_left":[0,0,0,0,0,0,0,0,0,0,0,0,0],"id":9,"left_children":[1,3,5,7,-1,9,11,-1,-1,-1,-1,-1,-1],"loss_changes":[2.7704304E3,9.075934E2,8.5037445E2,8.2582324E2,0E0,6.9982117E2,2.2864758E2,0E0,0E0,0E0,0E0,0E0,0E0],"parents":[2147483647,0,0,1,1,2,2,3,3,5,5,6,6],"right_children":[2,4,6,8,-1,10,12,-1,-1,-1,-1,-1,-1],"split_conditions":[1.108E2,1.8153746E3,1.1958929E2,1.0070823E2,2.7407148E-1,1.2E2,1.2078431E1,-3.9102164E-1,-1.10759854E-1,4.633252E-2,1.8092063E-1,-1.22367114E-1,6.397586E-2],"split_indices":[38,77,100,104,0,41,21,0,0,0,0,0,0],"split_type":[0,0,0,0,0,0,0,0,0,0,0,0,0],"sum_hessian":[3.49E2,1.37E2,2.12E2,1.32E2,5E0,1.77E2,3.5E1,1.1E1,1.21E2,1.21E2,5.6E1,2.7E1,8E0],"tree_param":{"num_deleted":"0","num_feature":"109","num_nodes":"13","size_leaf_vector":"1"}},{"base_weights":[5.3659046E-1,2.1963E0,-2.5096104E0,4.1938663E0,9.4278854E-1,-4.2402458E-1,-1.5894988E0,3.8889262E-3,2.0399635E-1,-8.118243E-2,7.051902E-2,-7.9594836E-2,1.5911053E-1],"categories":[],"categories_nodes":[],"categories_segments":[],"categories_sizes":[],"default_left":[0,0,0,0,0,0,0,0,0,0,0,0,0],"id":10,"left_children":[1,3,5,7,9,-1,11,-1,-1,-1,-1,-1,-1],"loss_changes":[1.8010144E3,5.727423E2,1.2483496E3,8.2308716E2,6.562179E2,0E0,7.360953E2,0E0,0E0,0E0,0E0,0E0,0E0],"parents":[2147483647,0,0,1,1,2,2,3,3,4,4,6,6],"right_children":[2,4,6,8,10,-1,12,-1,-1,-1,-1,-1,-1],"split_conditions":[1.13300644E2,-2.6403476E2,1.0049107E2,-9.320622E2,1.0234375E2,-4.2402458E-1,6E1,3.8889262E-3,2.0399635E-1,-8.118243E-2,7.051902E-2,-7.9594836E-2,1.5911053E-1],"split_indices":[37,91,74,91,74,0,2,0,0,0,0,0,0],"split_type":[0,0,0,0,0,0,0,0,0,0,0,0,0],"sum_hessian":[3.55E2,2.3E2,1.25E2,8.8E1,1.42E2,9E0,1.16E2,3.2E1,5.6E1,3.8E1,1.04E2,1.02E2,1.4E1],"tree_param":{"num_deleted":"0","num_feature":"109","num_nodes":"13","size_leaf_vector":"1"}},{"base_weights":[1.887449E-1,-1.883919E0,2.4072723E0,-8.055546E0,-9.762008E-1,1.2072598E0,6.237808E0,-4.7174484E-1,-7.379833E-2,-4.1192777E-2,2.3902011E-1,1.5319054E-1,8.552649E-3,2.7449414E-1,7.431235E-2],"categories":[],"categories_nodes":[],"categories_segments":[],"categories_sizes":[],"default_left":[0,0,0,0,0,0,0,0,0,0,0,0,0,0,0],"id":11,"left_children":[1,3,5,7,9,11,13,-1,-1,-1,-1,-1,-1,-1,-1],"loss_changes":[1.5093479E3,9.413509E2,7.2118115E2,8.273219E2,4.281117E2,4.1354968E2,3.453767E2,0E0,0E0,0E0,0E0,0E0,0E0,0E0,0E0],"parents":[2147483647,0,0,1,1,2,2,3,3,4,4,5,5,6,6],"right_children":[2,4,6,8,10,12,14,-1,-1,-1,-1,-1,-1,-1,-1],"split_conditions":[9.4185954E-1,1.097E2,1.1757143E2,5.29E1,1.2796538E2,-1.5719583E2,4.4E0,-4.7174484E-1,-7.379833E-2,-4.1192777E-2,2.3902011E-1,1.5319054E-1,8.552649E-3,2.7449414E-1,7.431235E-2],"split_indices":[79,33,12,47,101,92,23,0,0,0,0,0,0,0,0],"split_type":[0,0,0,0,0,0,0,0,0,0,0,0,0,0,0],"sum_hessian":[3.27E2,1.69E2,1.58E2,2.1E1,1.48E2,1.21E2,3.7E1,9E0,1.2E1,1.43E2,5E0,2.4E1,9.7E1,2.2E1,1.5E1],"tree_param":{"num_deleted":"0","num_feature":"109","num_nodes":"15","size_leaf_vector":"1"}},{"base_weights":[-1.4156511E-1,-2.2902913E0,1.9135761E0,-5.241752E-1,-1.7507976E0,2.7535963E0,-2.91596E0,1.3489529E-2,-1.0096402E-1,1.2085153E-1,-5.5708617E-2,1.1607579E-2,-2.3016204E-1],"categories":[],"categories_nodes":[],"categories_segments":[],"categories_sizes":[],"default_left":[0,0,0,0,0,0,0,0,0,0,0,0,0],"id":12,"left_children":[1,3,5,-1,7,9,11,-1,-1,-1,-1,-1,-1],"loss_changes":[1.4229651E3,1.196481E3,6.7251447E2,0E0,4.8744147E2,6.9764844E2,3.6044867E2,0E0,0E0,0E0,0E0,0E0,0E0],"parents":[2147483647,0,0,1,1,2,2,4,4,5,5,6,6],"right_children":[2,4,6,-1,8,10,12,-1,-1,-1,-1,-1,-1],"split_conditions":[1.157E2,4.8E1,1.2018173E2,-5.241752E-1,2.4285714E-1,8.42E1,6.24E1,1.3489529E-2,-1.0096402E-1,1.2085153E-1,-5.5708617E-2,1.1607579E-2,-2.3016204E-1],"split_indices":[33,10,100,0,60,58,43,0,0,0,0,0,0],"split_type":[0,0,0,0,0,0,0,0,0,0,0,0,0],"sum_hessian":[3.21E2,1.57E2,1.64E2,5E0,1.52E2,1.4E2,2.4E1,6.1E1,9.1E1,1.13E2,2.7E1,1.4E1,1E1],"tree_param":{"num_deleted":"0","num_feature":"109","num_nodes":"13","size_leaf_vector":"1"}},{"base_weights":[-2.134774E-1,-1.4249489E0,2.9549487E0,-3.1647305E0,8.2750934E-1,6.4697127E0,1.2870237E0,-3.9061464E-2,-2.0329599E-1,1.9463433E-1,-2.3981158E-2,2.4069539E-1,2.2374084E-2,4.1644354E-3,2.6235336E-1],"categories":[],"categories_nodes":[],"categories_segments":[],"categories_sizes":[],"default_left":[0,0,0,0,0,0,0,0,0,0,0,0,0,0,0],"id":13,"left_children":[1,3,5,7,9,11,13,-1,-1,-1,-1,-1,-1,-1,-1],"loss_changes":[1.2439675E3,9.2196674E2,5.167964E2,8.328175E2,8.7974805E2,1.8779895E2,4.972691E2,0E0,0E0,0E0,0E0,0E0,0E0,0E0,0E0],"parents":[2147483647,0,0,1,1,2,2,3,3,4,4,5,5,6,6],"right_children":[2,4,6,8,10,12,14,-1,-1,-1,-1,-1,-1,-1,-1],"split_conditions":[1.0417411E2,3.2740673E1,2.78E1,1.12581314E2,2.2272727E0,1.1362802E2,4.8E1,-3.9061464E-2,-2.0329599E-1,1.9463433E-1,-2.3981158E-2,2.4069539E-1,2.2374084E-2,4.1644354E-3,2.6235336E-1],"split_indices":[74,79,62,5,54,103,2,0,0,0,0,0,0,0,0],"split_type":[0,0,0,0,0,0,0,0,0,0,0,0,0,0,0],"sum_hessian":[3.23E2,2.34E2,8.9E1,1.32E2,1.02E2,2.8E1,6.1E1,8.4E1,4.8E1,2.3E1,7.9E1,2.3E1,5E0,5.3E1,8E0],"tree_param":{"num_deleted":"0","num_feature":"109","num_nodes":"15","size_leaf_vector":"1"}},{"base_weights":[-1.1577742E-1,-2.377013E0,2.39653E0,-4.3110996E-1,-1.9055966E0,3.3458092E0,-1.7405573E0,-4.522747E-2,-2.3176357E-1,-9.662961E-3,1.5843663E-1,4.9182203E-2,-1.7257579E-1],"categories":[],"categories_nodes":[],"categories_segments":[],"categories_sizes":[],"default_left":[0,0,0,0,0,0,0,0,0,0,0,0,0],"id":14,"left_children":[1,3,5,-1,7,9,11,-1,-1,-1,-1,-1,-1],"loss_changes":[1.8190333E3,8.778168E2,5.995865E2,0E0,4.050996E2,7.6678284E2,3.609386E2,0E0,0E0,0E0,0E0,0E0,0E0],"parents":[2147483647,0,0,1,1,2,2,4,4,5,5,6,6],"right_children":[2,4,6,-1,8,10,12,-1,-1,-1,-1,-1,-1],"split_conditions":[1.157E2,1.0264774E2,1.1958929E2,-4.3110996E-1,4.882353E0,5.221857E1,5.67E1,-4.522747E-2,-2.3176357E-1,-9.662961E-3,1.5843663E-1,4.9182203E-2,-1.7257579E-1],"split_indices":[33,99,100,0,23,56,14,0,0,0,0,0,0],"split_type":[0,0,0,0,0,0,0,0,0,0,0,0,0],"sum_hessian":[3.19E2,1.68E2,1.51E2,6E0,1.62E2,1.23E2,2.8E1,1.5E2,1.2E1,3.9E1,8.4E1,1.5E1,1.3E1],"tree_param":{"num_deleted":"0","num_feature":"109","num_nodes":"13","size_leaf_vector":"1"}},{"base_weights":[1.5013543E-1,-1.0186101E0,3.3642633E0,-1.9863304E0,2.81978E0,5.4132347E0,-2.3109093E0,-1.4996499E-1,-1.9142583E-2,-5.9855644E-2,1.4433831E-1,1.21251844E-1,3.186286E-1,1.5577097E-1,-1.5667854E-1],"categories":[],"categories_nodes":[],"categories_segments":[],"categories_sizes":[],"default_left":[0,0,0,0,0,0,0,0,0,0,0,0,0,0,0],"id":15,"left_children":[1,3,5,7,9,11,13,-1,-1,-1,-1,-1,-1,-1,-1],"loss_changes":[1.233737E3,8.96695E2,1.0275364E3,7.339492E2,4.1254816E2,4.4511987E2,4.725945E2,0E0,0E0,0E0,0E0,0E0,0E0,0E0,0E0],"parents":[2147483647,0,0,1,1,2,2,3,3,4,4,5,5,6,6],"right_children":[2,4,6,8,10,12,14,-1,-1,-1,-1,-1,-1,-1,-1],"split_conditions":[1.188E2,1.040625E2,1.1490909E2,2.7571428E1,2.4117646E0,1.0575893E2,6.64507E0,-1.4996499E-1,-1.9142583E-2,-5.9855644E-2,1.4433831E-1,1.21251844E-1,3.186286E-1,1.5577097E-1,-1.5667854E-1],"split_indices":[41,74,69,31,22,36,61,0,0,0,0,0,0,0,0],"split_type":[0,0,0,0,0,0,0,0,0,0,0,0,0,0,0],"sum_hessian":[3.27E2,2.4E2,8.7E1,1.92E2,4.8E1,6.4E1,2.3E1,6.3E1,1.29E2,1.3E1,3.5E1,4.9E1,1.5E1,6E0,1.7E1],"tree_param":{"num_deleted":"0","num_feature":"109","num_nodes":"15","size_leaf_vector":"1"}},{"base_weights":[3.816494E-1,2.1943636E0,-2.605238E0,1.1972532E0,5.5294085E0,-4.0312573E-1,-1.9719299E0,-2.7851624E-2,8.5464306E-2,2.5289577E-1,3.546057E-2,-1.8311303E-2,-1.5217777E-1],"categories":[],"categories_nodes":[],"categories_segments":[],"categories_sizes":[],"default_left":[0,0,0,0,0,0,0,0,0,0,0,0,0],"id":16,"left_children":[1,3,5,7,9,-1,11,-1,-1,-1,-1,-1,-1],"loss_changes":[1.6578807E3,6.268366E2,7.258064E2,4.6953143E2,4.7240222E2,0E0,4.324772E2,0E0,0E0,0E0,0E0,0E0,0E0],"parents":[2147483647,0,0,1,1,2,2,3,3,4,4,6,6],"right_children":[2,4,6,8,10,-1,12,-1,-1,-1,-1,-1,-1],"split_conditions":[1.13300644E2,1.21E2,1.01E2,9.213516E0,5.5666668E1,-4.0312573E-1,4.319149E0,-2.7851624E-2,8.5464306E-2,2.5289577E-1,3.546057E-2,-1.8311303E-2,-1.5217777E-1],"split_indices":[37,33,70,61,42,0,23,0,0,0,0,0,0],"split_type":[0,0,0,0,0,0,0,0,0,0,0,0,0],"sum_hessian":[3.05E2,1.9E2,1.15E2,1.47E2,4.3E1,6E0,1.09E2,6.2E1,8.5E1,2.7E1,1.6E1,7.4E1,3.5E1],"tree_param":{"num_deleted":"0","num_feature":"109","num_nodes":"13","size_leaf_vector":"1"}},{"base_weights":[2.422537E-1,-1.3510885E0,2.0707123E0,4.010444E0,-2.2421205E0,1.5727913E0,3.0587336E-1,4.3547447E-3,3.803229E-1,-2.6785427E-1,-4.0368143E-2,1.2746517E-1,1.3502176E-2],"categories":[],"categories_nodes":[],"categories_segments":[],"categories_sizes":[],"default_left":[0,0,0,0,0,0,0,0,0,0,0,0,0],"id":17,"left_children":[1,3,5,7,9,11,-1,-1,-1,-1,-1,-1,-1],"loss_changes":[8.981519E2,7.90949E2,5.330432E2,7.3199866E2,8.407244E2,3.8146655E2,0E0,0E0,0E0,0E0,0E0,0E0,0E0],"parents":[2147483647,0,0,1,1,2,2,3,3,4,4,5,5],"right_children":[2,4,6,8,10,12,-1,-1,-1,-1,-1,-1,-1],"split_conditions":[-1.0166044E0,-6.6239314E0,2.1E1,1.10616066E2,4.818956E1,5.52E1,3.0587336E-1,4.3547447E-3,3.803229E-1,-2.6785427E-1,-4.0368143E-2,1.2746517E-1,1.3502176E-2],"split_indices":[79,94,81,38,24,10,0,0,0,0,0,0,0],"split_type":[0,0,0,0,0,0,0,0,0,0,0,0,0],"sum_hessian":[3.07E2,1.64E2,1.43E2,2.3E1,1.41E2,1.35E2,8E0,1.6E1,7E0,1.8E1,1.23E2,4.2E1,9.3E1],"tree_param":{"num_deleted":"0","num_feature":"109","num_nodes":"13","size_leaf_vector":"1"}},{"base_weights":[6.3924156E-2,-9.109451E-1,3.7095983E0,-3.6574814E-1,-5.8962625E-1,6.4153676E0,1.355126E0,2.3766637E-2,-8.030211E-2,3.1695122E-1,1.041087E-1,-8.3830446E-2,1.1720482E-1],"categories":[],"categories_nodes":[],"categories_segments":[],"categories_sizes":[],"default_left":[0,0,0,0,0,0,0,0,0,0,0,0,0],"id":18,"left_children":[1,3,5,-1,7,9,11,-1,-1,-1,-1,-1,-1],"loss_changes":[1.1889158E3,8.98187E2,4.4107098E2,0E0,6.7974445E2,3.446775E2,3.744295E2,0E0,0E0,0E0,0E0,0E0,0E0],"parents":[2147483647,0,0,1,1,2,2,4,4,5,5,6,6],"right_children":[2,4,6,-1,8,10,12,-1,-1,-1,-1,-1,-1],"split_conditions":[1.1957573E2,9.98E1,2E0,-3.6574814E-1,3.4135803E1,1.0927273E2,6.025E1,2.3766637E-2,-8.030211E-2,3.1695122E-1,1.041087E-1,-8.3830446E-2,1.1720482E-1],"split_indices":[102,45,16,0,25,65,47,0,0,0,0,0,0],"split_type":[0,0,0,0,0,0,0,0,0,0,0,0,0],"sum_hessian":[3.33E2,2.63E2,7E1,7E0,2.56E2,3.2E1,3.8E1,1.52E2,1.04E2,1.4E1,1.8E1,1.4E1,2.4E1],"tree_param":{"num_deleted":"0","num_feature":"109","num_nodes":"13","size_leaf_vector":"1"}},{"base_weights":[-1.389147E-1,-1.0831627E0,3.507829E0,-3.6773843E-1,-7.57042E-1,4.3779683E0,-1.4885081E-1,4.9472265E-2,-6.374151E-2,1.6912505E-1,-6.2480472E-2],"categories":[],"categories_nodes":[],"categories_segments":[],"categories_sizes":[],"default_left":[0,0,0,0,0,0,0,0,0,0,0],"id":19,"left_children":[1,3,5,-1,7,9,-1,-1,-1,-1,-1],"loss_changes":[1.115489E3,8.80329E2,4.8981775E2,0E0,7.4338556E2,3.9329297E2,0E0,0E0,0E0,0E0,0E0],"parents":[2147483647,0,0,1,1,2,2,4,4,5,5],"right_children":[2,4,6,-1,8,10,-1,-1,-1,-1,-1],"split_conditions":[1.1574468E1,9.915179E1,6.2062977E1,-3.6773843E-1,1.116E2,6.16E1,-1.4885081E-1,4.9472265E-2,-6.374151E-2,1.6912505E-1,-6.2480472E-2],"split_indices":[53,36,56,0,44,10,0,0,0,0,0],"split_type":[0,0,0,0,0,0,0,0,0,0,0],"sum_hessian":[3.23E2,2.57E2,6.6E1,7E0,2.5E2,6E1,6E0,8.8E1,1.62E2,5.2E1,8E0],"tree_param":{"num_deleted":"0","num_feature":"109","num_nodes":"11","size_leaf_vector":"1"}},{"base_weights":[-1.55693935E-2,-9.430213E-1,2.3582246E0,-1.3497896E0,4.9991183E0,5.9344387E0,3.7730718E-1,-1.7453493E-1,-2.4830816E-2,2.4103062E-1,-1.5709326E-2,2.5823888E-1,3.63158E-2,-2.4368718E-2,2.1113288E-1],"categories":[],"categories_nodes":[],"categories_segments":[],"categories_sizes":[],"default_left":[0,0,0,0,0,0,0,0,0,0,0,0,0,0,0],"id":20,"left_children":[1,3,5,7,9,11,13,-1,-1,-1,-1,-1,-1,-1,-1],"loss_changes":[7.41753E2,5.88798E2,6.6599384E2,5.300719E2,2.3403525E2,3.5564026E2,4.5539566E2,0E0,0E0,0E0,0E0,0E0,0E0,0E0,0E0],"parents":[2147483647,0,0,1,1,2,2,3,3,4,4,5,5,6,6],"right_children":[2,4,6,8,10,12,14,-1,-1,-1,-1,-1,-1,-1,-1],"split_conditions":[1.0415179E2,1.21E2,1.1422222E2,4.725802E1,5.8240614E0,5.9875E1,1.212E2,-1.7453493E-1,-2.4830816E-2,2.4103062E-1,-1.5709326E-2,2.5823888E-1,3.63158E-2,-2.4368718E-2,2.1113288E-1],"split_indices":[74,33,13,24,89,46,8,0,0,0,0,0,0,0,0],"split_type":[0,0,0,0,0,0,0,0,0,0,0,0,0,0,0],"sum_hessian":[3.36E2,2.42E2,9.4E1,2.27E2,1.5E1,3.3E1,6.1E1,2.6E1,2.01E2,1E1,5E0,2.2E1,1.1E1,5.2E1,9E0],"tree_param":{"num_deleted":"0","num_feature":"109","num_nodes":"15","size_leaf_vector":"1"}},{"base_weights":[-2.0843269E-1,-1.0587035E1,1.4247058E-1,-1.1406599E-1,-5.1371086E-1,-1.2662293E0,1.8521831E0,-1.24907225E-1,-8.880845E-3,-7.4185714E-2,9.746002E-2],"categories":[],"categories_nodes":[],"categories_segments":[],"categories_sizes":[],"default_left":[0,0,0,0,0,0,0,0,0,0,0],"id":21,"left_children":[1,3,5,-1,-1,7,9,-1,-1,-1,-1],"loss_changes":[1.1804572E3,3.794431E2,7.5455896E2,0E0,0E0,4.5412213E2,7.479135E2,0E0,0E0,0E0,0E0],"parents":[2147483647,0,0,1,1,2,2,5,5,6,6],"right_children":[2,4,6,-1,-1,8,10,-1,-1,-1,-1],"split_conditions":[4.88E1,2.87E1,2.6823042E1,-1.1406599E-1,-5.1371086E-1,1.112E2,1.0198661E2,-1.24907225E-1,-8.880845E-3,-7.4185714E-2,9.746002E-2],"split_indices":[10,62,79,0,0,40,74,0,0,0,0],"split_type":[0,0,0,0,0,0,0,0,0,0,0],"sum_hessian":[3.22E2,1E1,3.12E2,5E0,5E0,1.71E2,1.41E2,4.5E1,1.26E2,3.2E1,1.09E2],"tree_param":{"num_deleted":"0","num_feature":"109","num_nodes":"11","size_leaf_vector":"1"}},{"base_weights":[-8.248686E-2,8.966956E-1,-3.2622552E0,1.2775266E0,-7.324681E0,-6.4095283E0,-1.1195314E0,-1.7433414E-1,5.2614287E-2,-7.987665E-3,-4.2556688E-1,-6.8296306E-2,-3.026694E-1,-9.276207E-2,5.5436168E-2],"categories":[],"categories_nodes":[],"categories_segments":[],"categories_sizes":[],"default_left":[0,0,0,0,0,0,0,0,0,0,0,0,0,0,0],"id":22,"left_children":[1,3,5,7,9,11,13,-1,-1,-1,-1,-1,-1,-1,-1],"loss_changes":[9.7300555E2,7.49954E2,4.8866077E2,6.2012036E2,4.5688696E2,3.8530432E2,2.3884528E2,0E0,0E0,0E0,0E0,0E0,0E0,0E0,0E0],"parents":[2147483647,0,0,1,1,2,2,3,3,4,4,5,5,6,6],"right_children":[2,4,6,8,10,12,14,-1,-1,-1,-1,-1,-1,-1,-1],"split_conditions":[5.975E1,1.24E2,2.7571428E1,9.946694E1,1.12744354E2,3.0572563E1,1.028125E2,-1.7433414E-1,5.2614287E-2,-7.987665E-3,-4.2556688E-1,-6.8296306E-2,-3.026694E-1,-9.276207E-2,5.5436168E-2],"split_indices":[15,69,31,98,5,25,36,0,0,0,0,0,0,0,0],"split_type":[0,0,0,0,0,0,0,0,0,0,0,0,0,0,0],"sum_hessian":[3.11E2,2.38E2,7.3E1,2.28E2,1E1,2.9E1,4.4E1,1.2E1,2.16E2,5E0,5E0,1.3E1,1.6E1,2.7E1,1.7E1],"tree_param":{"num_deleted":"0","num_feature":"109","num_nodes":"15","size_leaf_vector":"1"}},{"base_weights":[2.1190748E-1,-7.579895E-1,3.6309977E0,-1.7769301E0,2.6032557E0,5.597268E0,2.8719452E-1,-4.0414378E-1,-4.3579746E-2,1.369129E-1,-4.3090273E-2,3.985808E-1,1.2913114E-1,-1.3062017E-1,8.157888E-2],"categories":[],"categories_nodes":[],"categories_segments":[],"categories_sizes":[],"default_left":[0,0,0,0,0,0,0,0,0,0,0,0,0,0,0],"id":23,"left_children":[1,3,5,7,9,11,13,-1,-1,-1,-1,-1,-1,-1,-1],"loss_changes":[1.0893153E3,8.7781384E2,4.7373248E2,8.348689E2,4.192629E2,4.4251965E2,2.8842404E2,0E0,0E0,0E0,0E0,0E0,0E0,0E0,0E0],"parents":[2147483647,0,0,1,1,2,2,3,3,4,4,5,5,6,6],"right_children":[2,4,6,8,10,12,14,-1,-1,-1,-1,-1,-1,-1,-1],"split_conditions":[1.0421875E2,5.6E1,5.88E1,4.8285713E1,2E0,1.0446429E2,2.3888888E0,-4.0414378E-1,-4.3579746E-2,1.369129E-1,-4.3090273E-2,3.985808E-1,1.2913114E-1,-1.3062017E-1,8.157888E-2],"split_indices":[74,35,15,15,72,74,54,0,0,0,0,0,0,0,0],"split_type":[0,0,0,0,0,0,0,0,0,0,0,0,0,0,0],"sum_hessian":[3.27E2,2.55E2,7.2E1,1.96E2,5.9E1,4.5E1,2.7E1,6E0,1.9E2,4.1E1,1.8E1,7E0,3.8E1,9E0,1.8E1],"tree_param":{"num_deleted":"0","num_feature":"109","num_nodes":"15","size_leaf_vector":"1"}},{"base_weights":[-2.4240473E-1,-4.210262E-1,-1.3108202E-2,-5.6832314E-1,4.207204E0,-9.426176E-2,9.892299E-3,3.4967783E-1,5.6100473E-2],"categories":[],"categories_nodes":[],"categories_segments":[],"categories_sizes":[],"default_left":[0,0,0,0,0,0,0,0,0],"id":24,"left_children":[1,-1,3,5,7,-1,-1,-1,-1],"loss_changes":[9.842228E2,0E0,7.580586E2,6.162587E2,6.120357E2,0E0,0E0,0E0,0E0],"parents":[2147483647,0,0,2,2,3,3,4,4],"right_children":[2,-1,4,6,8,-1,-1,-1,-1],"split_conditions":[4.8285713E1,-4.210262E-1,1.198E2,1.0942857E2,1E0,-9.426176E-2,9.892299E-3,3.4967783E-1,5.6100473E-2],"split_indices":[15,0,0,70,82,0,0,0,0],"split_type":[0,0,0,0,0,0,0,0,0],"sum_hessian":[3.28E2,5E0,3.23E2,2.86E2,3.7E1,7.6E1,2.1E2,9E0,2.8E1],"tree_param":{"num_deleted":"0","num_feature":"109","num_nodes":"9","size_leaf_vector":"1"}},{"base_weights":[-3.7495893E-1,-2.1493647E0,1.6812935E0,-4.009073E-1,-1.7411625E0,4.524784E-2,4.484988E0,-7.166117E-2,1.6611488E-1,7.336949E-2,-6.883973E-2,9.318541E-2,2.77282E-1],"categories":[],"categories_nodes":[],"categories_segments":[],"categories_sizes":[],"default_left":[0,0,0,0,0,0,0,0,0,0,0,0,0],"id":25,"left_children":[1,3,5,-1,7,9,11,-1,-1,-1,-1,-1,-1],"loss_changes":[1.2341556E3,7.657409E2,7.161697E2,0E0,6.683564E2,5.120841E2,3.587898E2,0E0,0E0,0E0,0E0,0E0,0E0],"parents":[2147483647,0,0,1,1,2,2,4,4,5,5,6,6],"right_children":[2,4,6,-1,8,10,12,-1,-1,-1,-1,-1,-1],"split_conditions":[1.157E2,5.0833332E1,1.165E2,-4.009073E-1,3E0,2.8555555E1,1.16039345E2,-7.166117E-2,1.6611488E-1,7.336949E-2,-6.883973E-2,9.318541E-2,2.77282E-1],"split_indices":[33,14,0,0,81,62,38,0,0,0,0,0,0],"split_type":[0,0,0,0,0,0,0,0,0,0,0,0,0],"sum_hessian":[3.37E2,1.81E2,1.56E2,6E0,1.75E2,9.9E1,5.7E1,1.63E2,1.2E1,4.9E1,5E1,4.3E1,1.4E1],"tree_param":{"num_deleted":"0","num_feature":"109","num_nodes":"13","size_leaf_vector":"1"}},{"base_weights":[1.5307181E-2,-1.7141232E0,1.801667E0,-7.425896E0,-1.108632E0,-9.1058177E-1,3.2373064E0,-3.6179775E-1,-6.815959E-2,-1.6084968E-1,-9.9159945E-3,5.175857E-2,-1.5728323E-1,1.2995896E-1,-9.114422E-2],"categories":[],"categories_nodes":[],"categories_segments":[],"categories_sizes":[],"default_left":[0,0,0,0,0,0,0,0,0,0,0,0,0,0,0],"id":26,"left_children":[1,3,5,7,9,11,13,-1,-1,-1,-1,-1,-1,-1,-1],"loss_changes":[1.0016184E3,5.604935E2,6.2426465E2,3.1339E2,4.7199E2,5.877373E2,5.818246E2,0E0,0E0,0E0,0E0,0E0,0E0,0E0,0E0],"parents":[2147483647,0,0,1,1,2,2,3,3,4,4,5,5,6,6],"right_children":[2,4,6,8,10,12,14,-1,-1,-1,-1,-1,-1,-1,-1],"split_conditions":[1.157E2,2.6E1,5.237037E1,2.93E1,9.722222E0,5.725E1,1.2018173E2,-3.6179775E-1,-6.815959E-2,-1.6084968E-1,-9.9159945E-3,5.175857E-2,-1.5728323E-1,1.2995896E-1,-9.114422E-2],"split_indices":[33,30,56,63,53,42,100,0,0,0,0,0,0,0,0],"split_type":[0,0,0,0,0,0,0,0,0,0,0,0,0,0,0],"sum_hessian":[3.23E2,1.64E2,1.59E2,1.5E1,1.49E2,5.5E1,1.04E2,8E0,7E0,2.4E1,1.25E2,3.4E1,2.1E1,9.1E1,1.3E1],"tree_param":{"num_deleted":"0","num_feature":"109","num_nodes":"15","size_leaf_vector":"1"}},{"base_weights":[-2.4653384E-1,5.6684804E0,-5.885066E-1,-7.960238E-2,8.82753E0,-3.9609134E-1,-3.7430584E-1,1.4891665E-1,4.4307056E-1,-1.0778586E-1,6.783941E-3],"categories":[],"categories_nodes":[],"categories_segments":[],"categories_sizes":[],"default_left":[0,0,0,0,0,0,0,0,0,0,0],"id":27,"left_children":[1,3,5,-1,7,-1,9,-1,-1,-1,-1],"loss_changes":[6.886837E2,4.9801477E2,8.2090356E2,0E0,2.4429626E2,0E0,5.738872E2,0E0,0E0,0E0,0E0],"parents":[2147483647,0,0,1,1,2,2,4,4,6,6],"right_children":[2,4,6,-1,8,-1,10,-1,-1,-1,-1],"split_conditions":[1.0731022E2,4.9936523E1,4.88E1,-7.960238E-2,1E0,-3.9609134E-1,9.714286E0,1.4891665E-1,4.4307056E-1,-1.0778586E-1,6.783941E-3],"split_indices":[37,56,10,0,72,0,53,0,0,0,0],"split_type":[0,0,0,0,0,0,0,0,0,0,0],"sum_hessian":[3.4E2,1.8E1,3.22E2,5E0,1.3E1,5E0,3.17E2,8E0,5E0,5.1E1,2.66E2],"tree_param":{"num_deleted":"0","num_feature":"109","num_nodes":"11","size_leaf_vector":"1"}},{"base_weights":[-2.1578829E-1,9.5595825E-1,-2.073377E0,1.7044028E0,-2.987546E0,-3.2734215E-1,-1.5385664E0,1.3485861E-1,5.598746E-3,-3.1289212E-2,-3.3588836E-1,-2.7413344E-2,-2.8995666E-1],"categories":[],"categories_nodes":[],"categories_segments":[],"categories_sizes":[],"default_left":[0,0,0,0,0,0,0,0,0,0,0,0,0],"id":28,"left_children":[1,3,5,7,9,-1,11,-1,-1,-1,-1,-1,-1],"loss_changes":[7.234589E2,6.0340625E2,5.582281E2,6.741759E2,4.8807098E2,0E0,6.135751E2,0E0,0E0,0E0,0E0,0E0,0E0],"parents":[2147483647,0,0,1,1,2,2,3,3,4,4,6,6],"right_children":[2,4,6,8,10,-1,12,-1,-1,-1,-1,-1,-1],"split_conditions":[1.13300644E2,1.17833336E2,5.25E1,3.1900454E1,6.05E1,-3.2734215E-1,1.1948101E2,1.3485861E-1,5.598746E-3,-3.1289212E-2,-3.3588836E-1,-2.7413344E-2,-2.8995666E-1],"split_indices":[37,44,42,25,43,0,102,0,0,0,0,0,0],"split_type":[0,0,0,0,0,0,0,0,0,0,0,0,0],"sum_hessian":[3.31E2,2.03E2,1.28E2,1.71E2,3.2E1,7E0,1.21E2,6.3E1,1.08E2,2.6E1,6E0,1.12E2,9E0],"tree_param":{"num_deleted":"0","num_feature":"109","num_nodes":"13","size_leaf_vector":"1"}},{"base_weights":[9.055498E-2,-8.75097E0,3.7437746E-1,-4.0823245E-1,-1.1023535E-1,2.4606233E0,-5.8343565E-1,1.0926071E-1,-1.0771326E-1,4.6153655E-3,-1.4694217E-1],"categories":[],"categories_nodes":[],"categories_segments":[],"categories_sizes":[],"default_left":[0,0,0,0,0,0,0,0,0,0,0],"id":29,"left_children":[1,3,5,-1,-1,7,9,-1,-1,-1,-1],"loss_changes":[8.554335E2,2.0044952E2,6.643173E2,0E0,0E0,6.308787E2,6.8188434E2,0E0,0E0,0E0,0E0],"parents":[2147483647,0,0,1,1,2,2,5,5,6,6],"right_children":[2,4,6,-1,-1,8,10,-1,-1,-1,-1],"split_conditions":[9.9E1,4.7E1,3E0,-4.0823245E-1,-1.1023535E-1,6.2E1,1.1365212E1,1.0926071E-1,-1.0771326E-1,4.6153655E-3,-1.4694217E-1],"split_indices":[100,34,73,0,0,15,29,0,0,0,0],"split_type":[0,0,0,0,0,0,0,0,0,0,0],"sum_hessian":[3.41E2,1E1,3.31E2,5E0,5E0,1.04E2,2.27E2,8.9E1,1.5E1,1.93E2,3.4E1],"tree_param":{"num_deleted":"0","num_feature":"109","num_nodes":"11","size_leaf_vector":"1"}},{"base_weights":[2.4177991E-1,-2.5861359E0,1.1565114E0,-3.8318938E-1,-1.8583984E0,1.8016404E0,-2.926456E0,4.9148183E-2,-1.14601254E-1,1.09191686E-1,1.0878401E-2,6.779235E-2,-1.4217521E-1],"categories":[],"categories_nodes":[],"categories_segments":[],"categories_sizes":[],"default_left":[0,0,0,0,0,0,0,0,0,0,0,0,0],"id":30,"left_children":[1,3,5,-1,7,9,11,-1,-1,-1,-1,-1,-1],"loss_changes":[8.641062E2,5.5001886E2,6.6801984E2,0E0,4.7216342E2,5.2901074E2,2.8715472E2,0E0,0E0,0E0,0E0,0E0,0E0],"parents":[2147483647,0,0,1,1,2,2,4,4,5,5,6,6],"right_children":[2,4,6,-1,8,10,12,-1,-1,-1,-1,-1,-1],"split_conditions":[1.0877778E2,4.925E1,6.14E1,-3.8318938E-1,5.407702E1,8.05E1,2.64E1,4.9148183E-2,-1.14601254E-1,1.09191686E-1,1.0878401E-2,6.779235E-2,-1.4217521E-1],"split_indices":[70,10,15,0,56,26,31,0,0,0,0,0,0],"split_type":[0,0,0,0,0,0,0,0,0,0,0,0,0],"sum_hessian":[3.33E2,8.1E1,2.52E2,5E0,7.6E1,2.18E2,3.4E1,2.6E1,5E1,1.01E2,1.17E2,8E0,2.6E1],"tree_param":{"num_deleted":"0","num_feature":"109","num_nodes":"13","size_leaf_vector":"1"}},{"base_weights":[-3.7917826E-2,-5.105646E-1,5.4214883E0,-2.706384E-1,-2.3775876E-1,7.6590405E0,1.29558835E-2,2.2407038E-2,-7.1725115E-2,7.191787E-2,3.2336324E-1],"categories":[],"categories_nodes":[],"categories_segments":[],"categories_sizes":[],"default_left":[0,0,0,0,0,0,0,0,0,0,0],"id":31,"left_children":[1,3,5,-1,7,9,-1,-1,-1,-1,-1],"loss_changes":[8.2930914E2,6.497357E2,2.8144812E2,0E0,5.5986816E2,2.2818018E2,0E0,0E0,0E0,0E0,0E0],"parents":[2147483647,0,0,1,1,2,2,4,4,5,5],"right_children":[2,4,6,-1,8,10,-1,-1,-1,-1,-1],"split_conditions":[3.6118204E2,1.076E2,1.1175E2,-2.706384E-1,1.635543E3,3.6363637E0,1.29558835E-2,2.2407038E-2,-7.1725115E-2,7.191787E-2,3.2336324E-1],"split_indices":[79,1,69,0,78,55,0,0,0,0,0],"split_type":[0,0,0,0,0,0,0,0,0,0,0],"sum_hessian":[3.21E2,2.96E2,2.5E1,9E0,2.87E2,1.7E1,8E0,1.96E2,9.1E1,6E0,1.1E1],"tree_param":{"num_deleted":"0","num_feature":"109","num_nodes":"11","size_leaf_vector":"1"}},{"base_weights":[-6.5343964E-1,7.4462795E-1,-2.9871342E0,3.148147E-1,4.734148E-1,-2.4942737E0,-3.9858985E-1,-1.371875E-1,3.3842105E-2,-2.0722902E-1,-4.6361238E-2],"categories":[],"categories_nodes":[],"categories_segments":[],"categories_sizes":[],"default_left":[0,0,0,0,0,0,0,0,0,0,0],"id":32,"left_children":[1,3,5,-1,7,9,-1,-1,-1,-1,-1],"loss_changes":[1.0418247E3,4.939878E2,5.4516016E2,0E0,5.682981E2,4.6928223E2,0E0,0E0,0E0,0E0,0E0],"parents":[2147483647,0,0,1,1,2,2,4,4,5,5],"right_children":[2,4,6,-1,8,10,-1,-1,-1,-1,-1],"split_conditions":[1.13300644E2,2.4E1,1.1843861E2,3.148147E-1,1.0075893E2,2.2E1,-3.9858985E-1,-1.371875E-1,3.3842105E-2,-2.0722902E-1,-4.6361238E-2],"split_indices":[37,30,102,0,4,59,0,0,0,0,0],"split_type":[0,0,0,0,0,0,0,0,0,0,0],"sum_hessian":[3.18E2,1.99E2,1.19E2,5E0,1.94E2,1.14E2,5E0,2.1E1,1.73E2,2.2E1,9.2E1],"tree_param":{"num_deleted":"0","num_feature":"109","num_nodes":"11","size_leaf_vector":"1"}},{"base_weights":[-1.8714564E-1,1.8383865E-1,-5.8329835E0,-6.755956E-1,2.2991524E0,-1.0141512E1,-6.778775E-3,8.087169E-3,-7.854283E-2,3.6934342E-3,1.4591241E-1,-4.4898045E-1,-1.7753002E-1],"categories":[],"categories_nodes":[],"categories_segments":[],"categories_sizes":[],"default_left":[0,0,0,0,0,0,0,0,0,0,0,0,0],"id":33,"left_children":[1,3,5,7,9,11,-1,-1,-1,-1,-1,-1,-1],"loss_changes":[6.9981104E2,5.699584E2,4.92635E2,3.795907E2,4.600689E2,1.5834192E2,0E0,0E0,0E0,0E0,0E0,0E0,0E0],"parents":[2147483647,0,0,1,1,2,2,3,3,4,4,5,5],"right_children":[2,4,6,8,10,12,-1,-1,-1,-1,-1,-1,-1],"split_conditions":[4.056334E1,1.174E2,1.165E2,5.595238E-1,1.144E2,2.87E1,-6.778775E-3,8.087169E-3,-7.854283E-2,3.6934342E-3,1.4591241E-1,-4.4898045E-1,-1.7753002E-1],"split_indices":[57,0,1,7,45,62,0,0,0,0,0,0,0],"split_type":[0,0,0,0,0,0,0,0,0,0,0,0,0],"sum_hessian":[3.32E2,3.12E2,2E1,2.22E2,9E1,1.1E1,9E0,1.47E2,7.5E1,4.7E1,4.3E1,5E0,6E0],"tree_param":{"num_deleted":"0","num_feature":"109","num_nodes":"13","size_leaf_vector":"1"}},{"base_weights":[-2.2129844E-1,-1.3364162E0,1.6657683E0,-3.2530782E-1,-1.0196427E0,2.4266257E0,-4.6942625E0,1.485949E-2,-7.3868714E-2,9.227423E-2,-1.3268068E-1,-4.6136457E-2,-2.335964E-1],"categories":[],"categories_nodes":[],"categories_segments":[],"categories_sizes":[],"default_left":[0,0,0,0,0,0,0,0,0,0,0,0,0],"id":34,"left_children":[1,3,5,-1,7,9,11,-1,-1,-1,-1,-1,-1],"loss_changes":[6.610981E2,5.5232855E2,5.700586E2,0E0,3.8142352E2,3.5933966E2,1.0060324E2,0E0,0E0,0E0,0E0,0E0,0E0],"parents":[2147483647,0,0,1,1,2,2,4,4,5,5,6,6],"right_children":[2,4,6,-1,8,10,12,-1,-1,-1,-1,-1,-1],"split_conditions":[5.92E1,4.8285713E1,6.2E1,-3.2530782E-1,3.2629417E1,3.464596E2,6.32E1,1.485949E-2,-7.3868714E-2,9.227423E-2,-1.3268068E-1,-4.6136457E-2,-2.335964E-1],"split_indices":[43,15,15,0,25,92,43,0,0,0,0,0,0],"split_type":[0,0,0,0,0,0,0,0,0,0,0,0,0],"sum_hessian":[3.13E2,1.97E2,1.16E2,6E0,1.91E2,1.04E2,1.2E1,9E1,1.01E2,9.7E1,7E0,6E0,6E0],"tree_param":{"num_deleted":"0","num_feature":"109","num_nodes":"13","size_leaf_vector":"1"}},{"base_weights":[-7.325118E-2,-1.273387E0,2.350248E0,-6.0663266E0,-3.535149E-1,4.563654E0,-9.005558E-1,6.202638E-2,-2.567843E-1,-1.4809246E-1,5.3464975E-3,-1.3768841E-1,1.7451292E-1,1.653009E-2,-1.8968402E-1],"categories":[],"categories_nodes":[],"categories_segments":[],"categories_sizes":[],"default_left":[0,0,0,0,0,0,0,0,0,0,0,0,0,0,0],"id":35,"left_children":[1,3,5,7,9,11,13,-1,-1,-1,-1,-1,-1,-1,-1],"loss_changes":[9.3669714E2,9.4639484E2,7.711332E2,5.959033E2,4.165247E2,5.751124E2,3.233588E2,0E0,0E0,0E0,0E0,0E0,0E0,0E0,0E0],"parents":[2147483647,0,0,1,1,2,2,3,3,4,4,5,5,6,6],"right_children":[2,4,6,8,10,12,14,-1,-1,-1,-1,-1,-1,-1,-1],"split_conditions":[1.070609E2,1.0084821E2,8.52E1,3.452381E0,5.18E1,3.5405405E0,5.980732E-1,6.202638E-2,-2.567843E-1,-1.4809246E-1,5.3464975E-3,-1.3768841E-1,1.7451292E-1,1.653009E-2,-1.8968402E-1],"split_indices":[79,4,26,23,47,23,83,0,0,0,0,0,0,0,0],"split_type":[0,0,0,0,0,0,0,0,0,0,0,0,0,0,0],"sum_hessian":[3.21E2,2.15E2,1.06E2,3.4E1,1.81E2,6.3E1,4.3E1,7E0,2.7E1,1.9E1,1.62E2,6E0,5.7E1,3.4E1,9E0],"tree_param":{"num_deleted":"0","num_feature":"109","num_nodes":"15","size_leaf_vector":"1"}},{"base_weights":[2.9932436E-1,-1.5382675E0,1.4813242E0,-2.9023452E0,1.5256782E0,3.825239E0,3.6848493E-2,-1.8549265E-1,-2.7431598E-2,-3.81745E-3,3.0948114E-1,2.8668386E-1,7.606158E-2,1.1099056E-1,-4.110432E-2],"categories":[],"categories_nodes":[],"categories_segments":[],"categories_sizes":[],"default_left":[0,0,0,0,0,0,0,0,0,0,0,0,0,0,0],"id":36,"left_children":[1,3,5,7,9,11,13,-1,-1,-1,-1,-1,-1,-1,-1],"loss_changes":[7.0855664E2,5.3657434E2,6.7059155E2,5.3263745E2,5.473319E2,5.4422925E2,5.8371875E2,0E0,0E0,0E0,0E0,0E0,0E0,0E0,0E0],"parents":[2147483647,0,0,1,1,2,2,3,3,4,4,5,5,6,6],"right_children":[2,4,6,8,10,12,14,-1,-1,-1,-1,-1,-1,-1,-1],"split_conditions":[1.10699356E2,3.0444445E1,-2.6403476E2,-2.9642856E0,3.84E1,1.06919846E2,5.5E1,-1.8549265E-1,-2.7431598E-2,-3.81745E-3,3.0948114E-1,2.8668386E-1,7.606158E-2,1.1099056E-1,-4.110432E-2],"split_indices":[38,63,91,94,27,97,15,0,0,0,0,0,0,0,0],"split_type":[0,0,0,0,0,0,0,0,0,0,0,0,0,0,0],"sum_hessian":[3.25E2,1.27E2,1.98E2,8.8E1,3.9E1,7.5E1,1.23E2,3.5E1,5.3E1,3.3E1,6E0,1.5E1,6E1,3.4E1,8.9E1],"tree_param":{"num_deleted":"0","num_feature":"109","num_nodes":"15","size_leaf_vector":"1"}},{"base_weights":[4.839165E-3,-4.1331184E-1,2.3442075E-1,-1.8509126E0,1.4286942E0,-1.7159677E-1,-6.7605893E-3,6.4473234E-2,-9.339316E-2],"categories":[],"categories_nodes":[],"categories_segments":[],"categories_sizes":[],"default_left":[0,0,0,0,0,0,0,0,0],"id":37,"left_children":[1,-1,3,5,7,-1,-1,-1,-1],"loss_changes":[9.8475995E2,0E0,8.048204E2,6.9028375E2,5.649098E2,0E0,0E0,0E0,0E0],"parents":[2147483647,0,0,2,2,3,3,4,4],"right_children":[2,-1,4,6,8,-1,-1,-1,-1],"split_conditions":[4.8E1,-4.1331184E-1,1.10699356E2,2.7571428E1,6.2E1,-1.7159677E-1,-6.7605893E-3,6.4473234E-2,-9.339316E-2],"split_indices":[10,0,38,31,15,0,0,0,0],"split_type":[0,0,0,0,0,0,0,0,0],"sum_hessian":[3.27E2,5E0,3.22E2,1.17E2,2.05E2,3.6E1,8.1E1,1.8E2,2.5E1],"tree_param":{"num_deleted":"0","num_feature":"109","num_nodes":"9","size_leaf_vector":"1"}},{"base_weights":[-1.3240367E-1,-1.4637914E0,1.4233152E0,7.1146554E-1,-2.4844465E0,2.5769258E-1,4.796225E0,1.3285978E-1,-5.934775E-2,-1.8159327E-1,-4.474085E-2,5.0729062E-2,-1.0020948E-1,2.2939876E-1,2.8153982E-2],"categories":[],"categories_nodes":[],"categories_segments":[],"categories_sizes":[],"default_left":[0,0,0,0,0,0,0,0,0,0,0,0,0,0,0],"id":38,"left_children":[1,3,5,7,9,11,13,-1,-1,-1,-1,-1,-1,-1,-1],"loss_changes":[7.129557E2,4.1392236E2,6.2053723E2,5.498089E2,4.340492E2,5.5587085E2,3.8793878E2,0E0,0E0,0E0,0E0,0E0,0E0,0E0,0E0],"parents":[2147483647,0,0,1,1,2,2,3,3,4,4,5,5,6,6],"right_children":[2,4,6,8,10,12,14,-1,-1,-1,-1,-1,-1,-1,-1],"split_conditions":[3.2740673E1,-2E0,1.1757143E2,6E0,7.1666664E1,8.52E1,1.1369254E2,1.3285978E-1,-5.934775E-2,-1.8159327E-1,-4.474085E-2,5.0729062E-2,-1.0020948E-1,2.2939876E-1,2.8153982E-2],"split_indices":[79,96,12,73,26,26,103,0,0,0,0,0,0,0,0],"split_type":[0,0,0,0,0,0,0,0,0,0,0,0,0,0,0],"sum_hessian":[3.43E2,1.85E2,1.58E2,5.9E1,1.26E2,1.18E2,4E1,2.5E1,3.4E1,3E1,9.6E1,8.5E1,3.3E1,2.4E1,1.6E1],"tree_param":{"num_deleted":"0","num_feature":"109","num_nodes":"15","size_leaf_vector":"1"}},{"base_weights":[1.4041056E-1,2.3592675E0,-1.3082045E0,7.7835574E0,1.4546908E0,-7.6438465E0,-5.3593886E-1,3.6077538E-1,1.4647973E-1,6.824636E-2,-8.8614576E-2,-3.52232E-1,-5.818516E-2,-5.6716003E-2,5.5824116E-2],"categories":[],"categories_nodes":[],"categories_segments":[],"categories_sizes":[],"default_left":[0,0,0,0,0,0,0,0,0,0,0,0,0,0,0],"id":39,"left_children":[1,3,5,7,9,11,13,-1,-1,-1,-1,-1,-1,-1,-1],"loss_changes":[1.0135332E3,6.004397E2,9.264453E2,1.6358398E2,3.3210336E2,4.0602405E2,5.0152356E2,0E0,0E0,0E0,0E0,0E0,0E0,0E0,0E0],"parents":[2147483647,0,0,1,1,2,2,3,3,4,4,5,5,6,6],"right_children":[2,4,6,8,10,12,14,-1,-1,-1,-1,-1,-1,-1,-1],"split_conditions":[1.4878596E3,5.24E1,1.0075893E2,-3E0,1.20367035E2,3.4537037E1,1.10699356E2,3.6077538E-1,1.4647973E-1,6.824636E-2,-8.8614576E-2,-3.52232E-1,-5.818516E-2,-5.6716003E-2,5.5824116E-2],"split_indices":[78,10,4,96,100,25,38,0,0,0,0,0,0,0,0],"split_type":[0,0,0,0,0,0,0,0,0,0,0,0,0,0,0],"sum_hessian":[3.14E2,1.24E2,1.9E2,1.7E1,1.07E2,2E1,1.7E2,7E0,1E1,9.2E1,1.5E1,1.2E1,8E0,1.1E2,6E1],"tree_param":{"num_deleted":"0","num_feature":"109","num_nodes":"15","size_leaf_vector":"1"}},{"base_weights":[7.946945E-2,-1.2074791E0,1.4570575E0,-2.7415553E-1,-8.5363764E-1,4.3910003E0,2.1604922E-1,-1.6720809E-2,-3.101043E-1,2.5496307E-1,1.2193542E-2,1.8171647E-1,-1.2884066E-2],"categories":[],"categories_nodes":[],"categories_segments":[],"categories_sizes":[],"default_left":[0,0,0,0,0,0,0,0,0,0,0,0,0],"id":40,"left_children":[1,3,5,-1,7,9,11,-1,-1,-1,-1,-1,-1],"loss_changes":[5.890568E2,4.4718585E2,5.821196E2,0E0,4.6954474E2,7.0228143E2,3.9911697E2,0E0,0E0,0E0,0E0,0E0,0E0],"parents":[2147483647,0,0,1,1,2,2,4,4,5,5,6,6],"right_children":[2,4,6,-1,8,10,12,-1,-1,-1,-1,-1,-1],"split_conditions":[1.157E2,1.0264774E2,5.1963615E1,-2.7415553E-1,1.202E2,3.287415E1,-6E0,-1.6720809E-2,-3.101043E-1,2.5496307E-1,1.2193542E-2,1.8171647E-1,-1.2884066E-2],"split_indices":[33,99,24,0,41,25,71,0,0,0,0,0,0],"split_type":[0,0,0,0,0,0,0,0,0,0,0,0,0],"sum_hessian":[3.31E2,1.71E2,1.6E2,7E0,1.64E2,4.7E1,1.13E2,1.59E2,5E0,2.4E1,2.3E1,1.1E1,1.02E2],"tree_param":{"num_deleted":"0","num_feature":"109","num_nodes":"13","size_leaf_vector":"1"}},{"base_weights":[2.4552514E-1,-7.499458E0,5.4896253E-1,-8.0691755E-2,-3.2974523E-1,-1.2826194E0,1.6112512E0,-6.927201E-2,1.0718609E-1,5.972222E-2,-2.239312E-1],"categories":[],"categories_nodes":[],"categories_segments":[],"categories_sizes":[],"default_left":[0,0,0,0,0,0,0,0,0,0,0],"id":41,"left_children":[1,3,5,-1,-1,7,9,-1,-1,-1,-1],"loss_changes":[7.8570715E2,1.635476E2,6.290607E2,0E0,0E0,5.1564166E2,5.1942737E2,0E0,0E0,0E0,0E0],"parents":[2147483647,0,0,1,1,2,2,5,5,6,6],"right_children":[2,4,6,-1,-1,8,10,-1,-1,-1,-1],"split_conditions":[1.006E2,7.1666664E1,1.10699356E2,-8.0691755E-2,-3.2974523E-1,1.205E2,6.231973E1,-6.927201E-2,1.0718609E-1,5.972222E-2,-2.239312E-1],"split_indices":[65,26,38,0,0,64,56,0,0,0,0],"split_type":[0,0,0,0,0,0,0,0,0,0,0],"sum_hessian":[3.34E2,1.2E1,3.22E2,5E0,7E0,1.18E2,2.04E2,9.9E1,1.9E1,1.98E2,6E0],"tree_param":{"num_deleted":"0","num_feature":"109","num_nodes":"11","size_leaf_vector":"1"}},{"base_weights":[2.2958668E-1,1.2270496E0,-2.0735886E0,3.7223217E-1,4.212514E0,-4.4886665E0,-6.2434282E-2,2.5457674E-1,2.4588357E-3,1.79933E-1,3.914618E-3,7.6421395E-2,-1.7566451E-1,-1.9771616E-1,7.9768665E-2],"categories":[],"categories_nodes":[],"categories_segments":[],"categories_sizes":[],"default_left":[0,0,0,0,0,0,0,0,0,0,0,0,0,0,0],"id":42,"left_children":[1,3,5,7,9,11,13,-1,-1,-1,-1,-1,-1,-1,-1],"loss_changes":[7.652411E2,5.9060693E2,4.8641772E2,4.083051E2,3.151087E2,3.554428E2,9.1046155E2,0E0,0E0,0E0,0E0,0E0,0E0,0E0,0E0],"parents":[2147483647,0,0,1,1,2,2,3,3,4,4,5,5,6,6],"right_children":[2,4,6,8,10,12,14,-1,-1,-1,-1,-1,-1,-1,-1],"split_conditions":[3.0125E1,1.0419643E2,4.624E2,-1.5597222E1,6.04E1,-8.083333E0,-7E0,2.5457674E-1,2.4588357E-3,1.79933E-1,3.914618E-3,7.6421395E-2,-1.7566451E-1,-1.9771616E-1,7.9768665E-2],"split_indices":[62,74,108,94,15,94,94,0,0,0,0,0,0,0,0],"split_type":[0,0,0,0,0,0,0,0,0,0,0,0,0,0,0],"sum_hessian":[3.32E2,2.32E2,1E2,1.81E2,5.1E1,4.5E1,5.5E1,6E0,1.75E2,3.7E1,1.4E1,6E0,3.9E1,1.6E1,3.9E1],"tree_param":{"num_deleted":"0","num_feature":"109","num_nodes":"15","size_leaf_vector":"1"}},{"base_weights":[-1.7362967E-1,-1.7901105E0,1.5329815E0,-8.509518E0,-1.2326188E0,1.9038064E0,-1.563953E-1,-4.2125708E-1,-8.756333E-2,-2.2690473E-2,-2.3458849E-1,-1.2083004E-3,1.0828436E-1],"categories":[],"categories_nodes":[],"categories_segments":[],"categories_sizes":[],"default_left":[0,0,0,0,0,0,0,0,0,0,0,0,0],"id":43,"left_children":[1,3,5,7,9,11,-1,-1,-1,-1,-1,-1,-1],"loss_changes":[8.9447943E2,6.134268E2,3.8449527E2,3.2270868E2,4.8514694E2,4.4876123E2,0E0,0E0,0E0,0E0,0E0,0E0,0E0],"parents":[2147483647,0,0,1,1,2,2,3,3,4,4,5,5],"right_children":[2,4,6,8,10,12,-1,-1,-1,-1,-1,-1,-1],"split_conditions":[1.157E2,1.0049107E2,6.32E1,2E0,1.1789893E2,5.3511925E1,-1.563953E-1,-4.2125708E-1,-8.756333E-2,-2.2690473E-2,-2.3458849E-1,-1.2083004E-3,1.0828436E-1],"split_indices":[33,74,46,48,104,56,0,0,0,0,0,0,0],"split_type":[0,0,0,0,0,0,0,0,0,0,0,0,0],"sum_hessian":[3.23E2,1.66E2,1.57E2,1.2E1,1.54E2,1.49E2,8E0,6E0,6E0,1.43E2,1.1E1,6.6E1,8.3E1],"tree_param":{"num_deleted":"0","num_feature":"109","num_nodes":"13","size_leaf_vector":"1"}},{"base_weights":[-1.9737552E-1,1.9951387E-1,-4.087664E-1,-8.382937E-1,2.6674821E0,-1.3377498E-1,-1.262847E-2,2.701783E-1,2.5631242E-2],"categories":[],"categories_nodes":[],"categories_segments":[],"categories_sizes":[],"default_left":[0,0,0,0,0,0,0,0,0],"id":44,"left_children":[1,-1,3,5,7,-1,-1,-1,-1],"loss_changes":[4.2419803E2,0E0,3.950729E2,3.885822E2,3.9315738E2,0E0,0E0,0E0,0E0],"parents":[2147483647,0,0,2,2,3,3,4,4],"right_children":[2,-1,4,6,8,-1,-1,-1,-1],"split_conditions":[-5.670564E2,1.9951387E-1,3.3783893E2,5.3E1,-5E0,-1.3377498E-1,-1.262847E-2,2.701783E-1,2.5631242E-2],"split_indices":[92,0,79,15,71,0,0,0,0],"split_type":[0,0,0,0,0,0,0,0,0],"sum_hessian":[3.07E2,9E0,2.98E2,2.62E2,3.6E1,2.9E1,2.33E2,8E0,2.8E1],"tree_param":{"num_deleted":"0","num_feature":"109","num_nodes":"9","size_leaf_vector":"1"}},{"base_weights":[-2.0571607E-1,9.0854895E-1,-1.4882622E0,4.3984756E-1,2.7193704E-1,-2.4390514E0,2.0341039E0,6.4585425E-2,-4.214147E-2,-7.10409E-3,-1.1865002E-1,-4.9508397E-2,1.8318078E-1],"categories":[],"categories_nodes":[],"categories_segments":[],"categories_sizes":[],"default_left":[0,0,0,0,0,0,0,0,0,0,0,0,0],"id":45,"left_children":[1,3,5,7,-1,9,11,-1,-1,-1,-1,-1,-1],"loss_changes":[4.5352347E2,6.0870447E2,4.9747623E2,4.6315738E2,0E0,3.417616E2,4.3952658E2,0E0,0E0,0E0,0E0,0E0,0E0],"parents":[2147483647,0,0,1,1,2,2,3,3,5,5,6,6],"right_children":[2,4,6,8,-1,10,12,-1,-1,-1,-1,-1,-1],"split_conditions":[8.06E1,8E1,1.2007885E2,3.2365696E1,2.7193704E-1,5.68E1,1.0368304E2,6.4585425E-2,-4.214147E-2,-7.10409E-3,-1.1865002E-1,-4.9508397E-2,1.8318078E-1],"split_indices":[26,26,99,25,0,14,74,0,0,0,0,0,0],"split_type":[0,0,0,0,0,0,0,0,0,0,0,0,0],"sum_hessian":[3.16E2,1.69E2,1.47E2,1.6E2,9E0,1.16E2,3.1E1,8.4E1,7.6E1,4.4E1,7.2E1,1.6E1,1.5E1],"tree_param":{"num_deleted":"0","num_feature":"109","num_nodes":"13","size_leaf_vector":"1"}},{"base_weights":[2.1206687E-1,-7.4053073E0,4.5434532E-1,-3.6050704E-1,-7.78475E-2,-4.892819E0,7.158975E-1,-5.474991E-2,-2.1096428E-1,5.563772E-3,9.9327184E-2],"categories":[],"categories_nodes":[],"categories_segments":[],"categories_sizes":[],"default_left":[0,0,0,0,0,0,0,0,0,0,0],"id":46,"left_children":[1,3,5,-1,-1,7,9,-1,-1,-1,-1],"loss_changes":[6.348741E2,1.887326E2,4.6819043E2,0E0,0E0,7.843506E1,4.188595E2,0E0,0E0,0E0,0E0],"parents":[2147483647,0,0,1,1,2,2,5,5,6,6],"right_children":[2,4,6,-1,-1,8,10,-1,-1,-1,-1],"split_conditions":[9.97E1,1.17666664E2,1.26E1,-3.6050704E-1,-7.78475E-2,1.0942857E2,1.192E2,-5.474991E-2,-2.1096428E-1,5.563772E-3,9.9327184E-2],"split_indices":[45,12,27,0,0,70,8,0,0,0,0],"split_type":[0,0,0,0,0,0,0,0,0,0,0],"sum_hessian":[3.44E2,1E1,3.34E2,5E0,5E0,1.5E1,3.19E2,6E0,9E0,2.62E2,5.7E1],"tree_param":{"num_deleted":"0","num_feature":"109","num_nodes":"11","size_leaf_vector":"1"}},{"base_weights":[3.6187017E-1,1.1481423E0,-2.4296734E0,-4.4519565E-1,2.091452E0,-3.6571798E0,3.1141748E0,8.3456226E-2,-6.7112185E-2,8.873607E-2,-4.957643E-2,-1.5332781E-1,-2.284065E-2,2.568454E-1,-4.5921635E-2],"categories":[],"categories_nodes":[],"categories_segments":[],"categories_sizes":[],"default_left":[0,0,0,0,0,0,0,0,0,0,0,0,0,0,0],"id":47,"left_children":[1,3,5,7,9,11,13,-1,-1,-1,-1,-1,-1,-1,-1],"loss_changes":[7.355185E2,3.9448434E2,5.079365E2,5.138227E2,4.4380988E2,2.1165094E2,3.2443994E2,0E0,0E0,0E0,0E0,0E0,0E0,0E0,0E0],"parents":[2147483647,0,0,1,1,2,2,3,3,4,4,5,5,6,6],"right_children":[2,4,6,8,10,12,14,-1,-1,-1,-1,-1,-1,-1,-1],"split_conditions":[6.0142857E1,5.45E1,1.167E2,5.21E1,3.11E1,3.9732144E0,5.5E1,8.3456226E-2,-6.7112185E-2,8.873607E-2,-4.957643E-2,-1.5332781E-1,-2.284065E-2,2.568454E-1,-4.5921635E-2],"split_indices":[15,11,44,15,62,75,10,0,0,0,0,0,0,0,0],"split_type":[0,0,0,0,0,0,0,0,0,0,0,0,0,0,0],"sum_hessian":[3.34E2,2.61E2,7.3E1,9.7E1,1.64E2,6E1,1.3E1,3.4E1,6.3E1,1.37E2,2.7E1,4.2E1,1.8E1,6E0,7E0],"tree_param":{"num_deleted":"0","num_feature":"109","num_nodes":"15","size_leaf_vector":"1"}},{"base_weights":[1.9588688E-1,-1.0687867E0,1.4078234E0,-5.71865E-1,-6.1624427E0,-5.3809077E-1,2.9801052E0,-2.6772895E-1,-5.6472095E-3,-1.4396209E-2,-3.3248532E-1,-4.727596E-2,2.1060339E-1,1.3175534E-1,4.9431524E-3],"categories":[],"categories_nodes":[],"categories_segments":[],"categories_sizes":[],"default_left":[0,0,0,0,0,0,0,0,0,0,0,0,0,0,0],"id":48,"left_children":[1,3,5,7,9,11,13,-1,-1,-1,-1,-1,-1,-1,-1],"loss_changes":[4.847768E2,3.861841E2,4.964764E2,4.362894E2,3.341933E2,5.105162E2,3.0343182E2,0E0,0E0,0E0,0E0,0E0,0E0,0E0,0E0],"parents":[2147483647,0,0,1,1,2,2,3,3,4,4,5,5,6,6],"right_children":[2,4,6,8,10,12,14,-1,-1,-1,-1,-1,-1,-1,-1],"split_conditions":[1.157E2,1.1764194E2,5.3604073E1,9.98E1,1.1185372E2,1.1875E2,1.176E2,-2.6772895E-1,-5.6472095E-3,-1.4396209E-2,-3.3248532E-1,-4.727596E-2,2.1060339E-1,1.3175534E-1,4.9431524E-3],"split_indices":[33,104,56,45,5,64,40,0,0,0,0,0,0,0,0],"split_type":[0,0,0,0,0,0,0,0,0,0,0,0,0,0,0],"sum_hessian":[3.15E2,1.54E2,1.61E2,1.41E2,1.3E1,7.2E1,8.9E1,6E0,1.35E2,6E0,7E0,6.4E1,8E0,6.2E1,2.7E1],"tree_param":{"num_deleted":"0","num_feature":"109","num_nodes":"15","size_leaf_vector":"1"}},{"base_weights":[-7.6947904E-1,-5.1965537E0,-3.8368306E-1,-2.2493214E-3,-7.789391E0,-2.3136559E0,2.317217E-1,-1.4587855E-1,-3.6203876E-1,-2.9101888E-2,-2.2344546E-1,-1.1594296E-2,1.03224255E-1],"categories":[],"categories_nodes":[],"categories_segments":[],"categories_sizes":[],"default_left":[0,0,0,0,0,0,0,0,0,0,0,0,0],"id":49,"left_children":[1,3,5,-1,7,9,11,-1,-1,-1,-1,-1,-1],"loss_changes":[5.6607513E2,3.496181E2,3.6659564E2,0E0,1.6711743E2,4.8863452E2,4.2979153E2,0E0,0E0,0E0,0E0,0E0,0E0],"parents":[2147483647,0,0,1,1,2,2,4,4,5,5,6,6],"right_children":[2,4,6,-1,8,10,12,-1,-1,-1,-1,-1,-1],"split_conditions":[1.097E2,4.090909E0,3.72549E0,-2.2493214E-3,1E0,3.344209E-1,1.18818184E2,-1.4587855E-1,-3.6203876E-1,-2.9101888E-2,-2.2344546E-1,-1.1594296E-2,1.03224255E-1],"split_indices":[33,55,55,0,49,28,64,0,0,0,0,0,0],"split_type":[0,0,0,0,0,0,0,0,0,0,0,0,0],"sum_hessian":[3.33E2,2.6E1,3.07E2,9E0,1.7E1,7.4E1,2.33E2,1E1,7E0,5.8E1,1.6E1,1.95E2,3.8E1],"tree_param":{"num_deleted":"0","num_feature":"109","num_nodes":"13","size_leaf_vector":"1"}},{"base_weights":[3.518243E-1,-2.6728645E-1,5.038325E-1,3.2661747E-2,2.7515223E0,3.3586867E-2,-4.9426615E-2,5.424885E-2,1.8521678E-1],"categories":[],"categories_nodes":[],"categories_segments":[],"categories_sizes":[],"default_left":[0,0,0,0,0,0,0,0,0],"id":50,"left_children":[1,-1,3,5,7,-1,-1,-1,-1],"loss_changes":[4.4642023E2,0E0,3.456424E2,4.5179385E2,1.7280975E2,0E0,0E0,0E0,0E0],"parents":[2147483647,0,0,2,2,3,3,4,4],"right_children":[2,-1,4,6,8,-1,-1,-1,-1],"split_conditions":[9.583016E1,-2.6728645E-1,6.06E1,5.76E1,3.4108528E-1,3.3586867E-2,-4.9426615E-2,5.424885E-2,1.8521678E-1],"split_indices":[102,0,14,14,28,0,0,0,0],"split_type":[0,0,0,0,0,0,0,0,0],"sum_hessian":[3.32E2,5E0,3.27E2,2.71E2,5.6E1,1.65E2,1.06E2,4.3E1,1.3E1],"tree_param":{"num_deleted":"0","num_feature":"109","num_nodes":"9","size_leaf_vector":"1"}},{"base_weights":[-2.0988707E-1,-3.5336924E-1,1.19305095E-2,7.8866464E-1,-2.3985999E0,-1.2337981E-1,3.339279E-2,4.1015007E-2,-1.20594494E-1],"categories":[],"categories_nodes":[],"categories_segments":[],"categories_sizes":[],"default_left":[0,0,0,0,0,0,0,0,0],"id":51,"left_children":[1,-1,3,5,7,-1,-1,-1,-1],"loss_changes":[8.184993E2,0E0,6.1192114E2,3.1970496E2,4.2723526E2,0E0,0E0,0E0,0E0],"parents":[2147483647,0,0,2,2,3,3,4,4],"right_children":[2,-1,4,6,8,-1,-1,-1,-1],"split_conditions":[4.8E1,-3.5336924E-1,1.1444445E1,1.4285715E-1,5.316318E1,-1.2337981E-1,3.339279E-2,4.1015007E-2,-1.20594494E-1],"split_indices":[10,0,21,28,24,0,0,0,0],"split_type":[0,0,0,0,0,0,0,0,0],"sum_hessian":[3.32E2,6E0,3.26E2,2.47E2,7.9E1,1.3E1,2.34E2,2.2E1,5.7E1],"tree_param":{"num_deleted":"0","num_feature":"109","num_nodes":"9","size_leaf_vector":"1"}},{"base_weights":[2.1179149E-1,-2.5768122E-1,3.6194196E-1,-1.5254016E-1,2.4498506E0,-1.0119394E-2,2.2943296E-1,1.7275557E-1,1.8496428E-2],"categories":[],"categories_nodes":[],"categories_segments":[],"categories_sizes":[],"default_left":[0,0,0,0,0,0,0,0,0],"id":52,"left_children":[1,-1,3,5,7,-1,-1,-1,-1],"loss_changes":[4.0284784E2,0E0,3.4026855E2,3.1782135E2,3.4995776E2,0E0,0E0,0E0,0E0],"parents":[2147483647,0,0,2,2,3,3,4,4],"right_children":[2,-1,4,6,8,-1,-1,-1,-1],"split_conditions":[9.583016E1,-2.5768122E-1,1.1825E2,4.92E1,2.81E1,-1.0119394E-2,2.2943296E-1,1.7275557E-1,1.8496428E-2],"split_indices":[102,0,12,59,62,0,0,0,0],"split_type":[0,0,0,0,0,0,0,0,0],"sum_hessian":[3.2E2,5E0,3.15E2,2.53E2,6.2E1,2.48E2,5E0,2.3E1,3.9E1],"tree_param":{"num_deleted":"0","num_feature":"109","num_nodes":"9","size_leaf_vector":"1"}},{"base_weights":[3.28678E-1,4.890097E0,1.54348975E-2,1.3200922E0,2.4724047E-1,-4.083721E0,3.313901E-1,1.1938773E-1,-3.8280863E-2,-1.9362319E-3,-1.9671765E-1,-1.2060733E-2,7.5836815E-2],"categories":[],"categories_nodes":[],"categories_segments":[],"categories_sizes":[],"default_left":[0,0,0,0,0,0,0,0,0,0,0,0,0],"id":53,"left_children":[1,3,5,7,-1,9,11,-1,-1,-1,-1,-1,-1],"loss_changes":[4.8013153E2,2.1873157E2,4.0917596E2,7.051112E1,0E0,1.942579E2,4.3944604E2,0E0,0E0,0E0,0E0,0E0,0E0],"parents":[2147483647,0,0,1,1,2,2,3,3,5,5,6,6],"right_children":[2,4,6,8,-1,10,12,-1,-1,-1,-1,-1,-1],"split_conditions":[2.505732E1,2.1166801E1,1.097E2,4.4E1,2.4724047E-1,0E0,3.0625E1,1.1938773E-1,-3.8280863E-2,-1.9362319E-3,-1.9671765E-1,-1.2060733E-2,7.5836815E-2],"split_indices":[57,57,33,2,0,95,31,0,0,0,0,0,0],"split_type":[0,0,0,0,0,0,0,0,0,0,0,0,0],"sum_hessian":[3.37E2,2.1E1,3.16E2,1E1,1.1E1,2.2E1,2.94E2,5E0,5E0,8E0,1.4E1,2.19E2,7.5E1],"tree_param":{"num_deleted":"0","num_feature":"109","num_nodes":"13","size_leaf_vector":"1"}},{"base_weights":[-2.3683505E-1,-7.0546727E0,3.3538517E-2,-7.726034E-2,-3.090805E-1,-2.4478203E-1,2.5274706E-1,3.114526E-2,-6.487054E-2],"categories":[],"categories_nodes":[],"categories_segments":[],"categories_sizes":[],"default_left":[0,0,0,0,0,0,0,0,0],"id":54,"left_children":[1,3,5,-1,-1,-1,7,-1,-1],"loss_changes":[6.090168E2,1.4062659E2,5.4025543E2,0E0,0E0,0E0,5.2765924E2,0E0,0E0],"parents":[2147483647,0,0,1,1,2,2,6,6],"right_children":[2,4,6,-1,-1,-1,8,-1,-1],"split_conditions":[9.98E1,-1.1160715E0,8.807017E0,-7.726034E-2,-3.090805E-1,-2.4478203E-1,1.1444445E1,3.114526E-2,-6.487054E-2],"split_indices":[45,75,21,0,0,0,21,0,0],"split_type":[0,0,0,0,0,0,0,0,0],"sum_hessian":[3.28E2,1.2E1,3.16E2,5E0,7E0,8E0,3.08E2,2.34E2,7.4E1],"tree_param":{"num_deleted":"0","num_feature":"109","num_nodes":"9","size_leaf_vector":"1"}},{"base_weights":[-4.0320805E-1,1.1309263E0,-1.3028075E0,9.352244E-2,4.0695853E0,-4.1751102E-1,-9.65826E-1,2.5000325E-1,-1.618766E-2,2.0240887E-1,3.207344E-2,1.25754895E-2,-8.163581E-2],"categories":[],"categories_nodes":[],"categories_segments":[],"categories_sizes":[],"default_left":[0,0,0,0,0,0,0,0,0,0,0,0,0],"id":55,"left_children":[1,3,5,7,9,-1,11,-1,-1,-1,-1,-1,-1],"loss_changes":[4.544645E2,3.6861414E2,8.234176E2,4.3861417E2,2.207237E2,0E0,4.5250916E2,0E0,0E0,0E0,0E0,0E0,0E0],"parents":[2147483647,0,0,1,1,2,2,3,3,4,4,6,6],"right_children":[2,4,6,8,10,-1,12,-1,-1,-1,-1,-1,-1],"split_conditions":[2.81E1,1.0426339E2,4.88E1,1.0731022E2,5.84E1,-4.1751102E-1,8.06E1,2.5000325E-1,-1.618766E-2,2.0240887E-1,3.207344E-2,1.25754895E-2,-8.163581E-2],"split_indices":[62,74,10,37,11,0,26,0,0,0,0,0,0],"split_type":[0,0,0,0,0,0,0,0,0,0,0,0,0],"sum_hessian":[3.28E2,1.21E2,2.07E2,9E1,3.1E1,5E0,2.02E2,6E0,8.4E1,1.7E1,1.4E1,1.1E2,9.2E1],"tree_param":{"num_deleted":"0","num_feature":"109","num_nodes":"13","size_leaf_vector":"1"}},{"base_weights":[-3.9785407E-2,-5.220896E-1,3.555247E0,-2.9892695E0,2.891044E-1,4.698515E0,-2.2288034E-2,1.7113905E-1,-1.15681216E-1,-1.881541E-1,1.8212205E-2,1.8833064E-1,-1.4659726E-2],"categories":[],"categories_nodes":[],"categories_segments":[],"categories_sizes":[],"default_left":[0,0,0,0,0,0,0,0,0,0,0,0,0],"id":56,"left_children":[1,3,5,7,9,11,-1,-1,-1,-1,-1,-1,-1],"loss_changes":[5.660471E2,5.7932166E2,1.9195181E2,4.2692023E2,3.9530457E2,2.07896E2,0E0,0E0,0E0,0E0,0E0,0E0,0E0],"parents":[2147483647,0,0,1,1,2,2,3,3,4,4,5,5],"right_children":[2,4,6,8,10,12,-1,-1,-1,-1,-1,-1,-1],"split_conditions":[1.1668978E2,1.0116071E2,1.1716315E2,3.4117646E0,9.8E0,1.1228979E2,-2.2288034E-2,1.7113905E-1,-1.15681216E-1,-1.881541E-1,1.8212205E-2,1.8833064E-1,-1.4659726E-2],"split_indices":[38,4,98,23,27,103,0,0,0,0,0,0,0],"split_type":[0,0,0,0,0,0,0,0,0,0,0,0,0],"sum_hessian":[3.26E2,2.88E2,3.8E1,7.1E1,2.17E2,3E1,8E0,5E0,6.6E1,9E0,2.08E2,2.4E1,6E0],"tree_param":{"num_deleted":"0","num_feature":"109","num_nodes":"13","size_leaf_vector":"1"}},{"base_weights":[-6.4107007E-1,4.108094E0,-9.6324855E-1,-1.0023678E-2,6.2742796E0,-3.2387906E-1,-7.014932E-1,5.043226E-2,2.6923653E-1,2.1835178E-2,-5.1381458E-2],"categories":[],"categories_nodes":[],"categories_segments":[],"categories_sizes":[],"default_left":[0,0,0,0,0,0,0,0,0,0,0],"id":57,"left_children":[1,3,5,-1,7,-1,9,-1,-1,-1,-1],"loss_changes":[5.205812E2,2.1099753E2,7.69157E2,0E0,1.4308789E2,0E0,4.0518396E2,0E0,0E0,0E0,0E0],"parents":[2147483647,0,0,1,1,2,2,4,4,6,6],"right_children":[2,4,6,-1,8,-1,10,-1,-1,-1,-1],"split_conditions":[1.0731022E2,1.0472727E1,4.88E1,-1.0023678E-2,4.029412E0,-3.2387906E-1,0E0,5.043226E-2,2.6923653E-1,2.1835178E-2,-5.1381458E-2],"split_indices":[37,53,10,0,23,0,95,0,0,0,0],"split_type":[0,0,0,0,0,0,0,0,0,0,0],"sum_hessian":[3.39E2,2.1E1,3.18E2,7E0,1.4E1,8E0,3.1E2,5E0,9E0,1.24E2,1.86E2],"tree_param":{"num_deleted":"0","num_feature":"109","num_nodes":"11","size_leaf_vector":"1"}},{"base_weights":[3.8489856E-2,1.6791351E0,-7.174636E-1,-3.4114478E0,3.1544967E0,-7.1991415E0,-3.7901208E-1,-2.2634734E-1,-3.1798165E-2,1.3286352E-1,-5.0462928E-2,-3.2995573E-1,-9.6124925E-2,-2.8704617E-2,8.797921E-2],"categories":[],"categories_nodes":[],"categories_segments":[],"categories_sizes":[],"default_left":[0,0,0,0,0,0,0,0,0,0,0,0,0,0,0],"id":58,"left_children":[1,3,5,7,9,11,13,-1,-1,-1,-1,-1,-1,-1,-1],"loss_changes":[3.9133725E2,7.543862E2,4.67937E2,1.9729605E2,4.0028748E2,1.19234436E2,3.491548E2,0E0,0E0,0E0,0E0,0E0,0E0,0E0,0E0],"parents":[2147483647,0,0,1,1,2,2,3,3,4,4,5,5,6,6],"right_children":[2,4,6,8,10,12,14,-1,-1,-1,-1,-1,-1,-1,-1],"split_conditions":[1.09964745E2,3.456E2,1.0075893E2,-2.232143E0,1.206E2,5.7142857E1,6E0,-2.2634734E-1,-3.1798165E-2,1.3286352E-1,-5.0462928E-2,-3.2995573E-1,-9.6124925E-2,-2.8704617E-2,8.797921E-2],"split_indices":[97,107,4,75,44,47,96,0,0,0,0,0,0,0,0],"split_type":[0,0,0,0,0,0,0,0,0,0,0,0,0,0,0],"sum_hessian":[3.14E2,9.9E1,2.15E2,2.2E1,7.7E1,1E1,2.05E2,8E0,1.4E1,6.3E1,1.4E1,5E0,5E0,1.76E2,2.9E1],"tree_param":{"num_deleted":"0","num_feature":"109","num_nodes":"15","size_leaf_vector":"1"}},{"base_weights":[-1.9386236E-1,-2.409399E-1,-2.1029253E-2,4.7586545E-1,-2.4482224E0,1.2247458E-1,-9.1876445E-4,-1.7898208E-1,-1.7957194E-2],"categories":[],"categories_nodes":[],"categories_segments":[],"categories_sizes":[],"default_left":[0,0,0,0,0,0,0,0,0],"id":59,"left_children":[1,-1,3,5,7,-1,-1,-1,-1],"loss_changes":[4.334135E2,0E0,4.0151233E2,4.7759158E2,3.3975623E2,0E0,0E0,0E0,0E0],"parents":[2147483647,0,0,2,2,3,3,4,4],"right_children":[2,-1,4,6,8,-1,-1,-1,-1],"split_conditions":[4.8285713E1,-2.409399E-1,6.18E1,1.074E2,1.206E2,1.2247458E-1,-9.1876445E-4,-1.7898208E-1,-1.7957194E-2],"split_indices":[15,0,11,12,9,0,0,0,0],"split_type":[0,0,0,0,0,0,0,0,0],"sum_hessian":[3.38E2,7E0,3.31E2,2.75E2,5.6E1,3.5E1,2.4E2,2E1,3.6E1],"tree_param":{"num_deleted":"0","num_feature":"109","num_nodes":"9","size_leaf_vector":"1"}},{"base_weights":[6.0177527E-2,2.9776967E-1,-5.91473E0,-4.4955915E-1,2.4416797E0,-2.7524948E-1,-4.2502977E-2,-2.540549E-1,-6.099863E-3,1.7289932E-1,7.140636E-3],"categories":[],"categories_nodes":[],"categories_segments":[],"categories_sizes":[],"default_left":[0,0,0,0,0,0,0,0,0,0,0],"id":60,"left_children":[1,3,5,7,9,-1,-1,-1,-1,-1,-1],"loss_changes":[4.6785797E2,5.120143E2,1.514743E2,4.566849E2,5.556214E2,0E0,0E0,0E0,0E0,0E0,0E0],"parents":[2147483647,0,0,1,1,2,2,3,3,4,4],"right_children":[2,4,6,8,10,-1,-1,-1,-1,-1,-1],"split_conditions":[4.1413555E1,1.1413043E1,1.11255646E2,9.9E1,2.8333334E1,-2.7524948E-1,-4.2502977E-2,-2.540549E-1,-6.099863E-3,1.7289932E-1,7.140636E-3],"split_indices":[57,53,38,100,30,0,0,0,0,0,0],"split_type":[0,0,0,0,0,0,0,0,0,0,0],"sum_hessian":[3.3E2,3.18E2,1.2E1,2.36E2,8.2E1,7E0,5E0,7E0,2.29E2,3.4E1,4.8E1],"tree_param":{"num_deleted":"0","num_feature":"109","num_nodes":"11","size_leaf_vector":"1"}},{"base_weights":[1.3256538E-1,-5.8739696E0,4.0897778E-1,2.6473671E-2,-2.9788592E-1,-1.0300436E0,1.3559285E0,-1.0843396E-1,-2.480186E-3,1.2403318E-1,2.2070715E-2],"categories":[],"categories_nodes":[],"categories_segments":[],"categories_sizes":[],"default_left":[0,0,0,0,0,0,0,0,0,0,0],"id":61,"left_children":[1,3,5,-1,-1,7,9,-1,-1,-1,-1],"loss_changes":[5.5120337E2,3.6133218E2,4.3513513E2,0E0,0E0,2.8937225E2,3.2229626E2,0E0,0E0,0E0,0E0],"parents":[2147483647,0,0,1,1,2,2,5,5,6,6],"right_children":[2,4,6,-1,-1,8,10,-1,-1,-1,-1],"split_conditions":[8.916667E0,4E0,1.028125E2,2.6473671E-2,-2.9788592E-1,1.09E2,1.084E2,-1.0843396E-1,-2.480186E-3,1.2403318E-1,2.2070715E-2],"split_indices":[21,50,36,0,0,69,8,0,0,0,0],"split_type":[0,0,0,0,0,0,0,0,0,0,0],"sum_hessian":[3.32E2,1.4E1,3.18E2,5E0,9E0,1.26E2,1.92E2,3.5E1,9.1E1,3.8E1,1.54E2],"tree_param":{"num_deleted":"0","num_feature":"109","num_nodes":"11","size_leaf_vector":"1"}},{"base_weights":[2.2523968E-1,1.6490009E0,-6.594797E-1,2.6787043E0,-1.2968631E0,-3.1843882E0,6.733488E-1,2.7550867E-1,6.2303774E-2,9.638441E-2,-1.1073859E-1,-1.2400357E-1,1.9164886E-1,-7.477829E-2,6.339E-2],"categories":[],"categories_nodes":[],"categories_segments":[],"categories_sizes":[],"default_left":[0,0,0,0,0,0,0,0,0,0,0,0,0,0,0],"id":62,"left_children":[1,3,5,7,9,11,13,-1,-1,-1,-1,-1,-1,-1,-1],"loss_changes":[4.2256815E2,3.927956E2,6.976773E2,3.9043878E2,3.325764E2,5.1708325E2,5.579155E2,0E0,0E0,0E0,0E0,0E0,0E0,0E0,0E0],"parents":[2147483647,0,0,1,1,2,2,3,3,4,4,5,5,6,6],"right_children":[2,4,6,8,10,12,14,-1,-1,-1,-1,-1,-1,-1,-1],"split_conditions":[2.81E1,6.01E1,5.3239433E1,-6E0,1.0968272E2,5.7E1,1.0223214E2,2.7550867E-1,6.2303774E-2,9.638441E-2,-1.1073859E-1,-1.2400357E-1,1.9164886E-1,-7.477829E-2,6.339E-2],"split_indices":[62,15,56,81,97,2,74,0,0,0,0,0,0,0,0],"split_type":[0,0,0,0,0,0,0,0,0,0,0,0,0,0,0],"sum_hessian":[3.34E2,1.28E2,2.06E2,9.5E1,3.3E1,7.1E1,1.35E2,9E0,8.6E1,1.1E1,2.2E1,6.6E1,5E0,4.1E1,9.4E1],"tree_param":{"num_deleted":"0","num_feature":"109","num_nodes":"15","size_leaf_vector":"1"}},{"base_weights":[4.1676432E-1,1.2597494E0,-2.0553465E0,2.2287554E-1,3.7392852E0,-4.3159747E0,5.8691365E-1,2.5316626E-2,-2.0036337E-1,3.5005055E-2,1.8697919E-1,-3.0108187E-1,-9.312383E-2,1.4359173E-1,-2.34376E-2],"categories":[],"categories_nodes":[],"categories_segments":[],"categories_sizes":[],"default_left":[0,0,0,0,0,0,0,0,0,0,0,0,0,0,0],"id":63,"left_children":[1,3,5,7,9,11,13,-1,-1,-1,-1,-1,-1,-1,-1],"loss_changes":[6.609775E2,6.0601605E2,4.8462946E2,6.437456E2,3.9601782E2,2.8797223E2,2.0301848E2,0E0,0E0,0E0,0E0,0E0,0E0,0E0,0E0],"parents":[2147483647,0,0,1,1,2,2,3,3,4,4,5,5,6,6],"right_children":[2,4,6,8,10,12,14,-1,-1,-1,-1,-1,-1,-1,-1],"split_conditions":[5.99E1,1.0366071E2,2.8166666E1,4.0731922E1,2.8222221E1,1.08234764E2,5.172589E1,2.5316626E-2,-2.0036337E-1,3.5005055E-2,1.8697919E-1,-3.0108187E-1,-9.312383E-2,1.4359173E-1,-2.34376E-2],"split_indices":[15,74,31,57,63,104,24,0,0,0,0,0,0,0,0],"split_type":[0,0,0,0,0,0,0,0,0,0,0,0,0,0,0],"sum_hessian":[3.16E2,2.36E2,8E1,1.67E2,6.9E1,4.3E1,3.7E1,1.54E2,1.3E1,3.2E1,3.7E1,8E0,3.5E1,9E0,2.8E1],"tree_param":{"num_deleted":"0","num_feature":"109","num_nodes":"15","size_leaf_vector":"1"}},{"base_weights":[2.1653576E-1,1.8162769E0,-6.627325E-1,-2.086576E0,2.6823232E0,-6.2448425E0,-2.1999474E-1,1.1271705E-1,-1.3946179E-1,1.3892189E-1,1.5813347E-2,-8.6028025E-2,-3.3698484E-1,-2.0181215E-1,2.896353E-3],"categories":[],"categories_nodes":[],"categories_segments":[],"categories_sizes":[],"default_left":[0,0,0,0,0,0,0,0,0,0,0,0,0,0,0],"id":64,"left_children":[1,3,5,7,9,11,13,-1,-1,-1,-1,-1,-1,-1,-1],"loss_changes":[4.6626196E2,4.0112088E2,5.2417316E2,2.9743124E2,3.616612E2,2.210824E2,3.8723508E2,0E0,0E0,0E0,0E0,0E0,0E0,0E0,0E0],"parents":[2147483647,0,0,1,1,2,2,3,3,4,4,5,5,6,6],"right_children":[2,4,6,8,10,12,14,-1,-1,-1,-1,-1,-1,-1,-1],"split_conditions":[1.1028571E2,9.714286E0,2.55E1,1.0075E2,8.06E1,1.154E2,1.0070823E2,1.1271705E-1,-1.3946179E-1,1.3892189E-1,1.5813347E-2,-8.6028025E-2,-3.3698484E-1,-2.0181215E-1,2.896353E-3],"split_indices":[65,53,30,69,26,69,104,0,0,0,0,0,0,0,0],"split_type":[0,0,0,0,0,0,0,0,0,0,0,0,0,0,0],"sum_hessian":[3.3E2,1.17E2,2.13E2,2.1E1,9.6E1,1.5E1,1.98E2,6E0,1.5E1,5.3E1,4.3E1,9E0,6E0,9E0,1.89E2],"tree_param":{"num_deleted":"0","num_feature":"109","num_nodes":"15","size_leaf_vector":"1"}},{"base_weights":[-3.160589E-1,-2.0630944E-1,-1.333852E-1,-2.3635598E-1,1.51096815E-2,-5.6654654E-2,1.8666768E-2],"categories":[],"categories_nodes":[],"categories_segments":[],"categories_sizes":[],"default_left":[0,0,0,0,0,0,0],"id":65,"left_children":[1,-1,3,-1,5,-1,-1],"loss_changes":[3.8492682E2,0E0,3.6688828E2,0E0,3.421603E2,0E0,0E0],"parents":[2147483647,0,0,2,2,4,4],"right_children":[2,-1,4,-1,6,-1,-1],"split_conditions":[9.8E0,-2.0630944E-1,2.36E1,-2.3635598E-1,1.0198661E2,-5.6654654E-2,1.8666768E-2],"split_indices":[27,0,30,0,74,0,0],"split_type":[0,0,0,0,0,0,0],"sum_hessian":[3.4E2,9E0,3.31E2,6E0,3.25E2,7.8E1,2.47E2],"tree_param":{"num_deleted":"0","num_feature":"109","num_nodes":"7","size_leaf_vector":"1"}},{"base_weights":[-1.7114928E-1,-1.3902211E0,1.0531993E0,-6.3619056E0,-9.061458E-1,-2.6896815E0,1.7333857E0,-2.8800324E-1,-6.5226674E-2,-1.8197463E-1,-1.2108626E-2,1.207071E-1,-1.3862932E-1,3.629953E-1,4.143454E-2],"categories":[],"categories_nodes":[],"categories_segments":[],"categories_sizes":[],"default_left":[0,0,0,0,0,0,0,0,0,0,0,0,0,0,0],"id":66,"left_children":[1,3,5,7,9,11,13,-1,-1,-1,-1,-1,-1,-1,-1],"loss_changes":[4.9596594E2,3.942357E2,4.2396432E2,1.5854675E2,3.839676E2,2.9746948E2,5.587923E2,0E0,0E0,0E0,0E0,0E0,0E0,0E0,0E0],"parents":[2147483647,0,0,1,1,2,2,3,3,4,4,5,5,6,6],"right_children":[2,4,6,8,10,12,14,-1,-1,-1,-1,-1,-1,-1,-1],"split_conditions":[1.157E2,6.82E1,3.6363637E0,3.5900024E1,1.06833336E2,2.505732E1,2.51E1,-2.8800324E-1,-6.5226674E-2,-1.8197463E-1,-1.2108626E-2,1.207071E-1,-1.3862932E-1,3.629953E-1,4.143454E-2],"split_indices":[33,58,23,25,12,57,30,0,0,0,0,0,0,0,0],"split_type":[0,0,0,0,0,0,0,0,0,0,0,0,0,0,0],"sum_hessian":[3.31E2,1.66E2,1.65E2,1.4E1,1.52E2,2.5E1,1.4E2,8E0,6E0,1.4E1,1.38E2,5E0,2E1,5E0,1.35E2],"tree_param":{"num_deleted":"0","num_feature":"109","num_nodes":"15","size_leaf_vector":"1"}},{"base_weights":[-1.8956769E-1,-5.176112E-1,4.3221235E0,9.186278E-2,-2.5397167E0,2.8182468E-3,6.076674E0,3.2332033E-2,-3.7588883E-2,-1.11266784E-1,9.782199E-2,5.258154E-2,2.4690953E-1],"categories":[],"categories_nodes":[],"categories_segments":[],"categories_sizes":[],"default_left":[0,0,0,0,0,0,0,0,0,0,0,0,0],"id":67,"left_children":[1,3,5,7,9,-1,11,-1,-1,-1,-1,-1,-1],"loss_changes":[5.155775E2,4.0251306E2,1.7217007E2,3.025639E2,4.3301788E2,0E0,1.1754126E2,0E0,0E0,0E0,0E0,0E0,0E0],"parents":[2147483647,0,0,1,1,2,2,3,3,4,4,6,6],"right_children":[2,4,6,8,10,-1,12,-1,-1,-1,-1,-1,-1],"split_conditions":[3.8313422E2,3.06E1,1.0041667E1,1.1375E2,1.1996655E2,2.8182468E-3,3E0,3.2332033E-2,-3.7588883E-2,-1.11266784E-1,9.782199E-2,5.258154E-2,2.4690953E-1],"split_indices":[79,62,53,40,97,0,96,0,0,0,0,0,0],"split_type":[0,0,0,0,0,0,0,0,0,0,0,0,0],"sum_hessian":[3.48E2,3.25E2,2.3E1,2.5E2,7.5E1,7E0,1.6E1,1.45E2,1.05E2,6.4E1,1.1E1,5E0,1.1E1],"tree_param":{"num_deleted":"0","num_feature":"109","num_nodes":"13","size_leaf_vector":"1"}},{"base_weights":[-9.1961965E-2,-1.933772E0,6.1876035E-1,-2.6345925E0,1.637441E-1,1.864065E0,-8.231892E-1,-2.1182861E-2,-1.5887336E-1,1.9756752E-1,3.5447232E-2,9.382938E-2,-7.167534E-2],"categories":[],"categories_nodes":[],"categories_segments":[],"categories_sizes":[],"default_left":[0,0,0,0,0,0,0,0,0,0,0,0,0],"id":68,"left_children":[1,3,5,7,-1,9,11,-1,-1,-1,-1,-1,-1],"loss_changes":[4.4454013E2,4.8043442E2,4.4060764E2,4.0580975E2,0E0,4.209055E2,6.331925E2,0E0,0E0,0E0,0E0,0E0,0E0],"parents":[2147483647,0,0,1,1,2,2,3,3,5,5,6,6],"right_children":[2,4,6,8,-1,10,12,-1,-1,-1,-1,-1,-1],"split_conditions":[1.0913333E2,6.830444E0,1.14E2,-1.0980972E2,1.637441E-1,5E-1,2.3159784E-1,-2.1182861E-2,-1.5887336E-1,1.9756752E-1,3.5447232E-2,9.382938E-2,-7.167534E-2],"split_indices":[70,84,40,79,0,80,60,0,0,0,0,0,0],"split_type":[0,0,0,0,0,0,0,0,0,0,0,0,0],"sum_hessian":[3.38E2,9.4E1,2.44E2,8.6E1,8E0,1.31E2,1.13E2,4.8E1,3.8E1,1.8E1,1.13E2,3.1E1,8.2E1],"tree_param":{"num_deleted":"0","num_feature":"109","num_nodes":"13","size_leaf_vector":"1"}},{"base_weights":[9.094666E-2,4.19504E0,-1.9784856E-1,-8.224732E-2,6.3677516E0,-7.620995E-1,1.7516633E0,3.338331E-1,1.2423167E-1,-1.5260468E-2,-1.77651E-1,9.905431E-2,-7.486496E-2],"categories":[],"categories_nodes":[],"categories_segments":[],"categories_sizes":[],"default_left":[0,0,0,0,0,0,0,0,0,0,0,0,0],"id":69,"left_children":[1,3,5,-1,7,9,11,-1,-1,-1,-1,-1,-1],"loss_changes":[3.893893E2,3.3127533E2,3.365224E2,0E0,1.3874493E2,3.1708453E2,4.0100665E2,0E0,0E0,0E0,0E0,0E0,0E0],"parents":[2147483647,0,0,1,1,2,2,4,4,5,5,6,6],"right_children":[2,4,6,-1,8,10,12,-1,-1,-1,-1,-1,-1],"split_conditions":[1.0731022E2,2.82E1,1.0421875E2,-8.224732E-2,-1.2432642E0,4E0,1.20375E2,3.338331E-1,1.2423167E-1,-1.5260468E-2,-1.77651E-1,9.905431E-2,-7.486496E-2],"split_indices":[37,63,74,0,89,16,70,0,0,0,0,0,0],"split_type":[0,0,0,0,0,0,0,0,0,0,0,0,0],"sum_hessian":[3.26E2,2.1E1,3.05E2,5E0,1.6E1,2.37E2,6.8E1,5E0,1.1E1,2.25E2,1.2E1,5.1E1,1.7E1],"tree_param":{"num_deleted":"0","num_feature":"109","num_nodes":"13","size_leaf_vector":"1"}},{"base_weights":[2.9676813E-1,5.7025343E-1,-4.012753E0,-4.596615E0,8.126892E-1,2.6618974E-2,-7.8650627E0,2.4134226E-2,-2.3542035E-1,4.3754745E-2,-2.7617788E-2,-3.937885E-1,-9.851835E-2],"categories":[],"categories_nodes":[],"categories_segments":[],"categories_sizes":[],"default_left":[0,0,0,0,0,0,0,0,0,0,0,0,0],"id":70,"left_children":[1,3,5,7,9,-1,11,-1,-1,-1,-1,-1,-1],"loss_changes":[4.071525E2,4.0840485E2,3.927473E2,2.3265164E2,3.0570975E2,0E0,2.2501434E2,0E0,0E0,0E0,0E0,0E0,0E0],"parents":[2147483647,0,0,1,1,2,2,3,3,4,4,6,6],"right_children":[2,4,6,8,10,-1,12,-1,-1,-1,-1,-1,-1],"split_conditions":[1.217E2,9.9099915E1,1.0985714E2,8.85071E0,1.1434783E1,2.6618974E-2,1.109E2,2.4134226E-2,-2.3542035E-1,4.3754745E-2,-2.7617788E-2,-3.937885E-1,-9.851835E-2],"split_indices":[44,102,70,29,21,0,13,0,0,0,0,0,0],"split_type":[0,0,0,0,0,0,0,0,0,0,0,0,0],"sum_hessian":[3.45E2,3.25E2,2E1,1.4E1,3.11E2,9E0,1.1E1,5E0,9E0,2.32E2,7.9E1,5E0,6E0],"tree_param":{"num_deleted":"0","num_feature":"109","num_nodes":"13","size_leaf_vector":"1"}},{"base_weights":[-5.8292083E-2,3.3882114E-1,-2.580648E0,-2.293801E-1,2.7304769E0,9.022175E-2,-3.46106E0,1.0661652E-2,-1.1423013E-1,5.7448562E-2,2.5905734E-1,-1.7676006E-1,1.4987679E-3],"categories":[],"categories_nodes":[],"categories_segments":[],"categories_sizes":[],"default_left":[0,0,0,0,0,0,0,0,0,0,0,0,0],"id":71,"left_children":[1,3,5,7,9,-1,11,-1,-1,-1,-1,-1,-1],"loss_changes":[3.3568335E2,3.9368723E2,2.2499069E2,4.5394684E2,2.6319592E2,0E0,3.0261472E2,0E0,0E0,0E0,0E0,0E0,0E0],"parents":[2147483647,0,0,1,1,2,2,3,3,4,4,6,6],"right_children":[2,4,6,8,10,-1,12,-1,-1,-1,-1,-1,-1],"split_conditions":[6.16E1,1.0433036E2,-2.455357E0,1.16E1,4.14E1,9.022175E-2,3.4375E0,1.0661652E-2,-1.1423013E-1,5.7448562E-2,2.5905734E-1,-1.7676006E-1,1.4987679E-3],"split_indices":[15,74,75,21,59,0,75,0,0,0,0,0,0],"split_type":[0,0,0,0,0,0,0,0,0,0,0,0,0],"sum_hessian":[3.33E2,2.88E2,4.5E1,2.33E2,5.5E1,6E0,3.9E1,2E2,3.3E1,4.8E1,7E0,2.4E1,1.5E1],"tree_param":{"num_deleted":"0","num_feature":"109","num_nodes":"13","size_leaf_vector":"1"}},{"base_weights":[-1.9779599E-1,-4.8653245E0,6.394473E-2,-1.8439062E-2,-6.499865E0,1.3463228E0,-5.8639085E-1,-3.2219732E-1,-9.9668615E-2,1.3521805E-1,1.676603E-2,-1.2581204E-1,3.8833383E-5],"categories":[],"categories_nodes":[],"categories_segments":[],"categories_sizes":[],"default_left":[0,0,0,0,0,0,0,0,0,0,0,0,0],"id":72,"left_children":[1,3,5,-1,7,9,11,-1,-1,-1,-1,-1,-1],"loss_changes":[4.0500433E2,1.17640076E2,2.6151538E2,0E0,1.3165009E2,2.500474E2,4.1822964E2,0E0,0E0,0E0,0E0,0E0,0E0],"parents":[2147483647,0,0,1,1,2,2,4,4,5,5,6,6],"right_children":[2,4,6,-1,8,10,12,-1,-1,-1,-1,-1,-1],"split_conditions":[2.272E2,2E0,3E0,-1.8439062E-2,1.1E2,1.08639114E2,3.72549E0,-3.2219732E-1,-9.9668615E-2,1.3521805E-1,1.676603E-2,-1.2581204E-1,3.8833383E-5],"split_indices":[107,72,73,0,65,99,55,0,0,0,0,0,0],"split_type":[0,0,0,0,0,0,0,0,0,0,0,0,0],"sum_hessian":[3.29E2,1.7E1,3.12E2,5E0,1.2E1,1.05E2,2.07E2,5E0,7E0,2.2E1,8.3E1,3E1,1.77E2],"tree_param":{"num_deleted":"0","num_feature":"109","num_nodes":"13","size_leaf_vector":"1"}},{"base_weights":[-1.2339724E-1,-2.6437464E0,3.160803E-1,-3.1469432E-1,-1.6737707E0,2.8726134E0,-2.634352E-1,1.5837297E-2,-1.0439224E-1,-1.12933986E-1,1.4607257E-1,4.5629666E-4,-1.9190055E-1],"categories":[],"categories_nodes":[],"categories_segments":[],"categories_sizes":[],"default_left":[0,0,0,0,0,0,0,0,0,0,0,0,0],"id":73,"left_children":[1,3,5,-1,7,9,11,-1,-1,-1,-1,-1,-1],"loss_changes":[3.6994452E2,3.3888956E2,4.217911E2,0E0,1.6203168E2,6.1276086E2,3.785689E2,0E0,0E0,0E0,0E0,0E0,0E0],"parents":[2147483647,0,0,1,1,2,2,4,4,5,5,6,6],"right_children":[2,4,6,-1,8,10,12,-1,-1,-1,-1,-1,-1],"split_conditions":[1.015625E2,5.17E1,1.0912161E2,-3.1469432E-1,1.4878596E3,2.2440945E-1,3.125E0,1.5837297E-2,-1.0439224E-1,-1.12933986E-1,1.4607257E-1,4.5629666E-4,-1.9190055E-1],"split_indices":[74,14,99,0,78,60,54,0,0,0,0,0,0],"split_type":[0,0,0,0,0,0,0,0,0,0,0,0,0],"sum_hessian":[3.32E2,4.9E1,2.83E2,5E0,4.4E1,5.2E1,2.31E2,1.9E1,2.5E1,1.1E1,4.1E1,2.21E2,1E1],"tree_param":{"num_deleted":"0","num_feature":"109","num_nodes":"13","size_leaf_vector":"1"}},{"base_weights":[-1.6101537E-2,-2.7079859E0,4.2331982E-1,2.0191306E-1,-3.8802543E0,1.7874166E0,-5.815044E-1,-1.1279555E-2,-1.7553519E-1,-8.452943E-2,8.904243E-2,4.6139967E-2,-4.3006573E-2],"categories":[],"categories_nodes":[],"categories_segments":[],"categories_sizes":[],"default_left":[0,0,0,0,0,0,0,0,0,0,0,0,0],"id":74,"left_children":[1,3,5,-1,7,9,11,-1,-1,-1,-1,-1,-1],"loss_changes":[4.0104916E2,5.231336E2,3.994832E2,0E0,2.5127728E2,5.8183704E2,2.7095612E2,0E0,0E0,0E0,0E0,0E0,0E0],"parents":[2147483647,0,0,1,1,2,2,4,4,5,5,6,6],"right_children":[2,4,6,-1,8,10,12,-1,-1,-1,-1,-1,-1],"split_conditions":[2.1458333E0,5.29E1,2.4807692E0,2.0191306E-1,7.62E1,1.9960475E-1,2.2807016E0,-1.1279555E-2,-1.7553519E-1,-8.452943E-2,8.904243E-2,4.6139967E-2,-4.3006573E-2],"split_indices":[22,46,22,0,58,28,54,0,0,0,0,0,0],"split_type":[0,0,0,0,0,0,0,0,0,0,0,0,0],"sum_hessian":[3.37E2,4.7E1,2.9E2,5E0,4.2E1,1.23E2,1.67E2,1.4E1,2.8E1,2.3E1,1E2,4.6E1,1.21E2],"tree_param":{"num_deleted":"0","num_feature":"109","num_nodes":"13","size_leaf_vector":"1"}},{"base_weights":[-3.1698734E-1,-5.7027326E0,-6.843506E-2,-2.7190298E-1,-2.632275E-2,1.1265967E0,-8.114462E-1,1.06404476E-1,8.636383E-3,-1.11588456E-1,-3.6013606E-3],"categories":[],"categories_nodes":[],"categories_segments":[],"categories_sizes":[],"default_left":[0,0,0,0,0,0,0,0,0,0,0],"id":75,"left_children":[1,3,5,-1,-1,7,9,-1,-1,-1,-1],"loss_changes":[4.7320084E2,2.1473853E2,3.0283392E2,0E0,0E0,2.4888124E2,3.997519E2,0E0,0E0,0E0,0E0],"parents":[2147483647,0,0,1,1,2,2,5,5,6,6],"right_children":[2,4,6,-1,-1,8,10,-1,-1,-1,-1],"split_conditions":[1.0070823E2,2E0,2.81E1,-2.7190298E-1,-2.632275E-2,-9.721854E1,1.0084821E2,1.06404476E-1,8.636383E-3,-1.11588456E-1,-3.6013606E-3],"split_indices":[104,82,62,0,0,92,4,0,0,0,0],"split_type":[0,0,0,0,0,0,0,0,0,0,0],"sum_hessian":[3.55E2,1.5E1,3.4E2,9E0,6E0,1.3E2,2.1E2,3.5E1,9.5E1,4.2E1,1.68E2],"tree_param":{"num_deleted":"0","num_feature":"109","num_nodes":"11","size_leaf_vector":"1"}},{"base_weights":[2.9634598E-1,-1.086723E0,1.2698939E0,-3.1206496E0,3.3408314E-1,7.992902E-1,5.2912E0,-2.051852E-3,-1.5287374E-1,9.955848E-2,-4.6711072E-2,6.451286E-2,-3.9875347E-2,3.2719818E-1,6.81955E-2],"categories":[],"categories_nodes":[],"categories_segments":[],"categories_sizes":[],"default_left":[0,0,0,0,0,0,0,0,0,0,0,0,0,0,0],"id":76,"left_children":[1,3,5,7,9,11,13,-1,-1,-1,-1,-1,-1,-1,-1],"loss_changes":[4.5548352E2,4.0529288E2,3.7057248E2,3.0379242E2,4.2901822E2,4.640589E2,3.0968787E2,0E0,0E0,0E0,0E0,0E0,0E0,0E0,0E0],"parents":[2147483647,0,0,1,1,2,2,3,3,4,4,5,5,6,6],"right_children":[2,4,6,8,10,12,14,-1,-1,-1,-1,-1,-1,-1,-1],"split_conditions":[1.028125E2,2.8555555E1,5.735E2,1.0084821E2,2.98E1,4.66E2,2.509091E0,-2.051852E-3,-1.5287374E-1,9.955848E-2,-4.6711072E-2,6.451286E-2,-3.9875347E-2,3.2719818E-1,6.81955E-2],"split_indices":[36,30,108,36,30,108,54,0,0,0,0,0,0,0,0],"split_type":[0,0,0,0,0,0,0,0,0,0,0,0,0,0,0],"sum_hessian":[3.37E2,1.39E2,1.98E2,5.7E1,8.2E1,1.78E2,2E1,2.1E1,3.6E1,3.2E1,5E1,1.11E2,6.7E1,7E0,1.3E1],"tree_param":{"num_deleted":"0","num_feature":"109","num_nodes":"15","size_leaf_vector":"1"}},{"base_weights":[2.5947613E-1,1.3316171E0,-9.8526424E-1,2.211536E0,-1.7791778E0,-1.849377E0,1.436073E0,9.516434E-2,-5.8121514E-2,5.7637475E-2,-1.3503729E-1,1.7722976E-1,-7.011491E-2,-2.0469962E-2,1.1684006E-1],"categories":[],"categories_nodes":[],"categories_segments":[],"categories_sizes":[],"default_left":[0,0,0,0,0,0,0,0,0,0,0,0,0,0,0],"id":77,"left_children":[1,3,5,7,9,11,13,-1,-1,-1,-1,-1,-1,-1,-1],"loss_changes":[4.4347546E2,4.9142813E2,3.231582E2,4.6523254E2,3.6541052E2,3.289572E2,1.9589516E2,0E0,0E0,0E0,0E0,0E0,0E0,0E0,0E0],"parents":[2147483647,0,0,1,1,2,2,3,3,4,4,5,5,6,6],"right_children":[2,4,6,8,10,12,14,-1,-1,-1,-1,-1,-1,-1,-1],"split_conditions":[8.06E1,5.466249E0,1.1966721E2,1.0575893E2,2.2666667E0,-1.3607786E1,1.15E2,9.516434E-2,-5.8121514E-2,5.7637475E-2,-1.3503729E-1,1.7722976E-1,-7.011491E-2,-2.0469962E-2,1.1684006E-1],"split_indices":[26,89,99,4,54,89,33,0,0,0,0,0,0,0,0],"split_type":[0,0,0,0,0,0,0,0,0,0,0,0,0,0,0],"sum_hessian":[3.31E2,1.78E2,1.53E2,1.39E2,3.9E1,1.13E2,4E1,1.16E2,2.3E1,1.6E1,2.3E1,5E0,1.08E2,2.1E1,1.9E1],"tree_param":{"num_deleted":"0","num_feature":"109","num_nodes":"15","size_leaf_vector":"1"}},{"base_weights":[1.30829E-1,8.391646E-1,-2.3629665E0,-1.6701539E-1,1.0551449E0,-4.313313E0,-6.6849194E-2,-6.518757E-2,4.932176E-2,-3.0381942E-1,-7.790108E-2,4.7435313E-2,-7.808077E-2],"categories":[],"categories_nodes":[],"categories_segments":[],"categories_sizes":[],"default_left":[0,0,0,0,0,0,0,0,0,0,0,0,0],"id":78,"left_children":[1,3,5,-1,7,9,11,-1,-1,-1,-1,-1,-1],"loss_changes":[5.721292E2,3.3693762E2,3.1850653E2,0E0,3.9417435E2,3.5920483E2,1.3051962E2,0E0,0E0,0E0,0E0,0E0,0E0],"parents":[2147483647,0,0,1,1,2,2,4,4,5,5,6,6],"right_children":[2,4,6,-1,8,10,12,-1,-1,-1,-1,-1,-1],"split_conditions":[6.04E1,4.8285713E1,2.8166666E1,-1.6701539E-1,9.714286E0,-2.854939E2,1.149E2,-6.518757E-2,4.932176E-2,-3.0381942E-1,-7.790108E-2,4.7435313E-2,-7.808077E-2],"split_indices":[15,15,31,0,53,92,33,0,0,0,0,0,0],"split_type":[0,0,0,0,0,0,0,0,0,0,0,0,0],"sum_hessian":[3.23E2,2.52E2,7.1E1,8E0,2.44E2,3.8E1,3.3E1,3.4E1,2.1E2,9E0,2.9E1,2E1,1.3E1],"tree_param":{"num_deleted":"0","num_feature":"109","num_nodes":"13","size_leaf_vector":"1"}},{"base_weights":[-4.5752355E-1,-6.496686E-1,5.2468605E0,-1.2428334E0,1.2705768E0,3.1687352E-1,-1.9888696E-3,-1.4417988E-1,-2.1394556E-2,1.942205E-1,1.1228956E-2],"categories":[],"categories_nodes":[],"categories_segments":[],"categories_sizes":[],"default_left":[0,0,0,0,0,0,0,0,0,0,0],"id":79,"left_children":[1,3,5,7,9,-1,-1,-1,-1,-1,-1],"loss_changes":[3.5686676E2,3.6041095E2,2.7661206E2,4.499349E2,3.299983E2,0E0,0E0,0E0,0E0,0E0,0E0],"parents":[2147483647,0,0,1,1,2,2,3,3,4,4],"right_children":[2,4,6,8,10,-1,-1,-1,-1,-1,-1],"split_conditions":[1.8153746E3,1.0415179E2,1.09666664E2,4.818956E1,1.0927273E2,3.1687352E-1,-1.9888696E-3,-1.4417988E-1,-2.1394556E-2,1.942205E-1,1.1228956E-2],"split_indices":[77,74,65,24,65,0,0,0,0,0,0],"split_type":[0,0,0,0,0,0,0,0,0,0,0],"sum_hessian":[3.25E2,3.15E2,1E1,2.41E2,7.4E1,5E0,5E0,3.4E1,2.07E2,1.1E1,6.3E1],"tree_param":{"num_deleted":"0","num_feature":"109","num_nodes":"11","size_leaf_vector":"1"}},{"base_weights":[1.3924672E-1,5.253924E-1,-3.0134254E0,-2.0048037E0,9.577618E-1,8.82659E-2,-4.7775497E0,-3.2159787E-1,-2.3167789E-2,4.2499308E-2,-8.8866256E-2,-6.536616E-2,-3.0389756E-1],"categories":[],"categories_nodes":[],"categories_segments":[],"categories_sizes":[],"default_left":[0,0,0,0,0,0,0,0,0,0,0,0,0],"id":80,"left_children":[1,3,5,7,9,-1,11,-1,-1,-1,-1,-1,-1],"loss_changes":[3.9743576E2,3.1968805E2,3.7442798E2,4.3466418E2,3.7315906E2,0E0,3.4659192E2,0E0,0E0,0E0,0E0,0E0,0E0],"parents":[2147483647,0,0,1,1,2,2,3,3,4,4,6,6],"right_children":[2,4,6,8,10,-1,12,-1,-1,-1,-1,-1,-1],"split_conditions":[2.8545454E0,5.25E1,-3E0,1E0,3.0208333E0,8.82659E-2,3E0,-3.2159787E-1,-2.3167789E-2,4.2499308E-2,-8.8866256E-2,-6.536616E-2,-3.0389756E-1],"split_indices":[54,47,96,48,22,0,72,0,0,0,0,0,0],"split_type":[0,0,0,0,0,0,0,0,0,0,0,0,0],"sum_hessian":[3.26E2,2.91E2,3.5E1,4.2E1,2.49E2,8E0,2.7E1,5E0,3.7E1,2.26E2,2.3E1,1.8E1,9E0],"tree_param":{"num_deleted":"0","num_feature":"109","num_nodes":"13","size_leaf_vector":"1"}},{"base_weights":[8.096956E-2,1.3477095E0,-8.028407E-1,1.7617384E0,-2.0911534E-1,-1.1637932E0,3.5407453E0,-1.5783595E-1,6.88023E-2,1.375831E-1,-4.440975E-2,-1.0644777E-2,3.111042E-1],"categories":[],"categories_nodes":[],"categories_segments":[],"categories_sizes":[],"default_left":[0,0,0,0,0,0,0,0,0,0,0,0,0],"id":81,"left_children":[1,3,5,7,-1,9,11,-1,-1,-1,-1,-1,-1],"loss_changes":[3.609435E2,4.4383942E2,2.9866907E2,3.707577E2,0E0,2.437138E2,3.6595752E2,0E0,0E0,0E0,0E0,0E0,0E0],"parents":[2147483647,0,0,1,1,2,2,3,3,5,5,6,6],"right_children":[2,4,6,8,-1,10,12,-1,-1,-1,-1,-1,-1],"split_conditions":[3.204762E1,6.39E1,1.1E1,5.0625E1,-2.0911534E-1,5.08E1,7.88E1,-1.5783595E-1,6.88023E-2,1.375831E-1,-4.440975E-2,-1.0644777E-2,3.111042E-1],"split_indices":[25,47,81,47,0,46,58,0,0,0,0,0,0],"split_type":[0,0,0,0,0,0,0,0,0,0,0,0,0],"sum_hessian":[3.21E2,1.32E2,1.89E2,1.26E2,6E0,1.75E2,1.4E1,7E0,1.19E2,7E0,1.68E2,9E0,5E0],"tree_param":{"num_deleted":"0","num_feature":"109","num_nodes":"13","size_leaf_vector":"1"}},{"base_weights":[-2.782823E-1,-2.7433017E-1,-7.234171E-2,-2.090261E-1,4.5254413E-2,8.620957E-3,-9.911866E-2],"categories":[],"categories_nodes":[],"categories_segments":[],"categories_sizes":[],"default_left":[0,0,0,0,0,0,0],"id":82,"left_children":[1,-1,3,-1,5,-1,-1],"loss_changes":[5.5491345E2,0E0,2.4632498E2,0E0,2.2570456E2,0E0,0E0],"parents":[2147483647,0,0,2,2,4,4],"right_children":[2,-1,4,-1,6,-1,-1],"split_conditions":[4.88E1,-2.7433017E-1,2.36E1,-2.090261E-1,4.8E0,8.620957E-3,-9.911866E-2],"split_indices":[10,0,30,0,55,0,0],"split_type":[0,0,0,0,0,0,0],"sum_hessian":[3.21E2,7E0,3.14E2,5E0,3.09E2,2.89E2,2E1],"tree_param":{"num_deleted":"0","num_feature":"109","num_nodes":"7","size_leaf_vector":"1"}},{"base_weights":[3.8554078E-1,1.0392749E0,-1.8950388E0,-5.668944E0,1.3304597E0,-3.213737E-1,-1.182113E0,-1.0608683E-1,-2.2889438E-1,-8.556707E-3,6.898079E-2,2.0457623E-3,-1.1596332E-1],"categories":[],"categories_nodes":[],"categories_segments":[],"categories_sizes":[],"default_left":[0,0,0,0,0,0,0,0,0,0,0,0,0],"id":83,"left_children":[1,3,5,7,9,-1,11,-1,-1,-1,-1,-1,-1],"loss_changes":[4.862337E2,4.979487E2,4.1841208E2,1.9644196E1,3.3799295E2,0E0,2.1294112E2,0E0,0E0,0E0,0E0,0E0,0E0],"parents":[2147483647,0,0,1,1,2,2,3,3,4,4,6,6],"right_children":[2,4,6,8,10,-1,12,-1,-1,-1,-1,-1,-1],"split_conditions":[5.975E1,1.0070823E2,-4.535205E2,1.102E2,5.45E1,-3.213737E-1,5.78E1,-1.0608683E-1,-2.2889438E-1,-8.556707E-3,6.898079E-2,2.0457623E-3,-1.1596332E-1],"split_indices":[15,104,92,40,11,0,42,0,0,0,0,0,0],"split_type":[0,0,0,0,0,0,0,0,0,0,0,0,0],"sum_hessian":[3.25E2,2.53E2,7.2E1,1E1,2.43E2,5E0,6.7E1,5E0,5E0,8.5E1,1.58E2,4.5E1,2.2E1],"tree_param":{"num_deleted":"0","num_feature":"109","num_nodes":"13","size_leaf_vector":"1"}},{"base_weights":[3.962135E-1,4.5846777E0,1.0553302E-1,2.7784293E0,2.946307E-1,7.4211663E-1,-1.9338841E0,1.401089E-1,-2.8664323E-2,3.915572E-2,-7.062654E-2,-1.3961448E-1,3.350121E-3],"categories":[],"categories_nodes":[],"categories_segments":[],"categories_sizes":[],"default_left":[0,0,0,0,0,0,0,0,0,0,0,0,0],"id":84,"left_children":[1,3,5,7,-1,9,11,-1,-1,-1,-1,-1,-1],"loss_changes":[4.0498593E2,1.6553824E2,4.0746198E2,1.06690735E2,0E0,3.6114352E2,3.8351926E2,0E0,0E0,0E0,0E0,0E0,0E0],"parents":[2147483647,0,0,1,1,2,2,3,3,5,5,6,6],"right_children":[2,4,6,8,-1,10,12,-1,-1,-1,-1,-1,-1],"split_conditions":[1.0731022E2,1E0,5.975E1,6.52E1,2.946307E-1,1.2005718E2,2.8166666E1,1.401089E-1,-2.8664323E-2,3.915572E-2,-7.062654E-2,-1.3961448E-1,3.350121E-3],"split_indices":[37,72,15,43,0,103,31,0,0,0,0,0,0],"split_type":[0,0,0,0,0,0,0,0,0,0,0,0,0],"sum_hessian":[3.34E2,2.1E1,3.13E2,1.6E1,5E0,2.39E2,7.4E1,1.1E1,5E0,2.05E2,3.4E1,3.3E1,4.1E1],"tree_param":{"num_deleted":"0","num_feature":"109","num_nodes":"13","size_leaf_vector":"1"}},{"base_weights":[-7.5023234E-2,1.681644E0,-7.374744E-1,-1.1311852E0,3.6495397E0,2.3999146E-1,-9.480143E-1,-1.4329454E-1,1.2427832E-1,2.8505076E-3,1.815914E-1,-1.5293847E-1,-1.9770078E-2],"categories":[],"categories_nodes":[],"categories_segments":[],"categories_sizes":[],"default_left":[0,0,0,0,0,0,0,0,0,0,0,0,0],"id":85,"left_children":[1,3,5,7,9,-1,11,-1,-1,-1,-1,-1,-1],"loss_changes":[3.640962E2,4.7743344E2,4.0232016E2,6.307282E2,3.795417E2,0E0,2.740617E2,0E0,0E0,0E0,0E0,0E0,0E0],"parents":[2147483647,0,0,1,1,2,2,3,3,4,4,6,6],"right_children":[2,4,6,8,10,-1,12,-1,-1,-1,-1,-1,-1],"split_conditions":[5.5E1,3.209059E1,-1.9339212E1,5.482967E1,8.854406E0,2.3999146E-1,-3.8898044E2,-1.4329454E-1,1.2427832E-1,2.8505076E-3,1.815914E-1,-1.5293847E-1,-1.9770078E-2],"split_indices":[10,57,105,24,61,0,92,0,0,0,0,0,0],"split_type":[0,0,0,0,0,0,0,0,0,0,0,0,0],"sum_hessian":[3.12E2,8.5E1,2.27E2,3.5E1,5E1,5E0,2.22E2,2.1E1,1.4E1,1.9E1,3.1E1,1.6E1,2.06E2],"tree_param":{"num_deleted":"0","num_feature":"109","num_nodes":"13","size_leaf_vector":"1"}},{"base_weights":[2.202105E-1,5.910933E-1,-2.6886935E0,7.4067794E-2,3.2937376E0,5.9516007E-1,-3.865039E0,4.3059807E-2,-2.80342E-2,1.7971286E-1,-2.421108E-2,8.2329154E-2,-4.43807E-2,-5.9876055E-2,-1.8592656E-1],"categories":[],"categories_nodes":[],"categories_segments":[],"categories_sizes":[],"default_left":[0,0,0,0,0,0,0,0,0,0,0,0,0,0,0],"id":86,"left_children":[1,3,5,7,9,11,13,-1,-1,-1,-1,-1,-1,-1,-1],"loss_changes":[3.6855386E2,4.2257642E2,1.5195602E2,3.2048166E2,4.8277612E2,4.5765663E1,1.0453055E2,0E0,0E0,0E0,0E0,0E0,0E0,0E0,0E0],"parents":[2147483647,0,0,1,1,2,2,3,3,4,4,5,5,6,6],"right_children":[2,4,6,8,10,12,14,-1,-1,-1,-1,-1,-1,-1,-1],"split_conditions":[4.027778E1,1.192E2,-1.6591549E0,1.11333336E2,6.3E1,1.4210855E-14,7.9E1,4.3059807E-2,-2.80342E-2,1.7971286E-1,-2.421108E-2,8.2329154E-2,-4.43807E-2,-5.9876055E-2,-1.8592656E-1],"split_indices":[25,8,83,64,10,106,58,0,0,0,0,0,0,0,0],"split_type":[0,0,0,0,0,0,0,0,0,0,0,0,0,0,0],"sum_hessian":[3.41E2,3.03E2,3.8E1,2.55E2,4.8E1,1E1,2.8E1,1.09E2,1.46E2,3E1,1.8E1,5E0,5E0,1.5E1,1.3E1],"tree_param":{"num_deleted":"0","num_feature":"109","num_nodes":"15","size_leaf_vector":"1"}},{"base_weights":[-1.9857767E-1,-3.7454817E-1,1.7174533E-1,2.2537602E-1,-5.134529E-1,6.3298926E-2,-2.6286896E-2],"categories":[],"categories_nodes":[],"categories_segments":[],"categories_sizes":[],"default_left":[0,0,0,0,0,0,0],"id":87,"left_children":[1,3,-1,-1,5,-1,-1],"loss_changes":[3.1721326E2,3.2453745E2,0E0,0E0,2.4928293E2,0E0,0E0],"parents":[2147483647,0,0,1,1,4,4],"right_children":[2,4,-1,-1,6,-1,-1],"split_conditions":[9E0,4.84E1,1.7174533E-1,2.2537602E-1,0E0,6.3298926E-2,-2.6286896E-2],"split_indices":[96,10,0,0,90,0,0],"split_type":[0,0,0,0,0,0,0],"sum_hessian":[3.19E2,3.1E2,9E0,5E0,3.05E2,3.4E1,2.71E2],"tree_param":{"num_deleted":"0","num_feature":"109","num_nodes":"7","size_leaf_vector":"1"}},{"base_weights":[-4.481786E-1,-1.1751883E0,1.5732814E0,-4.0692377E0,-7.1454275E-1,6.387593E-1,7.1440096E0,-6.2810875E-2,-2.8553426E-1,3.3111088E-2,-5.0388157E-2,1.3615443E-1,-1.6714262E-2,3.0808684E-1,8.493099E-2],"categories":[],"categories_nodes":[],"categories_segments":[],"categories_sizes":[],"default_left":[0,0,0,0,0,0,0,0,0,0,0,0,0,0,0],"id":88,"left_children":[1,3,5,7,9,11,13,-1,-1,-1,-1,-1,-1,-1,-1],"loss_changes":[4.9266684E2,3.2486218E2,4.550245E2,3.3292133E2,3.3627545E2,3.338453E2,1.2697504E2,0E0,0E0,0E0,0E0,0E0,0E0,0E0,0E0],"parents":[2147483647,0,0,1,1,2,2,3,3,4,4,5,5,6,6],"right_children":[2,4,6,8,10,12,14,-1,-1,-1,-1,-1,-1,-1,-1],"split_conditions":[1.0417411E2,4.818956E1,8.94E1,2.5833333E0,2.62E1,2.78E1,1.1767739E2,-6.2810875E-2,-2.8553426E-1,3.3111088E-2,-5.0388157E-2,1.3615443E-1,-1.6714262E-2,3.0808684E-1,8.493099E-2],"split_indices":[74,24,26,54,59,62,100,0,0,0,0,0,0,0,0],"split_type":[0,0,0,0,0,0,0,0,0,0,0,0,0,0,0],"sum_hessian":[3.34E2,2.46E2,8.8E1,3.3E1,2.13E2,7.6E1,1.2E1,2.4E1,9E0,7.1E1,1.42E2,1.8E1,5.8E1,7E0,5E0],"tree_param":{"num_deleted":"0","num_feature":"109","num_nodes":"15","size_leaf_vector":"1"}},{"base_weights":[1.387369E-1,-3.4857175E0,4.3203482E-1,-5.5167766E0,1.3458827E-1,2.1456382E0,-1.1986547E-1,-2.4024235E-1,-8.00227E-3,1.1376946E-1,-9.39844E-3,-8.272651E-2,2.1503897E-2],"categories":[],"categories_nodes":[],"categories_segments":[],"categories_sizes":[],"default_left":[0,0,0,0,0,0,0,0,0,0,0,0,0],"id":89,"left_children":[1,3,5,7,-1,9,11,-1,-1,-1,-1,-1,-1],"loss_changes":[3.6373532E2,4.1845764E2,3.014285E2,2.252738E2,0E0,2.812685E2,4.872866E2,0E0,0E0,0E0,0E0,0E0,0E0],"parents":[2147483647,0,0,1,1,2,2,3,3,5,5,6,6],"right_children":[2,4,6,8,-1,10,12,-1,-1,-1,-1,-1,-1],"split_conditions":[1.097E2,1.1579745E2,1.0945524E2,5.8E1,1.3458827E-1,1.154E2,1.12866066E2,-2.4024235E-1,-8.00227E-3,1.1376946E-1,-9.39844E-3,-8.272651E-2,2.1503897E-2],"split_indices":[33,5,104,42,0,40,102,0,0,0,0,0,0],"split_type":[0,0,0,0,0,0,0,0,0,0,0,0,0],"sum_hessian":[3.42E2,2.5E1,3.17E2,2E1,5E0,7.7E1,2.4E2,1.4E1,6E0,4.8E1,2.9E1,5.8E1,1.82E2],"tree_param":{"num_deleted":"0","num_feature":"109","num_nodes":"13","size_leaf_vector":"1"}},{"base_weights":[4.5003355E-2,5.396652E-1,-2.2826784E0,5.4719825E0,2.8225878E-1,6.0466343E-1,-3.5827467E0,2.300836E-1,8.756371E-2,-6.7836836E-2,2.3253817E-2,-1.2977757E-1,9.7172424E-2,-1.51313E-1,-2.8290331E-2],"categories":[],"categories_nodes":[],"categories_segments":[],"categories_sizes":[],"default_left":[0,0,0,0,0,0,0,0,0,0,0,0,0,0,0],"id":90,"left_children":[1,3,5,7,9,11,13,-1,-1,-1,-1,-1,-1,-1,-1],"loss_changes":[3.8522235E2,3.4766977E2,2.2260437E2,5.0636658E1,2.941868E2,2.2583464E2,1.2863318E2,0E0,0E0,0E0,0E0,0E0,0E0,0E0,0E0],"parents":[2147483647,0,0,1,1,2,2,3,3,4,4,5,5,6,6],"right_children":[2,4,6,8,10,12,14,-1,-1,-1,-1,-1,-1,-1,-1],"split_conditions":[1.1971364E2,5.1444443E1,5.3345387E1,1.0375E1,9.796296E0,5.2666668E1,2E0,2.300836E-1,8.756371E-2,-6.7836836E-2,2.3253817E-2,-1.2977757E-1,9.7172424E-2,-1.51313E-1,-2.8290331E-2],"split_indices":[100,46,24,21,53,42,82,0,0,0,0,0,0,0,0],"split_type":[0,0,0,0,0,0,0,0,0,0,0,0,0,0,0],"sum_hessian":[3.34E2,2.76E2,5.8E1,1.3E1,2.63E2,1.8E1,4E1,7E0,6E0,4.1E1,2.22E2,6E0,1.2E1,2.7E1,1.3E1],"tree_param":{"num_deleted":"0","num_feature":"109","num_nodes":"15","size_leaf_vector":"1"}},{"base_weights":[2.3129147E-1,-1.7541285E-1,3.8518602E-1,-7.27093E-1,1.0882338E0,-5.557695E-2,7.203261E-2,-1.80812E-2,7.4508004E-2],"categories":[],"categories_nodes":[],"categories_segments":[],"categories_sizes":[],"default_left":[0,0,0,0,0,0,0,0,0],"id":91,"left_children":[1,-1,3,5,7,-1,-1,-1,-1],"loss_changes":[2.9805283E2,0E0,2.5603326E2,3.9942795E2,4.288729E2,0E0,0E0,0E0,0E0],"parents":[2147483647,0,0,2,2,3,3,4,4],"right_children":[2,-1,4,6,8,-1,-1,-1,-1],"split_conditions":[4.85E1,-1.7541285E-1,5.3604073E1,3.0571428E1,4.12069E0,-5.557695E-2,7.203261E-2,-1.80812E-2,7.4508004E-2],"split_indices":[15,0,56,31,55,0,0,0,0],"split_type":[0,0,0,0,0,0,0,0,0],"sum_hessian":[3.34E2,8E0,3.26E2,1.26E2,2E2,9.4E1,3.2E1,8.7E1,1.13E2],"tree_param":{"num_deleted":"0","num_feature":"109","num_nodes":"9","size_leaf_vector":"1"}},{"base_weights":[3.2960795E-2,-2.7399576E-1,2.0936397E-1,4.245011E-1,-3.59341E0,4.1298173E-2,-1.4201577E-2,-3.0486405E-1,-2.1255668E-2],"categories":[],"categories_nodes":[],"categories_segments":[],"categories_sizes":[],"default_left":[0,0,0,0,0,0,0,0,0],"id":92,"left_children":[1,-1,3,5,7,-1,-1,-1,-1],"loss_changes":[5.149583E2,0E0,2.691478E2,2.440598E2,3.0462997E2,0E0,0E0,0E0,0E0],"parents":[2147483647,0,0,2,2,3,3,4,4],"right_children":[2,-1,4,6,8,-1,-1,-1,-1],"split_conditions":[4.8E1,-2.7399576E-1,6.4E1,1.1369254E2,6.46E1,4.1298173E-2,-1.4201577E-2,-3.0486405E-1,-2.1255668E-2],"split_indices":[10,0,47,103,47,0,0,0,0],"split_type":[0,0,0,0,0,0,0,0,0],"sum_hessian":[3.35E2,6E0,3.29E2,3.12E2,1.7E1,1.55E2,1.57E2,5E0,1.2E1],"tree_param":{"num_deleted":"0","num_feature":"109","num_nodes":"9","size_leaf_vector":"1"}},{"base_weights":[2.4786736E-1,-1.905823E-1,4.4504684E-1,7.9248357E-1,-3.5671034E0,-5.8210153E-2,4.0744342E-2,-2.7941316E-1,-4.8480373E-2],"categories":[],"categories_nodes":[],"categories_segments":[],"categories_sizes":[],"default_left":[0,0,0,0,0,0,0,0,0],"id":93,"left_children":[1,-1,3,5,7,-1,-1,-1,-1],"loss_changes":[3.940873E2,0E0,4.3063266E2,3.7952548E2,2.520503E2,0E0,0E0,0E0,0E0],"parents":[2147483647,0,0,2,2,3,3,4,4],"right_children":[2,-1,4,6,8,-1,-1,-1,-1],"split_conditions":[3.2592592E0,-1.905823E-1,6.1804226E1,1.0084821E2,2.52E1,-5.8210153E-2,4.0744342E-2,-2.7941316E-1,-4.8480373E-2],"split_indices":[23,0,56,4,27,0,0,0,0],"split_type":[0,0,0,0,0,0,0,0,0],"sum_hessian":[3.17E2,9E0,3.08E2,2.84E2,2.4E1,4.5E1,2.39E2,6E0,1.8E1],"tree_param":{"num_deleted":"0","num_feature":"109","num_nodes":"9","size_leaf_vector":"1"}},{"base_weights":[2.6245478E-1,1.3820919E0,-7.136199E-1,2.5921628E0,-1.2052467E0,-2.551329E-1,-3.2412276E-1,1.2125938E-1,-1.0317973E-1,-7.659073E-2,8.822166E-2,-1.2909748E-1,1.2041123E-3],"categories":[],"categories_nodes":[],"categories_segments":[],"categories_sizes":[],"default_left":[0,0,0,0,0,0,0,0,0,0,0,0,0],"id":94,"left_children":[1,3,5,7,9,-1,11,-1,-1,-1,-1,-1,-1],"loss_changes":[3.5563055E2,4.7713602E2,4.9487354E2,7.763465E2,2.4362689E2,0E0,2.2879333E2,0E0,0E0,0E0,0E0,0E0,0E0],"parents":[2147483647,0,0,1,1,2,2,3,3,4,4,6,6],"right_children":[2,4,6,8,10,-1,12,-1,-1,-1,-1,-1,-1],"split_conditions":[3.2629417E1,8.28E1,9.185185E0,6.18E1,1.1721094E2,-2.551329E-1,3.304138E1,1.2125938E-1,-1.0317973E-1,-7.659073E-2,8.822166E-2,-1.2909748E-1,1.2041123E-3],"split_indices":[25,26,21,11,99,0,25,0,0,0,0,0,0],"split_type":[0,0,0,0,0,0,0,0,0,0,0,0,0],"sum_hessian":[3.24E2,1.51E2,1.73E2,1.03E2,4.8E1,8E0,1.65E2,8.5E1,1.8E1,3.7E1,1.1E1,1.4E1,1.51E2],"tree_param":{"num_deleted":"0","num_feature":"109","num_nodes":"13","size_leaf_vector":"1"}},{"base_weights":[1.7886376E-1,3.4715804E-1,-2.1137743E-1,9.041289E-1,-1.3192861E0,4.68136E-2,-3.1306136E-2,4.110412E-2,-8.546659E-2],"categories":[],"categories_nodes":[],"categories_segments":[],"categories_sizes":[],"default_left":[0,0,0,0,0,0,0,0,0],"id":95,"left_children":[1,3,-1,5,7,-1,-1,-1,-1],"loss_changes":[3.7080115E2,2.9160138E2,0E0,2.625723E2,2.9133624E2,0E0,0E0,0E0,0E0],"parents":[2147483647,0,0,1,1,3,3,4,4],"right_children":[2,4,-1,6,8,-1,-1,-1,-1],"split_conditions":[3.522222E1,2.1875E0,-2.1137743E-1,1.1709091E2,5.2465137E1,4.68136E-2,-3.1306136E-2,4.110412E-2,-8.546659E-2],"split_indices":[63,75,0,69,24,0,0,0,0],"split_type":[0,0,0,0,0,0,0,0,0],"sum_hessian":[3.2E2,3.13E2,7E0,2.35E2,7.8E1,1.8E2,5.5E1,2.7E1,5.1E1],"tree_param":{"num_deleted":"0","num_feature":"109","num_nodes":"9","size_leaf_vector":"1"}},{"base_weights":[-3.2811666E-1,-2.1614057E-1,-2.0308705E-1,7.376637E-1,-1.2008927E0,4.2879485E-2,-6.323578E-2,1.0093039E-1,-5.1622137E-2],"categories":[],"categories_nodes":[],"categories_segments":[],"categories_sizes":[],"default_left":[0,0,0,0,0,0,0,0,0],"id":96,"left_children":[1,-1,3,5,7,-1,-1,-1,-1],"loss_changes":[2.8775262E2,0E0,3.2984283E2,3.118717E2,3.337595E2,0E0,0E0,0E0,0E0],"parents":[2147483647,0,0,2,2,3,3,4,4],"right_children":[2,-1,4,6,8,-1,-1,-1,-1],"split_conditions":[9.89E1,-2.1614057E-1,1.14E2,3.344209E-1,1.05333336E2,4.2879485E-2,-6.323578E-2,1.0093039E-1,-5.1622137E-2],"split_indices":[45,0,40,28,64,0,0,0,0],"split_type":[0,0,0,0,0,0,0,0,0],"sum_hessian":[3.56E2,6E0,3.5E2,1.8E2,1.7E2,1.47E2,3.3E1,1.5E1,1.55E2],"tree_param":{"num_deleted":"0","num_feature":"109","num_nodes":"9","size_leaf_vector":"1"}}]},"name":"gbtree"},"learner_model_param":{"base_score":"[5.7715164E1]","boost_from_average":"1","num_class":"0","num_feature":"109","num_target":"1"},"objective":{"name":"reg:squarederror","reg_loss_param":{"scale_pos_weight":"1"}}},"version":[3,2,0]}