{"learner":{"attributes":{"best_iteration":"17","best_score":"1.322135694208555","scikit_learn":"{\"_estimator_type\": \"regressor\"}"},"feature_names":[],"feature_types":[],"gradient_booster":{"model":{"cats":{"enc":[],"feature_segments":[],"sorted_idx":[]},"gbtree_model_param":{"num_parallel_tree":"1","num_trees":"38"},"iteration_indptr":[0,1,2,3,4,5,6,7,8,9,10,11,12,13,14,15,16,17,18,19,20,21,22,23,24,25,26,27,28,29,30,31,32,33,34,35,36,37,38],"tree_info":[0,0,0,0,0,0,0,0,0,0,0,0,0,0,0,0,0,0,0,0,0,0,0,0,0,0,0,0,0,0,0,0,0,0,0,0,0,0],"trees":[{"base_weights":[-5.274749E-3,1.3223138E-1,-5.4925397E-2,5.4945033E-2,3.548387E-1,4.2499998E-1,-6.0542192E-2,2.0833331E-1,-4.464288E-2,4.8749998E-1,-4.375001E-3,-2.5000006E-3,3E-2,1.5833332E-1,-6.853585E-2,-3.529414E-2,4.0499997E-1,2.4444443E-1,-4.8958347E-3,-4.000001E-3,6.0499996E-1,5.2E-1,-4.375001E-3,1.3333331E-1,-7.412143E-2,-4.687501E-3,2.2499999E-2,3.1071428E-2,-4.285715E-3,-4.166668E-3,3.3749998E-2,3.8214285E-2,9.999999E-3,3.3749998E-2,-2.5000006E-3,-4.285715E-3,3E-2,-4.4128797E-3,9.999883E-5],"categories":[],"categories_nodes":[],"categories_segments":[],"categories_sizes":[],"default_left":[0,0,0,0,0,0,0,0,0,0,0,0,0,0,0,0,0,0,0,0,0,0,0,0,0,0,0,0,0,0,0,0,0,0,0,0,0,0,0],"id":0,"left_children":[1,3,5,7,9,11,13,15,17,19,-1,-1,-1,21,23,25,27,29,-1,-1,31,33,-1,35,37,-1,-1,-1,-1,-1,-1,-1,-1,-1,-1,-1,-1,-1,-1],"loss_changes":[3.1136699E0,2.0622487E0,9.287708E-1,1.3993819E0,1.861774E0,3.6249995E-1,5.917239E-1,1.7391766E0,8.8637894E-1,1.6487503E0,0E0,0E0,0E0,1.1124167E0,3.7182844E-1,5.244485E-1,2.1773574E0,1.3263888E0,0E0,0E0,1.1373568E0,4.755E-1,0E0,9.714285E-1,3.36985E-1,0E0,0E0,0E0,0E0,0E0,0E0,0E0,0E0,0E0,0E0,0E0,0E0,0E0,0E0],"parents":[2147483647,0,0,1,1,2,2,3,3,4,4,5,5,6,6,7,7,8,8,9,9,13,13,14,14,15,15,16,16,17,17,20,20,21,21,23,23,24,24],"right_children":[2,4,6,8,10,12,14,16,18,20,-1,-1,-1,22,24,26,28,30,-1,-1,32,34,-1,36,38,-1,-1,-1,-1,-1,-1,-1,-1,-1,-1,-1,-1,-1,-1],"split_conditions":[-1.8973007E2,5.85E1,9.9E1,-2.3708742E0,4.4468083E0,4.5E1,6.7837234E0,-1E0,5.06E1,2.152381E-1,0E0,-1.3000001E0,5.5E-1,1.201E2,1.163E2,4.2E1,1E0,3.3992094E-1,-1E-1,-2E-1,5.545E2,1.174E2,-1E-1,4.125E0,2.7884614E0,-1E-1,3.5E-1,5.0999993E-1,-1.5E-1,-5E-2,5E-1,6.099999E-1,5E-1,3.5E-1,-2E-1,-2E-1,6.5000004E-1,-2E-1,9.999988E-2],"split_indices":[79,43,45,118,55,2,29,66,43,60,0,0,0,33,138,2,17,28,0,0,138,8,0,23,22,0,0,0,0,0,0,0,0,0,0,0,0,0,0],"split_type":[0,0,0,0,0,0,0,0,0,0,0,0,0,0,0,0,0,0,0,0,0,0,0,0,0,0,0,0,0,0,0,0,0,0,0,0,0,0,0],"sum_hessian":[4.54E2,1.2E2,3.34E2,9E1,3E1,3E0,3.31E2,3.5E1,5.5E1,2.3E1,7E0,1E0,2E0,1.1E1,3.2E2,1.6E1,1.9E1,8E0,4.7E1,4E0,1.9E1,4E0,7E0,8E0,3.12E2,1.5E1,1E0,1.3E1,6E0,5E0,3E0,1.3E1,6E0,3E0,1E0,6E0,2E0,2.63E2,4.9E1],"tree_param":{"num_deleted":"0","num_feature":"140","num_nodes":"39","size_leaf_vector":"1"}},{"base_weights":[-5.180204E-3,1.5304345E-1,-6.0303055E-2,1.19090885E-1,3.75E-2,3.2E-1,-6.5950945E-2,2.8168991E-2,2.7749997E-1,-3.3333343E-3,3E-2,-8.8345885E-2,3.278686E-2,2.9230767E-1,-3.0508498E-2,4.222222E-1,-2.1428594E-2,-9.204548E-2,2.6666665E-1,-4.8571443E-3,1.9999997E-1,-4.285715E-3,3.142857E-2,2.2499999E-2,-2.3275875E-3,-4.166668E-3,2.7045453E-2,-4.615386E-3,2.2499999E-2,-4.787646E-3,4.166666E-3,2.2499999E-2,-2.5000006E-3,-1.5625012E-3,2.4583332E-2],"categories":[],"categories_nodes":[],"categories_segments":[],"categories_sizes":[],"default_left":[0,0,0,0,0,0,0,0,0,0,0,0,0,0,0,0,0,0,0,0,0,0,0,0,0,0,0,0,0,0,0,0,0,0,0],"id":1,"left_children":[1,3,5,7,-1,9,11,13,15,-1,-1,17,19,21,23,25,27,29,31,-1,33,-1,-1,-1,-1,-1,-1,-1,-1,-1,-1,-1,-1,-1,-1],"loss_changes":[3.8816812E0,2.2415257E0,7.2991455E-1,1.576497E0,0E0,5.813333E-1,7.237568E-1,1.1093464E0,1.7395124E0,0E0,0E0,3.739102E-1,1.344712E0,1.7063737E0,4.7577438E-1,1.6651511E0,5.0934064E-1,1.7963386E-1,1.9666666E-1,0E0,1.8364583E0,0E0,0E0,0E0,0E0,0E0,0E0,0E0,0E0,0E0,0E0,0E0,0E0,0E0,0E0],"parents":[2147483647,0,0,1,1,2,2,3,3,5,5,6,6,7,7,8,8,11,11,12,12,13,13,14,14,15,15,16,16,17,17,18,18,20,20],"right_children":[2,4,6,8,-1,10,12,14,16,-1,-1,18,20,22,24,26,28,30,32,-1,34,-1,-1,-1,-1,-1,-1,-1,-1,-1,-1,-1,-1,-1,-1],"split_conditions":[-1.8714291E2,1.228E2,9.9E1,5.8E1,3.6949998E-1,1.1071378E2,1.178125E1,-4.074418E0,3.482143E0,-1.0349998E0,5.2249986E-1,7.06E1,5.6765877E1,5E0,5.6E0,1.0925E2,3.9940475E1,6.74E1,1.127E2,-1.1500027E-1,1.1422222E2,-1.9500008E-1,4.75E-1,1.24499895E-1,-9.100009E-2,-4.7499847E-2,4.244999E-1,-3.174996E-2,5.244999E-1,-1.9000016E-1,1.9500008E-1,8.250008E-2,-7.5499994E-1,-3.000021E-2,5.6049985E-1],"split_indices":[79,41,45,34,0,6,53,83,75,0,0,43,56,73,27,9,57,10,0,0,13,0,0,0,0,0,0,0,0,0,0,0,0,0,0],"split_type":[0,0,0,0,0,0,0,0,0,0,0,0,0,0,0,0,0,0,0,0,0,0,0,0,0,0,0,0,0,0,0,0,0,0,0],"sum_hessian":[4.43E2,1.14E2,3.29E2,1.09E2,5E0,4E0,3.25E2,7E1,3.9E1,2E0,2E0,2.65E2,6E1,1.2E1,5.8E1,2.6E1,1.3E1,2.63E2,2E0,3.4E1,2.6E1,6E0,6E0,1E0,5.7E1,5E0,2.1E1,1.2E1,1E0,2.58E2,5E0,1E0,1E0,1.5E1,1.1E1],"tree_param":{"num_deleted":"0","num_feature":"140","num_nodes":"35","size_leaf_vector":"1"}},{"base_weights":[6.6961907E-4,1.4079997E-1,-5.3395085E-2,4.086019E-2,4.181818E-1,-7.789858E-2,8.5714266E-2,-6.500002E-2,2.2647056E-1,-4.285715E-3,5.333333E-1,-8.145457E-2,2.2499999E-2,4.0999997E-1,2.4999767E-3,-8.135596E-2,2.2499999E-2,-3.8888913E-2,4.9411762E-1,-3.7500008E-3,6.1249995E-1,-8.503652E-2,2.2499999E-2,6.285714E-1,-3.7500008E-3,-6.944447E-2,5.2E-1,2.2499999E-2,-4.9137943E-3,-4.7058836E-3,2.2499999E-2,3.384615E-2,-4.000001E-3,3.5714284E-2,-3.7500008E-3,-4.4301483E-3,1.3333333E-2,-2.5000006E-3,3.75E-2,2.2499999E-2,-4.8571443E-3,3.3749998E-2,-2.5000006E-3],"categories":[],"categories_nodes":[],"categories_segments":[],"categories_sizes":[],"default_left":[0,0,0,0,0,0,0,0,0,0,0,0,0,0,0,0,0,0,0,0,0,0,0,0,0,0,0,0,0,0,0,0,0,0,0,0,0,0,0,0,0,0,0],"id":2,"left_children":[1,3,5,7,9,11,13,15,17,-1,19,21,-1,23,25,27,-1,29,31,-1,33,35,-1,37,-1,39,41,-1,-1,-1,-1,-1,-1,-1,-1,-1,-1,-1,-1,-1,-1,-1,-1],"loss_changes":[3.4016135E0,3.448098E0,1.1110842E0,1.8420546E0,1.9605198E0,5.5476296E-1,1.32125E0,5.4200846E-1,2.4339867E0,0E0,1.3462496E0,5.617688E-1,0E0,1.1072145E0,1.5253612E0,5.74664E-1,0E0,5.2836597E-1,1.838335E0,0E0,1.733036E0,3.6731398E-1,0E0,6.142857E-1,0E0,5.6167465E-1,4.755E-1,0E0,0E0,0E0,0E0,0E0,0E0,0E0,0E0,0E0,0E0,0E0,0E0,0E0,0E0,0E0,0E0],"parents":[2147483647,0,0,1,1,2,2,3,3,4,4,5,5,6,6,7,7,8,8,10,10,11,11,13,13,14,14,15,15,17,17,18,18,20,20,21,21,23,23,25,25,26,26],"right_children":[2,4,6,8,10,12,14,16,18,-1,20,22,-1,24,26,28,-1,30,32,-1,34,36,-1,38,-1,40,42,-1,-1,-1,-1,-1,-1,-1,-1,-1,-1,-1,-1,-1,-1,-1,-1],"split_conditions":[-1.7307123E2,5.85E1,2.8421052E0,3.4396824E1,1.082E2,9E0,2.1649484E-1,5.2E1,4.2708335E0,-1.2594986E-1,8.569253E0,8E0,7.7000044E-2,3.2365696E1,1.2326667E2,7.106599E-2,2.0125008E-1,1.204E2,3.6290324E-1,-1.8544999E-1,1.2405694E2,1.258E2,5.8947486E-1,1.113E2,-3.9925003E-1,1E0,1.184E2,1.1827507E-1,-7.358251E-2,-1.6818248E-1,4.0327492E-1,4.841675E-1,-3.8794976E-1,4.666976E-1,-7.044983E-2,-1.8050003E-1,1.319748E-1,-9.4549984E-1,6.545002E-1,2.0447503E-1,-2.954999E-1,7.045002E-1,-4.4925004E-1],"split_indices":[79,43,22,57,65,16,60,27,55,0,61,85,0,25,70,28,0,8,28,0,130,9,0,1,0,48,0,0,0,0,0,0,0,0,0,0,0,0,0,0,0,0,0],"split_type":[0,0,0,0,0,0,0,0,0,0,0,0,0,0,0,0,0,0,0,0,0,0,0,0,0,0,0,0,0,0,0,0,0,0,0,0,0,0,0,0,0,0,0],"sum_hessian":[4.47E2,1.24E2,3.23E2,9.2E1,3.2E1,2.75E2,4.8E1,5.9E1,3.3E1,6E0,2.6E1,2.74E2,1E0,9E0,3.9E1,5.8E1,1E0,1.7E1,1.6E1,3E0,2.3E1,2.73E2,1E0,6E0,3E0,3.5E1,4E0,1E0,5.7E1,1.6E1,1E0,1.2E1,4E0,2E1,3E0,2.71E2,2E0,1E0,5E0,1E0,3.4E1,3E0,1E0],"tree_param":{"num_deleted":"0","num_feature":"140","num_nodes":"43","size_leaf_vector":"1"}},{"base_weights":[-5.89522E-3,1.3565215E-1,-5.3197697E-2,6.6249996E-1,9.5370345E-2,-6.783442E-2,9.677417E-2,-2.5000006E-3,3.857143E-2,-4.8571443E-3,1.8513511E-1,-7.092654E-2,2.2499999E-2,3.3749998E-2,1.0714263E-2,8.363634E-2,4.5499998E-1,-7.403848E-2,2.2499999E-2,-5.769233E-2,3E-2,2.0624999E-2,1.3541655E-3,-4.166668E-3,3.2E-2,9.999999E-3,-4.003269E-3,-4.800001E-3,2.2499999E-2],"categories":[],"categories_nodes":[],"categories_segments":[],"categories_sizes":[],"default_left":[0,0,0,0,0,0,0,0,0,0,0,0,0,0,0,0,0,0,0,0,0,0,0,0,0,0,0,0,0],"id":3,"left_children":[1,3,5,7,9,11,13,-1,-1,-1,15,17,-1,-1,19,21,23,25,-1,27,-1,-1,-1,-1,-1,-1,-1,-1,-1],"loss_changes":[3.0737743E0,2.377391E0,7.616777E-1,6.594641E-1,1.8843222E0,5.346961E-1,1.5353917E0,0E0,0E0,0E0,1.9888759E0,5.4072E-1,0E0,0E0,1.1633242E0,1.0117309E0,2.0451665E0,5.313128E-1,0E0,5.488615E-1,0E0,0E0,0E0,0E0,0E0,0E0,0E0,0E0,0E0],"parents":[2147483647,0,0,1,1,2,2,3,3,4,4,5,5,6,6,10,10,11,11,14,14,15,15,16,16,17,17,19,19],"right_children":[2,4,6,8,10,12,14,-1,-1,-1,16,18,-1,-1,20,22,24,26,-1,28,-1,-1,-1,-1,-1,-1,-1,-1,-1],"split_conditions":[-1.8973007E2,1.0102679E2,1.2140606E2,9.76E1,4.548E2,9E0,5.43E1,-1.2210525E0,3.5484162E-1,-1.6177069E-1,5.84E1,1.305E2,7.3149875E-2,5.60001E-1,3.793651E1,-3.2727978E0,1.1228577E2,6.7837234E0,7.600021E-2,3.4444444E0,6.692753E-1,4.2704162E-1,1.18861236E-1,-1.6965257E-1,5.2902555E-1,3.1350023E-1,-1.8622522E-1,-5.359977E-2,1.9425125E-1],"split_indices":[79,74,129,8,139,16,47,0,0,0,47,70,0,0,57,83,129,29,0,54,0,0,0,0,0,0,0,0,0],"split_type":[0,0,0,0,0,0,0,0,0,0,0,0,0,0,0,0,0,0,0,0,0,0,0,0,0,0,0,0,0],"sum_hessian":[4.57E2,1.14E2,3.43E2,7E0,1.07E2,3.13E2,3E1,1E0,6E0,3.4E1,7.3E1,3.12E2,1E0,3E0,2.7E1,5.4E1,1.9E1,3.11E2,1E0,2.5E1,2E0,7E0,4.7E1,5E0,1.4E1,6E0,3.05E2,2.4E1,1E0],"tree_param":{"num_deleted":"0","num_feature":"140","num_nodes":"29","size_leaf_vector":"1"}},{"base_weights":[-1.4132787E-2,1.1679997E-1,-6.1807603E-2,3.8095236E-1,6.285712E-2,2.4999999E-1,-6.715979E-2,2.22222E-2,5.9999996E-1,2.065215E-2,3.3571425E-1,-3.7500008E-3,3E-2,-7.00297E-2,2.2499999E-2,-4.375001E-3,2.2499999E-2,7.272727E-1,-3.3333343E-3,3.5555553E-1,-1.5476214E-2,2.22222E-2,3.75E-2,-7.2916694E-2,2.2499999E-2,-2.5000006E-3,4.05E-2,-3.7500008E-3,2.9166667E-2,-1.8125012E-3,1.6E-2,-4.375001E-3,2.2499999E-2,-4.0408815E-3,3.1578937E-3],"categories":[],"categories_nodes":[],"categories_segments":[],"categories_sizes":[],"default_left":[0,0,0,0,0,0,0,0,0,0,0,0,0,0,0,0,0,0,0,0,0,0,0,0,0,0,0,0,0,0,0,0,0,0,0],"id":4,"left_children":[1,3,5,7,9,11,13,15,17,19,21,-1,-1,23,-1,-1,-1,25,-1,27,29,31,-1,33,-1,-1,-1,-1,-1,-1,-1,-1,-1,-1,-1],"loss_changes":[2.9223247E0,1.7571962E0,5.89206E-1,1.6368258E0,1.2022392E0,7.2749996E-1,5.331739E-1,4.6180555E-1,1.151515E0,1.1186577E0,1.8015872E0,0E0,0E0,5.387579E-1,0E0,0E0,0E0,7.47818E-1,0E0,9.2638886E-1,5.9700596E-1,4.6180555E-1,0E0,3.6634398E-1,0E0,0E0,0E0,0E0,0E0,0E0,0E0,0E0,0E0,0E0,0E0],"parents":[2147483647,0,0,1,1,2,2,3,3,4,4,5,5,6,6,7,7,8,8,9,9,10,10,13,13,17,17,19,19,20,20,21,21,23,23],"right_children":[2,4,6,8,10,12,14,16,18,20,22,-1,-1,24,-1,-1,-1,26,-1,28,30,32,-1,34,-1,-1,-1,-1,-1,-1,-1,-1,-1,-1,-1],"split_conditions":[-1.8714291E2,-3.677743E0,9.9E1,5.64E1,1.1114586E1,3.3E1,9E0,1.15E2,6.2E1,5.42E1,1.0307693E1,-5.0741386E-1,4.3564987E-1,5.4E1,6.949234E-2,-2.504696E-1,2.946396E-2,4.7E1,-4.1837844E-1,2.925926E1,-1.9674712E2,1.156E2,3.566601E-1,1.25E2,2.858658E-2,-2.0292282E-1,4.2135277E-1,-9.271355E-2,4.6812364E-1,-2.5676003E-2,6.48489E-1,-2.0262872E-1,1.283905E-1,-1.20889835E-1,1.0508902E-1],"split_indices":[79,83,45,42,29,3,16,41,10,42,21,0,0,81,0,0,0,10,0,25,79,45,0,70,0,0,0,0,0,0,0,0,0,0,0],"split_type":[0,0,0,0,0,0,0,0,0,0,0,0,0,0,0,0,0,0,0,0,0,0,0,0,0,0,0,0,0,0,0,0,0,0,0],"sum_hessian":[4.66E2,1.24E2,3.42E2,2E1,1.04E2,5E0,3.37E2,8E0,1.2E1,9.1E1,1.3E1,3E0,2E0,3.36E2,1E0,7E0,1E0,1E1,2E0,8E0,8.3E1,8E0,5E0,3.35E2,1E0,1E0,9E0,3E0,5E0,7.9E1,4E0,7E0,1E0,3.17E2,1.8E1],"tree_param":{"num_deleted":"0","num_feature":"140","num_nodes":"35","size_leaf_vector":"1"}},{"base_weights":[-5.3648306E-3,1.3565215E-1,-5.142048E-2,5.2325558E-2,3.6999997E-1,-7.473312E-2,4.0277753E-2,1.3749977E-2,4.8571426E-1,5.238095E-1,9.999978E-3,3.2E-1,-8.158847E-2,-4.864866E-3,1.8055554E-1,-3.5937525E-2,1.9999997E-1,3.6E-2,-3.3333343E-3,-3.7500008E-3,6.2777776E-1,2.2499999E-2,-4.444446E-3,3E-2,-3.3333343E-3,-8.514495E-2,2.2499999E-2,-5.0000023E-2,5.0666666E-1,-4.0178583E-3,1.2222222E-2,-4.1666775E-4,2.9166667E-2,-3.7500008E-3,3.8666666E-2,-4.4343076E-3,1.3333333E-2,2.2499999E-2,-4.761906E-3,3.2916665E-2,-3.7500008E-3],"categories":[],"categories_nodes":[],"categories_segments":[],"categories_sizes":[],"default_left":[0,0,0,0,0,0,0,0,0,0,0,0,0,0,0,0,0,0,0,0,0,0,0,0,0,0,0,0,0,0,0,0,0,0,0,0,0,0,0,0,0],"id":5,"left_children":[1,3,5,7,9,11,13,15,17,19,21,23,25,-1,27,29,31,-1,-1,-1,33,-1,-1,-1,-1,35,-1,37,39,-1,-1,-1,-1,-1,-1,-1,-1,-1,-1,-1,-1],"loss_changes":[3.0334718E0,2.2262914E0,7.554904E-1,1.4310884E0,1.6559048E0,7.865038E-1,1.4070758E0,7.4753124E-1,9.539046E-1,1.3544841E0,4.7511113E-1,5.813333E-1,5.6200695E-1,0E0,2.7320557E0,8.167286E-1,1.3625E0,0E0,0E0,0E0,1.8992786E0,0E0,0E0,0E0,0E0,3.6750054E-1,0E0,5.404762E-1,1.3726666E0,0E0,0E0,0E0,0E0,0E0,0E0,0E0,0E0,0E0,0E0,0E0,0E0],"parents":[2147483647,0,0,1,1,2,2,3,3,4,4,5,5,6,6,7,7,8,8,9,9,10,10,11,11,12,12,14,14,15,15,16,16,20,20,25,25,27,27,28,28],"right_children":[2,4,6,8,10,12,14,16,18,20,22,24,26,-1,28,30,32,-1,-1,-1,34,-1,-1,-1,-1,36,-1,38,40,-1,-1,-1,-1,-1,-1,-1,-1,-1,-1,-1,-1],"split_conditions":[-1.8973007E2,5.84E1,1.1692307E1,4.028836E1,5.875E1,9.9E1,5.6765877E1,3.46395E-1,3.2910713E1,1.0507143E2,2.3E1,1.13300644E2,9E0,-1.2724458E-1,1.1225E2,1.1199126E1,5E0,4.447174E-1,-1.1931763E-1,-1.1028023E-1,-8E0,2.6114693E-1,-1.8120576E-2,4.138672E-1,-9.395428E-1,7.06E1,6.601792E-2,4.96E1,3.18E1,-7.3614866E-2,3.1926653E-1,1.11987464E-1,3.8462183E-1,-2.2735597E-4,5.338102E-1,-1.5611954E-1,3.6019515E-2,8.588028E-2,-2.1191959E-1,6.40911E-1,-3.1411973E-1],"split_indices":[79,43,53,57,10,45,56,28,25,65,2,5,16,0,65,29,18,0,0,0,125,0,0,0,0,43,0,10,63,0,0,0,0,0,0,0,0,0,0,0,0],"split_type":[0,0,0,0,0,0,0,0,0,0,0,0,0,0,0,0,0,0,0,0,0,0,0,0,0,0,0,0,0,0,0,0,0,0,0,0,0,0,0,0,0],"sum_hessian":[4.65E2,1.14E2,3.51E2,8.5E1,2.9E1,2.8E2,7.1E1,7.9E1,6E0,2E1,9E0,4E0,2.76E2,3.6E1,3.5E1,6.3E1,1.6E1,4E0,2E0,3E0,1.7E1,1E0,8E0,2E0,2E0,2.75E2,1E0,2.1E1,1.4E1,5.5E1,8E0,1.1E1,5E0,3E0,1.4E1,2.73E2,2E0,1E0,2E1,1.1E1,3E0],"tree_param":{"num_deleted":"0","num_feature":"140","num_nodes":"41","size_leaf_vector":"1"}},{"base_weights":[-1.045754E-2,-6.8859674E-2,4.6982735E-2,-7.312778E-2,2.2499999E-2,2.1395326E-2,3.4999996E-1,4.999998E-2,-8.084115E-2,2.9268055E-3,3.6363634E-1,9.999978E-3,6.8888885E-1,4.2499998E-1,-4.545456E-3,1.1999998E-1,-8.523812E-2,2.6428568E-1,-1.6145857E-2,6.285714E-1,-4.000001E-3,2.2499999E-2,-4.444446E-3,3.9375E-2,-2.5000006E-3,3E-2,-2.5000006E-3,-3.7500008E-3,2.2499999E-2,5.999999E-3,-4.4902926E-3,2.9166667E-2,1.1111101E-3,-3.1386875E-3,4.910713E-3,-2.5000006E-3,3.75E-2],"categories":[],"categories_nodes":[],"categories_segments":[],"categories_sizes":[],"default_left":[0,0,0,0,0,0,0,0,0,0,0,0,0,0,0,0,0,0,0,0,0,0,0,0,0,0,0,0,0,0,0,0,0,0,0,0,0],"id":6,"left_children":[1,3,5,7,-1,9,11,13,15,17,19,21,23,25,-1,27,29,31,33,35,-1,-1,-1,-1,-1,-1,-1,-1,-1,-1,-1,-1,-1,-1,-1,-1,-1],"loss_changes":[1.5430125E0,5.378243E-1,1.7913066E0,2.196306E-1,0E0,1.357883E0,2.0671113E0,7.784091E-1,1.9921064E-1,1.0261532E0,1.343169E0,4.7511113E-1,6.9513893E-1,3.6249995E-1,0E0,3.5549998E-1,2.076459E-1,1.0682539E0,1.0299804E0,6.142857E-1,0E0,0E0,0E0,0E0,0E0,0E0,0E0,0E0,0E0,0E0,0E0,0E0,0E0,0E0,0E0,0E0,0E0],"parents":[2147483647,0,0,1,1,2,2,3,3,5,5,6,6,7,7,8,8,9,9,10,10,11,11,12,12,13,13,15,15,16,16,17,17,18,18,19,19],"right_children":[2,4,6,8,-1,10,12,14,16,18,20,22,24,26,-1,28,30,32,34,36,-1,-1,-1,-1,-1,-1,-1,-1,-1,-1,-1,-1,-1,-1,-1,-1,-1],"split_conditions":[1.13333336E2,9E0,6.38E1,-2.7733658E2,6.271706E-2,4.1257763E1,7.4333336E1,2.7074236E-1,1.06E1,-4.3643918E2,1.174E2,1.109E2,3.3666668E1,1.128E2,-1.5896967E-2,1.11E2,-2.6E1,5.9E1,2.8421052E0,1.077E2,-7.1575165E-2,5.683136E-3,-7.880402E-3,5.8937377E-1,-3.582573E-1,3.0330315E-1,-2.1482849E-1,-5.596123E-1,1.6864777E-3,1.6864777E-3,-1.9868295E-1,2.4820557E-1,4.2486534E-1,-6.994438E-2,1.23350635E-1,-7.4831355E-1,6.0981065E-1],"split_indices":[13,16,42,79,0,57,26,28,27,79,0,0,27,0,0,9,81,11,22,12,0,0,0,0,0,0,0,0,0,0,0,0,0,0,0,0,0],"split_type":[0,0,0,0,0,0,0,0,0,0,0,0,0,0,0,0,0,0,0,0,0,0,0,0,0,0,0,0,0,0,0,0,0,0,0,0,0],"sum_hessian":[4.58E2,2.27E2,2.31E2,2.26E2,1E0,2.14E2,1.7E1,1.3E1,2.13E2,2.04E2,1E1,9E0,8E0,3E0,1E1,4E0,2.09E2,1.3E1,1.91E2,6E0,4E0,1E0,8E0,7E0,1E0,2E0,1E0,3E0,1E0,4E0,2.05E2,5E0,8E0,1.36E2,5.5E1,1E0,5E0],"tree_param":{"num_deleted":"0","num_feature":"140","num_nodes":"37","size_leaf_vector":"1"}},{"base_weights":[-2.16474E-4,-5.8823552E-2,5.330576E-2,-6.3013725E-2,2.6666665E-1,5.2355784E-3,2.2884613E-1,-3.0769255E-2,-4.9514575E-3,2.2499999E-2,-2.5000006E-3,-1.657461E-2,3.6363634E-1,1.4666665E-1,6.6249996E-1,2.2499999E-2,-3.8793128E-2,4.1666666E-1,-3.1250022E-2,-4.166668E-3,3.75E-2,5.833333E-1,7.749998E-2,-2.5000006E-3,3.857143E-2,-4.909092E-3,7.258053E-4,3.3749998E-2,-3.3333343E-3,2.125E-2,-2.0809262E-3,3.6E-2,-2.5000006E-3,1.190476E-2,-4.7500012E-3],"categories":[],"categories_nodes":[],"categories_segments":[],"categories_sizes":[],"default_left":[0,0,0,0,0,0,0,0,0,0,0,0,0,0,0,0,0,0,0,0,0,0,0,0,0,0,0,0,0,0,0,0,0,0,0],"id":7,"left_children":[1,3,5,7,9,11,13,15,-1,-1,-1,17,19,21,23,-1,25,27,29,-1,-1,31,33,-1,-1,-1,-1,-1,-1,-1,-1,-1,-1,-1,-1],"loss_changes":[1.4523288E0,3.1821644E-1,2.0408604E0,2.512772E-1,1.9666666E-1,1.4990336E0,1.7559807E0,4.6879977E-1,0E0,0E0,0E0,1.163818E0,1.9621212E0,1.3139167E0,6.594641E-1,0E0,3.6867732E-1,7.9416656E-1,8.5027826E-1,0E0,0E0,5.553334E-1,1.1307263E0,0E0,0E0,0E0,0E0,0E0,0E0,0E0,0E0,0E0,0E0,0E0,0E0],"parents":[2147483647,0,0,1,1,2,2,3,3,4,4,5,5,6,6,7,7,11,11,12,12,13,13,14,14,16,16,17,17,18,18,21,21,22,22],"right_children":[2,4,6,8,10,12,14,16,-1,-1,-1,18,20,22,24,-1,26,28,30,-1,-1,32,34,-1,-1,-1,-1,-1,-1,-1,-1,-1,-1,-1,-1],"split_conditions":[1.156E2,1.252E2,1.1509434E1,4.628E2,1.164E2,6.24E1,2.9375E0,2.4302233E1,-1.8837929E-1,4.088478E-2,-7.347561E-1,1.0102679E2,1.105E2,2.509804E0,1.115E2,1.6150169E-1,5.77E1,1.138E2,2.388889E1,-2.1459198E-2,3.4600526E-1,1.26E2,2.9245284E-1,-4.9335596E-1,5.989178E-1,-2.387832E-1,4.467463E-3,2.8813782E-1,-5.580334E-1,2.4561615E-1,-5.9146117E-2,2.7532157E-1,-1.0295002E0,3.4234378E-1,-6.644708E-2],"split_indices":[1,9,53,138,0,46,22,57,0,0,0,74,8,54,8,0,46,9,31,0,0,9,28,0,0,0,0,0,0,0,0,0,0,0,0],"split_type":[0,0,0,0,0,0,0,0,0,0,0,0,0,0,0,0,0,0,0,0,0,0,0,0,0,0,0,0,0,0,0,0,0,0,0],"sum_hessian":[4.61E2,2.2E2,2.41E2,2.18E2,2E0,1.9E2,5.1E1,1.16E2,1.02E2,1E0,1E0,1.8E2,1E1,4.4E1,7E0,1E0,1.15E2,5E0,1.75E2,5E0,5E0,5E0,3.9E1,1E0,6E0,5.4E1,6.1E1,3E0,2E0,3E0,1.72E2,4E0,1E0,2E1,1.9E1],"tree_param":{"num_deleted":"0","num_feature":"140","num_nodes":"35","size_leaf_vector":"1"}},{"base_weights":[-6.3043716E-3,6.91011E-2,-5.371027E-2,4.444421E-3,2.6590908E-1,-7.000002E-2,2.6428568E-1,-8.333336E-2,8.714283E-2,3.7352937E-1,-4.545456E-3,-7.360597E-2,2.2499999E-2,2.22222E-2,5.833333E-1,-4.9218764E-3,2.6666665E-1,8.928548E-3,3.733333E-1,7.272727E-1,1.9583331E-1,-7.715358E-2,2.6666665E-1,-4.375001E-3,2.2499999E-2,3.6E-2,-2.5000006E-3,2.2499999E-2,-2.5000006E-3,1.7777776E-2,-2.8125013E-3,-4.285715E-3,3.4444444E-2,4.05E-2,-2.5000006E-3,8.333322E-4,3.142857E-2,-4.9742283E-3,-8.783796E-4,-2.5000006E-3,2.2499999E-2],"categories":[],"categories_nodes":[],"categories_segments":[],"categories_sizes":[],"default_left":[0,0,0,0,0,0,0,0,0,0,0,0,0,0,0,0,0,0,0,0,0,0,0,0,0,0,0,0,0,0,0,0,0,0,0,0,0,0,0,0,0],"id":8,"left_children":[1,3,5,7,9,11,13,15,17,19,-1,21,-1,23,25,-1,27,29,31,33,35,37,39,-1,-1,-1,-1,-1,-1,-1,-1,-1,-1,-1,-1,-1,-1,-1,-1,-1,-1],"loss_changes":[1.648057E0,2.2638593E0,1.4844615E0,9.872381E-1,1.7235963E0,5.393977E-1,1.0682539E0,3.7515625E-1,1.5635595E0,1.9947748E0,0E0,3.45299E-1,0E0,4.6180555E-1,5.553334E-1,0E0,1.9666666E-1,1.2851886E0,2.2318733E0,7.47818E-1,1.8502977E0,3.53526E-1,1.9666666E-1,0E0,0E0,0E0,0E0,0E0,0E0,0E0,0E0,0E0,0E0,0E0,0E0,0E0,0E0,0E0,0E0,0E0,0E0],"parents":[2147483647,0,0,1,1,2,2,3,3,4,4,5,5,6,6,7,7,8,8,9,9,11,11,13,13,14,14,16,16,17,17,18,18,19,19,20,20,21,21,22,22],"right_children":[2,4,6,8,10,12,14,16,18,20,-1,22,-1,24,26,-1,28,30,32,34,36,38,40,-1,-1,-1,-1,-1,-1,-1,-1,-1,-1,-1,-1,-1,-1,-1,-1,-1,-1],"split_conditions":[-8.900443E1,5.85E1,1.22562065E2,3.9333334E0,-1.4466815E2,9E0,-2E0,5.91E1,1.112963E1,1.1246154E2,-1.3672899E-1,1.29E2,6.253853E-2,1.2E2,6.34E1,-3.3846445E-2,1.127E2,1.035E2,2.18E1,1.216E2,1.2287242E2,5.9666668E1,1.157E2,-1.9550209E-1,5.493744E-1,3.7893143E-1,-2.237587E-1,5.212746E-2,-5.1146775E-1,2.7373084E-1,-6.5835185E-2,-1.1103401E-1,5.6897205E-1,5.5968165E-1,-3.649563E-1,8.249984E-2,2.333355E-1,-2.3540726E-1,-1.4428723E-2,-8.630131E-1,2.1280289E-2],"split_indices":[79,43,129,23,79,16,125,47,53,70,0,70,0,8,10,0,0,45,59,40,131,46,0,0,0,0,0,0,0,0,0,0,0,0,0,0,0,0,0,0,0],"split_type":[0,0,0,0,0,0,0,0,0,0,0,0,0,0,0,0,0,0,0,0,0,0,0,0,0,0,0,0,0,0,0,0,0,0,0,0,0,0,0,0,0],"sum_hessian":[4.59E2,1.77E2,2.82E2,1.34E2,4.3E1,2.69E2,1.3E1,6.5E1,6.9E1,3.3E1,1E1,2.68E2,1E0,8E0,5E0,6.3E1,2E0,5.5E1,1.4E1,1E1,2.3E1,2.66E2,2E0,7E0,1E0,4E0,1E0,1E0,1E0,8E0,4.7E1,6E0,8E0,9E0,1E0,1.7E1,6E0,1.93E2,7.3E1,1E0,1E0],"tree_param":{"num_deleted":"0","num_feature":"140","num_nodes":"41","size_leaf_vector":"1"}},{"base_weights":[-1.4814839E-2,8.5087694E-2,-4.7687884E-2,4.77064E-2,3.75E-2,-7.1478896E-2,6.0317438E-2,-2.3750024E-2,2.3666665E-1,-2.7678596E-2,-4.9710996E-3,-4.615387E-2,2.2399998E-1,1.8181816E-1,-5.571431E-2,1.3461536E-1,3.6E-2,-4.2990677E-2,2.4999999E-1,2.2499999E-2,-7.1052656E-2,3.6E-2,9.5238075E-2,-4.285715E-3,2.5999999E-2,-4.9152556E-3,7.916666E-3,-1.9444457E-3,2.3333332E-2,-3.4183685E-3,1.0499999E-2,-3.7500008E-3,3E-2,2.2499999E-2,-4.864866E-3,-4.6428586E-3,2.0624999E-2],"categories":[],"categories_nodes":[],"categories_segments":[],"categories_sizes":[],"default_left":[0,0,0,0,0,0,0,0,0,0,0,0,0,0,0,0,0,0,0,0,0,0,0,0,0,0,0,0,0,0,0,0,0,0,0,0,0],"id":9,"left_children":[1,3,5,7,-1,9,11,13,15,17,-1,19,21,23,25,27,-1,29,31,-1,33,-1,35,-1,-1,-1,-1,-1,-1,-1,-1,-1,-1,-1,-1,-1,-1],"loss_changes":[1.51146E0,2.7977223E0,8.933777E-1,1.4773849E0,0E0,3.448404E-1,1.1082705E0,5.357971E-1,1.3828206E0,4.8695347E-1,0E0,5.1376516E-1,1.5280762E0,1.0397922E0,6.5371716E-1,1.5160682E0,0E0,7.013042E-1,7.2749996E-1,0E0,5.6342816E-1,0E0,1.291488E0,0E0,0E0,0E0,0E0,0E0,0E0,0E0,0E0,0E0,0E0,0E0,0E0,0E0,0E0],"parents":[2147483647,0,0,1,1,2,2,3,3,5,5,6,6,7,7,8,8,9,9,11,11,12,12,13,13,14,14,15,15,17,17,18,18,20,20,22,22],"right_children":[2,4,6,8,-1,10,12,14,16,18,-1,20,22,24,26,28,-1,30,32,-1,34,-1,36,-1,-1,-1,-1,-1,-1,-1,-1,-1,-1,-1,-1,-1,-1],"split_conditions":[-1.8714291E2,1.2227172E2,2.7884614E0,3.694164E1,2.2166863E-1,1.5491945E3,5.6705303E1,-1.2E1,1.1961034E1,3.1203458E2,-1.6719018E-1,2.1E1,2.1453287E-1,2.9952381E1,9.311688E0,5.7285713E1,4.322277E-1,7E0,1E0,6.620636E-2,1.00333336E2,5.405235E-1,1.0477679E2,-2.0570603E-1,3.7353745E-1,-9.38647E-2,2.4612752E-1,4.9657863E-2,5.3169745E-1,-6.637344E-2,2.1211849E-1,-2.736519E-1,6.1411288E-2,2.8651735E-1,-1.4806843E-1,-2.2404647E-1,5.2190554E-1],"split_indices":[79,131,22,57,0,77,56,81,61,79,0,34,60,57,123,47,0,68,17,0,64,0,4,0,0,0,0,0,0,0,0,0,0,0,0,0,0],"split_type":[0,0,0,0,0,0,0,0,0,0,0,0,0,0,0,0,0,0,0,0,0,0,0,0,0,0,0,0,0,0,0,0,0,0,0,0,0],"sum_hessian":[4.58E2,1.13E2,3.45E2,1.08E2,5E0,2.83E2,6.2E1,7.9E1,2.9E1,1.11E2,1.72E2,3.8E1,2.4E1,1E1,6.9E1,2.5E1,4E0,1.06E2,5E0,1E0,3.7E1,4E0,2E1,6E0,4E0,5.8E1,1.1E1,1.7E1,8E0,9.7E1,9E0,3E0,2E0,1E0,3.6E1,1.3E1,7E0],"tree_param":{"num_deleted":"0","num_feature":"140","num_nodes":"37","size_leaf_vector":"1"}},{"base_weights":[-1.7161041E-2,9.754096E-2,-5.698008E-2,4.9999975E-2,6.8888885E-1,-6.6964306E-2,1.5624997E-1,-2.357986E-8,2.3749998E-1,-2.5000006E-3,3.9375E-2,1.9999997E-1,-7.242426E-2,-1.5384638E-2,3.3749998E-2,-4.861112E-3,6.2499978E-2,6.0999995E-1,-2.666669E-2,3E-2,-4.000001E-3,-7.53049E-2,2.6666665E-1,2.2499999E-2,-4.5833346E-3,-2.375001E-3,1.5882352E-2,-3.3333343E-3,3.9375E-2,2.2499999E-2,-4.6428586E-3,8.749999E-3,-3.9076935E-3,-2.5000006E-3,2.2499999E-2],"categories":[],"categories_nodes":[],"categories_segments":[],"categories_sizes":[],"default_left":[0,0,0,0,0,0,0,0,0,0,0,0,0,0,0,0,0,0,0,0,0,0,0,0,0,0,0,0,0,0,0,0,0,0,0],"id":10,"left_children":[1,3,5,7,9,11,13,15,17,-1,-1,19,21,23,-1,-1,25,27,29,-1,-1,31,33,-1,-1,-1,-1,-1,-1,-1,-1,-1,-1,-1,-1],"loss_changes":[2.1613345E0,3.3953738E0,7.5772035E-1,1.06875E0,6.9513893E-1,5.04243E-1,1.4349519E0,5.590278E-1,2.3779168E0,0E0,0E0,8.32E-1,3.424244E-1,5.027565E-1,0E0,0E0,1.5867941E0,1.2535832E0,5.1504767E-1,0E0,0E0,2.4757731E-1,1.9666666E-1,0E0,0E0,0E0,0E0,0E0,0E0,0E0,0E0,0E0,0E0,0E0,0E0],"parents":[2147483647,0,0,1,1,2,2,3,3,4,4,5,5,6,6,7,7,8,8,11,11,12,12,13,13,16,16,17,17,18,18,21,21,22,22],"right_children":[2,4,6,8,10,12,14,16,18,-1,-1,20,22,24,-1,-1,26,28,30,-1,-1,32,34,-1,-1,-1,-1,-1,-1,-1,-1,-1,-1,-1,-1],"split_conditions":[-1.7307123E2,1.202E2,1.25E2,5.85E1,1.03E2,6.584553E0,3.637944E1,8.52582E0,1.1246154E2,-6.191788E-2,2.1058503E-1,1.201E2,6.909085E1,1.0133929E2,4.9581033E-1,-7.701949E-2,3.4018913E1,2.71E1,1.07E2,2.717106E-1,-1.1851578E-1,1.125E2,1.191E2,3.32959E-1,-1.9191302E-2,-2.2446444E-2,3.7158737E-1,-3.815193E-2,5.0511247E-1,2.0804253E-1,-3.732776E-2,6.273041E-2,-1.1716638E-1,-8.947479E-1,1.3640213E-2],"split_indices":[79,41,127,43,8,29,57,29,70,0,0,33,24,4,0,0,57,63,64,0,0,139,0,0,0,0,0,0,0,0,0,0,0,0,0],"split_type":[0,0,0,0,0,0,0,0,0,0,0,0,0,0,0,0,0,0,0,0,0,0,0,0,0,0,0,0,0,0,0,0,0,0,0],"sum_hessian":[4.71E2,1.21E2,3.5E2,1.13E2,8E0,3.35E2,1.5E1,9E1,2.3E1,1E0,7E0,6E0,3.29E2,1.2E1,3E0,3.5E1,5.5E1,9E0,1.4E1,2E0,4E0,3.27E2,2E0,1E0,1.1E1,3.9E1,1.6E1,2E0,7E0,1E0,1.3E1,3E0,3.24E2,1E0,1E0],"tree_param":{"num_deleted":"0","num_feature":"140","num_nodes":"35","size_leaf_vector":"1"}},{"base_weights":[-1.7011518E-2,1.2830186E-1,-3.7075743E-2,-2.5000023E-2,2.884615E-1,-5.3963438E-2,6.2499978E-2,-5.925928E-2,2.2499999E-2,-4.444446E-3,4.611111E-1,2.4999999E-1,-5.9442747E-2,2.033333E-1,-4.814816E-3,2.2499999E-2,-4.8076934E-3,6.7692304E-1,-4.166668E-3,-3.7500008E-3,3E-2,-6.2422384E-2,2.2499999E-2,7.083331E-2,6.285714E-1,-3.3333343E-3,4.0909093E-2,2.2499999E-2,-3.271029E-3,3E-2,-2.2727386E-4,-2.5000006E-3,3.75E-2],"categories":[],"categories_nodes":[],"categories_segments":[],"categories_sizes":[],"default_left":[0,0,0,0,0,0,0,0,0,0,0,0,0,0,0,0,0,0,0,0,0,0,0,0,0,0,0,0,0,0,0,0,0],"id":11,"left_children":[1,3,5,7,9,11,13,15,-1,-1,17,19,21,23,-1,-1,-1,25,-1,-1,-1,27,-1,29,31,-1,-1,-1,-1,-1,-1,-1,-1],"loss_changes":[1.273043E0,1.3085086E0,6.4742726E-1,4.8231483E-1,1.7348719E0,5.6114787E-1,1.2719537E0,5.505698E-1,0E0,0E0,2.1713672E0,7.2749996E-1,5.183892E-1,1.6457977E0,0E0,0E0,0E0,1.4200463E0,0E0,0E0,0E0,5.241424E-1,0E0,9.600379E-1,6.142857E-1,0E0,0E0,0E0,0E0,0E0,0E0,0E0,0E0],"parents":[2147483647,0,0,1,1,2,2,3,3,4,4,5,5,6,6,7,7,10,10,11,11,12,12,13,13,17,17,21,21,23,23,24,24],"right_children":[2,4,6,8,10,12,14,16,-1,-1,18,20,22,24,-1,-1,-1,26,-1,-1,-1,28,-1,30,32,-1,-1,-1,-1,-1,-1,-1,-1],"split_conditions":[1.0823607E2,5.82E1,5.8E1,5.0208335E0,1.0254464E2,9.9E1,1.1328622E2,-2.5E1,5.245209E-4,-2.424164E-2,1.201E2,4.5E1,1.46E2,5.62E1,-1.0035514E-1,6.7596434E-4,-3.8127836E-2,5.3092037E1,-4.693642E-2,-4.6183166E-1,3.1631088E-1,-8.734307E0,2.000557E-1,-9.571428E0,1.065E2,-1.953167E-1,3.2846555E-1,3.8105395E-2,-9.612735E-2,1.8906517E-1,1.13041915E-1,-3.7138557E-1,5.193554E-1],"split_indices":[5,42,34,23,36,45,5,81,0,0,33,2,70,43,0,0,0,56,0,0,0,83,0,123,8,0,0,0,0,0,0,0,0],"split_type":[0,0,0,0,0,0,0,0,0,0,0,0,0,0,0,0,0,0,0,0,0,0,0,0,0,0,0,0,0,0,0,0,0],"sum_hessian":[4.34E2,5.2E1,3.82E2,2.7E1,2.5E1,3.27E2,5.5E1,2.6E1,1E0,8E0,1.7E1,5E0,3.22E2,2.9E1,2.6E1,1E0,2.5E1,1.2E1,5E0,3E0,2E0,3.21E2,1E0,2.3E1,6E0,2E0,1E1,1E0,3.2E2,2E0,2.1E1,1E0,5E0],"tree_param":{"num_deleted":"0","num_feature":"140","num_nodes":"33","size_leaf_vector":"1"}},{"base_weights":[3.28945E-3,9.917353E-2,-3.1250022E-2,6.017697E-2,5.7777774E-1,-3.4029875E-2,2.2499999E-2,3.6363634E-1,2.7184442E-2,3.857143E-2,-3.3333343E-3,-8.346459E-2,-3.827775E-3,-4.166668E-3,3.75E-2,-4.8717964E-3,1.01538435E-1,-9.1269866E-2,2.2499999E-2,2.7272725E-1,-1.90955E-2,-4.7916677E-3,1.0595237E-2,-4.958335E-3,2.857142E-3,3.3749998E-2,1.874999E-3,-1.4030625E-3,2.125E-2],"categories":[],"categories_nodes":[],"categories_segments":[],"categories_sizes":[],"default_left":[0,0,0,0,0,0,0,0,0,0,0,0,0,0,0,0,0,0,0,0,0,0,0,0,0,0,0,0,0],"id":12,"left_children":[1,3,5,7,9,11,-1,13,15,-1,-1,17,19,-1,-1,-1,21,23,-1,25,27,-1,-1,-1,-1,-1,-1,-1,-1],"loss_changes":[1.5132735E0,2.223565E0,4.648153E-1,1.1214583E0,1.174603E0,4.9984634E-1,0E0,1.9621212E0,9.6429366E-1,0E0,0E0,5.6987876E-1,8.876825E-1,0E0,0E0,0E0,1.4362153E0,1.5333724E-1,0E0,1.0155681E0,8.0427396E-1,0E0,0E0,0E0,0E0,0E0,0E0,0E0,0E0],"parents":[2147483647,0,0,1,1,2,2,3,3,4,4,5,5,7,7,8,8,11,11,12,12,16,16,17,17,19,19,20,20],"right_children":[2,4,6,8,10,12,-1,14,16,-1,-1,18,20,-1,-1,-1,22,24,-1,26,28,-1,-1,-1,-1,-1,-1,-1,-1],"split_conditions":[-1.7307123E2,1.2035272E2,6.66E1,1.0102679E2,1.228E2,5.5666668E1,3.0049515E-1,3.0338247E1,5.315633E1,1.7726593E-1,-4.2069513E-1,1.212E2,-3.256021E2,-1.5195084E-2,2.5096473E-1,-5.1299352E-2,4E0,1.8169377E3,1.8341065E-3,1.0107143E2,3.152174E0,-5.3876072E-2,2.8082335E-1,-1.8093498E-1,1.8341065E-3,2.8285637E-1,4.8295593E-1,-2.0103237E-2,4.7582626E-1],"split_indices":[79,131,15,74,40,42,0,25,56,0,0,40,121,0,0,0,50,77,0,4,22,0,0,0,0,0,0,0,0],"split_type":[0,0,0,0,0,0,0,0,0,0,0,0,0,0,0,0,0,0,0,0,0,0,0,0,0,0,0,0,0],"sum_hessian":[4.55E2,1.2E2,3.35E2,1.12E2,8E0,3.34E2,1E0,1E1,1.02E2,6E0,2E0,1.26E2,2.08E2,5E0,5E0,3.8E1,6.4E1,1.25E2,1E0,1E1,1.98E2,2.3E1,4.1E1,1.19E2,6E0,3E0,7E0,1.95E2,3E0],"tree_param":{"num_deleted":"0","num_feature":"140","num_nodes":"29","size_leaf_vector":"1"}},{"base_weights":[-4.0089325E-3,-1.783135E-2,1.5999998E-1,-6.094423E-2,3.7158445E-2,3.333333E-1,-4.666668E-3,3.4285712E-1,-7.312778E-2,1.1695882E-2,3.6923075E-1,1.5624997E-1,3.75E-2,-3.7500008E-3,3.3749998E-2,2.2499999E-2,-7.743365E-2,-3.0000024E-2,1.4047617E-1,3.75E-2,3.749998E-2,-4.444446E-3,4.1249996E-1,3.749999E-3,-4.279071E-3,-2.8389844E-3,1.0769229E-2,8.5714174E-4,3.3125E-2,2.2499999E-2,-4.285715E-3,3.6E-2,-3.7500008E-3],"categories":[],"categories_nodes":[],"categories_segments":[],"categories_sizes":[],"default_left":[0,0,0,0,0,0,0,0,0,0,0,0,0,0,0,0,0,0,0,0,0,0,0,0,0,0,0,0,0,0,0,0,0],"id":13,"left_children":[1,3,5,7,9,11,-1,13,15,17,19,21,-1,-1,-1,-1,23,25,27,-1,29,-1,31,-1,-1,-1,-1,-1,-1,-1,-1,-1,-1],"loss_changes":[1.0207359E0,9.8613346E-1,1.5680001E0,1.17137E0,1.5430219E0,1.4322915E0,0E0,1.0221429E0,5.4616773E-1,9.224177E-1,1.6139423E0,1.041736E0,0E0,0E0,0E0,0E0,2.8710926E-1,8.665007E-1,2.6927261E0,0E0,4.4517857E-1,0E0,1.25325E0,0E0,0E0,0E0,0E0,0E0,0E0,0E0,0E0,0E0,0E0],"parents":[2147483647,0,0,1,1,2,2,3,3,4,4,5,5,7,7,8,8,9,9,10,10,11,11,16,16,17,17,18,18,20,20,22,22],"right_children":[2,4,6,8,10,12,-1,14,16,18,20,22,-1,-1,-1,-1,24,26,28,-1,30,-1,32,-1,-1,-1,-1,-1,-1,-1,-1,-1,-1],"split_conditions":[1.24294044E2,5.81E1,1.157E2,1.163E2,1.0857142E1,3.641902E1,-6.0095824E-2,1.148E2,7.106599E-2,3.7243793E1,5.83E1,1.147E2,4.5203477E-1,-1.315342E-1,4.5880815E-1,2.5405884E-2,1.15068495E-1,6.13E1,5.88E1,4.9439278E-1,1.144E2,-1.4952622E-1,1.27E2,2.6199338E-3,-1.081114E-1,-3.8540088E-2,1.6331942E-1,8.70056E-3,2.4682312E-1,3.8894655E-3,-4.79422E-1,2.8547058E-1,-1.988083E-1],"split_indices":[129,46,32,138,123,57,0,1,28,57,14,32,0,0,0,0,60,14,15,0,1,0,9,0,0,0,0,0,0,0,0,0,0],"split_type":[0,0,0,0,0,0,0,0,0,0,0,0,0,0,0,0,0,0,0,0,0,0,0,0,0,0,0,0,0,0,0,0,0],"sum_hessian":[4.48E2,4.14E2,3.4E1,2.32E2,1.82E2,2E1,1.4E1,6E0,2.26E2,1.7E2,1.2E1,1.5E1,5E0,3E0,3E0,1E0,2.25E2,1.29E2,4.1E1,5E0,7E0,8E0,7E0,1.1E1,2.14E2,1.17E2,1.2E1,3.4E1,7E0,1E0,6E0,4E0,3E0],"tree_param":{"num_deleted":"0","num_feature":"140","num_nodes":"33","size_leaf_vector":"1"}},{"base_weights":[-1.6629238E-2,7.583331E-2,-5.0613523E-2,-2.0779245E-2,2.431818E-1,-5.3538486E-2,2.2499999E-2,2.0999998E-1,-5.4411788E-2,4.842105E-1,5.7692286E-2,-5.6481507E-2,2.2499999E-2,5.2E-1,-4.166668E-3,2.2499999E-2,-6.865674E-2,6.9285715E-1,-4.166668E-3,5.2E-1,-5.0000023E-2,2.2499999E-2,-5.9442747E-2,3.3749998E-2,-2.5000006E-3,2.2499999E-2,-4.166668E-3,8.749999E-3,4.0909093E-2,-2.5000006E-3,3.3749998E-2,-4.761906E-3,2.2499999E-2,2.9687488E-3,-3.613015E-3],"categories":[],"categories_nodes":[],"categories_segments":[],"categories_sizes":[],"default_left":[0,0,0,0,0,0,0,0,0,0,0,0,0,0,0,0,0,0,0,0,0,0,0,0,0,0,0,0,0,0,0,0,0,0,0],"id":14,"left_children":[1,3,5,7,9,11,-1,13,15,17,19,21,-1,23,-1,-1,25,27,-1,29,31,-1,33,-1,-1,-1,-1,-1,-1,-1,-1,-1,-1,-1,-1],"loss_changes":[1.4021498E0,1.9452087E0,5.014466E-1,6.090768E-1,1.9392297E0,5.07042E-1,0E0,9.5266664E-1,5.194974E-1,2.3076444E0,1.3204615E0,5.126891E-1,0E0,4.755E-1,0E0,0E0,5.475125E-1,7.654214E-1,0E0,4.755E-1,5.404762E-1,0E0,4.9620402E-1,0E0,0E0,0E0,0E0,0E0,0E0,0E0,0E0,0E0,0E0,0E0,0E0],"parents":[2147483647,0,0,1,1,2,2,3,3,4,4,5,5,7,7,8,8,9,9,10,10,11,11,13,13,16,16,17,17,19,19,20,20,22,22],"right_children":[2,4,6,8,10,12,-1,14,16,18,20,22,-1,24,-1,-1,26,28,-1,30,32,-1,34,-1,-1,-1,-1,-1,-1,-1,-1,-1,-1,-1,-1],"split_conditions":[-1.8714291E2,3.521627E1,6.66E1,4.3E1,3E1,9E0,2.7119714E-1,2.7058825E-1,7.106599E-2,6.11E1,5.42E1,5.2E0,4.246521E-2,1.286E2,-5.26886E-3,2.413559E-2,1.158E2,1.144E2,-1.4010277E-1,5.52E1,6.78E1,4.2943308E-1,-1.2925577E1,3.088215E-1,-2.2112428E-1,1.0279427E-1,-1.926598E-2,1.7246933E-1,2.9762024E-1,-7.2033805E-1,3.4974176E-1,-1.02714695E-1,7.9085164E-2,9.8681375E-2,-4.38718E-2],"split_indices":[79,57,15,34,27,16,0,7,28,15,42,27,0,9,0,0,139,1,0,10,11,0,135,0,0,0,0,0,0,0,0,0,0,0,0],"split_type":[0,0,0,0,0,0,0,0,0,0,0,0,0,0,0,0,0,0,0,0,0,0,0,0,0,0,0,0,0,0,0,0,0,0,0],"sum_hessian":[4.44E2,1.19E2,3.25E2,7.6E1,4.3E1,3.24E2,1E0,9E0,6.7E1,1.8E1,2.5E1,3.23E2,1E0,4E0,5E0,1E0,6.6E1,1.3E1,5E0,4E0,2.1E1,1E0,3.22E2,3E0,1E0,1E0,6.5E1,3E0,1E1,1E0,3E0,2E1,1E0,3.1E1,2.91E2],"tree_param":{"num_deleted":"0","num_feature":"140","num_nodes":"35","size_leaf_vector":"1"}},{"base_weights":[-2.302634E-2,-3.2949332E-2,1.6521737E-1,-3.88759E-2,2.8749996E-1,-2.666669E-2,4.6666664E-1,-6.253872E-2,3.428569E-2,3.3749998E-2,-4.000001E-3,-4.6428586E-3,2.2499999E-2,3.75E-2,-3.7500008E-3,-2.6219536E-2,-4.968751E-3,-3.6250025E-2,2.4999997E-1,-1.8633552E-3,2.125E-2,-3.0128218E-3,3E-2,2.3928571E-2,-7.692319E-4],"categories":[],"categories_nodes":[],"categories_segments":[],"categories_sizes":[],"default_left":[0,0,0,0,0,0,0,0,0,0,0,0,0,0,0,0,0,0,0,0,0,0,0,0,0],"id":15,"left_children":[1,3,5,7,9,11,13,15,17,-1,-1,-1,-1,-1,-1,19,-1,21,23,-1,-1,-1,-1,-1,-1],"loss_changes":[8.572248E-1,8.354145E-1,1.3428404E0,7.413706E-1,1.1932501E0,5.1504767E-1,1.4375001E0,4.2952466E-1,1.6066966E0,0E0,0E0,0E0,0E0,0E0,0E0,8.3335865E-1,0E0,1.2580801E0,1.5845056E0,0E0,0E0,0E0,0E0,0E0,0E0],"parents":[2147483647,0,0,1,1,2,2,3,3,4,4,5,5,6,6,7,7,8,8,15,15,17,17,18,18],"right_children":[2,4,6,8,10,12,14,16,18,-1,-1,-1,-1,-1,-1,20,-1,22,24,-1,-1,-1,-1,-1,-1],"split_conditions":[6.56E1,8E0,4.148148E0,1.1434783E1,5.725E1,4.445956E1,8.16E1,7.86E1,5.95E1,4.3806115E-1,-1.026577E-1,-1.3693622E-1,6.871567E-2,3.322548E-1,-3.3175012E-1,7.825E1,-1.930066E-1,1.2298374E1,7.3345375E1,-5.817383E-3,1.9065629E-1,-5.0275046E-2,2.8501055E-1,2.0598403E-1,1.7957786E-1],"split_indices":[11,16,55,21,14,25,58,26,46,0,0,0,0,0,0,26,0,61,79,0,0,0,0,0,0],"split_type":[0,0,0,0,0,0,0,0,0,0,0,0,0,0,0,0,0,0,0,0,0,0,0,0,0],"sum_hessian":[4.55E2,4.33E2,2.2E1,4.26E2,7E0,1.4E1,8E0,3.22E2,1.04E2,3E0,4E0,1.3E1,1E0,5E0,3E0,1.63E2,1.59E2,7.9E1,2.5E1,1.6E2,3E0,7.7E1,2E0,1.3E1,1.2E1],"tree_param":{"num_deleted":"0","num_feature":"140","num_nodes":"25","size_leaf_vector":"1"}},{"base_weights":[-2.3732742E-2,3E-2,-2.8009282E-2,5.3389806E-2,-5.8412723E-2,2.3684187E-2,3.6E-2,-6.146499E-2,2.2499999E-2,-6.9565244E-2,1.6304345E-1,-6.4536765E-2,2.2499999E-2,-4.916668E-3,5.499999E-3,-2.3809536E-3,1.6346153E-2,9.999999E-3,-3.5179164E-3],"categories":[],"categories_nodes":[],"categories_segments":[],"categories_sizes":[],"default_left":[0,0,0,0,0,0,0,0,0,0,0,0,0,0,0,0,0,0,0],"id":16,"left_children":[1,-1,3,5,7,9,-1,11,-1,13,15,17,-1,-1,-1,-1,-1,-1,-1],"loss_changes":[1.1744651E0,0E0,1.0722376E0,2.3195913E0,5.164802E-1,1.4927919E0,0E0,5.2236843E-1,0E0,3.672536E-1,1.6036391E0,4.960971E-1,0E0,0E0,0E0,0E0,0E0,0E0,0E0],"parents":[2147483647,0,0,2,2,3,3,4,4,5,5,7,7,9,9,10,10,11,11],"right_children":[2,-1,4,6,8,10,-1,12,-1,14,16,18,-1,-1,-1,-1,-1,-1,-1],"split_conditions":[7.106599E-2,4.0825197E-1,-1.8714291E2,1.238E2,6.62E1,1.1498402E2,1.5485726E-1,9E0,2.4102478E-1,1.1851064E1,3E0,1.24E1,1.8438721E-2,-2.2084476E-2,2.6481014E-1,-1.6760522E-2,2.6379582E-1,1.2591171E-2,-8.87474E-2],"split_indices":[28,0,79,41,15,37,0,16,0,53,68,27,0,0,0,0,0,0,0],"split_type":[0,0,0,0,0,0,0,0,0,0,0,0,0,0,0,0,0,0,0],"sum_hessian":[4.33E2,2E0,4.31E2,1.17E2,3.14E2,1.13E2,4E0,3.13E2,1E0,6.8E1,4.5E1,3.12E2,1E0,5.9E1,9E0,2E1,2.5E1,6E0,3.06E2],"tree_param":{"num_deleted":"0","num_feature":"140","num_nodes":"19","size_leaf_vector":"1"}},{"base_weights":[-1.6063372E-2,-2.9710168E-2,1.7931032E-1,3.689318E-2,-5.1602587E-2,5.7777774E-1,-2.2706532E-8,1.0999977E-2,3.3749998E-2,2.2499999E-2,-5.4662403E-2,-3.3333343E-3,3.857143E-2,2.4999999E-1,-4.687501E-3,-3.703706E-2,2.0499998E-1,3.921566E-2,-7.2796956E-2,-3.7500008E-3,3E-2,-2.4375012E-3,2.2499999E-2,3.3749998E-2,4.1176463E-3,2.0408047E-4,3E-2,2.2499999E-2,-3.8269244E-3],"categories":[],"categories_nodes":[],"categories_segments":[],"categories_sizes":[],"default_left":[0,0,0,0,0,0,0,0,0,0,0,0,0,0,0,0,0,0,0,0,0,0,0,0,0,0,0,0,0],"id":17,"left_children":[1,3,5,7,9,11,13,15,-1,-1,17,-1,-1,19,-1,21,23,25,27,-1,-1,-1,-1,-1,-1,-1,-1,-1,-1],"loss_changes":[1.1837988E0,6.0556066E-1,2.0720305E0,1.6944058E0,5.0345916E-1,1.174603E0,5.1562506E-1,9.395111E-1,0E0,0E0,5.3231275E-1,0E0,0E0,7.2749996E-1,0E0,4.840139E-1,1.0972942E0,1.002385E0,5.449736E-1,0E0,0E0,0E0,0E0,0E0,0E0,0E0,0E0,0E0,0E0],"parents":[2147483647,0,0,1,1,2,2,3,3,4,4,5,5,6,6,7,7,10,10,13,13,15,15,16,16,17,17,18,18],"right_children":[2,4,6,8,10,12,14,16,-1,-1,18,-1,-1,20,-1,22,24,26,28,-1,-1,-1,-1,-1,-1,-1,-1,-1,-1],"split_conditions":[1.25E2,-1.8714291E2,1.263E2,1.24E2,4.64E1,2.2173913E0,-3.8819602E0,5.8771755E1,1.4711456E-1,6.8309787E-3,2.15E1,-4.7278978E-2,3.0245247E-1,5.48E1,-6.83208E-2,5.0588236E0,-4E0,6.7E1,2.3E1,-2.0211677E-1,3.8783953E-1,-1.0149773E-2,1.6207008E-1,4.3164977E-1,2.0370868E-1,2.8022267E-3,8.533097E-3,3.5629273E-4,-1.07296765E-1],"split_indices":[13,79,13,41,10,22,84,24,0,0,59,0,0,10,0,23,125,2,63,0,0,0,0,0,0,0,0,0,0],"split_type":[0,0,0,0,0,0,0,0,0,0,0,0,0,0,0,0,0,0,0,0,0,0,0,0,0,0,0,0,0],"sum_hessian":[4.41E2,4.13E2,2.8E1,1.02E2,3.11E2,8E0,2E1,9.9E1,3E0,1E0,3.1E2,2E0,6E0,5E0,1.5E1,8E1,1.9E1,5E1,2.6E2,3E0,2E0,7.9E1,1E0,3E0,1.6E1,4.8E1,2E0,1E0,2.59E2],"tree_param":{"num_deleted":"0","num_feature":"140","num_nodes":"29","size_leaf_vector":"1"}},{"base_weights":[-1.5000024E-2,-4.2296097E-2,5.461536E-2,-4.786588E-2,4.2499998E-1,1.9374998E-1,-2.6506048E-2,2.4999999E-1,-5.3250797E-2,3E-2,-2.5000006E-3,-4.7368435E-3,3.6999997E-1,-5.9740283E-2,3.4285712E-1,3E-2,-3.7500008E-3,-5.6211203E-2,2.2499999E-2,4.8749998E-1,-4.285715E-3,1.8181816E-1,-4.9253744E-3,3.3749998E-2,-3.7500008E-3,8.124999E-3,-3.0793664E-3,2.857142E-3,3.138889E-2,-4.285715E-3,2.5999999E-2],"categories":[],"categories_nodes":[],"categories_segments":[],"categories_sizes":[],"default_left":[0,0,0,0,0,0,0,0,0,0,0,0,0,0,0,0,0,0,0,0,0,0,0,0,0,0,0,0,0,0,0],"id":18,"left_children":[1,3,5,7,9,11,13,15,17,-1,-1,-1,19,21,23,-1,-1,25,-1,27,-1,29,-1,-1,-1,-1,-1,-1,-1,-1,-1],"loss_changes":[8.7641424E-1,8.8184893E-1,1.4724191E0,5.3941953E-1,3.6249995E-1,2.4756513E0,1.0393491E0,7.2749996E-1,5.0650907E-1,0E0,0E0,0E0,1.6481786E0,7.389804E-1,1.0221429E0,0E0,0E0,3.886212E-1,0E0,1.4129963E0,0E0,1.0397922E0,0E0,0E0,0E0,0E0,0E0,0E0,0E0,0E0,0E0],"parents":[2147483647,0,0,1,1,2,2,3,3,4,4,5,5,6,6,7,7,8,8,12,12,13,13,14,14,17,17,19,19,21,21],"right_children":[2,4,6,8,10,12,14,16,18,-1,-1,-1,20,22,24,-1,-1,26,-1,28,-1,30,-1,-1,-1,-1,-1,-1,-1,-1,-1],"split_conditions":[1.1375E1,2.9777777E0,1.17E1,4.888889E1,1.172E2,1.3392857E-1,1.25E2,2.91E1,1.2728571E2,2.1385078E-1,-1.1592544E0,-6.2285643E-3,1.168909E2,7.2333336E1,9.54E1,5.2376177E-2,-5.861416E-1,4.82E1,1.8823738E-1,-1.3333334E0,-6.481743E-1,7.4E1,-9.456631E-2,2.6652986E-1,-5.117287E-1,1.909256E-1,-5.6311425E-2,2.1796418E-2,3.915945E-1,-8.77224E-2,2.5647545E-1],"split_indices":[21,22,21,47,8,75,70,31,64,0,0,0,79,26,26,0,0,11,0,123,0,58,0,0,0,0,0,0,0,0,0],"split_type":[0,0,0,0,0,0,0,0,0,0,0,0,0,0,0,0,0,0,0,0,0,0,0,0,0,0,0,0,0,0,0],"sum_hessian":[4.59E2,3.3E2,1.29E2,3.27E2,3E0,4.7E1,8.2E1,5E0,3.22E2,2E0,1E0,1.8E1,2.9E1,7.6E1,6E0,2E0,3E0,3.21E2,1E0,2.3E1,6E0,1E1,6.6E1,3E0,3E0,7E0,3.14E2,6E0,1.7E1,6E0,4E0],"tree_param":{"num_deleted":"0","num_feature":"140","num_nodes":"31","size_leaf_vector":"1"}},{"base_weights":[-3.3111136E-2,-3.896399E-2,3.4285712E-1,-4.3083925E-2,4.2499998E-1,3.3749998E-2,-3.7500008E-3,-4.9637696E-3,-1.7434234E-2,3E-2,-2.5000006E-3,7.7027E-2,-4.761907E-2,6.349195E-4,2.0416666E-2,2.499999E-3,-3.848316E-3],"categories":[],"categories_nodes":[],"categories_segments":[],"categories_sizes":[],"default_left":[0,0,0,0,0,0,0,0,0,0,0,0,0,0,0,0,0],"id":19,"left_children":[1,3,5,7,9,-1,-1,-1,11,-1,-1,13,15,-1,-1,-1,-1],"loss_changes":[1.0035782E0,8.670176E-1,1.0221429E0,6.338796E-1,3.6249995E-1,0E0,0E0,0E0,8.7046224E-1,0E0,0E0,1.5719383E0,6.656287E-1,0E0,0E0,0E0,0E0],"parents":[2147483647,0,0,1,1,2,2,3,3,4,4,8,8,11,11,12,12],"right_children":[2,4,6,8,10,-1,-1,-1,12,-1,-1,14,16,-1,-1,-1,-1],"split_conditions":[6.8E1,5.22E1,6.9E1,2.79E1,1.15E2,2.6775017E-1,-3.0449373E-1,-9.37091E-2,2.77E1,1.7882538E-1,-5.511036E-1,2.8857143E0,-6.425887E0,1.7638726E-2,4.067572E-1,3.6222488E-2,-5.270341E-2],"split_indices":[11,27,11,62,0,0,0,0,63,0,0,22,118,0,0,0,0],"split_type":[0,0,0,0,0,0,0,0,0,0,0,0,0,0,0,0,0],"sum_hessian":[4.49E2,4.43E2,6E0,4.4E2,3E0,3E0,3E0,1.37E2,3.03E2,2E0,1E0,7.3E1,2.3E2,6.2E1,1.1E1,5.3E1,1.77E2],"tree_param":{"num_deleted":"0","num_feature":"140","num_nodes":"17","size_leaf_vector":"1"}},{"base_weights":[-2.7729282E-2,4.259257E-2,-6.599329E-2,-5.3731367E-2,1.0937498E-1,-6.925678E-2,2.2499999E-2,-4.9038474E-3,9.374998E-2,5.3749996E-1,6.96629E-2,-7.2449006E-2,2.6666665E-1,5.2E-1,-4.5833346E-3,3.75E-2,-3.3333343E-3,4.235292E-2,5.2E-1,7.499998E-2,-7.8445256E-2,-2.5000006E-3,2.2499999E-2,-2.5000006E-3,3.3749998E-2,3E-2,1.0843362E-3,3.3749998E-2,-2.5000006E-3,-4.444446E-3,2.125E-2,3.076922E-3,-4.243544E-3],"categories":[],"categories_nodes":[],"categories_segments":[],"categories_sizes":[],"default_left":[0,0,0,0,0,0,0,0,0,0,0,0,0,0,0,0,0,0,0,0,0,0,0,0,0,0,0,0,0,0,0,0,0],"id":20,"left_children":[1,3,5,7,9,11,-1,-1,13,15,17,19,21,23,-1,-1,-1,25,27,29,31,-1,-1,-1,-1,-1,-1,-1,-1,-1,-1,-1,-1],"loss_changes":[1.2351954E0,1.0479815E0,5.312954E-1,4.4738448E-1,1.5947225E0,3.3673322E-1,0E0,0E0,1.3122084E0,1.0770833E0,1.0725605E0,2.6582086E-1,1.9666666E-1,4.755E-1,0E0,0E0,0E0,9.6656555E-1,4.755E-1,7.261112E-1,2.5977635E-1,0E0,0E0,0E0,0E0,0E0,0E0,0E0,0E0,0E0,0E0,0E0,0E0],"parents":[2147483647,0,0,1,1,2,2,3,3,4,4,5,5,8,8,9,9,10,10,11,11,12,12,13,13,17,17,18,18,19,19,20,20],"right_children":[2,4,6,8,10,12,-1,-1,14,16,18,20,22,24,-1,-1,-1,26,28,30,32,-1,-1,-1,-1,-1,-1,-1,-1,-1,-1,-1,-1],"split_conditions":[-9.937481E1,8.52582E0,6.66E1,1.258E2,-1.6E1,1.306E2,1.897705E-1,-2.0264376E-2,1.11E2,5.7151516E1,6.266302E1,4.82E1,1.16E2,1.082E2,-1.4933555E-2,2.8158647E-1,-1.6810302E-1,2.388889E1,1.156E2,9.85E1,-1.5919758E1,-6.557663E-1,3.470566E-1,-1.3373338E-1,2.4833718E-1,1.1973228E-1,7.094525E-3,4.1200104E-1,-5.799927E-1,-2.3342209E-1,1.8049736E-1,1.8290478E-1,-1.09458424E-1],"split_indices":[79,29,15,9,81,9,0,0,12,24,24,11,1,8,0,0,0,31,1,9,135,0,0,0,0,0,0,0,0,0,0,0,0],"split_type":[0,0,0,0,0,0,0,0,0,0,0,0,0,0,0,0,0,0,0,0,0,0,0,0,0,0,0,0,0,0,0,0,0],"sum_hessian":[4.57E2,1.61E2,2.96E2,6.6E1,9.5E1,2.95E2,1E0,5.1E1,1.5E1,7E0,8.8E1,2.93E2,2E0,4E0,1.1E1,5E0,2E0,8.4E1,4E0,1.1E1,2.82E2,1E0,1E0,1E0,3E0,2E0,8.2E1,3E0,1E0,8E0,3E0,1.2E1,2.7E2],"tree_param":{"num_deleted":"0","num_feature":"140","num_nodes":"33","size_leaf_vector":"1"}},{"base_weights":[-2.2198299E-2,-2.8043503E-2,5.2E-1,-9.083336E-2,-5.8651264E-3,3.3749998E-2,-2.5000006E-3,2.2499999E-2,-4.9579847E-3,1.05084725E-1,-2.897529E-2,4.8571426E-1,5.2830167E-2,1.8333331E-1,-4.3233108E-2,-3.3333343E-3,3.6E-2,-4.800001E-3,8.965516E-3,2.6874999E-2,-4.545456E-3,-2.3396239E-3,2.2499999E-2],"categories":[],"categories_nodes":[],"categories_segments":[],"categories_sizes":[],"default_left":[0,0,0,0,0,0,0,0,0,0,0,0,0,0,0,0,0,0,0,0,0,0,0],"id":21,"left_children":[1,3,5,7,9,-1,-1,-1,-1,11,13,15,17,19,21,-1,-1,-1,-1,-1,-1,-1,-1],"loss_changes":[1.4851186E0,6.400527E-1,4.755E-1,5.8500075E-1,8.773924E-1,0E0,0E0,0E0,0E0,1.1478277E0,8.6458325E-1,9.539046E-1,1.0148892E0,1.7971592E0,4.8804596E-1,0E0,0E0,0E0,0E0,0E0,0E0,0E0,0E0],"parents":[2147483647,0,0,1,1,2,2,3,3,4,4,9,9,10,10,11,11,12,12,13,13,14,14],"right_children":[2,4,6,8,10,-1,-1,-1,-1,12,14,16,18,20,22,-1,-1,-1,-1,-1,-1,-1,-1],"split_conditions":[6.8E1,9.954545E0,1.2E2,4.3891346E1,1.137E2,2.833622E-1,-8.9112395E-1,1.2966919E-2,-6.0674466E-2,2.0560747E-1,1.0113208E1,1.107E2,3.21982E1,1.1527273E2,9E0,-7.61264E-1,2.367897E-1,-9.5737465E-3,1.6192193E-1,3.914009E-1,-2.6291529E-2,-6.684895E-2,7.955551E-3],"split_indices":[11,21,8,56,0,0,0,0,0,28,21,13,25,69,16,0,0,0,0,0,0,0,0],"split_type":[0,0,0,0,0,0,0,0,0,0,0,0,0,0,0,0,0,0,0,0,0,0,0],"sum_hessian":[4.63E2,4.59E2,4E0,1.19E2,3.4E2,3E0,1E0,1E0,1.18E2,5.8E1,2.82E2,6E0,5.2E1,1.7E1,2.65E2,2E0,4E0,2.4E1,2.8E1,7E0,1E1,2.64E2,1E0],"tree_param":{"num_deleted":"0","num_feature":"140","num_nodes":"23","size_leaf_vector":"1"}},{"base_weights":[-8.258953E-3,-1.3995509E-2,4.1666666E-1,3.0869542E-2,-6.214956E-2,-3.3333343E-3,3.3749998E-2,-4.5161314E-2,8.1884034E-2,-7.038838E-2,1.3333331E-1,-7.5000025E-2,2.0999998E-1,3.733333E-1,4.5967717E-2,2.4242401E-2,-8.793106E-2,3E-2,-4.285715E-3,1.3333333E-2,-4.3292693E-3,-4.285715E-3,3.3749998E-2,3.3125E-2,1.874999E-3,1.8691471E-4,1.4722221E-2,-4.814816E-3,2.4285713E-2,-4.680234E-3,1.3333333E-2],"categories":[],"categories_nodes":[],"categories_segments":[],"categories_sizes":[],"default_left":[0,0,0,0,0,0,0,0,0,0,0,0,0,0,0,0,0,0,0,0,0,0,0,0,0,0,0,0,0,0,0],"id":22,"left_children":[1,3,5,7,9,-1,-1,11,13,15,17,19,21,23,25,27,29,-1,-1,-1,-1,-1,-1,-1,-1,-1,-1,-1,-1,-1,-1],"loss_changes":[1.0978807E0,9.589907E-1,7.9416656E-1,8.9579344E-1,3.5404235E-1,0E0,0E0,7.238226E-1,1.427393E0,3.4410775E-1,9.714285E-1,3.5558942E-1,1.4329286E0,1.4318333E0,1.3000348E0,1.882405E0,3.7502348E-1,0E0,0E0,0E0,0E0,0E0,0E0,0E0,0E0,0E0,0E0,0E0,0E0,0E0,0E0],"parents":[2147483647,0,0,1,1,2,2,3,3,4,4,7,7,8,8,9,9,10,10,11,11,12,12,13,13,14,14,15,15,16,16],"right_children":[2,4,6,8,10,-1,-1,12,14,16,18,20,22,24,26,28,30,-1,-1,-1,-1,-1,-1,-1,-1,-1,-1,-1,-1,-1,-1],"split_conditions":[6.8E1,1.1272696E2,5.95E1,3E0,6.598692E1,-8.465679E-1,2.6919404E-1,1.234E2,5.475E1,2.73E1,5.7E1,4.6116943E1,2.508772E0,3.46E1,3E0,5.9E1,1.2985715E2,1.6385193E-1,-2.1159248E-1,1.4469834E-1,-1.3340916E-2,-4.7634128E-3,3.3304635E-1,2.3597565E-1,1.0873108E-1,2.2158371E-3,2.5432643E-1,-2.0716766E-1,4.4725305E-1,-2.019259E-1,7.624054E-3],"split_indices":[11,5,10,68,24,0,0,45,14,31,11,24,22,59,48,11,65,0,0,0,0,0,0,0,0,0,0,0,0,0,0],"split_type":[0,0,0,0,0,0,0,0,0,0,0,0,0,0,0,0,0,0,0,0,0,0,0,0,0,0,0,0,0,0,0],"sum_hessian":[4.47E2,4.42E2,5E0,2.29E2,2.13E2,2E0,3E0,9.2E1,1.37E2,2.05E2,8E0,8.3E1,9E0,1.4E1,1.23E2,3.2E1,1.73E2,2E0,6E0,2E0,8.1E1,6E0,3E0,7E0,7E0,1.06E2,1.7E1,2.6E1,6E0,1.71E2,2E0],"tree_param":{"num_deleted":"0","num_feature":"140","num_nodes":"31","size_leaf_vector":"1"}},{"base_weights":[-2.6824059E-2,-3.3846177E-2,2.4166664E-1,-6.035717E-2,8.522703E-3,3.3749998E-2,2.22222E-2,-7.320757E-2,1.5624997E-1,7.3118255E-2,-6.3095264E-2,-4.375001E-3,2.2499999E-2,-9.432992E-2,-1.5277801E-2,-4.500001E-3,4.8571426E-1,2.7916664E-1,1.4285479E-3,2.2499999E-2,-7.469882E-2,-4.9734055E-3,2.857142E-3,6.590908E-3,-3.92157E-3,3.6E-2,-3.3333343E-3,2.1764705E-2,-4.375001E-3,-3.8297884E-3,7.708332E-3,-4.320989E-3,1.3333333E-2],"categories":[],"categories_nodes":[],"categories_segments":[],"categories_sizes":[],"default_left":[0,0,0,0,0,0,0,0,0,0,0,0,0,0,0,0,0,0,0,0,0,0,0,0,0,0,0,0,0,0,0,0,0],"id":23,"left_children":[1,3,5,7,9,-1,11,13,15,17,19,-1,-1,21,23,-1,25,27,29,-1,31,-1,-1,-1,-1,-1,-1,-1,-1,-1,-1,-1,-1],"loss_changes":[8.867637E-1,5.1158905E-1,1.126111E0,7.908156E-1,8.18825E-1,0E0,4.6180555E-1,3.2281637E-1,1.3418037E0,1.3733552E0,5.337278E-1,0E0,0E0,1.5667307E-1,6.791927E-1,0E0,9.539046E-1,1.4120098E0,8.460185E-1,0E0,3.551391E-1,0E0,0E0,0E0,0E0,0E0,0E0,0E0,0E0,0E0,0E0,0E0,0E0],"parents":[2147483647,0,0,1,1,2,2,3,3,4,4,6,6,7,7,8,8,9,9,10,10,13,13,14,14,16,16,17,17,18,18,20,20],"right_children":[2,4,6,8,10,-1,12,14,16,18,20,-1,-1,22,24,-1,26,28,30,-1,32,-1,-1,-1,-1,-1,-1,-1,-1,-1,-1,-1,-1],"split_conditions":[6.68E1,1.156E2,1.4732143E0,6.266302E1,1.5560408E3,1.5265389E-1,1.1598379E2,5.81E1,4.5E1,1.1796634E2,4.66E1,-2.8341866E-1,2.5573426E-1,6.7E1,2.2903225E0,-7.8688055E-2,7.75E1,1.2007105E2,-3.125E-1,7.351303E-3,1.2214643E1,-8.98777E-2,2.350006E-2,1.18733086E-1,-1.7517626E-2,2.1223412E-1,-1.5877152E-2,2.1839695E-1,-1.7008591E-2,-4.2787787E-2,9.036355E-2,-1.669588E-1,2.2767296E-1],"split_indices":[11,40,75,24,77,0,37,46,34,130,11,0,0,2,54,0,26,129,75,0,29,0,0,0,0,0,0,0,0,0,0,0,0],"split_type":[0,0,0,0,0,0,0,0,0,0,0,0,0,0,0,0,0,0,0,0,0,0,0,0,0,0,0,0,0,0,0,0,0],"sum_hessian":[4.65E2,4.54E2,1.1E1,2.79E2,1.75E2,3E0,8E0,2.64E2,1.5E1,9.2E1,8.3E1,7E0,1E0,1.93E2,7.1E1,9E0,6E0,2.3E1,6.9E1,1E0,8.2E1,1.87E2,6E0,2.1E1,5E1,4E0,2E0,1.6E1,7E0,4.6E1,2.3E1,8E1,2E0],"tree_param":{"num_deleted":"0","num_feature":"140","num_nodes":"33","size_leaf_vector":"1"}},{"base_weights":[-2.8355002E-2,3E-2,-3.239133E-2,-3.6323875E-2,4.2499998E-1,-4.0176623E-2,3.2E-1,3E-2,-2.5000006E-3,-4.964203E-2,7.428569E-2,3E-2,-3.3333343E-3,-3.8533849E-3,-9.740378E-5,1.2941176E-2,-4.7368435E-3],"categories":[],"categories_nodes":[],"categories_segments":[],"categories_sizes":[],"default_left":[0,0,0,0,0,0,0,0,0,0,0,0,0,0,0,0,0],"id":24,"left_children":[1,-1,3,5,7,9,11,-1,-1,13,15,-1,-1,-1,-1,-1,-1],"loss_changes":[1.1911802E0,0E0,8.428455E-1,6.402382E-1,3.6249995E-1,4.944824E-1,5.813333E-1,0E0,0E0,5.4791796E-1,1.116207E0,0E0,0E0,0E0,0E0,0E0,0E0],"parents":[2147483647,0,0,2,2,3,3,4,4,5,5,6,6,9,9,10,10],"right_children":[2,-1,4,6,8,10,12,-1,-1,14,16,-1,-1,-1,-1,-1,-1],"split_conditions":[7.106599E-2,3.118759E-1,1.305E2,5.1E1,1.201E2,6.1511227E1,5.08E1,7.807732E-2,-4.8540804E-1,1.156E2,1.1246154E2,1.6651574E-1,-4.7302017E-1,-3.9097555E-2,-1.4711294E-4,2.803019E-1,-8.704991E-3],"split_indices":[28,0,70,27,0,24,10,0,0,40,70,0,0,0,0,0,0],"split_type":[0,0,0,0,0,0,0,0,0,0,0,0,0,0,0,0,0],"sum_hessian":[4.61E2,2E0,4.59E2,4.56E2,3E0,4.52E2,4E0,2E0,1E0,4.18E2,3.4E1,2E0,2E0,2.65E2,1.53E2,1.6E1,1.8E1],"tree_param":{"num_deleted":"0","num_feature":"140","num_nodes":"17","size_leaf_vector":"1"}},{"base_weights":[-2.2863273E-2,-2.8355002E-2,3.4285712E-1,2.3391789E-2,-5.8561668E-2,-3.7500008E-3,3.3749998E-2,3.63634E-3,4.8571426E-1,9.5238075E-2,-7.022061E-2,-2.6811618E-2,1.5357141E-1,3.6E-2,-3.3333343E-3,-4.615386E-3,3.5555553E-1,-7.3800765E-2,2.2499999E-2,-2.0000013E-3,2.125E-2,1.8666666E-2,-4.6428586E-3,2.9166667E-2,-3.7500008E-3,3.749999E-3,-4.019232E-3],"categories":[],"categories_nodes":[],"categories_segments":[],"categories_sizes":[],"default_left":[0,0,0,0,0,0,0,0,0,0,0,0,0,0,0,0,0,0,0,0,0,0,0,0,0,0,0],"id":25,"left_children":[1,3,5,7,9,-1,-1,11,13,15,17,19,21,-1,-1,-1,23,25,-1,-1,-1,-1,-1,-1,-1,-1,-1],"loss_changes":[9.4967055E-1,7.235212E-1,1.0221429E0,1.5600432E0,5.3028524E-1,0E0,0E0,7.573782E-1,9.539046E-1,1.0580709E0,5.398015E-1,8.392972E-1,1.551024E0,0E0,0E0,0E0,9.2638886E-1,2.7152383E-1,0E0,0E0,0E0,0E0,0E0,0E0,0E0,0E0,0E0],"parents":[2147483647,0,0,1,1,2,2,3,3,4,4,7,7,8,8,9,9,10,10,11,11,12,12,16,16,17,17],"right_children":[2,4,6,8,10,-1,-1,12,14,16,18,20,22,-1,-1,-1,24,26,-1,-1,-1,-1,-1,-1,-1,-1,-1],"split_conditions":[6.8E1,-8.900443E1,5.95E1,1.228E2,-4E0,-3.1682855E-1,2.2893219E-1,3.8335445E1,1.127E2,1.188E2,9E0,5.22E1,1.1575E2,2.132641E-1,-3.883476E-2,-8.804625E-2,2.56E1,4.82E1,1.2901307E-3,-6.7926417E-3,1.5818977E-1,1.7183435E-1,-1.1385347E-2,2.962822E-1,-3.588112E-1,1.13930166E-1,-1.0052761E-1],"split_indices":[11,79,10,45,125,0,0,57,0,40,16,27,69,0,0,0,27,11,0,0,0,0,0,0,0,0,0],"split_type":[0,0,0,0,0,0,0,0,0,0,0,0,0,0,0,0,0,0,0,0,0,0,0,0,0,0,0],"sum_hessian":[4.67E2,4.61E2,6E0,1.7E2,2.91E2,3E0,3E0,1.64E2,6E0,2E1,2.71E2,1.37E2,2.7E1,4E0,2E0,1.2E1,8E0,2.7E2,1E0,1.34E2,3E0,1.4E1,1.3E1,5E0,3E0,1.1E1,2.59E2],"tree_param":{"num_deleted":"0","num_feature":"140","num_nodes":"27","size_leaf_vector":"1"}},{"base_weights":[-8.463276E-3,-1.5489773E-2,2.7272725E-1,-2.1247137E-2,3.4285712E-1,-4.166668E-3,5.833333E-1,-2.534886E-2,4.2499998E-1,3.3749998E-2,-3.7500008E-3,3.6E-2,-2.5000006E-3,-3.1205697E-2,2.8749996E-1,3E-2,-2.5000006E-3,9.090908E-3,-1.8401949E-3,3.3749998E-2,-4.000001E-3],"categories":[],"categories_nodes":[],"categories_segments":[],"categories_sizes":[],"default_left":[0,0,0,0,0,0,0,0,0,0,0,0,0,0,0,0,0,0,0,0,0],"id":26,"left_children":[1,3,5,7,9,-1,11,13,15,-1,-1,-1,-1,17,19,-1,-1,-1,-1,-1,-1],"loss_changes":[8.913519E-1,9.130003E-1,1.2651515E0,8.033289E-1,1.0221429E0,0E0,5.553334E-1,7.968626E-1,3.6249995E-1,0E0,0E0,0E0,0E0,5.1114035E-1,1.1932501E0,0E0,0E0,0E0,0E0,0E0,0E0],"parents":[2147483647,0,0,1,1,2,2,3,3,4,4,6,6,7,7,8,8,13,13,14,14],"right_children":[2,4,6,8,10,-1,12,14,16,-1,-1,-1,-1,18,20,-1,-1,-1,-1,-1,-1],"split_conditions":[1.2626667E2,6.8E1,1.156E2,5.22E1,6.9E1,-7.428398E-2,1.201E2,6.9E1,1.154E2,2.1748543E-1,-3.0826455E-1,8.982468E-2,-4.5539817E-1,1.8297873E0,3.244778E1,1.5028039E-1,-4.5727846E-1,6.3393004E-3,-1.278012E-2,2.0260087E-1,-6.450043E-2],"split_indices":[70,11,1,27,11,0,0,43,8,0,0,0,0,54,25,0,0,0,0,0,0],"split_type":[0,0,0,0,0,0,0,0,0,0,0,0,0,0,0,0,0,0,0,0,0],"sum_hessian":[4.48E2,4.38E2,1E1,4.32E2,6E0,5E0,5E0,4.29E2,3E0,3E0,3E0,4E0,1E0,4.22E2,7E0,2E0,1E0,1E1,4.12E2,3E0,4E0],"tree_param":{"num_deleted":"0","num_feature":"140","num_nodes":"21","size_leaf_vector":"1"}},{"base_weights":[-2.9724015E-2,-3.7831884E-2,1.5499997E-1,5.8823507E-2,-5.0000023E-2,6.285714E-1,-4.6428586E-3,-2.6190499E-2,4.0999997E-1,-5.2369103E-2,2.2499999E-2,-2.5000006E-3,3.75E-2,-7.17949E-2,4.2499998E-1,6.285714E-1,-3.7500008E-3,-5.4750025E-2,2.2499999E-2,-4.868422E-3,2.2499999E-2,3E-2,-2.5000006E-3,-2.5000006E-3,3.75E-2,-3.229731E-3,3.2258052E-3],"categories":[],"categories_nodes":[],"categories_segments":[],"categories_sizes":[],"default_left":[0,0,0,0,0,0,0,0,0,0,0,0,0,0,0,0,0,0,0,0,0,0,0,0,0,0,0],"id":27,"left_children":[1,3,5,7,9,11,-1,13,15,17,-1,-1,-1,19,21,23,-1,25,-1,-1,-1,-1,-1,-1,-1,-1,-1],"loss_changes":[7.1128887E-1,5.345458E-1,2.4059289E0,1.5333388E0,4.997506E-1,6.142857E-1,0E0,8.947162E-1,1.1072145E0,5.0427437E-1,0E0,0E0,0E0,5.6423753E-1,3.6249995E-1,6.142857E-1,0E0,4.7381818E-1,0E0,0E0,0E0,0E0,0E0,0E0,0E0,0E0,0E0],"parents":[2147483647,0,0,1,1,2,2,3,3,4,4,5,5,7,7,8,8,9,9,13,13,14,14,15,15,17,17],"right_children":[2,4,6,8,10,12,-1,14,16,18,-1,-1,-1,20,22,24,-1,26,-1,-1,-1,-1,-1,-1,-1,-1,-1],"split_conditions":[1.8169377E3,2.1E0,-6.6281305E2,8.04E1,9E0,1.0098214E2,-2.616631E-2,4.2632564E-14,1.122E2,1.46E2,1.8646241E-3,-2.5741538E-1,3.5442582E-1,4.42E1,1.163E2,1E0,-1.5162316E-1,1.238E2,5.901871E-2,-1.806858E-1,1.1187744E-2,6.552887E-3,-4.261097E-1,-9.821167E-2,2.0661126E-1,-1.5996216E-2,7.7028642E-3],"split_indices":[78,54,120,58,16,4,0,124,40,70,0,0,0,27,1,16,0,8,0,0,0,0,0,0,0,0,0],"split_type":[0,0,0,0,0,0,0,0,0,0,0,0,0,0,0,0,0,0,0,0,0,0,0,0,0,0,0],"sum_hessian":[4.7E2,4.51E2,1.9E1,5E1,4.01E2,6E0,1.3E1,4.1E1,9E0,4E2,1E0,1E0,5E0,3.8E1,3E0,6E0,3E0,3.99E2,1E0,3.7E1,1E0,2E0,1E0,1E0,5E0,3.69E2,3E1],"tree_param":{"num_deleted":"0","num_feature":"140","num_nodes":"27","size_leaf_vector":"1"}},{"base_weights":[-3.0269083E-2,-5.438069E-2,3.879308E-2,-7.436825E-2,4.7272705E-2,1.8478258E-1,-5.6338053E-2,-8.4586486E-2,1.5833332E-1,5.2E-1,-2.337437E-8,4.0555555E-1,4.1379288E-2,-7.000002E-2,2.2499999E-2,1.0999998E-1,-9.1828816E-2,4.1666666E-1,-4.285715E-3,-2.5000006E-3,3.3749998E-2,-5.3333357E-2,3.4285712E-1,2.1538459E-1,3.75E-2,5.2E-1,-5.6000024E-2,-4.9206363E-3,1.6249998E-1,3E-2,-4.375001E-3,-4.7843154E-3,1.3333333E-2,-3.3333343E-3,3.3749998E-2,1.2499999E-2,-4.8750015E-3,-3.7500008E-3,3.3749998E-2,-4.375001E-3,2.9166667E-2,3.3749998E-2,-2.5000006E-3,-4.7916677E-3,2.2499999E-2,3E-2,-4.166668E-3],"categories":[],"categories_nodes":[],"categories_segments":[],"categories_sizes":[],"default_left":[0,0,0,0,0,0,0,0,0,0,0,0,0,0,0,0,0,0,0,0,0,0,0,0,0,0,0,0,0,0,0,0,0,0,0,0,0,0,0,0,0,0,0,0,0,0,0],"id":28,"left_children":[1,3,5,7,9,11,13,15,17,19,21,23,25,27,-1,29,31,33,-1,-1,-1,35,37,39,-1,41,43,-1,45,-1,-1,-1,-1,-1,-1,-1,-1,-1,-1,-1,-1,-1,-1,-1,-1,-1,-1],"loss_changes":[7.447886E-1,6.760426E-1,1.6214354E0,6.720433E-1,1.2290909E0,1.4395584E0,5.226479E-1,3.84964E-1,7.9226196E-1,4.755E-1,9.5085716E-1,1.0175214E0,1.3807448E0,4.7840875E-1,0E0,1.02025E0,3.8091898E-1,7.9416656E-1,0E0,0E0,0E0,6.272501E-1,1.0221429E0,1.4998397E0,0E0,4.755E-1,5.470167E-1,0E0,9.104167E-1,0E0,0E0,0E0,0E0,0E0,0E0,0E0,0E0,0E0,0E0,0E0,0E0,0E0,0E0,0E0,0E0,0E0,0E0],"parents":[2147483647,0,0,1,1,2,2,3,3,4,4,5,5,6,6,7,7,8,8,9,9,10,10,11,11,12,12,13,13,15,15,16,16,17,17,21,21,22,22,23,23,25,25,26,26,28,28],"right_children":[2,4,6,8,10,12,14,16,18,20,22,24,26,28,-1,30,32,34,-1,-1,-1,36,38,40,-1,42,44,-1,46,-1,-1,-1,-1,-1,-1,-1,-1,-1,-1,-1,-1,-1,-1,-1,-1,-1,-1],"split_conditions":[1.1387096E1,1.178125E1,1.1707317E1,6.266302E1,1E0,-9.937481E1,1.2155452E1,4.82E1,1.1484615E2,1.106E2,7.3E0,5.8579212E1,5.22E1,1.1579906E2,2.029213E-1,1.1171034E2,6.54E1,1.0875E2,-2.73201E-2,-2.6582032E-1,4.4906425E-1,2.3E1,4.2E1,3.14E1,1.9785424E-1,1.0535714E2,1.211E2,-6.672482E-2,1.2428572E1,1.3640748E-1,-2.0671006E-1,-4.68037E-2,6.2252046E-3,-6.785317E-2,3.3670464E-1,1.9327088E-1,-9.606329E-2,-4.3479997E-1,3.708153E-2,-6.4662932E-3,4.2949983E-1,3.0745316E-2,-7.3895115E-1,-9.229971E-3,2.817219E-1,8.61332E-2,-1.0417557E-2],"split_indices":[21,53,21,24,48,79,29,11,64,1,123,24,43,6,0,37,14,8,0,0,0,2,2,27,0,4,1,0,21,0,0,0,0,0,0,0,0,0,0,0,0,0,0,0,0,0,0],"split_type":[0,0,0,0,0,0,0,0,0,0,0,0,0,0,0,0,0,0,0,0,0,0,0,0,0,0,0,0,0,0,0,0,0,0,0,0,0,0,0,0,0,0,0,0,0,0,0],"sum_hessian":[4.45E2,3.3E2,1.15E2,2.76E2,5.4E1,4.5E1,7E1,2.65E2,1.1E1,4E0,5E1,1.7E1,2.8E1,6.9E1,1E0,9E0,2.56E2,5E0,6E0,1E0,3E0,4.4E1,6E0,1.2E1,5E0,4E0,2.4E1,6.2E1,7E0,2E0,7E0,2.54E2,2E0,2E0,3E0,5E0,3.9E1,3E0,3E0,7E0,5E0,3E0,1E0,2.3E1,1E0,2E0,5E0],"tree_param":{"num_deleted":"0","num_feature":"140","num_nodes":"47","size_leaf_vector":"1"}},{"base_weights":[-2.586959E-2,-2.9759323E-2,4.2499998E-1,-3.6711734E-2,1.9285712E-1,3E-2,-2.5000006E-3,-6.9201544E-2,1.04395365E-2,3.3749998E-2,-2.1674417E-8,-8.305787E-2,8.636361E-2,3.6363634E-1,-1.2209326E-2,-4.500001E-3,2.2499999E-2,2.499999E-3,-4.541486E-3,3.3749998E-2,-2.1052645E-3,-4.000001E-3,3.142857E-2,-1.5527962E-3,1.2083332E-2],"categories":[],"categories_nodes":[],"categories_segments":[],"categories_sizes":[],"default_left":[0,0,0,0,0,0,0,0,0,0,0,0,0,0,0,0,0,0,0,0,0,0,0,0,0],"id":29,"left_children":[1,3,5,7,9,-1,-1,11,13,-1,15,17,19,21,23,-1,-1,-1,-1,-1,-1,-1,-1,-1,-1],"loss_changes":[8.193787E-1,7.143887E-1,3.6249995E-1,6.80902E-1,1.3017857E0,0E0,0E0,5.7408595E-1,1.4603498E0,0E0,4.86E-1,2.5479484E-1,1.6920934E0,1.343169E0,8.3047336E-1,0E0,0E0,0E0,0E0,0E0,0E0,0E0,0E0,0E0,0E0],"parents":[2147483647,0,0,1,1,2,2,3,3,4,4,7,7,8,8,10,10,11,11,12,12,13,13,14,14],"right_children":[2,4,6,8,10,-1,-1,12,14,-1,16,18,20,22,24,-1,-1,-1,-1,-1,-1,-1,-1,-1,-1],"split_conditions":[6.8E1,1.2626667E2,6.08E1,5.825E1,1.0959036E2,1.8638802E-1,-2.9068527E-1,1.1934783E1,1.1020858E2,8.1826404E-2,2.6744187E0,1.9473684E0,1.2038462E1,1.086E2,1.201E2,-6.496666E-2,3.6960603E-3,1.0146864E-2,-5.1407184E-2,1.8796158E-1,-1.1350434E-1,-8.310013E-2,4.08025E-1,-4.3373513E-3,3.233238E-2],"split_indices":[11,70,10,42,5,0,0,53,132,0,22,54,53,40,0,0,0,0,0,0,0,0,0,0,0],"split_type":[0,0,0,0,0,0,0,0,0,0,0,0,0,0,0,0,0,0,0,0,0,0,0,0,0],"sum_hessian":[4.59E2,4.56E2,3E0,4.43E2,1.3E1,2E0,1E0,2.62E2,1.81E2,3E0,1E1,2.41E2,2.1E1,1E1,1.71E2,9E0,1E0,1.3E1,2.28E2,3E0,1.8E1,4E0,6E0,1.6E2,1.1E1],"tree_param":{"num_deleted":"0","num_feature":"140","num_nodes":"25","size_leaf_vector":"1"}},{"base_weights":[-2.8663818E-2,4.1406225E-2,-5.5192903E-2,-5.2307718E-2,1.3593748E-1,-5.803574E-2,2.2499999E-2,-8.1967235E-2,3.2E-1,-3.0000024E-2,2.742857E-1,-7.715358E-2,1.5714262E-2,-4.9137943E-3,1.7499998E-1,3E-2,-3.3333343E-3,-6.2068988E-2,2.2499999E-2,6.0999995E-1,1.3461536E-1,-8.39844E-2,7.499998E-2,-1.0294141E-2,3E-2,-3.3333343E-3,2.2499999E-2,1.3333333E-2,-4.814816E-3,-3.3333343E-3,3.9375E-2,2.4285713E-2,2.4999888E-4,-4.573172E-3,4.5454535E-3,2.125E-2,-4.444446E-3,1.7142856E-2,-2.500001E-3],"categories":[],"categories_nodes":[],"categories_segments":[],"categories_sizes":[],"default_left":[0,0,0,0,0,0,0,0,0,0,0,0,0,0,0,0,0,0,0,0,0,0,0,0,0,0,0,0,0,0,0,0,0,0,0,0,0,0,0],"id":30,"left_children":[1,3,5,7,9,11,-1,13,15,17,19,21,23,-1,25,-1,-1,27,-1,29,31,33,35,37,-1,-1,-1,-1,-1,-1,-1,-1,-1,-1,-1,-1,-1,-1,-1],"loss_changes":[8.6481225E-1,1.1410493E0,5.101088E-1,7.4398994E-1,1.4774864E0,4.749527E-1,0E0,2.728363E-1,5.813333E-1,4.8972413E-1,1.5590112E0,2.8380084E-1,1.0699202E0,0E0,2.9583335E-1,0E0,0E0,3.5197955E-1,0E0,1.2535832E0,1.1807747E0,3.4317172E-1,7.261112E-1,9.7065127E-1,0E0,0E0,0E0,0E0,0E0,0E0,0E0,0E0,0E0,0E0,0E0,0E0,0E0,0E0,0E0],"parents":[2147483647,0,0,1,1,2,2,3,3,4,4,5,5,7,7,8,8,9,9,10,10,11,11,12,12,14,14,17,17,19,19,20,20,21,21,22,22,23,23],"right_children":[2,4,6,8,10,12,-1,14,16,18,20,22,24,-1,26,-1,-1,28,-1,30,32,34,36,38,-1,-1,-1,-1,-1,-1,-1,-1,-1,-1,-1,-1,-1,-1,-1],"split_conditions":[-1.3843202E2,2.9333334E1,6.66E1,1.1885714E2,-1.8525641E0,1.1692307E1,7.2199635E-2,1.2515736E1,5.7625E1,4.0756237E1,1.14111115E2,6.609725E1,1.27E2,-1.6841127E-2,1.0875E2,1.2888603E-1,-2.5331306E-1,4.6284393E1,1.499176E-3,4E0,5.6E1,1.8169377E3,7.75E1,3.5614035E0,4.3228608E-1,-5.9318542E-3,2.540638E-1,1.4215012E-1,-6.1119846E-3,-1.7614822E-1,2.672451E-1,3.200863E-1,3.844826E-3,-7.236598E-2,5.204887E-3,9.90757E-2,-1.8221092E-1,2.6785278E-1,-3.76054E-2],"split_indices":[79,59,15,70,123,53,0,61,14,25,64,24,8,0,8,0,0,24,0,73,11,77,26,55,0,0,0,0,0,0,0,0,0,0,0,0,0,0,0],"split_type":[0,0,0,0,0,0,0,0,0,0,0,0,0,0,0,0,0,0,0,0,0,0,0,0,0,0,0,0,0,0,0,0,0,0,0,0,0,0,0],"sum_hessian":[4.63E2,1.27E2,3.36E2,6.4E1,6.3E1,3.35E2,1E0,6E1,4E0,2.9E1,3.4E1,2.66E2,6.9E1,5.7E1,3E0,2E0,2E0,2.8E1,1E0,9E0,2.5E1,2.55E2,1.1E1,6.7E1,2E0,2E0,1E0,2E0,2.6E1,2E0,7E0,6E0,1.9E1,2.45E2,1E1,3E0,8E0,6E0,6.1E1],"tree_param":{"num_deleted":"0","num_feature":"140","num_nodes":"39","size_leaf_vector":"1"}},{"base_weights":[-3.9177515E-2,-4.4835187E-2,2.8749996E-1,-7.235497E-2,4.9079517E-3,3.3749998E-2,-4.000001E-3,2.6666665E-1,-7.56014E-2,3E-2,-6.211204E-3,2.2499999E-2,-2.5000006E-3,9.090907E-2,-8.185056E-2,4.2499998E-1,-1.7088631E-2,-4.444446E-3,3E-2,2.2499999E-2,-4.2678583E-3,-2.5000006E-3,3E-2,-1.419356E-3,2.125E-2],"categories":[],"categories_nodes":[],"categories_segments":[],"categories_sizes":[],"default_left":[0,0,0,0,0,0,0,0,0,0,0,0,0,0,0,0,0,0,0,0,0,0,0,0,0],"id":31,"left_children":[1,3,5,7,9,-1,-1,11,13,-1,15,-1,-1,17,19,21,23,-1,-1,-1,-1,-1,-1,-1,-1],"loss_changes":[8.6677474E-1,6.232141E-1,1.1932501E0,3.426385E-1,1.0822848E0,0E0,0E0,1.9666666E-1,3.102411E-1,0E0,7.624281E-1,0E0,0E0,1.0602021E0,5.6247354E-1,3.6249995E-1,8.0126405E-1,0E0,0E0,0E0,0E0,0E0,0E0,0E0,0E0],"parents":[2147483647,0,0,1,1,2,2,3,3,4,4,7,7,8,8,10,10,13,13,14,14,15,15,16,16],"right_children":[2,4,6,8,10,-1,-1,12,14,-1,16,-1,-1,18,20,22,24,-1,-1,-1,-1,-1,-1,-1,-1],"split_conditions":[6.8E1,1.1571429E2,6.9E1,-4.463229E2,1.1573333E2,1.7791061E-1,-2.7253267E-1,1.086E2,4.82E1,4.1067162E-1,2.388889E1,1.22441866E-1,-1.6201783E-2,1.1E2,4.9666668E1,1.109E2,6.76E1,-1.8950807E-1,1.3342248E-1,7.170983E-2,-8.37761E-2,-1.679535E-2,3.042679E-2,-5.9364336E-3,1.704319E-1],"split_indices":[11,65,11,79,65,0,0,8,11,0,31,0,0,8,14,0,43,0,0,0,0,0,0,0,0],"split_type":[0,0,0,0,0,0,0,0,0,0,0,0,0,0,0,0,0,0,0,0,0,0,0,0,0],"sum_hessian":[4.61E2,4.54E2,7E0,2.92E2,1.62E2,3E0,4E0,2E0,2.9E2,2E0,1.6E2,1E0,1E0,1E1,2.8E2,3E0,1.57E2,8E0,2E0,1E0,2.79E2,1E0,2E0,1.54E2,3E0],"tree_param":{"num_deleted":"0","num_feature":"140","num_nodes":"25","size_leaf_vector":"1"}},{"base_weights":[-7.877486E-3,-2.1247137E-2,2.2399998E-1,-4.810999E-2,3.356641E-2,4.7857141E-1,-4.5833346E-3,-5.4513913E-2,4.2499998E-1,1.4310342E-1,-4.0697698E-2,-3.7500008E-3,6.363636E-1,-6.091552E-2,3.2E-1,3E-2,-2.5000006E-3,-4.761906E-3,2.710526E-1,-4.909092E-3,5.9374977E-2,-3.3333343E-3,4E-2,5.199999E-3,-3.8269244E-3,3E-2,-3.3333343E-3,2.65625E-2,3.9130426E-3,2.0833334E-2,-1.1111123E-3],"categories":[],"categories_nodes":[],"categories_segments":[],"categories_sizes":[],"default_left":[0,0,0,0,0,0,0,0,0,0,0,0,0,0,0,0,0,0,0,0,0,0,0,0,0,0,0,0,0,0,0],"id":32,"left_children":[1,3,5,7,9,11,-1,13,15,17,19,-1,21,23,25,-1,-1,-1,27,-1,29,-1,-1,-1,-1,-1,-1,-1,-1,-1,-1],"loss_changes":[1.4215146E0,6.3918495E-1,2.052862E0,9.048286E-1,1.1690816E0,1.2706168E0,0E0,7.0997E-1,3.6249995E-1,1.7945595E0,5.005524E-1,0E0,1.318788E0,7.396773E-1,5.813333E-1,0E0,0E0,0E0,1.8646526E0,0E0,9.4218755E-1,0E0,0E0,0E0,0E0,0E0,0E0,0E0,0E0,0E0,0E0],"parents":[2147483647,0,0,1,1,2,2,3,3,4,4,5,5,7,7,8,8,9,9,10,10,12,12,13,13,14,14,18,18,20,20],"right_children":[2,4,6,8,10,12,-1,14,16,18,20,-1,22,24,26,-1,-1,-1,28,-1,30,-1,-1,-1,-1,-1,-1,-1,-1,-1,-1],"split_conditions":[1.25E2,5.96E1,1.158E2,1.315703E1,1.177415E2,9.954545E0,-1.20217195E-2,1.0685268E2,1.163E2,5.46E1,2E0,-4.2547113E-1,-7.970721E0,-3.835819E2,2.6E1,2.8905487E-2,-4.496483E-1,-1.0733414E-2,6E1,-1.01174794E-1,-7.1350104E2,-2.589062E-1,2.5475693E-1,2.2949772E-2,-5.6120712E-2,1.6549836E-1,-1.7879753E-1,1.3174339E-1,7.497207E-2,3.0827102E-1,7.815946E-5],"split_indices":[13,42,32,61,130,53,0,74,0,43,71,0,135,121,2,0,0,0,43,0,120,0,0,0,0,0,0,0,0,0,0],"split_type":[0,0,0,0,0,0,0,0,0,0,0,0,0,0,0,0,0,0,0,0,0,0,0,0,0,0,0,0,0,0,0],"sum_hessian":[4.56E2,4.32E2,2.4E1,2.9E2,1.42E2,1.3E1,1.1E1,2.87E2,3E0,5.7E1,8.5E1,3E0,1E1,2.83E2,4E0,2E0,1E0,2E1,3.7E1,5.4E1,3.1E1,2E0,8E0,2.4E1,2.59E2,2E0,2E0,1.5E1,2.2E1,5E0,2.6E1],"tree_param":{"num_deleted":"0","num_feature":"140","num_nodes":"31","size_leaf_vector":"1"}},{"base_weights":[-2.6980752E-2,-6.508623E-2,1.0593196E-2,-7.616825E-2,6.315787E-2,-3.3928595E-2,1.1884055E-1,-8.888891E-2,1.9230746E-2,3E-2,-3.529414E-2,-4.484851E-2,4.2499998E-1,2.884615E-1,1.5909068E-2,8.333331E-2,-9.402176E-2,3E-2,-5.416669E-2,2.2499999E-2,-4.687501E-3,-5.5900645E-2,3.2E-1,3E-2,-2.5000006E-3,1.1578945E-1,6.6249996E-1,-2.6190499E-2,3E-2,2.2499999E-2,-4.000001E-3,-4.9719117E-3,2.857142E-3,-4.7727283E-3,1.3333333E-2,-3.0937511E-3,2.2499999E-2,3E-2,-3.3333343E-3,-1.3333345E-3,2.5999999E-2,3.857143E-2,-2.5000006E-3,-3.589745E-3,2.125E-2],"categories":[],"categories_nodes":[],"categories_segments":[],"categories_sizes":[],"default_left":[0,0,0,0,0,0,0,0,0,0,0,0,0,0,0,0,0,0,0,0,0,0,0,0,0,0,0,0,0,0,0,0,0,0,0,0,0,0,0,0,0,0,0,0,0],"id":33,"left_children":[1,3,5,7,9,11,13,15,17,-1,19,21,23,25,27,29,31,-1,33,-1,-1,35,37,-1,-1,39,41,43,-1,-1,-1,-1,-1,-1,-1,-1,-1,-1,-1,-1,-1,-1,-1,-1,-1],"loss_changes":[6.6932756E-1,3.3452982E-1,1.1414026E0,2.6140666E-1,1.0253869E0,8.60986E-1,1.2001052E0,1.7490959E-1,1.1408012E0,0E0,5.244485E-1,6.832268E-1,3.6249995E-1,1.6025252E0,1.0976732E0,3.9533332E-1,1.5633714E-1,0E0,3.4337124E-1,0E0,0E0,5.14457E-1,5.813333E-1,0E0,0E0,1.1079298E0,6.594641E-1,8.947162E-1,0E0,0E0,0E0,0E0,0E0,0E0,0E0,0E0,0E0,0E0,0E0,0E0,0E0,0E0,0E0,0E0,0E0],"parents":[2147483647,0,0,1,1,2,2,3,3,4,4,5,5,6,6,7,7,8,8,10,10,11,11,12,12,13,13,14,14,15,15,16,16,18,18,21,21,22,22,25,25,26,26,27,27],"right_children":[2,4,6,8,10,12,14,16,18,-1,20,22,24,26,28,30,32,-1,34,-1,-1,36,38,-1,-1,40,42,44,-1,-1,-1,-1,-1,-1,-1,-1,-1,-1,-1,-1,-1,-1,-1,-1,-1],"split_conditions":[1.13333336E2,6.3038303E1,5.94E1,6.4E1,1.9E1,6.8E1,0E0,2.51E1,9.301887E0,1.7906533E-1,1.028E2,1.254522E1,1.209E2,1.1579906E2,1.238E2,1.144E2,6.7E1,3.8438033E-2,6.04E1,9.456215E-2,-1.2659684E-2,4E0,1.0584821E2,4.6956636E-2,-9.854805E-1,3.2229966E-1,1.286E2,1.2473684E1,2.420189E-1,1.2016411E-1,-7.5843814E-3,-7.640222E-2,1.3264428E-1,-9.0072565E-2,1.0124588E-2,-5.556871E-3,3.889904E-1,2.2891922E-1,-4.27166E-1,-4.669768E-3,2.0079575E-1,2.4144211E-1,-1.400818E-1,-3.154997E-2,1.8531037E-2],"split_indices":[13,24,46,2,27,11,124,63,53,0,9,61,1,6,8,1,34,0,11,0,0,85,4,0,0,60,9,53,0,0,0,0,0,0,0,0,0,0,0,0,0,0,0,0,0],"split_type":[0,0,0,0,0,0,0,0,0,0,0,0,0,0,0,0,0,0,0,0,0,0,0,0,0,0,0,0,0,0,0,0,0,0,0,0,0,0,0,0,0,0,0,0,0],"sum_hessian":[4.66E2,2.31E2,2.35E2,2.13E2,1.8E1,1.67E2,6.8E1,1.88E2,2.5E1,2E0,1.6E1,1.64E2,3E0,2.5E1,4.3E1,5E0,1.83E2,2E0,2.3E1,1E0,1.5E1,1.6E2,4E0,2E0,1E0,1.8E1,7E0,4.1E1,2E0,1E0,4E0,1.77E2,6E0,2.1E1,2E0,1.59E2,1E0,2E0,2E0,1.4E1,4E0,6E0,1E0,3.8E1,3E0],"tree_param":{"num_deleted":"0","num_feature":"140","num_nodes":"45","size_leaf_vector":"1"}},{"base_weights":[-2.9638033E-2,-3.5402324E-2,2.8749996E-1,-9.1200024E-2,-1.286176E-2,3.3749998E-2,-4.000001E-3,2.2499999E-2,-4.9596787E-3,-5.6172863E-2,3.3999976E-2,-6.7721546E-2,3.2E-1,1.4259256E-1,-2.6804147E-2,-3.9735115E-3,8.124999E-3,-3.3333343E-3,3E-2,1.2903224E-2,-6.2500115E-4,5.7894727E-3,-3.0379759E-3],"categories":[],"categories_nodes":[],"categories_segments":[],"categories_sizes":[],"default_left":[0,0,0,0,0,0,0,0,0,0,0,0,0,0,0,0,0,0,0,0,0,0,0],"id":34,"left_children":[1,3,5,7,9,-1,-1,-1,-1,11,13,15,17,19,21,-1,-1,-1,-1,-1,-1,-1,-1],"loss_changes":[8.181875E-1,5.459316E-1,1.1932501E0,5.854006E-1,6.3312584E-1,0E0,0E0,0E0,0E0,7.254474E-1,9.942537E-1,4.4027215E-1,5.813333E-1,9.703033E-1,4.7669172E-1,0E0,0E0,0E0,0E0,0E0,0E0,0E0,0E0],"parents":[2147483647,0,0,1,1,2,2,3,3,4,4,9,9,10,10,11,11,12,12,13,13,14,14],"right_children":[2,4,6,8,10,-1,-1,-1,-1,12,14,16,18,20,22,-1,-1,-1,-1,-1,-1,-1,-1],"split_conditions":[6.8E1,2.77E1,6.9E1,4.66E1,3.367206E1,1.5392952E-1,-2.2520447E-1,2.740097E-3,-1.4871643E-1,4.1911766E-1,1.136E2,1.26E2,1.134E2,1.084E1,1.128E2,-1.5126504E-2,3.6954078E-1,-9.932709E-3,7.234001E-2,1.8869148E-1,1.0077805E-2,7.608019E-2,-5.956651E-2],"split_indices":[11,62,11,11,57,0,0,0,0,28,69,8,0,53,0,0,0,0,0,0,0,0,0],"split_type":[0,0,0,0,0,0,0,0,0,0,0,0,0,0,0,0,0,0,0,0,0,0,0],"sum_hessian":[4.41E2,4.34E2,7E0,1.24E2,3.1E2,3E0,4E0,1E0,1.23E2,1.61E2,1.49E2,1.57E2,4E0,5.3E1,9.6E1,1.5E2,7E0,2E0,2E0,3E1,2.3E1,1.8E1,7.8E1],"tree_param":{"num_deleted":"0","num_feature":"140","num_nodes":"23","size_leaf_vector":"1"}},{"base_weights":[-2.7600873E-2,-6.330647E-2,1.2053547E-2,-7.078192E-2,2.4999999E-1,8.2727246E-2,-5.5652197E-2,-2.0779245E-2,-9.34132E-2,-3.7500008E-3,3E-2,4.0416664E-1,-6.8965754E-3,-7.2072096E-2,3.2E-1,4.2499998E-1,-4.459462E-2,2.22222E-2,-4.9685547E-3,6.2142855E-1,9.090907E-2,-4.87805E-3,7.23404E-2,-8.090912E-2,2.2499999E-2,3E-2,-3.3333343E-3,3E-2,-2.5000006E-3,-4.166668E-3,1.2222222E-2,2.2499999E-2,-4.375001E-3,-3.3333343E-3,3.7083335E-2,-4.444446E-3,3E-2,1.7777767E-3,3E-2,-4.481133E-3,5.999999E-3],"categories":[],"categories_nodes":[],"categories_segments":[],"categories_sizes":[],"default_left":[0,0,0,0,0,0,0,0,0,0,0,0,0,0,0,0,0,0,0,0,0,0,0,0,0,0,0,0,0,0,0,0,0,0,0,0,0,0,0,0,0],"id":35,"left_children":[1,3,5,7,9,11,13,15,17,-1,-1,19,21,23,25,27,29,31,-1,33,35,-1,37,39,-1,-1,-1,-1,-1,-1,-1,-1,-1,-1,-1,-1,-1,-1,-1,-1,-1],"loss_changes":[6.67645E-1,5.985374E-1,1.0764475E0,2.7304363E-1,7.2749996E-1,3.1717362E0,7.324028E-1,8.3641547E-1,1.17262006E-1,0E0,0E0,1.5769212E0,6.3206345E-1,5.485143E-1,5.813333E-1,3.6249995E-1,8.4894896E-1,4.6180555E-1,0E0,1.2077384E0,1.0602021E0,0E0,8.909314E-1,2.0332414E-1,0E0,0E0,0E0,0E0,0E0,0E0,0E0,0E0,0E0,0E0,0E0,0E0,0E0,0E0,0E0,0E0,0E0],"parents":[2147483647,0,0,1,1,2,2,3,3,4,4,5,5,6,6,7,7,8,8,11,11,12,12,13,13,14,14,15,15,16,16,17,17,19,19,20,20,22,22,23,23],"right_children":[2,4,6,8,10,12,14,16,18,-1,-1,20,22,24,26,28,30,32,-1,34,36,-1,38,40,-1,-1,-1,-1,-1,-1,-1,-1,-1,-1,-1,-1,-1,-1,-1,-1,-1],"split_conditions":[5.5161377E1,1.2902439E1,5.7857143E1,7.36E1,4.68E0,1.1259574E2,6.9E1,1.028E2,1.0706475E2,-5.923767E-2,6.672821E-2,8.35E1,-1.3E0,1.308E2,1.145E2,1.153E2,7.28E1,1.0925E2,-2.7047543E-2,2.475E1,1.168E2,-3.7830964E-2,6.08E1,3.31E1,2.2941399E-1,7.1983337E-3,-5.882153E-1,1.591957E-1,-6.177002E-1,-7.0269674E-2,4.395218E-2,9.761925E-2,-6.6879275E-3,-6.1657716E-2,2.0734791E-1,-7.220459E-2,1.8132134E-1,1.1470022E-1,7.037735E-3,-6.565706E-2,2.7338296E-1],"split_indices":[24,21,47,58,23,37,43,8,5,0,0,26,123,9,0,0,58,9,0,63,45,0,46,62,0,0,0,0,0,0,0,0,0,0,0,0,0,0,0,0,0],"split_type":[0,0,0,0,0,0,0,0,0,0,0,0,0,0,0,0,0,0,0,0,0,0,0,0,0,0,0,0,0,0,0,0,0,0,0,0,0,0,0,0,0],"sum_hessian":[4.7E2,2.47E2,2.23E2,2.42E2,5E0,1.09E2,1.14E2,7.6E1,1.66E2,3E0,2E0,2.3E1,8.6E1,1.1E2,4E0,3E0,7.3E1,8E0,1.58E2,1.3E1,1E1,4E1,4.6E1,1.09E2,1E0,2E0,2E0,2E0,1E0,6.5E1,8E0,1E0,7E0,2E0,1.1E1,8E0,2E0,4.4E1,2E0,1.05E2,4E0],"tree_param":{"num_deleted":"0","num_feature":"140","num_nodes":"41","size_leaf_vector":"1"}},{"base_weights":[-3.6323875E-2,-4.0439583E-2,3E-2,4.2499998E-1,-4.446905E-2,-2.5000006E-3,3E-2,-5.463185E-2,9.062497E-2,-7.1388125E-2,3.1884033E-2,4.0999997E-1,-5.2173935E-2,-3.7073877E-3,2.2499999E-2,-1.9000013E-3,1.0249999E-2,-3.7500008E-3,3.142857E-2,-4.7727283E-3,2.2499999E-2],"categories":[],"categories_nodes":[],"categories_segments":[],"categories_sizes":[],"default_left":[0,0,0,0,0,0,0,0,0,0,0,0,0,0,0,0,0,0,0,0,0],"id":36,"left_children":[1,3,-1,5,7,-1,-1,9,11,13,15,17,19,-1,-1,-1,-1,-1,-1,-1,-1],"loss_changes":[1.221112E0,8.722396E-1,0E0,3.6249995E-1,6.2551725E-1,0E0,0E0,6.125928E-1,1.4807961E0,5.412756E-1,8.42555E-1,1.1072145E0,5.4284585E-1,0E0,0E0,0E0,0E0,0E0,0E0,0E0,0E0],"parents":[2147483647,0,0,1,1,3,3,4,4,7,7,8,8,9,9,10,10,11,11,12,12],"right_children":[2,4,-1,6,8,-1,-1,10,12,14,16,18,20,-1,-1,-1,-1,-1,-1,-1,-1],"split_conditions":[1.305E2,7.106599E-2,3.075905E-2,1.124E2,6.266302E1,-5.999363E-1,2.1794319E-1,1.1703704E1,6.391223E1,5.2E1,1.164E2,5.86E1,9E0,-2.1953378E-2,6.29879E-2,-3.0001095E-2,1.4662968E-1,-7.213058E-2,2.5971374E-1,-7.845842E-3,9.38736E-2],"split_indices":[70,28,0,8,24,0,0,53,24,27,13,14,81,0,0,0,0,0,0,0,0],"split_type":[0,0,0,0,0,0,0,0,0,0,0,0,0,0,0,0,0,0,0,0,0],"sum_hessian":[4.56E2,4.54E2,2E0,3E0,4.51E2,1E0,2E0,4.2E2,3.1E1,3.52E2,6.8E1,9E0,2.2E1,3.51E2,1E0,4.9E1,1.9E1,3E0,6E0,2.1E1,1E0],"tree_param":{"num_deleted":"0","num_feature":"140","num_nodes":"21","size_leaf_vector":"1"}},{"base_weights":[-3.399125E-2,4.1406225E-2,-6.322191E-2,4.1249996E-1,1.6528903E-2,5.2499976E-2,-7.8965545E-2,3.6E-2,-3.7500008E-3,-4.3103686E-3,4.1666666E-1,-3.0000024E-2,2.7272725E-1,2.2499999E-2,-8.2352966E-2,-6.911767E-2,8.5714266E-2,-3.3333343E-3,3.3749998E-2,-4.800001E-3,2.4999999E-1,-4.166668E-3,5.833333E-1,1.6249998E-1,-8.900712E-2,-4.1791056E-3,2.2499999E-2,-1.6129044E-3,1.36842085E-2,-3.7500008E-3,3E-2,3.6E-2,-2.5000006E-3,-4.166668E-3,3E-2,4.166666E-3,-4.62094E-3],"categories":[],"categories_nodes":[],"categories_segments":[],"categories_sizes":[],"default_left":[0,0,0,0,0,0,0,0,0,0,0,0,0,0,0,0,0,0,0,0,0,0,0,0,0,0,0,0,0,0,0,0,0,0,0,0,0],"id":37,"left_children":[1,3,5,7,9,11,13,-1,-1,15,17,19,21,-1,23,25,27,-1,-1,-1,29,-1,31,33,35,-1,-1,-1,-1,-1,-1,-1,-1,-1,-1,-1,-1],"loss_changes":[1.0076042E0,1.1748548E0,6.035452E-1,1.25325E0,1.010764E0,7.3493195E-1,5.5668974E-1,0E0,0E0,6.826978E-1,7.9416656E-1,5.784E-1,1.2651515E0,0E0,4.8532808E-1,5.4820675E-1,1.0954161E0,0E0,0E0,0E0,7.2749996E-1,0E0,5.553334E-1,9.104167E-1,1.7350936E-1,0E0,0E0,0E0,0E0,0E0,0E0,0E0,0E0,0E0,0E0,0E0,0E0],"parents":[2147483647,0,0,1,1,2,2,3,3,4,4,5,5,6,6,9,9,10,10,11,11,12,12,14,14,15,15,16,16,20,20,22,22,23,23,24,24],"right_children":[2,4,6,8,10,12,14,-1,-1,16,18,20,22,-1,24,26,28,-1,-1,-1,30,-1,32,34,36,-1,-1,-1,-1,-1,-1,-1,-1,-1,-1,-1,-1],"split_conditions":[-1.7211221E2,1.1171034E2,3.411E2,2.8231442E0,-1.8048009E2,1.1469388E1,4.66E1,1.3929825E-1,-2.5933075E-1,1.1498402E2,5.675E1,1.0682688E1,2.2115386E0,6.9835666E-3,-1.6967562E1,1.33E2,0E0,-1.3215561E-1,1.222229E-3,-2.3562264E-2,1.112E2,-3.7458572E-1,1.209E2,1.116E2,4.82E1,-8.90145E-3,2.9220963E-2,-3.8408288E-3,1.2895684E-1,-6.118088E-2,1.35589605E-2,3.3799744E-1,-5.460167E-2,-3.3187333E-1,1.7335282E-1,1.0564232E-1,-4.0998224E-2],"split_indices":[79,37,138,135,79,53,11,0,0,37,14,61,22,0,135,69,125,0,0,0,8,0,1,9,11,0,0,0,0,0,0,0,0,0,0,0,0],"split_type":[0,0,0,0,0,0,0,0,0,0,0,0,0,0,0,0,0,0,0,0,0,0,0,0,0,0,0,0,0,0,0,0,0,0,0,0,0],"sum_hessian":[4.55E2,1.27E2,3.28E2,7E0,1.2E2,3.9E1,2.89E2,4E0,3E0,1.15E2,5E0,2.9E1,1E1,1E0,2.88E2,6.7E1,4.8E1,2E0,3E0,2.4E1,5E0,5E0,5E0,7E0,2.81E2,6.6E1,1E0,3E1,1.8E1,3E0,2E0,4E0,1E0,5E0,2E0,5E0,2.76E2],"tree_param":{"num_deleted":"0","num_feature":"140","num_nodes":"37","size_leaf_vector":"1"}}]},"name":"gbtree"},"learner_model_param":{"base_score":"[6.9E1]","boost_from_average":"1","num_class":"0","num_feature":"140","num_target":"1"},"objective":{"name":"reg:quantileerror","quantile_loss_param":{"quantile_alpha":"[9E-1]"}}},"version":[3,2,0]}