{"learner":{"attributes":{"best_iteration":"286","best_score":"12.05775091089898","scikit_learn":"{\"_estimator_type\": \"regressor\"}"},"feature_names":[],"feature_types":[],"gradient_booster":{"model":{"cats":{"enc":[],"feature_segments":[],"sorted_idx":[]},"gbtree_model_param":{"num_parallel_tree":"1","num_trees":"317"},"iteration_indptr":[0,1,2,3,4,5,6,7,8,9,10,11,12,13,14,15,16,17,18,19,20,21,22,23,24,25,26,27,28,29,30,31,32,33,34,35,36,37,38,39,40,41,42,43,44,45,46,47,48,49,50,51,52,53,54,55,56,57,58,59,60,61,62,63,64,65,66,67,68,69,70,71,72,73,74,75,76,77,78,79,80,81,82,83,84,85,86,87,88,89,90,91,92,93,94,95,96,97,98,99,100,101,102,103,104,105,106,107,108,109,110,111,112,113,114,115,116,117,118,119,120,121,122,123,124,125,126,127,128,129,130,131,132,133,134,135,136,137,138,139,140,141,142,143,144,145,146,147,148,149,150,151,152,153,154,155,156,157,158,159,160,161,162,163,164,165,166,167,168,169,170,171,172,173,174,175,176,177,178,179,180,181,182,183,184,185,186,187,188,189,190,191,192,193,194,195,196,197,198,199,200,201,202,203,204,205,206,207,208,209,210,211,212,213,214,215,216,217,218,219,220,221,222,223,224,225,226,227,228,229,230,231,232,233,234,235,236,237,238,239,240,241,242,243,244,245,246,247,248,249,250,251,252,253,254,255,256,257,258,259,260,261,262,263,264,265,266,267,268,269,270,271,272,273,274,275,276,277,278,279,280,281,282,283,284,285,286,287,288,289,290,291,292,293,294,295,296,297,298,299,300,301,302,303,304,305,306,307,308,309,310,311,312,313,314,315,316,317],"tree_info":[0,0,0,0,0,0,0,0,0,0,0,0,0,0,0,0,0,0,0,0,0,0,0,0,0,0,0,0,0,0,0,0,0,0,0,0,0,0,0,0,0,0,0,0,0,0,0,0,0,0,0,0,0,0,0,0,0,0,0,0,0,0,0,0,0,0,0,0,0,0,0,0,0,0,0,0,0,0,0,0,0,0,0,0,0,0,0,0,0,0,0,0,0,0,0,0,0,0,0,0,0,0,0,0,0,0,0,0,0,0,0,0,0,0,0,0,0,0,0,0,0,0,0,0,0,0,0,0,0,0,0,0,0,0,0,0,0,0,0,0,0,0,0,0,0,0,0,0,0,0,0,0,0,0,0,0,0,0,0,0,0,0,0,0,0,0,0,0,0,0,0,0,0,0,0,0,0,0,0,0,0,0,0,0,0,0,0,0,0,0,0,0,0,0,0,0,0,0,0,0,0,0,0,0,0,0,0,0,0,0,0,0,0,0,0,0,0,0,0,0,0,0,0,0,0,0,0,0,0,0,0,0,0,0,0,0,0,0,0,0,0,0,0,0,0,0,0,0,0,0,0,0,0,0,0,0,0,0,0,0,0,0,0,0,0,0,0,0,0,0,0,0,0,0,0,0,0,0,0,0,0,0,0,0,0,0,0,0,0,0,0,0,0,0,0,0,0,0,0,0,0,0,0,0,0,0,0,0,0,0,0,0,0,0,0,0,0],"trees":[{"base_weights":[1.1707497E-1,-2.8435936E0,4.54253E0,-5.4452596E0,-2.3004316E-1,7.09643E0,2.6630194E0,-3.182625E-1,-4.4650407E0,-7.6909513E0,5.865865E-1,3.975745E0,9.075407E0,-1.0435044E-1,3.2564075E0,-6.5245075E0,-1.7213496E0,-1.7423482E-1,-7.0154175E-2,-3.5093418E-1,6.4890366E0,8.0469475E0,9.0275234E-1,6.5057282E0,1.1311135E1,1.5435132E-1,2.4766476E0,-9.40327E0,-3.6673906E0,-4.6106315E0,2.2227404E0,-2.8089175E0,1.8515676E0,2.6896128E-2,1.8498188E-1,5.6191117E-2,2.0621344E-1,7.494391E-2,-1.7304389E-2,3.6107407E0,1.9481957E-1,2.6503187E-1,9.431204E0,-1.274709E0,3.858581E0,-1.1123226E1,-2.0514438E-2,-1.6285752E-1,-1.4890783E0,-7.906704E0,-1.3000574E0,6.405568E0,-6.915714E-2,7.15785E-2,-4.4818873E0,4.0923953E0,-2.4432983E0,1.4073372E-1,-1.7498216E-2,2.3268797E-1,1.1142013E-1,-4.7180805E0,1.1402861E-1,8.204068E-1,7.4575047E0,-2.8357694E-1,-8.418954E0,4.528202E-2,-5.09261E0,-6.477333E-2,-1.9738458E-1,7.655657E-2,-1.3393839E-1,1.9518238E-1,2.8388249E-2,-9.463788E0,-2.0457795E0,-6.7740545E-2,7.138213E0,-1.1342444E-1,1.7758444E-2,-1.4492175E-1,-1.162053E-2,-9.00375E-2,2.7363927E0,-0E0,9.708095E0,-7.535143E-2,-1.8306936E-1,-1.3825466E-1,-8.380279E-3,-7.5669706E-2,-2.2886883E-1,-9.563771E-2,3.436936E-1,3.973357E0,1.8155447E-1,-1.13682E0,7.247615E0,6.720764E0,2.3318736E-1,4.9755525E-2,-4.7677312E-2,1.17369264E-1,1.3676088E-2,-9.3319386E-2,3.6750346E-2,1.8966685E-1,4.626317E-2,1.8635754E-1,4.143476E-2],"categories":[],"categories_nodes":[],"categories_segments":[],"categories_sizes":[],"default_left":[0,0,0,0,0,0,0,0,0,0,0,0,0,0,0,0,0,0,0,0,0,0,0,0,0,0,0,0,0,0,0,0,0,0,0,0,0,0,0,0,0,0,0,0,0,0,0,0,0,0,0,0,0,0,0,0,0,0,0,0,0,0,0,0,0,0,0,0,0,0,0,0,0,0,0,0,0,0,0,0,0,0,0,0,0,0,0,0,0,0,0,0,0,0,0,0,0,0,0,0,0,0,0,0,0,0,0,0,0,0,0],"id":0,"left_children":[1,3,5,7,9,11,13,-1,15,17,19,21,23,-1,25,27,29,-1,-1,31,33,35,37,39,41,-1,43,45,47,49,51,53,55,-1,-1,-1,-1,-1,-1,57,-1,-1,59,61,63,65,-1,-1,67,69,71,73,-1,-1,75,77,79,-1,-1,-1,-1,81,-1,83,85,-1,87,-1,89,-1,-1,-1,-1,-1,-1,91,93,-1,95,-1,-1,-1,-1,-1,97,-1,99,-1,-1,-1,-1,-1,-1,-1,101,103,-1,105,107,109,-1,-1,-1,-1,-1,-1,-1,-1,-1,-1,-1],"loss_changes":[1.4013357E4,4.330694E3,2.022459E3,4.2250225E3,1.9764747E3,1.0683574E3,1.3077074E3,0E0,1.6585986E3,2.5633105E2,1.6167998E3,8.5499634E2,5.6376855E2,0E0,1.0558804E3,1.3488052E3,1.479485E3,0E0,0E0,1.3464396E3,8.6177356E2,5.5433545E2,3.0213568E2,7.3210254E2,4.1179932E2,0E0,1.0830099E3,1.1336035E3,1.1114554E3,7.84048E2,1.4542002E3,1.4084521E3,1.2577731E3,0E0,0E0,0E0,0E0,0E0,0E0,8.0286835E2,0E0,0E0,4.446919E2,1.537809E3,1.6312197E3,1.01853516E3,0E0,0E0,9.830472E2,5.323616E2,1.540092E3,7.814989E2,0E0,0E0,1.1219645E3,2.1552822E3,7.0258716E2,0E0,0E0,0E0,0E0,5.956791E2,0E0,9.8497253E2,1.1586721E3,0E0,4.290371E2,0E0,4.8884973E2,0E0,0E0,0E0,0E0,0E0,0E0,5.901455E2,5.9899646E2,0E0,7.0432324E2,0E0,0E0,0E0,0E0,0E0,1.1417168E3,0E0,6.1086914E2,0E0,0E0,0E0,0E0,0E0,0E0,0E0,3.3475668E2,3.1306293E2,0E0,5.258786E2,5.074912E2,5.5939343E2,0E0,0E0,0E0,0E0,0E0,0E0,0E0,0E0,0E0,0E0,0E0],"parents":[2147483647,0,0,1,1,2,2,3,3,4,4,5,5,6,6,8,8,9,9,10,10,11,11,12,12,14,14,15,15,16,16,19,19,20,20,21,21,22,22,23,23,24,24,26,26,27,27,28,28,29,29,30,30,31,31,32,32,39,39,42,42,43,43,44,44,45,45,48,48,49,49,50,50,51,51,54,54,55,55,56,56,61,61,63,63,64,64,66,66,68,68,75,75,76,76,78,78,84,84,86,86,94,94,95,95,97,97,98,98,99,99],"right_children":[2,4,6,8,10,12,14,-1,16,18,20,22,24,-1,26,28,30,-1,-1,32,34,36,38,40,42,-1,44,46,48,50,52,54,56,-1,-1,-1,-1,-1,-1,58,-1,-1,60,62,64,66,-1,-1,68,70,72,74,-1,-1,76,78,80,-1,-1,-1,-1,82,-1,84,86,-1,88,-1,90,-1,-1,-1,-1,-1,-1,92,94,-1,96,-1,-1,-1,-1,-1,98,-1,100,-1,-1,-1,-1,-1,-1,-1,102,104,-1,106,108,110,-1,-1,-1,-1,-1,-1,-1,-1,-1,-1,-1],"split_conditions":[1.0357143E2,2.42E1,1.3250686E3,9.9375E1,0E0,1.19E2,1.07333336E2,-3.182625E-1,1.0687603E1,2.99E1,5E1,2.02E1,1.5353977E3,-1.0435044E-1,5.51E1,3.7E1,2.4864864E0,-1.7423482E-1,-7.0154175E-2,4.056604E0,1.158E2,5.825E1,1.8543047E-1,1.258E2,7.65E1,1.5435132E-1,2.262295E0,6.666667E-1,1.015625E2,1.76E1,5.9E1,2.68E1,1.162E2,2.6896128E-2,1.8498188E-1,5.6191117E-2,2.0621344E-1,7.494391E-2,-1.7304389E-2,2.2333334E1,1.9481957E-1,2.6503187E-1,5.57E1,3.11E1,-1.1607143E0,5.65E1,-2.0514438E-2,-1.6285752E-1,1.1045455E1,3.9814816E0,8.36E1,5.6626505E-1,-6.915714E-2,7.15785E-2,2.125E0,1.0198661E2,1.0972222E0,1.4073372E-1,-1.7498216E-2,2.3268797E-1,1.1142013E-1,-1.1301873E2,1.1402861E-1,7.05E1,2.81E1,-2.8357694E-1,2E0,4.528202E-2,5.95E1,-6.477333E-2,-1.9738458E-1,7.655657E-2,-1.3393839E-1,1.9518238E-1,2.8388249E-2,1.1125E2,1.8666667E0,-6.7740545E-2,6.0638297E-1,-1.1342444E-1,1.7758444E-2,-1.4492175E-1,-1.162053E-2,-9.00375E-2,1.178E2,-0E0,8.275E1,-7.535143E-2,-1.8306936E-1,-1.3825466E-1,-8.380279E-3,-7.5669706E-2,-2.2886883E-1,-9.563771E-2,1.106E2,8.275E1,1.8155447E-1,5.525E1,3.0428572E1,5.76E1,2.3318736E-1,4.9755525E-2,-4.7677312E-2,1.17369264E-1,1.3676088E-2,-9.3319386E-2,3.6750346E-2,1.8966685E-1,4.626317E-2,1.8635754E-1,4.143476E-2],"split_indices":[36,27,78,36,119,41,69,0,61,63,35,59,77,0,46,35,22,0,0,55,41,15,28,41,26,0,22,81,4,27,15,62,9,0,0,0,0,0,0,59,0,0,46,62,75,46,0,0,21,55,26,39,0,0,22,74,123,0,0,0,0,120,0,26,63,0,48,0,15,0,0,0,0,0,0,9,123,0,7,0,0,0,0,0,69,0,58,0,0,0,0,0,0,0,41,58,0,15,63,10,0,0,0,0,0,0,0,0,0,0,0],"split_type":[0,0,0,0,0,0,0,0,0,0,0,0,0,0,0,0,0,0,0,0,0,0,0,0,0,0,0,0,0,0,0,0,0,0,0,0,0,0,0,0,0,0,0,0,0,0,0,0,0,0,0,0,0,0,0,0,0,0,0,0,0,0,0,0,0,0,0,0,0,0,0,0,0,0,0,0,0,0,0,0,0,0,0,0,0,0,0,0,0,0,0,0,0,0,0,0,0,0,0,0,0,0,0,0,0,0,0,0,0,0,0],"sum_hessian":[1.069E3,6.4E2,4.29E2,3.2E2,3.2E2,1.81E2,2.48E2,2.1E1,2.99E2,3.2E1,2.88E2,7.1E1,1.1E2,1.5E1,2.33E2,1.7E2,1.29E2,1.7E1,1.5E1,2.48E2,4E1,3E1,4.1E1,5.2E1,5.8E1,2.6E1,2.07E2,8.4E1,8.6E1,7.5E1,5.4E1,1.18E2,1.3E2,2E1,2E1,1.5E1,1.5E1,1.5E1,2.6E1,3.4E1,1.8E1,1.6E1,4.2E1,5.5E1,1.52E2,6.9E1,1.5E1,2.2E1,6.4E1,3.7E1,3.8E1,3.3E1,2.1E1,2.2E1,9.6E1,8.6E1,4.4E1,1.7E1,1.7E1,1.5E1,2.7E1,3.9E1,1.6E1,8.3E1,6.9E1,2.1E1,4.8E1,2.9E1,3.5E1,1.9E1,1.8E1,2E1,1.8E1,1.5E1,1.8E1,3.1E1,6.5E1,2.3E1,6.3E1,2E1,2.4E1,1.9E1,2E1,1.9E1,6.4E1,1.6E1,5.3E1,2E1,2.8E1,2E1,1.5E1,1.5E1,1.6E1,2.6E1,3.9E1,3.5E1,2.8E1,3.4E1,3E1,3.2E1,2.1E1,2.2E1,1.7E1,1.7E1,1.8E1,1.5E1,1.9E1,1.5E1,1.5E1,1.5E1,1.7E1],"tree_param":{"num_deleted":"0","num_feature":"126","num_nodes":"111","size_leaf_vector":"1"}},{"base_weights":[-1.1674833E-1,5.263011E0,-2.161532E0,-9.551447E-2,5.909153E0,-2.9349664E-1,-1.8504372E0,5.1931014E0,1.1125998E1,-5.1737375E0,-6.388991E-1,3.1266286E0,7.3660197E0,2.5032112E-1,1.10226795E-1,-6.7138953E0,1.8669893E0,2.6335096E-1,-4.405495E0,-3.861502E-2,4.3057027E0,5.035441E0,1.1703052E1,-8.926512E0,-2.9044614E0,-8.74284E-2,1.1844091E-1,1.482831E-1,-1.7374215E-1,-6.375419E0,-3.0567735E-1,8.085171E0,1.6220825E0,-1.22109745E-2,6.70488E0,1.13911256E-1,2.6009306E-1,-1.3601361E1,-6.822193E0,-1.6626775E-1,1.6205569E-1,2.5341165E0,-1.3636662E0,-8.513129E0,-4.294022E-2,8.539851E-2,-7.265086E-2,8.504257E-2,1.9836497E-1,-9.935958E-1,1.4513074E-1,3.0234806E-2,9.766549E0,-1.2286948E-1,-3.1198108E-1,-4.1168213E0,-1.9160794E-1,6.345094E-2,-7.080109E-2,-1.065955E-1,3.8263013E0,-3.0432472E0,1.7961684E0,-6.0692463E0,-2.2038563E-1,-8.961734E-2,7.187737E-2,2.1032579E-1,9.418924E-2,2.1117875E-2,-7.0183244E0,1.44931E-1,2.1796088E0,-1.5858443E0,-7.989374E0,6.065328E-1,1.4111836E-1,-1.5433244E-1,-4.61899E-2,-3.5426732E-2,-1.8812989E-1,5.6043905E-3,1.1694262E-1,-1.6141814E-1,-9.904477E-3,-7.547826E-2,-2.0388857E-1,-5.1632207E-2,3.987917E-2],"categories":[],"categories_nodes":[],"categories_segments":[],"categories_sizes":[],"default_left":[0,0,0,0,0,0,0,0,0,0,0,0,0,0,0,0,0,0,0,0,0,0,0,0,0,0,0,0,0,0,0,0,0,0,0,0,0,0,0,0,0,0,0,0,0,0,0,0,0,0,0,0,0,0,0,0,0,0,0,0,0,0,0,0,0,0,0,0,0,0,0,0,0,0,0,0,0,0,0,0,0,0,0,0,0,0,0,0,0],"id":1,"left_children":[1,3,5,-1,7,-1,9,11,13,15,17,19,21,-1,-1,23,25,27,29,-1,31,33,35,37,39,-1,-1,-1,41,43,45,47,49,-1,51,-1,-1,53,55,-1,57,59,61,63,-1,-1,-1,-1,-1,65,-1,-1,67,-1,-1,69,-1,-1,-1,-1,71,73,75,77,-1,-1,-1,-1,-1,-1,79,-1,81,83,85,87,-1,-1,-1,-1,-1,-1,-1,-1,-1,-1,-1,-1,-1],"loss_changes":[1.179246E4,2.1032363E3,3.6890515E3,0E0,9.799551E2,0E0,3.0503962E3,1.0649854E3,5.0412134E2,2.2199727E3,1.9186832E3,8.24849E2,1.1391357E3,0E0,0E0,1.3630205E3,1.366184E3,1.7445967E3,8.555398E2,0E0,1.0286769E3,7.7427014E2,7.0366455E2,9.54625E2,1.3924832E3,0E0,0E0,0E0,1.3780999E3,5.488135E2,7.994945E2,4.2820117E2,1.1866458E3,0E0,8.681948E2,0E0,0E0,9.334336E2,8.764187E2,0E0,6.981447E2,1.4972489E3,1.5917764E3,4.6378027E2,0E0,0E0,0E0,0E0,0E0,1.0637924E3,0E0,0E0,3.716372E2,0E0,0E0,7.572222E2,0E0,0E0,0E0,0E0,8.821903E2,1.3769945E3,7.892247E2,2.8438782E2,0E0,0E0,0E0,0E0,0E0,0E0,6.0510986E2,0E0,7.447796E2,1.1862279E3,5.878845E2,5.870906E2,0E0,0E0,0E0,0E0,0E0,0E0,0E0,0E0,0E0,0E0,0E0,0E0,0E0],"parents":[2147483647,0,0,1,1,2,2,4,4,6,6,7,7,8,8,9,9,10,10,11,11,12,12,15,15,16,16,17,17,18,18,20,20,21,21,22,22,23,23,24,24,28,28,29,29,30,30,31,31,32,32,34,34,37,37,38,38,40,40,41,41,42,42,43,43,49,49,52,52,55,55,60,60,61,61,62,62,63,63,70,70,72,72,73,73,74,74,75,75],"right_children":[2,4,6,-1,8,-1,10,12,14,16,18,20,22,-1,-1,24,26,28,30,-1,32,34,36,38,40,-1,-1,-1,42,44,46,48,50,-1,52,-1,-1,54,56,-1,58,60,62,64,-1,-1,-1,-1,-1,66,-1,-1,68,-1,-1,70,-1,-1,-1,-1,72,74,76,78,-1,-1,-1,-1,-1,-1,80,-1,82,84,86,88,-1,-1,-1,-1,-1,-1,-1,-1,-1,-1,-1,-1,-1],"split_conditions":[4.1463414E-1,1.076E2,9.78E1,-9.551447E-2,1.278E2,-2.9349664E-1,1.76E1,9.148223E0,8.886592E0,1.19E2,6.666667E-1,2.6222221E1,5.92E1,2.5032112E-1,1.10226795E-1,2.9857143E1,3.3405796E1,7.7967896E0,2.975E1,-3.861502E-2,2.81E1,-3.8785121E0,2.22E1,2.8333334E1,4.0185184E0,-8.74284E-2,1.1844091E-1,1.482831E-1,3.4E1,5.6850903E1,3.09E1,1.5496368E3,1.0459821E2,-1.22109745E-2,1.162E2,1.13911256E-1,2.6009306E-1,5.54E1,2.52E1,-1.6626775E-1,2.585628E0,-1.9342719E2,1.0375E2,5E1,-4.294022E-2,8.539851E-2,-7.265086E-2,8.504257E-2,1.9836497E-1,3.02E1,1.4513074E-1,3.0234806E-2,2.93E1,-1.2286948E-1,-3.1198108E-1,5.6666668E1,-1.9160794E-1,6.345094E-2,-7.080109E-2,-1.065955E-1,-2E-1,1.1333333E1,3.1665474E-1,2.6E1,-2.2038563E-1,-8.961734E-2,7.187737E-2,2.1032579E-1,9.418924E-2,2.1117875E-2,1.106E2,1.44931E-1,2E0,-2.6423087E2,2.9714285E1,2.82E1,1.4111836E-1,-1.5433244E-1,-4.61899E-2,-3.5426732E-2,-1.8812989E-1,5.6043905E-3,1.1694262E-1,-1.6141814E-1,-9.904477E-3,-7.547826E-2,-2.0388857E-1,-5.1632207E-2,3.987917E-2],"split_indices":[39,64,41,0,41,0,27,61,61,32,39,63,11,0,0,30,57,61,63,0,62,83,27,62,23,0,0,0,3,56,63,77,4,0,41,0,0,42,59,0,83,121,4,3,0,0,0,0,0,62,0,0,31,0,0,11,0,0,0,0,123,21,83,27,0,0,0,0,0,0,41,0,71,121,31,63,0,0,0,0,0,0,0,0,0,0,0,0,0],"split_type":[0,0,0,0,0,0,0,0,0,0,0,0,0,0,0,0,0,0,0,0,0,0,0,0,0,0,0,0,0,0,0,0,0,0,0,0,0,0,0,0,0,0,0,0,0,0,0,0,0,0,0,0,0,0,0,0,0,0,0,0,0,0,0,0,0,0,0,0,0,0,0,0,0,0,0,0,0,0,0,0,0,0,0,0,0,0,0,0,0],"sum_hessian":[1.073E3,2.95E2,7.78E2,1.6E1,2.79E2,1.5E1,7.63E2,2.46E2,3.3E1,2.03E2,5.6E2,1.27E2,1.19E2,1.7E1,1.6E1,1.67E2,3.6E1,4.51E2,1.09E2,2.2E1,1.05E2,7.8E1,4.1E1,1.05E2,6.2E1,1.5E1,2.1E1,2.2E1,4.29E2,7.3E1,3.6E1,4.3E1,6.2E1,1.7E1,6.1E1,1.9E1,2.2E1,3.2E1,7.3E1,1.9E1,4.3E1,1.3E2,2.99E2,4.6E1,2.7E1,1.5E1,2.1E1,2.5E1,1.8E1,4.5E1,1.7E1,2.4E1,3.7E1,1.5E1,1.7E1,4.7E1,2.6E1,2.4E1,1.9E1,1.6E1,1.14E2,1.96E2,1.03E2,3.1E1,1.5E1,2.5E1,2E1,2.1E1,1.6E1,1.6E1,3.1E1,2.8E1,8.6E1,1.52E2,4.4E1,8.8E1,1.5E1,1.5E1,1.6E1,1.5E1,1.6E1,6.3E1,2.3E1,1.6E1,1.36E2,2.5E1,1.9E1,2.8E1,6E1],"tree_param":{"num_deleted":"0","num_feature":"126","num_nodes":"89","size_leaf_vector":"1"}},{"base_weights":[1.1017291E-1,-4.608301E0,2.958314E0,-3.252102E-1,-3.723405E0,1.4657372E0,7.875991E0,-7.613008E0,-1.5961126E0,-2.150541E0,2.9829304E0,3.515655E0,9.997388E0,-1.0447974E1,-2.343457E0,-2.9494157E0,5.2438293E0,-1.1368154E0,-1.2561032E-1,3.7821705E0,-2.0130126E0,1.297903E-1,-3.324055E-2,6.7896543E0,1.173588E1,-1.2044439E1,-1.0210012E-1,8.427201E-2,-5.94311E0,7.0040375E-2,-3.745759E0,1.5308467E-1,3.5202645E-2,-2.0780656E0,7.837148E-2,4.4028516E0,-6.957217E-2,-4.9670773E0,6.372954E-2,3.505127E-2,1.8254311E-1,1.4838325E1,8.511525E0,-1.4257584E1,-1.3455284E-1,-1.97396E-1,-0E0,-1.5533667E0,-6.336185E0,-6.0680842E0,-8.516352E-2,5.2837343E0,1.17092445E-1,-2.2654234E-2,-1.4965689E-1,2.9626557E-1,1.8102524E-1,1.8186104E-1,9.365696E-2,-2.9794025E-1,-1.5259513E-1,-3.048614E0,1.1207136E-1,-1.3799839E0,-9.018634E0,-1.7269175E-1,-3.9646614E-2,3.5109825E0,-2.6224537E0,2.5764325E-1,6.3054805E0,8.406929E-2,-2.1071007E0,-1.5485423E0,-1.5523182E-1,-9.0640165E-2,4.0817216E-2,-2.1444245E-1,-6.5954275E0,1.3201204E-1,-1.160871E-2,-8.708723E-2,3.675874E-2,1.4835374E-1,-8.55277E-2,4.7752366E0,9.30647E0,4.303749E-2,-1.2641975E-1,2.7083049E-2,-9.80218E-2,-1.3932352E-1,-7.1528494E-2,-5.8983183E-3,1.0058557E-1,2.4274194E-1,1.1966476E-1],"categories":[],"categories_nodes":[],"categories_segments":[],"categories_sizes":[],"default_left":[0,0,0,0,0,0,0,0,0,0,0,0,0,0,0,0,0,0,0,0,0,0,0,0,0,0,0,0,0,0,0,0,0,0,0,0,0,0,0,0,0,0,0,0,0,0,0,0,0,0,0,0,0,0,0,0,0,0,0,0,0,0,0,0,0,0,0,0,0,0,0,0,0,0,0,0,0,0,0,0,0,0,0,0,0,0,0,0,0,0,0,0,0,0,0,0,0],"id":2,"left_children":[1,3,5,-1,7,9,11,13,15,17,19,21,23,25,27,29,31,33,-1,35,37,-1,-1,39,41,43,-1,-1,45,-1,47,-1,-1,49,-1,51,-1,53,-1,-1,-1,55,57,59,-1,-1,-1,61,63,65,67,69,71,-1,-1,-1,-1,-1,-1,-1,-1,73,-1,75,77,-1,-1,79,81,83,85,-1,87,89,-1,-1,-1,-1,91,-1,-1,-1,-1,-1,-1,93,95,-1,-1,-1,-1,-1,-1,-1,-1,-1,-1],"loss_changes":[1.4293488E4,5.22541E3,4.838799E3,0E0,3.0932285E3,2.8015674E3,1.3734209E3,1.9389111E3,2.2599028E3,7.927889E2,1.4443574E3,1.2378123E3,5.0339746E2,5.1906934E2,1.2613247E3,1.1701147E3,4.5566846E2,6.916278E2,0E0,1.541706E3,8.530562E2,0E0,0E0,6.815426E2,5.70167E2,4.525498E2,0E0,0E0,1.1419127E3,0E0,1.02110986E3,0E0,0E0,8.519112E2,0E0,1.0709707E3,0E0,4.439063E2,0E0,0E0,0E0,2.8039307E2,1.6891626E2,6.273613E2,0E0,0E0,0E0,1.242725E3,1.0779731E3,5.277897E2,6.723539E2,1.2029526E3,5.6267615E2,0E0,0E0,0E0,0E0,0E0,0E0,0E0,0E0,7.741052E2,0E0,4.833032E2,4.3810205E2,0E0,0E0,5.904365E2,5.724707E2,1.947555E3,8.557129E2,0E0,9.027852E2,9.891305E2,0E0,0E0,0E0,0E0,9.206238E1,0E0,0E0,0E0,0E0,0E0,0E0,8.976775E2,6.513071E2,0E0,0E0,0E0,0E0,0E0,0E0,0E0,0E0,0E0,0E0],"parents":[2147483647,0,0,1,1,2,2,4,4,5,5,6,6,7,7,8,8,9,9,10,10,11,11,12,12,13,13,14,14,15,15,16,16,17,17,19,19,20,20,23,23,24,24,25,25,28,28,30,30,33,33,35,35,37,37,41,41,42,42,43,43,47,47,48,48,49,49,50,50,51,51,52,52,61,61,63,63,64,64,67,67,68,68,69,69,70,70,72,72,73,73,78,78,85,85,86,86],"right_children":[2,4,6,-1,8,10,12,14,16,18,20,22,24,26,28,30,32,34,-1,36,38,-1,-1,40,42,44,-1,-1,46,-1,48,-1,-1,50,-1,52,-1,54,-1,-1,-1,56,58,60,-1,-1,-1,62,64,66,68,70,72,-1,-1,-1,-1,-1,-1,-1,-1,74,-1,76,78,-1,-1,80,82,84,86,-1,88,90,-1,-1,-1,-1,92,-1,-1,-1,-1,-1,-1,94,96,-1,-1,-1,-1,-1,-1,-1,-1,-1,-1],"split_conditions":[1.134E2,1.11E2,1.209E2,-3.252102E-1,1.94E1,1.144E2,1.149E2,1.177E2,1.185E2,5.4815656E-1,1.15E1,2.91E1,1.192E2,1.162E2,1.184E2,3.2340426E0,1.135E2,3.2478634E-1,-1.2561032E-1,3.29E1,1.172E2,1.297903E-1,-3.324055E-2,5.78E1,1.1662893E2,5.7285713E1,-1.0210012E-1,8.427201E-2,5.925E1,7.0040375E-2,5.76E1,1.5308467E-1,3.5202645E-2,9.555555E0,7.837148E-2,6.22E1,-6.957217E-2,1.122E2,6.372954E-2,3.505127E-2,1.8254311E-1,1.163E2,3.370707E1,1.09811325E1,-1.3455284E-1,-1.97396E-1,-0E0,1.0339286E2,1.009375E2,3.3585712E1,1.0354167E1,-1.5547096E2,7.58E1,-2.2654234E-2,-1.4965689E-1,2.9626557E-1,1.8102524E-1,1.8186104E-1,9.365696E-2,-2.9794025E-1,-1.5259513E-1,5.6313305E1,1.1207136E-1,4.8E1,3.8823528E0,-1.7269175E-1,-3.9646614E-2,1.0200262E1,3.08E1,-1.7803148E0,1.6424366E3,8.406929E-2,1.142E2,2.96E1,-1.5523182E-1,-9.0640165E-2,4.0817216E-2,-2.1444245E-1,7E0,1.3201204E-1,-1.160871E-2,-8.708723E-2,3.675874E-2,1.4835374E-1,-8.55277E-2,2.9078144E1,2.9930952E1,4.303749E-2,-1.2641975E-1,2.7083049E-2,-9.80218E-2,-1.3932352E-1,-7.1528494E-2,-5.8983183E-3,1.0058557E-1,2.4274194E-1,1.1966476E-1],"split_indices":[33,0,33,0,27,0,0,44,0,83,81,62,41,12,44,23,9,60,0,31,41,0,0,15,38,46,0,0,14,0,14,0,0,21,0,10,0,41,0,0,0,12,25,21,0,0,0,74,36,57,21,121,26,0,0,0,0,0,0,0,0,24,0,2,23,0,0,29,62,83,77,0,45,62,0,0,0,0,73,0,0,0,0,0,0,57,25,0,0,0,0,0,0,0,0,0,0],"split_type":[0,0,0,0,0,0,0,0,0,0,0,0,0,0,0,0,0,0,0,0,0,0,0,0,0,0,0,0,0,0,0,0,0,0,0,0,0,0,0,0,0,0,0,0,0,0,0,0,0,0,0,0,0,0,0,0,0,0,0,0,0,0,0,0,0,0,0,0,0,0,0,0,0,0,0,0,0,0,0,0,0,0,0,0,0,0,0,0,0,0,0,0,0,0,0,0,0],"sum_hessian":[1.064E3,4E2,6.64E2,2.2E1,3.78E2,5.1E2,1.54E2,1.33E2,2.45E2,1.5E2,3.6E2,5.1E1,1.03E2,8.6E1,4.7E1,2.05E2,4E1,1.27E2,2.3E1,3.11E2,4.9E1,2.9E1,2.2E1,3.7E1,6.6E1,6.2E1,2.4E1,1.5E1,3.2E1,2E1,1.85E2,1.7E1,2.3E1,1.1E2,1.7E1,2.89E2,2.2E1,3.3E1,1.6E1,1.8E1,1.9E1,3.3E1,3.3E1,3.9E1,2.3E1,1.6E1,1.6E1,1.01E2,8.4E1,3.6E1,7.4E1,2.39E2,5E1,1.8E1,1.5E1,1.8E1,1.5E1,1.7E1,1.6E1,2.2E1,1.7E1,8.6E1,1.5E1,3E1,5.4E1,1.6E1,2E1,3E1,4.4E1,4.1E1,1.98E2,1.6E1,3.4E1,7E1,1.6E1,1.5E1,1.5E1,2E1,3.4E1,1.5E1,1.5E1,2.9E1,1.5E1,1.6E1,2.5E1,1.32E2,6.6E1,1.8E1,1.6E1,4E1,3E1,1.8E1,1.6E1,2.6E1,1.06E2,1.8E1,4.8E1],"tree_param":{"num_deleted":"0","num_feature":"126","num_nodes":"97","size_leaf_vector":"1"}},{"base_weights":[1.4159663E-1,-2.5290174E0,4.269027E0,-4.9623585E0,-7.668813E-2,-1.8815154E-1,5.870621E0,-2.9536217E-1,-4.027388E0,7.3994274E0,-1.0406384E0,1.3042657E-1,-1.6709697E0,7.0840325E0,1.340643E0,-6.040834E0,-1.3645594E0,4.450315E-2,2.3285797E-1,-3.3592284E0,1.9241384E0,3.2032027E0,-3.9783483E0,4.980125E0,9.544256E0,-1.8390591E0,5.3848333E0,-1.7702458E0,-7.5912466E0,-4.360668E0,2.4456124E0,-4.9795157E-1,-6.389458E0,2.7696097E-1,5.5426517E0,-0E0,1.0664307E-1,-1.64444E-1,-1.6187459E0,9.960281E-1,6.695695E0,8.051328E0,2.5746262E-1,3.8452797E-2,-8.592712E-2,1.4027224E-1,3.3960976E-2,-1.0839229E-1,3.217527E-2,-1.4279034E-2,-8.888777E0,-6.926877E0,4.9820356E-2,1.6437504E-1,-3.1623787E-1,2.81798E0,-3.3903747E0,-8.267075E0,-4.3242257E-3,1.6822581E0,-9.6242085E-2,3.923147E-2,1.634865E-1,4.372817E-2,-8.618227E-2,8.5266896E-2,-7.6911904E-2,8.017954E0,1.6052319E-3,9.289654E0,2.5254656E-2,-1.2027089E1,-6.5084853E0,-2.6531007E-2,-1.0259801E1,-7.3000245E-2,4.806542E-2,1.0369377E-1,-2.345419E-2,-6.2717304E0,2.951275E-2,-2.340078E-1,-5.6634736E0,1.9150289E-2,1.20347396E-1,5.717168E0,2.1434209E-1,8.670991E-2,1.1445775E1,-2.7748019E-1,-1.4948435E-1,-5.8333967E-3,-8.433679E0,-9.543145E-2,-2.4078152E-1,-6.034971E-2,-1.4325824E-1,-3.68236E-2,-1.5340266E-1,-5.2832946E-2,2.7260613E0,7.308003E0,3.9960008E-2,9.164183E0,2.7090716E-1,-2.0800948E-1,-8.933233E-2,1.0217188E-1,-4.4616945E-3,7.218611E-2,1.7517512E-1,9.5009886E-2,2.0491177E-1],"categories":[],"categories_nodes":[],"categories_segments":[],"categories_sizes":[],"default_left":[0,0,0,0,0,0,0,0,0,0,0,0,0,0,0,0,0,0,0,0,0,0,0,0,0,0,0,0,0,0,0,0,0,0,0,0,0,0,0,0,0,0,0,0,0,0,0,0,0,0,0,0,0,0,0,0,0,0,0,0,0,0,0,0,0,0,0,0,0,0,0,0,0,0,0,0,0,0,0,0,0,0,0,0,0,0,0,0,0,0,0,0,0,0,0,0,0,0,0,0,0,0,0,0,0,0,0,0,0,0,0,0,0],"id":3,"left_children":[1,3,5,7,9,11,13,-1,15,17,19,-1,21,23,25,27,29,-1,-1,31,33,35,37,39,41,43,45,47,49,51,53,55,57,59,61,-1,-1,-1,63,65,67,69,-1,-1,-1,-1,-1,-1,-1,-1,71,73,-1,-1,75,77,79,81,-1,83,-1,-1,-1,-1,-1,-1,-1,85,-1,87,-1,89,91,-1,93,-1,-1,-1,-1,95,-1,-1,97,99,-1,101,-1,-1,103,-1,-1,-1,105,-1,-1,-1,-1,-1,-1,-1,107,109,-1,111,-1,-1,-1,-1,-1,-1,-1,-1,-1],"loss_changes":[1.1944706E4,3.9018853E3,3.0624536E3,3.8722227E3,2.3404084E3,1.3156339E3,1.6944316E3,0E0,1.6182598E3,1.0973485E3,2.0060536E3,0E0,1.0719172E3,1.2232266E3,8.753777E2,1.1169766E3,1.525987E3,0E0,0E0,1.3963672E3,7.353545E2,3.139632E2,8.684326E2,8.8718823E2,9.1953125E2,5.261402E2,2.6866412E2,8.4993567E2,1.072605E3,1.4334387E3,1.233331E3,8.178574E2,8.774675E2,7.3741364E2,4.8929895E2,0E0,0E0,0E0,7.267863E2,9.617711E2,7.813755E2,6.950718E2,0E0,0E0,0E0,0E0,0E0,0E0,0E0,0E0,7.2088184E2,9.4985986E2,0E0,0E0,5.5850916E2,5.8629144E2,7.0279266E2,8.386821E2,0E0,6.4109296E2,0E0,0E0,0E0,0E0,0E0,0E0,0E0,7.9945215E2,0E0,6.014507E2,0E0,5.385991E2,6.9043726E2,0E0,5.7592163E2,0E0,0E0,0E0,0E0,1.4068848E2,0E0,0E0,4.7619885E2,4.848231E2,0E0,2.4217847E2,0E0,0E0,4.4906055E2,0E0,0E0,0E0,5.0804663E2,0E0,0E0,0E0,0E0,0E0,0E0,0E0,3.4157056E2,2.804071E2,0E0,3.0424072E2,0E0,0E0,0E0,0E0,0E0,0E0,0E0,0E0,0E0],"parents":[2147483647,0,0,1,1,2,2,3,3,4,4,5,5,6,6,8,8,9,9,10,10,12,12,13,13,14,14,15,15,16,16,19,19,20,20,21,21,22,22,23,23,24,24,25,25,26,26,27,27,28,28,29,29,30,30,31,31,32,32,33,33,34,34,38,38,39,39,40,40,41,41,50,50,51,51,54,54,55,55,56,56,57,57,59,59,67,67,69,69,71,71,72,72,74,74,79,79,82,82,83,83,85,85,88,88,92,92,100,100,101,101,103,103],"right_children":[2,4,6,8,10,12,14,-1,16,18,20,-1,22,24,26,28,30,-1,-1,32,34,36,38,40,42,44,46,48,50,52,54,56,58,60,62,-1,-1,-1,64,66,68,70,-1,-1,-1,-1,-1,-1,-1,-1,72,74,-1,-1,76,78,80,82,-1,84,-1,-1,-1,-1,-1,-1,-1,86,-1,88,-1,90,92,-1,94,-1,-1,-1,-1,96,-1,-1,98,100,-1,102,-1,-1,104,-1,-1,-1,106,-1,-1,-1,-1,-1,-1,-1,108,110,-1,112,-1,-1,-1,-1,-1,-1,-1,-1,-1],"split_conditions":[1.0357143E2,2.42E1,1.142E2,9.9375E1,7.868729E0,5.44E1,6.15E1,-2.9536217E-1,1.0687603E1,5.84E1,1.1742857E2,1.3042657E-1,1.1613333E2,1.19E2,-1.25E0,1.1046667E2,2.4864864E0,4.450315E-2,2.3285797E-1,1.0731389E1,1.191E2,3.2892258E1,4.2E1,2.8222221E1,2.7586207E-1,1.141E2,2.85E1,3.85E0,1.6724738E-1,1.157E2,4E0,1.0200893E2,-7.5E-1,1.178E2,5.7E1,-0E0,1.0664307E-1,-1.64444E-1,2.3106796E-1,2.2727273E-1,1.1907692E2,2.5E1,2.5746262E-1,3.8452797E-2,-8.592712E-2,1.4027224E-1,3.3960976E-2,-1.0839229E-1,3.217527E-2,-1.4279034E-2,5.8E1,3.5E1,4.9820356E-2,1.6437504E-1,1.16E2,2E0,5.167199E0,2.1666667E0,-4.3242257E-3,2E0,-9.6242085E-2,3.923147E-2,1.634865E-1,4.372817E-2,-8.618227E-2,8.5266896E-2,-7.6911904E-2,1.174E2,1.6052319E-3,1.24E1,2.5254656E-2,2E0,-6.032473E0,-2.6531007E-2,3.2030647E1,-7.3000245E-2,4.806542E-2,1.0369377E-1,-2.345419E-2,2.9166666E1,2.951275E-2,-2.340078E-1,2.5957446E0,3.0333334E1,1.20347396E-1,1.158E2,2.1434209E-1,8.670991E-2,5.85E1,-2.7748019E-1,-1.4948435E-1,-5.8333967E-3,2.81E1,-9.543145E-2,-2.4078152E-1,-6.034971E-2,-1.4325824E-1,-3.68236E-2,-1.5340266E-1,-5.2832946E-2,5.64E1,1.1292857E2,3.9960008E-2,1.145E2,2.7090716E-1,-2.0800948E-1,-8.933233E-2,1.0217188E-1,-4.4616945E-3,7.218611E-2,1.7517512E-1,9.5009886E-2,2.0491177E-1],"split_indices":[36,27,0,36,61,42,10,0,61,10,64,0,70,41,75,69,22,0,0,61,0,25,35,63,60,44,31,55,60,0,18,36,81,69,15,0,0,0,60,60,64,59,0,0,0,0,0,0,0,0,42,35,0,0,0,71,118,22,0,82,0,0,0,0,0,0,0,0,0,59,0,16,118,0,25,0,0,0,0,63,0,0,22,31,0,64,0,0,10,0,0,0,31,0,0,0,0,0,0,0,15,64,0,13,0,0,0,0,0,0,0,0,0],"split_type":[0,0,0,0,0,0,0,0,0,0,0,0,0,0,0,0,0,0,0,0,0,0,0,0,0,0,0,0,0,0,0,0,0,0,0,0,0,0,0,0,0,0,0,0,0,0,0,0,0,0,0,0,0,0,0,0,0,0,0,0,0,0,0,0,0,0,0,0,0,0,0,0,0,0,0,0,0,0,0,0,0,0,0,0,0,0,0,0,0,0,0,0,0,0,0,0,0,0,0,0,0,0,0,0,0,0,0,0,0,0,0,0,0],"sum_hessian":[1.083E3,6.57E2,4.26E2,3.29E2,3.28E2,1.12E2,3.14E2,2.2E1,3.07E2,3.7E1,2.91E2,1.7E1,9.5E1,2.47E2,6.7E1,1.74E2,1.33E2,2.2E1,1.5E1,1.64E2,1.27E2,3E1,6.5E1,1.34E2,1.13E2,3.7E1,3E1,4.7E1,1.27E2,7.5E1,5.8E1,8.5E1,7.9E1,8.8E1,3.9E1,1.5E1,1.5E1,1.8E1,4.7E1,4.1E1,9.3E1,9.1E1,2.2E1,1.6E1,2.1E1,1.5E1,1.5E1,2.1E1,2.6E1,2.1E1,1.06E2,5.6E1,1.9E1,1.6E1,4.2E1,3.9E1,4.6E1,6E1,1.9E1,7.2E1,1.6E1,2.3E1,1.6E1,2.1E1,2.6E1,2.4E1,1.7E1,7.7E1,1.6E1,7.6E1,1.5E1,4.5E1,6.1E1,2.2E1,3.4E1,1.9E1,2.3E1,2.2E1,1.7E1,3E1,1.6E1,1.8E1,4.2E1,5.6E1,1.6E1,5.3E1,2.4E1,2.7E1,4.9E1,1.7E1,2.8E1,1.5E1,4.6E1,1.7E1,1.7E1,1.5E1,1.5E1,2.2E1,2E1,2.5E1,3.1E1,3.5E1,1.8E1,3.4E1,1.5E1,1.9E1,2.7E1,1.5E1,1.6E1,1.9E1,1.6E1,1.7E1,1.7E1],"tree_param":{"num_deleted":"0","num_feature":"126","num_nodes":"113","size_leaf_vector":"1"}},{"base_weights":[1.2109338E-1,-1.929078E0,5.519493E0,-7.8167224E0,-9.1819227E-1,3.0282452E0,7.8377986E0,-3.11168E-1,-5.557806E0,-4.7927966E0,4.558546E-1,-8.0371463E-1,4.713087E0,9.050124E0,1.5898271E-3,-2.9046075E0,-1.0822799E1,-6.4843063E0,-1.4174004E-1,8.423268E-1,-9.162122E-2,7.456045E-2,-9.2423946E-2,1.4366433E-1,3.0426917E0,1.024891E1,2.9555928E-2,-6.185531E0,3.2062273E-2,-2.2948863E-1,-1.2151932E-1,-9.453306E-3,-7.4898014E0,-7.20875E-2,7.408228E-2,5.1518807E0,3.2965812E-1,-0E0,5.089418E0,9.027233E0,2.870739E-1,-1.7236592E-1,-2.9288549E-2,-9.788084E0,-4.1856627E0,-1.7978495E-2,1.5519968E-1,5.5051174E0,-1.8793018E-1,3.0974843E-2,1.5491194E-1,6.06863E0,1.3069644E1,-7.6721067E0,-2.2033118E-1,2.430365E-2,-1.4016515E-1,1.5498869E-1,-2.4790044E-3,-6.7350566E-1,1.22346185E-1,8.471123E-3,8.00935E0,1.5755247E-1,2.7835867E-1,-1.8536752E-1,-2.588116E-2,2.0322754E0,-2.1132724E0,1.7493527E-1,5.5338826E-2,-3.728713E-2,6.100306E-2,-8.336392E-2,-1.5185843E-2],"categories":[],"categories_nodes":[],"categories_segments":[],"categories_sizes":[],"default_left":[0,0,0,0,0,0,0,0,0,0,0,0,0,0,0,0,0,0,0,0,0,0,0,0,0,0,0,0,0,0,0,0,0,0,0,0,0,0,0,0,0,0,0,0,0,0,0,0,0,0,0,0,0,0,0,0,0,0,0,0,0,0,0,0,0,0,0,0,0,0,0,0,0,0,0],"id":4,"left_children":[1,3,5,7,9,11,13,-1,15,17,19,21,23,25,-1,27,29,31,33,35,-1,-1,-1,-1,37,39,-1,41,-1,-1,-1,-1,43,-1,-1,45,47,-1,49,51,-1,-1,-1,53,55,-1,-1,57,59,-1,-1,61,63,65,-1,-1,-1,-1,-1,67,-1,-1,69,-1,-1,-1,-1,71,73,-1,-1,-1,-1,-1,-1],"loss_changes":[1.1856322E4,4.579967E3,1.6627637E3,2.7041821E3,3.5407876E3,9.380895E2,1.3927021E3,0E0,1.2614246E3,1.3443577E3,1.1112214E3,1.0934434E3,6.164175E2,1.0960537E3,0E0,1.0167903E3,2.4586865E2,7.251592E2,9.12483E2,9.9365796E2,0E0,0E0,0E0,0E0,4.5689453E2,8.6556055E2,0E0,6.621481E2,0E0,0E0,0E0,0E0,7.671489E2,0E0,0E0,1.292715E3,1.120906E3,0E0,5.475967E2,1.0750381E3,0E0,0E0,0E0,3.866958E2,1.1133323E3,0E0,0E0,8.613573E2,1.3461934E3,0E0,0E0,5.7236304E2,4.2918506E2,8.109426E2,0E0,0E0,0E0,0E0,0E0,1.3678961E3,0E0,0E0,4.349673E2,0E0,0E0,0E0,0E0,8.5975354E2,7.807395E2,0E0,0E0,0E0,0E0,0E0,0E0],"parents":[2147483647,0,0,1,1,2,2,3,3,4,4,5,5,6,6,8,8,9,9,10,10,11,11,12,12,13,13,15,15,16,16,17,17,18,18,19,19,24,24,25,25,27,27,32,32,35,35,36,36,38,38,39,39,43,43,44,44,47,47,48,48,51,51,52,52,53,53,59,59,62,62,67,67,68,68],"right_children":[2,4,6,8,10,12,14,-1,16,18,20,22,24,26,-1,28,30,32,34,36,-1,-1,-1,-1,38,40,-1,42,-1,-1,-1,-1,44,-1,-1,46,48,-1,50,52,-1,-1,-1,54,56,-1,-1,58,60,-1,-1,62,64,66,-1,-1,-1,-1,-1,68,-1,-1,70,-1,-1,-1,-1,72,74,-1,-1,-1,-1,-1,-1],"split_conditions":[1.185E2,1.095E2,1.192E2,1.102E2,1.76E1,1.11E2,5.9E1,-3.11168E-1,5.88E1,1.0357143E2,7.244898E-1,1.8120806E-1,5.5444443E1,6.18E1,1.5898271E-3,5.6E1,2.2359155E-1,2.6428572E1,1.5353977E3,1.98E1,-9.162122E-2,7.456045E-2,-9.2423946E-2,1.4366433E-1,1.12666664E2,3.2333332E1,2.9555928E-2,5.5132454E1,3.2062273E-2,-2.2948863E-1,-1.2151932E-1,-9.453306E-3,5.86E1,-7.20875E-2,7.408228E-2,1.0200893E2,3.2950819E0,-0E0,6E1,1.215E2,2.870739E-1,-1.7236592E-1,-2.9288549E-2,1E0,1.10333336E2,-1.7978495E-2,1.5519968E-1,5.88E1,1.0660714E2,3.0974843E-2,1.5491194E-1,1.1315385E2,2.9714285E1,1.0261161E2,-2.2033118E-1,2.430365E-2,-1.4016515E-1,1.5498869E-1,-2.4790044E-3,3.4E1,1.22346185E-1,8.471123E-3,2.8428572E1,1.5755247E-1,2.7835867E-1,-1.8536752E-1,-2.588116E-2,0E0,1.121E2,1.7493527E-1,5.5338826E-2,-3.728713E-2,6.100306E-2,-8.336392E-2,-1.5185843E-2],"split_indices":[33,33,41,64,27,12,3,0,11,74,39,28,46,10,0,2,28,63,77,27,0,0,0,0,9,27,0,56,0,0,0,0,46,0,0,4,23,0,42,33,0,0,0,125,41,0,0,11,4,0,0,64,30,74,0,0,0,0,0,3,0,0,63,0,0,0,0,85,33,0,0,0,0,0,0],"split_type":[0,0,0,0,0,0,0,0,0,0,0,0,0,0,0,0,0,0,0,0,0,0,0,0,0,0,0,0,0,0,0,0,0,0,0,0,0,0,0,0,0,0,0,0,0,0,0,0,0,0,0,0,0,0,0,0,0,0,0,0,0,0,0,0,0,0,0,0,0,0,0,0,0,0,0],"sum_hessian":[1.07E3,7.75E2,2.95E2,1.13E2,6.62E2,1.43E2,1.52E2,1.9E1,9.4E1,1.74E2,4.88E2,4.3E1,1E2,1.31E2,2.1E1,6.3E1,3.1E1,1.27E2,4.7E1,4.59E2,2.9E1,2E1,2.3E1,2.9E1,7.1E1,1.12E2,1.9E1,3.8E1,2.5E1,1.6E1,1.5E1,1.9E1,1.08E2,2.5E1,2.2E1,4.8E1,4.11E2,2.8E1,4.3E1,9.6E1,1.6E1,1.9E1,1.9E1,6.3E1,4.5E1,1.9E1,2.9E1,3.8E1,3.73E2,2.5E1,1.8E1,5.6E1,4E1,4E1,2.3E1,1.9E1,2.6E1,2.3E1,1.5E1,3.51E2,2.2E1,1.5E1,4.1E1,2.1E1,1.9E1,2.5E1,1.5E1,1.21E2,2.3E2,2.6E1,1.5E1,3.3E1,8.8E1,6.6E1,1.64E2],"tree_param":{"num_deleted":"0","num_feature":"126","num_nodes":"75","size_leaf_vector":"1"}},{"base_weights":[9.626095E-2,-1.7191588E0,4.8924847E0,-6.82673E0,-5.5663645E-1,1.4773662E0,6.438289E0,-2.942577E-1,-4.7155743E0,-1.602104E0,3.2951474E0,1.2883997E-1,1.7830001E-2,2.397015E0,7.5005145E0,-8.585976E0,-1.8403525E0,-3.1306279E0,1.4054528E0,8.488545E-2,6.221713E0,3.8666162E0,-3.009498E0,-1.3953774E-2,1.2536405E-1,1.744454E-2,8.5554E0,-5.2925326E-2,-2.1340549E-1,5.3207207E-1,-9.5363796E-2,-9.092785E0,-2.4836755E0,-1.2093805E-1,2.9539232E0,4.609099E0,-4.189394E0,1.7685594E-1,3.8149526E0,-0E0,1.1521182E-1,-9.73191E-2,1.6290557E-2,5.6657643E0,1.096233E1,-5.851048E-2,5.9777435E-2,-2.3162895E-1,-5.4642837E-2,-4.1092496E0,-4.018768E-1,4.3658433E0,-1.4627242E0,1.2970965E-1,1.1733493E-2,-1.2442396E-1,-7.048101E-3,6.4419775E0,-2.2665853E-2,9.672335E0,1.3848317E-2,1.3663124E1,7.4859715E0,-6.427534E0,-2.0082955E0,5.7782054E-1,-1.3831726E-1,6.483944E0,4.6677098E-1,-9.62023E-2,4.4117786E-2,5.8475375E-2,1.5398562E-1,2.2623123E-1,8.205394E-2,2.9388475E-1,1.5902175E-1,6.79875E-2,1.7960683E-1,-3.804399E0,-8.887866E0,-4.7841754E0,2.589339E0,2.1922288E0,-3.299711E0,3.7356753E0,1.7346835E-1,7.962994E-2,-3.9622378E-2,2.2050094E-2,-1.1878772E-1,-4.7723103E-2,-2.0448194E-1,-1.3295975E-1,1.4261052E-2,1.2347874E-1,-2.93442E-2,1.4208339E-1,6.514056E-3,-1.499643E-1,1.7373519E-2,-0E0,1.2406764E-1],"categories":[],"categories_nodes":[],"categories_segments":[],"categories_sizes":[],"default_left":[0,0,0,0,0,0,0,0,0,0,0,0,0,0,0,0,0,0,0,0,0,0,0,0,0,0,0,0,0,0,0,0,0,0,0,0,0,0,0,0,0,0,0,0,0,0,0,0,0,0,0,0,0,0,0,0,0,0,0,0,0,0,0,0,0,0,0,0,0,0,0,0,0,0,0,0,0,0,0,0,0,0,0,0,0,0,0,0,0,0,0,0,0,0,0,0,0,0,0,0,0,0,0],"id":5,"left_children":[1,3,5,7,9,11,13,-1,15,17,19,-1,21,23,25,27,29,31,33,35,37,39,41,-1,-1,-1,43,-1,-1,45,-1,47,49,-1,51,53,55,-1,57,-1,-1,-1,-1,59,61,-1,-1,-1,-1,63,65,67,69,-1,-1,-1,-1,71,-1,73,-1,75,77,79,81,83,-1,85,87,-1,-1,-1,-1,-1,-1,-1,-1,-1,-1,89,91,93,95,97,99,101,-1,-1,-1,-1,-1,-1,-1,-1,-1,-1,-1,-1,-1,-1,-1,-1,-1],"loss_changes":[9.381174E3,4.603878E3,1.5329673E3,3.236566E3,2.5550325E3,8.257693E2,8.341465E2,0E0,1.3074917E3,2.309822E3,1.2450167E3,0E0,8.892992E2,7.4525934E2,1.0523936E3,1.1193958E3,6.696921E2,1.2407859E3,2.2484893E3,1.2594886E3,6.946968E2,4.1059366E2,4.9861273E2,0E0,0E0,0E0,8.8941797E2,0E0,0E0,5.37979E2,0E0,8.406455E2,1.0018274E3,0E0,9.028921E2,3.6991455E2,3.8274213E2,0E0,6.4576807E2,0E0,0E0,0E0,0E0,1.1802847E3,6.135244E2,0E0,0E0,0E0,0E0,7.8657837E2,1.0643331E3,8.743816E2,6.214088E2,0E0,0E0,0E0,0E0,2.0887073E2,0E0,5.6785205E2,0E0,5.7281836E2,3.1757874E2,4.6179565E2,1.144682E3,7.3487537E2,0E0,7.123865E2,4.929868E2,0E0,0E0,0E0,0E0,0E0,0E0,0E0,0E0,0E0,0E0,6.9584033E2,7.718904E2,1.0508545E3,7.213863E2,9.3102295E2,8.8049445E2,5.9164484E2,0E0,0E0,0E0,0E0,0E0,0E0,0E0,0E0,0E0,0E0,0E0,0E0,0E0,0E0,0E0,0E0,0E0],"parents":[2147483647,0,0,1,1,2,2,3,3,4,4,5,5,6,6,8,8,9,9,10,10,12,12,13,13,14,14,15,15,16,16,17,17,18,18,19,19,20,20,21,21,22,22,26,26,29,29,31,31,32,32,34,34,35,35,36,36,38,38,43,43,44,44,49,49,50,50,51,51,52,52,57,57,59,59,61,61,62,62,63,63,64,64,65,65,67,67,68,68,79,79,80,80,81,81,82,82,83,83,84,84,85,85],"right_children":[2,4,6,8,10,12,14,-1,16,18,20,-1,22,24,26,28,30,32,34,36,38,40,42,-1,-1,-1,44,-1,-1,46,-1,48,50,-1,52,54,56,-1,58,-1,-1,-1,-1,60,62,-1,-1,-1,-1,64,66,68,70,-1,-1,-1,-1,72,-1,74,-1,76,78,80,82,84,-1,86,88,-1,-1,-1,-1,-1,-1,-1,-1,-1,-1,90,92,94,96,98,100,102,-1,-1,-1,-1,-1,-1,-1,-1,-1,-1,-1,-1,-1,-1,-1,-1,-1],"split_conditions":[5.1E1,1.0176339E2,1.16E2,1.063E2,1.0401786E2,2.1780303E-1,-6.1741395E0,-2.942577E-1,1.1075E2,3.8898247E1,2.9333334E1,1.2883997E-1,1.1513333E2,1.0459821E2,2.6222221E1,2.875E1,1.1353333E2,0E0,5.47E1,1.166E2,1.15333336E2,2.7762803E-1,-1.3991486E0,-1.3953774E-2,1.2536405E-1,1.744454E-2,1.123E2,-5.2925326E-2,-2.1340549E-1,-1.4886494E2,-9.5363796E-2,2.99E1,2.925E1,-1.2093805E-1,1.149E2,3.3150314E1,1.6479586E1,1.7685594E-1,1.04761906E-1,-0E0,1.1521182E-1,-9.73191E-2,1.6290557E-2,5.3249157E1,5.84E1,-5.851048E-2,5.9777435E-2,-2.3162895E-1,-5.4642837E-2,1.03125E2,6.0732388E1,2.6347306E-1,1.176E2,1.2970965E-1,1.1733493E-2,-1.2442396E-1,-7.048101E-3,-4.787879E0,-2.2665853E-2,2.89E1,1.3848317E-2,3.9777777E0,3.3313953E1,1.145E2,5.403214E1,1.17E2,-1.3831726E-1,1.113E2,5.268817E-1,-9.62023E-2,4.4117786E-2,5.8475375E-2,1.5398562E-1,2.2623123E-1,8.205394E-2,2.9388475E-1,1.5902175E-1,6.79875E-2,1.7960683E-1,2.7666666E1,1E0,5.5333333E0,5.6989247E-1,-2.5834003E2,1.135E2,1.7968005E3,1.7346835E-1,7.962994E-2,-3.9622378E-2,2.2050094E-2,-1.1878772E-1,-4.7723103E-2,-2.0448194E-1,-1.3295975E-1,1.4261052E-2,1.2347874E-1,-2.93442E-2,1.4208339E-1,6.514056E-3,-1.499643E-1,1.7373519E-2,-0E0,1.2406764E-1],"split_indices":[35,74,45,45,74,60,84,0,9,79,63,0,70,4,63,63,65,119,14,13,65,60,84,0,0,0,1,0,0,79,0,63,63,0,13,25,120,0,123,0,0,0,0,56,14,0,0,0,0,74,56,60,13,0,0,0,0,123,0,63,0,55,25,13,56,9,0,13,39,0,0,0,0,0,0,0,0,0,0,63,82,123,39,79,12,77,0,0,0,0,0,0,0,0,0,0,0,0,0,0,0,0,0],"split_type":[0,0,0,0,0,0,0,0,0,0,0,0,0,0,0,0,0,0,0,0,0,0,0,0,0,0,0,0,0,0,0,0,0,0,0,0,0,0,0,0,0,0,0,0,0,0,0,0,0,0,0,0,0,0,0,0,0,0,0,0,0,0,0,0,0,0,0,0,0,0,0,0,0,0,0,0,0,0,0,0,0,0,0,0,0,0,0,0,0,0,0,0,0,0,0,0,0,0,0,0,0,0,0],"sum_hessian":[1.076E3,7.8E2,2.96E2,1.44E2,6.36E2,9.3E1,2.03E2,2.3E1,1.21E2,5.01E2,1.35E2,1.7E1,7.6E1,4.3E1,1.6E2,5.1E1,7E1,3.33E2,1.68E2,6.5E1,7E1,3.4E1,4.2E1,2.6E1,1.7E1,2.3E1,1.37E2,2.3E1,2.8E1,4.3E1,2.7E1,3.2E1,3.01E2,2.5E1,1.43E2,3.2E1,3.3E1,2.4E1,4.6E1,1.5E1,1.9E1,2.5E1,1.7E1,6.3E1,7.4E1,1.8E1,2.5E1,1.7E1,1.5E1,1.68E2,1.33E2,1.09E2,3.4E1,1.7E1,1.5E1,1.7E1,1.6E1,3.1E1,1.5E1,3.4E1,2.9E1,4.1E1,3.3E1,7.9E1,8.9E1,1.18E2,1.5E1,7E1,3.9E1,1.7E1,1.7E1,1.6E1,1.5E1,1.8E1,1.6E1,2E1,2.1E1,1.7E1,1.6E1,3.9E1,4E1,5.6E1,3.3E1,8.4E1,3.4E1,4.2E1,2.8E1,1.6E1,2.3E1,1.5E1,2.4E1,1.5E1,2.5E1,3.6E1,2E1,1.6E1,1.7E1,1.8E1,6.6E1,1.5E1,1.9E1,2.1E1,2.1E1],"tree_param":{"num_deleted":"0","num_feature":"126","num_nodes":"103","size_leaf_vector":"1"}},{"base_weights":[5.136433E-2,-1.9502618E0,5.458642E0,-4.078666E0,2.6255217E-1,1.8844532E0,7.3286266E0,-6.279805E0,-9.5843434E-1,-3.676206E0,1.565909E0,1.3399333E-1,-4.4447723E-1,4.8828983E0,1.082126E1,-7.5212107E0,-1.8377593E0,-2.3952394E0,5.4752026E0,-1.1611077E0,-7.188935E0,3.0178316E0,-2.0100183E0,-3.4688926E0,2.397757E0,1.1855286E0,7.099608E0,9.493614E0,2.6038292E-1,-9.484875E0,-4.94418E0,-5.352076E0,7.6101564E-2,6.511333E-2,-3.4457214E0,1.4106062E-1,3.616568E-2,-1.13086395E-1,1.6482193E0,-1.802887E-1,-1.7076356E-2,-2.6544912E0,4.0005636E0,-5.154036E0,6.682146E-2,7.2878553E-3,-1.3343498E-1,-1.9086497E-2,1.2072098E-1,6.5459676E-2,-4.054738E-2,3.2270547E-2,9.539338E0,2.1087687E-1,7.050325E0,-2.780605E-1,-8.096523E0,-1.7065185E0,-8.996137E0,-1.8591637E-2,-1.407117E-1,-4.5016117E0,5.8867615E-2,6.595425E-2,-1.0068201E-2,-1.0637962E-1,1.4343968E-2,-0E0,5.191995E0,-1.6057178E-1,-2.0133014E0,2.7914688E-1,5.989074E0,5.1194925E-2,1.7220488E-1,-4.417778E0,-1.100393E1,1.0343607E-2,-8.959138E-2,-4.5899995E-2,-2.325864E-1,-2.4223726E0,-6.897031E0,-6.9177106E-2,5.5564787E-2,2.7169337E0,8.171583E0,-8.8783905E-2,1.5207143E-2,3.0025227E-2,1.734374E-1,-1.5424274E-1,-1.9900128E-2,-8.71284E0,-2.5412318E-1,-5.8039064E0,2.2173472E-2,-1.7475773E-1,-3.641541E-2,7.700113E-1,1.4362393E-1,1.1188165E1,3.7154865E-2,-8.639557E-2,-1.9833583E-1,-1.5115069E-1,-3.696256E-2,8.154245E-2,-1.4956554E-2,2.5035718E-1,1.1719215E-1],"categories":[],"categories_nodes":[],"categories_segments":[],"categories_sizes":[],"default_left":[0,0,0,0,0,0,0,0,0,0,0,0,0,0,0,0,0,0,0,0,0,0,0,0,0,0,0,0,0,0,0,0,0,0,0,0,0,0,0,0,0,0,0,0,0,0,0,0,0,0,0,0,0,0,0,0,0,0,0,0,0,0,0,0,0,0,0,0,0,0,0,0,0,0,0,0,0,0,0,0,0,0,0,0,0,0,0,0,0,0,0,0,0,0,0,0,0,0,0,0,0,0,0,0,0,0,0,0,0,0,0],"id":6,"left_children":[1,3,5,7,9,11,13,15,17,19,21,-1,23,25,27,29,31,33,35,37,39,41,43,45,47,49,51,53,-1,55,57,59,-1,-1,61,-1,-1,-1,63,-1,-1,65,67,69,-1,-1,-1,-1,-1,-1,-1,-1,71,-1,73,-1,75,77,79,-1,-1,81,-1,-1,-1,-1,-1,83,85,-1,87,-1,89,-1,-1,91,93,-1,-1,-1,-1,95,97,-1,-1,99,101,-1,-1,-1,-1,-1,-1,103,-1,105,-1,-1,-1,107,-1,109,-1,-1,-1,-1,-1,-1,-1,-1,-1],"loss_changes":[1.1692024E4,3.7209702E3,1.9170723E3,2.7339697E3,1.9688364E3,1.4873379E3,1.5718105E3,1.2607441E3,1.5327941E3,8.081615E2,1.5097144E3,0E0,6.3193634E2,8.952219E2,4.086377E2,8.7116016E2,1.1789431E3,9.0880414E2,2.5978503E2,9.107393E2,8.4183093E2,1.1593245E3,1.5817797E3,6.736542E2,6.651726E2,4.3776013E2,8.3694507E2,4.133838E2,0E0,9.467529E2,1.00951086E3,4.1552844E2,0E0,0E0,8.7598193E2,0E0,0E0,0E0,2.0733087E2,0E0,0E0,4.1865326E2,8.336035E2,7.394054E2,0E0,0E0,0E0,0E0,0E0,0E0,0E0,0E0,1.1314941E3,0E0,4.254978E2,0E0,8.7201416E2,4.0607852E2,1.0348303E3,0E0,0E0,4.7793286E2,0E0,0E0,0E0,0E0,0E0,5.727859E2,9.6194653E2,0E0,3.4030402E2,0E0,5.524282E2,0E0,0E0,5.742377E2,3.8318018E2,0E0,0E0,0E0,0E0,7.292346E2,7.578899E2,0E0,0E0,8.3351483E2,1.0408613E3,0E0,0E0,0E0,0E0,0E0,0E0,2.9904297E2,0E0,3.1291992E2,0E0,0E0,0E0,4.1087003E2,0E0,5.6009326E2,0E0,0E0,0E0,0E0,0E0,0E0,0E0,0E0,0E0],"parents":[2147483647,0,0,1,1,2,2,3,3,4,4,5,5,6,6,7,7,8,8,9,9,10,10,12,12,13,13,14,14,15,15,16,16,17,17,18,18,19,19,20,20,21,21,22,22,23,23,24,24,25,25,26,26,27,27,29,29,30,30,31,31,34,34,38,38,41,41,42,42,43,43,52,52,54,54,56,56,57,57,58,58,61,61,67,67,68,68,70,70,72,72,75,75,76,76,81,81,82,82,85,85,86,86,93,93,95,95,99,99,101,101],"right_children":[2,4,6,8,10,12,14,16,18,20,22,-1,24,26,28,30,32,34,36,38,40,42,44,46,48,50,52,54,-1,56,58,60,-1,-1,62,-1,-1,-1,64,-1,-1,66,68,70,-1,-1,-1,-1,-1,-1,-1,-1,72,-1,74,-1,76,78,80,-1,-1,82,-1,-1,-1,-1,-1,84,86,-1,88,-1,90,-1,-1,92,94,-1,-1,-1,-1,96,98,-1,-1,100,102,-1,-1,-1,-1,-1,-1,104,-1,106,-1,-1,-1,108,-1,110,-1,-1,-1,-1,-1,-1,-1,-1,-1],"split_conditions":[1.185E2,1.134E2,1.149E2,2.5E-1,1.138E2,5.44E1,1.214E2,6.05E1,1.185E2,1.15066666E2,1.1541667E1,1.3399333E-1,3.3585712E1,5.7E1,1.25E2,8.24E1,1.144E2,3.2340426E0,1.0116071E2,0E0,1E0,-2.3093146E2,5.803579E-1,1.05E2,4.0487804E0,1.1972727E2,1.188E2,3.180544E1,2.6038292E-1,1.08066666E2,2.3E1,1.1473333E2,7.6101564E-2,6.511333E-2,6.23E1,1.4106062E-1,3.616568E-2,-1.13086395E-1,3.296083E1,-1.802887E-1,-1.7076356E-2,5.8E1,1.106E2,8.56E1,6.682146E-2,7.2878553E-3,-1.3343498E-1,-1.9086497E-2,1.2072098E-1,6.5459676E-2,-4.054738E-2,3.2270547E-2,3.1324406E1,2.1087687E-1,6E0,-2.780605E-1,5.625E1,5.3871494E1,8.8E1,-1.8591637E-2,-1.407117E-1,2.9978585E-1,5.8867615E-2,6.595425E-2,-1.0068201E-2,-1.0637962E-1,1.4343968E-2,2.1578948E0,4.122807E0,-1.6057178E-1,1.169E2,2.7914688E-1,9.655166E0,5.1194925E-2,1.7220488E-1,9.677516E0,1.118E2,1.0343607E-2,-8.959138E-2,-4.5899995E-2,-2.325864E-1,3.24349E1,3.1380951E0,-6.9177106E-2,5.5564787E-2,2.982143E-1,3E1,-8.8783905E-2,1.5207143E-2,3.0025227E-2,1.734374E-1,-1.5424274E-1,-1.9900128E-2,1.13E2,-2.5412318E-1,2.4423077E0,2.2173472E-2,-1.7475773E-1,-3.641541E-2,1.14E2,1.4362393E-1,5.381941E1,3.7154865E-2,-8.639557E-2,-1.9833583E-1,-1.5115069E-1,-3.696256E-2,8.154245E-2,-1.4956554E-2,2.5035718E-1,1.1719215E-1],"split_indices":[33,33,0,28,0,42,41,14,0,70,21,0,57,15,70,26,41,23,36,85,17,121,121,36,55,70,33,25,0,70,59,64,0,0,15,0,0,0,57,0,0,15,44,26,0,0,0,0,0,0,0,0,57,0,68,0,14,24,26,0,0,28,0,0,0,0,0,54,23,0,64,0,61,0,0,61,33,0,0,0,0,25,123,0,0,28,31,0,0,0,0,0,0,8,0,54,0,0,0,40,0,24,0,0,0,0,0,0,0,0,0],"split_type":[0,0,0,0,0,0,0,0,0,0,0,0,0,0,0,0,0,0,0,0,0,0,0,0,0,0,0,0,0,0,0,0,0,0,0,0,0,0,0,0,0,0,0,0,0,0,0,0,0,0,0,0,0,0,0,0,0,0,0,0,0,0,0,0,0,0,0,0,0,0,0,0,0,0,0,0,0,0,0,0,0,0,0,0,0,0,0,0,0,0,0,0,0,0,0,0,0,0,0,0,0,0,0,0,0,0,0,0,0,0,0],"sum_hessian":[1.079E3,7.87E2,2.92E2,4.02E2,3.85E2,1.01E2,1.91E2,2.35E2,1.67E2,9.5E1,2.9E2,2.8E1,7.3E1,1.13E2,7.8E1,1.83E2,5.2E1,1.37E2,3E1,5.6E1,3.9E1,2.07E2,8.3E1,3.6E1,3.7E1,4.3E1,7E1,6.2E1,1.6E1,1.03E2,8E1,3.4E1,1.8E1,1.9E1,1.18E2,1.5E1,1.5E1,1.9E1,3.7E1,2.4E1,1.5E1,3E1,1.77E2,5.5E1,2.8E1,1.9E1,1.7E1,2.1E1,1.6E1,2.5E1,1.8E1,2.3E1,4.7E1,2.6E1,3.6E1,1.6E1,8.7E1,4.5E1,3.5E1,1.5E1,1.9E1,1.03E2,1.5E1,1.9E1,1.8E1,1.5E1,1.5E1,4.1E1,1.36E2,2.2E1,3.3E1,1.5E1,3.2E1,1.7E1,1.9E1,3.9E1,4.8E1,2.7E1,1.8E1,1.6E1,1.9E1,5.6E1,4.7E1,1.8E1,2.3E1,7.5E1,6.1E1,1.6E1,1.7E1,1.7E1,1.5E1,1.5E1,2.4E1,3.2E1,1.6E1,3E1,2.6E1,2.6E1,2.1E1,5.7E1,1.8E1,4E1,2.1E1,1.6E1,1.6E1,1.5E1,1.5E1,1.7E1,4E1,2E1,2E1],"tree_param":{"num_deleted":"0","num_feature":"126","num_nodes":"111","size_leaf_vector":"1"}},{"base_weights":[9.34413E-4,-4.192701E0,2.3783512E0,-3.0434924E-1,-3.5720065E0,6.8685216E-1,5.693502E0,-4.429149E0,3.8616362E0,-3.2733624E0,2.0063996E0,2.0681527E0,7.030286E0,-5.607214E0,-9.335843E-1,-0E0,1.5572152E-1,-4.722494E0,3.7027415E-2,4.3381014E0,5.043927E-1,-3.4710202E-2,5.2928176E0,3.380788E0,9.41286E0,-6.54297E0,-1.1614299E0,-4.466081E0,2.1242642E0,-7.590905E0,-1.2008814E0,3.4356594E0,1.8515657E-1,-5.4946136E0,1.7331519E0,1.4481796E-1,2.0161394E-2,1.8937875E-1,9.839045E-1,7.5986986E0,2.401648E-1,-1.6662469E0,-7.6298833E0,2.9928075E-2,-1.09083176E-1,-1.3039064E-1,-0E0,-2.2302665E-2,9.2869066E-2,-6.293801E-2,-1.7066428E-1,-7.977636E-2,4.6185132E-2,5.6480336E0,7.4310416E-1,-2.7568126E-2,-1.6245525E-1,2.9162018E0,-3.3982725E0,7.221544E-2,-2.9428273E-2,9.032342E0,5.7403896E-2,-8.1063285E-2,3.4794427E-2,-9.414405E0,-4.3827105E0,2.0295445E-2,8.206473E0,-1.1978608E0,9.249154E-2,4.0609727E0,-5.2309502E-2,-1.1241514E-1,3.2112407E-3,1.1488418E1,8.0706224E-2,-2.9777408E-1,-7.975041E0,-6.4260664E0,2.4852488E-2,6.491356E-2,2.0385915E-1,-9.7927906E-2,5.499561E-2,1.6113396E-1,2.820313E0,2.4832955E-1,1.3522369E-1,-2.0590636E-1,-9.889078E-2,-5.6487173E-2,-1.605952E-1,7.661674E-2,-3.8318925E-3],"categories":[],"categories_nodes":[],"categories_segments":[],"categories_sizes":[],"default_left":[0,0,0,0,0,0,0,0,0,0,0,0,0,0,0,0,0,0,0,0,0,0,0,0,0,0,0,0,0,0,0,0,0,0,0,0,0,0,0,0,0,0,0,0,0,0,0,0,0,0,0,0,0,0,0,0,0,0,0,0,0,0,0,0,0,0,0,0,0,0,0,0,0,0,0,0,0,0,0,0,0,0,0,0,0,0,0,0,0,0,0,0,0,0,0],"id":7,"left_children":[1,3,5,-1,7,9,11,13,15,17,19,21,23,25,27,-1,-1,29,-1,31,33,-1,35,37,39,41,43,45,47,49,51,53,-1,55,57,-1,-1,-1,59,61,-1,63,65,-1,-1,-1,-1,-1,-1,-1,-1,-1,-1,67,69,-1,-1,71,73,-1,-1,75,-1,-1,-1,77,79,-1,81,83,-1,85,-1,-1,-1,87,-1,-1,89,91,-1,-1,-1,-1,-1,-1,93,-1,-1,-1,-1,-1,-1,-1,-1],"loss_changes":[1.0701528E4,3.3292954E3,3.8230278E3,0E0,2.372976E3,2.3732566E3,1.0852988E3,1.3509746E3,8.475517E2,9.11598E2,1.1797241E3,8.58155E2,1.4124688E3,1.00704297E3,9.274044E2,0E0,0E0,8.7634265E2,0E0,7.6483984E2,1.5269943E3,0E0,4.6845068E2,1.2458942E3,8.453701E2,1.0517393E3,7.26134E2,6.2670605E2,5.596028E2,4.496936E2,5.9883466E2,6.7911145E2,0E0,5.347766E2,1.0549086E3,0E0,0E0,0E0,4.9408493E2,3.9736572E2,0E0,4.724029E2,9.153291E2,0E0,0E0,0E0,0E0,0E0,0E0,0E0,0E0,0E0,0E0,6.8914197E2,5.237705E2,0E0,0E0,9.9096655E2,4.1392917E2,0E0,0E0,5.0015723E2,0E0,0E0,0E0,1.2169697E3,7.4009143E2,0E0,6.411135E2,8.190661E2,0E0,7.9548486E2,0E0,0E0,0E0,3.0647705E2,0E0,0E0,7.516909E2,3.9373035E2,0E0,0E0,0E0,0E0,0E0,0E0,5.610369E2,0E0,0E0,0E0,0E0,0E0,0E0,0E0,0E0],"parents":[2147483647,0,0,1,1,2,2,4,4,5,5,6,6,7,7,8,8,9,9,10,10,11,11,12,12,13,13,14,14,17,17,19,19,20,20,22,22,23,23,24,24,25,25,26,26,27,27,28,28,29,29,30,30,31,31,33,33,34,34,38,38,39,39,41,41,42,42,53,53,54,54,57,57,58,58,61,61,65,65,66,66,68,68,69,69,71,71,75,75,78,78,79,79,86,86],"right_children":[2,4,6,-1,8,10,12,14,16,18,20,22,24,26,28,-1,-1,30,-1,32,34,-1,36,38,40,42,44,46,48,50,52,54,-1,56,58,-1,-1,-1,60,62,-1,64,66,-1,-1,-1,-1,-1,-1,-1,-1,-1,-1,68,70,-1,-1,72,74,-1,-1,76,-1,-1,-1,78,80,-1,82,84,-1,86,-1,-1,-1,88,-1,-1,90,92,-1,-1,-1,-1,-1,-1,94,-1,-1,-1,-1,-1,-1,-1,-1],"split_conditions":[1.13E2,9.98E1,1.188E2,-3.0434924E-1,1.191E2,1.138E2,1.17E2,5.285714E0,6.1E1,1.6424366E3,-2.857143E-1,3.256085E1,1.15E2,1.15E2,-4.473091E-1,-0E0,1.5572152E-1,5.6333332E1,3.7027415E-2,3.225E1,5.557143E1,-3.4710202E-2,7.58E1,5.4E1,2.8691983E-1,-8.100195E0,5.6790125E-1,2.3529413E0,4.178571E0,3.9411764E0,-1.4732143E0,5.8666668E1,1.8515657E-1,2.3548386E0,1.206E1,1.4481796E-1,2.0161394E-2,1.8937875E-1,2.2727273E-1,2.62E1,2.401648E-1,1.157E2,1.15333336E2,2.9928075E-2,-1.09083176E-1,-1.3039064E-1,-0E0,-2.2302665E-2,9.2869066E-2,-6.293801E-2,-1.7066428E-1,-7.977636E-2,4.6185132E-2,1.12E2,1.169E2,-2.7568126E-2,-1.6245525E-1,1.15E1,6.02E1,7.221544E-2,-2.9428273E-2,2.775E0,5.7403896E-2,-8.1063285E-2,3.4794427E-2,1.122E2,3E0,2.0295445E-2,4.1454544E0,-1.0135614E0,9.249154E-2,5.67E1,-5.2309502E-2,-1.1241514E-1,3.2112407E-3,1.0657772E-1,8.0706224E-2,-2.9777408E-1,1.94E1,1.109804E1,2.4852488E-2,6.491356E-2,2.0385915E-1,-9.7927906E-2,5.499561E-2,1.6113396E-1,5.9E1,2.4832955E-1,1.3522369E-1,-2.0590636E-1,-9.889078E-2,-5.6487173E-2,-1.605952E-1,7.661674E-2,-3.8318925E-3],"split_indices":[33,45,33,0,0,0,45,123,10,78,123,57,0,45,118,0,0,10,0,62,47,0,26,42,60,118,7,54,55,55,75,46,0,22,21,0,0,0,60,27,0,0,65,0,0,0,0,0,0,0,0,0,0,40,0,0,0,81,10,0,0,22,0,0,0,0,16,0,55,118,0,47,0,0,0,118,0,0,27,21,0,0,0,0,0,0,42,0,0,0,0,0,0,0,0],"split_type":[0,0,0,0,0,0,0,0,0,0,0,0,0,0,0,0,0,0,0,0,0,0,0,0,0,0,0,0,0,0,0,0,0,0,0,0,0,0,0,0,0,0,0,0,0,0,0,0,0,0,0,0,0,0,0,0,0,0,0,0,0,0,0,0,0,0,0,0,0,0,0,0,0,0,0,0,0,0,0,0,0,0,0,0,0,0,0,0,0,0,0,0,0,0,0],"sum_hessian":[1.074E3,3.88E2,6.86E2,1.6E1,3.72E2,4.55E2,2.31E2,3.34E2,3.8E1,1.13E2,3.42E2,6.3E1,1.68E2,2.49E2,8.5E1,2.2E1,1.6E1,9E1,2.3E1,1.33E2,2.09E2,2.7E1,3.6E1,6.7E1,1.01E2,2.05E2,4.4E1,4E1,4.5E1,4.9E1,4.1E1,1.18E2,1.5E1,3.5E1,1.74E2,1.9E1,1.7E1,1.5E1,5.2E1,7.5E1,2.6E1,3.8E1,1.67E2,2.8E1,1.6E1,2.3E1,1.7E1,2.2E1,2.3E1,2.1E1,2.8E1,2.2E1,1.9E1,6.4E1,5.4E1,1.9E1,1.6E1,1.42E2,3.2E1,2.4E1,2.8E1,5.5E1,2E1,2.1E1,1.7E1,1.07E2,6E1,2.4E1,4E1,3.8E1,1.6E1,1.2E2,2.2E1,1.7E1,1.5E1,3.4E1,2.1E1,1.5E1,9.2E1,4.5E1,1.5E1,2E1,2E1,1.9E1,1.9E1,2.1E1,9.9E1,1.6E1,1.8E1,2.8E1,6.4E1,2.4E1,2.1E1,6.3E1,3.6E1],"tree_param":{"num_deleted":"0","num_feature":"126","num_nodes":"95","size_leaf_vector":"1"}},{"base_weights":[2.9350134E-2,-2.4022982E0,3.7835433E0,-3.3185225E0,2.7199326E0,6.1187945E-2,5.578989E0,-6.64121E0,-2.0690942E0,-6.743728E-2,4.9727325E0,1.02210715E-1,-1.2576706E0,1.0225704E1,4.5448914E0,-2.7254143E-1,-5.3573446E0,-2.7827685E0,3.1152515E0,-1.504437E-3,7.7917886E0,-2.6661272E0,4.7790043E-2,2.5519156E-1,7.520989E0,7.1337004E0,3.0865889E0,-9.06172E0,-2.931101E0,-9.549626E0,-2.1210742E0,-4.4978533E-2,6.4317083E0,6.434595E-2,2.0275223E-1,3.998227E-2,-4.391073E0,1.84851E-1,5.2890472E-2,9.685072E0,4.009803E0,4.9468617E0,-1.3104724E0,-1.2688915E1,-4.2384874E-2,-3.6727756E-2,-7.7231026E0,-2.64966E-1,-5.4139458E-2,-1.5666035E0,-1.2966059E-1,-0E0,2.0445956E-1,-1.645423E-1,-2.6158848E0,8.7848894E-2,2.1111771E-1,2.2017758E-2,1.3033602E-1,-3.4131217E-4,6.5256186E0,2.7782401E-2,-1.2142832E-1,-2.7769595E-1,-1.2499934E-1,-6.966866E-2,8.0762126E-2,-2.0509718E-1,-4.6581388E-2,-4.649189E0,-4.9835068E-1,1.7120838E-2,-8.7174445E-2,4.5026736E0,2.1407296E-1,-7.181102E0,9.574375E-3,9.712709E-2,-1.1535108E0,2.1133127E0,1.6083804E-1,1.3203511E-2,-1.9940992E-1,-3.0018669E-2,7.580852E-2,-2.2304084E-2,1.0399097E-1],"categories":[],"categories_nodes":[],"categories_segments":[],"categories_sizes":[],"default_left":[0,0,0,0,0,0,0,0,0,0,0,0,0,0,0,0,0,0,0,0,0,0,0,0,0,0,0,0,0,0,0,0,0,0,0,0,0,0,0,0,0,0,0,0,0,0,0,0,0,0,0,0,0,0,0,0,0,0,0,0,0,0,0,0,0,0,0,0,0,0,0,0,0,0,0,0,0,0,0,0,0,0,0,0,0,0,0],"id":8,"left_children":[1,3,5,7,9,11,13,15,17,-1,19,-1,21,23,25,-1,27,29,31,-1,33,35,-1,-1,37,39,41,43,45,47,49,-1,51,-1,-1,-1,53,-1,-1,55,57,59,61,63,-1,65,67,-1,-1,69,-1,-1,-1,-1,71,-1,-1,-1,-1,-1,73,-1,-1,-1,-1,-1,-1,-1,-1,75,77,-1,-1,79,-1,81,-1,-1,83,85,-1,-1,-1,-1,-1,-1,-1],"loss_changes":[9.791768E3,3.0531006E3,2.7994565E3,2.2588594E3,1.5030432E3,1.1299628E3,1.3084971E3,1.8045073E3,1.4864431E3,0E0,1.0854131E3,0E0,6.586019E2,6.252363E2,8.410386E2,0E0,1.1501687E3,1.5411177E3,9.427178E2,0E0,7.725205E2,7.524732E2,0E0,0E0,4.8064673E2,6.096455E2,1.2408983E3,1.169709E3,1.094838E3,1.181636E3,9.859158E2,0E0,1.1552334E3,0E0,0E0,0E0,5.8180005E2,0E0,0E0,5.336533E2,3.5838135E2,8.5577124E2,8.124213E2,5.9727734E2,0E0,1.0418032E3,6.2854443E2,0E0,0E0,9.522432E2,0E0,0E0,0E0,0E0,4.8884045E2,0E0,0E0,0E0,0E0,0E0,9.809817E2,0E0,0E0,0E0,0E0,0E0,0E0,0E0,0E0,1.017625E3,8.9918976E2,0E0,0E0,7.2623755E2,0E0,2.016522E3,0E0,0E0,7.4332166E2,6.378563E2,0E0,0E0,0E0,0E0,0E0,0E0,0E0],"parents":[2147483647,0,0,1,1,2,2,3,3,4,4,5,5,6,6,7,7,8,8,10,10,12,12,13,13,14,14,16,16,17,17,18,18,20,20,21,21,24,24,25,25,26,26,27,27,28,28,29,29,30,30,32,32,36,36,39,39,40,40,41,41,42,42,43,43,45,45,46,46,49,49,54,54,60,60,69,69,70,70,73,73,75,75,78,78,79,79],"right_children":[2,4,6,8,10,12,14,16,18,-1,20,-1,22,24,26,-1,28,30,32,-1,34,36,-1,-1,38,40,42,44,46,48,50,-1,52,-1,-1,-1,54,-1,-1,56,58,60,62,64,-1,66,68,-1,-1,70,-1,-1,-1,-1,72,-1,-1,-1,-1,-1,74,-1,-1,-1,-1,-1,-1,-1,-1,76,78,-1,-1,80,-1,82,-1,-1,84,86,-1,-1,-1,-1,-1,-1,-1],"split_conditions":[1.0357143E2,1.19E2,1.149E2,1.082E2,1.7142858E-1,5.44E1,-3E0,1.122E2,5.1E1,-6.743728E-2,5.52E1,1.02210715E-1,6.16E1,2.84E1,1.09783134E2,-2.7254143E-1,7.94E1,1.11E2,2.6222221E1,-1.504437E-3,1.0925E1,2.8E1,4.7790043E-2,2.5519156E-1,1.0060976E0,2.2173913E-1,2E-1,3.4E0,2E0,5.8E1,1.2053333E2,-4.4978533E-2,1.142E2,6.434595E-2,2.0275223E-1,3.998227E-2,4E0,1.84851E-1,5.2890472E-2,1.192E2,5.84E1,8.512004E0,1.1786667E2,5.8E1,-4.2384874E-2,1.0947687E1,2.1204188E-1,-2.64966E-1,-5.4139458E-2,1.7060368E-1,-1.2966059E-1,-0E0,2.0445956E-1,-1.645423E-1,5.0797462E1,8.7848894E-2,2.1111771E-1,2.2017758E-2,1.3033602E-1,-3.4131217E-4,2E0,2.7782401E-2,-1.2142832E-1,-2.7769595E-1,-1.2499934E-1,-6.966866E-2,8.0762126E-2,-2.0509718E-1,-4.6581388E-2,1.155E2,3.2950819E0,1.7120838E-2,-8.7174445E-2,2.2366607E0,2.1407296E-1,1.102E2,9.574375E-3,9.712709E-2,1.255E1,-3.5714287E-1,1.6083804E-1,1.3203511E-2,-1.9940992E-1,-3.0018669E-2,7.580852E-2,-2.2304084E-2,1.0399097E-1],"split_indices":[36,0,0,45,28,42,71,0,35,0,42,0,42,30,37,0,58,0,63,0,53,62,0,0,76,28,81,123,66,47,64,0,0,0,0,0,18,0,0,41,42,29,64,42,0,29,28,0,0,28,0,0,0,0,24,0,0,0,0,0,82,0,0,0,0,0,0,0,0,41,23,0,0,83,0,41,0,0,53,75,0,0,0,0,0,0,0],"split_type":[0,0,0,0,0,0,0,0,0,0,0,0,0,0,0,0,0,0,0,0,0,0,0,0,0,0,0,0,0,0,0,0,0,0,0,0,0,0,0,0,0,0,0,0,0,0,0,0,0,0,0,0,0,0,0,0,0,0,0,0,0,0,0,0,0,0,0,0,0,0,0,0,0,0,0,0,0,0,0,0,0,0,0,0,0,0,0],"sum_hessian":[1.072E3,6.5E2,4.22E2,5.52E2,9.8E1,1.38E2,2.84E2,1.5E2,4.02E2,2.4E1,7.4E1,2.5E1,1.13E2,5.1E1,2.33E2,1.7E1,1.33E2,3.54E2,4.8E1,2.6E1,4.8E1,8.5E1,2.8E1,1.7E1,3.4E1,8.3E1,1.5E2,5.2E1,8.1E1,3.1E1,3.23E2,1.7E1,3.1E1,2.6E1,2.2E1,2.1E1,6.4E1,1.8E1,1.6E1,4.5E1,3.8E1,1.06E2,4.4E1,3.3E1,1.9E1,5.1E1,3E1,1.5E1,1.6E1,2.95E2,2.8E1,1.5E1,1.6E1,1.5E1,4.9E1,1.9E1,2.6E1,2.3E1,1.5E1,2.5E1,8.1E1,2.9E1,1.5E1,1.8E1,1.5E1,2.8E1,2.3E1,1.5E1,1.5E1,7.5E1,2.2E2,2E1,2.9E1,6.2E1,1.9E1,5.1E1,2.4E1,2E1,2E2,4.3E1,1.9E1,1.9E1,3.2E1,1.8E2,2E1,2.3E1,2E1],"tree_param":{"num_deleted":"0","num_feature":"126","num_nodes":"87","size_leaf_vector":"1"}},{"base_weights":[-2.2145703E-2,-4.2006993E0,2.4644818E0,-6.8416615E0,-1.4732404E0,8.077231E-1,5.6950617E0,-5.7082753E0,-3.4291634E-1,-3.6245415E0,1.2603035E0,-4.3644266E0,1.3732971E0,1.5422223E0,6.8232546E0,-1.2766032E-1,-7.106216E0,-4.6965957E0,3.4512002E-2,9.38374E-2,-1.8555807E-2,-1.3624272E-1,2.1824744E-2,9.368051E-1,1.1308883E-1,-3.604644E-2,7.803557E-2,9.306928E0,4.027103E0,-8.4601685E-2,4.902634E-2,-3.0742607E0,-9.562203E0,-5.8435817E0,1.0979936E-2,-6.3705765E-2,2.375374E0,1.6111628E0,-2.711708E0,5.1693835E0,1.185125E1,6.0080957E0,-3.5225064E-2,-1.478986E-1,-4.7586005E-2,-1.2067709E1,-4.742082E0,-1.0177959E-2,-7.703678E0,-3.152658E-2,8.4368594E-2,-8.8130586E-2,1.9961005E0,-5.7201104E0,5.963974E-2,1.36792455E-2,1.34087E-1,1.36192465E1,1.1001996E-1,3.3845427E0,1.5317938E-1,7.423087E-2,-5.8179155E-2,-1.334504E-1,-1.5694807E1,-1.2868837E-1,-3.0639939E-2,-5.5287824E0,-2.0860653E-1,4.207928E0,1.0808568E0,-1.8443671E-1,-1.4910159E-2,2.9698986E-1,1.7925473E-1,-8.46162E-3,1.1077721E-1,-3.1943414E-1,-1.9232655E-1,-1.5894538E-1,-4.865875E-2,1.6396464E-1,1.9440744E0,1.0858422E-1,3.6186224E-1,-1.0403993E-2,1.0711863E-1,-2.2906842E-2,4.8461948E-2],"categories":[],"categories_nodes":[],"categories_segments":[],"categories_sizes":[],"default_left":[0,0,0,0,0,0,0,0,0,0,0,0,0,0,0,0,0,0,0,0,0,0,0,0,0,0,0,0,0,0,0,0,0,0,0,0,0,0,0,0,0,0,0,0,0,0,0,0,0,0,0,0,0,0,0,0,0,0,0,0,0,0,0,0,0,0,0,0,0,0,0,0,0,0,0,0,0,0,0,0,0,0,0,0,0,0,0,0,0],"id":9,"left_children":[1,3,5,7,9,11,13,15,-1,17,19,21,23,25,27,29,31,33,-1,-1,35,-1,-1,37,-1,-1,-1,39,41,-1,-1,43,45,47,-1,-1,49,51,53,55,57,59,-1,-1,61,63,65,-1,67,-1,-1,-1,69,71,-1,-1,-1,73,-1,75,-1,-1,-1,-1,77,-1,-1,79,-1,81,83,-1,-1,-1,-1,-1,-1,-1,-1,-1,-1,-1,85,-1,87,-1,-1,-1,-1],"loss_changes":[1.1104061E4,2.842941E3,3.556434E3,3.0693516E3,1.1675784E3,1.2849391E3,1.0274893E3,1.4320322E3,0E0,6.892543E2,5.0527188E2,9.6850885E2,9.2247076E2,5.866553E2,1.1786895E3,5.923209E2,1.427815E3,5.973838E2,0E0,0E0,6.1030286E2,0E0,0E0,9.088733E2,0E0,0E0,0E0,9.142407E2,1.0388953E3,0E0,0E0,9.7605164E2,1.0472021E3,7.278181E2,0E0,0E0,4.769666E2,8.2538794E2,1.0909508E3,4.2363605E2,4.477339E2,4.9530737E2,0E0,0E0,5.9274066E2,7.8256836E2,2.4381677E2,0E0,5.361997E2,0E0,0E0,0E0,5.8345874E2,9.7218494E2,0E0,0E0,0E0,3.945542E2,0E0,4.860629E2,0E0,0E0,0E0,0E0,3.3329785E2,0E0,0E0,3.7402905E2,0E0,1.0624521E3,8.0809546E2,0E0,0E0,0E0,0E0,0E0,0E0,0E0,0E0,0E0,0E0,0E0,7.427134E2,0E0,8.459699E2,0E0,0E0,0E0,0E0],"parents":[2147483647,0,0,1,1,2,2,3,3,4,4,5,5,6,6,7,7,9,9,10,10,11,11,12,12,13,13,14,14,15,15,16,16,17,17,20,20,23,23,27,27,28,28,31,31,32,32,33,33,36,36,37,37,38,38,39,39,40,40,41,41,44,44,45,45,46,46,48,48,52,52,53,53,57,57,59,59,64,64,67,67,69,69,70,70,82,82,84,84],"right_children":[2,4,6,8,10,12,14,16,-1,18,20,22,24,26,28,30,32,34,-1,-1,36,-1,-1,38,-1,-1,-1,40,42,-1,-1,44,46,48,-1,-1,50,52,54,56,58,60,-1,-1,62,64,66,-1,68,-1,-1,-1,70,72,-1,-1,-1,74,-1,76,-1,-1,-1,-1,78,-1,-1,80,-1,82,84,-1,-1,-1,-1,-1,-1,-1,-1,-1,-1,-1,86,-1,88,-1,-1,-1,-1],"split_conditions":[1.13E2,2.264574E-1,1.188E2,2.1837088E-1,1.1678571E2,1.054E2,1.155E2,1.102E2,-3.4291634E-1,1.163E2,5.48E1,6.8E1,1.2086667E2,3.256085E1,5.7E1,1.0586667E2,-2E0,2.3144247E1,3.4512002E-2,9.38374E-2,3E0,-1.3624272E-1,2.1824744E-2,1.206E1,1.1308883E-1,-3.604644E-2,7.803557E-2,1.1384615E2,5.4E1,-8.4601685E-2,4.902634E-2,5.29E1,6E1,5.1383698E1,1.0979936E-2,-6.3705765E-2,1.099E2,5.2E1,1.0410714E2,5.1596382E1,4.178571E0,1.0417411E2,-3.5225064E-2,-1.478986E-1,5.48E1,2.0949264E-1,1.0169643E2,-1.0177959E-2,1.146E2,-3.152658E-2,8.4368594E-2,-8.8130586E-2,3.4E1,7.52E1,5.963974E-2,1.36792455E-2,1.34087E-1,6.12E1,1.1001996E-1,8.979631E0,1.5317938E-1,7.423087E-2,-5.8179155E-2,-1.334504E-1,1.12333336E2,-1.2868837E-1,-3.0639939E-2,9.23913E0,-2.0860653E-1,1.64E1,7.7967896E0,-1.8443671E-1,-1.4910159E-2,2.9698986E-1,1.7925473E-1,-8.46162E-3,1.1077721E-1,-3.1943414E-1,-1.9232655E-1,-1.5894538E-1,-4.865875E-2,1.6396464E-1,1.0569727E1,1.0858422E-1,5.407167E1,-1.0403993E-2,1.0711863E-1,-2.2906842E-2,4.8461948E-2],"split_indices":[33,28,33,28,64,8,45,69,0,45,11,26,69,57,42,69,125,79,0,0,72,0,0,21,0,0,0,64,3,0,0,47,42,24,0,0,33,43,74,56,55,74,0,0,43,60,74,0,8,0,0,0,3,58,0,0,0,43,0,61,0,0,0,0,65,0,0,21,0,59,61,0,0,0,0,0,0,0,0,0,0,0,61,0,56,0,0,0,0],"split_type":[0,0,0,0,0,0,0,0,0,0,0,0,0,0,0,0,0,0,0,0,0,0,0,0,0,0,0,0,0,0,0,0,0,0,0,0,0,0,0,0,0,0,0,0,0,0,0,0,0,0,0,0,0,0,0,0,0,0,0,0,0,0,0,0,0,0,0,0,0,0,0,0,0,0,0,0,0,0,0,0,0,0,0,0,0,0,0,0,0],"sum_hessian":[1.068E3,3.99E2,6.69E2,2.02E2,1.97E2,4.43E2,2.26E2,1.87E2,1.5E1,1.11E2,8.6E1,4.3E1,4E2,4.9E1,1.77E2,3.8E1,1.49E2,9.4E1,1.7E1,2E1,6.6E1,2.6E1,1.7E1,3.71E2,2.9E1,2.2E1,2.7E1,9.3E1,8.4E1,1.5E1,2.3E1,5.7E1,9.2E1,7.8E1,1.6E1,2.6E1,4E1,3.14E2,5.7E1,3.6E1,5.7E1,6.4E1,2E1,1.9E1,3.8E1,6E1,3.2E1,2.1E1,5.7E1,1.5E1,2.5E1,1.6E1,2.98E2,3.9E1,1.8E1,1.5E1,2.1E1,4.2E1,1.5E1,3.6E1,2.8E1,1.6E1,2.2E1,2.9E1,3.1E1,1.5E1,1.7E1,4E1,1.7E1,8.6E1,2.12E2,1.8E1,2.1E1,1.6E1,2.6E1,1.6E1,2E1,1.6E1,1.5E1,1.5E1,2.5E1,2.4E1,6.2E1,2.4E1,1.88E2,3.9E1,2.3E1,1.11E2,7.7E1],"tree_param":{"num_deleted":"0","num_feature":"126","num_nodes":"89","size_leaf_vector":"1"}},{"base_weights":[2.2993099E-2,-2.554261E0,3.9065073E0,-4.7977667E0,-2.7796525E-1,1.8367586E0,5.948819E0,-3.0824935E-1,-4.114316E0,6.4757757E0,-1.1446573E0,-8.965172E-2,2.645103E0,3.2110212E0,8.727479E0,-6.3075113E0,-1.1051302E0,7.952533E-3,2.0312853E-1,-2.7092957E0,1.7125672E0,1.1491098E0,5.5320873E0,6.5269313E0,6.35557E-1,1.1349847E1,5.9283605E0,-4.65959E0,-1.0565193E1,-2.1950934E0,1.0752157E-1,-3.2924405E-1,-5.346523E0,5.0388966E0,-4.4398975E-1,-2.2156954E0,3.0822818E0,1.28636435E-2,8.045724E0,4.789188E-2,1.5865849E-1,-6.501647E-2,3.4202106E0,9.242644E0,2.668332E-1,3.2043405E0,1.6724984E-1,-6.0203996E0,5.0057024E-2,-2.2284529E-1,-1.02612354E-1,1.035199E0,-3.901627E0,2.5430171E0,-2.642789E0,-7.023982E0,7.6605617E-3,-1.7559944E-3,1.4288078E-1,6.992818E-2,-2.0827205E0,-5.2222867E0,6.2118344E-2,5.77754E0,1.5717381E-1,2.0335203E-1,8.312364E-2,1.2556878E-1,1.0975758E-2,1.9945766E-1,8.54988E-2,-1.1510343E-2,1.2150607E-1,-4.1656084E0,-1.0228796E1,1.324318E-1,-7.8746945E-2,-1.7406079E0,-1.4964017E-1,1.1320803E-1,-2.9399011E-2,-0E0,-1.1808635E-1,-8.623865E0,-1.852537E-2,1.2413497E-2,-1.0797119E-1,-1.715416E-1,-2.8771814E-3,5.2221235E-2,1.5597896E-1,4.8193052E-2,-3.570759E-2,-1.7970175E-1,-2.349472E0,-1.1184501E-1,-2.3434274E-1,3.6341786E-2,-8.716231E-2,7.107761E-2,-6.966031E-2,-6.6456586E-2,-1.0343284E1,-5.3185012E-2,5.7712935E-2,3.7627295E-2,-8.0682635E-2,-1.2536578E-1,-2.3762289E-1],"categories":[],"categories_nodes":[],"categories_segments":[],"categories_sizes":[],"default_left":[0,0,0,0,0,0,0,0,0,0,0,0,0,0,0,0,0,0,0,0,0,0,0,0,0,0,0,0,0,0,0,0,0,0,0,0,0,0,0,0,0,0,0,0,0,0,0,0,0,0,0,0,0,0,0,0,0,0,0,0,0,0,0,0,0,0,0,0,0,0,0,0,0,0,0,0,0,0,0,0,0,0,0,0,0,0,0,0,0,0,0,0,0,0,0,0,0,0,0,0,0,0,0,0,0,0,0,0,0],"id":10,"left_children":[1,3,5,7,9,11,13,-1,15,17,19,-1,21,23,25,27,29,-1,-1,31,33,35,37,39,41,43,45,47,49,51,-1,53,55,57,59,61,63,-1,65,-1,-1,-1,67,69,-1,71,-1,73,-1,-1,-1,75,77,79,81,83,-1,-1,-1,-1,85,87,-1,89,91,-1,-1,-1,-1,-1,-1,-1,-1,93,95,-1,-1,97,-1,-1,-1,99,-1,101,-1,103,-1,-1,-1,-1,-1,-1,-1,-1,105,-1,-1,-1,-1,-1,-1,-1,107,-1,-1,-1,-1,-1,-1],"loss_changes":[1.0755003E4,3.2750908E3,1.7841904E3,2.969479E3,1.8593823E3,1.2436208E3,1.5905273E3,0E0,2.0116436E3,1.2008141E3,1.2780474E3,0E0,8.085642E2,9.0424036E2,7.1208887E2,1.1910293E3,1.068629E3,0E0,0E0,1.1401277E3,7.347258E2,8.361759E2,7.442798E2,4.7375684E2,7.857632E2,4.4238135E2,5.394845E2,1.360054E3,5.4224365E2,6.448862E2,0E0,6.519275E2,8.725325E2,7.693669E2,4.5093094E2,8.3122504E2,6.2450806E2,0E0,4.7183667E2,0E0,0E0,0E0,4.164358E2,3.678069E2,0E0,5.401522E2,0E0,8.040349E2,0E0,0E0,0E0,1.5835781E3,8.017163E2,8.154664E2,6.3218567E2,6.061936E2,0E0,0E0,0E0,0E0,4.4232388E2,7.6385077E2,0E0,3.534713E2,2.5745105E2,0E0,0E0,0E0,0E0,0E0,0E0,0E0,0E0,8.841118E2,3.6913208E2,0E0,0E0,7.593552E2,0E0,0E0,0E0,6.3150964E2,0E0,3.6608594E2,0E0,3.3688702E2,0E0,0E0,0E0,0E0,0E0,0E0,0E0,0E0,7.199776E2,0E0,0E0,0E0,0E0,0E0,0E0,0E0,3.3761865E2,0E0,0E0,0E0,0E0,0E0,0E0],"parents":[2147483647,0,0,1,1,2,2,3,3,4,4,5,5,6,6,8,8,9,9,10,10,12,12,13,13,14,14,15,15,16,16,19,19,20,20,21,21,22,22,23,23,24,24,25,25,26,26,27,27,28,28,29,29,31,31,32,32,33,33,34,34,35,35,36,36,38,38,42,42,43,43,45,45,47,47,51,51,52,52,53,53,54,54,55,55,60,60,61,61,63,63,64,64,73,73,74,74,77,77,81,81,83,83,85,85,94,94,102,102],"right_children":[2,4,6,8,10,12,14,-1,16,18,20,-1,22,24,26,28,30,-1,-1,32,34,36,38,40,42,44,46,48,50,52,-1,54,56,58,60,62,64,-1,66,-1,-1,-1,68,70,-1,72,-1,74,-1,-1,-1,76,78,80,82,84,-1,-1,-1,-1,86,88,-1,90,92,-1,-1,-1,-1,-1,-1,-1,-1,94,96,-1,-1,98,-1,-1,-1,100,-1,102,-1,104,-1,-1,-1,-1,-1,-1,-1,-1,106,-1,-1,-1,-1,-1,-1,-1,108,-1,-1,-1,-1,-1,-1],"split_conditions":[1.0357143E2,2.42E1,1.064585E2,1.0013393E2,7.868729E0,9.5744684E-2,1.192E2,-3.0824935E-1,1.123E2,7.36E1,6.0638297E-1,-8.965172E-2,1.7857143E-1,2.2324723E-1,5.84E1,2E0,5.9123203E1,7.952533E-3,2.0312853E-1,1.0731389E1,1.1126667E2,1.158E2,1.136E2,2.82E1,1.034375E2,1.0470982E2,1.0619924E1,1.2028662E1,1.1309524E1,9.6901E0,1.0752157E-1,5.67E1,3.11E1,2.7428572E1,2.81E1,5.268817E-1,1.196E2,1.28636435E-2,5.85E1,4.789188E-2,1.5865849E-1,-6.501647E-2,1.146E2,1.1146667E2,2.668332E-1,5.6666668E1,1.6724984E-1,1.1627907E1,5.0057024E-2,-2.2284529E-1,-1.02612354E-1,5.925E1,1.1428572E0,7.94E1,3.42E1,5.9125E1,7.6605617E-3,-1.7559944E-3,1.4288078E-1,6.992818E-2,8.64E1,2.9333334E1,6.2118344E-2,1.0078511E1,5.81E1,2.0335203E-1,8.312364E-2,1.2556878E-1,1.0975758E-2,1.9945766E-1,8.54988E-2,-1.1510343E-2,1.2150607E-1,6.38E1,8.4E1,1.324318E-1,-7.8746945E-2,1.156E2,-1.4964017E-1,1.1320803E-1,-2.9399011E-2,4.122807E0,-1.1808635E-1,1.1081377E2,-1.852537E-2,1.067742E1,-1.0797119E-1,-1.715416E-1,-2.8771814E-3,5.2221235E-2,1.5597896E-1,4.8193052E-2,-3.570759E-2,-1.7970175E-1,5.56E1,-1.1184501E-1,-2.3434274E-1,3.6341786E-2,-8.716231E-2,7.107761E-2,-6.966031E-2,-6.6456586E-2,6E0,-5.3185012E-2,5.7712935E-2,3.7627295E-2,-8.0682635E-2,-1.2536578E-1,-2.3762289E-1],"split_indices":[36,27,79,74,61,28,41,0,45,26,7,0,75,60,14,66,24,0,0,61,69,45,41,63,74,74,29,61,21,29,0,47,31,63,31,7,45,0,47,0,0,0,41,69,0,11,0,21,0,0,0,15,81,26,27,14,0,0,0,0,26,63,0,61,15,0,0,0,0,0,0,0,0,26,26,0,0,45,0,0,0,23,0,38,0,53,0,0,0,0,0,0,0,0,14,0,0,0,0,0,0,0,73,0,0,0,0,0,0],"split_type":[0,0,0,0,0,0,0,0,0,0,0,0,0,0,0,0,0,0,0,0,0,0,0,0,0,0,0,0,0,0,0,0,0,0,0,0,0,0,0,0,0,0,0,0,0,0,0,0,0,0,0,0,0,0,0,0,0,0,0,0,0,0,0,0,0,0,0,0,0,0,0,0,0,0,0,0,0,0,0,0,0,0,0,0,0,0,0,0,0,0,0,0,0,0,0,0,0,0,0,0,0,0,0,0,0,0,0,0,0],"sum_hessian":[1.074E3,6.45E2,4.29E2,3.24E2,3.21E2,2.14E2,2.15E2,1.5E1,3.09E2,3.6E1,2.85E2,2.1E1,1.93E2,1.09E2,1.06E2,1.78E2,1.31E2,1.8E1,1.8E1,1.85E2,1E2,1.28E2,6.5E1,4.7E1,6.2E1,5.4E1,5.2E1,1.29E2,4.9E1,1.15E2,1.6E1,9.8E1,8.7E1,4E1,6E1,4.6E1,8.2E1,2.3E1,4.2E1,2.2E1,2.5E1,2.3E1,3.9E1,3.8E1,1.6E1,3.2E1,2E1,1.1E2,1.9E1,2.9E1,2E1,3.9E1,7.6E1,4.3E1,5.5E1,6.8E1,1.9E1,1.6E1,2.4E1,1.5E1,4.5E1,3.1E1,1.5E1,4.2E1,4E1,1.7E1,2.5E1,1.5E1,2.4E1,2.2E1,1.6E1,1.6E1,1.6E1,7.7E1,3.3E1,1.8E1,2.1E1,5.4E1,2.2E1,2.2E1,2.1E1,3.5E1,2E1,5.3E1,1.5E1,3E1,1.5E1,1.5E1,1.6E1,2.5E1,1.7E1,1.9E1,2.1E1,1.6E1,6.1E1,1.8E1,1.5E1,2.5E1,2.9E1,1.7E1,1.8E1,1.5E1,3.8E1,1.5E1,1.5E1,2.1E1,4E1,2.3E1,1.5E1],"tree_param":{"num_deleted":"0","num_feature":"126","num_nodes":"109","size_leaf_vector":"1"}},{"base_weights":[-6.596503E-2,-1.8107516E0,4.4229207E0,-8.091874E0,-9.3672454E-1,4.940607E0,-5.761275E-2,-3.9563757E-1,-5.0420585E0,-5.3230085E0,-1.8362954E-2,1.9384077E0,6.131491E0,-6.738542E0,1.5359701E-2,-7.1808796E0,-1.2030523E0,-8.280828E-1,2.8474395E0,1.0424542E-1,-4.1835147E-1,2.837508E0,7.6775727E0,-1.8675157E-1,-4.32235E0,-9.358372E0,-4.160692E-2,-7.264258E-2,3.2283258E-2,3.559582E0,-1.6125412E0,6.4913006E0,7.69307E-1,-7.3263235E-2,1.592345E0,-7.722371E-2,5.3626885E0,5.3135495E0,9.724532E0,-2.4326542E-2,-1.1367496E-1,-3.305758E-2,-1.2091893E1,-3.0335503E-2,5.358994E0,9.3657404E-2,-2.0338113E0,2.2137934E-1,1.8500233E-2,-1.1058238E0,9.104487E-2,-2.8610049E-2,8.4988125E-2,1.8279982E-1,2.2295654E0,8.816391E0,1.4603199E0,6.8554173E0,1.2994525E1,-1.1640857E-1,-2.768842E-1,1.9452833E-1,2.5126548E0,-6.249186E0,-1.4996055E0,1.1568946E0,-9.4540216E-2,-2.572007E-2,1.1202435E-1,8.317389E-2,2.1728444E-1,-2.139407E-2,7.69126E-2,1.6600825E-1,4.892989E-2,2.8353223E-1,1.5482892E-1,-2.2131646E-2,9.253471E-2,-1.436447E-1,-3.521507E-2,-3.1627104E0,1.7179868E-1,-4.9055506E-2,1.2327719E-1,1.4173262E-2,-8.62947E-2,7.5337596E-2,-3.2812454E-2],"categories":[],"categories_nodes":[],"categories_segments":[],"categories_sizes":[],"default_left":[0,0,0,0,0,0,0,0,0,0,0,0,0,0,0,0,0,0,0,0,0,0,0,0,0,0,0,0,0,0,0,0,0,0,0,0,0,0,0,0,0,0,0,0,0,0,0,0,0,0,0,0,0,0,0,0,0,0,0,0,0,0,0,0,0,0,0,0,0,0,0,0,0,0,0,0,0,0,0,0,0,0,0,0,0,0,0,0,0],"id":11,"left_children":[1,3,5,7,9,11,-1,-1,13,15,17,19,21,23,-1,25,27,29,31,-1,33,35,37,-1,39,41,-1,-1,-1,43,45,47,49,-1,51,-1,53,55,57,-1,-1,-1,59,-1,61,-1,63,-1,-1,65,-1,-1,-1,-1,67,69,71,73,75,-1,-1,-1,77,79,81,83,-1,-1,-1,-1,-1,-1,-1,-1,-1,-1,-1,-1,-1,-1,-1,85,87,-1,-1,-1,-1,-1,-1],"loss_changes":[8.402375E3,4.215414E3,1.2327544E3,4.4137915E3,2.7193372E3,9.7790137E2,0E0,0E0,8.220487E2,8.6424536E2,1.299021E3,8.528683E2,9.8398535E2,6.1934204E2,0E0,7.6897754E2,3.8026007E2,1.5074175E3,9.0437634E2,0E0,4.2936185E2,1.2342219E3,6.008164E2,0E0,2.656895E2,1.0343091E3,0E0,0E0,0E0,6.537645E2,1.13124E3,1.5702686E3,7.165174E2,0E0,4.12107E2,0E0,8.20282E2,8.2548694E2,5.994258E2,0E0,0E0,0E0,8.210967E2,0E0,8.542073E2,0E0,7.680679E2,0E0,0E0,6.000477E2,0E0,0E0,0E0,0E0,5.6819904E2,4.6923193E2,2.8409106E2,4.3230396E2,3.9339697E2,0E0,0E0,0E0,4.2985208E2,3.483938E2,8.868573E2,9.74606E2,0E0,0E0,0E0,0E0,0E0,0E0,0E0,0E0,0E0,0E0,0E0,0E0,0E0,0E0,0E0,1.3222466E3,1.4780072E3,0E0,0E0,0E0,0E0,0E0,0E0],"parents":[2147483647,0,0,1,1,2,2,3,3,4,4,5,5,8,8,9,9,10,10,11,11,12,12,13,13,15,15,16,16,17,17,18,18,20,20,21,21,22,22,24,24,25,25,29,29,30,30,31,31,32,32,34,34,36,36,37,37,38,38,42,42,44,44,46,46,49,49,54,54,55,55,56,56,57,57,58,58,62,62,63,63,64,64,65,65,81,81,82,82],"right_children":[2,4,6,8,10,12,-1,-1,14,16,18,20,22,24,-1,26,28,30,32,-1,34,36,38,-1,40,42,-1,-1,-1,44,46,48,50,-1,52,-1,54,56,58,-1,-1,-1,60,-1,62,-1,64,-1,-1,66,-1,-1,-1,-1,68,70,72,74,76,-1,-1,-1,78,80,82,84,-1,-1,-1,-1,-1,-1,-1,-1,-1,-1,-1,-1,-1,-1,-1,86,88,-1,-1,-1,-1,-1,-1],"split_conditions":[5.1E1,1.122E2,6.2E1,1.082E2,1.0180804E2,1.162E2,-5.761275E-2,-3.9563757E-1,-7.5E-1,1.167E2,1.0410714E2,1.15333336E2,-2.7117116E0,5.6E1,1.5359701E-2,5.91E1,5.58E1,2.7E1,-6E0,1.0424542E-1,1.111E2,1.3865327E3,2.488889E0,-1.8675157E-1,1.149E2,4.6E1,-4.160692E-2,-7.264258E-2,3.2283258E-2,8.847822E0,3.2461538E0,5.92E1,5.775551E1,-7.3263235E-2,1.116E2,-7.722371E-2,-7.997996E0,1.13E2,2.4489796E0,-2.4326542E-2,-1.1367496E-1,-3.305758E-2,1.105E2,-3.0335503E-2,8E1,9.3657404E-2,2.7969696E1,2.2137934E-1,1.8500233E-2,1.164E2,9.104487E-2,-2.8610049E-2,8.4988125E-2,1.8279982E-1,1.147E2,1.093E2,1.107E2,1.156E2,2E0,-1.1640857E-1,-2.768842E-1,1.9452833E-1,7.9268295E-1,1.0121951E0,1.157E2,1.114E2,-9.4540216E-2,-2.572007E-2,1.1202435E-1,8.317389E-2,2.1728444E-1,-2.139407E-2,7.69126E-2,1.6600825E-1,4.892989E-2,2.8353223E-1,1.5482892E-1,-2.2131646E-2,9.253471E-2,-1.436447E-1,-3.521507E-2,-1.6E0,1.116E2,-4.9055506E-2,1.2327719E-1,1.4173262E-2,-8.62947E-2,7.5337596E-2,-3.2812454E-2],"split_indices":[35,0,3,70,74,41,0,0,81,12,74,70,118,43,0,46,43,3,81,0,13,77,22,0,13,2,0,0,0,61,23,46,24,0,69,0,118,44,54,0,0,0,1,0,26,0,57,0,0,12,0,0,0,0,1,44,13,1,16,0,0,0,7,76,0,8,0,0,0,0,0,0,0,0,0,0,0,0,0,0,0,123,69,0,0,0,0,0,0],"split_type":[0,0,0,0,0,0,0,0,0,0,0,0,0,0,0,0,0,0,0,0,0,0,0,0,0,0,0,0,0,0,0,0,0,0,0,0,0,0,0,0,0,0,0,0,0,0,0,0,0,0,0,0,0,0,0,0,0,0,0,0,0,0,0,0,0,0,0,0,0,0,0,0,0,0,0,0,0,0,0,0,0,0,0,0,0,0,0,0,0],"sum_hessian":[1.074E3,7.74E2,3E2,9.4E1,6.8E2,2.82E2,1.8E1,1.5E1,7.9E1,1.17E2,5.63E2,8.1E1,2.01E2,6.2E1,1.7E1,8E1,3.7E1,4.4E2,1.23E2,2.9E1,5.2E1,6.5E1,1.36E2,2.1E1,4.1E1,5.4E1,2.6E1,1.9E1,1.8E1,6.6E1,3.74E2,4.4E1,7.9E1,1.8E1,3.4E1,1.6E1,4.9E1,6.4E1,7.2E1,2E1,2.1E1,1.5E1,3.9E1,1.6E1,5E1,2E1,3.54E2,1.9E1,2.5E1,5.6E1,2.3E1,1.7E1,1.7E1,1.7E1,3.2E1,3.3E1,3.1E1,3.9E1,3.3E1,1.9E1,2E1,1.5E1,3.5E1,3.9E1,3.15E2,3.7E1,1.9E1,1.7E1,1.5E1,1.8E1,1.5E1,1.6E1,1.5E1,2.1E1,1.8E1,1.5E1,1.8E1,1.5E1,2E1,2.4E1,1.5E1,1.59E2,1.56E2,2.2E1,1.5E1,5.3E1,1.06E2,5.2E1,1.04E2],"tree_param":{"num_deleted":"0","num_feature":"126","num_nodes":"89","size_leaf_vector":"1"}},{"base_weights":[2.2121329E-2,-2.4046493E0,3.7083147E0,-1.16795025E1,-1.8946458E0,1.3337011E0,5.9237957E0,-3.0929258E-1,-5.0320886E-2,-5.2751193E0,-7.194498E-1,-1.0979922E-1,1.982426E0,2.0078633E0,7.9508014E0,-6.8371305E0,-3.2520947E-1,4.805485E-1,-4.6708126E0,6.936028E-1,5.3290486E0,-1.1651491E0,4.8764815E0,9.175996E0,3.7963223E-2,-8.465551E0,-2.8308615E-2,7.863389E-2,-6.9326766E-2,-2.373695E0,1.5138886E0,-6.8386087E0,2.2711127E-1,2.1971223E0,-3.3085124E0,1.2841075E-2,8.541129E0,-1.0291227E-1,4.035063E-2,1.4360042E-1,8.090328E-3,1.2849769E1,7.1414213E0,-4.9590025E-2,-1.0205366E1,-1.3490504E-1,-4.789835E-1,2.4634442E0,-4.156676E0,-8.972514E0,-2.6865475E-2,8.508302E-2,-6.437417E-2,-5.052662E-1,4.7140326E0,-1.2577382E-1,-0E0,1.9859123E-1,8.018102E-2,1.6408832E-1,2.931799E-1,3.7915446E-2,9.445306E0,-7.511563E0,-1.25545845E1,-3.1767476E0,5.9310835E-2,9.216866E-1,4.7588396E0,-2.3013024E-2,-1.2886427E-1,-6.4378004E0,-2.3906244E-1,9.879415E-2,-3.8569226E0,1.3414389E-2,6.613586E0,1.1596555E1,9.307231E-2,-8.724068E-2,-1.6239092E-1,-2.631586E-1,-1.52341E-1,-7.7517936E-4,-1.1211555E-1,-1.565644E0,3.2465386E0,1.0049082E1,9.4830936E-1,-1.5763015E-1,-5.2192975E-2,-1.8269727E-2,-1.1143514E-1,1.6709548E-1,5.7802886E-2,1.2185635E-1,2.5839096E-1,5.033289E-2,-7.447941E-2,-2.874436E-2,8.6414225E-2,2.5252295E-1,8.615514E-2,5.8886364E-2,-5.3718556E-2],"categories":[],"categories_nodes":[],"categories_segments":[],"categories_sizes":[],"default_left":[0,0,0,0,0,0,0,0,0,0,0,0,0,0,0,0,0,0,0,0,0,0,0,0,0,0,0,0,0,0,0,0,0,0,0,0,0,0,0,0,0,0,0,0,0,0,0,0,0,0,0,0,0,0,0,0,0,0,0,0,0,0,0,0,0,0,0,0,0,0,0,0,0,0,0,0,0,0,0,0,0,0,0,0,0,0,0,0,0,0,0,0,0,0,0,0,0,0,0,0,0,0,0,0,0],"id":12,"left_children":[1,3,5,7,9,11,13,-1,-1,15,17,-1,19,21,23,25,27,29,31,33,35,37,39,41,-1,43,-1,-1,-1,45,47,49,51,53,55,-1,57,-1,-1,-1,-1,59,61,-1,63,-1,65,67,69,71,-1,-1,-1,73,75,-1,-1,-1,-1,-1,-1,-1,77,79,81,83,-1,85,87,-1,-1,89,-1,-1,91,-1,93,95,-1,-1,-1,-1,-1,-1,-1,97,99,101,103,-1,-1,-1,-1,-1,-1,-1,-1,-1,-1,-1,-1,-1,-1,-1,-1],"loss_changes":[9.523373E3,2.9809675E3,2.1982144E3,1.9104873E3,2.3930461E3,1.0415101E3,1.6930337E3,0E0,0E0,1.1795713E3,2.1590293E3,0E0,7.970478E2,6.9688324E2,9.4855664E2,9.474619E2,7.420316E2,1.017449E3,1.1504553E3,8.265669E2,7.261282E2,6.504135E2,6.3100793E2,7.978047E2,0E0,7.977661E2,0E0,0E0,0E0,9.621363E2,1.3671239E3,7.8430005E2,6.511239E2,7.0290576E2,5.175277E2,0E0,3.1837988E2,0E0,0E0,0E0,0E0,4.782124E2,8.0582983E2,0E0,3.4690674E2,0E0,7.5434283E2,7.538075E2,3.2636462E2,6.3866504E2,0E0,0E0,0E0,1.0335111E3,3.6545825E2,0E0,0E0,0E0,0E0,0E0,0E0,0E0,3.5452295E2,1.0708496E2,2.942168E2,4.4649045E2,0E0,7.698586E2,1.7130249E3,0E0,0E0,3.160575E2,0E0,0E0,2.2348108E2,0E0,3.2819995E2,4.543164E2,0E0,0E0,0E0,0E0,0E0,0E0,0E0,8.5511847E2,6.8954987E2,8.2817773E2,5.582185E2,0E0,0E0,0E0,0E0,0E0,0E0,0E0,0E0,0E0,0E0,0E0,0E0,0E0,0E0,0E0,0E0],"parents":[2147483647,0,0,1,1,2,2,3,3,4,4,5,5,6,6,9,9,10,10,12,12,13,13,14,14,15,15,16,16,17,17,18,18,19,19,20,20,21,21,22,22,23,23,25,25,29,29,30,30,31,31,32,32,33,33,34,34,36,36,41,41,42,42,44,44,46,46,47,47,48,48,49,49,53,53,54,54,62,62,63,63,64,64,65,65,67,67,68,68,71,71,74,74,76,76,77,77,85,85,86,86,87,87,88,88],"right_children":[2,4,6,8,10,12,14,-1,-1,16,18,-1,20,22,24,26,28,30,32,34,36,38,40,42,-1,44,-1,-1,-1,46,48,50,52,54,56,-1,58,-1,-1,-1,-1,60,62,-1,64,-1,66,68,70,72,-1,-1,-1,74,76,-1,-1,-1,-1,-1,-1,-1,78,80,82,84,-1,86,88,-1,-1,90,-1,-1,92,-1,94,96,-1,-1,-1,-1,-1,-1,-1,98,100,102,104,-1,-1,-1,-1,-1,-1,-1,-1,-1,-1,-1,-1,-1,-1,-1,-1],"split_conditions":[1.0357143E2,9.9375E1,9.7036446E1,1.148E2,1.76E1,7E0,1.17E2,-3.0929258E-1,-5.0320886E-2,1.166E2,6E1,-1.0979922E-1,5.803579E-1,1.0345982E2,6.15E1,1.155E2,1.11E2,-3.6298775E1,4.3653846E0,3.5023342E1,1.0060976E0,2.3333333E0,5.78E1,2E0,3.7963223E-2,1.05E2,-2.8308615E-2,7.863389E-2,-6.9326766E-2,0E0,5.7E1,1.2439024E0,4.6E0,2.4186046E0,3.6E1,1.2841075E-2,5.76E1,-1.0291227E-1,4.035063E-2,1.4360042E-1,8.090328E-3,4E0,1.202E2,-4.9590025E-2,2.84E1,-1.3490504E-1,3.3997932E1,5.9333332E1,0E0,1.1224328E1,-2.6865475E-2,8.508302E-2,-6.437417E-2,1.1173333E2,1.146E2,-1.2577382E-1,-0E0,1.9859123E-1,8.018102E-2,1.6408832E-1,2.931799E-1,3.7915446E-2,1.135E2,5.2081917E1,5.75E1,5.84E1,5.9310835E-2,1.11066666E2,1.108E2,-2.3013024E-2,-1.2886427E-1,1.14333336E2,-2.3906244E-1,9.879415E-2,3.796875E0,1.3414389E-2,3.064126E1,2.26E1,9.307231E-2,-8.724068E-2,-1.6239092E-1,-2.631586E-1,-1.52341E-1,-7.7517936E-4,-1.1211555E-1,1.0344776E1,5.5E1,9.644444E0,3.5943153E1,-1.5763015E-1,-5.2192975E-2,-1.8269727E-2,-1.1143514E-1,1.6709548E-1,5.7802886E-2,1.2185635E-1,2.5839096E-1,5.033289E-2,-7.447941E-2,-2.874436E-2,8.6414225E-2,2.5252295E-1,8.615514E-2,5.8886364E-2,-5.3718556E-2],"split_indices":[36,36,79,44,27,27,45,0,0,12,34,0,121,74,10,41,41,121,23,25,76,22,42,125,0,41,0,0,0,124,3,76,23,22,35,0,10,0,0,0,0,73,41,0,30,0,25,10,124,29,0,0,0,65,41,0,0,0,0,0,0,0,44,24,42,15,0,65,69,0,0,13,0,0,23,0,25,59,0,0,0,0,0,0,0,29,42,123,25,0,0,0,0,0,0,0,0,0,0,0,0,0,0,0,0],"split_type":[0,0,0,0,0,0,0,0,0,0,0,0,0,0,0,0,0,0,0,0,0,0,0,0,0,0,0,0,0,0,0,0,0,0,0,0,0,0,0,0,0,0,0,0,0,0,0,0,0,0,0,0,0,0,0,0,0,0,0,0,0,0,0,0,0,0,0,0,0,0,0,0,0,0,0,0,0,0,0,0,0,0,0,0,0,0,0,0,0,0,0,0,0,0,0,0,0,0,0,0,0,0,0,0,0],"sum_hessian":[1.064E3,6.41E2,4.23E2,3.3E1,6.08E2,2.05E2,2.18E2,1.8E1,1.5E1,1.56E2,4.52E2,1.5E1,1.9E2,7.5E1,1.43E2,1.18E2,3.8E1,3.46E2,1.06E2,1.38E2,5.2E1,3.5E1,4E1,1.17E2,2.6E1,8.9E1,2.9E1,1.6E1,2.2E1,9.1E1,2.55E2,7.4E1,3.2E1,1.01E2,3.7E1,2.2E1,3E1,1.5E1,2E1,2.1E1,1.9E1,4.1E1,7.6E1,2.2E1,6.7E1,2.2E1,6.9E1,2.19E2,3.6E1,5.2E1,2.2E1,1.5E1,1.7E1,4.8E1,5.3E1,1.6E1,2.1E1,1.5E1,1.5E1,2.6E1,1.5E1,2.5E1,5.1E1,3.2E1,3.5E1,4.2E1,2.7E1,1.32E2,8.7E1,2.1E1,1.5E1,3.6E1,1.6E1,1.6E1,3.2E1,1.8E1,3.5E1,3.2E1,1.9E1,1.7E1,1.5E1,1.7E1,1.8E1,2.3E1,1.9E1,6.3E1,6.9E1,3.6E1,5.1E1,1.8E1,1.8E1,1.7E1,1.5E1,1.6E1,1.9E1,1.6E1,1.6E1,2.4E1,3.9E1,1.9E1,5E1,1.7E1,1.9E1,3.2E1,1.9E1],"tree_param":{"num_deleted":"0","num_feature":"126","num_nodes":"105","size_leaf_vector":"1"}},{"base_weights":[-1.2321862E-1,-2.4389045E0,3.4397495E0,-2.6415846E-1,-2.0721774E0,1.09483115E-1,5.085656E0,-2.912952E0,2.7444284E0,1.0580886E-1,-1.2777268E0,9.732852E0,4.047049E0,-4.606385E0,-1.1220955E0,1.727086E-1,6.166242E-1,-1.2881552E-1,-1.8875235E-1,1.0556355E-1,2.1239106E-1,4.9727774E0,4.1997105E-1,-6.4533787E0,-1.8347316E0,5.3529444E0,-2.0278668E0,-1.04157075E-1,2.903204E0,-1.8458154E0,1.0217014E-1,1.1695249E0,6.249855E0,3.9416656E0,-9.578386E-2,-4.1207404E0,-9.231582E0,-5.559108E0,3.2368574E0,-1.8217655E-2,1.8659952E-1,-6.239012E-2,-4.471723E0,-5.3534907E-4,1.02616854E-1,2.65858E-2,-3.7087336E0,-4.3031015E-2,7.676895E-2,7.320086E0,-1.0257067E-2,9.9572405E-2,2.9262427E-2,-1.549559E-1,-2.1893795E0,-1.25339E1,-6.395239E-2,-8.512417E0,-1.1285256E-2,1.10554464E-1,-2.0128148E-2,-1.0504236E-1,1.3243965E0,-5.6452475E0,-3.7476528E-3,-0E0,-6.305633E0,6.3257446E0,2.162743E-1,1.3461657E-1,-9.558954E-2,-3.215647E-1,-1.1757983E-1,-9.045608E-2,-2.0571975E-1,3.8315957E0,-2.1238751E0,-3.9834335E0,-1.6783617E-1,-1.4934926E-1,-5.5381577E-2,5.151601E0,1.7677309E-1,-4.0499207E-2,7.014971E-2,1.4222692E-1,3.471796E-2,9.310327E-3,-1.252467E-1,-1.1007586E-1,-1.4986796E-2,1.4615315E-1,5.8659E-2],"categories":[],"categories_nodes":[],"categories_segments":[],"categories_sizes":[],"default_left":[0,0,0,0,0,0,0,0,0,0,0,0,0,0,0,0,0,0,0,0,0,0,0,0,0,0,0,0,0,0,0,0,0,0,0,0,0,0,0,0,0,0,0,0,0,0,0,0,0,0,0,0,0,0,0,0,0,0,0,0,0,0,0,0,0,0,0,0,0,0,0,0,0,0,0,0,0,0,0,0,0,0,0,0,0,0,0,0,0,0,0,0,0],"id":13,"left_children":[1,3,5,-1,7,9,11,13,15,-1,17,19,21,23,25,-1,27,-1,29,-1,-1,31,33,35,37,39,41,-1,43,45,-1,47,49,51,-1,53,55,57,59,-1,-1,61,63,-1,-1,-1,65,-1,-1,67,-1,-1,-1,-1,69,71,-1,73,-1,-1,-1,-1,75,77,-1,-1,79,81,-1,83,-1,-1,-1,-1,-1,85,87,89,-1,-1,-1,91,-1,-1,-1,-1,-1,-1,-1,-1,-1,-1,-1],"loss_changes":[8.890953E3,3.1696804E3,2.304809E3,0E0,2.580577E3,1.2467415E3,1.3136382E3,1.6253213E3,1.4943402E3,0E0,7.837271E2,4.552832E2,7.5888965E2,1.3920454E3,1.5422097E3,0E0,1.1559154E3,0E0,1.026662E3,0E0,0E0,8.659463E2,1.0421576E3,1.0251489E3,2.1251035E3,1.2584661E3,1.1023708E3,0E0,5.637655E2,5.1588257E2,0E0,6.210247E2,1.0324087E3,1.1020972E2,0E0,8.756022E2,1.2688164E3,9.0235315E2,7.3925146E2,0E0,0E0,1.1504642E3,4.913606E2,0E0,0E0,0E0,4.7823724E2,0E0,0E0,6.036328E2,0E0,0E0,0E0,0E0,5.783689E2,1.6170786E3,0E0,4.0841064E2,0E0,0E0,0E0,0E0,9.2321704E2,5.4225757E2,0E0,0E0,1.939198E2,4.5946704E2,0E0,4.2978986E2,0E0,0E0,0E0,0E0,0E0,4.7138965E2,6.685591E2,4.5477435E2,0E0,0E0,0E0,4.321189E2,0E0,0E0,0E0,0E0,0E0,0E0,0E0,0E0,0E0,0E0,0E0],"parents":[2147483647,0,0,1,1,2,2,4,4,5,5,6,6,7,7,8,8,10,10,11,11,12,12,13,13,14,14,16,16,18,18,21,21,22,22,23,23,24,24,25,25,26,26,28,28,29,29,31,31,32,32,33,33,35,35,36,36,37,37,38,38,41,41,42,42,46,46,49,49,54,54,55,55,57,57,62,62,63,63,66,66,67,67,69,69,75,75,76,76,77,77,81,81],"right_children":[2,4,6,-1,8,10,12,14,16,-1,18,20,22,24,26,-1,28,-1,30,-1,-1,32,34,36,38,40,42,-1,44,46,-1,48,50,52,-1,54,56,58,60,-1,-1,62,64,-1,-1,-1,66,-1,-1,68,-1,-1,-1,-1,70,72,-1,74,-1,-1,-1,-1,76,78,-1,-1,80,82,-1,84,-1,-1,-1,-1,-1,86,88,90,-1,-1,-1,92,-1,-1,-1,-1,-1,-1,-1,-1,-1,-1,-1],"split_conditions":[1.0357143E2,9.98E1,1.149E2,-2.6415846E-1,1.19E2,5.44E1,-3E0,2.42E1,1.66E1,1.0580886E-1,1.1275964E-1,2.2359155E-1,1.2125E2,3.4585712E1,7.868729E0,1.727086E-1,1.8772563E-1,-1.2881552E-1,6.16E1,1.0556355E-1,2.1239106E-1,1.116E2,1.1279433E2,5.6626505E-1,1.0687603E1,7.36E1,3.4367367E1,-1.04157075E-1,4.0208335E0,2.8166666E1,1.0217014E-1,4.16E0,4.9183674E0,1.177E2,-9.578386E-2,1.085E2,1.0824223E2,1.5353977E3,1.15818184E2,-1.8217655E-2,1.8659952E-1,1.095E2,3.34E1,-5.3534907E-4,1.02616854E-1,2.65858E-2,1.9333334E1,-4.3031015E-2,7.676895E-2,5.8637108E1,-1.0257067E-2,9.9572405E-2,2.9262427E-2,-1.549559E-1,2.8333334E1,5.788889E1,-6.395239E-2,5.6989247E-1,-1.1285256E-2,1.10554464E-1,-2.0128148E-2,-1.0504236E-1,1.0942915E1,3.52E1,-3.7476528E-3,-0E0,3.0285715E1,6.01E1,2.162743E-1,1.104E2,-9.558954E-2,-3.215647E-1,-1.1757983E-1,-9.045608E-2,-2.0571975E-1,-3.2879657E2,1.168E2,5.98E1,-1.6783617E-1,-1.4934926E-1,-5.5381577E-2,5.55E1,1.7677309E-1,-4.0499207E-2,7.014971E-2,1.4222692E-1,3.471796E-2,9.310327E-3,-1.252467E-1,-1.1007586E-1,-1.4986796E-2,1.4615315E-1,5.8659E-2],"split_indices":[36,45,0,0,0,42,71,27,59,0,28,28,8,57,61,0,28,0,42,0,0,12,37,7,61,26,57,0,55,62,0,55,55,0,0,45,79,77,64,0,0,33,59,0,0,0,27,0,0,56,0,0,0,0,31,46,0,39,0,0,0,0,61,27,0,0,62,46,0,12,0,0,0,0,0,79,65,42,0,0,0,46,0,0,0,0,0,0,0,0,0,0,0],"split_type":[0,0,0,0,0,0,0,0,0,0,0,0,0,0,0,0,0,0,0,0,0,0,0,0,0,0,0,0,0,0,0,0,0,0,0,0,0,0,0,0,0,0,0,0,0,0,0,0,0,0,0,0,0,0,0,0,0,0,0,0,0,0,0,0,0,0,0,0,0,0,0,0,0,0,0,0,0,0,0,0,0,0,0,0,0,0,0,0,0,0,0,0,0],"sum_hessian":[1.078E3,6.54E2,4.24E2,1.7E1,6.37E2,1.41E2,2.83E2,5.43E2,9.4E1,2.6E1,1.15E2,5.1E1,2.32E2,2.78E2,2.65E2,2E1,7.4E1,1.6E1,9.9E1,2.5E1,2.6E1,1.84E2,4.8E1,1.66E2,1.12E2,3.2E1,2.33E2,1.8E1,5.6E1,7.9E1,2E1,4.7E1,1.37E2,3.1E1,1.7E1,9.1E1,7.5E1,6.5E1,4.7E1,1.5E1,1.7E1,1.3E2,1.03E2,2.9E1,2.7E1,2.7E1,5.2E1,2.2E1,2.5E1,1.19E2,1.8E1,1.5E1,1.6E1,2.4E1,6.7E1,4.6E1,2.9E1,4E1,2.5E1,2.7E1,2E1,2.4E1,1.06E2,8E1,2.3E1,2.2E1,3E1,1.02E2,1.7E1,4E1,2.7E1,2E1,2.6E1,2.3E1,1.7E1,6.2E1,4.4E1,5.9E1,2.1E1,1.5E1,1.5E1,8.1E1,2.1E1,2.4E1,1.6E1,1.6E1,4.6E1,2.9E1,1.5E1,3.1E1,2.8E1,2.4E1,5.7E1],"tree_param":{"num_deleted":"0","num_feature":"126","num_nodes":"93","size_leaf_vector":"1"}},{"base_weights":[9.936854E-3,-1.6849235E0,4.4484167E0,-7.5610385E0,-8.459169E-1,6.579349E-1,6.0860567E0,-3.1221557E-1,-5.0820456E0,-5.2864122E0,-1.759488E-1,-1.9860219E0,3.5063984E0,2.3761227E0,7.7691207E0,-2.3693962E0,-1.7873637E-1,-9.482474E0,-2.1659083E0,-8.786674E-1,3.6779408E0,4.7743707E-3,-1.0075897E-1,-5.534266E-3,1.3069329E-1,4.1116185E-2,1.0728955E-1,6.8075094E0,1.967087E-1,-4.5431952E0,3.550746E-2,-2.1073793E-1,-7.4253246E-2,3.2769132E-2,-1.0974533E-1,-4.393909E0,-2.0958437E-2,-2.5919793E-2,6.105051E0,-4.4777587E-2,8.656276E-2,7.580108E0,2.327709E-2,-1.2934972E-1,-4.0834045E-4,-5.9391036E0,2.2685334E-2,-3.6402774E-1,1.32765E-1,8.241628E0,-0E0,8.577073E0,2.78011E-2,-8.893424E0,-1.4313408E0,4.208531E-1,-4.0228405E0,2.5013706E-1,4.797161E0,1.0604331E1,5.420934E0,-3.7821114E-2,-2.0941922E-1,9.9639185E-3,-6.372992E-2,8.2672405E-1,-1.0794865E-1,-1.4859392E-1,-2.5773172E0,1.4216822E-1,1.6776048E-2,1.0856557E-1,1.2515363E1,2.959834E-2,1.4633176E-1,-6.2041037E-2,2.3621233E-2,6.855018E-3,-8.146582E-2,2.5997108E-1,1.6241544E-1],"categories":[],"categories_nodes":[],"categories_segments":[],"categories_sizes":[],"default_left":[0,0,0,0,0,0,0,0,0,0,0,0,0,0,0,0,0,0,0,0,0,0,0,0,0,0,0,0,0,0,0,0,0,0,0,0,0,0,0,0,0,0,0,0,0,0,0,0,0,0,0,0,0,0,0,0,0,0,0,0,0,0,0,0,0,0,0,0,0,0,0,0,0,0,0,0,0,0,0,0,0],"id":14,"left_children":[1,3,5,7,9,11,13,-1,15,17,19,21,23,25,27,29,-1,31,33,35,37,-1,-1,-1,-1,39,-1,41,-1,43,-1,-1,-1,-1,-1,45,47,-1,49,-1,-1,51,-1,-1,-1,53,-1,55,-1,57,-1,59,-1,61,63,65,67,-1,69,71,73,-1,-1,-1,-1,75,-1,-1,77,-1,-1,-1,79,-1,-1,-1,-1,-1,-1,-1,-1],"loss_changes":[8.0523535E3,3.7795552E3,1.81229E3,2.5926255E3,1.9937345E3,6.838465E2,1.2481084E3,0E0,1.1725837E3,1.1085984E3,1.5848319E3,4.5007413E2,7.6859344E2,5.9776904E2,4.841797E2,5.390593E2,0E0,5.3307837E2,9.595527E2,1.4881091E3,1.1625245E3,0E0,0E0,0E0,0E0,6.07019E2,0E0,4.463662E2,0E0,5.163556E2,0E0,0E0,0E0,0E0,0E0,8.812075E2,1.0792323E3,0E0,8.144492E2,0E0,0E0,5.5E2,0E0,0E0,0E0,9.869209E2,0E0,1.1220457E3,0E0,1.0099514E3,0E0,4.8276953E2,0E0,1.0822207E3,1.6437444E2,8.711072E2,4.4949536E2,0E0,4.0793604E2,3.2210693E2,3.8150427E2,0E0,0E0,0E0,0E0,8.120239E2,0E0,0E0,3.9461795E2,0E0,0E0,0E0,1.9398682E2,0E0,0E0,0E0,0E0,0E0,0E0,0E0,0E0],"parents":[2147483647,0,0,1,1,2,2,3,3,4,4,5,5,6,6,8,8,9,9,10,10,11,11,12,12,13,13,14,14,15,15,17,17,18,18,19,19,20,20,25,25,27,27,29,29,35,35,36,36,38,38,41,41,45,45,47,47,49,49,51,51,53,53,54,54,55,55,56,56,58,58,59,59,60,60,65,65,68,68,72,72],"right_children":[2,4,6,8,10,12,14,-1,16,18,20,22,24,26,28,30,-1,32,34,36,38,-1,-1,-1,-1,40,-1,42,-1,44,-1,-1,-1,-1,-1,46,48,-1,50,-1,-1,52,-1,-1,-1,54,-1,56,-1,58,-1,60,-1,62,64,66,68,-1,70,72,74,-1,-1,-1,-1,76,-1,-1,78,-1,-1,-1,80,-1,-1,-1,-1,-1,-1,-1,-1],"split_conditions":[5.1E1,1.122E2,1.16E2,5.3E1,1.22E1,3.3154762E1,1.148E2,-3.1221557E-1,2.4313726E0,2.9E1,1.19E2,5.59E1,9.590368E0,4E0,2.7758622E-1,2.74E1,-1.7873637E-1,1.0428571E2,1.92E1,1.076E2,5.59E1,4.7743707E-3,-1.0075897E-1,-5.534266E-3,1.3069329E-1,2.96E1,1.0728955E-1,2.4775584E-1,1.967087E-1,3.03E1,3.550746E-2,-2.1073793E-1,-7.4253246E-2,3.2769132E-2,-1.0974533E-1,1.24565735E1,6.47E1,-2.5919793E-2,5.825E1,-4.4777587E-2,8.656276E-2,5.6E1,2.327709E-2,-1.2934972E-1,-4.0834045E-4,2.8E1,2.2685334E-2,6.4634144E-1,1.32765E-1,1.68E1,-0E0,2.6842105E0,2.78011E-2,-3E0,1.05E2,3.2833332E1,1.94E1,2.5013706E-1,5.731707E-1,2.2666667E0,3E0,-3.7821114E-2,-2.0941922E-1,9.9639185E-3,-6.372992E-2,2.625E1,-1.0794865E-1,-1.4859392E-1,1.101E2,1.4216822E-1,1.6776048E-2,1.0856557E-1,5.59E1,2.959834E-2,1.4633176E-1,-6.2041037E-2,2.3621233E-2,6.855018E-3,-8.146582E-2,2.5997108E-1,1.6241544E-1],"split_indices":[35,0,45,47,27,57,0,0,22,30,0,46,61,125,28,59,0,4,59,45,46,0,0,0,0,31,0,28,0,62,0,0,0,0,0,61,15,0,47,0,0,2,0,0,0,27,0,39,0,59,0,22,0,125,45,31,27,0,39,22,73,0,0,0,0,30,0,0,45,0,0,0,46,0,0,0,0,0,0,0,0],"split_type":[0,0,0,0,0,0,0,0,0,0,0,0,0,0,0,0,0,0,0,0,0,0,0,0,0,0,0,0,0,0,0,0,0,0,0,0,0,0,0,0,0,0,0,0,0,0,0,0,0,0,0,0,0,0,0,0,0,0,0,0,0,0,0,0,0,0,0,0,0,0,0,0,0,0,0,0,0,0,0,0,0],"sum_hessian":[1.069E3,7.73E2,2.96E2,9.6E1,6.77E2,9E1,2.06E2,1.7E1,7.9E1,8.8E1,5.89E2,4.6E1,4.4E1,6.5E1,1.41E2,5.4E1,2.5E1,3.7E1,5.1E1,4.99E2,9E1,2.9E1,1.7E1,2.3E1,2.1E1,4.2E1,2.3E1,1.15E2,2.6E1,3.7E1,1.7E1,2.2E1,1.5E1,2.6E1,2.5E1,9.7E1,4.02E2,2.8E1,6.2E1,2.7E1,1.5E1,1E2,1.5E1,2.1E1,1.6E1,7.7E1,2E1,3.86E2,1.6E1,4.6E1,1.6E1,8.5E1,1.5E1,4.6E1,3.1E1,3.17E2,6.9E1,1.5E1,3.1E1,5.1E1,3.4E1,1.7E1,2.9E1,1.6E1,1.5E1,3E2,1.7E1,1.5E1,5.4E1,1.5E1,1.6E1,1.7E1,3.4E1,1.7E1,1.7E1,3.4E1,2.66E2,2.3E1,3.1E1,1.5E1,1.9E1],"tree_param":{"num_deleted":"0","num_feature":"126","num_nodes":"81","size_leaf_vector":"1"}},{"base_weights":[1.7966079E-3,-1.8799632E0,3.3464382E0,-3.3149438E0,1.3145545E0,-5.173549E-1,4.336694E0,-5.048586E0,-1.986151E-1,5.3291106E0,-2.2594118E-1,-4.401958E0,3.1772766E0,5.7043E0,1.860497E0,-2.5590247E-1,-4.3871884E0,1.395224E-1,-1.4228665E0,8.946524E0,1.8515892E-3,1.4604245E0,-4.525057E0,-1.2779327E-1,1.0725809E-2,1.01357E-1,-9.641144E-3,3.2074082E0,6.961457E0,-2.1733909E0,4.834415E0,-4.116558E-1,-5.688863E0,-3.2755451E0,5.0863175E0,8.5131004E-2,1.9239E-1,-6.552161E-2,3.0972629E0,-1.3899008E-2,-1.2327399E-1,1.6123898E-1,7.815881E-1,5.914174E0,1.9475944E-1,-1.3236871E-1,3.311324E-2,-1.5395785E-2,7.120322E0,-8.2841165E-2,1.8053153E0,-1.233551E0,-6.800094E0,-5.781654E0,-6.173247E-1,1.3615242E-1,3.173938E-2,6.3789573E0,-1.7556363E-1,-4.9233943E-2,6.402379E-2,4.5011907E0,1.7822656E-1,1.8244335E-1,3.5179533E-2,-4.9237373E-1,1.1769365E-1,-1.0715306E-1,3.725204E-2,-8.963822E0,-4.98239E0,-0E0,-7.64328E0,2.1837785E0,-7.396073E-2,1.8641236E-1,3.2751493E-2,5.5070896E-2,-1.00927174E-1,7.7673454E0,2.3539612E0,4.588401E-2,-6.2652156E-2,-3.3385463E-2,-1.1293988E1,-6.8768215E0,-1.6256444E0,-1.9468927E-1,-4.5876775E-2,-6.6956016E-3,7.5327344E-2,6.562571E-2,1.7773508E-1,4.421111E0,-1.7258473E-2,-2.2481324E-1,-9.26179E-2,-5.6507252E-2,-1.4796996E-1,2.5878888E-2,-9.347298E-2,1.3444284E-1,4.31872E-3],"categories":[],"categories_nodes":[],"categories_segments":[],"categories_sizes":[],"default_left":[0,0,0,0,0,0,0,0,0,0,0,0,0,0,0,0,0,0,0,0,0,0,0,0,0,0,0,0,0,0,0,0,0,0,0,0,0,0,0,0,0,0,0,0,0,0,0,0,0,0,0,0,0,0,0,0,0,0,0,0,0,0,0,0,0,0,0,0,0,0,0,0,0,0,0,0,0,0,0,0,0,0,0,0,0,0,0,0,0,0,0,0,0,0,0,0,0,0,0,0,0,0,0],"id":15,"left_children":[1,3,5,7,9,11,13,15,17,19,21,23,25,27,29,-1,31,-1,33,35,-1,37,39,-1,-1,-1,-1,41,43,45,47,49,51,53,55,-1,-1,-1,57,-1,-1,-1,59,61,-1,-1,-1,-1,63,-1,65,67,69,71,73,-1,-1,75,77,-1,-1,79,-1,-1,-1,81,-1,-1,-1,83,85,-1,87,89,-1,-1,-1,-1,-1,91,93,-1,-1,-1,95,97,99,-1,-1,-1,-1,-1,-1,101,-1,-1,-1,-1,-1,-1,-1,-1,-1],"loss_changes":[6.828281E3,3.184451E3,1.5104277E3,2.5683726E3,1.3426931E3,1.1391027E3,1.0281626E3,2.0344053E3,1.7888779E3,1.099051E3,1.128266E3,6.783776E2,4.627813E2,5.893662E2,1.3540974E3,0E0,1.4728359E3,0E0,1.8149352E3,2.9116675E2,0E0,9.720739E2,4.4166882E2,0E0,0E0,0E0,0E0,1.0366418E3,5.945371E2,1.1629985E3,8.7993823E2,7.4450867E2,1.0442739E3,7.622877E2,2.894494E2,0E0,0E0,0E0,9.363834E2,0E0,0E0,0E0,5.819685E2,6.8731885E2,0E0,0E0,0E0,0E0,8.640176E2,0E0,6.0911273E2,8.178685E2,6.273447E2,6.238627E2,6.3370337E2,0E0,0E0,8.722977E2,8.802504E2,0E0,0E0,5.580654E2,0E0,0E0,0E0,3.5808328E2,0E0,0E0,0E0,1.2132651E3,5.722649E2,0E0,8.457246E2,2.172787E2,0E0,0E0,0E0,0E0,0E0,3.1589856E2,3.778657E2,0E0,0E0,0E0,6.782051E2,3.8005933E2,4.6351013E2,0E0,0E0,0E0,0E0,0E0,0E0,4.757785E2,0E0,0E0,0E0,0E0,0E0,0E0,0E0,0E0,0E0],"parents":[2147483647,0,0,1,1,2,2,3,3,4,4,5,5,6,6,7,7,8,8,9,9,10,10,11,11,12,12,13,13,14,14,16,16,18,18,19,19,21,21,22,22,27,27,28,28,29,29,30,30,31,31,32,32,33,33,34,34,38,38,42,42,43,43,48,48,50,50,51,51,52,52,53,53,54,54,57,57,58,58,61,61,65,65,69,69,70,70,72,72,73,73,79,79,80,80,84,84,85,85,86,86,93,93],"right_children":[2,4,6,8,10,12,14,16,18,20,22,24,26,28,30,-1,32,-1,34,36,-1,38,40,-1,-1,-1,-1,42,44,46,48,50,52,54,56,-1,-1,-1,58,-1,-1,-1,60,62,-1,-1,-1,-1,64,-1,66,68,70,72,74,-1,-1,76,78,-1,-1,80,-1,-1,-1,82,-1,-1,-1,84,86,-1,88,90,-1,-1,-1,-1,-1,92,94,-1,-1,-1,96,98,100,-1,-1,-1,-1,-1,-1,102,-1,-1,-1,-1,-1,-1,-1,-1,-1],"split_conditions":[1.0345982E2,1.162E2,2.1509433E0,2.76E1,5.5E1,0E0,1.4732143E0,1.0017857E2,3.2884614E0,1.0308036E2,1.149E2,5.925E1,7.32E1,4.0238094E0,9.666294E0,-2.5590247E-1,5E0,1.395224E-1,6.08E1,1.096E2,1.8515892E-3,1.0191964E2,2.3061225E0,-1.2779327E-1,1.0725809E-2,1.01357E-1,-9.641144E-3,5.57E1,4.017857E-1,2.1384929E-1,9.854546E0,1.09066666E2,-4E0,2.3846154E0,1.131E2,8.5131004E-2,1.9239E-1,-6.552161E-2,3.378472E1,-1.3899008E-2,-1.2327399E-1,1.6123898E-1,1.146E2,1.237E2,1.9475944E-1,-1.3236871E-1,3.311324E-2,-1.5395785E-2,1.11606245E1,-8.2841165E-2,5.72E1,8E0,1.085E2,5.3666668E1,2.86E1,1.3615242E-1,3.173938E-2,2.9666666E1,1.188E2,-4.9233943E-2,6.402379E-2,3.6E1,1.7822656E-1,1.8244335E-1,3.5179533E-2,2.9666666E1,1.1769365E-1,-1.0715306E-1,3.725204E-2,1.062E2,5.9333332E1,-0E0,5.71E1,1.3966113E3,-7.396073E-2,1.8641236E-1,3.2751493E-2,5.5070896E-2,-1.00927174E-1,1.471173E-1,1.18666664E2,4.588401E-2,-6.2652156E-2,-3.3385463E-2,5.1510615E0,2.28E0,2.5869565E0,-1.9468927E-1,-4.5876775E-2,-6.6956016E-3,7.5327344E-2,6.562571E-2,1.7773508E-1,2.34E1,-1.7258473E-2,-2.2481324E-1,-9.26179E-2,-5.6507252E-2,-1.4796996E-1,2.5878888E-2,-9.347298E-2,1.3444284E-1,4.31872E-3],"split_indices":[74,41,22,27,42,125,75,74,23,4,13,46,26,23,61,0,73,0,14,9,0,74,22,0,0,0,0,46,75,28,53,65,125,22,44,0,0,0,57,0,0,0,8,45,0,0,0,0,61,0,42,73,45,42,30,0,0,31,45,0,0,3,0,0,0,30,0,0,0,8,14,0,14,77,0,0,0,0,0,28,41,0,0,0,84,22,22,0,0,0,0,0,0,27,0,0,0,0,0,0,0,0,0],"split_type":[0,0,0,0,0,0,0,0,0,0,0,0,0,0,0,0,0,0,0,0,0,0,0,0,0,0,0,0,0,0,0,0,0,0,0,0,0,0,0,0,0,0,0,0,0,0,0,0,0,0,0,0,0,0,0,0,0,0,0,0,0,0,0,0,0,0,0,0,0,0,0,0,0,0,0,0,0,0,0,0,0,0,0,0,0,0,0,0,0,0,0,0,0,0,0,0,0,0,0,0,0,0,0],"sum_hessian":[1.084E3,6.93E2,3.91E2,4.79E2,2.14E2,7.9E1,3.12E2,3.07E2,1.72E2,6E1,1.54E2,3.9E1,4E1,2E2,1.12E2,1.8E1,2.89E2,2.1E1,1.51E2,3.5E1,2.5E1,1.1E2,4.4E1,2.4E1,1.5E1,2.3E1,1.7E1,6.8E1,1.32E2,4.7E1,6.5E1,7.2E1,2.17E2,1.18E2,3.3E1,1.5E1,2E1,2.5E1,8.5E1,2E1,2.4E1,1.8E1,5E1,1.09E2,2.3E1,2E1,2.7E1,1.8E1,4.7E1,2.4E1,4.8E1,4.4E1,1.73E2,6E1,5.8E1,1.6E1,1.7E1,4.3E1,4.2E1,2.2E1,2.8E1,8.5E1,2.4E1,2.6E1,2.1E1,3.3E1,1.5E1,1.8E1,2.6E1,7.8E1,9.5E1,1.5E1,4.5E1,3.3E1,2.5E1,2E1,2.3E1,2.6E1,1.6E1,3.3E1,5.2E1,1.6E1,1.7E1,2E1,5.8E1,6E1,3.5E1,2.4E1,2.1E1,1.5E1,1.8E1,1.5E1,1.8E1,3.3E1,1.9E1,4.1E1,1.7E1,2.3E1,3.7E1,1.9E1,1.6E1,1.7E1,1.6E1],"tree_param":{"num_deleted":"0","num_feature":"126","num_nodes":"103","size_leaf_vector":"1"}},{"base_weights":[5.552244E-3,-1.5985346E0,4.215103E0,-2.699402E-1,-1.2988605E0,1.3977832E0,5.411805E0,-2.495475E0,1.5249033E0,-8.491942E-2,9.120725E-2,1.0217278E0,6.630455E0,-3.1531868E0,4.637322E0,2.090083E0,-9.133705E-2,2.182453E0,-7.105066E-2,9.701291E-2,-2.9520929E-2,4.1235707E-4,7.608426E0,-3.9661815E0,7.1992487E-1,3.335751E-2,1.5665214E-1,2.7426255E-1,4.9609485E0,9.283794E-2,-1.4459603E-3,2.3968975E-1,6.412427E0,-5.5784883E0,-1.8500891E0,5.6261888E0,-2.609433E0,-7.042664E-1,1.2957704E-1,8.461901E0,6.726838E-1,7.809954E0,2.1897402E-2,-7.3209496E0,-2.9512148E0,9.591782E-2,-2.8669508E0,2.5907727E-2,1.6499054E-1,-1.10937804E-1,-0E0,2.0851085E0,-3.5599391E0,3.1670887E-2,2.0221443E-1,-7.3372126E-2,9.908664E-2,5.485958E-2,9.820038E0,-1.0221094E1,-5.1511803E0,4.1246697E-2,-5.068439E0,1.143897E0,-3.9916651E0,7.152691E-2,-7.217265E-2,4.2717094E0,-3.2765E-2,-7.079618E0,1.6244687E-2,7.830388E0,2.6377636E-1,-2.8965044E-1,-1.2082629E-1,-3.6566284E-2,-1.5729684E-1,-3.098096E-2,-1.8031012E-1,7.8929916E-2,-4.8900496E-2,-1.07421644E-1,-1.0191729E-2,-6.0753175E-3,1.3225152E-1,-1.8728904E-1,-4.334589E-2,1.7590559E-1,6.740064E-2],"categories":[],"categories_nodes":[],"categories_segments":[],"categories_sizes":[],"default_left":[0,0,0,0,0,0,0,0,0,0,0,0,0,0,0,0,0,0,0,0,0,0,0,0,0,0,0,0,0,0,0,0,0,0,0,0,0,0,0,0,0,0,0,0,0,0,0,0,0,0,0,0,0,0,0,0,0,0,0,0,0,0,0,0,0,0,0,0,0,0,0,0,0,0,0,0,0,0,0,0,0,0,0,0,0,0,0,0,0],"id":16,"left_children":[1,3,5,-1,7,9,11,13,15,17,-1,19,21,23,25,27,-1,29,-1,-1,-1,-1,31,33,35,-1,-1,37,39,-1,-1,-1,41,43,45,47,49,51,-1,53,55,57,-1,59,61,-1,63,-1,-1,-1,65,67,69,-1,-1,-1,-1,-1,71,73,75,-1,77,79,81,-1,-1,83,-1,85,-1,87,-1,-1,-1,-1,-1,-1,-1,-1,-1,-1,-1,-1,-1,-1,-1,-1,-1],"loss_changes":[7.140727E3,3.2968318E3,9.589575E2,0E0,2.5346404E3,5.560188E2,1.0627998E3,2.4672734E3,8.703899E2,6.180718E2,0E0,6.2519073E2,9.988203E2,1.5331455E3,5.130378E2,1.0544319E3,0E0,3.3893884E2,0E0,0E0,0E0,0E0,1.0510806E3,1.3368193E3,1.3678163E3,0E0,0E0,9.643538E2,1.1521713E3,0E0,0E0,0E0,8.054326E2,9.9584766E2,1.3410024E3,5.5501685E2,5.185333E2,8.980303E2,0E0,1.0005222E3,9.8117035E2,7.8258936E2,0E0,7.9097656E2,1.0583087E3,0E0,7.055582E2,0E0,0E0,0E0,5.6472815E2,5.0638574E2,9.181919E2,0E0,0E0,0E0,0E0,0E0,6.725371E2,1.1169971E3,9.5290625E2,0E0,1.1792584E3,4.9636118E2,9.9083887E2,0E0,0E0,6.6520435E2,0E0,5.507245E2,0E0,4.4714575E2,0E0,0E0,0E0,0E0,0E0,0E0,0E0,0E0,0E0,0E0,0E0,0E0,0E0,0E0,0E0,0E0,0E0],"parents":[2147483647,0,0,1,1,2,2,4,4,5,5,6,6,7,7,8,8,9,9,11,11,12,12,13,13,14,14,15,15,17,17,22,22,23,23,24,24,27,27,28,28,32,32,33,33,34,34,35,35,36,36,37,37,39,39,40,40,41,41,43,43,44,44,46,46,50,50,51,51,52,52,58,58,59,59,60,60,62,62,63,63,64,64,67,67,69,69,71,71],"right_children":[2,4,6,-1,8,10,12,14,16,18,-1,20,22,24,26,28,-1,30,-1,-1,-1,-1,32,34,36,-1,-1,38,40,-1,-1,-1,42,44,46,48,50,52,-1,54,56,58,-1,60,62,-1,64,-1,-1,-1,66,68,70,-1,-1,-1,-1,-1,72,74,76,-1,78,80,82,-1,-1,84,-1,86,-1,88,-1,-1,-1,-1,-1,-1,-1,-1,-1,-1,-1,-1,-1,-1,-1,-1,-1],"split_conditions":[5.1E1,9.98E1,1.16E2,-2.699402E-1,1.0339286E2,5.98E1,1.135E2,1.191E2,1.203E2,5.6666668E1,9.120725E-2,2.8222221E1,2.6222221E1,6.05E1,5.7E1,5.95E1,-9.133705E-2,2.5479681E2,-7.105066E-2,9.701291E-2,-2.9520929E-2,4.1235707E-4,5.3E1,2.4285714E-1,6.12E1,3.335751E-2,1.5665214E-1,1.24333336E2,1.182E2,9.283794E-2,-1.4459603E-3,2.3968975E-1,6.12E1,3.4585712E1,3.1698112E0,7E0,1.192E2,1.165E2,1.2957704E-1,1.13E2,2.95E1,4E0,2.1897402E-2,1.0220982E2,3.623301E1,9.591782E-2,1.1275042E2,2.5907727E-2,1.6499054E-1,-1.10937804E-1,1.18E2,5.92E1,2.9333334E1,3.1670887E-2,2.0221443E-1,-7.3372126E-2,9.908664E-2,5.485958E-2,1.0544643E2,1.0775E2,5.8555557E1,4.1246697E-2,-4.6713805E0,1.147E2,4.6E1,7.152691E-2,-7.217265E-2,1.109E2,-3.2765E-2,1.134E2,1.6244687E-2,5.8E1,2.6377636E-1,-2.8965044E-1,-1.2082629E-1,-3.6566284E-2,-1.5729684E-1,-3.098096E-2,-1.8031012E-1,7.8929916E-2,-4.8900496E-2,-1.07421644E-1,-1.0191729E-2,-6.0753175E-3,1.3225152E-1,-1.8728904E-1,-4.334589E-2,1.7590559E-1,6.740064E-2],"split_indices":[35,45,45,0,74,11,0,0,45,11,0,62,63,14,15,42,0,79,0,0,0,0,42,28,10,0,0,65,13,0,0,0,10,57,23,68,8,13,0,13,63,23,0,74,57,0,37,0,0,0,40,10,63,0,0,0,0,0,74,65,15,0,118,45,2,0,0,12,0,41,0,42,0,0,0,0,0,0,0,0,0,0,0,0,0,0,0,0,0],"split_type":[0,0,0,0,0,0,0,0,0,0,0,0,0,0,0,0,0,0,0,0,0,0,0,0,0,0,0,0,0,0,0,0,0,0,0,0,0,0,0,0,0,0,0,0,0,0,0,0,0,0,0,0,0,0,0,0,0,0,0,0,0,0,0,0,0,0,0,0,0,0,0,0,0,0,0,0,0,0,0,0,0,0,0,0,0,0,0,0,0],"sum_hessian":[1.056E3,7.64E2,2.92E2,1.5E1,7.49E2,8.8E1,2.04E2,5.27E2,2.22E2,6.4E1,2.4E1,4.5E1,1.59E2,4.83E2,4.4E1,2.06E2,1.6E1,4.1E1,2.3E1,1.7E1,2.8E1,2.1E1,1.38E2,4E2,8.3E1,2.9E1,1.5E1,1.27E2,7.9E1,1.7E1,2.4E1,2E1,1.18E2,2.26E2,1.74E2,3.4E1,4.9E1,1.12E2,1.5E1,4.3E1,3.6E1,9.2E1,2.6E1,1.35E2,9.1E1,2E1,1.54E2,1.8E1,1.6E1,1.9E1,3E1,5.6E1,5.6E1,1.6E1,2.7E1,1.8E1,1.8E1,2.9E1,6.3E1,5.7E1,7.8E1,2.5E1,6.6E1,3.3E1,1.21E2,1.5E1,1.5E1,3.7E1,1.9E1,3.2E1,2.4E1,4.8E1,1.5E1,1.6E1,4.1E1,4.7E1,3.1E1,4.3E1,2.3E1,1.8E1,1.5E1,6.9E1,5.2E1,1.6E1,2.1E1,1.6E1,1.6E1,2.7E1,2.1E1],"tree_param":{"num_deleted":"0","num_feature":"126","num_nodes":"89","size_leaf_vector":"1"}},{"base_weights":[-5.6382377E-2,-2.2952316E0,2.6758015E0,-2.316025E-1,-1.8100469E0,5.239552E0,3.807436E-1,-3.2210114E0,6.6691345E-1,1.6846807E0,6.598494E0,-1.6926074E0,2.982322E0,-6.2537007E0,-1.5845422E0,-3.3749657E0,2.3491724E0,5.1269984E0,-1.9786918E0,5.845767E0,2.2714606E-1,-6.584696E0,-1.4777383E-1,6.288898E0,-5.6258106E-1,-1.9547107E0,-8.158723E0,-2.2614922E-1,-4.8444524E0,-2.8104436E-1,-1.1857885E-1,5.6109676E0,1.6824973E-1,3.0685144E-2,1.4584844E-1,2.0321997E-2,-8.997463E-2,4.9031086E0,1.7421831E-1,6.439822E-3,-2.0875622E-1,-1.7302921E0,3.7877812E0,2.2519719E-2,8.912634E0,-7.944099E-2,5.8512155E-2,-1.6768016E-1,5.9105303E-2,-2.421863E-3,-1.0224008E1,-4.807981E0,9.2644083E-1,-7.607827E0,1.2698377E-2,-7.502681E-2,5.7951074E-2,8.651756E0,-0E0,-3.553101E0,3.1306603E0,-9.9310195E-3,5.820684E0,-3.26462E0,6.434787E-2,1.2150459E-1,-0E0,6.8450145E-2,1.9660051E-1,-2.513605E-1,-8.748514E0,-2.9865957E-3,-1.4433752E-1,-7.331423E-2,2.2120142E0,-5.502601E-2,-1.8320416E-1,1.8534209E-1,7.7552065E-2,5.2896578E-2,-1.3445874E-1,6.7508736E0,-3.962344E-2,3.1707501E0,8.710933E0,-0E0,-6.29402E0,-9.0476096E-2,-1.9135013E-1,4.7134924E0,-8.626547E-2,4.1864432E-2,1.7761312E-1,5.5652256E0,-5.178004E-2,2.2049153E-1,6.223873E0,-4.8496816E-2,-1.4979585E-1,1.4123018E-1,3.983516E-2,-6.509738E-2,3.320623E-2,1.4651012E-1,3.2053992E-2,1.699318E-1,3.651713E-2],"categories":[],"categories_nodes":[],"categories_segments":[],"categories_sizes":[],"default_left":[0,0,0,0,0,0,0,0,0,0,0,0,0,0,0,0,0,0,0,0,0,0,0,0,0,0,0,0,0,0,0,0,0,0,0,0,0,0,0,0,0,0,0,0,0,0,0,0,0,0,0,0,0,0,0,0,0,0,0,0,0,0,0,0,0,0,0,0,0,0,0,0,0,0,0,0,0,0,0,0,0,0,0,0,0,0,0,0,0,0,0,0,0,0,0,0,0,0,0,0,0,0,0,0,0,0,0],"id":17,"left_children":[1,3,5,-1,7,9,11,13,15,17,19,21,23,25,27,29,31,33,35,37,-1,39,41,43,45,47,49,51,53,55,-1,57,59,-1,-1,-1,-1,61,-1,-1,-1,63,65,-1,67,-1,-1,-1,-1,-1,69,71,73,75,-1,-1,-1,77,-1,79,81,-1,83,85,-1,-1,-1,-1,-1,-1,87,-1,-1,-1,89,-1,-1,-1,-1,-1,-1,91,-1,93,95,-1,97,-1,-1,99,101,-1,-1,103,-1,-1,105,-1,-1,-1,-1,-1,-1,-1,-1,-1,-1],"loss_changes":[6.5012017E3,3.2553271E3,2.7916536E3,0E0,1.9738092E3,1.055874E3,1.369753E3,1.7523062E3,1.3768367E3,8.067807E2,7.917173E2,1.0330841E3,1.3462815E3,9.85771E2,1.01736804E3,6.6239923E2,1.0029627E3,3.5714758E2,3.478156E2,5.87813E2,0E0,1.4298552E3,6.590472E2,7.248816E2,9.4057135E2,1.7839001E3,1.3848306E3,8.9137146E2,1.0803533E3,5.338988E2,0E0,9.76115E2,9.580811E2,0E0,0E0,0E0,0E0,6.40699E2,0E0,0E0,0E0,6.613304E2,3.7670837E2,0E0,4.7544067E2,0E0,0E0,0E0,0E0,0E0,4.0343262E2,5.809751E2,9.000077E2,6.2544946E2,0E0,0E0,0E0,3.1174487E2,0E0,1.1883402E3,9.9660815E2,0E0,7.670078E2,6.1827313E2,0E0,0E0,0E0,0E0,0E0,0E0,4.2277563E2,0E0,0E0,0E0,6.3257623E2,0E0,0E0,0E0,0E0,0E0,0E0,4.5293042E2,0E0,8.540081E2,4.964087E2,0E0,2.5064075E2,0E0,0E0,4.163142E2,4.4909146E2,0E0,0E0,4.471626E2,0E0,0E0,4.8791174E2,0E0,0E0,0E0,0E0,0E0,0E0,0E0,0E0,0E0,0E0],"parents":[2147483647,0,0,1,1,2,2,4,4,5,5,6,6,7,7,8,8,9,9,10,10,11,11,12,12,13,13,14,14,15,15,16,16,17,17,18,18,19,19,21,21,22,22,23,23,24,24,25,25,26,26,27,27,28,28,29,29,31,31,32,32,37,37,41,41,42,42,44,44,50,50,51,51,52,52,53,53,57,57,59,59,60,60,62,62,63,63,70,70,74,74,81,81,83,83,84,84,86,86,89,89,90,90,93,93,96,96],"right_children":[2,4,6,-1,8,10,12,14,16,18,20,22,24,26,28,30,32,34,36,38,-1,40,42,44,46,48,50,52,54,56,-1,58,60,-1,-1,-1,-1,62,-1,-1,-1,64,66,-1,68,-1,-1,-1,-1,-1,70,72,74,76,-1,-1,-1,78,-1,80,82,-1,84,86,-1,-1,-1,-1,-1,-1,88,-1,-1,-1,90,-1,-1,-1,-1,-1,-1,92,-1,94,96,-1,98,-1,-1,100,102,-1,-1,104,-1,-1,106,-1,-1,-1,-1,-1,-1,-1,-1,-1,-1],"split_conditions":[1.151E2,1.11E2,3.3E1,-2.316025E-1,2.76E1,1.142E2,1.14666664E2,1.085E2,2.7333334E1,-2.0089285E0,1.195E2,1.66E1,1.204E2,-3E0,5.7833332E1,4.0487804E0,1.142E2,-4.732143E0,1.1972727E2,1.259E2,2.2714606E-1,1.13833336E2,1.19066666E2,1.146E2,5.98E1,1.086E2,1.062E2,1.22E1,1.6339789E3,1.15E2,-1.1857885E-1,1.1453846E2,1.17E2,3.0685144E-2,1.4584844E-1,2.0321997E-2,-8.997463E-2,2.6222221E1,1.7421831E-1,6.439822E-3,-2.0875622E-1,1.212E2,1.21333336E2,2.2519719E-2,3.962264E0,-7.944099E-2,5.8512155E-2,-1.6768016E-1,5.9105303E-2,-2.421863E-3,-1.175E1,4E0,2.8862125E1,5.66E1,1.2698377E-2,-7.502681E-2,5.7951074E-2,3.36E1,-0E0,5.2335854E1,6E1,-9.9310195E-3,-1.4285715E0,1.17E2,6.434787E-2,1.2150459E-1,-0E0,6.8450145E-2,1.9660051E-1,-2.513605E-1,3.2147053E1,-2.9865957E-3,-1.4433752E-1,-7.331423E-2,2E1,-5.502601E-2,-1.8320416E-1,1.8534209E-1,7.7552065E-2,5.2896578E-2,-1.3445874E-1,1.1273333E2,-3.962344E-2,1.17333336E2,2E0,-0E0,3.3886158E1,-9.0476096E-2,-1.9135013E-1,1E0,2.42E1,4.1864432E-2,1.7761312E-1,7.56E1,-5.178004E-2,2.2049153E-1,1.14333336E2,-4.8496816E-2,-1.4979585E-1,1.4123018E-1,3.983516E-2,-6.509738E-2,3.320623E-2,1.4651012E-1,3.2053992E-2,1.699318E-1,3.651713E-2],"split_indices":[45,0,34,0,27,0,8,45,63,75,65,27,8,125,47,23,44,75,70,45,0,70,70,44,42,70,8,27,77,0,0,70,64,0,0,0,0,63,0,0,0,41,70,0,23,0,0,0,0,0,81,18,57,11,0,0,0,27,0,24,34,0,75,41,0,0,0,0,0,0,57,0,0,0,27,0,0,0,0,0,0,65,0,64,16,0,57,0,0,82,27,0,0,58,0,0,65,0,0,0,0,0,0,0,0,0,0],"split_type":[0,0,0,0,0,0,0,0,0,0,0,0,0,0,0,0,0,0,