{"learner":{"attributes":{"best_iteration":"15","best_score":"1.6274642038979887","scikit_learn":"{\"_estimator_type\": \"regressor\"}"},"feature_names":[],"feature_types":[],"gradient_booster":{"model":{"cats":{"enc":[],"feature_segments":[],"sorted_idx":[]},"gbtree_model_param":{"num_parallel_tree":"1","num_trees":"36"},"iteration_indptr":[0,1,2,3,4,5,6,7,8,9,10,11,12,13,14,15,16,17,18,19,20,21,22,23,24,25,26,27,28,29,30,31,32,33,34,35,36],"tree_info":[0,0,0,0,0,0,0,0,0,0,0,0,0,0,0,0,0,0,0,0,0,0,0,0,0,0,0,0,0,0,0,0,0,0,0,0],"trees":[{"base_weights":[-8.7622844E-4,-2.5405404E-1,9.806161E-3,-3.8399997E-1,1.5384618E-2,1.7529415E-2,-2.25E-1,-4.8421052E-1,-5.7142854E-2,4.5833336E-3,-2.2499999E-2,-5.024154E-2,3.9285716E-2,-7.826086E-2,-3.75E-2,-8.333333E-2,-6.2142855E-1,4.166667E-3,-2.2499999E-2,-2.361111E-1,-1.1046507E-2,-1.5416665E-1,4.6698876E-2,-3.3749998E-2,4.5E-2,-2.2499999E-2,4E-3,-4.0909093E-2,3.7500001E-3,-5.2E-3,-2.4583332E-2,-7.948718E-3,1.6044778E-3,-2.0416668E-2,4.6153846E-3,-6.590909E-3,2.6583334E-3,4.736842E-3,-2.2499999E-2],"categories":[],"categories_nodes":[],"categories_segments":[],"categories_sizes":[],"default_left":[0,0,0,0,0,0,0,0,0,0,0,0,0,0,0,0,0,0,0,0,0,0,0,0,0,0,0,0,0,0,0,0,0,0,0,0,0,0,0],"id":0,"left_children":[1,3,5,7,9,11,13,15,17,-1,-1,19,21,23,-1,25,27,-1,-1,29,31,33,35,-1,37,-1,-1,-1,-1,-1,-1,-1,-1,-1,-1,-1,-1,-1,-1],"loss_changes":[2.47174E0,1.301369E0,1.5943552E0,7.911935E-1,5.027564E-1,1.2552524E0,2.0983696E0,9.933586E-1,4.238095E-1,0E0,0E0,1.5054207E0,9.307553E-1,1.7221304E0,0E0,3.9533332E-1,1.9797072E0,0E0,0E0,1.164289E0,1.1026376E0,1.5411859E0,7.2402203E-1,0E0,5.350263E-1,0E0,0E0,0E0,0E0,0E0,0E0,0E0,0E0,0E0,0E0,0E0,0E0,0E0,0E0],"parents":[2147483647,0,0,1,1,2,2,3,3,4,4,5,5,6,6,7,7,8,8,11,11,12,12,13,13,15,15,16,16,19,19,20,20,21,21,22,22,24,24],"right_children":[2,4,6,8,10,12,14,16,18,-1,-1,20,22,24,-1,26,28,-1,-1,30,32,34,36,-1,38,-1,-1,-1,-1,-1,-1,-1,-1,-1,-1,-1,-1,-1,-1],"split_conditions":[1.056E2,2.50591E-1,1.22E2,1.156E2,3.13E1,1.0125E2,-7.5E-1,1.018E2,1.188E2,6.0000002E-2,-6.5000004E-1,1.3705584E-1,0E0,2.91E1,-4.5000002E-1,4E1,2.9E1,2E-1,-1E-1,8.4E0,8.770109E0,3.862745E0,1E0,-2E-1,3.72E1,-1.3000001E0,5E-2,-7.9E-1,1E-1,-1.75E-1,-2.9000002E-1,-2E-1,5E-2,-2.4000001E-1,1.15E-1,-2.1E-1,1E-1,5E-2,0E0],"split_indices":[70,60,69,1,62,36,81,8,1,0,0,28,119,63,0,32,62,0,0,27,29,55,16,0,59,0,0,0,0,0,0,0,0,0,0,0,0,0,0],"split_type":[0,0,0,0,0,0,0,0,0,0,0,0,0,0,0,0,0,0,0,0,0,0,0,0,0,0,0,0,0,0,0,0,0,0,0,0,0,0,0],"sum_hessian":[9.12E2,3.6E1,8.76E2,2.4E1,1.2E1,8.49E2,2.7E1,1.8E1,6E0,1.1E1,1E0,2.06E2,6.43E2,2.2E1,5E0,5E0,1.3E1,5E0,1E0,3.5E1,1.71E2,2.3E1,6.2E2,3E0,1.9E1,1E0,4E0,1E1,3E0,2.4E1,1.1E1,3.8E1,1.33E2,1.1E1,1.2E1,2.1E1,5.99E2,1.8E1,1E0],"tree_param":{"num_deleted":"0","num_feature":"126","num_nodes":"39","size_leaf_vector":"1"}},{"base_weights":[-2.2246568E-4,-2.7105263E-1,1.171694E-2,-3.857143E-2,-1.5312499E-1,2.4935404E-2,-1.0337078E-1,-4.0833333E-1,3.5478955E-9,-1.4634146E-1,3.446867E-2,-6.785714E-2,-5.833333E-1,-5.7777774E-1,3.7500001E-3,-4.2499998E-1,4.722222E-3,-3.590909E-1,4.75E-3,3.702186E-2,-3E-2,-2.133333E-2,-4.1E-1,-3.6E-2,2.5000002E-3,-3.857143E-2,3.3333336E-3,2.5000002E-3,-3E-2,-7.8125E-3,-3.857143E-2,6.451615E-4,3.318182E-3,-2.4285713E-2,1.304348E-3,-3.142857E-2,3.7500001E-3],"categories":[],"categories_nodes":[],"categories_segments":[],"categories_sizes":[],"default_left":[0,0,0,0,0,0,0,0,0,0,0,0,0,0,0,0,0,0,0,0,0,0,0,0,0,0,0,0,0,0,0,0,0,0,0,0,0],"id":1,"left_children":[1,3,5,-1,7,9,11,13,15,17,19,21,23,25,-1,27,-1,29,-1,31,-1,33,35,-1,-1,-1,-1,-1,-1,-1,-1,-1,-1,-1,-1,-1,-1],"loss_changes":[2.9101384E0,2.1241844E0,1.3139234E0,0E0,1.2505208E0,1.2688527E0,1.4774411E0,1.0261111E0,8.830555E-1,2.1392694E0,1.2112352E0,1.3283477E0,5.553334E-1,1.1746027E0,0E0,3.6249995E-1,0E0,1.7195208E0,0E0,5.1716816E-1,0E0,1.6642517E0,1.1072142E0,0E0,0E0,0E0,0E0,0E0,0E0,0E0,0E0,0E0,0E0,0E0,0E0,0E0,0E0],"parents":[2147483647,0,0,1,1,2,2,4,4,5,5,6,6,7,7,8,8,9,9,10,10,11,11,12,12,13,13,15,15,17,17,19,19,21,21,22,22],"right_children":[2,4,6,-1,8,10,12,14,16,18,20,22,24,26,-1,28,-1,30,-1,32,-1,34,36,-1,-1,-1,-1,-1,-1,-1,-1,-1,-1,-1,-1,-1,-1],"split_conditions":[1.03E2,4.6173706E1,1.19933334E2,-5.1049995E-1,2.36E1,5.92E1,4E-1,1.2563439E1,2.475E1,1.16E2,1.214E2,6.0892906E1,1.164E2,4.638298E0,1.9750004E-1,1.114E2,3.8900074E-2,7.94E1,1.4500009E-1,5.81E1,-6.605E-1,8.367098E0,1.109E2,-6.1749995E-1,1.4975001E0,-1.235E0,1.9750004E-1,8.450001E-1,-2.3549996E-1,-2.9675E-1,-3.5499993E-1,4.5000076E-2,1.4500009E-1,-7.5499994E-1,2.125004E-2,-4.2749998E-1,1.9750004E-1],"split_indices":[45,24,69,0,59,26,123,29,31,45,32,56,1,55,0,1,0,58,0,46,0,61,13,0,0,0,0,0,0,0,0,0,0,0,0,0,0],"split_type":[0,0,0,0,0,0,0,0,0,0,0,0,0,0,0,0,0,0,0,0,0,0,0,0,0,0,0,0,0,0,0,0,0,0,0,0,0],"sum_hessian":[8.98E2,3.7E1,8.61E2,6E0,3.1E1,7.73E2,8.8E1,1.1E1,2E1,4E1,7.33E2,8.3E1,5E0,8E0,3E0,3E0,1.7E1,2.1E1,1.9E1,7.31E2,2E0,7.4E1,9E0,4E0,1E0,6E0,2E0,1E0,2E0,1.5E1,6E0,4.02E2,3.29E2,6E0,6.8E1,6E0,3E0],"tree_param":{"num_deleted":"0","num_feature":"126","num_nodes":"37","size_leaf_vector":"1"}},{"base_weights":[3.4368108E-3,-5.5263154E-2,3.9215688E-2,-2.5116277E-1,-2.6999995E-2,4.386282E-2,-2.875E-1,-3.857143E-2,-1.4594594E-1,-3.6923075E-1,-1.1458329E-2,5.3021446E-2,-6.9047615E-2,-3.3749998E-2,4E-3,-5.9374996E-2,-5.833333E-1,4.166667E-3,-6.6249996E-1,-2.2272727E-1,5.992513E-3,3.157895E-2,8.900524E-2,-4.8571426E-1,1.3888892E-2,-1.8181818E-2,4.7727274E-3,2.5000002E-3,-3.6E-2,2.5000002E-3,-3.857143E-2,-3.75E-2,-1.1764704E-3,1.9289341E-3,-4.225352E-3,-1.2222222E-2,1.968254E-3,-2.2499999E-2,4.7105267E-3,-3.6E-2,3.3333336E-3,-2.125E-2,3.3333336E-3],"categories":[],"categories_nodes":[],"categories_segments":[],"categories_sizes":[],"default_left":[0,0,0,0,0,0,0,0,0,0,0,0,0,0,0,0,0,0,0,0,0,0,0,0,0,0,0,0,0,0,0,0,0,0,0,0,0,0,0,0,0,0,0],"id":2,"left_children":[1,3,5,7,9,11,13,-1,15,17,19,21,23,-1,-1,25,27,-1,29,31,33,35,37,39,41,-1,-1,-1,-1,-1,-1,-1,-1,-1,-1,-1,-1,-1,-1,-1,-1,-1,-1],"loss_changes":[1.8965646E0,1.8867844E0,8.643711E-1,2.2412636E0,1.5914202E0,5.76555E-1,1.19325E0,0E0,1.3663709E0,1.7806089E0,1.0631391E0,3.9301097E-1,1.4581348E0,0E0,0E0,1.5421875E0,5.553334E-1,0E0,6.594641E-1,2.293048E0,7.906523E-1,7.037995E-1,5.782794E-1,9.539046E-1,8.622222E-1,0E0,0E0,0E0,0E0,0E0,0E0,0E0,0E0,0E0,0E0,0E0,0E0,0E0,0E0,0E0,0E0,0E0,0E0],"parents":[2147483647,0,0,1,1,2,2,3,3,4,4,5,5,6,6,8,8,9,9,10,10,11,11,12,12,15,15,16,16,18,18,19,19,20,20,21,21,22,22,23,23,24,24],"right_children":[2,4,6,8,10,12,14,-1,16,18,20,22,24,-1,-1,26,28,-1,30,32,34,36,38,40,42,-1,-1,-1,-1,-1,-1,-1,-1,-1,-1,-1,-1,-1,-1,-1,-1,-1,-1],"split_conditions":[1.13E2,1.075E1,4.7E1,1.0992308E2,1.5145516E3,6.1031227E1,1.123E2,-2.8774986E-1,3E0,1.028E2,1.03E2,5.86E1,-2.0970052E2,-7.172499E-1,8.7750055E-2,1.08E2,1.107E2,5.6750108E-2,1.58E1,4.6173706E1,5.6485355E1,3.2E1,4.7E1,1.154E2,-1.275E1,-4.5885006E-1,2.1975E-1,7.3775005E-1,-6.467501E-1,4.4555512E-1,-7.6274985E-1,-2.0997505E-1,-4.5575E-1,4.2000126E-2,-1.7387125E-1,-2.1724987E-1,9.275017E-2,-4.6224996E-1,1.7143746E-1,-3.3724996E-1,5.8762515E-1,-3.0724984E-1,2.3775005E-1],"split_indices":[33,27,27,69,78,56,1,0,66,41,45,46,79,0,0,41,1,0,27,24,24,35,11,0,81,0,0,0,0,0,0,0,0,0,0,0,0,0,0,0,0,0,0],"split_type":[0,0,0,0,0,0,0,0,0,0,0,0,0,0,0,0,0,0,0,0,0,0,0,0,0,0,0,0,0,0,0,0,0,0,0,0,0,0,0,0,0,0,0],"sum_hessian":[9.01E2,3.41E2,5.6E2,4.2E1,2.99E2,5.53E2,7E0,6E0,3.6E1,1.2E1,2.87E2,5.12E2,4.1E1,3E0,4E0,3.1E1,5E0,5E0,7E0,2.1E1,2.66E2,3.22E2,1.9E2,6E0,3.5E1,1E1,2.1E1,1E0,4E0,1E0,6E0,5E0,1.6E1,1.96E2,7E1,8E0,3.14E2,1E0,1.89E2,4E0,2E0,3E0,3.2E1],"tree_param":{"num_deleted":"0","num_feature":"126","num_nodes":"43","size_leaf_vector":"1"}},{"base_weights":[5.9395283E-3,-2.4999999E-1,1.3318539E-2,-4.6875E-1,4.545455E-3,1.7114097E-2,-4.125E-1,4E-3,-6.583333E-1,-4.423377E-3,6.9083974E-2,3.7500001E-3,-3.6E-2,-4.05E-2,3.3333336E-3,-1.0462962E-1,1.6159698E-2,7.279693E-2,-2.2499999E-2,-2.1578947E-2,-1.7222221E-3,-3.0656932E-3,2.1666668E-3,-4.5454544E-3,3.984064E-3],"categories":[],"categories_nodes":[],"categories_segments":[],"categories_sizes":[],"default_left":[0,0,0,0,0,0,0,0,0,0,0,0,0,0,0,0,0,0,0,0,0,0,0,0,0],"id":3,"left_children":[1,3,5,7,-1,9,11,-1,13,15,17,-1,-1,-1,-1,19,21,23,-1,-1,-1,-1,-1,-1,-1],"loss_changes":[1.752155E0,1.9815339E0,1.4632732E0,1.7172081E0,0E0,1.0009596E0,1.2532499E0,0E0,1.3734999E0,1.3072867E0,5.37722E-1,0E0,0E0,0E0,0E0,2.4634104E0,1.1100124E0,3.013929E-1,0E0,0E0,0E0,0E0,0E0,0E0,0E0],"parents":[2147483647,0,0,1,1,2,2,3,3,5,5,6,6,8,8,9,9,10,10,15,15,16,16,17,17],"right_children":[2,4,6,8,-1,10,12,-1,14,16,18,-1,-1,-1,-1,20,22,24,-1,-1,-1,-1,-1,-1,-1],"split_conditions":[1.015E2,5.0892955E-1,5.22E1,2.9279942E1,2.5183564E-2,5E1,1.116E2,6.784248E-2,1.185E2,8.886592E0,6.6885735E1,8.336258E-2,-6.8138736E-1,-1.1504625E0,9.021759E-2,5.22E1,1.139E2,9.9375E1,-2.4137497E-2,-3.3460358E-1,-4.6056557E-2,-1.4254373E-1,6.1337482E-2,-1.9688736E-1,1.9446902E-1],"split_indices":[45,118,27,25,0,35,8,0,12,61,56,0,0,0,0,43,0,4,0,0,0,0,0,0,0],"split_type":[0,0,0,0,0,0,0,0,0,0,0,0,0,0,0,0,0,0,0,0,0,0,0,0,0],"sum_hessian":[9.25E2,2.5E1,9E2,1.5E1,1E1,8.93E2,7E0,4E0,1.1E1,6.32E2,2.61E2,3E0,4E0,9E0,2E0,1.07E2,5.25E2,2.6E2,1E0,1.8E1,8.9E1,1.36E2,3.89E2,1E1,2.5E2],"tree_param":{"num_deleted":"0","num_feature":"126","num_nodes":"25","size_leaf_vector":"1"}},{"base_weights":[1.1295685E-2,-1.9512194E-1,2.1089226E-2,-3.6E-2,-1.1891891E-1,-2.3888887E-1,2.6595747E-2,-3.6363634E-1,-1.4814811E-2,4.2857146E-3,-4.0833333E-1,-2.5882348E-2,4.9155407E-2,-6.285714E-1,4E-3,-3E-2,5.6E-2,3.7500001E-3,-5.7777774E-1,-3E-2,-1.8972328E-2,-2.2499999E-2,5.0761424E-2,2.5000002E-3,-3.75E-2,-1.3333333E-2,4.782609E-3,-3.3125E-2,2.5000002E-3,-3.4836048E-4,-1.5500001E-2,2.8520501E-3,-3.2258064E-3],"categories":[],"categories_nodes":[],"categories_segments":[],"categories_sizes":[],"default_left":[0,0,0,0,0,0,0,0,0,0,0,0,0,0,0,0,0,0,0,0,0,0,0,0,0,0,0,0,0,0,0,0,0],"id":4,"left_children":[1,3,5,-1,7,9,11,13,15,-1,17,19,21,23,-1,-1,25,-1,27,-1,29,-1,31,-1,-1,-1,-1,-1,-1,-1,-1,-1,-1],"loss_changes":[1.8295835E0,1.5542674E0,1.2418026E0,0E0,9.372281E-1,1.0250397E0,1.0028416E0,1.3431689E0,1.152474E0,0E0,1.0261111E0,1.0002437E0,4.974203E-1,6.142857E-1,0E0,0E0,3.453681E-1,0E0,5.1180553E-1,0E0,8.817771E-1,0E0,4.315015E-1,0E0,0E0,0E0,0E0,0E0,0E0,0E0,0E0,0E0,0E0],"parents":[2147483647,0,0,1,1,2,2,4,4,5,5,6,6,7,7,8,8,10,10,11,11,12,12,13,13,16,16,18,18,20,20,22,22],"right_children":[2,4,6,-1,8,10,12,14,16,-1,18,20,22,24,-1,-1,26,-1,28,-1,30,-1,32,-1,-1,-1,-1,-1,-1,-1,-1,-1,-1],"split_conditions":[1.056E2,-2E0,2.33E1,-6.224478E-1,2.7E1,1.3966113E3,1.121E2,1.078E2,2.61E1,2.9499283E-1,4.7E1,1.4918293E3,4.5E1,9.428572E0,9.051456E-2,-1.904602E-1,1.006E2,6.954153E-1,4.3E1,-4.5829794E-1,1.248E2,-4.5157243E-2,6.231884E1,1.6387707E0,-1.0929394E0,-7.1748525E-1,4.1427635E-2,-4.1088524E-1,5.420208E-2,-3.2545697E-2,-2.5991687E-1,9.244848E-2,-3.791914E-2],"split_indices":[70,66,30,0,35,78,33,41,30,0,10,78,42,21,0,0,9,0,2,0,8,0,56,0,0,0,0,0,0,0,0,0,0],"split_type":[0,0,0,0,0,0,0,0,0,0,0,0,0,0,0,0,0,0,0,0,0,0,0,0,0,0,0,0,0,0,0,0,0],"sum_hessian":[9.02E2,4E1,8.62E2,4E0,3.6E1,1.7E1,8.45E2,1E1,2.6E1,6E0,1.1E1,2.54E2,5.91E2,6E0,4E0,2E0,2.4E1,3E0,8E0,2E0,2.52E2,1E0,5.9E2,1E0,5E0,2E0,2.2E1,7E0,1E0,2.43E2,9E0,5.6E2,3E1],"tree_param":{"num_deleted":"0","num_feature":"126","num_nodes":"33","size_leaf_vector":"1"}},{"base_weights":[1.4147913E-2,-1.8437499E-1,2.117517E-2,-1.1034482E-1,-3.3749998E-2,4.9250938E-2,-1.9512191E-2,-3.25E-1,3.888889E-2,-1.125E-1,5.675147E-2,-1.4736842E-1,3.8338695E-3,-5.833333E-1,-5.7142854E-2,4.7058826E-3,-2.2499999E-2,4.5833336E-3,-2.9230767E-1,5.8627453E-2,-2.2499999E-2,-3.111111E-1,3.6051195E-9,-3E-2,9.646306E-3,2.5000002E-3,-3.6E-2,4.166667E-3,-2.2499999E-2,4.2857146E-3,-3.142857E-2,-8.125E-3,3.1013917E-3,4.5000003E-3,-2.5833333E-2,-3E-2,3.1034485E-3,2.110656E-3,-5.367647E-3],"categories":[],"categories_nodes":[],"categories_segments":[],"categories_sizes":[],"default_left":[0,0,0,0,0,0,0,0,0,0,0,0,0,0,0,0,0,0,0,0,0,0,0,0,0,0,0,0,0,0,0,0,0,0,0,0,0,0,0],"id":5,"left_children":[1,3,5,7,-1,9,11,13,15,17,19,21,23,25,27,-1,-1,-1,29,31,-1,33,35,-1,37,-1,-1,-1,-1,-1,-1,-1,-1,-1,-1,-1,-1,-1,-1],"loss_changes":[1.3055058E0,1.087791E0,1.0313418E0,9.416188E-1,0E0,6.542429E-1,1.1020074E0,7.970238E-1,5.28366E-1,9.0785253E-1,5.1216817E-1,1.3754387E0,1.1043382E0,5.553334E-1,4.238095E-1,0E0,0E0,0E0,1.7063736E0,3.9355755E-1,0E0,2.2726665E0,1.1917241E0,0E0,1.1895326E0,0E0,0E0,0E0,0E0,0E0,0E0,0E0,0E0,0E0,0E0,0E0,0E0,0E0,0E0],"parents":[2147483647,0,0,1,1,2,2,3,3,5,5,6,6,7,7,8,8,9,9,10,10,11,11,12,12,13,13,14,14,18,18,19,19,21,21,22,22,24,24],"right_children":[2,4,6,8,-1,10,12,14,16,18,20,22,24,26,28,-1,-1,-1,30,32,-1,34,36,-1,38,-1,-1,-1,-1,-1,-1,-1,-1,-1,-1,-1,-1,-1,-1],"split_conditions":[5.09E1,6.18E1,1.1279433E2,1.123E2,-3.1136438E-1,-1.7E1,4.6E1,1.107E2,1.131E2,1.3250686E3,6.6885735E1,3.4622448E1,1.03666664E2,4.5E1,3.692407E1,7.83545E-2,-1.2525368E-1,1.1831285E-1,5.7666668E1,-7.5E0,-2.1034623E-2,1.117E2,1.07E2,-3.498623E-1,5.8092613E1,6.686764E-1,-1.0382923E0,3.1363946E-1,-3.1715967E-2,7.9753116E-2,-5.913254E-1,-4.4145718E-1,1.0177501E-1,9.458027E-2,-3.919381E-1,-1.290739E-1,8.78338E-3,3.6159974E-2,-1.9951703E-1],"split_indices":[14,11,37,1,0,81,34,13,64,77,56,57,70,10,25,0,0,0,11,75,0,12,13,0,24,0,0,0,0,0,0,0,0,0,0,0,0,0,0],"split_type":[0,0,0,0,0,0,0,0,0,0,0,0,0,0,0,0,0,0,0,0,0,0,0,0,0,0,0,0,0,0,0,0,0,0,0,0,0,0,0],"sum_hessian":[9.32E2,3.1E1,9.01E2,2.8E1,3E0,5.33E2,3.68E2,1.1E1,1.7E1,2.3E1,5.1E2,5.6E1,3.12E2,5E0,6E0,1.6E1,1E0,1.1E1,1.2E1,5.09E2,1E0,2.6E1,3E1,2E0,3.1E2,1E0,4E0,5E0,1E0,6E0,6E0,7E0,5.02E2,9E0,1.7E1,2E0,2.8E1,2.43E2,6.7E1],"tree_param":{"num_deleted":"0","num_feature":"126","num_nodes":"39","size_leaf_vector":"1"}},{"base_weights":[1.5725363E-2,7.801724E-2,-5.8035674E-3,8.217391E-2,-2.6666665E-1,-1.0485436E-1,1.2105267E-2,-2.6666665E-1,8.640351E-2,-2.2499999E-2,2.5000002E-3,-5.666666E-2,-4.0714285E-1,-1.3142857E-1,2.1455226E-2,2.5000002E-3,-2.2499999E-2,9.0625E-2,-1.2E-1,-1.8823525E-2,-5.833333E-1,-6.0999995E-1,4E-3,-3.263158E-1,4.7058826E-3,3.8216565E-2,-9.8484844E-2,-4.999998E-4,4.7441865E-3,-2.2499999E-2,3.7500001E-3,-3E-2,1.2048211E-4,-3.6E-2,2.5000002E-3,3.3333336E-3,-3.9375E-2,4.166667E-3,-2.3928571E-2,3.8978495E-3,6.118883E-4,-2.8888887E-2,-1.1206894E-3],"categories":[],"categories_nodes":[],"categories_segments":[],"categories_sizes":[],"default_left":[0,0,0,0,0,0,0,0,0,0,0,0,0,0,0,0,0,0,0,0,0,0,0,0,0,0,0,0,0,0,0,0,0,0,0,0,0,0,0,0,0,0,0],"id":6,"left_children":[1,3,5,7,9,11,13,15,17,-1,-1,19,21,23,25,-1,-1,27,29,31,33,35,-1,37,-1,39,41,-1,-1,-1,-1,-1,-1,-1,-1,-1,-1,-1,-1,-1,-1,-1,-1],"loss_changes":[1.2114458E0,3.5430825E-1,1.1933194E0,3.6239564E-1,1.9666664E-1,1.4772873E0,7.677801E-1,1.9666664E-1,2.0953834E-1,0E0,0E0,1.7827843E0,1.4322858E0,1.5691748E0,1.0813146E0,0E0,0E0,9.69404E-2,3.5549998E-1,1.0503643E0,5.553334E-1,1.2535832E0,0E0,1.2249372E0,0E0,4.8531038E-1,2.3934307E0,0E0,0E0,0E0,0E0,0E0,0E0,0E0,0E0,0E0,0E0,0E0,0E0,0E0,0E0,0E0,0E0],"parents":[2147483647,0,0,1,1,2,2,3,3,4,4,5,5,6,6,7,7,8,8,11,11,12,12,13,13,14,14,17,17,18,18,19,19,20,20,21,21,23,23,25,25,26,26],"right_children":[2,4,6,8,10,12,14,16,18,-1,-1,20,22,24,26,-1,-1,28,30,32,34,36,-1,38,-1,40,42,-1,-1,-1,-1,-1,-1,-1,-1,-1,-1,-1,-1,-1,-1,-1,-1],"split_conditions":[1.3251818E3,5.4444447E0,1.4072494E-1,-7.723214E0,1.067E2,2.8007182E-1,0E0,1.135E2,6.607143E0,-6.356964E-2,1.018678E0,6.2666668E1,1.0294643E2,1.1726667E2,1.195E2,3.369051E-1,-3.459263E-2,1.074E2,3.1843712E1,-4E0,1.129E2,6.34E1,3.0010206E-1,1.053E2,9.7438775E-2,2.02E1,3.7894738E0,-2.1175423E-1,1.6867791E-1,-1.7882232E-1,2.3367767E-1,-2.5520498E-1,-8.416932E-4,-4.575781E-1,8.5974354E-1,3.7570402E-1,-5.908856E-1,5.7290267E-2,-4.209191E-1,9.3301356E-2,1.639702E-2,-6.4196455E-1,-4.6278488E-2],"split_indices":[78,55,28,75,0,60,119,0,75,0,0,43,36,65,69,0,0,1,25,71,12,58,0,13,0,59,55,0,0,0,0,0,0,0,0,0,0,0,0,0,0,0,0],"split_type":[0,0,0,0,0,0,0,0,0,0,0,0,0,0,0,0,0,0,0,0,0,0,0,0,0,0,0,0,0,0,0,0,0,0,0,0,0,0,0,0,0,0,0],"sum_hessian":[9.02E2,2.31E2,6.71E2,2.29E2,2E0,1.02E2,5.69E2,2E0,2.27E2,1E0,1E0,8.9E1,1.3E1,3.4E1,5.35E2,1E0,1E0,2.23E2,4E0,8.4E1,5E0,9E0,4E0,1.8E1,1.6E1,4.7E2,6.5E1,9E0,2.14E2,1E0,3E0,2E0,8.2E1,4E0,1E0,2E0,7E0,5E0,1.3E1,1.85E2,2.85E2,8E0,5.7E1],"tree_param":{"num_deleted":"0","num_feature":"126","num_nodes":"43","size_leaf_vector":"1"}},{"base_weights":[1.7743705E-2,-2.5271734E-2,4.6703298E-2,-1.2356318E-2,-2.3809522E-1,5.0092082E-2,-4.2499998E-1,-9.0909086E-2,2.9385967E-2,-6.0999995E-1,4.5833336E-3,7.5204365E-2,-2.2598833E-3,-3E-2,2.5000002E-3,-7.033898E-2,-3.3749998E-2,4.6376813E-2,-1.3181818E-1,-3.9375E-2,3.3333336E-3,8.0440775E-2,-3.2E-1,5.1200002E-2,-1.2830187E-1,-2.1874998E-3,-2.4285713E-2,-4.807692E-3,3.324176E-3,4.6153846E-3,-2.05E-2,4.531722E-3,-1.212121E-3,-3E-2,3.3333336E-3,-2.2499999E-2,2.9435486E-3,-3.617021E-3,-2.4285713E-2],"categories":[],"categories_nodes":[],"categories_segments":[],"categories_sizes":[],"default_left":[0,0,0,0,0,0,0,0,0,0,0,0,0,0,0,0,0,0,0,0,0,0,0,0,0,0,0,0,0,0,0,0,0,0,0,0,0,0,0],"id":7,"left_children":[1,3,5,7,9,11,13,15,17,19,-1,21,23,-1,-1,25,-1,27,29,-1,-1,31,33,35,37,-1,-1,-1,-1,-1,-1,-1,-1,-1,-1,-1,-1,-1,-1],"loss_changes":[1.1385132E0,1.0085812E0,8.940706E-1,1.1437538E0,2.6313572E0,7.1403956E-1,3.6249995E-1,1.4063135E0,6.3060415E-1,1.2535832E0,0E0,7.852299E-1,1.1992288E0,0E0,0E0,1.2819898E0,0E0,5.996176E-1,1.4094965E0,0E0,0E0,3.8955688E-1,5.813333E-1,5.0707805E-1,1.0249331E0,0E0,0E0,0E0,0E0,0E0,0E0,0E0,0E0,0E0,0E0,0E0,0E0,0E0,0E0],"parents":[2147483647,0,0,1,1,2,2,3,3,4,4,5,5,6,6,7,7,8,8,9,9,11,11,12,12,15,15,17,17,18,18,21,21,22,22,23,23,24,24],"right_children":[2,4,6,8,10,12,14,16,18,20,-1,22,24,-1,-1,26,-1,28,30,-1,-1,32,34,36,38,-1,-1,-1,-1,-1,-1,-1,-1,-1,-1,-1,-1,-1,-1],"split_conditions":[1.15E2,1.203E2,1.4170792E1,1.1028571E2,1.19166664E2,1.9196428E0,1.113E2,1.161E2,1E1,9E0,1.5824665E-1,1.3E2,1.1279433E2,-5.277218E-1,5.341641E-1,1.21333336E2,-2.96616E-1,-8.266666E0,1.0279963E1,-5.407133E-1,4.2706394E-1,3.4219858E-1,1.177E2,1.046E2,9.2E1,-9.492142E-2,-4.2020416E-1,-1.0877277E-1,4.5330506E-2,7.948391E-2,-4.934225E-1,1.3310216E-1,-3.7759017E-2,-2.7276498E-1,3.10244E-1,-1.0917283E-2,7.66626E-2,-2.5939885E-1,-3.4333992E-1],"split_indices":[0,32,29,65,44,75,12,13,81,16,0,8,5,0,0,44,0,123,29,0,0,60,0,12,58,0,0,0,0,0,0,0,0,0,0,0,0,0,0],"split_type":[0,0,0,0,0,0,0,0,0,0,0,0,0,0,0,0,0,0,0,0,0,0,0,0,0,0,0,0,0,0,0,0,0,0,0,0,0,0,0],"sum_hessian":[9.12E2,3.67E2,5.45E2,3.47E2,2E1,5.42E2,3E0,1.2E2,2.27E2,9E0,1.1E1,3.66E2,1.76E2,2E0,1E0,1.17E2,3E0,2.06E2,2.1E1,7E0,2E0,3.62E2,4E0,1.24E2,5.2E1,1.11E2,6E0,2.5E1,1.81E2,1.2E1,9E0,3.3E2,3.2E1,2E0,2E0,1E0,1.23E2,4.6E1,6E0],"tree_param":{"num_deleted":"0","num_feature":"126","num_nodes":"39","size_leaf_vector":"1"}},{"base_weights":[1.7016578E-2,-8.093521E-3,5.6857146E-2,-1.1009137E-3,-3.25E-1,-3.2E-1,6.213873E-2,-9.2134826E-2,1.66302E-2,-3.7499994E-2,-3.6E-2,-3E-2,3.3333336E-3,-3.2E-1,6.7543864E-2,1.9607846E-2,-2.3589742E-1,-2.7149318E-2,5.738397E-2,-2.2499999E-2,4.2857146E-3,3.3333336E-3,-3E-2,7.038123E-2,-2.2499999E-2,2.8125E-3,-2.125E-2,-2.34375E-2,-3.5416663E-3,-3E-2,-9.5890387E-4,-2.2499999E-2,3.072034E-3,3.6617648E-3,-2.2499999E-2],"categories":[],"categories_nodes":[],"categories_segments":[],"categories_sizes":[],"default_left":[0,0,0,0,0,0,0,0,0,0,0,0,0,0,0,0,0,0,0,0,0,0,0,0,0,0,0,0,0,0,0,0,0,0,0],"id":8,"left_children":[1,3,5,7,9,11,13,15,17,19,-1,-1,-1,21,23,25,27,29,31,-1,-1,-1,-1,33,-1,-1,-1,-1,-1,-1,-1,-1,-1,-1,-1],"loss_changes":[9.0582263E-1,1.2317396E0,7.1652555E-1,8.812345E-1,1.3357499E0,5.813333E-1,7.3628044E-1,1.4343584E0,8.169283E-1,4.4517857E-1,0E0,0E0,0E0,5.813333E-1,5.338863E-1,8.5476714E-1,1.4657853E0,9.97652E-1,5.154678E-1,0E0,0E0,0E0,0E0,5.3940904E-1,0E0,0E0,0E0,0E0,0E0,0E0,0E0,0E0,0E0,0E0,0E0],"parents":[2147483647,0,0,1,1,2,2,3,3,4,4,5,5,6,6,7,7,8,8,9,9,13,13,14,14,15,15,16,16,17,17,18,18,23,23],"right_children":[2,4,6,8,10,12,14,16,18,20,-1,-1,-1,22,24,26,28,30,32,-1,-1,-1,-1,34,-1,-1,-1,-1,-1,-1,-1,-1,-1,-1,-1],"split_conditions":[1.16E2,3.4E0,-2E0,-2E0,5.82E1,5.2E1,-7.5E0,5.65E1,1.121E2,1.118E2,-5.9519768E-2,-2.773958E-1,4.1408864E-1,1.135E2,6.6885735E1,1.097561E0,7.44E1,-1.12E1,9.97E1,-1.8116532E-1,2.8279534E-1,3.1779328E-1,-3.9919397E-1,1.7176184E1,-3.7591935E-3,6.598107E-2,-8.145428E-2,-4.4053814E-1,-2.5255725E-1,-2.346508E-1,-1.5882373E-2,-2.8178522E-1,8.840486E-2,1.08360864E-1,-2.2234535E-1],"split_indices":[45,54,85,66,43,2,75,14,33,0,0,0,0,0,56,76,58,123,12,0,0,0,0,118,0,0,0,0,0,0,0,0,0,0,0],"split_type":[0,0,0,0,0,0,0,0,0,0,0,0,0,0,0,0,0,0,0,0,0,0,0,0,0,0,0,0,0,0,0,0,0,0,0],"sum_hessian":[9.04E2,5.55E2,3.49E2,5.44E2,1.1E1,4E0,3.45E2,8.8E1,4.56E2,7E0,4E0,2E0,2E0,4E0,3.41E2,5E1,3.8E1,2.2E2,2.36E2,1E0,6E0,2E0,2E0,3.4E2,1E0,4.7E1,3E0,1.5E1,2.3E1,2E0,2.18E2,1E0,2.35E2,3.39E2,1E0],"tree_param":{"num_deleted":"0","num_feature":"126","num_nodes":"35","size_leaf_vector":"1"}},{"base_weights":[1.0485655E-2,-3.0473368E-2,3.4797896E-2,3.9333336E-2,-8.571428E-2,3.787611E-2,-3.2E-1,-1.5625E-1,6.2222224E-2,1.5476194E-2,-1.6509433E-1,-1.9323634E-3,6.0724236E-2,-3E-2,3.3333336E-3,-4.9999997E-2,-3E-2,-1.3846153E-1,8.292683E-2,-5.434782E-2,4.871795E-3,-3.4411764E-1,-7.945205E-2,-8.295454E-2,5.75E-2,6.5915495E-2,-3.2E-1,-3E-2,4.5833336E-3,-2.5999999E-2,4.4444446E-3,4.5491806E-3,-2.2499999E-2,4.782609E-3,-9.791667E-3,-2.4375E-2,1.6933138E-10,-2.9166667E-2,-1.6911762E-3,1.5873034E-4,-1.4423077E-2,-1E-2,3.6403511E-3,-1.2499999E-2,3.557143E-3,-3E-2,3.3333336E-3],"categories":[],"categories_nodes":[],"categories_segments":[],"categories_sizes":[],"default_left":[0,0,0,0,0,0,0,0,0,0,0,0,0,0,0,0,0,0,0,0,0,0,0,0,0,0,0,0,0,0,0,0,0,0,0,0,0,0,0,0,0,0,0,0,0,0,0],"id":9,"left_children":[1,3,5,7,9,11,13,15,17,19,21,23,25,-1,-1,27,-1,29,31,33,-1,35,37,39,41,43,45,-1,-1,-1,-1,-1,-1,-1,-1,-1,-1,-1,-1,-1,-1,-1,-1,-1,-1,-1,-1],"loss_changes":[9.0326023E-1,1.3067623E0,6.335505E-1,6.81225E-1,1.5206983E0,5.140125E-1,5.813333E-1,7.243749E-1,5.7241774E-1,4.8600692E-1,1.597847E0,1.0015452E0,7.306342E-1,0E0,0E0,1.1458333E0,0E0,1.1738803E0,5.690644E-1,9.949818E-1,0E0,1.6775742E0,1.6586387E0,1.5585282E0,4.8754823E-1,6.0403454E-1,5.813333E-1,0E0,0E0,0E0,0E0,0E0,0E0,0E0,0E0,0E0,0E0,0E0,0E0,0E0,0E0,0E0,0E0,0E0,0E0,0E0,0E0],"parents":[2147483647,0,0,1,1,2,2,3,3,4,4,5,5,6,6,7,7,8,8,9,9,10,10,11,11,12,12,15,15,17,17,18,18,19,19,21,21,22,22,23,23,24,24,25,25,26,26],"right_children":[2,4,6,8,10,12,14,16,18,20,22,24,26,-1,-1,28,-1,30,32,34,-1,36,38,40,42,44,46,-1,-1,-1,-1,-1,-1,-1,-1,-1,-1,-1,-1,-1,-1,-1,-1,-1,-1,-1,-1],"split_conditions":[1.13E2,-2.005549E2,6.6885735E1,4.6726635E1,2.0593692E-1,0E0,1.114E2,1.171E2,1.0051339E2,1.139E2,5.6989247E-1,1.0316964E2,6.62E1,-2.67696E-1,4.012905E-1,-3.5691595E0,-4.7393283E-1,5.625E1,1.29E2,8.26E1,1.4002766E-1,5.888889E1,1E0,-3.3333334E-1,7.7469645E0,-7.5E0,1.272E2,-2.9876462E-1,8.1845514E-2,-2.2291832E-1,6.67305E-3,5.1222157E-2,-2.188841E-1,7.983685E-2,-2.2290872E-1,-3.36626E-1,1.8976977E-2,-9.8165745E-1,-7.081344E-2,5.944998E-3,-1.4962368E-1,-3.822817E-1,6.953026E-2,-3.792343E-1,1.0294285E-1,-1.7171994E-1,4.0005323E-1],"split_indices":[33,79,56,56,60,125,12,12,74,44,7,74,11,0,0,83,0,11,8,58,0,15,48,81,61,75,9,0,0,0,0,0,0,0,0,0,0,0,0,0,0,0,0,0,0,0,0],"split_type":[0,0,0,0,0,0,0,0,0,0,0,0,0,0,0,0,0,0,0,0,0,0,0,0,0,0,0,0,0,0,0,0,0,0,0,0,0,0,0,0,0,0,0,0,0,0,0],"sum_hessian":[9.05E2,3.37E2,5.68E2,1.49E2,1.88E2,5.64E2,4E0,1.5E1,1.34E2,8.3E1,1.05E2,2.06E2,3.58E2,2E0,2E0,1.3E1,2E0,1.2E1,1.22E2,4.5E1,3.8E1,3.3E1,7.2E1,8.7E1,1.19E2,3.54E2,4E0,2E0,1.1E1,4E0,8E0,1.21E2,1E0,2.2E1,2.3E1,2.3E1,1E1,5E0,6.7E1,6.2E1,2.5E1,6E0,1.13E2,5E0,3.49E2,2E0,2E0],"tree_param":{"num_deleted":"0","num_feature":"126","num_nodes":"47","size_leaf_vector":"1"}},{"base_weights":[1.863489E-2,-7.0723644E-3,6.803798E-2,-1.7647058E-1,8.422943E-3,7.111111E-2,-2.2499999E-2,4.2105265E-2,-2.9696968E-1,-1.9354838E-1,2.0265155E-2,-2.6666665E-1,7.412141E-2,4.722222E-3,-2.2499999E-2,-1.2173913E-1,-6.363636E-1,-6.285714E-1,-6.3999996E-2,-1.3823529E-1,3.1111114E-2,-2.2499999E-2,2.5000002E-3,-5.4999996E-2,8.265306E-2,1.764706E-3,-2.4285713E-2,-4E-2,3.3333336E-3,-3.75E-2,2.5000002E-3,-1.3636363E-2,4.666667E-3,2.2500001E-3,-1.8666668E-2,-6.2962957E-3,2.0042646E-3,-2.0833334E-2,4.666667E-3,1.4035089E-3,4.7689076E-3],"categories":[],"categories_nodes":[],"categories_segments":[],"categories_sizes":[],"default_left":[0,0,0,0,0,0,0,0,0,0,0,0,0,0,0,0,0,0,0,0,0,0,0,0,0,0,0,0,0,0,0,0,0,0,0,0,0,0,0,0,0],"id":10,"left_children":[1,3,5,7,9,11,-1,13,15,17,19,21,23,-1,-1,25,27,29,31,33,35,-1,-1,37,39,-1,-1,-1,-1,-1,-1,-1,-1,-1,-1,-1,-1,-1,-1,-1,-1],"loss_changes":[1.1727076E0,1.5974119E0,5.3507245E-1,1.355752E0,1.3385395E0,3.4006107E-1,0E0,5.318713E-1,1.8851116E0,1.7068241E0,9.119799E-1,1.9666664E-1,3.4935272E-1,0E0,0E0,1.3317354E0,1.318788E0,6.142857E-1,8.464484E-1,1.4814606E0,7.026404E-1,0E0,0E0,1.1118332E0,2.0152688E-1,0E0,0E0,0E0,0E0,0E0,0E0,0E0,0E0,0E0,0E0,0E0,0E0,0E0,0E0,0E0,0E0],"parents":[2147483647,0,0,1,1,2,2,3,3,4,4,5,5,7,7,8,8,9,9,10,10,11,11,12,12,15,15,16,16,17,17,18,18,19,19,20,20,23,23,24,24],"right_children":[2,4,6,8,10,12,-1,14,16,18,20,22,24,-1,-1,26,28,30,32,34,36,-1,-1,38,40,-1,-1,-1,-1,-1,-1,-1,-1,-1,-1,-1,-1,-1,-1,-1,-1],"split_conditions":[4.6E1,1.4918293E3,3.7333332E1,1.105E2,1.03E2,-3.9639117E2,-5.9785843E-3,3E0,8.54E1,4.6173706E1,7E0,1.055E2,-1.275E1,2.925755E-1,-6.7843896E-1,4.9E1,6.26E1,1.168E2,5.42E1,5.2173913E-2,-9.066667E0,-1.4210892E-2,1.6303673E-1,1E0,1.138E2,-8.6090885E-2,-4.431839E-1,-5.522858E-1,2.382969E-1,-3.074177E-1,3.327484E-2,-8.5063267E-1,2.7155494E-2,4.532452E-2,-4.069026E-1,-1.5420906E-1,3.8196817E-2,-1.6313401E-1,3.5703975E-1,1.1495515E-2,1.502103E-1],"split_indices":[35,78,31,13,45,79,0,85,26,24,27,0,81,0,0,34,11,9,11,28,123,0,0,82,45,0,0,0,0,0,0,0,0,0,0,0,0,0,0,0,0],"split_type":[0,0,0,0,0,0,0,0,0,0,0,0,0,0,0,0,0,0,0,0,0,0,0,0,0,0,0,0,0,0,0,0,0,0,0,0,0,0,0,0,0],"sum_hessian":[9.22E2,6.07E2,3.15E2,5E1,5.57E2,3.14E2,1E0,1.8E1,3.2E1,3E1,5.27E2,2E0,3.12E2,1.7E1,1E0,2.2E1,1E1,6E0,2.4E1,3.3E1,4.94E2,1E0,1E0,1.9E1,2.93E2,1.6E1,6E0,8E0,2E0,5E0,1E0,1E1,1.4E1,1.9E1,1.4E1,2.6E1,4.68E2,5E0,1.4E1,5.6E1,2.37E2],"tree_param":{"num_deleted":"0","num_feature":"126","num_nodes":"41","size_leaf_vector":"1"}},{"base_weights":[2.2359554E-2,2.61067E-2,-3.1E-1,2.8213883E-2,-3E-2,-5.833333E-1,4E-3,-8.0597006E-2,3.7146375E-2,-3.6E-2,2.5000002E-3,-5.2E-1,-4.4444438E-2,-1.8181817E-1,4.009963E-2,-3.3749998E-2,2.5000002E-3,-1.6949134E-4,-2.5999999E-2,4.2857146E-3,-2.5999999E-2,-2.2499999E-2,2.0635913E-3],"categories":[],"categories_nodes":[],"categories_segments":[],"categories_sizes":[],"default_left":[0,0,0,0,0,0,0,0,0,0,0,0,0,0,0,0,0,0,0,0,0,0,0],"id":11,"left_children":[1,3,5,7,-1,9,-1,11,13,-1,-1,15,17,19,21,-1,-1,-1,-1,-1,-1,-1,-1],"loss_changes":[1.116499E0,1.1792502E0,1.1126666E0,8.5734E-1,0E0,5.553334E-1,0E0,1.0412205E0,5.3302383E-1,0E0,0E0,4.7549987E-1,1.2282336E0,1.0397922E0,4.798894E-1,0E0,0E0,0E0,0E0,0E0,0E0,0E0,0E0],"parents":[2147483647,0,0,1,1,2,2,3,3,5,5,7,7,8,8,11,11,12,12,13,13,14,14],"right_children":[2,4,6,8,-1,10,-1,12,14,-1,-1,16,18,20,22,-1,-1,-1,-1,-1,-1,-1,-1],"split_conditions":[1.2553333E2,3.52E1,5.78E1,1.076E2,-8.900429E-1,4.3E1,9.830113E-2,4.6E0,5.25E1,-3.5838816E-1,4.385033E-2,1.191E2,3.33E1,1.138E2,4.5E1,-2.9204676E-1,3.028288E-1,-5.3408225E-3,-1.16287045E-1,1.0496922E-1,-3.1943837E-1,-2.9786302E-2,3.82024E-2],"split_indices":[69,62,11,70,0,2,0,27,26,0,0,0,63,40,42,0,0,0,0,0,0,0,0],"split_type":[0,0,0,0,0,0,0,0,0,0,0,0,0,0,0,0,0,0,0,0,0,0,0],"sum_hessian":[8.89E2,8.8E2,9E0,8.78E2,2E0,5E0,4E0,6.6E1,8.12E2,4E0,1E0,4E0,6.2E1,1E1,8.02E2,3E0,1E0,5.8E1,4E0,6E0,4E0,1E0,8.01E2],"tree_param":{"num_deleted":"0","num_feature":"126","num_nodes":"23","size_leaf_vector":"1"}},{"base_weights":[1.79235E-2,-3E-2,1.9934285E-2,-1.8399999E-1,2.5646796E-2,3.888889E-2,-6.6249996E-1,-1.6999995E-2,4.728814E-2,-2.6666665E-1,4.6875E-3,-3.857143E-2,2.5000002E-3,-1.9772726E-1,1.4007785E-2,5.03413E-2,-3.2E-1,2.5000002E-3,-2.2499999E-2,2.272729E-4,-1.9130435E-2,1.2103176E-3,-2.0833334E-2,2.5982908E-3,-2.2499999E-2,-3E-2,3.3333336E-3],"categories":[],"categories_nodes":[],"categories_segments":[],"categories_sizes":[],"default_left":[0,0,0,0,0,0,0,0,0,0,0,0,0,0,0,0,0,0,0,0,0,0,0,0,0,0,0],"id":12,"left_children":[1,-1,3,5,7,9,11,13,15,17,-1,-1,-1,19,21,23,25,-1,-1,-1,-1,-1,-1,-1,-1,-1,-1],"loss_changes":[1.1488585E0,0E0,1.0683429E0,2.692072E0,8.2129204E-1,3.267361E-1,6.594641E-1,1.6839552E0,6.777291E-1,1.9666664E-1,0E0,0E0,0E0,1.6471838E0,1.1388973E0,4.9969244E-1,5.813333E-1,0E0,0E0,0E0,0E0,0E0,0E0,0E0,0E0,0E0,0E0],"parents":[2147483647,0,0,2,2,3,3,4,4,5,5,6,6,7,7,8,8,9,9,13,13,14,14,15,15,16,16],"right_children":[2,-1,4,6,8,10,12,14,16,18,-1,-1,-1,20,22,24,26,-1,-1,-1,-1,-1,-1,-1,-1,-1,-1],"split_conditions":[4.58E1,-8.455408E-1,2.39E1,1.068E2,1.0294643E2,1.095E2,5.268817E-1,1.08E1,1.3E2,1E2,3.4456216E-2,-2.770464E-1,6.876473E-1,9.6031743E-1,1.2801329E1,3.7333332E1,5.8666668E1,6.939068E-1,-7.035828E-2,-6.6786E-2,-3.6836752E-1,2.6475832E-2,-1.8233204E-1,4.6440985E-2,-7.5899125E-3,-2.7251416E-1,2.8847885E-1],"split_indices":[42,0,30,12,36,1,7,27,8,8,0,0,0,123,61,31,15,0,0,0,0,0,0,0,0,0,0],"split_type":[0,0,0,0,0,0,0,0,0,0,0,0,0,0,0,0,0,0,0,0,0,0,0,0,0,0,0],"sum_hessian":[9.14E2,2E0,9.12E2,2.4E1,8.88E2,1.7E1,7E0,2.99E2,5.89E2,2E0,1.5E1,6E0,1E0,4.3E1,2.56E2,5.85E2,4E0,1E0,1E0,2.1E1,2.2E1,2.51E2,5E0,5.84E2,1E0,2E0,2E0],"tree_param":{"num_deleted":"0","num_feature":"126","num_nodes":"27","size_leaf_vector":"1"}},{"base_weights":[1.1589407E-2,-3E-2,1.3606198E-2,3.434505E-2,-3.2974906E-2,3.8449116E-2,-2.875E-1,-1.898305E-1,9.049777E-3,-2.4444443E-1,4.2553194E-2,4E-3,-3.3749998E-2,-6.511627E-2,-4.9411762E-1,1.7351601E-2,-3E-2,-2.5999999E-2,4E-3,3.3100562E-3,4.527561E-4,-3E-2,-1.219512E-3,-3.384615E-2,4E-3,1.4719628E-3,-2.0833334E-2],"categories":[],"categories_nodes":[],"categories_segments":[],"categories_sizes":[],"default_left":[0,0,0,0,0,0,0,0,0,0,0,0,0,0,0,0,0,0,0,0,0,0,0,0,0,0,0],"id":13,"left_children":[1,-1,3,5,7,9,11,13,15,17,19,-1,-1,21,23,25,-1,-1,-1,-1,-1,-1,-1,-1,-1,-1,-1],"loss_changes":[1.1256673E0,0E0,8.744316E-1,8.379202E-1,1.840832E0,7.290718E-1,1.19325E0,2.206812E0,1.1278365E0,8.462222E-1,4.8341036E-1,0E0,0E0,9.220646E-1,1.8383346E0,1.1611979E0,0E0,0E0,0E0,0E0,0E0,0E0,0E0,0E0,0E0,0E0,0E0],"parents":[2147483647,0,0,2,2,3,3,4,4,5,5,6,6,7,7,8,8,9,9,10,10,13,13,14,14,15,15],"right_children":[2,-1,4,6,8,10,12,14,16,18,20,-1,-1,22,24,26,-1,-1,-1,-1,-1,-1,-1,-1,-1,-1,-1],"split_conditions":[4.6666668E1,-8.0326384E-1,1.6227839E0,1.214E2,8.886592E0,5.25E1,1.1045612E1,4.5E0,1.3295525E1,2.5357144E0,1.166E2,1.750822E-1,-4.881834E-1,2.5686813E1,6.12E1,3.325E1,-1.4272347E-1,-3.0578843E-1,1.6163158E-1,4.439907E-2,1.2751085E-2,-2.2562714E-1,-2.1298751E-2,-6.0163176E-1,2.0155335E-2,4.035614E-2,-3.269821E-1],"split_indices":[46,0,83,32,61,26,29,23,29,22,9,0,0,25,42,62,0,0,0,0,0,0,0,0,0,0,0],"split_type":[0,0,0,0,0,0,0,0,0,0,0,0,0,0,0,0,0,0,0,0,0,0,0,0,0,0,0],"sum_hessian":[9.05E2,2E0,9.03E2,6.25E2,2.78E2,6.18E2,7E0,5.8E1,2.2E2,8E0,6.1E2,4E0,3E0,4.2E1,1.6E1,2.18E2,2E0,4E0,4E0,3.57E2,2.53E2,2E0,4E1,1.2E1,4E0,2.13E2,5E0],"tree_param":{"num_deleted":"0","num_feature":"126","num_nodes":"27","size_leaf_vector":"1"}},{"base_weights":[1.5631933E-2,-1.5031311E-2,5.0235853E-2,1.1260057E-2,-1.0654205E-1,-1.2777777E-1,5.798526E-2,6.1413046E-2,-3.7368417E-2,-4.9166664E-1,-5.729166E-2,-3.5555553E-1,4.5000003E-3,8.50365E-2,2.2388096E-3,6.666667E-2,-2.2499999E-2,-1.1530612E-1,4.5161292E-2,3.7500001E-3,-6.8888885E-1,-2.333333E-2,-4.8571426E-1,3.7500001E-3,-5.833333E-1,8.8602945E-2,-2.6666665E-1,-2.9230767E-1,3.360656E-2,-2.2499999E-2,3.5989012E-3,-3.392857E-3,-1.8666668E-2,3.277778E-3,-2.125E-2,2.5000002E-3,-3.9375E-2,-1.625E-2,1.1392407E-3,3.3333336E-3,-3.6E-2,2.5000002E-3,-3.6E-2,4.606742E-3,-4.1666664E-3,-2.2499999E-2,2.5000002E-3,4.166667E-3,-2.6874999E-2,2.3931626E-3,-1.2499999E-2],"categories":[],"categories_nodes":[],"categories_segments":[],"categories_sizes":[],"default_left":[0,0,0,0,0,0,0,0,0,0,0,0,0,0,0,0,0,0,0,0,0,0,0,0,0,0,0,0,0,0,0,0,0,0,0,0,0,0,0,0,0,0,0,0,0,0,0,0,0,0,0],"id":14,"left_children":[1,3,5,7,9,11,13,15,17,19,21,23,-1,25,27,29,-1,31,33,-1,35,37,39,-1,41,43,45,47,49,-1,-1,-1,-1,-1,-1,-1,-1,-1,-1,-1,-1,-1,-1,-1,-1,-1,-1,-1,-1,-1,-1],"loss_changes":[9.5783883E-1,1.1536461E0,5.9231746E-1,9.11991E-1,2.0013578E0,9.248889E-1,6.1356986E-1,5.243659E-1,1.2273208E0,1.3927779E0,1.3853244E0,9.2638874E-1,0E0,3.6731386E-1,1.2478844E0,5.345787E-1,0E0,1.1744932E0,9.196003E-1,0E0,6.9513893E-1,1.2595125E0,9.539046E-1,0E0,5.553334E-1,1.7285275E-1,1.9666664E-1,1.2421476E0,5.052473E-1,0E0,0E0,0E0,0E0,0E0,0E0,0E0,0E0,0E0,0E0,0E0,0E0,0E0,0E0,0E0,0E0,0E0,0E0,0E0,0E0,0E0,0E0],"parents":[2147483647,0,0,1,1,2,2,3,3,4,4,5,5,6,6,7,7,8,8,9,9,10,10,11,11,13,13,14,14,15,15,17,17,18,18,20,20,21,21,22,22,24,24,25,25,26,26,27,27,28,28],"right_children":[2,4,6,8,10,12,14,16,18,20,22,24,-1,26,28,30,-1,32,34,-1,36,38,40,-1,42,44,46,48,50,-1,-1,-1,-1,-1,-1,-1,-1,-1,-1,-1,-1,-1,-1,-1,-1,-1,-1,-1,-1,-1,-1],"split_conditions":[1.156E2,5.6485355E1,9.9375E1,1.0069891E1,3.368421E0,1.3149351E0,5.92E1,6.762333E1,1.067742E1,3.6E1,1.2151046E1,9.45E0,1.6371079E-1,4.7E1,-8.1841125E2,-6.011388E2,-2.2728157E-1,6.0125E1,3.52E1,2.5168857E-1,1.118E2,8.263731E0,1.099E2,9.3004936E-1,1.038E2,1.242E2,1.055E2,1.08042725E2,1.1452631E2,-3.7586402E-2,4.6582647E-2,-4.5788996E-2,-4.4374582E-1,3.8577463E-2,-7.631006E-1,6.2657547E-1,-6.0314715E-1,-3.0834147E-1,2.9682696E-2,3.7237588E-1,-3.106331E-1,1.2290516E0,-3.363331E-1,1.3213298E-1,-3.7554798E-1,-3.778267E-3,9.506754E-1,3.3792686E-1,-3.8955384E-1,6.2368896E-2,-2.2322847E-2],"split_indices":[33,24,4,29,55,118,15,56,53,3,61,53,0,27,120,79,0,46,62,0,0,61,1,0,8,1,0,5,5,0,0,0,0,0,0,0,0,0,0,0,0,0,0,0,0,0,0,0,0,0,0],"split_type":[0,0,0,0,0,0,0,0,0,0,0,0,0,0,0,0,0,0,0,0,0,0,0,0,0,0,0,0,0,0,0,0,0,0,0,0,0,0,0,0,0,0,0,0,0,0,0,0,0,0,0],"sum_hessian":[9.01E2,4.78E2,4.23E2,3.72E2,1.06E2,1.7E1,4.06E2,1.83E2,1.89E2,1.1E1,9.5E1,8E0,9E0,2.73E2,1.33E2,1.82E2,1E0,9.7E1,9.2E1,3E0,8E0,8.9E1,6E0,3E0,5E0,2.71E2,2E0,1.2E1,1.21E2,1E0,1.81E2,8.3E1,1.4E1,8.9E1,3E0,1E0,7E0,1.1E1,7.8E1,2E0,4E0,1E0,4E0,2.66E2,5E0,1E0,1E0,5E0,7E0,1.16E2,5E0],"tree_param":{"num_deleted":"0","num_feature":"126","num_nodes":"51","size_leaf_vector":"1"}},{"base_weights":[2.5000002E-2,7.635659E-2,4.6082987E-3,8.686441E-2,-3.4782603E-2,-2.588235E-1,1.1653547E-2,-8.333333E-2,9.090909E-2,4.666667E-3,-2.4444443E-1,4.375E-3,-5.1E-1,1.9639937E-2,-1.8399999E-1,4E-3,-2.2499999E-2,9.5045045E-2,-9.999996E-3,-3.3749998E-2,4.166667E-3,-3.857143E-2,3.7500001E-3,-2.7272725E-1,2.4958406E-2,-3.6E-2,-4.7619045E-2,4.1666682E-4,4.976304E-3,-2.2499999E-2,4.4444446E-3,4.166667E-3,-2.9166667E-2,2.2111114E-3,-1.6118418E-3,1.9444445E-3,-2.125E-2],"categories":[],"categories_nodes":[],"categories_segments":[],"categories_sizes":[],"default_left":[0,0,0,0,0,0,0,0,0,0,0,0,0,0,0,0,0,0,0,0,0,0,0,0,0,0,0,0,0,0,0,0,0,0,0,0,0],"id":15,"left_children":[1,3,5,7,9,11,13,15,17,-1,19,-1,21,23,25,-1,-1,27,29,-1,-1,-1,-1,31,33,-1,35,-1,-1,-1,-1,-1,-1,-1,-1,-1,-1],"loss_changes":[9.505497E-1,3.0432165E-1,1.2112348E0,1.7003715E-1,6.406183E-1,1.5234263E0,9.9584293E-1,3.9533332E-1,9.735942E-2,0E0,1.3263888E0,0E0,1.587214E0,9.5687866E-1,1.793219E0,0E0,0E0,8.5430145E-2,4.751111E-1,0E0,0E0,0E0,0E0,1.2651515E0,6.636065E-1,0E0,7.0210314E-1,0E0,0E0,0E0,0E0,0E0,0E0,0E0,0E0,0E0,0E0],"parents":[2147483647,0,0,1,1,2,2,3,3,4,4,5,5,6,6,7,7,8,8,10,10,12,12,13,13,14,14,17,17,18,18,23,23,24,24,26,26],"right_children":[2,4,6,8,10,12,14,16,18,-1,20,-1,22,24,26,-1,-1,28,30,-1,-1,-1,-1,32,34,-1,36,-1,-1,-1,-1,-1,-1,-1,-1,-1,-1],"split_conditions":[1.3865327E3,1.219761E1,5.09E1,3.7476637E0,2.5652175E0,2E0,3.4E0,1.16E2,3.2790697E0,1.9509898E-1,9.447767E0,1.4930153E-2,1.22461195E1,-4.9245596E0,1.153E2,4.1351986E-1,-1.6296558E-1,9.9375E1,3.3095238E0,-9.463711E-2,2.2057095E-1,-7.2494566E-1,5.25671E-1,5.82E1,4.52E0,-1.5326539E-1,1.202E2,-1.5983684E-1,1.3835369E-1,-3.7007618E-1,9.276829E-2,3.4420586E-1,-3.5677052E-1,3.700619E-2,-4.4761047E-2,-1.00319386E-1,-1.5389824E-2],"split_indices":[78,29,14,61,22,68,54,8,22,0,61,0,61,83,44,0,0,4,22,0,0,0,0,43,23,0,9,0,0,0,0,0,0,0,0,0,0],"split_type":[0,0,0,0,0,0,0,0,0,0,0,0,0,0,0,0,0,0,0,0,0,0,0,0,0,0,0,0,0,0,0,0,0,0,0,0,0],"sum_hessian":[9.07E2,2.57E2,6.5E2,2.35E2,2.2E1,1.6E1,6.34E2,5E0,2.3E2,1.4E1,8E0,7E0,9E0,6.1E2,2.4E1,4E0,1E0,2.21E2,9E0,3E0,5E0,6E0,3E0,1E1,6E2,4E0,2E1,1.1E1,2.1E2,1E0,8E0,5E0,5E0,4.49E2,1.51E2,1.7E1,3E0],"tree_param":{"num_deleted":"0","num_feature":"126","num_nodes":"37","size_leaf_vector":"1"}},{"base_weights":[2.853958E-2,4.864E-2,-1.7582413E-2,3.656127E-2,4.9583334E-3,-3.5555553E-1,-6.037732E-3,4.9195405E-2,-4.027777E-2,-3.6E-2,4E-3,-1.8333332E-1,6.8548424E-3,-3.396226E-2,6.0574416E-2,2.9310348E-2,-3.0666664E-1,2.1428574E-2,-3.6E-2,-1.6842104E-1,2.130435E-2,-1.625E-2,2.5000002E-3,-3.5416663E-3,3.4583334E-3,-7.058823E-3,4.8809526E-3,-3.142857E-2,-1.111111E-3,-2.2499999E-2,4.6153846E-3,-2.3333332E-2,4.545455E-3,-7.1428567E-3,1.8809525E-3],"categories":[],"categories_nodes":[],"categories_segments":[],"categories_sizes":[],"default_left":[0,0,0,0,0,0,0,0,0,0,0,0,0,0,0,0,0,0,0,0,0,0,0,0,0,0,0,0,0,0,0,0,0,0,0],"id":16,"left_children":[1,3,5,7,-1,9,11,13,15,-1,-1,17,19,21,23,25,27,29,-1,31,33,-1,-1,-1,-1,-1,-1,-1,-1,-1,-1,-1,-1,-1,-1],"loss_changes":[8.3243835E-1,3.7781072E-1,1.0630426E0,4.9320376E-1,0E0,1.486222E0,6.0699284E-1,4.1367686E-1,1.3436886E0,0E0,0E0,1.9934282E0,6.316854E-1,1.3113679E0,4.3734014E-1,6.89234E-1,1.359492E0,5.093406E-1,0E0,1.5119617E0,6.2137055E-1,0E0,0E0,0E0,0E0,0E0,0E0,0E0,0E0,0E0,0E0,0E0,0E0,0E0,0E0],"parents":[2147483647,0,0,1,1,2,2,3,3,5,5,6,6,7,7,8,8,11,11,12,12,13,13,14,14,15,15,16,16,17,17,19,19,20,20],"right_children":[2,4,6,8,-1,10,12,14,16,-1,-1,18,20,22,24,26,28,30,-1,32,34,-1,-1,-1,-1,-1,-1,-1,-1,-1,-1,-1,-1,-1,-1],"split_conditions":[1.6227839E0,1.19E2,5.06E1,8.675E1,8.812981E-2,1.1412569E2,1.018E2,1.9019607E0,2.1985815E-1,-6.886984E-1,1.8120709E-1,8E0,2.596196E1,1.113E2,2.53E1,1.129E2,2.2359155E-1,2.4E1,-2.6060486E-1,2.8428572E1,1E0,-1.5047462E-1,1.5880587E-2,-1.0546074E-1,7.193756E-2,-4.1768914E-1,4.4904407E-2,-4.210638E-1,-1.664673E-1,-4.2642593E-2,1.0756453E-1,-3.172783E-1,6.1233724E-3,-2.9990125E-1,3.6264993E-2],"split_indices":[83,8,42,26,0,5,41,22,28,0,0,68,25,45,63,32,28,31,0,63,48,0,0,0,0,0,0,0,0,0,0,0,0,0,0],"split_type":[0,0,0,0,0,0,0,0,0,0,0,0,0,0,0,0,0,0,0,0,0,0,0,0,0,0,0,0,0,0,0,0,0,0,0],"sum_hessian":[8.96E2,6.24E2,2.72E2,5.05E2,1.19E2,8E0,2.64E2,4.34E2,7.1E1,4E0,4E0,1.7E1,2.47E2,5.2E1,3.82E2,5.7E1,1.4E1,1.3E1,4E0,1.8E1,2.29E2,1.1E1,4.1E1,2.3E1,3.59E2,1.6E1,4.1E1,6E0,8E0,1E0,1.2E1,8E0,1E1,2E1,2.09E2],"tree_param":{"num_deleted":"0","num_feature":"126","num_nodes":"35","size_leaf_vector":"1"}},{"base_weights":[2.4249168E-2,2.6227681E-2,-4.2499998E-1,-2.4117643E-2,3.796424E-2,-3E-2,2.5000002E-3,3.702152E-9,-4.1E-1,6.512968E-2,1.3123363E-2,-4.8571426E-1,2.1935487E-2,-6.285714E-1,3.7500001E-3,7.029412E-2,-1.625E-1,-6.132075E-2,4.1666668E-2,-3.6E-2,3.3333336E-3,1.6993465E-3,-3E-2,-3.75E-2,2.5000002E-3,3.9076926E-3,-4.6874997E-3,4.166667E-3,-3E-2,-1.9117644E-3,-2.5999999E-2,2.4080884E-3,-1.6E-2],"categories":[],"categories_nodes":[],"categories_segments":[],"categories_sizes":[],"default_left":[0,0,0,0,0,0,0,0,0,0,0,0,0,0,0,0,0,0,0,0,0,0,0,0,0,0,0,0,0,0,0,0,0],"id":17,"left_children":[1,3,5,7,9,-1,-1,11,13,15,17,19,21,23,-1,25,27,29,31,-1,-1,-1,-1,-1,-1,-1,-1,-1,-1,-1,-1,-1,-1],"loss_changes":[8.102186E-1,5.303448E-1,3.6249995E-1,1.5821177E0,4.8973477E-1,0E0,0E0,1.7260091E0,1.1072142E0,4.1934848E-1,8.1213474E-1,9.539046E-1,1.1821513E0,6.142857E-1,0E0,4.4570315E-1,9.104166E-1,1.1025327E0,6.637523E-1,0E0,0E0,0E0,0E0,0E0,0E0,0E0,0E0,0E0,0E0,0E0,0E0,0E0,0E0],"parents":[2147483647,0,0,1,1,2,2,3,3,4,4,7,7,8,8,9,9,10,10,11,11,12,12,13,13,15,15,16,16,17,17,18,18],"right_children":[2,4,6,8,10,-1,-1,12,14,16,18,20,22,24,-1,26,28,30,32,-1,-1,-1,-1,-1,-1,-1,-1,-1,-1,-1,-1,-1,-1],"split_conditions":[3.55E1,5.35E1,1.133994E2,3E0,5.88E1,-6.542635E-1,1.5378155E0,8.037037E0,5.95E1,4.5290104E1,-1E0,1.138E2,1.95E1,5.8E1,5.9137976E-1,1.248E2,1.142E2,1.6333334E1,6.5333336E1,-1.8326722E-1,3.2931518E-2,1.29369935E-2,-1.1002197E-1,-4.0697727E-1,7.1171954E-2,2.7010536E-2,-2.487638E-1,9.734536E-3,-2.6605397E-1,-2.4586907E-2,-2.6634008E-1,2.5927851E-2,-1.5841427E-1],"split_indices":[62,43,5,85,43,0,0,21,14,25,125,9,81,2,0,40,45,81,15,0,0,0,0,0,0,0,0,0,0,0,0,0,0],"split_type":[0,0,0,0,0,0,0,0,0,0,0,0,0,0,0,0,0,0,0,0,0,0,0,0,0,0,0,0,0,0,0,0,0],"sum_hessian":[8.98E2,8.95E2,3E0,1.69E2,7.26E2,2E0,1E0,1.6E2,9E0,3.46E2,3.8E2,6E0,1.54E2,6E0,3E0,3.39E2,7E0,1.05E2,2.75E2,4E0,2E0,1.52E2,2E0,5E0,1E0,3.24E2,1.5E1,5E0,2E0,1.01E2,4E0,2.71E2,4E0],"tree_param":{"num_deleted":"0","num_feature":"126","num_nodes":"33","size_leaf_vector":"1"}},{"base_weights":[2.5978263E-2,4.570064E-2,-1.638225E-2,4.9528303E-3,3.4799237E-2,-3.3749998E-2,-7.2413753E-3,3.659004E-2,-2.2499999E-2,-1.0416629E-3,-3E-2,-1.3846153E-1,4.0980395E-2,5.244759E-3,-3E-2,4.4444446E-3,-2.5999999E-2,1.3381997E-3,4.95E-3,-3E-2,5.809861E-4],"categories":[],"categories_nodes":[],"categories_segments":[],"categories_sizes":[],"default_left":[0,0,0,0,0,0,0,0,0,0,0,0,0,0,0,0,0,0,0,0,0],"id":18,"left_children":[1,3,5,-1,7,-1,9,11,-1,13,-1,15,17,19,-1,-1,-1,-1,-1,-1,-1],"loss_changes":[7.6936257E-1,3.6183214E-1,1.7590721E0,0E0,4.705236E-1,0E0,1.0651054E0,4.068513E-1,0E0,1.0875546E0,0E0,1.1738803E0,4.1801363E-1,1.1104779E0,0E0,0E0,0E0,0E0,0E0,0E0,0E0],"parents":[2147483647,0,0,1,1,2,2,4,4,6,6,7,7,9,9,11,11,12,12,13,13],"right_children":[2,4,6,-1,8,-1,10,12,-1,14,-1,16,18,20,-1,-1,-1,-1,-1,-1,-1],"split_conditions":[1.6862987E0,2.0212767E0,4.75E1,1.6057037E-1,7.022741E1,-6.215504E-1,4.3040293E-1,2.0512822E0,-3.202711E-1,1.3482848E1,-5.7108366E-1,1.138E2,1.188E2,2.325E1,-1.0417309E-1,1.8340264E-1,-3.0384922E-1,8.390904E-3,4.5765307E-2,-2.0299149E-1,1.0313644E-2],"split_indices":[83,54,43,0,24,0,28,54,0,29,0,32,8,30,0,0,0,0,0,0,0],"split_type":[0,0,0,0,0,0,0,0,0,0,0,0,0,0,0,0,0,0,0,0,0],"sum_hessian":[9.19E2,6.27E2,2.92E2,1.05E2,5.22E2,3E0,2.89E2,5.21E2,1E0,2.87E2,2E0,1.2E1,5.09E2,2.85E2,2E0,8E0,4E0,4.1E2,9.9E1,2E0,2.83E2],"tree_param":{"num_deleted":"0","num_feature":"126","num_nodes":"21","size_leaf_vector":"1"}},{"base_weights":[2.2369882E-2,4.3478265E-2,-2.4028264E-2,1.3000003E-2,7.173913E-2,-1.4354838E-1,9.459463E-3,-1.079365E-1,4.4957984E-2,7.476636E-2,-2.2499999E-2,-8.7037034E-2,-4.6666664E-1,-1.7931034E-1,3.762887E-2,-2.5588235E-1,6.333333E-2,-3E-2,5.2966103E-2,8.063492E-2,-1.9999999E-1,-1.7297296E-1,4.722222E-3,-6.285714E-1,3.3333336E-3,-3.6E-2,-6.3999996E-2,5.549451E-2,-2.153846E-1,-1.7391302E-3,-3.2916665E-2,-2.2499999E-2,4.8275865E-3,4.604317E-3,-1.5306105E-4,4.1853036E-3,-1.3333333E-2,-3E-2,4E-3,-5.4411762E-3,-3.3749998E-2,2.5000002E-3,-3.75E-2,4.347828E-4,-3E-2,4.295302E-3,-3.970588E-3,-2.4285713E-2,4.2857146E-3],"categories":[],"categories_nodes":[],"categories_segments":[],"categories_sizes":[],"default_left":[0,0,0,0,0,0,0,0,0,0,0,0,0,0,0,0,0,0,0,0,0,0,0,0,0,0,0,0,0,0,0,0,0,0,0,0,0,0,0,0,0,0,0,0,0,0,0,0,0],"id":19,"left_children":[1,3,5,7,9,11,13,15,17,19,-1,21,23,25,27,29,31,-1,33,35,37,39,-1,41,-1,-1,43,45,47,-1,-1,-1,-1,-1,-1,-1,-1,-1,-1,-1,-1,-1,-1,-1,-1,-1,-1,-1,-1],"loss_changes":[8.8543373E-1,5.3396094E-1,1.1340532E0,1.1643186E0,5.422187E-1,1.0914934E0,1.1872395E0,1.6125416E0,1.2610258E0,5.3373444E-1,0E0,8.585085E-1,8.190476E-1,1.7619861E0,8.888806E-1,3.002483E0,5.550115E-1,0E0,5.1754713E-1,3.5830522E-1,8.319999E-1,1.1181198E0,0E0,6.142857E-1,0E0,0E0,9.7933906E-1,7.535145E-1,1.0997801E0,0E0,0E0,0E0,0E0,0E0,0E0,0E0,0E0,0E0,0E0,0E0,0E0,0E0,0E0,0E0,0E0,0E0,0E0,0E0,0E0],"parents":[2147483647,0,0,1,1,2,2,3,3,4,4,5,5,6,6,7,7,8,8,9,9,11,11,12,12,13,13,14,14,15,15,16,16,18,18,19,19,20,20,21,21,23,23,26,26,27,27,28,28],"right_children":[2,4,6,8,10,12,14,16,18,20,-1,22,24,26,28,30,32,-1,34,36,38,40,-1,42,-1,-1,44,46,48,-1,-1,-1,-1,-1,-1,-1,-1,-1,-1,-1,-1,-1,-1,-1,-1,-1,-1,-1,-1],"split_conditions":[1.6227839E0,1.15E2,8.825675E0,5.5E1,6.7E1,4.659091E0,9.8E0,2.372549E0,5.25E1,3.4358974E0,-3.6771718E-1,5.91E1,1.15E2,5.52E1,1.25E2,1.112E2,4.64E1,-2.886568E-1,1.158E2,1.274E2,2.6E1,5.8666668E1,3.081417E-2,2.5238094E0,4.7195014E-1,-9.8964505E-2,5.9271595E1,6.04E1,1.1657143E2,-2.6343001E-2,-5.897402E-1,-1.8474579E-2,2.8266108E-2,2.599598E-2,-2.0318221E-2,1.15555346E-1,-1.0700226E-3,-1.740761E-2,1.8276444E-1,-2.1947384E-1,-4.174179E-1,5.031315E-1,-5.425295E-1,-1.3391207E-1,-1.9284192E-1,9.123158E-2,-2.9229736E-2,-2.532671E-1,2.4297886E-1],"split_indices":[83,0,61,47,46,23,27,54,26,54,0,46,13,46,8,12,10,0,9,40,2,46,0,22,0,0,56,43,64,0,0,0,0,0,0,0,0,0,0,0,0,0,0,0,0,0,0,0,0],"split_type":[0,0,0,0,0,0,0,0,0,0,0,0,0,0,0,0,0,0,0,0,0,0,0,0,0,0,0,0,0,0,0,0,0,0,0,0,0,0,0,0,0,0,0,0,0,0,0,0,0],"sum_hessian":[9.02E2,6.2E2,2.82E2,2.99E2,3.21E2,6.1E1,2.21E2,6.2E1,2.37E2,3.2E2,1E0,5.3E1,8E0,2.8E1,1.93E2,3.3E1,2.9E1,2E0,2.35E2,3.14E2,6E0,3.6E1,1.7E1,6E0,2E0,4E0,2.4E1,1.81E2,1.2E1,2.2E1,1.1E1,1E0,2.8E1,1.38E2,9.7E1,3.12E2,2E0,2E0,4E0,3.3E1,3E0,1E0,5E0,2.2E1,2E0,1.48E2,3.3E1,6E0,6E0],"tree_param":{"num_deleted":"0","num_feature":"126","num_nodes":"49","size_leaf_vector":"1"}},{"base_weights":[2.3383623E-2,-1.5105736E-2,4.4648834E-2,-6.0679607E-2,5.9523813E-2,2.1818185E-2,8.5514024E-2,-1.04929574E-1,3.692308E-2,-4.2499998E-1,7.479675E-2,4.2539686E-2,-7.042253E-2,9.009434E-2,-2.6666665E-1,-8.3211675E-2,-5.833333E-1,8.070175E-2,-2.4444443E-1,2.5000002E-3,-3E-2,-2.2499999E-2,8.278689E-2,-1.5833333E-1,5.032895E-2,8.928575E-3,-3.4375E-1,4.6153847E-2,4.9712644E-3,2.5000002E-3,-2.2499999E-2,-7.277778E-3,1.7708335E-3,2.5000002E-3,-3.6E-2,4.907408E-3,-8.75E-3,-3.3749998E-2,4.166667E-3,-2.2499999E-2,4.545455E-3,4.2857146E-3,-2.0833334E-2,3.5390947E-3,-1.5322579E-3,-8.666667E-3,3.6904763E-3,-3.3125E-2,-1.111111E-3,-8.125E-3,4.8437505E-3],"categories":[],"categories_nodes":[],"categories_segments":[],"categories_sizes":[],"default_left":[0,0,0,0,0,0,0,0,0,0,0,0,0,0,0,0,0,0,0,0,0,0,0,0,0,0,0,0,0,0,0,0,0,0,0,0,0,0,0,0,0,0,0,0,0,0,0,0,0,0,0],"id":20,"left_children":[1,3,5,7,9,11,13,15,17,19,21,23,25,27,29,31,33,35,37,-1,-1,-1,39,41,43,45,47,49,-1,-1,-1,-1,-1,-1,-1,-1,-1,-1,-1,-1,-1,-1,-1,-1,-1,-1,-1,-1,-1,-1,-1],"loss_changes":[7.602278E-1,1.129395E0,5.5605555E-1,8.93571E-1,9.642015E-1,7.3887163E-1,3.6922884E-1,1.4268289E0,8.203904E-1,3.6249995E-1,5.530174E-1,5.008345E-1,1.5429765E0,8.233237E-2,1.9666664E-1,1.018373E0,5.553334E-1,2.7145708E-1,1.3263888E0,0E0,0E0,0E0,5.6885254E-1,7.9226184E-1,5.0564146E-1,6.750119E-1,1.6250693E0,4.2848554E-1,0E0,0E0,0E0,0E0,0E0,0E0,0E0,0E0,0E0,0E0,0E0,0E0,0E0,0E0,0E0,0E0,0E0,0E0,0E0,0E0,0E0,0E0,0E0],"parents":[2147483647,0,0,1,1,2,2,3,3,4,4,5,5,6,6,7,7,8,8,9,9,10,10,11,11,12,12,13,13,14,14,15,15,16,16,17,17,18,18,22,22,23,23,24,24,25,25,26,26,27,27],"right_children":[2,4,6,8,10,12,14,16,18,20,22,24,26,28,30,32,34,36,38,-1,-1,-1,40,42,44,46,48,50,-1,-1,-1,-1,-1,-1,-1,-1,-1,-1,-1,-1,-1,-1,-1,-1,-1,-1,-1,-1,-1,-1,-1],"split_conditions":[1.119E2,1.15E2,1.4589622E2,6.04E1,-7.0211835E0,8.333333E-1,7.022741E1,2.9444444E0,6.36E1,2E1,1.029E2,1.024E2,1.218E2,2.4691358E-1,1.148E2,5.2E0,1.128E2,3.675E1,1.088E2,8.184519E-1,-1.6311207E-1,-6.105995E-2,-4.151786E0,1.0359899E1,1.212E2,1.11E2,1.0377232E2,1.0274554E2,1.218758E-1,8.033377E-1,-3.1003532E-1,-2.4100876E-1,3.2205354E-2,2.2141457E-2,-4.3844357E-1,1.7251877E-1,-8.5738756E-2,-3.493313E-1,5.653E-3,-1.4108334E-1,5.592909E-2,1.889267E-2,-1.6009064E-1,3.09792E-2,-2.5438193E-2,-2.9271403E-1,8.225651E-2,-2.742239E-1,-5.236378E-2,-1.7735024E-1,2.0018895E-1],"split_indices":[45,65,79,42,83,80,24,22,46,2,44,8,41,39,0,123,0,27,45,0,0,0,75,61,40,9,74,74,0,0,0,0,0,0,0,0,0,0,0,0,0,0,0,0,0,0,0,0,0,0,0],"split_type":[0,0,0,0,0,0,0,0,0,0,0,0,0,0,0,0,0,0,0,0,0,0,0,0,0,0,0,0,0,0,0,0,0,0,0,0,0,0,0,0,0,0,0,0,0,0,0,0,0,0,0],"sum_hessian":[9.27E2,3.3E2,5.97E2,2.05E2,1.25E2,3.84E2,2.13E2,1.41E2,6.4E1,3E0,1.22E2,3.14E2,7E1,2.11E2,2E0,1.36E2,5E0,5.6E1,8E0,1E0,2E0,1E0,1.21E2,1.1E1,3.03E2,5.5E1,1.5E1,3.8E1,1.73E2,1E0,1E0,8.9E1,4.7E1,1E0,4E0,5.3E1,3E0,3E0,5E0,1E0,1.2E2,6E0,5E0,2.42E2,6.1E1,1.4E1,4.1E1,7E0,8E0,7E0,3.1E1],"tree_param":{"num_deleted":"0","num_feature":"126","num_nodes":"51","size_leaf_vector":"1"}},{"base_weights":[3.1338416E-2,-1.9047618E-1,3.6484987E-2,-4.6666664E-1,1.5384618E-2,-5.538461E-2,4.3592818E-2,3.7500001E-3,-3.75E-2,4.5833336E-3,-2.2499999E-2,-4.1E-1,8.928575E-3,3.2034636E-2,4.965035E-3,3.7500001E-3,-6.285714E-1,-3E-2,4.2592596E-2,3.4637686E-2,-4.2499998E-1,-3.75E-2,2.5000002E-3,-2.2499999E-2,3.018868E-3,-1.2499999E-2,1.8540148E-3,-3E-2,2.5000002E-3],"categories":[],"categories_nodes":[],"categories_segments":[],"categories_sizes":[],"default_left":[0,0,0,0,0,0,0,0,0,0,0,0,0,0,0,0,0,0,0,0,0,0,0,0,0,0,0,0,0],"id":21,"left_children":[1,3,5,7,9,11,13,-1,-1,-1,-1,15,17,19,-1,-1,21,-1,23,25,27,-1,-1,-1,-1,-1,-1,-1,-1],"loss_changes":[1.056066E0,1.2011721E0,5.894555E-1,1.4374999E0,5.027564E-1,1.4860797E0,5.344603E-1,0E0,0E0,0E0,0E0,1.1072142E0,1.1734986E0,8.391717E-1,0E0,0E0,6.142857E-1,0E0,5.0024456E-1,4.889989E-1,3.6249995E-1,0E0,0E0,0E0,0E0,0E0,0E0,0E0,0E0],"parents":[2147483647,0,0,1,1,2,2,3,3,4,4,5,5,6,6,11,11,12,12,13,13,16,16,18,18,19,19,20,20],"right_children":[2,4,6,8,10,12,14,-1,-1,-1,-1,16,18,20,-1,-1,22,-1,24,26,28,-1,-1,-1,-1,-1,-1,-1,-1],"split_conditions":[1E0,1.114E2,1.0746667E2,-2.0982144E0,1.23333336E2,1.4918293E3,1.6079985E2,4.5342445E-2,-5.82984E-1,4.24976E-2,-2.421528E-1,1.018E2,4.6E0,1.5472551E2,1.0476144E-1,4.170828E-1,1.202E2,-2.2265606E-1,-1.2398492E3,4.75E1,1.123E2,-5.836126E-1,2.809599E-1,-4.5604706E-2,3.0200958E-2,-3.4266282E-2,1.4226629E-2,-1.7424546E-1,4.4036123E-1],"split_indices":[16,8,70,75,8,78,121,0,0,0,0,8,27,121,0,0,1,0,120,43,1,0,0,0,0,0,0,0,0],"split_type":[0,0,0,0,0,0,0,0,0,0,0,0,0,0,0,0,0,0,0,0,0,0,0,0,0,0,0,0,0],"sum_hessian":[9.18E2,2E1,8.98E2,8E0,1.2E1,6.4E1,8.34E2,3E0,5E0,1.1E1,1E0,9E0,5.5E1,6.92E2,1.42E2,3E0,6E0,2E0,5.3E1,6.89E2,3E0,5E0,1E0,1E0,5.2E1,5E0,6.84E2,2E0,1E0],"tree_param":{"num_deleted":"0","num_feature":"126","num_nodes":"29","size_leaf_vector":"1"}},{"base_weights":[2.6555559E-2,-3.1E-1,3.0303033E-2,-5.833333E-1,4E-3,3.3144798E-2,-2.875E-1,-3.6E-2,2.5000002E-3,-5.0999995E-2,4.382166E-2,-5.2E-1,3.7500001E-3,-1.0989007E-2,-4.1E-1,4.595636E-2,-1.9999999E-1,2.5000002E-3,-3.3749998E-2,4.494384E-4,-3E-2,-3.75E-2,4E-3,2.4062097E-3,-1E-2,-3E-2,4E-3],"categories":[],"categories_nodes":[],"categories_segments":[],"categories_sizes":[],"default_left":[0,0,0,0,0,0,0,0,0,0,0,0,0,0,0,0,0,0,0,0,0,0,0,0,0,0,0],"id":22,"left_children":[1,3,5,7,-1,9,11,-1,-1,13,15,17,-1,19,21,23,25,-1,-1,-1,-1,-1,-1,-1,-1,-1,-1],"loss_changes":[1.1445041E0,1.1126666E0,8.142107E-1,5.553334E-1,0E0,7.964223E-1,7.132501E-1,0E0,0E0,1.431889E0,4.1777253E-1,4.7549987E-1,0E0,1.076202E0,1.7259998E0,4.249823E-1,8.319999E-1,0E0,0E0,0E0,0E0,0E0,0E0,0E0,0E0,0E0,0E0],"parents":[2147483647,0,0,1,1,2,2,3,3,5,5,6,6,9,9,10,10,11,11,13,13,14,14,15,15,16,16],"right_children":[2,4,6,8,-1,10,12,-1,-1,14,16,18,-1,20,22,24,26,-1,-1,-1,-1,-1,-1,-1,-1,-1,-1],"split_conditions":[9.72E1,5.7E1,1.214E2,1.15024345E2,8.694973E-2,1E1,1.204E2,-5.5383474E-1,8.0107766E-1,4E0,1.302E2,4E1,1.444193E-1,9.38E1,5.575E1,3.631579E0,5.85E1,7.53092E-1,-4.0807325E-1,1.2666456E-2,-1.7655697E-1,-2.1152325E-1,4.079113E-2,2.2837011E-2,-6.014805E-2,-2.3004512E-1,2.4280702E-1],"split_indices":[41,34,32,5,0,27,44,0,0,16,8,3,0,58,10,22,11,0,0,0,0,0,0,0,0,0,0],"split_type":[0,0,0,0,0,0,0,0,0,0,0,0,0,0,0,0,0,0,0,0,0,0,0,0,0,0,0],"sum_hessian":[8.99E2,9E0,8.9E2,5E0,4E0,8.83E2,7E0,4E0,1E0,9.9E1,7.84E2,4E0,3E0,9E1,9E0,7.78E2,6E0,1E0,3E0,8.8E1,2E0,5E0,4E0,7.72E2,6E0,2E0,4E0],"tree_param":{"num_deleted":"0","num_feature":"126","num_nodes":"27","size_leaf_vector":"1"}},{"base_weights":[2.2473121E-2,4.6967342E-2,-3.2291662E-2,4.844237E-2,-2.2499999E-2,-3.3749998E-2,-2.315789E-2,-2.9999996E-2,5.7940666E-2,-1.402985E-1,1.2785392E-2,-2.55E-1,5.8823533E-2,6.0954064E-2,-1.625E-1,-5.833333E-1,-9.516128E-2,-9.315068E-2,6.530613E-2,-2.5E-3,-3.142857E-2,3.9000001E-3,-2.2499999E-2,4.1878982E-3,1.6205534E-3,-3E-2,4.166667E-3,2.5000002E-3,-3.6E-2,-1.75E-2,4.444446E-4,-2.4285713E-2,-2.5373132E-3,3.9236112E-3,-2.125E-2],"categories":[],"categories_nodes":[],"categories_segments":[],"categories_sizes":[],"default_left":[0,0,0,0,0,0,0,0,0,0,0,0,0,0,0,0,0,0,0,0,0,0,0,0,0,0,0,0,0,0,0,0,0,0,0],"id":23,"left_children":[1,3,5,7,-1,-1,9,11,13,15,17,19,21,23,25,27,29,31,33,-1,-1,-1,-1,-1,-1,-1,-1,-1,-1,-1,-1,-1,-1,-1,-1],"loss_changes":[1.249038E0,4.931438E-1,1.6750295E0,4.800725E-1,0E0,0E0,1.2017629E0,1.4139706E0,3.9053535E-1,1.2843121E0,1.2245642E0,1.5002143E0,5.327294E-1,3.6568952E-1,9.104166E-1,5.553334E-1,1.6471039E0,1.1905413E0,9.822973E-1,0E0,0E0,0E0,0E0,0E0,0E0,0E0,0E0,0E0,0E0,0E0,0E0,0E0,0E0,0E0,0E0],"parents":[2147483647,0,0,1,1,2,2,3,3,6,6,7,7,8,8,9,9,10,10,11,11,12,12,13,13,14,14,15,15,16,16,17,17,18,18],"right_children":[2,4,6,8,-1,-1,10,12,14,16,18,20,22,24,26,28,30,32,34,-1,-1,-1,-1,-1,-1,-1,-1,-1,-1,-1,-1,-1,-1,-1,-1],"split_conditions":[1.6227839E0,3.55E1,4.75E1,1.9166666E0,-3.337179E-1,-5.26143E-1,5.62E1,1.115E2,1.214E2,9.4E0,-2.8255673E2,1.1E2,6.5375E1,2.91E1,1.108E2,5.68E1,8.825675E0,5.1E1,1.294E2,-5.8798217E-3,-2.6934797E-1,2.8778464E-2,-2.8388595E-2,2.6853219E-2,1.755867E-2,-3.8766956E-1,1.7082978E-2,8.807478E-1,-9.815712E-2,-3.3025786E-1,1.4963157E-4,-5.1598436E-1,-1.6902936E-1,5.1209908E-2,-2.1854286E-1],"split_indices":[83,62,43,22,0,0,46,45,32,27,120,41,15,30,0,15,61,11,8,0,0,0,0,0,0,0,0,0,0,0,0,0,0,0,0],"split_type":[0,0,0,0,0,0,0,0,0,0,0,0,0,0,0,0,0,0,0,0,0,0,0,0,0,0,0,0,0,0,0,0,0,0,0],"sum_hessian":[9.29E2,6.42E2,2.87E2,6.41E2,1E0,3E0,2.84E2,6.9E1,5.72E2,6.6E1,2.18E2,1.9E1,5E1,5.65E2,7E0,5E0,6.1E1,7.2E1,1.46E2,1.3E1,6E0,4.9E1,1E0,3.13E2,2.52E2,2E0,5E0,1E0,4E0,1.7E1,4.4E1,6E0,6.6E1,1.43E2,3E0],"tree_param":{"num_deleted":"0","num_feature":"126","num_nodes":"35","size_leaf_vector":"1"}},{"base_weights":[2.634468E-2,-3E-2,2.8382841E-2,-4.2813416E-3,4.6655234E-2,5.9375037E-3,-4.125E-1,4.828179E-2,-2.2499999E-2,-1.8399999E-1,2.1959463E-2,-3.6E-2,3.7500001E-3,8.764706E-2,3.1961262E-2,-8.333331E-4,-2.6874999E-2,-2.663043E-3,2.780488E-3,-2.2499999E-2,4.6745567E-3,-2.2499999E-2,1.7111652E-3],"categories":[],"categories_nodes":[],"categories_segments":[],"categories_sizes":[],"default_left":[0,0,0,0,0,0,0,0,0,0,0,0,0,0,0,0,0,0,0,0,0,0,0],"id":24,"left_children":[1,-1,3,5,7,9,11,13,-1,15,17,-1,-1,19,21,-1,-1,-1,-1,-1,-1,-1,-1],"loss_changes":[1.180005E0,0E0,5.427389E-1,1.3665373E0,4.9269593E-1,9.778552E-1,1.2532499E0,3.711115E-1,0E0,1.4698502E0,7.52193E-1,0E0,0E0,5.762186E-1,4.6565986E-1,0E0,0E0,0E0,0E0,0E0,0E0,0E0,0E0],"parents":[2147483647,0,0,2,2,3,3,4,4,5,5,6,6,7,7,9,9,10,10,13,13,14,14],"right_children":[2,-1,4,6,8,10,12,14,-1,16,18,-1,-1,20,22,-1,-1,-1,-1,-1,-1,-1,-1],"split_conditions":[4.58E1,-4.9983588E-1,1.119E2,1.117E2,7.022741E1,1.9166666E0,3E0,5.52E1,-2.9726467E-1,2.516129E0,1.148E2,-1.4476109E-1,2.2830983E-1,1.07126236E2,9.62E1,-8.568802E-3,-1.9249554E-1,-1.1825515E-1,2.4557305E-2,-4.463959E-3,8.865517E-2,-1.5528183E-1,1.3950044E-2],"split_indices":[42,0,45,45,24,22,72,11,0,54,0,0,0,5,8,0,0,0,0,0,0,0,0],"split_type":[0,0,0,0,0,0,0,0,0,0,0,0,0,0,0,0,0,0,0,0,0,0,0],"sum_hessian":[9.1E2,2E0,9.08E2,3.26E2,5.82E2,3.19E2,7E0,5.81E2,1E0,2.4E1,2.95E2,4E0,3E0,1.69E2,4.12E2,1.7E1,7E0,9.1E1,2.04E2,1E0,1.68E2,1E0,4.11E2],"tree_param":{"num_deleted":"0","num_feature":"126","num_nodes":"23","size_leaf_vector":"1"}},{"base_weights":[2.685285E-2,-7.2857134E-2,3.4918796E-2,-1.8333329E-2,-3.6363634E-1,-3.2E-1,3.694639E-2,-1.8333332E-1,5.1162794E-2,-6.285714E-1,4E-3,-3E-2,3.3333336E-3,3.8921457E-2,-2.4999999E-1,2.1428574E-2,-3.6E-2,-2.2499999E-2,7.380953E-2,2.5000002E-3,-3.75E-2,3.0254355E-2,4.9532712E-3,-3E-2,3.7500001E-3,4.6153846E-3,-2.2499999E-2,4.8780493E-3,-2.2499999E-2,1.6779434E-3,-1.2222222E-2],"categories":[],"categories_nodes":[],"categories_segments":[],"categories_sizes":[],"default_left":[0,0,0,0,0,0,0,0,0,0,0,0,0,0,0,0,0,0,0,0,0,0,0,0,0,0,0,0,0,0,0],"id":25,"left_children":[1,3,5,7,9,11,13,15,17,19,-1,-1,-1,21,23,25,-1,-1,27,-1,-1,29,-1,-1,-1,-1,-1,-1,-1,-1,-1],"loss_changes":[7.5130594E-1,1.1031406E0,6.321448E-1,6.973915E-1,1.3431689E0,5.813333E-1,4.959917E-1,1.9934282E0,5.212513E-1,6.142857E-1,0E0,0E0,0E0,4.4164956E-1,7.2749996E-1,5.093406E-1,0E0,0E0,5.664343E-1,0E0,0E0,6.862892E-1,0E0,0E0,0E0,0E0,0E0,0E0,0E0,0E0,0E0],"parents":[2147483647,0,0,1,1,2,2,3,3,4,4,5,5,6,6,7,7,8,8,9,9,13,13,14,14,15,15,18,18,21,21],"right_children":[2,4,6,8,10,12,14,16,18,20,-1,-1,-1,22,24,26,-1,-1,28,-1,-1,30,-1,-1,-1,-1,-1,-1,-1,-1,-1],"split_conditions":[-1.7E1,1.175E2,9.62E1,1.125E2,1.0267857E2,1.077E2,1.302E2,1.15E2,1.107E2,5.5E1,3.5941696E-1,-4.7484407E-1,5.2111246E-2,1.202E2,1.177E2,1.1452631E2,-3.1826E-1,-3.6237335E-1,6.6E1,3.094387E-2,-4.756155E-1,3.5833333E0,6.6268526E-2,-2.0831318E-1,3.1486225E-1,4.7323626E-2,-2.9241332E-1,2.681706E-2,-1.543663E-1,1.1143609E-2,-9.447727E-2],"split_indices":[81,12,8,65,36,0,8,1,1,10,0,0,0,12,0,5,0,0,43,0,0,22,0,0,0,0,0,0,0,0,0],"split_type":[0,0,0,0,0,0,0,0,0,0,0,0,0,0,0,0,0,0,0,0,0,0,0,0,0,0,0,0,0,0,0],"sum_hessian":[9.3E2,6.9E1,8.61E2,5.9E1,1E1,4E0,8.57E2,1.7E1,4.2E1,6E0,4E0,2E0,2E0,8.52E2,5E0,1.3E1,4E0,1E0,4.1E1,1E0,5E0,7.46E2,1.06E2,2E0,3E0,1.2E1,1E0,4E1,1E0,7.38E2,8E0],"tree_param":{"num_deleted":"0","num_feature":"126","num_nodes":"31","size_leaf_vector":"1"}},{"base_weights":[4.1261066E-2,2.1196585E-2,7.78125E-2,-2.2857139E-2,5.2785926E-2,8.391167E-2,-4.2499998E-1,-5.2E-1,-1.2448129E-2,7.458334E-2,9.803958E-4,-2.6666665E-1,8.698413E-2,-3E-2,2.5000002E-3,2.5000002E-3,-3.3749998E-2,2.4598934E-2,-1.381818E-1,8.232759E-2,-1.3333333E-1,-1.8333332E-1,4.0000003E-2,-2.2499999E-2,2.5000002E-3,9.304636E-2,-4.9999997E-2,-7.708333E-3,2.530488E-3,2.3809525E-3,-1.2285714E-2,4.3231444E-3,-8.75E-3,4.2857146E-3,-3E-2,4.4444446E-3,-2.05E-2,-2.2499999E-2,2.559524E-3,-6E-3,4.8154364E-3,-3E-2,4.5833336E-3],"categories":[],"categories_nodes":[],"categories_segments":[],"categories_sizes":[],"default_left":[0,0,0,0,0,0,0,0,0,0,0,0,0,0,0,0,0,0,0,0,0,0,0,0,0,0,0,0,0,0,0,0,0,0,0,0,0,0,0,0,0,0,0],"id":26,"left_children":[1,3,5,7,9,11,13,15,17,19,21,23,25,-1,-1,-1,-1,27,29,31,33,35,37,-1,-1,39,41,-1,-1,-1,-1,-1,-1,-1,-1,-1,-1,-1,-1,-1,-1,-1,-1],"loss_changes":[6.6133106E-1,8.1530905E-1,1.0170195E0,1.2613444E0,3.849929E-1,3.6464787E-1,3.6249995E-1,4.7549987E-1,1.1259925E0,3.974154E-1,7.4090195E-1,1.9666664E-1,2.6623774E-1,0E0,0E0,0E0,0E0,8.7732255E-1,1.1105801E0,2.6200795E-1,9.714285E-1,1.1471112E0,4.89119E-1,0E0,0E0,2.2145772E-1,1.1458333E0,0E0,0E0,0E0,0E0,0E0,0E0,0E0,0E0,0E0,0E0,0E0,0E0,0E0,0E0,0E0,0E0],"parents":[2147483647,0,0,1,1,2,2,3,3,4,4,5,5,6,6,7,7,8,8,9,9,10,10,11,11,12,12,17,17,18,18,19,19,20,20,21,21,22,22,25,25,26,26],"right_children":[2,4,6,8,10,12,14,16,18,20,22,24,26,-1,-1,-1,-1,28,30,32,34,36,38,-1,-1,40,42,-1,-1,-1,-1,-1,-1,-1,-1,-1,-1,-1,-1,-1,-1,-1,-1],"split_conditions":[2.482833E0,1.0301339E2,1.302E2,1.03666664E2,6E-1,-6.011388E2,1.177E2,4.5E1,1.0256696E2,1.274E2,1.102E2,1.151E2,3.8E1,-1.9789754E-1,1.1522675E0,6.0365107E-2,-4.5110187E-1,9.7297296E-2,-1.0154991E2,6.0463885E2,5.99E1,1.06E2,-5.044643E0,-8.10299E-3,2.5200406E-1,-8.831034E0,3.88E1,-1.09888986E-1,1.38331605E-2,2.8512081E-2,-2.803757E-1,6.2932394E-2,-1.657486E-3,1.9275093E-2,-4.5183468E-1,1.8980598E-2,-5.515608E-1,-1.5881157E-2,6.36631E-3,-5.373135E-2,8.6818054E-2,-3.1345865E-1,1.4170964E-1],"split_indices":[118,74,8,70,39,79,0,8,74,65,40,0,59,0,0,0,0,28,79,79,14,41,75,0,0,83,59,0,0,0,0,0,0,0,0,0,0,0,0,0,0,0,0],"split_type":[0,0,0,0,0,0,0,0,0,0,0,0,0,0,0,0,0,0,0,0,0,0,0,0,0,0,0,0,0,0,0,0,0,0,0,0,0,0,0,0,0,0,0],"sum_hessian":[9.03E2,5.84E2,3.19E2,2.44E2,3.4E2,3.16E2,3E0,4E0,2.4E2,2.39E2,1.01E2,2E0,3.14E2,2E0,1E0,1E0,3E0,1.86E2,5.4E1,2.31E2,8E0,1.7E1,8.4E1,1E0,1E0,3.01E2,1.3E1,2.3E1,1.63E2,2E1,3.4E1,2.28E2,3E0,6E0,2E0,8E0,9E0,1E0,8.3E1,4E0,2.97E2,2E0,1.1E1],"tree_param":{"num_deleted":"0","num_feature":"126","num_nodes":"43","size_leaf_vector":"1"}},{"base_weights":[3.365907E-2,-4.2499998E-1,3.5620917E-2,-3E-2,2.5000002E-3,2.3684213E-2,7.918782E-2,1.160131E-2,9.009009E-2,8.8586956E-2,-4.9999997E-2,-3.0672265E-2,3.84E-2,-1.2E-1,4.9532712E-3,9.388889E-2,-1.2E-1,-3E-2,4.5833336E-3,1.6296298E-3,-5.6249998E-3,3.2156862E-3,-8.2644605E-4,3.7500001E-3,-2.2499999E-2,4.971429E-3,-4.1666664E-3,3.7500001E-3,-2.2499999E-2],"categories":[],"categories_nodes":[],"categories_segments":[],"categories_sizes":[],"default_left":[0,0,0,0,0,0,0,0,0,0,0,0,0,0,0,0,0,0,0,0,0,0,0,0,0,0,0,0,0],"id":27,"left_children":[1,3,5,-1,-1,7,9,11,13,15,17,19,21,23,-1,25,27,-1,-1,-1,-1,-1,-1,-1,-1,-1,-1,-1,-1],"loss_changes":[8.438728E-1,3.6249995E-1,4.7552598E-1,0E0,0E0,5.7827014E-1,2.4363744E-1,6.944983E-1,2.2119254E-1,2.1475482E-1,1.1458333E0,1.2357498E0,5.348429E-1,3.5549998E-1,0E0,1.8500161E-1,3.5549998E-1,0E0,0E0,0E0,0E0,0E0,0E0,0E0,0E0,0E0,0E0,0E0,0E0],"parents":[2147483647,0,0,1,1,2,2,5,5,6,6,7,7,8,8,9,9,10,10,11,11,12,12,13,13,15,15,16,16],"right_children":[2,4,6,-1,-1,8,10,12,14,16,18,20,22,24,-1,26,28,-1,-1,-1,-1,-1,-1,-1,-1,-1,-1,-1,-1],"split_conditions":[4.6666668E1,2E0,6.1E1,-4.2854682E-1,4.3633842E-1,7.6334352E0,1.2086667E2,1.15E2,2.2E1,3.55E0,1.0084821E2,7.3333335E-1,1.1826667E2,6.2666668E1,5.990681E-2,1.256E2,1.264E2,-1.5937176E-1,8.833858E-2,9.88102E-3,-1.5118298E-1,7.956792E-2,-2.723465E-3,3.3472213E-1,-1.24139406E-1,1.0455952E-1,-2.707699E-1,4.085579E-2,-4.4981193E-2],"split_indices":[46,16,42,0,0,118,69,0,35,22,4,123,64,10,0,44,9,0,0,0,0,0,0,0,0,0,0,0,0],"split_type":[0,0,0,0,0,0,0,0,0,0,0,0,0,0,0,0,0,0,0,0,0,0,0,0,0,0,0,0,0],"sum_hessian":[9.2E2,3E0,9.17E2,2E0,1E0,7.21E2,1.96E2,6.11E2,1.1E2,1.83E2,1.3E1,2.37E2,3.74E2,4E0,1.06E2,1.79E2,4E0,2E0,1.1E1,1.34E2,1.03E2,2.54E2,1.2E2,3E0,1E0,1.74E2,5E0,3E0,1E0],"tree_param":{"num_deleted":"0","num_feature":"126","num_nodes":"29","size_leaf_vector":"1"}},{"base_weights":[3.0691966E-2,3.4424383E-2,-2.7272725E-1,-8.178434E-3,5.2912623E-2,-5.833333E-1,4.166667E-3,-1.4634146E-1,1.659389E-2,5.4457054E-2,-2.2499999E-2,-3.6E-2,2.5000002E-3,-2.7916667E-1,3.888889E-2,6.796875E-2,-4.803921E-2,5.94958E-2,-7.826086E-2,-6.3888887E-3,-3.142857E-2,-2.2499999E-2,4.7058826E-3,-1.2499999E-2,4.1463417E-3,-9.21875E-3,7.0422556E-4,-1.3333333E-2,3.0522768E-3,1.7739478E-10,-3E-2],"categories":[],"categories_nodes":[],"categories_segments":[],"categories_sizes":[],"default_left":[0,0,0,0,0,0,0,0,0,0,0,0,0,0,0,0,0,0,0,0,0,0,0,0,0,0,0,0,0,0,0],"id":28,"left_children":[1,3,5,7,9,11,-1,13,15,17,-1,-1,-1,19,21,23,25,27,29,-1,-1,-1,-1,-1,-1,-1,-1,-1,-1,-1,-1],"loss_changes":[1.0240965E0,6.9829166E-1,1.2651515E0,9.231129E-1,5.04514E-1,5.553334E-1,0E0,1.0195901E0,7.636634E-1,4.1726422E-1,0E0,0E0,0E0,1.1891865E0,5.28366E-1,6.2952554E-1,8.665048E-1,3.170302E-1,9.3913037E-1,0E0,0E0,0E0,0E0,0E0,0E0,0E0,0E0,0E0,0E0,0E0,0E0],"parents":[2147483647,0,0,1,1,2,2,3,3,4,4,5,5,7,7,8,8,9,9,13,13,14,14,15,15,16,16,17,17,18,18],"right_children":[2,4,6,8,10,12,-1,14,16,18,-1,-1,-1,20,22,24,26,28,30,-1,-1,-1,-1,-1,-1,-1,-1,-1,-1,-1,-1],"split_conditions":[1.2553333E2,-3.4293597E2,5.78E1,-2.4744614E2,4.5E1,4.3E1,8.065033E-2,2.2359155E-1,2.925E1,1.3243208E1,-4.0711948E-1,-2.4094887E-1,9.700737E-2,1.6424366E3,5.1E1,2.47E1,3.875E0,4.9E1,2.5208333E0,-2.2125183E-1,-4.1077176E-1,-5.1677707E-3,1.3377857E-2,-1.2969513E-1,1.423206E-1,-1.8082963E-1,8.949528E-3,-3.4484864E-4,2.4714146E-2,-5.4458994E-3,-9.708958E-2],"split_indices":[69,120,11,121,30,2,0,28,30,29,0,0,0,77,11,30,23,26,22,0,0,0,0,0,0,0,0,0,0,0,0],"split_type":[0,0,0,0,0,0,0,0,0,0,0,0,0,0,0,0,0,0,0,0,0,0,0,0,0,0,0,0,0,0,0],"sum_hessian":[8.95E2,8.85E2,1E1,2.68E2,6.17E2,5E0,5E0,4E1,2.28E2,6.16E2,1E0,4E0,1E0,2.3E1,1.7E1,1.27E2,1.01E2,5.94E2,2.2E1,1.7E1,6E0,1E0,1.6E1,5E0,1.22E2,3.1E1,7E1,2E0,5.92E2,2E1,2E0],"tree_param":{"num_deleted":"0","num_feature":"126","num_nodes":"31","size_leaf_vector":"1"}},{"base_weights":[3.0659344E-2,3.256071E-2,-3.2E-1,4.8966616E-2,-4.6762554E-3,3.3333336E-3,-3E-2,2.0059E-2,8.247423E-2,-1.7297296E-1,2.1074383E-2,2.762763E-2,-3.4285712E-1,-2.2499999E-2,8.586207E-2,-5.7777774E-1,-4.1379306E-2,-3.4285712E-1,3.1779665E-2,2.1212124E-3,-4.5945942E-3,3.7500001E-3,-3.3749998E-2,4.980695E-3,-1.4062498E-3,3.3333336E-3,-3.857143E-2,2.7083333E-3,-2.0833334E-2,-3.3749998E-2,3.7500001E-3,2.1397383E-3,-1.4375E-2],"categories":[],"categories_nodes":[],"categories_segments":[],"categories_sizes":[],"default_left":[0,0,0,0,0,0,0,0,0,0,0,0,0,0,0,0,0,0,0,0,0,0,0,0,0,0,0,0,0,0,0,0,0],"id":29,"left_children":[1,3,5,7,9,-1,-1,11,13,15,17,19,21,-1,23,25,27,29,31,-1,-1,-1,-1,-1,-1,-1,-1,-1,-1,-1,-1,-1,-1],"loss_changes":[6.171453E-1,5.537098E-1,5.813333E-1,6.0761094E-1,1.2084272E0,0E0,0E0,9.4063014E-1,5.6358397E-1,1.9470726E0,9.5372516E-1,5.928037E-1,1.0221429E0,0E0,4.5738554E-1,1.1746027E0,1.0624281E0,1.0221429E0,8.422911E-1,0E0,0E0,0E0,0E0,0E0,0E0,0E0,0E0,0E0,0E0,0E0,0E0,0E0,0E0],"parents":[2147483647,0,0,1,1,2,2,3,3,4,4,7,7,8,8,9,9,10,10,11,11,12,12,14,14,15,15,16,16,17,17,18,18],"right_children":[2,4,6,8,10,-1,-1,12,14,16,18,20,22,-1,24,26,28,30,32,-1,-1,-1,-1,-1,-1,-1,-1,-1,-1,-1,-1,-1,-1],"split_conditions":[3.55E1,1.6862987E0,1.0413043E1,1.1585714E2,5.52E1,9.2156984E-2,-3.8676348E-1,1.198E2,4.7E1,4E-1,9.96E1,1.195E2,1.0330357E2,-2.513836E-1,6.31E1,1.0098214E2,1.1726667E2,2.5652175E0,4.1666668E1,1.4739093E-2,-1.10567056E-1,2.4071656E-1,-3.253769E-1,1.3056158E-1,-3.876282E-2,1.6821785E-1,-2.6898804E-1,7.4013986E-2,-1.3550797E-1,-2.8794366E-1,1.6696282E-1,1.9269237E-2,-3.496563E-1],"split_indices":[62,83,21,45,46,0,0,41,26,80,9,69,4,0,15,4,70,22,59,0,0,0,0,0,0,0,0,0,0,0,0,0,0],"split_type":[0,0,0,0,0,0,0,0,0,0,0,0,0,0,0,0,0,0,0,0,0,0,0,0,0,0,0,0,0,0,0,0,0],"sum_hessian":[9.09E2,9.05E2,4E0,6.28E2,2.77E2,2E0,2E0,3.38E2,2.9E2,3.6E1,2.41E2,3.32E2,6E0,1E0,2.89E2,8E0,2.8E1,6E0,2.35E2,2.96E2,3.6E1,3E0,3E0,2.58E2,3.1E1,2E0,6E0,2.3E1,5E0,3E0,3E0,2.28E2,7E0],"tree_param":{"num_deleted":"0","num_feature":"126","num_nodes":"33","size_leaf_vector":"1"}},{"base_weights":[3.438865E-2,-3.2E-1,3.6293864E-2,3.3333336E-3,-3E-2,5.3215437E-2,3.7124885E-9,5.6077797E-2,-2.4999999E-1,-1.8928571E-1,2.007576E-2,-2.2499999E-2,5.7629872E-2,-3E-2,3.7500001E-3,-5.833333E-1,-7.826086E-2,4.6889953E-2,-8.0357134E-2,4.712042E-3,2.0539907E-3,-3.6E-2,2.5000002E-3,4.6428572E-3,-1.5500001E-2,-1.2499999E-2,2.769608E-3,-1.8181818E-2,-5.434781E-4],"categories":[],"categories_nodes":[],"categories_segments":[],"categories_sizes":[],"default_left":[0,0,0,0,0,0,0,0,0,0,0,0,0,0,0,0,0,0,0,0,0,0,0,0,0,0,0,0,0],"id":30,"left_children":[1,3,5,-1,-1,7,9,11,13,15,17,-1,19,-1,-1,21,23,25,27,-1,-1,-1,-1,-1,-1,-1,-1,-1,-1],"loss_changes":[6.300844E-1,5.813333E-1,5.6010413E-1,0E0,0E0,5.538608E-1,1.1096158E0,5.105685E-1,7.2749996E-1,1.1793219E0,7.147271E-1,0E0,3.693714E-1,0E0,0E0,5.553334E-1,9.408447E-1,5.4140985E-1,1.098373E0,0E0,0E0,0E0,0E0,0E0,0E0,0E0,0E0,0E0,0E0],"parents":[2147483647,0,0,1,1,2,2,5,5,6,6,7,7,8,8,9,9,10,10,12,12,15,15,16,16,17,17,18,18],"right_children":[2,4,6,-1,-1,8,10,12,14,16,18,-1,20,-1,-1,22,24,26,28,-1,-1,-1,-1,-1,-1,-1,-1,-1,-1],"split_conditions":[9.62E1,4.48E1,1.6227839E0,6.293335E-2,-3.6742535E-1,1.214E2,-2.4744614E2,4.7E1,1.108E2,5.22E1,1.182E2,-2.3881435E-1,5.56E1,-3.470398E-1,2.902031E-3,1.156E2,1.151E2,4.5556072E1,1.36E1,9.6670724E-2,1.3140795E-2,-3.9097023E-1,8.4406966E-1,6.18079E-2,-2.5125334E-1,-3.3217356E-1,2.4840394E-2,-1.5074442E-1,-9.669799E-3],"split_indices":[8,10,83,0,0,32,121,26,0,43,41,0,46,0,0,1,45,24,27,0,0,0,0,0,0,0,0,0,0],"split_type":[0,0,0,0,0,0,0,0,0,0,0,0,0,0,0,0,0,0,0,0,0,0,0,0,0,0,0,0,0],"sum_hessian":[9.15E2,4E0,9.11E2,2E0,2E0,6.21E2,2.9E2,6.16E2,5E0,2.7E1,2.63E2,1E0,6.15E2,2E0,3E0,5E0,2.2E1,2.08E2,5.5E1,1.9E2,4.25E2,4E0,1E0,1.3E1,9E0,5E0,2.03E2,1E1,4.5E1],"tree_param":{"num_deleted":"0","num_feature":"126","num_nodes":"29","size_leaf_vector":"1"}},{"base_weights":[3.617711E-2,3.8136516E-2,-4.2499998E-1,4.004353E-2,-3.2E-1,-3E-2,2.5000002E-3,4.62704E-2,-4.677419E-2,-3E-2,3.3333336E-3,4.823944E-2,-1.9999999E-1,-1.9999999E-1,6.944445E-2,3.062701E-3,6.4935087E-4,-3E-2,4E-3,-3.3749998E-2,-5.6249998E-3,4.857143E-3,-2.2499999E-2],"categories":[],"categories_nodes":[],"categories_segments":[],"categories_sizes":[],"default_left":[0,0,0,0,0,0,0,0,0,0,0,0,0,0,0,0,0,0,0,0,0,0,0],"id":31,"left_children":[1,3,5,7,9,-1,-1,11,13,-1,-1,15,17,19,21,-1,-1,-1,-1,-1,-1,-1,-1],"loss_changes":[8.5297203E-1,6.431966E-1,3.6249995E-1,4.9897814E-1,5.813333E-1,0E0,0E0,4.2570603E-1,1.1179659E0,0E0,0E0,3.9009845E-1,8.319999E-1,1.0462499E0,5.616746E-1,0E0,0E0,0E0,0E0,0E0,0E0,0E0,0E0],"parents":[2147483647,0,0,1,1,2,2,3,3,4,4,7,7,8,8,11,11,12,12,13,13,14,14],"right_children":[2,4,6,8,10,-1,-1,12,14,-1,-1,16,18,20,22,-1,-1,-1,-1,-1,-1,-1,-1],"split_conditions":[3.55E1,1.3E2,1.133994E2,4.086039E1,1.177E2,-3.4905407E-1,1.4367865E0,1.37E2,2.0888889E-1,-1.806343E-1,3.0983296E-1,4.4791665E0,1.222E2,5.28E1,5.089286E0,2.6942981E-2,5.957032E-3,-2.7404786E-3,3.7231255E-2,-9.969902E-3,-1.07488945E-1,7.7717885E-2,-4.214594E-1],"split_indices":[62,8,5,57,0,0,0,70,28,0,0,23,41,15,75,0,0,0,0,0,0,0,0],"split_type":[0,0,0,0,0,0,0,0,0,0,0,0,0,0,0,0,0,0,0,0,0,0,0],"sum_hessian":[9.25E2,9.22E2,3E0,9.18E2,4E0,2E0,1E0,8.57E2,6.1E1,2E0,2E0,8.51E2,6E0,2.6E1,3.5E1,6.21E2,2.3E2,2E0,4E0,3E0,2.3E1,3.4E1,1E0],"tree_param":{"num_deleted":"0","num_feature":"126","num_nodes":"23","size_leaf_vector":"1"}},{"base_weights":[2.7521932E-2,8.8586956E-2,1.2071334E-2,9.392265E-2,-1.75E-1,-4.2499998E-1,1.4462814E-2,-5.7142854E-2,4.971429E-3,-2.2499999E-2,3.3333336E-3,2.5000002E-3,-3E-2,1.6759006E-2,-3.2E-1,-2.2499999E-2,4.166667E-3,1.0398651E-3,7.876713E-2,-3E-2,3.3333336E-3,8.1419636E-4,-3.6363637E-3,-2.2499999E-2,4.275862E-3],"categories":[],"categories_nodes":[],"categories_segments":[],"categories_sizes":[],"default_left":[0,0,0,0,0,0,0,0,0,0,0,0,0,0,0,0,0,0,0,0,0,0,0,0,0],"id":32,"left_children":[1,3,5,7,9,11,13,15,-1,-1,-1,-1,-1,17,19,-1,-1,21,23,-1,-1,-1,-1,-1,-1],"loss_changes":[8.593946E-1,2.7521753E-1,7.681318E-1,1.5622938E-1,2.958333E-1,3.6249995E-1,5.629244E-1,4.238095E-1,0E0,0E0,0E0,0E0,0E0,7.0366186E-1,5.813333E-1,0E0,0E0,6.5002704E-1,5.595919E-1,0E0,0E0,0E0,0E0,0E0,0E0],"parents":[2147483647,0,0,1,1,2,2,3,3,4,4,5,5,6,6,7,7,13,13,14,14,17,17,18,18],"right_children":[2,4,6,8,10,12,14,16,-1,-1,-1,-1,-1,18,20,-1,-1,22,24,-1,-1,-1,-1,-1,-1],"split_conditions":[2.1190476E0,1.0660714E2,1.02E2,2.217454E1,1.151E2,4.5E1,1.302E2,1.046E2,8.446159E-2,-3.6712646E-2,6.681978E-1,5.8439445E-2,-3.3160135E-1,1.186E2,1.177E2,-9.742737E-4,5.313244E-2,2.6785715E0,-6.011388E2,-1.7160264E-1,1.8231069E-1,4.545956E-3,-1.16589926E-1,-1.4739037E-2,4.5298677E-2],"split_indices":[54,36,64,25,0,8,8,12,0,0,0,0,0,12,0,0,0,75,79,0,0,0,0,0,0],"split_type":[0,0,0,0,0,0,0,0,0,0,0,0,0,0,0,0,0,0,0,0,0,0,0,0,0],"sum_hessian":[9.11E2,1.83E2,7.28E2,1.8E2,3E0,3E0,7.25E2,6E0,1.74E2,1E0,2E0,1E0,2E0,7.21E2,4E0,1E0,5E0,5.76E2,1.45E2,2E0,2E0,4.78E2,9.8E1,1E0,1.44E2],"tree_param":{"num_deleted":"0","num_feature":"126","num_nodes":"25","size_leaf_vector":"1"}},{"base_weights":[2.9545458E-2,4.530303E-2,-9.811317E-3,-1.5833333E-1,4.899846E-2,-4.125E-1,2.713182E-3,-5.2E-1,4.375E-3,2.098361E-2,7.362319E-2,-5.833333E-1,3.3333336E-3,9.765629E-3,-3E-2,-3.3749998E-2,2.5000002E-3,5.2105267E-2,-3.017241E-2,7.638484E-2,-2.6666665E-1,-3.6E-2,2.5000002E-3,-1.6999999E-1,3.348018E-2,2.857143E-3,-2.2499999E-2,-1.1323529E-2,2.5301208E-3,4.07855E-3,-3.0769228E-3,-2.2499999E-2,2.5000002E-3,2.1052633E-3,-2.4583332E-2,2.075893E-3,-2.125E-2],"categories":[],"categories_nodes":[],"categories_segments":[],"categories_sizes":[],"default_left":[0,0,0,0,0,0,0,0,0,0,0,0,0,0,0,0,0,0,0,0,0,0,0,0,0,0,0,0,0,0,0,0,0,0,0,0,0],"id":33,"left_children":[1,3,5,7,9,11,13,15,-1,17,19,21,-1,23,-1,-1,-1,25,27,29,31,-1,-1,33,35,-1,-1,-1,-1,-1,-1,-1,-1,-1,-1,-1,-1],"loss_changes":[5.734791E-1,5.044236E-1,1.3376398E0,1.1124166E0,4.4617307E-1,6.937499E-1,1.1025147E0,4.7549987E-1,0E0,4.871504E-1,3.445872E-1,5.553334E-1,0E0,1.0970352E0,0E0,0E0,0E0,5.0630075E-1,1.8507501E0,2.5036502E-1,1.9666664E-1,0E0,0E0,2.0675175E0,8.5416675E-1,0E0,0E0,0E0,0E0,0E0,0E0,0E0,0E0,0E0,0E0,0E0,0E0],"parents":[2147483647,0,0,1,1,2,2,3,3,4,4,5,5,6,6,7,7,9,9,10,10,11,11,13,13,17,17,18,18,19,19,20,20,23,23,24,24],"right_children":[2,4,6,8,10,12,14,16,-1,18,20,22,-1,24,-1,-1,-1,26,28,30,32,-1,-1,34,36,-1,-1,-1,-1,-1,-1,-1,-1,-1,-1,-1,-1],"split_conditions":[1.8918976E0,5.25E1,9.84E1,1.1273333E2,1.15E2,5.4E1,4.7E1,1.167E2,1.0529442E-1,1.3896104E0,7.022741E1,4.8536587E0,1.5684739E-1,5.52E1,-5.017126E-1,-2.3244381E-1,1.2856964E0,1.3594595E1,3.6666667E0,6.607143E0,1.159E2,-3.1502125E-1,3.4415284E-1,1.102E2,1.294E2,1.3996392E-2,-2.9651452E-2,-2.497478E-1,1.4893017E-2,7.586541E-2,-3.2489556E-1,-2.627308E-1,8.447438E-2,2.0405583E-3,-2.3471294E-1,1.7802088E-2,-1.6302243E-1],"split_indices":[84,26,9,69,0,15,27,0,0,123,24,23,0,46,0,0,0,21,123,75,0,0,0,9,8,0,0,0,0,0,0,0,0,0,0,0,0],"split_type":[0,0,0,0,0,0,0,0,0,0,0,0,0,0,0,0,0,0,0,0,0,0,0,0,0,0,0,0,0,0,0,0,0,0,0,0,0],"sum_hessian":[9.23E2,6.59E2,2.64E2,1.1E1,6.48E2,7E0,2.57E2,4E0,7E0,3.04E2,3.44E2,5E0,2E0,2.55E2,2E0,3E0,1E0,1.89E2,1.15E2,3.42E2,2E0,4E0,1E0,2.9E1,2.26E2,1.88E2,1E0,3.3E1,8.2E1,3.3E2,1.2E1,1E0,1E0,1.8E1,1.1E1,2.23E2,3E0],"tree_param":{"num_deleted":"0","num_feature":"126","num_nodes":"37","size_leaf_vector":"1"}},{"base_weights":[3.0250276E-2,3.2279175E-2,-3E-2,4.9541285E-3,2.323857E-2,6.1328826E-3,6.8161435E-2,1.6326534E-2,-1.0612244E-1,-1.8181817E-1,8.075117E-2,-6.8333314E-4,2.6875E-3,-1.75E-2,1.7187502E-3,4.2857146E-3,-2.5999999E-2,-2.2499999E-2,4.268868E-3],"categories":[],"categories_nodes":[],"categories_segments":[],"categories_sizes":[],"default_left":[0,0,0,0,0,0,0,0,0,0,0,0,0,0,0,0,0,0,0],"id":34,"left_children":[1,3,-1,-1,5,7,9,11,13,15,17,-1,-1,-1,-1,-1,-1,-1,-1],"loss_changes":[1.1945059E0,5.515133E-1,0E0,0E0,6.212472E-1,6.734318E-1,7.165028E-1,6.057348E-1,1.6909757E0,1.0397922E0,5.6140995E-1,0E0,0E0,0E0,0E0,0E0,0E0,0E0,0E0],"parents":[2147483647,0,0,1,1,4,4,5,5,6,6,7,7,8,8,9,9,10,10],"right_children":[2,4,-1,-1,6,8,10,12,14,16,18,-1,-1,-1,-1,-1,-1,-1,-1],"split_conditions":[3.542857E1,1.9833333E0,-2.9927015E-1,8.018874E-2,6.05E1,6E1,2.47E1,2.94E1,1.1171034E2,6.32E1,1.01E2,-3.4042355E-3,1.3834191E-2,-1.7963414E-1,2.9737974E-2,1.3742066E-2,-1.3524666E-1,-2.6109696E-3,5.3302765E-2],"split_indices":[62,54,0,0,42,42,30,63,5,42,70,0,0,0,0,0,0,0,0],"split_type":[0,0,0,0,0,0,0,0,0,0,0,0,0,0,0,0,0,0,0],"sum_hessian":[9.18E2,9.16E2,2E0,1.08E2,8.08E2,5.86E2,2.22E2,5.38E2,4.8E1,1E1,2.12E2,2.99E2,2.39E2,1.7E1,3.1E1,6E0,4E0,1E0,2.11E2],"tree_param":{"num_deleted":"0","num_feature":"126","num_nodes":"19","size_leaf_vector":"1"}},{"base_weights":[3.357895E-2,6.157639E-3,5.3944957E-2,-4.2499998E-1,1.042184E-2,6.936709E-2,1.3245037E-2,2.5000002E-3,-3E-2,-2.153846E-1,1.7902816E-2,1.4457835E-2,8.370607E-2,3.636364E-2,-3.5555553E-1,-5.833333E-1,4.375E-3,3.0470917E-2,-1.2903225E-1,4.675325E-2,-3.4285712E-1,9.257951E-2,3.6051195E-9,-4.2499998E-1,4.9285717E-2,-3.6E-2,4E-3,2.5000002E-3,-3.6E-2,-5.6249998E-3,2.0266275E-3,-2.6874999E-2,6.2500016E-4,3.5810813E-3,-2.125E-2,-3.3749998E-2,3.7500001E-3,4.8014442E-3,-2.8571428E-3,4.8076925E-3,-2.0833334E-2,2.5000002E-3,-3E-2,-1.2499999E-2,3.1111112E-3],"categories":[],"categories_nodes":[],"categories_segments":[],"categories_sizes":[],"default_left":[0,0,0,0,0,0,0,0,0,0,0,0,0,0,0,0,0,0,0,0,0,0,0,0,0,0,0,0,0,0,0,0,0,0,0,0,0,0,0,0,0,0,0,0,0],"id":35,"left_children":[1,3,5,7,9,11,13,-1,-1,15,17,19,21,23,25,27,-1,29,31,33,35,37,39,41,43,-1,-1,-1,-1,-1,-1,-1,-1,-1,-1,-1,-1,-1,-1,-1,-1,-1,-1,-1,-1],"loss_changes":[5.302074E-1,7.508776E-1,3.4116662E-1,3.6249995E-1,6.846249E-1,3.0979013E-1,1.3003787E0,0E0,0E0,1.4998395E0,7.2598934E-1,9.738194E-1,2.324841E-1,8.7348044E-1,1.486222E0,5.553334E-1,0E0,5.238657E-1,1.798871E0,9.3378294E-1,1.0221429E0,1.5164232E-1,1.2820512E0,3.6249995E-1,5.5759525E-1,0E0,0E0,0E0,0E0,0E0,0E0,0E0,0E0,0E0,0E0,0E0,0E0,0E0,0E0,0E0,0E0,0E0,0E0,0E0,0E0],"parents":[2147483647,0,0,1,1,2,2,3,3,4,4,5,5,6,6,9,9,10,10,11,11,12,12,13,13,14,14,15,15,17,17,18,18,19,19,20,20,21,21,22,22,23,23,24,24],"right_children":[2,4,6,8,10,12,14,-1,-1,16,18,20,22,24,26,28,-1,30,32,34,36,38,40,42,44,-1,-1,-1,-1,-1,-1,-1,-1,-1,-1,-1,-1,-1,-1,-1,-1,-1,-1,-1,-1],"split_conditions":[-2.555932E1,1.04E2,8.65E1,1.148E2,2.53E1,1.62E1,3.24E1,1.4065552E-2,-1.0942993E-1,1.105E2,9.3E1,9.08E1,3.72E1,8.68E1,1.163E2,1.059E2,2.119957E-1,5.12E1,-5.866667E0,6.36E1,1.158E2,6.3800266E1,1.0459821E2,1.108E2,4.86E1,-2.637558E-1,9.0138435E-2,5.4382056E-1,-1.1655827E-1,-3.4514274E-2,1.1269761E-2,-4.7645685E-1,-8.882316E-2,2.0195123E-2,-2.2151338E-1,-1.306345E-1,2.579035E-1,4.6563264E-2,-1.2537538E-1,1.0801625E-1,-2.4558564E-1,6.265066E-1,-2.1884404E-1,-2.5100192E-1,2.7982524E-2],"split_indices":[120,70,26,0,63,27,62,0,0,8,58,58,59,26,33,12,0,10,123,47,44,24,36,0,42,0,0,0,0,0,0,0,0,0,0,0,0,0,0,0,0,0,0,0,0],"split_type":[0,0,0,0,0,0,0,0,0,0,0,0,0,0,0,0,0,0,0,0,0,0,0,0,0,0,0,0,0,0,0,0,0,0,0,0,0,0,0,0,0,0,0,0,0],"sum_hessian":[9.49E2,4.05E2,5.44E2,3E0,4.02E2,3.94E2,1.5E2,1E0,2E0,1.2E1,3.9E2,8.2E1,3.12E2,1.42E2,8E0,5E0,7E0,3.6E2,3E1,7.6E1,6E0,2.82E2,3E1,3E0,1.39E2,4E0,4E0,1E0,4E0,2.3E1,3.37E2,7E0,2.3E1,7.3E1,3E0,3E0,3E0,2.76E2,6E0,2.5E1,5E0,1E0,2E0,5E0,1.34E2],"tree_param":{"num_deleted":"0","num_feature":"126","num_nodes":"45","size_leaf_vector":"1"}}]},"name":"gbtree"},"learner_model_param":{"base_score":"[4.7E1]","boost_from_average":"1","num_class":"0","num_feature":"126","num_target":"1"},"objective":{"name":"reg:quantileerror","quantile_loss_param":{"quantile_alpha":"[1E-1]"}}},"version":[3,2,0]}